//-----------------------------------------------------------------------------
// Network: bnn_4mu_7TeV_new
// Inputs:
//                                                  Offset       Scale
//    angle_costhetastar                        -5.599e-03   6.015e-01
//    angle_costheta1                            4.125e-04   5.543e-01
//    angle_costheta2                            6.712e-04   5.200e-01
//    angle_phi                                  5.867e-03   1.809e+00
//    angle_phistar1                             1.014e-02   1.797e+00
//    Z1mass                                     8.650e+01   1.008e+01
//    Z2mass                                     3.812e+01   2.031e+01
//    mass4l                                     1.437e+02   2.174e+01
//
// Created: Fri Jan 25 20:09:06 2013
//-----------------------------------------------------------------------------
#include <cmath>
#include <vector>
#include <iostream>
//-----------------------------------------------------------------------------
// Make following visible only to this programming unit
namespace nsbnn_4mu_7TeV_new {
  // NOTE: Network indices start at 0
  static const int nnetworks=100;
  static const int ninputs  =8;
  static const int nhidden  =12;
  static const int nparams  =121;

  static const double mean[ninputs]={
 -5.59900e-03,
  4.12500e-04,
  6.71200e-04,
  5.86700e-03,
  1.01400e-02,
  8.65000e+01,
  3.81200e+01,
  1.43700e+02
  };

  static const double sigma[ninputs]={
  6.01500e-01,
  5.54300e-01,
  5.20000e-01,
  1.80900e+00,
  1.79700e+00,
  1.00800e+01,
  2.03100e+01,
  2.17400e+01
  };

  static const double weight[nnetworks][nparams]={
    {  -4.359,    0.024,   -0.007,   -0.014,   -0.022,    0.022,   -0.227,
        0.089,    2.791,    3.262,    0.018,   -1.168,   -0.275,    0.130,
       -0.069,   -0.420,   -0.666,    0.726,   -5.260,    0.062,   -0.051,
       -0.061,    0.034,    0.014,   -0.073,   -0.347,   -3.082,   -2.950,
        0.071,    1.193,   -0.304,   -0.072,    0.036,   -0.360,   -0.476,
        0.398,    2.658,   -1.238,   -0.069,    0.071,    0.005,   -0.051,
       -0.153,    0.515,   -0.177,   -2.883,    0.184,   -0.254,    0.752,
        0.179,   -0.041,   -0.222,   -0.743,    0.264,    1.629,    0.180,
       -0.002,   -0.006,    0.042,    0.005,   -0.352,    0.584,    0.011,
        1.392,    0.074,   -0.843,   -0.547,   -0.445,   -0.160,   -0.108,
        0.155,   -0.090,    1.471,    0.013,    0.635,    0.688,   -0.609,
       -0.021,   -0.075,    0.404,   -0.073,   -2.415,   -0.213,   -0.711,
       -0.649,    0.427,    0.034,    0.203,    0.557,   -0.896,    0.590,
       -0.199,   -0.106,   -0.071,   -0.663,   -0.165,    0.517,    0.189,
       -0.061,   -2.565,   -0.121,   -1.154,    0.101,   -0.105,    0.206,
       -0.687,   -0.361,    0.564,  -20.216,   -4.652,   -2.384,   -2.751,
       -2.436,    2.589,   -5.025,    5.606,    1.324,    1.489,    1.158,
       -1.016,   -1.152
    },
    {  -4.776,    0.076,    0.000,    0.003,    0.042,    0.082,   -0.182,
        0.147,    2.949,    2.776,   -0.040,   -0.605,   -0.663,    0.104,
       -0.066,   -0.416,   -0.447,    0.620,   -4.245,    0.027,   -0.047,
       -0.030,    0.015,    0.022,   -0.158,   -0.426,   -2.357,   -2.624,
       -0.100,    0.793,   -0.427,    0.128,    0.063,   -0.392,   -0.710,
        0.667,    2.892,   -1.274,   -0.062,    0.090,    0.052,   -0.015,
       -0.102,    0.455,   -0.150,   -2.299,    0.194,    0.072,    0.603,
        0.084,   -0.032,   -0.016,   -0.671,    0.139,    1.665,    0.220,
        0.033,    0.028,    0.066,   -0.037,   -0.424,    0.598,    0.057,
        1.181,   -0.048,   -0.603,   -0.633,   -0.460,   -0.050,   -0.074,
       -0.035,   -0.005,    1.150,   -0.025,    0.685,    0.588,   -0.777,
        0.089,    0.086,    0.265,   -0.137,   -2.895,   -0.396,   -0.781,
       -0.602,   -0.024,   -0.046,    0.531,    0.429,   -1.126,    0.401,
       -0.105,   -0.025,   -0.132,   -0.493,   -0.054,    0.297,   -0.045,
        0.004,   -2.913,   -0.080,   -1.157,    0.177,    0.000,    0.017,
       -0.323,   -0.408,    0.479,  -20.070,   -5.042,   -3.411,   -3.040,
       -2.469,    3.498,   -3.533,    4.204,    1.999,    1.323,    1.013,
       -2.232,   -3.327
    },
    {  -5.487,    0.022,    0.016,    0.079,    0.012,   -0.027,   -0.160,
        0.142,    3.542,    3.765,   -0.150,   -0.948,   -0.930,    0.172,
       -0.197,   -0.592,   -0.738,    1.153,   -4.693,    0.004,   -0.085,
       -0.049,   -0.004,   -0.024,   -0.079,   -0.235,   -2.833,   -3.043,
        0.045,    1.122,   -0.205,   -0.007,   -0.008,   -0.363,   -0.448,
        0.405,    2.321,   -1.032,   -0.127,    0.040,   -0.018,   -0.001,
       -0.095,    0.448,   -0.053,   -2.715,    0.043,   -0.197,    0.923,
        0.098,   -0.013,   -0.173,   -0.860,    0.208,    1.590,    0.204,
        0.027,    0.125,    0.091,    0.003,   -0.449,    0.696,   -0.038,
        1.827,    0.075,   -0.996,   -0.834,   -0.786,   -0.153,   -0.134,
        0.353,   -0.071,    1.807,   -0.053,    1.082,    0.873,   -1.244,
        0.239,    0.091,    0.294,   -0.117,   -2.157,    0.037,   -0.336,
       -0.303,   -0.019,   -0.031,    0.234,    0.533,   -0.929,    0.659,
       -0.168,   -0.199,   -0.185,   -0.714,   -0.007,    0.474,   -0.045,
        0.119,   -3.564,    0.040,   -1.392,   -0.005,   -0.104,    0.143,
       -0.417,   -0.355,    0.516,  -17.989,   -4.440,   -1.330,   -2.972,
       -3.219,    3.024,   -2.995,    3.483,    1.333,    0.888,    2.773,
       -1.452,   -2.943
    },
    {  -3.625,    0.033,    0.000,    0.054,    0.017,    0.032,   -0.178,
        0.146,    2.137,    4.568,   -0.113,   -1.039,   -0.624,    0.457,
       -0.000,   -0.578,   -0.524,    1.178,   -4.960,   -0.038,   -0.127,
       -0.098,    0.025,    0.007,   -0.039,   -0.220,   -3.035,   -2.861,
       -0.024,    0.821,   -0.283,   -0.007,    0.040,   -0.287,   -0.356,
        0.540,    2.135,   -1.144,   -0.163,    0.062,   -0.002,    0.010,
       -0.057,    0.600,   -0.136,   -2.611,    0.090,   -0.121,    1.035,
        0.090,   -0.035,   -0.234,   -0.891,    0.368,    1.291,    0.163,
        0.008,    0.051,    0.082,    0.032,   -0.494,    0.496,    0.061,
        2.184,    0.163,   -1.418,   -0.991,   -0.813,   -0.242,   -0.219,
        0.387,   -0.001,    1.571,    0.052,    0.978,    0.929,   -0.796,
        0.124,   -0.067,    0.413,   -0.126,   -2.175,   -0.240,   -0.535,
       -0.521,    0.029,   -0.028,    0.334,    0.662,   -1.262,    0.692,
       -0.347,   -0.267,   -0.083,   -1.004,   -0.018,    0.578,   -0.102,
       -0.089,   -3.407,   -0.182,   -1.109,    0.115,   -0.188,    0.050,
       -0.361,   -0.322,    0.315,  -20.185,   -5.710,   -3.325,   -2.708,
       -4.978,    1.704,   -1.941,    3.529,    0.830,    0.941,    1.177,
       -0.605,   -5.418
    },
    {  -5.380,    0.030,    0.003,   -0.013,   -0.034,   -0.063,   -0.232,
        0.137,    3.502,    3.599,   -0.122,   -0.875,   -0.535,    0.232,
       -0.135,   -0.422,   -0.510,    1.026,   -4.135,   -0.036,    0.006,
        0.008,   -0.003,    0.016,   -0.054,   -0.340,   -2.396,   -3.373,
        0.030,    1.181,   -0.211,   -0.036,   -0.003,   -0.332,   -0.382,
        0.475,    2.322,   -0.663,   -0.059,    0.048,   -0.006,   -0.024,
       -0.142,    0.544,   -0.128,   -2.121,    0.125,   -0.006,    1.055,
        0.131,   -0.025,    0.034,   -0.891,    0.234,    1.375,    0.401,
       -0.015,    0.159,    0.022,   -0.001,   -0.537,    0.542,    0.125,
        1.807,   -0.077,   -1.156,   -0.912,   -0.625,   -0.168,   -0.107,
        0.148,    0.170,    1.568,    0.093,    1.235,    0.922,   -1.254,
        0.330,    0.267,    0.776,   -0.497,   -1.988,   -0.491,   -0.195,
       -0.405,    0.030,   -0.059,    0.476,    0.248,   -0.832,    0.651,
       -0.198,   -0.036,   -0.146,   -0.583,   -0.035,    0.351,    0.192,
        0.237,   -2.612,   -0.035,   -1.015,    0.024,   -0.014,    0.069,
       -0.324,   -0.666,    0.363,  -18.492,   -4.243,   -3.347,   -3.139,
       -4.293,    7.357,   -1.159,    2.843,    0.739,    0.574,    1.564,
       -1.008,   -2.175
    },
    {  -4.337,   -0.008,   -0.004,    0.032,    0.007,    0.033,   -0.213,
        0.157,    2.668,    2.599,   -0.010,   -0.436,   -0.681,    0.111,
       -0.155,   -0.437,   -0.453,    0.818,   -5.733,    0.008,   -0.072,
       -0.095,   -0.053,    0.017,   -0.075,   -0.297,   -3.560,   -2.674,
       -0.014,    0.740,   -0.209,    0.061,    0.079,   -0.278,   -0.351,
        0.376,    2.844,   -1.246,   -0.083,    0.003,    0.048,    0.006,
       -0.073,    0.592,   -0.238,   -1.796,    0.074,   -0.146,    1.083,
        0.062,    0.073,   -0.111,   -0.507,   -0.047,    1.287,    0.193,
        0.025,    0.085,    0.072,   -0.006,   -0.482,    0.566,    0.105,
        1.596,   -0.129,   -0.811,   -0.780,   -0.590,   -0.156,   -0.140,
        0.097,   -0.038,    1.780,   -0.132,    1.436,    1.326,   -1.307,
        0.370,    0.211,    0.355,   -0.009,   -2.169,   -0.098,   -0.321,
       -0.331,   -0.063,   -0.004,    0.261,    0.275,   -0.907,    0.804,
       -0.257,   -0.065,   -0.180,   -0.583,   -0.074,    0.502,   -0.008,
       -0.035,   -3.026,    0.151,   -1.401,   -0.064,   -0.018,    0.122,
       -0.552,   -0.596,    0.567,  -16.910,   -5.404,   -2.712,   -2.779,
       -6.127,    3.632,   -1.093,    3.413,    1.309,    0.712,    2.805,
       -1.458,   -1.698
    },
    {  -4.482,    0.047,   -0.012,   -0.006,   -0.024,    0.021,   -0.146,
        0.099,    2.781,    3.416,   -0.013,   -0.613,   -0.746,    0.009,
       -0.034,   -0.358,   -0.600,    0.971,   -4.415,   -0.028,   -0.110,
       -0.029,   -0.002,    0.019,    0.010,   -0.185,   -2.667,   -3.309,
       -0.003,    1.312,   -0.269,    0.022,    0.057,   -0.435,   -0.623,
        0.622,    2.262,   -1.059,   -0.083,    0.083,    0.042,    0.035,
        0.013,    0.578,   -0.172,   -2.110,    0.021,   -0.159,    0.722,
       -0.013,   -0.006,   -0.056,   -0.680,    0.319,    1.431,    0.249,
        0.040,    0.151,    0.051,   -0.026,   -0.483,    0.517,    0.046,
        1.542,   -0.000,   -0.633,   -0.782,   -0.604,    0.012,   -0.137,
        0.285,    0.123,    1.933,   -0.163,    1.301,    1.002,   -1.105,
        0.339,    0.037,    0.231,   -0.029,   -2.270,   -0.260,   -0.425,
       -0.390,   -0.011,    0.088,    0.535,    0.857,   -1.399,    0.764,
       -0.202,    0.077,   -0.297,   -0.755,    0.033,    0.427,    0.019,
        0.201,   -3.615,   -0.126,   -1.563,    0.129,   -0.010,    0.121,
       -0.428,   -0.516,    0.360,  -16.501,   -5.391,   -2.926,   -3.284,
       -2.422,    2.457,   -2.283,    3.678,    1.407,    0.722,    1.654,
       -1.039,   -2.712
    },
    {  -4.709,    0.033,    0.038,    0.058,   -0.047,    0.030,   -0.143,
        0.119,    2.954,    3.875,   -0.392,   -0.937,   -0.737,    0.174,
       -0.164,   -0.386,   -0.762,    1.471,   -5.211,    0.006,   -0.057,
        0.050,   -0.019,    0.027,   -0.102,   -0.470,   -3.129,   -3.034,
        0.056,    1.161,   -0.253,    0.134,    0.043,   -0.322,   -0.576,
        0.638,    2.122,   -0.838,   -0.051,    0.085,    0.008,   -0.004,
       -0.063,    0.637,   -0.149,   -2.529,    0.197,   -0.068,    1.088,
        0.057,   -0.068,   -0.201,   -0.833,    0.361,    1.518,    0.330,
        0.027,    0.088,    0.019,   -0.063,   -0.420,    0.586,    0.023,
        2.060,   -0.063,   -1.293,   -1.085,   -0.649,   -0.252,   -0.320,
       -0.155,    0.341,    1.951,    0.041,    1.503,    0.947,   -1.555,
        0.157,   -0.020,    0.536,   -0.415,   -2.732,   -0.740,   -0.103,
       -0.344,    0.250,    0.417,    0.674,    0.771,   -1.245,    0.663,
       -0.323,   -0.011,   -0.258,   -0.631,   -0.142,    0.580,    0.156,
       -0.037,   -3.700,   -0.126,   -1.251,   -0.042,   -0.072,    0.049,
       -0.476,   -0.723,    0.622,  -17.926,   -4.991,   -1.732,   -2.533,
       -2.538,    3.368,   -1.908,    3.586,    0.793,    0.562,    1.172,
       -0.995,   -3.555
    },
    {  -4.971,    0.032,    0.003,    0.001,    0.022,    0.052,   -0.138,
        0.108,    3.176,    3.933,    0.084,   -0.988,   -0.716,    0.355,
       -0.088,   -0.571,   -0.855,    1.013,   -5.400,    0.007,   -0.154,
        0.013,    0.004,    0.038,   -0.147,   -0.406,   -3.211,   -3.054,
        0.092,    1.195,   -0.377,    0.090,    0.087,   -0.584,   -0.689,
        0.745,    2.659,   -1.325,   -0.111,    0.005,   -0.047,    0.090,
       -0.047,    0.523,   -0.093,   -2.604,    0.184,    0.102,    0.915,
        0.130,   -0.107,   -0.110,   -0.779,    0.432,    1.358,    0.161,
       -0.024,    0.142,    0.064,    0.009,   -0.570,    0.690,    0.035,
        1.558,    0.071,   -0.809,   -0.975,   -0.684,   -0.150,   -0.242,
        0.085,    0.154,    1.232,    0.017,    0.982,    0.606,   -0.734,
        0.109,    0.058,    0.165,   -0.228,   -3.039,   -0.207,   -0.515,
       -0.699,   -0.451,   -0.058,    0.630,    0.601,   -0.825,    0.422,
       -0.104,    0.056,   -0.206,   -0.632,   -0.024,    0.326,   -0.216,
        0.256,   -2.951,   -0.023,   -1.000,    0.277,   -0.055,    0.067,
       -0.298,   -0.578,    0.392,  -13.906,   -4.702,   -2.529,   -2.436,
       -1.368,    1.991,   -1.219,    2.605,    1.175,    0.876,    1.536,
       -1.180,   -4.673
    },
    {  -5.008,    0.013,    0.000,    0.050,   -0.007,   -0.000,   -0.203,
        0.117,    3.250,    3.774,   -0.051,   -0.884,   -0.649,    0.049,
       -0.115,   -0.331,   -0.379,    0.807,   -5.025,    0.087,    0.057,
       -0.015,   -0.044,    0.003,   -0.149,   -0.580,   -2.881,   -2.732,
        0.150,    0.800,   -0.285,    0.063,   -0.035,   -0.256,   -0.482,
        0.472,    2.430,   -0.982,    0.019,    0.105,   -0.015,    0.006,
       -0.003,    0.531,   -0.127,   -2.744,    0.174,   -0.211,    0.983,
        0.092,    0.021,   -0.243,   -0.744,    0.354,    1.533,    0.152,
        0.034,    0.046,    0.032,   -0.032,   -0.335,    0.465,    0.033,
        2.283,    0.025,   -1.260,   -1.140,   -0.776,   -0.177,   -0.242,
        0.197,   -0.029,    1.498,    0.014,    0.857,    0.804,   -1.034,
        0.122,   -0.054,    0.086,    0.134,   -2.184,   -0.025,   -0.472,
       -0.441,   -0.117,    0.222,    0.562,    0.350,   -1.405,    0.648,
       -0.171,   -0.136,   -0.094,   -0.596,   -0.063,    0.449,    0.019,
        0.060,   -3.215,   -0.177,   -1.171,   -0.023,    0.034,    0.087,
       -0.567,   -0.494,    0.575,  -21.237,   -4.642,   -4.658,   -2.832,
       -5.301,    3.468,   -2.769,    7.122,    1.093,    0.771,    0.903,
       -1.301,   -2.315
    },
    {  -4.315,    0.006,    0.001,    0.025,    0.005,   -0.008,   -0.090,
        0.150,    2.549,    4.070,    0.103,   -1.040,   -0.634,    0.309,
       -0.476,   -0.548,   -0.610,    1.128,   -5.445,    0.002,   -0.054,
        0.013,   -0.030,   -0.016,   -0.128,   -0.491,   -3.178,   -3.092,
       -0.067,    0.996,   -0.211,    0.106,    0.028,   -0.268,   -0.621,
        0.573,    2.637,   -0.811,   -0.047,    0.011,   -0.003,   -0.001,
        0.019,    0.449,   -0.161,   -3.018,    0.189,   -0.322,    1.268,
        0.171,    0.057,   -0.322,   -0.924,    0.478,    1.301,    0.190,
        0.018,    0.024,    0.046,    0.014,   -0.463,    0.534,    0.025,
        2.135,    0.168,   -1.297,   -0.991,   -0.904,   -0.100,    0.050,
        0.707,   -0.047,    1.943,   -0.133,    1.211,    0.970,   -1.274,
        0.173,    0.037,    0.323,   -0.127,   -2.615,    0.041,   -0.447,
       -0.579,    0.178,   -0.057,    0.273,    0.862,   -1.024,    0.827,
       -0.269,    0.060,   -0.136,   -0.915,    0.040,    0.756,    0.332,
       -0.123,   -2.706,   -0.132,   -1.172,   -0.041,   -0.109,    0.049,
       -0.484,   -0.580,    0.499,  -25.051,   -6.083,   -1.322,   -2.652,
       -4.512,    9.619,   -1.427,    3.623,    0.781,    0.795,    1.412,
       -0.863,   -1.512
    },
    {  -5.052,    0.011,    0.002,   -0.032,   -0.046,    0.020,   -0.287,
        0.130,    3.293,    4.468,    0.187,   -0.749,   -0.702,    0.533,
       -0.084,   -0.265,   -0.907,    0.968,   -4.636,   -0.048,   -0.074,
        0.041,   -0.044,    0.023,   -0.054,   -0.273,   -2.740,   -4.111,
        0.085,    1.404,   -0.253,   -0.020,   -0.007,   -0.347,   -0.640,
        0.816,    2.931,   -1.245,   -0.112,    0.091,    0.015,    0.010,
        0.001,    0.464,   -0.199,   -3.059,    0.068,   -0.212,    0.956,
        0.152,    0.021,   -0.170,   -0.735,    0.295,    1.585,    0.146,
       -0.015,    0.053,    0.039,   -0.003,   -0.335,    0.534,    0.031,
        1.515,    0.083,   -0.856,   -0.636,   -0.491,   -0.127,   -0.053,
        0.288,   -0.278,    1.501,    0.091,    0.978,    0.827,   -0.825,
        0.105,   -0.349,    0.368,    0.275,   -1.868,   -0.218,   -0.412,
       -0.253,    0.017,    0.074,    0.298,    0.417,   -0.868,    0.709,
       -0.222,   -0.168,   -0.188,   -0.889,   -0.121,    0.725,    0.123,
        0.056,   -3.020,   -0.078,   -1.121,   -0.118,   -0.085,    0.103,
       -0.256,   -0.391,    0.392,  -23.146,   -4.447,   -5.009,   -3.126,
       -4.253,    4.202,   -5.100,    5.901,    1.054,    0.682,    1.682,
       -0.705,   -3.905
    },
    {  -4.284,   -0.000,   -0.002,   -0.007,   -0.010,    0.019,   -0.190,
        0.132,    2.613,    3.880,   -0.208,   -0.774,   -1.023,   -0.092,
       -0.142,   -0.340,   -0.282,    0.740,   -4.986,    0.047,   -0.094,
        0.004,   -0.038,    0.049,   -0.118,   -0.319,   -2.973,   -3.350,
        0.166,    0.952,   -0.788,   -0.091,   -0.057,   -0.567,   -0.593,
        0.599,    2.435,   -0.930,   -0.016,   -0.071,    0.039,    0.006,
       -0.063,    0.492,   -0.137,   -2.553,   -0.084,   -0.153,    1.330,
        0.022,   -0.056,   -0.249,   -0.847,    0.243,    1.607,    0.127,
       -0.020,    0.054,    0.032,    0.006,   -0.353,    0.500,    0.017,
        2.179,   -0.005,   -1.267,   -0.819,   -0.670,   -0.114,   -0.139,
        0.269,   -0.157,    1.679,    0.011,    1.329,    0.982,   -1.130,
        0.140,    0.054,    0.175,    0.043,   -2.431,   -0.074,   -0.294,
       -0.372,   -0.218,    0.026,    0.481,    0.845,   -1.298,    0.841,
       -0.301,   -0.137,   -0.220,   -0.962,    0.092,    0.710,   -0.120,
        0.259,   -3.428,   -0.138,   -1.492,   -0.034,   -0.087,    0.053,
       -0.544,   -0.680,    0.918,  -18.018,   -5.466,   -2.479,   -2.745,
       -1.873,    3.686,   -1.049,    7.546,    1.147,    0.719,    2.134,
       -0.791,   -1.551
    },
    {  -5.166,    0.009,    0.017,    0.017,   -0.036,    0.057,   -0.158,
        0.139,    3.277,    4.294,   -0.096,   -0.959,   -0.631,    0.364,
       -0.052,   -0.331,   -0.317,    0.865,   -4.627,   -0.014,    0.004,
       -0.014,    0.014,    0.036,   -0.156,   -0.347,   -2.609,   -3.149,
        0.099,    1.206,   -0.318,   -0.055,   -0.023,   -0.393,   -0.271,
        0.493,    2.271,   -0.906,   -0.050,   -0.001,    0.083,    0.064,
       -0.182,    0.620,   -0.083,   -2.891,   -0.338,   -0.077,    1.662,
       -0.175,   -0.012,    0.090,   -1.106,    0.133,    1.613,    0.296,
        0.006,    0.211,    0.039,   -0.037,   -0.511,    0.830,   -0.008,
        1.884,   -0.094,   -1.115,   -1.054,   -0.554,   -0.197,   -0.348,
        0.086,    0.208,    1.871,   -0.027,    1.438,    1.238,   -1.343,
        0.233,    0.096,    0.298,   -0.292,   -3.619,   -0.711,   -0.275,
       -0.732,    0.174,    0.471,    0.553,   -0.254,   -0.808,    1.051,
       -0.129,   -0.137,   -0.123,   -0.458,   -0.124,    0.290,   -0.679,
        0.856,   -2.947,    0.017,   -0.804,    0.264,   -0.123,    0.118,
       -0.263,   -0.429,    0.301,  -14.497,   -4.694,   -6.453,   -3.245,
       -3.004,    2.743,   -0.599,    2.848,    0.924,    0.527,    1.176,
       -0.998,   -6.644
    },
    {  -5.051,    0.024,    0.031,   -0.002,   -0.001,    0.022,   -0.139,
        0.139,    3.167,    3.312,    0.036,   -0.702,   -0.613,    0.180,
       -0.111,   -0.244,   -0.638,    0.819,   -4.749,    0.035,   -0.048,
       -0.097,    0.001,   -0.019,   -0.123,   -0.395,   -2.748,   -3.058,
       -0.058,    1.048,   -0.671,   -0.056,    0.059,   -0.504,   -0.577,
        0.519,    2.775,   -1.353,   -0.055,    0.094,    0.006,    0.077,
        0.002,    0.485,   -0.228,   -1.857,    0.188,   -0.371,    1.071,
       -0.048,    0.175,   -0.226,   -0.855,    0.126,    1.644,    0.197,
       -0.023,    0.058,    0.076,    0.010,   -0.556,    0.825,   -0.029,
        2.140,    0.001,   -1.419,   -0.941,   -0.780,   -0.058,   -0.270,
        0.324,    0.105,    1.944,    0.094,    1.164,    1.066,   -1.090,
        0.120,   -0.227,    0.046,    0.206,   -4.846,    0.154,   -0.448,
       -0.251,   -1.306,   -0.251,    0.465,    0.721,   -1.603,    0.646,
       -0.215,   -0.106,   -0.039,   -0.524,   -0.022,    0.412,   -0.314,
        0.259,   -4.085,   -0.120,   -1.676,   -0.001,   -0.165,    0.041,
       -0.505,   -0.800,    0.873,  -12.945,   -5.162,   -2.598,   -2.876,
       -1.986,    2.647,   -0.731,    2.985,    0.939,    0.686,    2.266,
       -1.187,   -2.786
    },
    {  -4.709,   -0.003,   -0.015,    0.016,   -0.000,   -0.016,   -0.215,
        0.123,    3.016,    4.385,   -0.144,   -1.036,   -0.588,    0.344,
       -0.023,   -0.678,   -0.618,    1.203,   -5.286,    0.007,   -0.032,
        0.038,   -0.048,   -0.015,   -0.151,   -0.480,   -3.090,   -3.015,
       -0.090,    0.910,   -0.450,    0.061,    0.039,   -0.320,   -0.584,
        0.663,    2.388,   -0.954,   -0.139,    0.081,    0.052,    0.039,
       -0.137,    0.489,   -0.005,   -2.975,    0.259,   -0.297,    1.129,
        0.205,    0.029,   -0.275,   -0.853,    0.531,    1.852,    0.204,
        0.001,   -0.007,    0.100,   -0.014,   -0.386,    0.561,    0.047,
        2.187,    0.044,   -1.339,   -1.081,   -0.816,   -0.022,   -0.142,
        0.268,   -0.005,    1.872,    0.117,    1.407,    1.010,   -1.435,
        0.333,    0.001,    0.652,   -0.351,   -4.825,    0.185,   -0.195,
       -0.294,   -1.675,   -0.089,    0.372,    0.399,   -1.087,    0.490,
       -0.049,   -0.060,   -0.133,   -0.381,    0.001,    0.236,   -0.163,
        0.207,   -3.597,   -0.198,   -1.351,   -0.054,   -0.183,    0.034,
       -0.416,   -0.727,    0.683,  -16.771,   -4.570,   -3.172,   -2.589,
       -2.774,    3.164,   -2.181,    7.155,    0.939,    0.599,    3.330,
       -1.316,   -2.296
    },
    {  -4.605,    0.025,   -0.061,    0.028,    0.010,    0.017,   -0.143,
        0.214,    2.814,    3.139,    0.052,   -0.730,   -0.651,    0.084,
       -0.036,   -0.395,   -0.420,    0.771,   -4.622,   -0.001,   -0.022,
        0.066,   -0.048,    0.012,   -0.153,   -0.620,   -2.507,   -3.140,
        0.037,    1.115,   -0.272,   -0.008,    0.075,   -0.366,   -0.502,
        0.550,    2.954,   -1.208,   -0.030,    0.068,    0.117,   -0.017,
       -0.050,    0.485,   -0.147,   -2.669,    0.044,   -0.214,    1.036,
        0.101,    0.007,   -0.252,   -0.572,    0.418,    1.361,    0.085,
       -0.015,    0.013,    0.060,   -0.002,   -0.248,    0.440,    0.016,
        1.979,    0.115,   -1.069,   -0.940,   -0.613,   -0.166,   -0.170,
        0.155,   -0.067,    1.477,    0.185,    0.768,    0.691,   -1.258,
        0.057,    0.115,    0.283,   -0.262,   -3.537,    0.236,    0.042,
        0.011,   -1.539,    0.127,    0.227,   -0.459,   -0.344,    0.340,
       -0.006,   -0.008,   -0.088,   -0.527,   -0.092,    0.286,    0.108,
        0.088,   -3.939,   -0.192,   -1.563,   -0.068,   -0.306,    0.129,
       -0.569,   -0.634,    0.691,  -21.511,   -4.517,   -2.707,   -2.919,
       -3.142,    4.811,   -2.441,    7.533,    1.102,    0.903,    1.658,
       -1.174,   -1.959
    },
    {  -4.970,    0.037,   -0.003,    0.042,   -0.025,   -0.021,   -0.179,
        0.188,    3.154,    4.200,    0.111,   -1.066,   -1.056,    0.104,
       -0.041,   -0.997,   -0.439,    0.855,   -5.004,   -0.013,    0.024,
       -0.075,   -0.031,    0.052,   -0.162,   -0.518,   -2.824,   -3.554,
        0.102,    0.677,   -0.790,   -0.166,    0.078,   -0.355,   -0.305,
        0.323,    3.446,   -1.898,   -0.096,    0.007,    0.197,    0.083,
       -0.108,    0.657,   -0.144,   -2.979,    0.154,   -0.395,    1.582,
        0.095,    0.131,   -0.530,   -0.915,    0.135,    1.297,    0.114,
       -0.013,   -0.009,    0.143,    0.020,   -0.421,    0.544,    0.007,
        2.189,    0.111,   -1.374,   -0.851,   -0.729,   -0.208,   -0.208,
        0.509,   -0.170,    1.810,    0.091,    1.028,    1.036,   -1.353,
        0.117,   -0.155,    0.633,   -0.287,   -2.969,    0.179,    0.087,
        0.139,   -1.223,   -0.038,    0.330,   -0.809,   -0.321,    1.234,
       -0.077,   -0.327,   -0.164,   -0.748,   -0.071,    0.345,   -0.506,
        0.776,   -3.965,   -0.035,   -1.718,    0.051,   -0.147,    0.005,
       -0.415,   -0.568,    0.747,  -19.397,   -4.375,   -0.898,   -2.758,
       -6.608,    1.521,   -0.782,    4.454,    1.044,    0.633,    1.006,
       -0.795,   -2.350
    },
    {  -4.953,   -0.002,   -0.043,    0.018,   -0.021,    0.002,   -0.132,
        0.219,    3.142,    4.657,   -0.245,   -1.066,   -0.987,    0.009,
        0.147,   -0.305,   -0.267,    0.685,   -5.485,   -0.021,   -0.035,
       -0.026,   -0.151,    0.002,   -0.097,   -0.608,   -3.129,   -3.090,
       -0.237,    0.333,   -0.961,   -0.054,    0.082,   -0.459,   -0.447,
        0.760,    2.148,   -0.806,   -0.054,    0.059,    0.059,    0.041,
       -0.083,    0.491,   -0.157,   -2.635,    0.297,   -0.180,    1.121,
        0.175,    0.028,   -0.278,   -0.622,    0.356,    1.769,    0.176,
       -0.066,   -0.036,    0.099,   -0.014,   -0.394,    0.567,    0.022,
        2.743,    0.039,   -1.704,   -1.019,   -0.804,   -0.096,    0.221,
        0.403,   -0.556,    1.755,    0.081,    0.973,    0.751,   -1.443,
        0.130,   -0.239,    0.331,    0.164,   -5.035,    0.238,    0.125,
        0.181,   -2.529,   -0.054,    0.377,   -0.303,   -0.768,    0.568,
       -0.184,    0.146,   -0.080,   -0.589,    0.048,    0.517,   -0.164,
        0.099,   -3.093,   -0.146,   -1.285,   -0.044,   -0.075,    0.002,
       -0.302,   -0.675,    0.461,  -19.034,   -4.148,   -2.984,   -2.784,
       -2.725,    3.947,   -1.643,    6.606,    0.770,    0.693,    0.990,
       -0.895,   -2.670
    },
    {  -5.198,    0.040,   -0.056,    0.057,   -0.022,    0.044,   -0.159,
        0.163,    3.309,    2.819,   -0.149,   -0.791,   -0.465,    0.160,
       -0.066,   -0.436,   -0.578,    0.881,   -4.281,    0.051,    0.005,
        0.008,   -0.079,    0.005,   -0.073,   -0.227,   -2.502,   -3.144,
       -0.140,    0.351,   -0.997,    0.051,    0.067,   -0.553,   -0.489,
        0.844,    2.459,   -0.963,   -0.071,    0.095,    0.037,    0.034,
       -0.106,    0.493,   -0.014,   -3.721,    0.246,    0.035,    1.409,
        0.061,   -0.120,   -0.242,   -0.881,    0.479,    1.729,    0.232,
        0.013,    0.010,    0.075,   -0.016,   -0.440,    0.733,    0.008,
        1.622,   -0.095,   -1.044,   -0.506,   -0.389,   -0.060,   -0.112,
        0.222,   -0.046,    1.559,   -0.024,    1.221,    1.024,   -1.481,
        0.266,    0.229,    0.037,    0.113,   -4.939,    0.140,   -0.159,
       -0.188,   -1.525,   -0.088,    0.442,   -0.061,   -1.538,    0.599,
       -0.164,   -0.044,    0.031,   -0.491,   -0.007,    0.392,   -0.240,
        0.261,   -3.264,   -0.017,   -1.394,    0.184,    0.079,    0.077,
       -0.489,   -0.637,    0.607,  -16.857,   -4.668,   -2.500,   -3.359,
       -2.121,    3.847,   -2.554,    4.194,    1.415,    0.630,    2.210,
       -1.393,   -1.919
    },
    {  -4.706,    0.010,   -0.006,    0.060,   -0.028,    0.004,   -0.300,
        0.124,    3.039,    3.573,   -0.128,   -1.033,   -0.739,    0.156,
       -0.102,   -0.439,   -0.562,    0.786,   -4.997,    0.047,    0.036,
        0.034,   -0.046,   -0.028,   -0.121,   -0.292,   -3.063,   -2.997,
       -0.058,    0.363,   -1.133,    0.003,   -0.015,   -0.503,   -0.491,
        0.716,    2.316,   -0.893,   -0.049,    0.021,    0.108,    0.040,
       -0.090,    0.480,   -0.080,   -3.066,    0.111,   -0.003,    1.156,
        0.036,   -0.046,   -0.107,   -0.774,    0.266,    1.616,    0.237,
        0.017,    0.071,    0.088,   -0.040,   -0.475,    0.684,    0.049,
        1.577,    0.041,   -1.094,   -0.540,   -0.516,   -0.124,   -0.080,
        0.378,   -0.131,    1.732,    0.064,    1.144,    0.668,   -1.237,
        0.239,   -0.015,    0.339,   -0.098,   -4.260,    0.276,   -0.027,
        0.145,   -1.614,   -0.074,    0.028,   -0.729,   -0.332,    0.668,
       -0.155,   -0.119,   -0.006,   -0.651,   -0.054,    0.388,   -0.107,
        0.302,   -3.257,   -0.218,   -1.189,    0.195,   -0.109,    0.046,
       -0.430,   -0.701,    0.464,  -16.737,   -4.379,   -2.412,   -2.680,
       -2.015,    4.611,   -3.130,    3.625,    1.287,    0.850,    2.514,
       -1.146,   -2.392
    },
    {  -5.183,    0.052,   -0.034,    0.018,    0.003,    0.020,   -0.308,
        0.141,    3.321,    4.402,   -0.223,   -1.959,   -0.943,   -0.012,
       -0.286,   -0.642,   -0.487,    0.577,   -4.592,   -0.051,   -0.016,
       -0.007,   -0.109,   -0.001,   -0.043,   -0.404,   -2.634,   -3.421,
       -0.127,    0.382,   -1.221,   -0.152,    0.077,   -0.702,   -0.307,
        1.008,    2.068,   -0.805,   -0.068,    0.057,    0.064,    0.022,
       -0.077,    0.534,   -0.017,   -2.511,    0.084,   -0.122,    0.799,
        0.097,    0.027,   -0.069,   -0.734,    0.237,    1.555,    0.230,
       -0.017,    0.054,    0.077,    0.011,   -0.390,    0.563,   -0.072,
        2.016,   -0.030,   -1.413,   -0.593,   -0.507,   -0.076,   -0.068,
        0.310,   -0.276,    2.123,   -0.055,    1.229,    0.953,   -1.337,
        0.329,   -0.250,    0.891,    0.058,   -4.786,    0.222,   -0.136,
       -0.124,   -1.536,   -0.344,    0.782,    0.094,   -1.579,    0.547,
       -0.340,   -0.252,   -0.116,   -0.684,    0.085,    0.598,   -0.144,
        0.431,   -3.835,   -0.007,   -1.859,    0.053,   -0.138,    0.056,
       -0.427,   -0.884,    0.665,  -18.564,   -4.863,   -0.687,   -3.200,
       -1.525,    3.199,   -3.294,    4.360,    1.145,    0.563,    1.204,
       -0.714,   -1.207
    },
    {  -5.285,    0.072,    0.029,    0.010,   -0.034,    0.008,   -0.185,
        0.094,    3.327,    5.545,    0.093,   -1.681,   -1.146,    0.422,
       -0.284,   -0.889,   -1.291,    1.474,   -5.088,    0.019,   -0.040,
        0.015,   -0.053,    0.006,   -0.126,   -0.483,   -2.950,   -3.422,
       -0.205,    0.491,   -1.282,   -0.104,    0.007,   -0.644,   -0.548,
        0.716,    2.575,   -0.985,   -0.089,    0.061,    0.077,   -0.013,
       -0.044,    0.456,   -0.059,   -4.011,    0.254,   -0.146,    1.402,
        0.072,   -0.014,   -0.304,   -0.901,    0.652,    1.509,    0.159,
       -0.020,    0.001,    0.079,    0.023,   -0.425,    0.505,    0.008,
        2.345,    0.113,   -1.693,   -0.667,   -0.687,   -0.142,    0.058,
        0.525,   -0.150,    2.085,   -0.027,    1.407,    1.092,   -1.410,
        0.240,   -0.400,    0.720,   -0.119,   -4.042,    0.391,   -0.102,
       -0.357,   -1.686,    0.256,    0.269,   -0.058,   -0.760,    0.814,
       -0.260,   -0.330,    0.003,   -0.596,   -0.008,    0.389,   -0.228,
        0.565,   -3.763,   -0.138,   -1.867,    0.118,   -0.223,    0.038,
       -0.378,   -1.206,    0.786,  -22.053,   -5.725,   -1.253,   -2.757,
       -1.699,    4.827,   -4.542,    4.977,    0.996,    0.608,    0.816,
       -0.819,   -0.922
    },
    {  -4.880,   -0.023,    0.000,    0.032,   -0.036,   -0.006,   -0.308,
        0.156,    3.081,    2.705,    0.046,   -0.661,   -0.871,    0.099,
        0.021,   -0.471,   -0.324,    0.589,   -4.424,    0.044,    0.026,
       -0.001,   -0.025,    0.001,   -0.114,   -0.422,   -2.549,   -2.958,
       -0.043,    0.605,   -0.984,    0.048,    0.053,   -0.649,   -0.543,
        0.574,    2.327,   -1.176,   -0.027,    0.079,    0.236,    0.024,
       -0.219,    0.642,   -0.102,   -3.300,    0.235,   -0.068,    0.991,
        0.067,   -0.053,   -0.197,   -0.578,    0.276,    1.629,    0.205,
       -0.044,   -0.041,    0.094,    0.008,   -0.429,    0.594,   -0.025,
        1.289,    0.053,   -0.739,   -0.581,   -0.405,   -0.072,   -0.135,
        0.053,    0.120,    1.616,   -0.001,    1.004,    0.906,   -1.140,
        0.148,   -0.158,    0.161,   -0.021,   -3.706,    0.317,   -0.140,
        0.161,   -1.299,    0.068,    0.187,   -0.668,   -0.611,    0.734,
       -0.059,   -0.130,   -0.130,   -0.521,   -0.070,    0.358,   -0.345,
        0.451,   -2.515,   -0.180,   -0.943,    0.057,   -0.169,    0.028,
       -0.234,   -0.597,    0.298,  -21.931,   -5.016,   -1.734,   -2.830,
       -1.835,    1.972,   -7.107,    4.792,    1.581,    0.813,    1.319,
       -1.196,   -2.481
    },
    {  -4.742,    0.024,   -0.017,    0.022,   -0.014,   -0.011,   -0.239,
        0.118,    3.031,    2.666,   -0.022,   -0.700,   -0.441,   -0.024,
       -0.046,   -0.195,   -0.321,    0.431,   -4.333,    0.045,    0.102,
        0.022,    0.004,   -0.002,   -0.129,   -0.432,   -2.304,   -2.142,
       -0.181,    0.284,   -0.509,   -0.020,    0.018,   -0.179,   -0.335,
        0.344,    2.185,   -0.883,   -0.124,    0.067,    0.132,    0.032,
       -0.124,    0.532,   -0.071,   -3.618,    0.235,   -0.065,    1.154,
        0.058,   -0.069,   -0.203,   -0.766,    0.449,    1.339,    0.217,
        0.054,   -0.044,    0.065,   -0.023,   -0.420,    0.624,    0.092,
        1.638,    0.075,   -0.853,   -0.619,   -0.506,   -0.110,   -0.051,
        0.287,   -0.228,    1.909,    0.091,    1.163,    0.741,   -1.397,
        0.117,   -0.231,    0.414,   -0.084,   -3.788,    0.223,    0.023,
       -0.052,   -1.626,    0.016,    0.234,    0.018,   -0.603,    0.457,
       -0.097,   -0.014,   -0.076,   -0.593,   -0.090,    0.361,    0.096,
        0.097,   -3.004,    0.045,   -1.009,    0.025,   -0.084,    0.084,
       -0.285,   -0.565,    0.405,  -22.427,   -4.814,   -3.597,   -3.464,
       -3.704,    3.369,   -5.716,    3.077,    1.665,    0.697,    1.678,
       -0.990,   -4.482
    },
    {  -4.259,    0.020,   -0.016,    0.041,    0.031,    0.009,   -0.182,
        0.206,    2.539,    4.352,    0.024,   -1.391,   -0.800,    0.336,
       -0.225,   -0.603,   -0.846,    0.937,   -4.779,   -0.029,   -0.063,
       -0.036,   -0.049,    0.097,   -0.161,   -0.485,   -2.702,   -2.605,
        0.056,    1.056,   -0.263,    0.061,    0.099,   -0.341,   -0.422,
        0.470,    3.012,   -1.272,   -0.023,    0.079,    0.124,   -0.007,
       -0.081,    0.539,   -0.046,   -3.110,    0.011,   -0.243,    1.138,
        0.263,   -0.073,   -0.316,   -0.994,    0.278,    1.921,    0.152,
        0.019,    0.035,    0.089,    0.006,   -0.339,    0.562,   -0.005,
        1.578,   -0.012,   -0.731,   -0.799,   -0.457,   -0.082,   -0.246,
       -0.047,    0.048,    1.472,    0.128,    0.816,    0.691,   -1.289,
        0.087,   -0.178,    0.045,   -0.006,   -3.956,    0.182,   -0.021,
       -0.060,   -1.722,    0.207,    0.470,   -0.098,   -0.623,    0.490,
       -0.072,   -0.093,   -0.161,   -0.495,   -0.062,    0.277,   -0.329,
        0.285,   -3.358,   -0.043,   -1.388,   -0.014,   -0.164,    0.165,
       -0.390,   -0.625,    0.682,  -23.807,   -5.164,   -1.691,   -3.015,
       -2.291,    3.723,   -1.919,   10.062,    1.380,    0.697,    1.581,
       -1.342,   -2.049
    },
    {  -5.127,    0.014,   -0.023,    0.041,    0.019,    0.009,   -0.175,
        0.171,    3.256,    4.305,    0.098,   -1.252,   -0.549,    0.271,
       -0.023,   -0.510,   -0.813,    0.919,   -5.431,    0.030,    0.002,
       -0.099,   -0.041,    0.002,   -0.125,   -0.409,   -3.208,   -3.353,
        0.076,    0.916,   -0.276,   -0.017,    0.033,   -0.326,   -0.417,
        0.389,    2.684,   -1.116,   -0.079,    0.066,    0.003,   -0.007,
        0.016,    0.340,   -0.148,   -2.609,    0.066,   -0.286,    0.962,
        0.153,   -0.003,   -0.146,   -0.790,    0.144,    1.559,    0.133,
        0.009,    0.046,    0.071,    0.008,   -0.391,    0.546,    0.031,
        2.321,    0.070,   -1.580,   -1.000,   -0.804,   -0.146,   -0.162,
        0.283,   -0.140,    1.954,   -0.097,    1.330,    1.014,   -1.791,
        0.122,    0.055,    0.359,   -0.271,   -4.611,    0.130,    0.088,
       -0.111,   -2.034,   -0.138,   -0.074,   -0.753,   -0.966,    0.775,
       -0.255,   -0.091,   -0.052,   -0.624,   -0.047,    0.291,   -0.375,
        0.490,   -3.078,   -0.052,   -1.028,   -0.129,   -0.040,    0.088,
       -0.366,   -0.386,    0.407,  -25.481,   -4.664,   -4.192,   -2.615,
       -8.806,    4.411,   -2.134,    5.920,    0.900,    0.542,    0.530,
       -1.032,   -3.452
    },
    {  -5.078,   -0.036,   -0.050,    0.009,   -0.021,    0.042,   -0.210,
        0.260,    3.142,    3.659,   -0.026,   -1.127,   -0.758,    0.094,
       -0.016,   -0.509,   -0.632,    0.965,   -4.364,    0.018,   -0.007,
        0.009,   -0.008,   -0.051,   -0.116,   -0.446,   -2.460,   -3.204,
       -0.065,    0.874,   -0.502,   -0.028,    0.033,   -0.380,   -0.307,
        0.550,    2.224,   -0.694,   -0.047,    0.034,    0.043,    0.017,
       -0.067,    0.427,   -0.130,   -3.520,    0.066,   -0.296,    1.269,
        0.125,   -0.009,   -0.213,   -0.528,    0.377,    1.770,    0.193,
       -0.015,   -0.013,    0.094,   -0.011,   -0.325,    0.586,   -0.069,
        1.724,    0.016,   -1.004,   -0.711,   -0.459,   -0.037,   -0.191,
        0.001,    0.151,    1.384,    0.062,    0.925,    0.697,   -1.182,
        0.137,   -0.008,    0.095,   -0.089,   -4.793,    0.258,    0.452,
        0.300,   -2.148,   -0.266,    0.019,   -1.344,   -0.717,    0.812,
       -0.186,   -0.014,   -0.092,   -0.841,    0.024,    0.415,   -0.380,
        0.280,   -3.067,   -0.115,   -1.133,    0.105,   -0.068,    0.024,
       -0.380,   -0.427,    0.411,  -28.789,   -4.792,   -2.597,   -2.925,
       -4.115,    6.661,   -3.947,    7.555,    1.492,    0.969,    0.362,
       -1.124,   -2.809
    },
    {  -4.358,    0.018,   -0.049,   -0.019,   -0.007,    0.020,   -0.296,
        0.165,    2.646,    2.975,   -0.050,   -0.812,   -0.453,    0.083,
       -0.076,   -0.314,   -0.537,    0.700,   -5.476,   -0.039,    0.009,
       -0.025,   -0.030,    0.004,   -0.086,   -0.291,   -3.360,   -3.013,
        0.078,    1.060,   -0.194,   -0.048,    0.097,   -0.399,   -0.512,
        0.531,    2.655,   -1.158,   -0.003,    0.067,    0.069,   -0.004,
       -0.073,    0.459,   -0.133,   -4.421,    0.314,   -0.220,    1.148,
        0.469,   -0.192,   -0.260,   -1.219,    0.358,    1.476,    0.172,
        0.007,    0.061,    0.108,   -0.015,   -0.363,    0.572,   -0.061,
        1.424,   -0.004,   -0.694,   -0.864,   -0.387,   -0.124,   -0.242,
        0.115,    0.114,    2.365,   -0.076,    1.390,    1.143,   -2.107,
        0.142,    0.002,    0.177,   -0.038,   -4.155,   -0.029,    0.140,
       -0.094,   -1.701,    0.085,    0.260,   -0.354,   -0.269,    0.800,
       -0.217,   -0.009,   -0.332,   -0.726,   -0.165,    0.510,   -0.177,
        0.172,   -3.155,   -0.066,   -0.983,    0.122,   -0.025,    0.068,
       -0.248,   -0.530,    0.391,  -27.107,   -5.360,   -3.689,   -2.568,
       -3.617,    3.393,   -4.769,    4.969,    1.502,    0.521,    2.303,
       -0.967,   -9.672
    },
    {  -5.052,    0.054,    0.006,   -0.005,   -0.011,    0.032,   -0.149,
        0.167,    3.080,    3.013,    0.101,   -0.723,   -0.579,    0.126,
       -0.181,   -0.510,   -0.721,    1.093,   -5.000,   -0.014,    0.031,
       -0.069,   -0.027,    0.010,   -0.046,   -0.342,   -3.025,   -3.190,
        0.053,    1.144,   -0.171,    0.004,    0.138,   -0.342,   -0.415,
        0.668,    3.143,   -1.320,   -0.112,    0.021,    0.027,    0.002,
        0.032,    0.685,   -0.148,   -2.399,    0.191,   -0.049,    1.049,
        0.183,   -0.037,   -0.025,   -0.577,    0.156,    1.459,    0.218,
       -0.067,    0.043,    0.057,    0.012,   -0.479,    0.639,    0.035,
        2.268,    0.090,   -1.340,   -1.244,   -1.173,   -0.075,    0.021,
        0.495,   -0.422,    1.906,   -0.164,    1.140,    1.289,   -1.006,
        0.310,   -0.040,    0.740,   -0.107,   -3.723,   -0.366,   -0.195,
       -0.635,   -0.989,   -0.122,    0.679,    0.639,   -1.561,    0.631,
       -0.220,   -0.074,   -0.319,   -0.747,    0.091,    0.659,    0.151,
        0.187,   -2.854,   -0.041,   -0.893,    0.103,    0.011,    0.020,
       -0.247,   -0.427,    0.353,  -22.828,   -5.530,   -1.481,   -2.757,
       -3.069,    3.982,   -1.571,    3.554,    0.751,    0.564,    1.149,
       -0.829,   -6.531
    },
    {  -4.860,   -0.001,   -0.017,    0.069,    0.014,    0.037,   -0.172,
        0.048,    3.088,    3.295,    0.066,   -0.654,   -0.480,    0.486,
       -0.117,   -0.359,   -0.790,    0.857,   -5.487,   -0.012,    0.012,
       -0.110,   -0.063,   -0.051,   -0.111,   -0.258,   -3.433,   -3.176,
       -0.217,    0.970,   -0.544,    0.072,   -0.161,   -0.361,   -0.375,
        0.685,    2.520,   -1.247,   -0.143,    0.084,    0.027,    0.018,
       -0.014,    0.595,   -0.215,   -2.664,    0.099,   -0.341,    1.027,
        0.150,   -0.026,   -0.181,   -1.006,    0.316,    1.446,    0.191,
        0.004,    0.074,    0.019,   -0.029,   -0.449,    0.711,    0.082,
        1.904,    0.092,   -1.272,   -0.872,   -0.709,   -0.029,    0.003,
        0.157,    0.006,    1.705,   -0.224,    1.104,    0.835,   -1.322,
        0.298,   -0.117,    0.082,    0.146,   -2.046,   -0.020,   -0.430,
       -0.248,   -0.087,   -0.074,    0.221,    0.649,   -0.809,    0.447,
       -0.146,   -0.107,   -0.113,   -0.530,    0.018,    0.315,    0.000,
        0.106,   -2.961,   -0.264,   -1.516,   -0.310,   -0.118,    0.054,
       -0.612,   -0.576,    0.581,  -11.602,   -5.569,   -3.246,   -2.448,
       -2.189,    2.357,   -1.988,    2.964,    1.143,    0.737,    2.518,
       -1.437,   -1.000
    },
    {  -5.177,    0.059,    0.004,    0.039,   -0.063,    0.005,   -0.187,
        0.215,    3.254,    3.393,   -0.151,   -0.921,   -0.619,   -0.016,
       -0.085,   -0.486,   -0.853,    1.034,   -4.308,    0.073,   -0.027,
       -0.043,    0.056,    0.066,   -0.068,   -0.143,   -2.686,   -3.820,
       -0.105,    0.645,   -1.175,    0.005,    0.118,   -0.846,   -0.815,
        1.186,    2.489,   -0.869,   -0.034,    0.076,    0.081,    0.013,
       -0.158,    0.498,   -0.110,   -2.524,    0.228,   -0.095,    1.187,
        0.095,   -0.022,   -0.247,   -1.203,    0.342,    1.436,    0.314,
       -0.128,    0.025,    0.124,   -0.004,   -0.580,    0.724,   -0.027,
        1.374,   -0.087,   -0.795,   -0.454,   -0.598,   -0.114,    0.024,
        0.094,   -0.044,    1.245,    0.008,    0.905,    0.473,   -0.749,
        0.162,   -0.108,    0.107,   -0.009,   -2.581,   -0.040,   -0.415,
       -0.366,   -0.025,   -0.111,    0.323,    0.947,   -0.946,    0.716,
       -0.165,    0.021,   -0.112,   -0.622,   -0.014,    0.307,   -0.076,
        0.099,   -3.331,   -0.102,   -1.578,    0.066,   -0.169,   -0.006,
       -0.528,   -0.635,    0.549,  -11.878,   -4.813,   -2.655,   -2.560,
       -1.544,    4.901,   -1.214,    2.287,    1.536,    1.362,    3.241,
       -1.641,   -1.292
    },
    {  -4.250,    0.016,    0.034,    0.034,    0.042,    0.053,   -0.193,
        0.150,    2.581,    2.904,   -0.071,   -0.687,   -0.681,    0.136,
       -0.123,   -0.523,   -0.677,    1.118,   -5.561,    0.013,   -0.068,
        0.022,    0.026,    0.074,   -0.016,   -0.366,   -3.442,   -2.285,
        0.006,    0.538,   -0.328,    0.130,   -0.026,   -0.304,   -0.441,
        0.419,    2.631,   -1.301,   -0.055,    0.144,    0.107,    0.103,
       -0.258,    0.633,   -0.172,   -2.349,    0.301,   -0.087,    0.961,
        0.275,   -0.038,   -0.183,   -0.895,    0.358,    1.370,    0.259,
       -0.014,    0.046,    0.103,   -0.048,   -0.510,    0.643,    0.044,
        1.544,    0.004,   -0.868,   -0.782,   -0.469,   -0.050,   -0.149,
        0.233,    0.008,    1.921,    0.212,    1.308,    1.005,   -1.055,
        0.312,   -0.031,    0.185,   -0.004,   -2.064,   -0.274,   -0.463,
       -0.328,   -0.010,    0.201,    0.412,    0.831,   -1.229,    0.834,
       -0.100,   -0.093,   -0.286,   -0.672,    0.047,    0.441,   -0.090,
       -0.046,   -2.782,   -0.144,   -1.151,    0.152,    0.060,    0.107,
       -0.284,   -0.451,    0.404,  -15.971,   -5.552,   -1.573,   -2.479,
       -3.335,    1.828,   -1.349,    2.776,    1.173,    0.621,    1.072,
       -1.026,   -2.706
    },
    {  -5.642,    0.060,    0.006,    0.033,   -0.033,   -0.015,   -0.200,
        0.139,    3.695,    4.110,    0.127,   -1.291,   -0.624,   -0.203,
       -0.162,   -0.402,   -0.592,    0.652,   -4.752,   -0.085,   -0.118,
        0.003,   -0.014,   -0.011,   -0.116,   -0.522,   -2.656,   -3.580,
        0.175,    1.268,   -0.446,   -0.186,    0.030,   -0.405,   -0.423,
        0.670,    2.691,   -1.245,   -0.024,    0.028,   -0.032,    0.016,
       -0.036,    0.695,   -0.086,   -3.030,    0.135,   -0.195,    1.221,
        0.130,    0.024,   -0.197,   -0.764,    0.362,    1.531,    0.123,
       -0.033,    0.081,    0.004,   -0.020,   -0.288,    0.530,   -0.021,
        2.571,    0.209,   -1.579,   -1.123,   -0.930,   -0.155,   -0.159,
        0.434,   -0.355,    2.491,   -0.057,    1.651,    1.302,   -1.244,
        0.184,   -0.556,    0.661,    0.134,   -2.789,   -0.427,   -0.420,
       -0.592,    0.005,    0.112,    0.792,    0.898,   -1.499,    0.585,
       -0.409,    0.058,   -0.095,   -0.647,   -0.051,    0.560,    0.156,
        0.247,   -3.295,   -0.213,   -1.380,   -0.026,   -0.225,    0.017,
       -0.399,   -0.571,    0.593,  -18.942,   -4.307,   -2.102,   -3.011,
       -2.333,    2.503,   -2.817,    6.367,    0.819,    0.588,    0.980,
       -0.750,   -2.134
    },
    {  -4.163,    0.064,   -0.007,    0.046,   -0.036,    0.035,   -0.147,
        0.146,    2.518,    4.435,   -0.060,   -1.255,   -0.525,    0.341,
       -0.072,   -0.337,   -0.577,    0.820,   -5.217,   -0.127,   -0.008,
       -0.117,    0.014,    0.037,   -0.120,   -0.390,   -3.012,   -2.998,
        0.009,    0.927,   -0.097,   -0.072,    0.011,   -0.212,   -0.384,
        0.323,    2.477,   -0.955,   -0.025,   -0.031,    0.009,    0.045,
        0.013,    0.579,   -0.062,   -2.119,   -0.062,    0.000,    1.446,
        0.064,    0.083,    0.129,   -0.956,    0.104,    1.457,    0.314,
        0.078,    0.150,    0.044,   -0.001,   -0.462,    0.643,    0.101,
        2.319,   -0.250,   -1.801,   -1.063,   -1.002,   -0.151,   -0.481,
        0.114,    0.424,    2.488,    0.057,    1.412,    1.327,   -1.038,
        0.292,   -0.404,    0.802,    0.046,   -2.217,   -0.470,   -0.218,
       -0.286,    0.077,   -0.028,    0.267,   -0.115,   -0.660,    0.704,
       -0.270,   -0.101,   -0.134,   -0.288,   -0.009,    0.311,   -0.108,
        0.313,   -2.771,   -0.031,   -1.197,    0.104,   -0.128,    0.028,
       -0.611,   -0.458,    0.597,  -16.828,   -5.667,   -5.679,   -2.952,
       -8.209,    4.480,   -0.765,    3.340,    0.585,    0.592,    2.451,
       -1.000,   -1.535
    },
    {  -5.277,   -0.002,    0.005,   -0.006,   -0.011,   -0.018,   -0.159,
        0.150,    3.303,    3.749,    0.001,   -1.014,   -0.370,    0.204,
       -0.059,   -0.231,   -0.347,    0.619,   -4.329,    0.019,   -0.014,
       -0.003,   -0.013,    0.009,   -0.087,   -0.267,   -2.508,   -3.189,
        0.102,    1.062,   -0.288,   -0.047,    0.050,   -0.352,   -0.331,
        0.271,    2.716,   -1.243,   -0.058,    0.070,    0.027,    0.023,
       -0.122,    0.531,   -0.087,   -2.477,    0.168,   -0.148,    1.130,
        0.141,    0.058,   -0.219,   -0.592,    0.271,    1.417,    0.160,
       -0.037,    0.066,    0.021,    0.020,   -0.362,    0.597,   -0.005,
        1.965,   -0.006,   -1.231,   -0.904,   -0.620,   -0.092,   -0.296,
        0.109,    0.306,    1.158,   -0.038,    0.856,    0.680,   -0.979,
        0.233,   -0.003,    0.072,   -0.035,   -3.789,   -0.299,   -0.517,
       -0.791,    0.027,   -0.142,    0.403,    0.135,   -0.789,    0.503,
       -0.152,   -0.040,   -0.045,   -0.476,    0.020,    0.196,   -0.116,
        0.313,   -3.553,   -0.089,   -1.617,   -0.097,   -0.088,    0.139,
       -0.367,   -0.981,    0.465,   -9.800,   -5.139,   -8.990,   -3.079,
       -4.638,    2.839,   -1.690,    4.285,    1.048,    0.843,    2.794,
       -1.559,   -1.444
    },
    {  -4.770,   -0.006,   -0.020,   -0.015,   -0.026,    0.029,   -0.196,
        0.159,    2.973,    3.492,   -0.132,   -0.505,   -0.804,    0.130,
       -0.078,   -0.251,   -0.469,    0.717,   -5.746,   -0.027,   -0.144,
       -0.052,   -0.024,   -0.032,   -0.113,   -0.439,   -3.429,   -3.321,
        0.059,    1.303,   -0.261,    0.052,   -0.121,   -0.398,   -0.643,
        0.567,    2.653,   -1.193,   -0.029,   -0.021,   -0.003,   -0.010,
       -0.039,    0.432,   -0.126,   -1.928,    0.132,   -0.009,    1.013,
        0.054,    0.030,   -0.085,   -0.437,    0.154,    1.248,    0.225,
        0.031,    0.163,    0.055,    0.005,   -0.544,    0.632,    0.056,
        2.023,    0.048,   -1.251,   -1.050,   -0.811,   -0.169,    0.022,
        0.416,   -0.016,    2.017,   -0.051,    1.572,    1.083,   -1.598,
        0.203,    0.096,    0.261,   -0.248,   -2.486,   -0.334,   -0.282,
       -0.413,   -0.062,   -0.055,    0.752,    1.260,   -1.798,    0.712,
       -0.179,    0.157,   -0.180,   -0.582,   -0.066,    0.436,   -0.032,
        0.093,   -2.606,   -0.061,   -1.015,    0.048,   -0.008,    0.040,
       -0.397,   -0.573,    0.522,  -10.746,   -5.237,   -6.698,   -2.637,
       -2.533,    3.436,   -1.419,    2.637,    0.742,    0.575,    0.959,
       -1.120,   -2.342
    },
    {  -4.315,    0.042,   -0.014,   -0.014,    0.002,    0.050,   -0.335,
        0.138,    2.760,    3.767,   -0.051,   -0.796,   -0.917,    0.246,
       -0.247,   -0.440,   -0.637,    0.942,   -4.553,    0.002,   -0.077,
       -0.048,    0.011,   -0.024,   -0.038,   -0.261,   -2.789,   -3.483,
        0.121,    1.069,   -0.290,    0.055,    0.092,   -0.367,   -0.465,
        0.631,    2.906,   -1.425,   -0.134,   -0.007,   -0.078,    0.009,
        0.015,    0.667,   -0.211,   -2.155,    0.016,   -0.113,    1.122,
       -0.012,    0.067,   -0.145,   -0.926,    0.379,    1.304,    0.181,
        0.038,    0.198,    0.133,   -0.037,   -0.603,    0.684,    0.051,
        1.884,    0.170,   -1.192,   -0.832,   -0.842,   -0.195,   -0.166,
        0.203,    0.015,    2.167,   -0.001,    1.479,    1.088,   -1.631,
        0.308,   -0.202,    0.355,   -0.027,   -2.414,   -0.225,   -0.326,
       -0.621,   -0.141,    0.015,    0.630,    0.692,   -1.473,    0.668,
       -0.223,   -0.037,   -0.124,   -0.729,   -0.153,    0.443,   -0.139,
        0.107,   -4.077,   -0.078,   -1.753,    0.060,   -0.099,    0.200,
       -0.616,   -0.720,    0.661,  -14.554,   -4.573,   -2.629,   -3.022,
       -3.894,    2.646,   -1.113,    2.479,    1.081,    0.770,    1.287,
       -1.134,   -2.082
    },
    {  -4.538,    0.031,    0.030,    0.028,   -0.032,    0.011,   -0.097,
        0.196,    2.796,    3.947,   -0.102,   -0.826,   -0.816,    0.323,
       -0.270,   -0.561,   -1.299,    1.549,   -5.393,   -0.037,   -0.137,
       -0.007,   -0.033,    0.022,   -0.132,   -0.351,   -3.171,   -3.440,
        0.115,    1.362,   -0.103,   -0.033,    0.113,   -0.349,   -0.650,
        0.813,    2.532,   -1.215,   -0.053,    0.063,    0.003,    0.070,
       -0.052,    0.543,   -0.151,   -2.618,    0.186,   -0.395,    1.137,
        0.071,    0.034,   -0.257,   -0.914,    0.357,    1.314,    0.172,
       -0.056,    0.052,    0.072,   -0.001,   -0.411,    0.596,    0.007,
        1.793,    0.007,   -1.051,   -1.084,   -0.818,   -0.092,   -0.130,
       -0.053,    0.101,    1.597,    0.094,    1.051,    0.844,   -0.753,
        0.067,   -0.290,    0.089,    0.071,   -2.160,   -0.179,   -0.589,
       -0.465,    0.039,    0.013,    0.221,    0.666,   -0.942,    0.900,
       -0.301,    0.018,   -0.404,   -0.963,   -0.151,    0.654,   -0.248,
        0.166,   -3.562,   -0.282,   -1.586,   -0.255,   -0.212,    0.138,
       -0.603,   -0.418,    0.647,  -14.810,   -4.790,   -1.349,   -2.740,
       -2.582,    2.115,   -1.601,    3.777,    0.762,    0.985,    1.613,
       -0.615,   -1.410
    },
    {  -5.356,    0.030,   -0.022,   -0.007,   -0.069,    0.057,   -0.194,
        0.135,    3.428,    3.647,    0.026,   -0.972,   -0.783,   -0.014,
       -0.134,   -0.557,   -0.438,    0.570,   -5.326,    0.000,   -0.011,
       -0.089,    0.045,    0.025,   -0.105,   -0.425,   -3.161,   -4.118,
       -0.308,    1.055,   -1.190,    0.067,   -0.154,   -0.916,   -0.742,
        0.873,    2.311,   -0.890,   -0.027,    0.082,    0.004,    0.053,
       -0.106,    0.510,   -0.181,   -2.871,    0.233,   -0.066,    0.893,
        0.164,   -0.020,   -0.247,   -0.761,    0.242,    1.460,    0.220,
       -0.040,    0.006,    0.025,    0.002,   -0.446,    0.673,    0.012,
        1.989,    0.074,   -1.068,   -0.664,   -0.451,   -0.109,   -0.111,
        0.117,   -0.209,    2.439,    0.302,    1.247,    0.917,   -1.852,
        0.016,   -0.421,    0.055,    0.434,   -2.702,   -0.437,   -0.279,
       -0.451,    0.366,    0.164,    0.537,    0.759,   -1.382,    1.011,
       -0.270,   -0.069,   -0.197,   -0.869,    0.006,    0.660,    0.077,
        0.112,   -2.520,   -0.219,   -0.984,   -0.068,   -0.067,    0.096,
       -0.295,   -0.581,    0.398,  -18.147,   -4.510,   -2.587,   -2.766,
       -1.691,    4.363,   -3.839,    3.502,    1.459,    0.630,    1.410,
       -1.017,   -2.577
    },
    {  -5.267,    0.022,   -0.019,    0.037,   -0.008,    0.024,   -0.070,
        0.126,    3.322,    3.549,    0.005,   -1.260,   -0.675,    0.186,
       -0.069,   -0.594,   -0.455,    0.734,   -4.945,    0.052,   -0.006,
       -0.034,   -0.076,   -0.009,   -0.172,   -0.606,   -2.727,   -2.854,
       -0.089,    0.279,   -0.937,   -0.007,    0.084,   -0.412,   -0.479,
        0.723,    2.776,   -1.091,   -0.104,    0.081,    0.055,    0.051,
       -0.024,    0.464,   -0.095,   -2.691,    0.107,   -0.336,    1.049,
        0.186,    0.026,   -0.263,   -0.880,    0.311,    1.408,    0.191,
        0.021,    0.043,    0.067,    0.033,   -0.428,    0.526,    0.062,
        1.584,    0.082,   -0.921,   -0.619,   -0.379,   -0.174,   -0.074,
        0.281,   -0.115,    2.602,    0.281,    1.277,    0.906,   -1.745,
        0.024,   -0.085,    0.319,    0.480,   -4.308,    0.077,   -0.192,
       -0.213,   -1.320,   -0.248,    0.307,    0.271,   -1.026,    0.746,
       -0.078,   -0.053,   -0.062,   -0.555,   -0.074,    0.328,   -0.139,
        0.446,   -3.028,   -0.036,   -1.392,   -0.012,   -0.162,    0.084,
       -0.341,   -0.578,    0.533,  -16.926,   -4.704,   -1.499,   -2.951,
       -2.880,    5.201,   -1.705,    4.056,    1.383,    0.595,    3.650,
       -1.150,   -1.898
    },
    {  -4.807,    0.025,   -0.029,    0.031,   -0.069,    0.014,   -0.112,
        0.131,    2.954,    4.605,   -0.123,   -1.835,   -0.715,   -0.145,
        0.069,   -1.547,   -0.637,    1.261,   -4.824,    0.009,   -0.038,
       -0.054,   -0.106,    0.051,   -0.174,   -0.468,   -2.750,   -3.464,
       -0.145,    0.517,   -1.123,   -0.125,    0.025,   -0.616,   -0.531,
        0.953,    2.688,   -1.127,   -0.153,    0.013,    0.062,    0.028,
        0.002,    0.514,   -0.065,   -3.142,    0.104,   -0.225,    1.074,
        0.104,    0.010,   -0.243,   -0.550,    0.429,    1.245,    0.057,
       -0.073,   -0.010,    0.020,    0.011,   -0.305,    0.538,    0.013,
        2.456,    0.156,   -1.485,   -1.013,   -0.822,   -0.224,   -0.266,
        0.206,    0.113,    1.978,   -0.059,    1.492,    1.295,   -1.486,
        0.146,   -0.078,    0.316,   -0.141,   -6.497,    0.237,    0.502,
       -0.206,   -2.974,   -0.122,    0.787,   -0.724,   -0.928,    0.399,
       -0.264,   -0.025,   -0.130,   -0.431,   -0.080,    0.312,    0.339,
        0.303,   -2.402,   -0.056,   -1.173,    0.025,   -0.004,    0.118,
       -0.265,   -0.843,    0.331,  -21.464,   -5.429,   -0.886,   -2.630,
       -1.992,    3.807,   -4.351,    5.428,    0.953,    0.516,    0.646,
       -0.968,   -1.233
    },
    {  -5.052,    0.058,    0.033,    0.020,   -0.062,   -0.035,   -0.163,
        0.156,    3.203,    4.262,    0.026,   -1.273,   -0.681,   -0.361,
       -0.219,   -0.224,    0.154,    0.225,   -5.126,    0.012,   -0.058,
       -0.042,   -0.147,   -0.054,   -0.174,   -0.551,   -2.810,   -3.889,
       -0.372,    0.091,   -1.630,   -0.103,   -0.091,   -0.601,   -0.806,
        1.347,    2.120,   -0.736,   -0.051,    0.069,    0.065,    0.060,
       -0.111,    0.441,    0.016,   -2.845,   -0.095,   -0.042,    1.816,
        0.197,    0.053,   -0.165,   -0.777,    0.352,    1.429,    0.158,
        0.003,   -0.033,    0.016,   -0.015,   -0.292,    0.460,    0.070,
        2.032,    0.016,   -0.973,   -0.264,   -0.302,   -0.147,    0.022,
        0.389,   -0.181,    2.540,    0.231,    1.815,    1.472,   -1.674,
        0.076,   -0.316,    0.621,   -0.497,   -4.022,    0.320,   -0.009,
       -0.031,   -1.027,   -0.254,    0.294,    0.035,   -1.315,    0.348,
       -0.135,   -0.133,   -0.141,   -0.457,   -0.185,    0.266,    0.265,
        0.696,   -3.404,    0.014,   -1.242,    0.109,   -0.058,    0.191,
       -0.314,   -0.516,    0.478,  -17.781,   -4.543,   -5.131,   -2.974,
       -1.202,    4.796,   -0.678,    6.653,    2.288,    0.415,    1.871,
       -0.692,   -4.361
    },
    {  -5.232,   -0.031,   -0.003,    0.041,   -0.005,    0.035,   -0.117,
        0.184,    3.353,    3.726,   -0.045,   -1.259,   -0.640,    0.030,
       -0.121,   -0.507,   -0.548,    1.117,   -5.716,   -0.071,    0.065,
        0.079,   -0.133,    0.061,   -0.095,   -0.283,   -3.463,   -2.800,
       -0.017,    0.170,   -0.994,   -0.034,    0.023,   -0.496,   -0.581,
        0.821,    2.427,   -1.164,   -0.148,    0.059,    0.117,    0.015,
       -0.024,    0.501,   -0.054,   -2.841,    0.166,   -0.326,    1.329,
        0.042,    0.129,   -0.347,   -0.775,    0.563,    1.146,    0.129,
       -0.069,   -0.026,    0.029,    0.025,   -0.359,    0.512,    0.114,
        3.357,    0.078,   -2.167,   -0.845,   -0.833,   -0.083,    0.306,
        0.858,   -0.799,    2.074,   -0.013,    1.320,    1.037,   -1.015,
        0.378,   -0.298,    0.712,    0.167,   -4.780,    0.138,   -0.267,
        0.040,   -1.788,    0.009,    0.457,   -0.193,   -0.667,    0.170,
       -0.161,    0.205,    0.043,   -0.394,    0.075,    0.561,    0.203,
        0.623,   -3.517,   -0.073,   -1.822,   -0.026,   -0.284,    0.152,
       -0.399,   -1.253,    0.451,  -10.757,   -3.917,   -1.878,   -2.513,
       -1.860,    2.280,   -1.399,    3.907,    0.692,    0.628,    2.765,
       -0.689,   -1.000
    },
    {  -5.121,    0.005,   -0.007,   -0.007,   -0.039,    0.052,   -0.197,
        0.086,    3.262,    3.229,   -0.067,   -0.697,   -0.394,    0.365,
        0.048,   -0.274,   -0.238,    0.695,   -4.729,    0.013,   -0.038,
       -0.023,   -0.092,   -0.014,   -0.118,   -0.522,   -2.620,   -4.154,
        0.094,    1.752,    0.191,   -0.210,    0.076,   -0.438,   -1.039,
        0.826,    2.528,   -1.159,   -0.040,    0.108,    0.141,    0.050,
       -0.196,    0.518,   -0.055,   -1.818,    0.130,   -0.137,    0.836,
        0.203,   -0.010,   -0.033,   -0.698,    0.063,    1.521,    0.256,
        0.008,    0.125,    0.112,   -0.024,   -0.470,    0.609,    0.053,
        1.385,    0.085,   -1.045,   -0.704,   -0.570,   -0.090,   -0.219,
        0.312,    0.013,    2.138,   -0.335,    1.110,    1.065,   -1.302,
        0.201,   -0.102,    0.853,   -0.213,   -4.630,    0.065,   -0.327,
       -0.392,   -1.286,   -0.096,    0.294,   -0.220,   -1.015,    0.709,
       -0.236,   -0.015,   -0.137,   -0.747,   -0.025,    0.577,   -0.272,
        0.628,   -3.424,   -0.168,   -1.439,    0.122,   -0.120,    0.099,
       -0.572,   -0.696,    0.957,  -10.703,   -5.155,   -3.669,   -3.032,
       -1.764,    2.229,   -1.089,    3.250,    0.801,    0.625,    2.788,
       -0.741,   -1.984
    },
    {  -4.805,    0.017,   -0.045,    0.002,    0.016,   -0.035,   -0.172,
        0.133,    3.016,    3.924,   -0.091,   -0.495,   -0.956,    0.066,
       -0.161,   -0.161,   -0.161,    0.613,   -6.077,    0.026,   -0.019,
       -0.069,   -0.071,    0.024,   -0.085,   -0.494,   -3.694,   -3.397,
        0.082,    1.300,   -0.403,    0.057,    0.161,   -0.491,   -0.738,
        0.827,    2.937,   -1.681,   -0.047,    0.056,    0.013,    0.046,
       -0.078,    0.638,   -0.191,   -1.724,    0.112,   -0.015,    0.732,
        0.150,    0.049,   -0.044,   -0.349,    0.017,    1.344,    0.150,
       -0.010,    0.092,    0.103,    0.055,   -0.405,    0.633,   -0.081,
        2.654,    0.134,   -1.637,   -1.185,   -0.861,   -0.152,   -0.279,
        0.131,    0.254,    2.295,   -0.043,    1.121,    1.112,   -1.501,
        0.036,   -0.316,    0.458,    0.302,   -5.039,    0.150,   -0.267,
       -0.191,   -1.604,   -0.081,    0.229,   -0.611,   -0.907,    0.792,
       -0.306,    0.051,   -0.245,   -0.595,   -0.045,    0.510,   -0.250,
        0.418,   -2.771,   -0.067,   -1.049,   -0.025,   -0.097,    0.029,
       -0.408,   -0.485,    0.362,   -8.181,   -4.986,   -7.301,   -2.475,
       -1.852,    1.531,   -2.251,    3.504,    0.672,    0.506,    1.860,
       -0.828,   -2.567
    },
    {  -4.310,   -0.018,   -0.035,    0.042,   -0.035,   -0.002,   -0.207,
        0.120,    2.676,    4.393,   -0.005,   -1.207,   -0.532,    0.104,
       -0.082,   -0.268,   -0.363,    0.631,   -4.956,   -0.061,   -0.010,
       -0.040,   -0.093,    0.006,   -0.084,   -0.432,   -2.936,   -2.467,
        0.101,    0.871,   -0.333,    0.102,    0.104,   -0.478,   -0.426,
        0.529,    2.403,   -1.163,   -0.001,    0.066,    0.024,    0.080,
       -0.006,    0.474,   -0.079,   -3.452,    0.294,   -0.191,    1.434,
        0.105,   -0.066,   -0.213,   -0.863,    0.435,    1.275,    0.126,
       -0.020,    0.049,    0.071,    0.034,   -0.338,    0.545,    0.001,
        1.613,    0.006,   -0.845,   -0.785,   -0.757,   -0.092,   -0.127,
        0.153,    0.118,    2.024,   -0.034,    1.385,    1.128,   -1.180,
        0.064,   -0.268,    0.267,    0.039,   -4.158,    0.098,   -0.189,
       -0.143,   -1.216,   -0.157,    0.333,   -0.087,   -1.081,    0.674,
       -0.144,   -0.172,   -0.160,   -0.469,   -0.004,    0.235,   -0.152,
        0.400,   -2.972,   -0.115,   -1.220,    0.227,    0.098,    0.093,
       -0.428,   -0.692,    0.274,   -9.788,   -5.190,   -5.537,   -3.070,
       -2.005,    2.385,   -1.553,    4.480,    1.299,    0.505,    3.364,
       -1.424,   -1.892
    },
    {  -5.335,    0.032,    0.028,   -0.031,   -0.019,    0.070,   -0.251,
        0.060,    3.577,    3.578,    0.166,   -0.690,   -0.991,    0.286,
       -0.139,   -0.449,   -0.361,    0.576,   -5.150,    0.000,   -0.037,
       -0.054,   -0.037,    0.018,   -0.118,   -0.492,   -2.930,   -3.733,
        0.155,    1.403,   -0.325,   -0.018,    0.073,   -0.455,   -0.504,
        0.864,    3.135,   -1.735,   -0.059,    0.101,    0.058,    0.060,
       -0.043,    0.846,   -0.105,   -2.582,    0.159,   -0.141,    0.946,
        0.051,    0.006,   -0.090,   -0.533,    0.200,    1.507,    0.166,
       -0.055,    0.030,    0.065,   -0.002,   -0.385,    0.636,    0.003,
        2.415,    0.131,   -1.472,   -1.138,   -0.920,   -0.131,   -0.080,
        0.534,   -0.085,    2.417,    0.032,    1.469,    1.122,   -1.878,
        0.372,   -0.094,    0.936,   -0.444,   -5.502,    0.172,   -0.053,
       -0.282,   -2.306,    0.033,    0.577,    0.304,   -1.319,    0.540,
       -0.159,    0.003,   -0.210,   -0.514,   -0.052,    0.488,    0.052,
        0.259,   -3.141,   -0.035,   -1.254,   -0.099,   -0.100,    0.068,
       -0.355,   -0.787,    0.451,  -16.591,   -4.210,   -1.916,   -2.772,
       -2.562,    1.475,   -3.523,    4.300,    0.768,    0.540,    1.205,
       -1.001,   -2.451
    },
    {  -4.804,   -0.007,   -0.009,    0.043,   -0.007,    0.047,   -0.144,
        0.133,    3.070,    4.541,    0.041,   -0.998,   -1.069,    0.390,
       -0.243,   -0.480,   -0.441,    0.888,   -5.230,    0.043,   -0.034,
       -0.101,   -0.050,   -0.034,   -0.094,   -0.464,   -3.140,   -2.868,
        0.144,    0.896,   -0.306,    0.078,   -0.029,   -0.268,   -0.259,
        0.319,    2.693,   -1.021,   -0.005,    0.102,    0.095,   -0.019,
       -0.196,    0.511,   -0.086,   -4.694,    0.215,   -0.018,    1.714,
        0.092,   -0.102,   -0.225,   -1.057,    0.542,    1.561,    0.262,
       -0.005,    0.048,    0.092,   -0.006,   -0.471,    0.715,   -0.008,
        1.627,   -0.046,   -0.937,   -0.944,   -0.692,   -0.091,   -0.185,
        0.212,    0.055,    1.575,    0.086,    1.110,    0.807,   -1.266,
        0.194,    0.056,    0.214,   -0.266,   -5.324,    0.141,   -0.225,
       -0.262,   -2.041,    0.112,    0.298,    0.034,   -0.932,    0.526,
       -0.146,   -0.112,   -0.076,   -0.575,   -0.000,    0.315,   -0.258,
        0.249,   -2.822,    0.033,   -1.146,    0.233,   -0.120,    0.179,
       -0.398,   -0.714,    0.376,  -18.763,   -4.325,   -2.648,   -2.702,
       -4.935,    4.729,   -5.139,    3.254,    1.192,    0.815,    4.259,
       -1.417,   -1.875
    },
    {  -4.326,   -0.000,   -0.011,    0.018,   -0.029,    0.018,   -0.258,
        0.180,    2.693,    2.724,   -0.071,   -0.488,   -0.592,   -0.093,
       -0.200,   -0.268,   -0.290,    0.520,   -4.630,    0.029,   -0.024,
       -0.085,   -0.022,    0.011,   -0.155,   -0.357,   -2.659,   -3.181,
        0.107,    1.154,   -0.355,   -0.003,    0.007,   -0.461,   -0.411,
        0.582,    2.413,   -0.950,   -0.006,   -0.007,    0.048,    0.039,
       -0.101,    0.492,   -0.063,   -2.774,    0.195,   -0.354,    1.601,
        0.088,    0.196,   -0.034,   -0.416,   -0.105,    1.670,    0.142,
       -0.003,   -0.007,    0.055,    0.006,   -0.284,    0.528,   -0.012,
        2.227,    0.072,   -1.361,   -0.959,   -0.739,   -0.180,   -0.187,
        0.300,    0.068,    1.768,    0.086,    1.054,    0.821,   -1.338,
        0.173,   -0.074,    0.226,   -0.126,   -3.838,    0.250,    0.170,
        0.231,   -1.313,   -0.121,    0.254,   -0.536,   -0.683,    0.667,
       -0.160,    0.186,   -0.039,   -0.578,    0.020,    0.367,   -0.002,
        0.232,   -3.344,   -0.094,   -1.583,   -0.001,   -0.109,    0.180,
       -0.706,   -0.691,    0.870,  -17.217,   -4.544,   -5.015,   -2.903,
       -1.912,    4.314,   -0.892,    9.465,    1.142,    0.816,    1.666,
       -1.120,   -1.385
    },
    {  -4.876,   -0.036,    0.003,   -0.030,   -0.028,    0.042,   -0.189,
        0.087,    3.092,    4.012,   -0.067,   -1.223,   -0.794,    0.237,
       -0.252,   -0.574,   -0.595,    1.218,   -4.198,    0.033,   -0.013,
       -0.013,   -0.058,    0.034,   -0.094,   -0.368,   -2.349,   -3.483,
       -0.013,    1.169,   -0.412,   -0.140,   -0.016,   -0.551,   -0.448,
        0.565,    2.801,   -1.177,   -0.108,   -0.003,    0.103,    0.051,
       -0.152,    0.555,   -0.186,   -2.428,    0.021,   -0.384,    1.240,
        0.080,    0.011,   -0.128,   -0.642,    0.010,    1.350,    0.202,
       -0.027,    0.120,    0.047,    0.016,   -0.513,    0.644,    0.080,
        1.683,    0.025,   -1.070,   -0.742,   -0.488,   -0.130,   -0.148,
        0.311,   -0.080,    1.619,   -0.349,    1.033,    0.851,   -1.066,
        0.381,    0.077,    0.358,   -0.057,   -3.933,   -0.020,   -0.354,
       -0.325,   -1.038,   -0.093,    0.507,    0.174,   -0.952,    0.421,
       -0.096,   -0.124,   -0.148,   -0.295,   -0.043,    0.169,   -0.180,
        0.435,   -3.021,   -0.048,   -1.178,   -0.020,   -0.109,    0.074,
       -0.345,   -0.604,    0.422,  -14.930,   -4.771,   -1.282,   -3.336,
       -2.739,    3.552,   -1.120,    2.941,    1.215,    0.463,    3.508,
       -1.283,   -2.659
    },
    {  -4.908,    0.021,   -0.004,    0.010,   -0.008,    0.011,   -0.188,
        0.171,    3.169,    3.582,   -0.020,   -0.618,   -0.629,    0.331,
       -0.134,   -0.353,   -0.638,    0.931,   -5.084,    0.038,   -0.105,
        0.005,    0.028,   -0.038,   -0.103,   -0.424,   -2.962,   -3.878,
        0.137,    1.564,   -0.452,    0.043,    0.190,   -0.629,   -0.779,
        0.738,    2.659,   -1.311,   -0.027,    0.164,    0.072,    0.025,
       -0.047,    0.536,   -0.153,   -2.289,    0.087,   -0.205,    0.847,
        0.138,   -0.020,    0.028,   -0.532,    0.159,    1.369,    0.153,
       -0.027,    0.075,    0.086,    0.017,   -0.439,    0.551,    0.009,
        2.265,    0.003,   -1.406,   -1.008,   -0.766,   -0.086,   -0.160,
        0.300,    0.050,    2.395,    0.205,    1.242,    0.972,   -1.830,
        0.248,   -0.145,    0.553,   -0.104,   -5.627,    0.374,   -0.205,
       -0.442,   -2.194,   -0.144,    0.453,    0.224,   -0.971,    1.156,
       -0.360,   -0.130,   -0.215,   -1.075,    0.117,    0.361,   -0.498,
        0.791,   -4.597,   -0.201,   -2.183,   -0.064,   -0.163,    0.192,
       -0.542,   -0.858,    1.007,  -11.453,   -4.307,   -4.328,   -2.997,
       -1.591,    2.352,   -2.830,    3.889,    0.948,    0.579,    2.038,
       -0.871,   -1.437
    },
    {  -4.734,    0.014,   -0.002,    0.031,   -0.037,    0.017,   -0.088,
        0.187,    2.989,    3.006,    0.034,   -0.559,   -0.444,    0.144,
       -0.159,   -0.216,   -0.173,    0.630,   -4.884,    0.014,   -0.006,
        0.043,    0.046,   -0.010,   -0.084,   -0.372,   -2.873,   -3.198,
        0.059,    1.342,   -0.336,    0.029,    0.051,   -0.382,   -0.634,
        0.394,    2.543,   -1.270,   -0.003,    0.102,    0.031,    0.107,
       -0.099,    0.551,   -0.031,   -3.408,    0.288,   -0.090,    1.244,
        0.166,    0.053,   -0.230,   -0.953,    0.338,    1.284,    0.188,
        0.043,    0.042,    0.137,   -0.027,   -0.414,    0.598,   -0.032,
        2.247,    0.088,   -1.209,   -1.052,   -0.674,   -0.180,   -0.321,
        0.358,    0.038,    2.731,    0.321,    1.036,    1.008,   -2.129,
        0.149,   -0.388,    0.438,    0.163,   -4.981,    0.142,   -0.123,
       -0.177,   -2.243,   -0.055,    0.318,    0.120,   -0.527,    1.530,
       -0.364,   -0.214,   -0.074,   -1.144,   -0.013,    0.501,   -0.509,
        0.918,   -4.649,    0.023,   -2.147,   -0.096,   -0.210,   -0.033,
       -0.743,   -0.845,    1.169,  -11.911,   -4.388,   -3.331,   -2.869,
       -2.131,    2.206,   -2.187,    3.526,    0.875,    0.584,    1.994,
       -0.758,   -1.531
    },
    {  -4.382,    0.005,   -0.030,    0.012,   -0.028,    0.012,   -0.178,
        0.132,    2.700,    4.506,    0.116,   -1.740,   -0.780,   -0.075,
       -0.147,   -0.548,   -0.308,    0.524,   -4.785,   -0.012,   -0.058,
        0.003,   -0.094,    0.027,   -0.144,   -0.570,   -2.667,   -3.798,
       -0.239,    0.386,   -1.617,    0.072,   -0.074,   -0.621,   -0.692,
        0.822,    2.896,   -1.531,   -0.045,    0.206,    0.175,    0.088,
       -0.087,    0.514,   -0.021,   -2.813,    0.248,   -0.067,    1.100,
       -0.003,   -0.073,   -0.172,   -0.794,    0.412,    1.346,    0.156,
        0.017,    0.029,    0.110,   -0.019,   -0.520,    0.699,    0.005,
        1.967,    0.111,   -1.045,   -0.459,   -0.487,   -0.110,   -0.123,
        0.269,   -0.079,    1.806,    0.008,    1.116,    0.562,   -1.324,
        0.351,   -0.406,    0.365,    0.050,   -5.029,    0.193,   -0.163,
       -0.141,   -1.553,   -0.062,    0.383,    0.375,   -1.586,    0.879,
       -0.123,   -0.205,   -0.105,   -0.939,   -0.039,    0.398,   -0.637,
        0.668,   -3.767,   -0.239,   -1.727,    0.044,   -0.128,    0.138,
       -0.581,   -0.845,    0.862,  -11.989,   -5.514,   -1.765,   -2.850,
       -1.629,    1.805,   -1.933,    2.656,    1.768,    0.624,    3.267,
       -0.753,   -1.081
    },
    {  -4.432,    0.027,   -0.021,    0.002,   -0.025,    0.007,   -0.148,
        0.161,    2.729,    3.015,    0.066,   -0.992,   -0.492,   -0.031,
       -0.094,   -0.427,   -0.220,    0.482,   -4.532,    0.025,   -0.045,
        0.013,    0.061,    0.031,   -0.148,   -0.391,   -2.560,   -3.361,
       -0.081,    0.103,   -1.656,   -0.081,    0.012,   -0.577,   -0.529,
        0.681,    2.800,   -1.146,   -0.064,    0.085,    0.058,   -0.006,
       -0.129,    0.523,   -0.133,   -2.914,    0.196,   -0.108,    1.149,
        0.066,    0.045,   -0.220,   -0.865,    0.394,    1.313,    0.176,
       -0.097,   -0.011,    0.017,    0.026,   -0.434,    0.521,    0.070,
        2.348,    0.260,   -1.487,   -0.508,   -0.195,   -0.109,   -0.042,
        0.432,   -0.280,    2.443,    0.398,    1.221,    1.212,   -1.105,
        0.135,   -0.660,    0.424,    0.408,   -3.897,    0.124,    0.115,
        0.060,   -0.668,   -0.323,    0.428,   -0.009,   -1.040,    0.973,
        0.188,    0.128,    0.210,   -0.303,    0.001,    0.285,   -0.462,
        0.807,   -2.483,   -0.139,   -1.008,    0.157,   -0.096,    0.039,
       -0.205,   -0.754,    0.426,  -15.178,   -4.884,   -2.210,   -2.880,
       -1.112,    3.976,   -1.519,    3.465,    1.161,    0.531,    1.163,
       -0.750,   -2.004
    },
    {  -5.812,    0.033,    0.039,    0.068,    0.010,    0.023,   -0.176,
        0.200,    3.792,    6.320,    0.050,   -2.332,   -1.260,    0.095,
       -0.291,   -0.498,   -0.599,    1.334,   -5.765,    0.018,   -0.064,
        0.010,    0.011,    0.040,   -0.140,   -0.408,   -3.474,   -2.792,
        0.051,    0.321,   -1.218,    0.018,   -0.141,   -0.376,   -0.498,
        0.594,    2.707,   -1.262,   -0.152,    0.007,    0.052,   -0.015,
       -0.131,    0.506,   -0.074,   -3.993,    0.344,   -0.198,    1.720,
        0.260,   -0.008,   -0.316,   -1.102,    0.468,    1.622,    0.146,
        0.024,    0.008,    0.083,    0.013,   -0.435,    0.545,    0.040,
        1.978,    0.168,   -1.324,   -0.683,   -0.673,   -0.110,    0.157,
        0.321,   -0.274,    2.441,   -0.006,    1.755,    1.065,   -2.156,
        0.002,   -0.306,   -0.251,    0.249,   -5.027,    0.094,   -0.130,
       -0.448,   -1.830,   -0.166,    0.681,   -0.518,   -1.182,    0.906,
       -0.197,   -0.167,   -0.194,   -0.656,   -0.037,    0.384,   -0.492,
        0.474,   -3.356,   -0.012,   -1.567,   -0.041,   -0.146,    0.184,
       -0.449,   -0.800,    0.851,  -16.211,   -4.161,   -0.841,   -2.604,
       -1.264,    2.665,   -1.808,    5.822,    1.114,    0.460,    0.934,
       -1.184,   -1.255
    },
    {  -4.233,   -0.025,    0.006,    0.017,   -0.058,   -0.011,   -0.119,
        0.175,    2.437,    3.487,   -0.082,   -1.179,   -0.582,    0.030,
       -0.027,   -0.537,   -0.704,    1.091,   -5.187,    0.047,   -0.039,
       -0.062,   -0.047,   -0.046,   -0.092,   -0.422,   -3.071,   -4.288,
       -0.044,    1.377,   -1.363,   -0.301,   -0.068,   -0.790,   -0.938,
        0.883,    2.617,   -1.247,   -0.043,    0.076,   -0.002,    0.027,
       -0.101,    0.457,   -0.166,   -3.099,    0.078,   -0.159,    0.996,
        0.285,   -0.028,   -0.267,   -0.824,    0.288,    1.117,    0.144,
       -0.033,   -0.035,    0.037,    0.013,   -0.374,    0.526,    0.001,
        2.702,   -0.105,   -1.981,   -0.880,   -0.601,   -0.238,   -0.048,
        0.431,   -0.155,    1.766,    0.073,    0.870,    0.917,   -0.945,
        0.117,   -0.102,    0.505,   -0.148,   -6.438,    0.350,   -0.193,
       -0.155,   -2.040,   -0.350,    0.426,    0.242,   -1.761,    1.040,
       -0.324,    0.020,   -0.020,   -0.929,    0.051,    0.500,    0.061,
        0.513,   -3.442,   -0.061,   -1.665,   -0.022,   -0.239,    0.057,
       -0.541,   -0.669,    0.689,  -17.215,   -6.542,   -1.701,   -2.936,
       -1.152,    2.719,   -3.904,    3.696,    0.862,    0.800,    1.755,
       -0.683,   -1.316
    },
    {  -4.810,    0.024,    0.016,    0.030,   -0.034,   -0.015,   -0.320,
        0.170,    3.002,    3.147,    0.060,   -0.924,   -0.739,    0.038,
       -0.088,   -0.362,   -0.747,    0.946,   -4.724,   -0.021,   -0.042,
        0.043,   -0.073,   -0.035,   -0.146,   -0.268,   -2.789,   -2.562,
       -0.130,    0.382,   -0.910,    0.015,    0.107,   -0.487,   -0.506,
        0.804,    2.845,   -1.224,   -0.023,    0.036,    0.053,    0.031,
        0.005,    0.452,   -0.106,   -2.162,    0.046,   -0.412,    1.224,
       -0.080,    0.028,   -0.139,   -0.793,    0.181,    1.413,    0.117,
        0.002,    0.088,    0.055,   -0.002,   -0.374,    0.611,    0.019,
        1.330,    0.036,   -0.686,   -0.502,   -0.357,   -0.036,   -0.040,
        0.196,    0.021,    1.826,    0.171,    1.266,    0.638,   -1.371,
        0.219,   -0.013,    0.633,   -0.377,   -4.395,    0.291,   -0.424,
       -0.032,   -1.513,   -0.074,    0.332,   -0.386,   -1.010,    0.443,
       -0.067,    0.047,   -0.088,   -0.481,   -0.007,    0.374,    0.026,
        0.154,   -3.200,   -0.042,   -1.162,    0.104,   -0.052,    0.055,
       -0.254,   -0.471,    0.387,  -18.531,   -5.261,   -2.173,   -2.922,
       -1.511,    4.031,   -0.710,    3.980,    1.986,    0.808,    0.867,
       -1.385,   -3.847
    },
    {  -4.367,    0.041,    0.008,    0.014,   -0.044,   -0.006,   -0.164,
        0.135,    2.649,    2.615,    0.013,   -0.622,   -0.377,    0.128,
       -0.071,   -0.355,   -0.453,    0.590,   -4.782,   -0.039,    0.022,
       -0.083,   -0.066,   -0.030,   -0.121,   -0.411,   -2.684,   -2.885,
        0.068,    0.728,   -0.374,   -0.021,    0.012,   -0.335,   -0.443,
        0.481,    2.251,   -1.053,   -0.143,    0.013,    0.087,   -0.002,
       -0.092,    0.531,   -0.036,   -3.037,    0.154,   -0.308,    1.063,
        0.092,   -0.073,   -0.228,   -0.701,    0.214,    1.826,    0.142,
       -0.028,   -0.036,    0.081,    0.006,   -0.372,    0.514,    0.015,
        2.417,    0.136,   -1.459,   -1.111,   -0.716,   -0.166,   -0.167,
        0.081,   -0.023,    1.610,    0.061,    1.170,    0.867,   -1.278,
        0.154,    0.099,    0.602,   -0.437,   -4.155,    0.209,   -0.251,
       -0.048,   -1.154,   -0.061,    0.224,    0.044,   -0.975,    0.475,
       -0.156,   -0.008,   -0.092,   -0.415,   -0.000,    0.372,   -0.156,
        0.151,   -3.425,    0.017,   -1.709,   -0.163,   -0.238,    0.102,
       -0.579,   -1.072,    0.761,  -19.333,   -5.561,   -3.823,   -2.912,
       -4.402,    2.201,   -2.874,    9.068,    0.941,    0.674,    3.462,
       -1.028,   -0.967
    },
    {  -4.715,    0.047,    0.041,    0.016,   -0.013,    0.020,   -0.083,
        0.176,    2.874,    3.646,    0.014,   -0.942,   -0.588,    0.264,
       -0.173,   -0.712,   -0.922,    1.292,   -5.062,   -0.000,   -0.002,
       -0.005,   -0.132,    0.020,   -0.104,   -0.269,   -3.151,   -2.669,
        0.052,    0.795,   -0.242,    0.061,   -0.001,   -0.289,   -0.376,
        0.268,    2.757,   -1.157,   -0.016,    0.132,    0.042,   -0.001,
       -0.062,    0.492,   -0.031,   -3.541,    0.352,   -0.117,    1.252,
        0.231,   -0.176,   -0.350,   -1.043,    0.373,    1.619,    0.143,
       -0.025,   -0.035,    0.040,    0.022,   -0.372,    0.507,    0.012,
        1.756,    0.035,   -1.000,   -0.942,   -0.632,   -0.215,   -0.319,
       -0.010,    0.053,    1.816,   -0.028,    1.138,    1.090,   -1.148,
        0.212,    0.135,    0.488,   -0.063,   -4.154,    0.175,   -0.111,
       -0.106,   -1.035,   -0.056,    0.173,   -0.136,   -0.645,    0.549,
       -0.133,   -0.001,    0.015,   -0.499,    0.022,    0.328,   -0.214,
        0.345,   -3.019,   -0.066,   -0.925,    0.073,   -0.128,    0.084,
       -0.271,   -0.416,    0.448,  -17.424,   -4.994,   -2.650,   -2.447,
       -4.892,    3.466,   -1.993,    6.940,    0.781,    0.687,   10.254,
       -1.119,   -7.259
    },
    {  -4.640,    0.077,   -0.012,   -0.006,   -0.026,    0.059,   -0.171,
        0.159,    2.879,    3.943,   -0.088,   -1.308,   -0.651,    0.250,
       -0.106,   -0.397,   -0.840,    1.092,   -4.916,    0.024,   -0.007,
       -0.045,   -0.101,   -0.005,   -0.073,   -0.283,   -2.939,   -2.604,
        0.097,    0.854,   -0.326,   -0.021,   -0.005,   -0.306,   -0.600,
        0.445,    3.160,   -1.640,    0.027,    0.156,    0.076,    0.019,
       -0.212,    0.593,    0.080,   -3.396,    0.384,   -0.139,    1.132,
        0.079,    0.071,   -0.172,   -0.704,    0.352,    1.390,    0.173,
        0.009,    0.021,    0.058,    0.005,   -0.450,    0.681,   -0.018,
        2.184,    0.020,   -1.443,   -1.108,   -0.921,   -0.163,   -0.109,
        0.234,   -0.018,    1.405,   -0.080,    1.113,    0.626,   -1.089,
        0.130,   -0.043,    0.161,   -0.059,   -4.194,    0.132,   -0.214,
       -0.245,   -1.087,   -0.211,    0.260,    0.309,   -1.091,    0.441,
       -0.224,    0.123,   -0.086,   -0.695,   -0.087,    0.408,   -0.274,
        0.160,   -2.543,   -0.152,   -0.961,    0.092,   -0.028,    0.110,
       -0.313,   -0.416,    0.387,  -15.801,   -5.178,   -1.608,   -2.659,
       -2.875,    1.696,   -4.070,    3.101,    0.878,    0.766,    3.421,
       -0.982,   -2.546
    },
    {  -5.017,    0.020,   -0.027,    0.017,   -0.024,    0.003,   -0.212,
        0.125,    3.205,    3.532,    0.041,   -1.095,   -0.828,    0.022,
       -0.057,   -0.353,   -0.838,    1.009,   -4.410,    0.028,   -0.053,
       -0.003,   -0.056,   -0.011,   -0.085,   -0.327,   -2.606,   -3.793,
        0.080,    1.316,   -0.808,    0.040,   -0.071,   -0.643,   -0.597,
        0.737,    2.699,   -1.528,   -0.091,    0.237,    0.020,    0.054,
       -0.150,    0.656,   -0.124,   -2.193,    0.282,   -0.498,    1.105,
        0.123,   -0.082,   -0.263,   -0.842,    0.160,    1.533,    0.173,
        0.033,    0.077,    0.076,    0.023,   -0.498,    0.758,   -0.012,
        1.688,    0.111,   -0.970,   -0.797,   -0.468,   -0.140,   -0.260,
        0.225,    0.211,    2.035,    0.242,    1.327,    1.091,   -1.177,
       -0.051,   -0.038,    0.306,   -0.219,   -4.562,    0.196,   -0.213,
       -0.082,   -1.365,   -0.204,    0.509,   -0.298,   -1.192,    0.756,
       -0.125,    0.005,   -0.141,   -0.500,   -0.009,    0.272,   -0.341,
        0.756,   -4.558,   -0.139,   -1.973,    0.175,   -0.125,    0.201,
       -0.717,   -0.950,    1.033,  -12.127,   -4.657,   -1.284,   -3.025,
       -1.614,    1.439,   -0.811,    3.244,    1.163,    0.538,    1.602,
       -0.977,   -1.425
    },
    {  -4.867,    0.024,   -0.047,    0.016,   -0.090,    0.013,   -0.221,
        0.117,    3.095,    3.462,   -0.154,   -0.597,   -0.644,    0.240,
       -0.213,   -0.231,   -0.370,    0.858,   -4.922,    0.087,   -0.046,
        0.065,   -0.029,    0.034,   -0.027,   -0.322,   -3.010,   -2.862,
        0.012,    0.931,   -0.287,    0.097,    0.030,   -0.352,   -0.521,
        0.390,    2.190,   -0.982,   -0.096,    0.025,    0.012,    0.019,
       -0.079,    0.551,   -0.115,   -2.608,    0.239,   -0.053,    1.377,
        0.154,    0.087,   -0.400,   -0.755,    0.423,    1.565,    0.191,
        0.011,    0.042,    0.087,   -0.026,   -0.384,    0.591,    0.016,
        2.026,    0.084,   -1.049,   -1.355,   -0.978,   -0.162,   -0.332,
        0.420,   -0.078,    1.980,   -0.024,    1.317,    0.953,   -1.274,
        0.440,   -0.063,    0.427,   -0.079,   -4.859,   -0.001,   -0.310,
       -0.330,   -1.586,    0.084,    0.373,   -0.123,   -0.756,    0.679,
       -0.254,    0.145,   -0.155,   -0.482,   -0.015,    0.353,    0.128,
        0.214,   -2.694,    0.083,   -1.260,    0.041,   -0.020,    0.112,
       -0.448,   -0.668,    0.417,  -11.537,   -4.779,   -3.155,   -2.732,
       -3.439,    2.728,   -1.032,    4.923,    0.687,    0.580,    4.775,
       -1.201,   -1.815
    },
    {  -4.696,   -0.006,   -0.022,    0.084,   -0.020,    0.005,   -0.187,
        0.151,    3.017,    4.659,   -0.266,   -1.089,   -0.764,    1.112,
       -0.191,   -0.417,   -0.020,    0.823,   -4.986,    0.055,   -0.079,
       -0.018,   -0.056,    0.000,   -0.108,   -0.395,   -3.027,   -2.009,
       -0.023,    0.573,   -0.400,    0.040,   -0.016,   -0.310,   -0.310,
        0.371,    2.976,   -1.297,   -0.107,    0.039,    0.085,    0.035,
       -0.211,    0.526,   -0.116,   -4.179,    0.314,   -0.325,    1.743,
        0.144,   -0.112,   -0.335,   -0.915,    0.575,    1.622,    0.148,
       -0.009,   -0.024,    0.069,    0.005,   -0.361,    0.578,   -0.009,
        1.520,   -0.054,   -0.954,   -0.697,   -0.417,   -0.156,   -0.168,
        0.179,    0.179,    1.946,    0.196,    1.272,    1.039,   -1.396,
        0.061,   -0.470,    0.271,    0.270,   -3.583,   -0.187,   -0.523,
       -0.250,   -0.344,   -0.018,    0.460,    0.242,   -1.165,    0.806,
       -0.115,   -0.150,   -0.113,   -0.678,   -0.103,    0.273,   -0.363,
        0.711,   -3.673,   -0.091,   -1.685,    0.106,   -0.203,    0.145,
       -0.390,   -0.793,    0.516,  -15.534,   -4.291,   -1.859,   -2.633,
       -2.328,    3.390,   -1.832,    6.090,    1.054,    0.720,    3.484,
       -0.980,   -1.785
    },
    {  -4.739,    0.032,   -0.030,    0.013,   -0.051,    0.085,   -0.164,
        0.165,    2.951,    5.572,   -0.074,   -1.405,   -0.766,    0.522,
        0.056,   -0.344,   -0.478,    1.089,   -4.643,    0.010,   -0.060,
        0.035,   -0.007,    0.012,   -0.126,   -0.399,   -2.692,   -2.914,
       -0.049,    0.823,   -0.299,    0.016,   -0.056,   -0.302,   -0.296,
        0.286,    2.281,   -0.818,   -0.048,    0.064,   -0.010,    0.024,
       -0.098,    0.361,    0.032,   -2.796,    0.148,   -0.136,    1.147,
        0.093,   -0.006,   -0.172,   -0.724,    0.305,    1.381,    0.234,
        0.021,    0.065,    0.135,   -0.048,   -0.451,    0.755,   -0.023,
        2.599,    0.008,   -1.703,   -1.134,   -0.887,   -0.143,   -0.452,
        0.432,   -0.128,    1.502,    0.035,    1.248,    0.887,   -1.297,
        0.137,   -0.009,    0.303,   -0.514,   -4.618,    0.103,   -0.091,
       -0.164,   -1.810,    0.021,    0.131,   -0.831,   -0.332,    0.739,
       -0.344,   -0.057,   -0.027,   -0.442,   -0.042,    0.310,   -0.471,
        0.574,   -3.942,   -0.081,   -1.721,   -0.070,   -0.195,   -0.002,
       -0.470,   -0.432,    0.478,  -16.470,   -4.806,   -5.630,   -2.918,
       -5.674,    5.310,   -2.354,    2.631,    0.698,    0.531,    1.425,
       -1.059,   -1.740
    },
    {  -4.809,    0.041,   -0.004,    0.037,    0.032,   -0.009,   -0.262,
        0.181,    3.039,    5.623,   -0.099,   -1.109,   -1.329,   -0.075,
       -0.390,   -0.667,   -0.625,    1.464,   -5.700,    0.081,    0.055,
       -0.014,    0.016,    0.025,   -0.125,   -0.486,   -3.368,   -3.189,
        0.182,    1.281,   -0.129,    0.010,    0.073,   -0.438,   -0.714,
        0.674,    2.333,   -1.059,    0.003,   -0.044,    0.042,    0.036,
       -0.085,    0.519,   -0.166,   -2.545,   -0.098,   -0.278,    1.526,
        0.040,    0.182,   -0.033,   -0.975,   -0.003,    1.372,    0.156,
       -0.046,    0.039,    0.056,   -0.014,   -0.369,    0.574,   -0.034,
        2.568,    0.128,   -1.472,   -1.163,   -1.119,    0.009,   -0.062,
        0.086,   -0.418,    2.004,    0.042,    1.431,    1.061,   -1.373,
        0.248,   -0.084,    0.570,   -0.408,   -5.560,    0.363,    0.254,
        0.361,   -2.369,    0.291,    0.032,   -0.519,   -0.693,    0.551,
       -0.281,    0.076,   -0.314,   -0.684,   -0.032,    0.519,    0.019,
        0.032,   -3.829,   -0.119,   -1.389,    0.063,   -0.089,    0.068,
       -0.448,   -0.569,    0.513,  -16.008,   -4.602,   -2.545,   -2.451,
       -1.795,    2.948,   -0.803,    4.485,    0.617,    0.609,    1.087,
       -0.733,   -4.287
    },
    {  -4.491,    0.007,    0.037,    0.003,   -0.005,   -0.031,   -0.154,
        0.146,    2.789,    3.425,   -0.201,   -0.755,   -0.504,    0.449,
       -0.106,   -0.292,   -0.651,    1.069,   -4.572,    0.045,   -0.065,
        0.022,   -0.054,    0.032,   -0.073,   -0.137,   -2.757,   -3.732,
       -0.010,    1.533,   -0.606,    0.028,    0.101,   -0.605,   -0.270,
        0.409,    2.262,   -1.133,   -0.064,    0.179,    0.086,    0.054,
       -0.118,    0.500,   -0.071,   -3.341,    0.332,   -0.220,    1.468,
        0.117,   -0.040,   -0.275,   -0.879,    0.382,    1.363,    0.200,
       -0.017,    0.029,    0.105,   -0.013,   -0.431,    0.637,   -0.080,
        2.463,    0.000,   -1.728,   -1.080,   -0.636,   -0.126,   -0.412,
        0.197,    0.284,    1.855,    0.103,    1.325,    1.214,   -1.288,
        0.164,   -0.136,    0.483,   -0.063,   -3.652,    0.058,   -0.245,
       -0.639,   -0.790,   -0.256,    0.528,   -0.298,   -0.581,    1.130,
       -0.189,   -0.194,    0.046,   -0.571,    0.061,    0.244,   -0.812,
        0.911,   -4.370,   -0.152,   -1.991,   -0.057,   -0.192,   -0.011,
       -0.598,   -0.954,    0.775,  -13.646,   -5.187,   -2.227,   -3.109,
       -1.746,    1.909,   -1.756,    3.797,    0.813,    0.562,    1.007,
       -0.884,   -1.213
    },
    {  -4.377,    0.066,   -0.018,    0.018,   -0.061,    0.032,   -0.175,
        0.198,    2.645,    3.510,   -0.054,   -0.965,   -0.355,    0.035,
       -0.299,   -0.231,   -0.429,    0.724,   -4.997,   -0.044,   -0.077,
        0.047,   -0.018,    0.007,   -0.054,   -0.236,   -3.059,   -2.662,
        0.097,    1.177,   -0.359,   -0.016,    0.038,   -0.412,   -0.494,
        0.445,    2.937,   -1.360,   -0.083,    0.055,   -0.001,    0.029,
       -0.144,    0.517,   -0.012,   -2.094,    0.111,   -0.116,    0.633,
        0.066,    0.035,   -0.112,   -0.523,    0.327,    1.231,    0.204,
       -0.015,    0.100,    0.032,   -0.038,   -0.472,    0.703,   -0.039,
        2.240,   -0.033,   -1.315,   -1.115,   -0.852,   -0.077,   -0.438,
        0.341,    0.092,    1.691,   -0.061,    1.200,    0.970,   -1.176,
        0.325,    0.153,    0.104,   -0.102,   -3.473,   -0.832,   -1.088,
       -0.755,   -0.117,    0.205,   -0.150,    0.204,   -1.067,    0.846,
       -0.271,   -0.094,   -0.200,   -0.784,    0.040,    0.433,   -0.009,
        0.326,   -2.768,   -0.138,   -1.048,   -0.053,   -0.059,    0.026,
       -0.347,   -0.530,    0.320,  -15.658,   -4.786,   -2.683,   -2.692,
       -1.634,    2.721,   -3.137,    2.868,    0.775,    0.520,    0.429,
       -0.716,   -2.711
    },
    {  -4.422,    0.037,   -0.052,    0.010,   -0.047,    0.027,   -0.163,
        0.206,    2.606,    2.860,   -0.013,   -0.803,   -0.729,    0.190,
       -0.068,   -0.417,   -0.373,    0.606,   -5.377,   -0.026,   -0.062,
        0.002,    0.086,    0.045,   -0.090,   -0.476,   -3.085,   -3.558,
        0.072,    1.002,   -0.357,    0.043,    0.053,   -0.314,   -0.327,
        0.362,    2.390,   -0.954,   -0.092,    0.036,    0.029,   -0.003,
       -0.079,    0.424,   -0.046,   -3.289,    0.202,   -0.301,    1.654,
        0.355,   -0.085,   -0.190,   -1.205,    0.371,    1.596,    0.166,
       -0.021,    0.030,    0.085,    0.015,   -0.377,    0.589,   -0.044,
        2.381,    0.061,   -1.408,   -1.058,   -0.442,   -0.085,   -0.384,
        0.264,   -0.131,    1.482,    0.059,    0.834,    0.745,   -1.119,
        0.074,   -0.121,    0.392,   -0.195,   -4.238,   -0.206,   -0.409,
       -0.690,    0.907,    0.063,    0.513,    0.599,   -1.180,    0.859,
       -0.328,   -0.111,   -0.172,   -0.758,   -0.022,    0.496,   -0.371,
        0.321,   -4.157,   -0.014,   -1.630,    0.056,   -0.165,    0.127,
       -0.461,   -0.800,    0.572,  -25.842,   -5.684,   -1.563,   -2.870,
       -8.783,    3.644,   -0.819,    5.717,    1.023,    0.696,    2.050,
       -0.678,   -3.164
    },
    {  -4.777,    0.009,   -0.034,    0.022,   -0.020,    0.065,   -0.190,
        0.085,    3.040,    3.007,   -0.079,   -0.604,   -0.591,    0.276,
       -0.194,   -0.376,   -0.404,    0.854,   -5.135,   -0.023,   -0.070,
       -0.003,    0.019,   -0.005,   -0.059,   -0.383,   -3.054,   -3.088,
        0.052,    0.957,   -0.261,    0.046,    0.024,   -0.346,   -0.414,
        0.370,    2.613,   -0.945,   -0.033,    0.066,   -0.032,    0.021,
       -0.080,    0.430,   -0.111,   -2.367,    0.132,   -0.262,    0.905,
        0.065,   -0.035,   -0.280,   -0.646,    0.267,    1.636,    0.139,
       -0.015,    0.027,    0.031,   -0.017,   -0.309,    0.471,   -0.059,
        1.700,   -0.005,   -0.964,   -0.861,   -0.618,   -0.119,   -0.260,
        0.046,    0.166,    1.939,    0.057,    1.169,    0.842,   -1.414,
        0.085,   -0.236,    0.073,    0.137,   -3.714,   -0.094,   -0.391,
       -0.630,    0.584,   -0.129,    0.327,    0.615,   -1.026,    0.863,
       -0.227,   -0.022,   -0.208,   -0.885,   -0.105,    0.495,   -0.101,
        0.136,   -3.538,   -0.149,   -1.533,   -0.038,   -0.113,    0.055,
       -0.508,   -0.639,    0.607,  -26.352,   -5.352,   -1.593,   -2.840,
       -6.010,    5.485,   -1.751,    8.927,    1.050,    0.760,    2.878,
       -1.001,   -2.125
    },
    {  -4.697,    0.036,   -0.011,    0.015,    0.003,    0.053,   -0.214,
        0.105,    2.994,    3.006,    0.003,   -0.891,   -0.612,    0.100,
       -0.203,   -0.402,   -0.584,    0.531,   -4.741,   -0.049,   -0.133,
       -0.122,   -0.063,   -0.055,   -0.127,   -0.344,   -2.740,   -2.965,
       -0.129,    0.689,   -0.360,    0.071,   -0.014,   -0.297,   -0.462,
        0.507,    2.332,   -0.938,   -0.051,    0.106,   -0.007,    0.015,
       -0.036,    0.518,   -0.162,   -2.106,    0.033,   -0.275,    0.835,
        0.016,    0.023,   -0.069,   -0.809,    0.236,    1.591,    0.347,
        0.004,    0.233,    0.066,   -0.003,   -0.807,    0.763,    0.138,
        1.351,   -0.116,   -0.785,   -0.573,   -0.461,   -0.101,   -0.007,
        0.148,   -0.004,    1.931,   -0.029,    1.579,    1.077,   -1.415,
        0.302,   -0.044,    0.048,   -0.047,   -2.142,   -0.236,   -0.354,
       -0.524,   -0.139,   -0.079,    0.308,    0.619,   -0.933,    0.501,
       -0.185,   -0.084,   -0.149,   -0.423,   -0.039,    0.329,   -0.023,
        0.052,   -2.257,   -0.076,   -0.959,   -0.223,   -0.098,    0.114,
       -0.451,   -0.437,    0.525,  -17.827,   -4.850,   -2.079,   -3.156,
       -5.804,    3.714,   -2.096,    1.834,    1.848,    0.645,    1.786,
       -1.896,   -1.307
    },
    {  -4.322,    0.006,   -0.018,   -0.017,   -0.041,    0.008,   -0.115,
        0.142,    2.619,    3.302,   -0.025,   -0.792,   -0.709,    0.070,
       -0.054,   -0.384,   -0.547,    0.696,   -5.381,   -0.002,   -0.124,
       -0.114,   -0.062,   -0.042,   -0.092,   -0.420,   -3.206,   -3.727,
        0.122,    1.475,   -0.118,   -0.010,    0.063,   -0.403,   -0.501,
        0.483,    2.322,   -1.220,   -0.001,    0.093,   -0.043,    0.033,
       -0.095,    0.546,   -0.079,   -1.650,    0.026,   -0.033,    0.835,
        0.089,    0.076,    0.023,   -0.659,    0.085,    1.651,    0.271,
       -0.013,    0.264,    0.165,   -0.035,   -0.741,    0.761,    0.031,
        1.424,    0.025,   -0.825,   -0.768,   -0.794,    0.029,   -0.060,
        0.270,   -0.119,    1.707,   -0.014,    1.185,    0.931,   -0.833,
        0.236,    0.029,    0.497,    0.014,   -2.701,   -0.068,   -0.437,
       -0.837,   -0.339,    0.018,    0.854,    0.966,   -1.342,    0.662,
       -0.244,    0.046,   -0.332,   -0.682,   -0.038,    0.455,   -0.061,
        0.171,   -3.856,   -0.042,   -1.213,    0.205,   -0.007,    0.131,
       -0.406,   -0.612,    0.589,  -19.242,   -5.402,   -2.653,   -2.473,
       -3.463,    1.746,   -1.596,    2.128,    1.009,    0.819,    1.280,
       -1.230,   -7.649
    },
    {  -4.871,    0.009,   -0.010,    0.038,   -0.004,    0.000,   -0.206,
        0.101,    3.106,    3.122,   -0.031,   -0.758,   -0.770,    0.058,
       -0.004,   -0.305,   -0.580,    0.830,   -4.344,    0.018,   -0.009,
       -0.044,   -0.004,    0.014,   -0.033,   -0.387,   -2.585,   -3.112,
       -0.025,    0.911,   -0.546,   -0.067,   -0.038,   -0.398,   -0.550,
        0.513,    2.482,   -0.876,   -0.026,    0.074,   -0.015,    0.030,
       -0.047,    0.555,   -0.123,   -2.914,    0.149,   -0.413,    1.633,
        0.144,    0.105,   -0.247,   -1.200,    0.335,    1.406,    0.286,
        0.027,    0.090,    0.042,   -0.023,   -0.521,    0.710,   -0.068,
        1.903,   -0.087,   -1.055,   -0.801,   -0.464,   -0.018,   -0.120,
        0.207,   -0.017,    2.021,    0.162,    1.429,    0.958,   -1.625,
        0.285,   -0.178,    0.311,   -0.146,   -2.367,   -0.166,   -0.245,
       -0.541,    0.110,    0.100,    0.618,    0.660,   -1.570,    0.769,
       -0.324,   -0.018,   -0.107,   -0.739,    0.037,    0.531,    0.001,
        0.207,   -3.463,   -0.075,   -1.372,   -0.075,   -0.043,    0.040,
       -0.431,   -0.625,    0.490,  -19.081,   -4.621,   -1.885,   -3.062,
       -3.085,    5.695,   -0.778,    2.716,    1.382,    0.650,    0.758,
       -0.959,   -2.828
    },
    {  -4.216,   -0.003,   -0.053,    0.051,   -0.043,    0.061,   -0.186,
        0.170,    2.502,    4.087,   -0.083,   -0.969,   -0.691,    0.167,
       -0.119,   -0.337,   -0.712,    1.122,   -5.783,   -0.020,   -0.060,
       -0.086,   -0.030,    0.029,   -0.084,   -0.277,   -3.587,   -3.158,
       -0.019,    1.015,   -0.289,    0.075,    0.155,   -0.369,   -0.347,
        0.460,    2.457,   -1.142,   -0.147,    0.035,   -0.007,    0.021,
       -0.034,    0.493,   -0.174,   -2.257,    0.150,   -0.162,    0.918,
        0.078,   -0.025,   -0.170,   -0.680,    0.229,    1.479,    0.165,
       -0.049,    0.043,    0.036,   -0.023,   -0.400,    0.610,    0.006,
        2.413,    0.030,   -1.432,   -1.171,   -1.084,   -0.205,   -0.189,
        0.557,   -0.204,    1.616,    0.025,    1.089,    0.842,   -1.115,
        0.271,    0.157,    0.498,   -0.177,   -2.372,   -0.429,   -0.647,
       -0.741,    0.058,    0.202,    0.342,    1.255,   -1.721,    0.646,
       -0.227,    0.003,   -0.163,   -0.615,   -0.059,    0.458,    0.203,
       -0.072,   -2.739,   -0.035,   -1.110,   -0.113,   -0.095,    0.230,
       -0.474,   -0.833,    0.553,  -17.742,   -5.363,   -3.083,   -2.774,
       -4.146,    2.804,   -2.230,    4.144,    0.846,    0.855,    0.546,
       -1.291,   -1.538
    },
    {  -5.189,    0.034,    0.005,    0.016,   -0.034,    0.040,   -0.226,
        0.171,    3.269,    3.756,   -0.082,   -0.984,   -0.607,   -0.032,
       -0.144,   -0.469,   -0.636,    0.749,   -4.416,    0.072,   -0.010,
       -0.105,    0.038,   -0.010,   -0.141,   -0.295,   -2.500,   -3.046,
       -0.037,    0.953,   -0.284,   -0.060,    0.125,   -0.339,   -0.376,
        0.471,    2.896,   -1.466,   -0.092,   -0.047,    0.063,    0.019,
       -0.165,    0.763,   -0.294,   -2.482,   -0.243,    0.163,    1.519,
        0.032,    0.133,    0.071,   -1.646,    0.310,    1.409,    0.205,
       -0.041,    0.099,    0.018,    0.005,   -0.439,    0.581,    0.075,
        1.443,    0.094,   -0.643,   -0.791,   -0.796,   -0.084,   -0.057,
       -0.112,   -0.085,    1.789,   -0.020,    1.170,    1.174,   -0.988,
        0.179,   -0.180,    0.149,    0.132,   -2.645,   -0.001,   -0.405,
       -0.830,   -0.021,   -0.180,    0.475,    1.124,   -1.552,    0.517,
        0.017,   -0.038,   -0.152,   -0.485,   -0.071,    0.292,   -0.121,
        0.165,   -2.931,   -0.075,   -1.196,    0.166,   -0.104,    0.131,
       -0.398,   -0.583,    0.560,  -15.931,   -4.356,   -3.045,   -3.161,
       -5.284,    1.856,   -0.639,    3.108,    1.163,    0.833,    0.899,
       -1.482,   -2.781
    },
    {  -4.526,    0.022,   -0.025,    0.038,   -0.027,    0.020,   -0.189,
        0.172,    2.733,    3.190,   -0.150,   -0.594,   -0.896,    0.250,
       -0.077,   -0.304,   -0.427,    0.777,   -5.091,    0.002,   -0.091,
       -0.069,   -0.030,    0.013,   -0.162,   -0.374,   -2.933,   -2.905,
        0.081,    0.780,   -0.277,    0.054,    0.036,   -0.364,   -0.374,
