//-----------------------------------------------------------------------------
// Network: bnn_4e_8TeV_new
// Inputs:
//                                                  Offset       Scale
//    angle_costhetastar                        -9.113e-04   5.831e-01
//    angle_costheta1                            2.206e-03   5.662e-01
//    angle_costheta2                           -1.438e-03   5.087e-01
//    angle_phi                                  8.028e-03   1.888e+00
//    angle_phistar1                             1.041e-02   1.784e+00
//    Z1mass                                     8.634e+01   1.034e+01
//    Z2mass                                     4.171e+01   2.057e+01
//    mass4l                                     1.472e+02   2.113e+01
//
// Created: Wed Jan 23 20:03:15 2013
//-----------------------------------------------------------------------------
#include <cmath>
#include <vector>
#include <iostream>
//-----------------------------------------------------------------------------
// Make following visible only to this programming unit
namespace nsbnn_4e_8TeV_new {
  // NOTE: Network indices start at 0
  static const int nnetworks=100;
  static const int ninputs  =8;
  static const int nhidden  =12;
  static const int nparams  =121;

  static const double mean[ninputs]={
 -9.11300e-04,
  2.20600e-03,
 -1.43800e-03,
  8.02800e-03,
  1.04100e-02,
  8.63400e+01,
  4.17100e+01,
  1.47200e+02
  };

  static const double sigma[ninputs]={
  5.83100e-01,
  5.66200e-01,
  5.08700e-01,
  1.88800e+00,
  1.78400e+00,
  1.03400e+01,
  2.05700e+01,
  2.11300e+01
  };

  static const double weight[nnetworks][nparams]={
    {  -2.259,    0.008,   -0.047,   -0.038,    0.044,   -0.004,   -0.131,
        0.178,    1.208,    1.979,   -0.550,   -0.140,    0.119,    0.175,
        0.020,   -0.492,    1.014,   -0.244,    1.766,    0.719,   -0.092,
       -0.122,    0.046,   -0.113,   -0.261,    0.454,   -0.092,    1.929,
       -0.373,   -0.744,   -1.019,   -1.394,   -0.285,   -0.328,    0.937,
        0.239,    3.288,   -0.347,   -0.260,    0.101,   -0.037,    0.160,
       -4.007,    0.378,   -0.148,   -3.869,   -0.171,   -1.136,   -1.839,
       -0.054,   -0.494,    0.129,   -1.199,    0.691,    2.163,   -1.264,
        0.981,   -1.577,    0.793,    0.504,   -0.589,    1.778,   -0.206,
       -9.314,   -0.008,   -0.088,   -0.005,    0.302,   -0.149,    0.436,
        0.429,    3.935,    5.144,   -0.044,    2.089,    0.038,   -0.140,
       -0.144,    0.528,    1.156,   -0.985,    2.777,    0.140,    1.534,
        2.076,    0.758,   -0.040,   -0.082,    1.181,    1.488,    4.926,
       -0.252,    0.799,    0.005,   -0.497,   -0.452,    1.204,    1.643,
       -1.224,   -4.424,    0.037,    1.769,   -0.112,    0.043,   -0.088,
       -0.543,   -0.645,    0.712,  -13.336,   -7.984,    1.410,    2.408,
        0.546,    0.533,   -0.219,    0.384,   13.944,    9.605,    0.440,
       -3.786,  -10.177
    },
    {  -2.530,   -0.001,   -0.004,    0.007,    0.042,    0.046,   -0.133,
        0.173,    1.270,    2.227,   -0.603,   -0.111,    0.216,    0.473,
       -0.207,   -0.490,    1.441,   -0.146,    3.182,    1.838,   -0.145,
       -0.340,    0.230,   -0.184,   -0.926,    1.431,   -0.345,    1.139,
       -0.103,   -0.913,   -0.562,   -1.812,   -0.402,   -0.255,    1.422,
        0.196,    3.383,   -0.514,   -0.455,   -0.092,   -0.144,    0.313,
       -3.475,    0.346,    0.182,   -3.837,   -0.497,   -0.708,   -1.308,
        0.793,   -0.148,    0.721,   -0.889,    1.478,    1.721,   -0.883,
        0.480,   -1.473,    0.615,    0.962,   -0.231,    1.710,   -0.662,
       -8.299,    0.037,    0.001,   -0.067,    0.169,    0.004,    0.249,
        0.185,    3.711,    6.276,    0.079,    2.507,   -0.069,   -0.173,
       -0.056,    0.726,    1.177,   -1.143,    1.737,    0.475,    1.110,
        1.246,    1.002,    0.112,    0.326,    0.074,    0.240,    4.045,
       -0.161,    0.321,   -0.081,   -0.420,   -0.489,    1.029,    0.696,
       -0.743,   -4.478,   -0.195,    2.019,    0.011,    0.071,   -0.040,
       -0.599,   -0.583,    0.807,   -1.950,  -10.694,    0.926,    0.850,
        0.552,    0.785,   -0.682,    0.407,   23.477,   13.516,    0.487,
       -5.457,   -4.498
    },
    {  -2.418,   -0.003,    0.033,    0.026,    0.062,    0.022,   -0.255,
        0.202,    1.544,    2.987,   -0.860,   -0.737,    0.125,    0.901,
       -0.490,   -0.625,    1.486,   -0.394,    3.651,    2.376,   -0.291,
       -0.241,    0.491,    0.042,   -0.133,    1.208,   -0.228,    1.341,
       -0.297,   -0.274,   -0.428,   -1.136,   -0.244,   -0.195,    0.875,
        0.080,    2.681,   -0.038,   -0.258,   -0.234,   -0.110,   -0.129,
       -3.832,    0.456,   -0.418,   -3.832,   -0.263,   -0.770,   -1.549,
       -0.106,   -0.255,   -0.252,   -1.013,    1.606,    1.557,   -0.316,
        0.379,   -0.181,    0.140,    0.583,   -0.297,    1.456,    0.075,
       -7.571,    0.031,    0.032,    0.219,   -0.024,   -0.155,   -0.006,
        0.042,    3.299,    4.533,    0.035,    1.937,   -0.178,   -0.067,
       -0.206,    0.867,    0.955,   -1.055,    1.326,    0.357,    0.976,
        1.026,    0.816,   -0.196,    0.060,    0.447,    0.271,    4.501,
       -0.240,    0.668,   -0.064,   -0.390,   -0.277,    1.559,    0.948,
       -1.269,   -5.022,   -0.032,    2.304,   -0.045,    0.216,   -0.061,
       -0.810,   -1.060,    1.138,    5.707,   -5.252,    0.714,    0.727,
        0.610,    0.798,   -0.830,    0.624,   18.150,    4.186,    0.429,
       -3.172,   -3.924
    },
    {  -2.383,    0.023,    0.046,   -0.015,    0.028,    0.006,   -0.168,
        0.225,    1.335,    4.768,   -1.617,    0.544,    0.139,    0.369,
        0.247,   -0.099,    3.368,    0.163,    2.124,    1.121,   -0.090,
       -0.347,    0.212,   -0.010,   -0.306,    0.968,   -0.265,    1.774,
       -0.338,   -0.875,   -0.847,   -1.779,   -0.346,   -0.691,    1.115,
        0.641,    2.203,   -0.242,   -0.236,   -0.013,    0.089,   -0.154,
       -2.887,    0.410,   -0.024,   -4.606,   -1.543,   -1.072,   -2.179,
        0.890,    0.289,    0.413,   -0.289,    0.999,    0.604,   -0.334,
        0.006,   -0.484,    0.375,    0.281,    0.031,    1.262,   -0.389,
       -9.991,   -0.061,   -0.097,   -0.070,    0.025,   -0.116,    0.485,
        0.264,    4.587,    5.539,   -0.117,    2.631,   -0.007,   -0.200,
       -0.059,    0.734,    0.994,   -1.198,    3.585,    0.010,    2.009,
        2.852,    1.472,   -0.135,   -0.411,    0.502,    1.113,    5.136,
       -0.701,    0.690,   -0.245,   -0.502,   -0.169,    1.540,    1.449,
       -1.437,   -4.950,   -0.138,    2.151,   -0.052,    0.112,   -0.076,
       -0.688,   -0.957,    1.055,   -3.827,   -7.162,    0.591,    1.179,
        0.474,    0.812,   -0.405,    0.438,   12.039,    5.006,    0.316,
       -2.649,   -4.632
    },
    {  -2.645,    0.085,   -0.014,    0.015,    0.033,    0.038,   -0.134,
        0.307,    1.550,    4.284,   -1.198,    0.190,    0.291,    0.236,
       -0.121,   -0.296,    2.943,    0.275,    2.373,    1.284,   -0.318,
       -0.388,    0.328,    0.013,   -0.637,    1.000,   -0.354,    1.542,
       -0.205,   -0.668,   -0.948,   -1.387,   -0.370,   -0.017,    0.946,
        0.439,    2.792,   -0.271,   -0.386,   -0.077,    0.021,   -0.127,
       -3.499,    0.631,   -0.154,   -4.559,   -1.510,   -0.663,   -1.953,
        0.935,    0.320,    0.417,   -0.384,    1.252,    1.021,   -0.473,
        0.375,   -0.215,    0.214,    0.299,   -0.123,    1.482,   -0.484,
      -10.076,   -0.055,    0.091,   -0.162,   -0.042,   -0.010,    0.277,
        0.187,    4.732,    5.244,    0.079,    2.253,    0.104,   -0.052,
       -0.122,    0.668,    1.052,   -1.208,    4.624,   -0.270,    2.260,
        3.314,    1.670,   -0.043,   -0.135,    0.620,    1.111,    4.968,
       -0.267,    0.545,    0.088,   -0.349,   -0.469,    1.675,    1.484,
       -1.534,   -5.136,   -0.021,    2.369,   -0.069,    0.108,   -0.072,
       -0.655,   -1.016,    1.098,   -3.869,   -5.873,    0.334,    0.975,
        0.494,    0.692,   -0.436,    0.672,   11.401,    5.953,    0.403,
       -2.275,   -4.102
    },
    {  -2.977,    0.119,   -0.030,    0.077,    0.036,    0.098,   -0.161,
        0.297,    1.811,    3.996,   -0.809,   -0.967,    0.520,    0.794,
       -1.140,   -0.776,    2.668,   -0.539,    1.750,    0.688,    0.158,
       -0.138,    0.154,   -0.047,   -0.348,    0.617,   -0.182,    3.008,
       -0.346,   -1.110,   -1.250,   -1.401,   -0.398,   -0.723,    1.455,
        1.085,    3.303,   -0.380,   -0.404,    0.013,   -0.223,    0.275,
       -3.997,    0.013,    0.205,   -3.770,   -0.438,   -0.057,   -1.480,
        0.602,    0.114,   -0.267,   -0.789,    2.327,    1.778,   -0.783,
        0.281,   -0.833,    0.169,    0.454,    0.127,    1.654,   -0.670,
      -10.985,   -0.114,    0.023,    0.020,    0.009,   -0.176,    0.342,
        0.389,    5.078,    6.203,   -0.037,    2.938,    0.001,   -0.117,
       -0.059,    0.750,    1.335,   -1.081,    4.420,   -0.646,    1.635,
        2.554,    0.710,    0.278,   -0.522,    1.329,    0.822,    5.882,
       -0.517,    0.950,    0.169,   -0.229,   -0.325,    1.986,    1.833,
       -1.781,   -4.161,   -0.174,    1.915,   -0.135,    0.067,   -0.174,
       -0.831,   -0.668,    1.121,   -4.095,   -5.568,    0.484,    1.844,
        0.400,    0.742,   -0.965,    0.656,    9.941,    4.978,    0.440,
       -2.824,   -2.960
    },
    {  -2.555,   -0.010,   -0.008,   -0.017,    0.057,    0.001,   -0.247,
        0.236,    1.498,    2.111,   -0.693,   -0.472,   -0.043,    0.043,
       -0.273,   -0.302,    1.413,   -0.277,    2.444,    1.363,   -0.164,
       -0.294,    0.122,    0.049,   -0.331,    1.234,   -0.313,    1.569,
       -0.453,   -0.774,   -0.701,   -1.496,   -0.458,   -0.540,    0.912,
        0.705,    2.399,   -0.264,   -0.116,   -0.135,    0.191,    0.070,
       -3.201,    0.542,   -0.471,   -2.683,   -0.876,   -0.461,   -2.221,
        0.048,   -0.102,   -0.153,   -0.186,    1.341,    3.024,   -1.102,
        1.231,   -0.701,   -0.272,    1.638,    0.560,    2.232,   -0.618,
       -9.351,   -0.005,    0.028,    0.021,    0.065,   -0.102,    0.485,
        0.481,    4.022,    4.475,   -0.088,    1.868,   -0.119,   -0.168,
       -0.051,    0.716,    0.826,   -0.948,    3.500,   -0.016,    1.660,
        2.056,    0.422,   -0.124,   -0.679,    1.009,    0.734,    4.012,
       -0.156,    0.791,    0.080,   -0.604,    0.277,    1.239,    0.691,
       -1.284,   -5.087,   -0.104,    2.484,    0.024,    0.066,   -0.156,
       -0.604,   -0.745,    0.865,   -2.815,   -6.460,    0.939,    1.245,
        0.290,    0.728,   -0.226,    0.435,   11.729,    4.674,    0.481,
       -1.999,   -3.392
    },
    {  -2.394,    0.089,   -0.017,    0.006,   -0.000,    0.013,   -0.114,
        0.246,    1.426,    2.827,   -0.559,   -0.939,    0.231,    0.468,
       -0.491,   -0.891,    1.323,    0.002,    1.548,    0.640,   -0.039,
       -0.239,    0.101,    0.068,   -0.091,    0.635,   -0.151,    1.939,
       -0.172,   -0.907,   -1.183,   -1.509,   -0.222,   -0.665,    0.783,
        0.669,    3.241,   -0.453,   -0.295,   -0.215,   -0.228,    0.418,
       -3.679,    0.745,   -1.085,   -3.632,   -0.567,    0.313,   -0.703,
        0.755,    0.155,   -0.210,   -0.387,    1.658,    2.817,   -1.014,
        0.288,   -0.304,    0.316,    0.283,   -0.044,    1.924,   -0.051,
       -7.842,    0.044,    0.020,   -0.016,    0.116,   -0.132,    0.433,
        0.315,    3.335,    4.704,   -0.112,    2.243,   -0.203,   -0.162,
       -0.095,    0.561,    0.655,   -0.920,    2.524,    0.186,    1.358,
        1.555,    0.582,   -0.113,   -0.647,    0.827,    0.446,    4.200,
       -0.853,   -0.373,   -0.081,   -0.304,   -0.012,    0.812,    0.062,
       -0.444,   -4.318,    0.186,    1.996,   -0.100,    0.135,   -0.123,
       -0.640,   -0.683,    0.843,   -5.063,   -5.357,    0.704,    1.802,
        0.417,    0.648,   -1.483,    0.617,   10.186,    3.329,    0.769,
       -0.545,   -3.092
    },
    {  -2.521,    0.051,   -0.026,    0.072,    0.005,    0.033,   -0.206,
        0.229,    1.297,    2.210,   -0.924,    0.021,    0.044,    0.283,
        0.102,   -0.160,    1.315,   -0.376,    2.045,    0.734,    0.031,
       -0.385,    0.162,    0.018,   -0.617,    1.009,   -0.199,    2.063,
       -0.358,   -0.647,   -0.863,   -1.606,   -0.476,   -0.344,    1.299,
        0.621,    2.650,   -0.393,   -0.333,    0.102,    0.164,   -0.057,
       -3.159,    0.246,   -0.123,   -3.525,   -0.867,    0.121,   -1.262,
        0.679,    0.361,   -0.237,   -0.362,    1.929,    1.062,    0.257,
       -0.202,   -0.380,   -0.365,    1.093,   -0.622,    0.438,   -0.821,
       -7.791,    0.025,    0.029,    0.023,    0.008,    0.012,    0.120,
        0.336,    3.415,    5.138,   -0.041,    2.487,   -0.039,   -0.038,
       -0.059,    0.572,    0.854,   -0.988,    1.793,    0.178,    0.970,
        1.132,    0.846,   -0.044,   -0.211,    0.150,    1.176,    6.082,
       -1.085,    0.893,    0.036,   -0.418,    0.354,    1.666,    0.327,
       -1.541,   -4.453,   -0.183,    2.083,    0.159,   -0.042,   -0.068,
       -0.435,   -0.708,    0.804,    0.865,   -8.614,    1.199,    1.384,
        0.554,    0.709,   -0.995,    0.184,   19.241,    4.531,    0.512,
       -2.850,   -5.100
    },
    {  -2.795,    0.060,   -0.034,    0.045,    0.057,    0.071,   -0.190,
        0.223,    1.704,    2.836,   -1.281,   -0.737,    0.295,    0.213,
       -0.212,   -0.234,    1.653,   -0.378,    1.875,    0.815,   -0.286,
       -0.351,    0.269,   -0.112,   -0.431,    0.745,   -0.058,    2.637,
       -0.403,   -1.151,   -1.505,   -1.910,   -0.599,   -0.667,    1.156,
        0.921,    2.853,   -0.468,   -0.126,    0.051,   -0.010,    0.192,
       -3.573,    0.263,   -0.488,   -3.434,   -1.025,    0.297,   -1.502,
        0.697,    0.250,   -0.177,   -0.390,    1.965,    1.879,   -0.412,
        0.924,   -0.492,   -0.051,    0.777,   -0.055,    2.041,   -0.555,
       -7.767,    0.089,    0.021,   -0.011,   -0.007,   -0.036,    0.407,
        0.139,    3.605,    4.332,   -0.080,    1.767,    0.128,    0.030,
       -0.069,    0.462,    0.733,   -0.752,    2.491,    0.115,    1.204,
        1.581,    0.675,    0.030,   -0.656,    0.536,    0.907,    4.460,
       -0.407,    1.010,    0.187,   -0.282,   -0.044,    1.111,    1.666,
       -1.298,   -4.560,   -0.268,    2.256,    0.090,    0.043,   -0.188,
       -0.688,   -0.669,    1.003,   -7.123,   -6.165,    0.795,    1.414,
        0.416,    0.626,   -0.679,    0.549,   10.108,    8.108,    0.535,
       -1.829,   -2.219
    },
    {  -2.480,    0.087,    0.052,    0.009,    0.023,   -0.032,   -0.123,
        0.233,    1.228,    3.276,   -0.938,   -0.391,    0.115,    0.183,
       -0.279,   -0.006,    1.423,    0.038,    2.366,    0.666,   -0.162,
       -0.549,    0.482,   -0.154,   -0.637,    0.769,   -0.031,    2.344,
       -0.698,   -0.628,   -1.370,   -1.715,   -0.272,   -0.726,    0.998,
        0.431,    2.958,   -0.400,   -0.093,    0.024,    0.111,    0.041,
       -3.692,    0.303,   -0.282,   -2.259,   -1.150,    0.093,   -0.507,
        0.428,    0.339,   -0.442,   -0.197,    0.995,    1.037,    0.028,
        0.078,    0.158,    0.028,    0.361,   -0.074,    1.465,   -0.459,
       -8.359,   -0.013,    0.064,   -0.073,    0.088,   -0.094,    0.265,
        0.197,    3.866,    4.869,   -0.145,    2.407,    0.062,    0.000,
       -0.123,    0.758,    0.830,   -1.043,    2.315,    0.218,    1.689,
        1.904,    1.197,   -0.160,   -0.199,    0.528,    1.850,    4.898,
       -0.157,    0.562,    0.448,   -0.473,   -0.336,    1.716,    1.589,
       -1.505,   -4.586,   -0.098,    2.139,    0.137,    0.085,   -0.008,
       -0.708,   -0.938,    1.002,   -2.773,   -9.018,    1.090,    1.318,
        0.591,    0.732,   -0.934,    0.799,   13.481,    3.366,    0.301,
       -2.195,   -2.864
    },
    {  -2.188,    0.002,    0.036,   -0.002,    0.029,   -0.010,   -0.106,
        0.211,    1.151,    1.940,   -1.001,    0.026,    0.204,   -0.201,
       -0.424,   -0.249,    0.283,   -0.019,    2.331,    0.825,    0.033,
       -0.077,    0.289,   -0.480,   -0.509,    0.726,   -0.265,    0.608,
       -0.111,   -0.230,   -0.392,   -0.192,   -0.157,   -0.055,    0.480,
        0.135,    2.063,   -0.233,   -0.126,   -0.024,    0.003,    0.158,
       -2.538,    0.200,    0.229,   -3.173,   -1.045,    0.414,   -0.585,
        1.654,    0.043,   -0.313,   -0.222,    0.838,    1.004,    0.167,
        0.465,   -0.016,    0.010,    0.815,    0.100,    1.174,   -0.535,
       -8.929,    0.016,   -0.035,    0.038,    0.014,   -0.087,    0.429,
        0.436,    3.757,    4.928,   -0.017,    2.087,    0.052,    0.013,
       -0.124,    0.595,    0.848,   -0.970,    2.756,    0.407,    1.873,
        2.370,    1.376,    0.164,    0.223,    0.620,    1.203,    4.289,
       -0.069,    0.309,   -0.185,   -0.525,    0.167,    1.031,    1.154,
       -0.966,   -4.379,   -0.002,    1.695,   -0.012,    0.023,   -0.082,
       -0.479,   -0.708,    0.787,   -5.406,   -8.024,    0.874,    1.551,
        1.270,    0.868,   -0.544,    0.803,   15.444,    6.729,    0.482,
       -5.154,   -8.296
    },
    {  -2.474,    0.034,    0.001,    0.009,   -0.021,    0.016,   -0.103,
        0.250,    1.261,    2.240,   -0.948,   -0.734,    0.085,   -0.211,
       -0.105,   -0.425,    1.040,   -0.001,    2.464,    1.307,   -0.262,
       -0.360,   -0.092,   -0.083,   -0.071,    0.889,   -0.368,    2.383,
       -1.214,   -0.488,   -1.936,   -0.702,   -0.279,    0.014,    1.208,
        0.898,    1.774,    0.023,   -0.129,   -0.149,   -0.116,    0.054,
       -2.032,    0.412,   -0.223,   -3.097,   -1.115,    0.359,   -0.571,
        1.493,   -0.147,   -0.225,    0.808,   -0.275,    0.684,   -0.087,
        0.222,   -0.037,    0.205,    0.160,    0.173,    1.127,   -0.698,
       -8.799,   -0.036,    0.160,   -0.006,    0.074,   -0.240,    0.450,
        0.595,    3.469,    4.544,   -0.116,    2.024,    0.036,   -0.099,
       -0.161,    0.465,    0.638,   -0.814,    1.863,    0.377,    0.695,
        1.015,    0.548,   -0.172,   -0.721,    0.414,    0.967,    3.790,
       -0.025,   -0.019,    0.041,   -0.150,    0.012,    1.362,    0.848,
       -1.274,   -3.892,   -0.178,    1.731,    0.100,   -0.064,   -0.114,
       -0.654,   -0.562,    0.864,   -3.243,   -7.924,    0.910,    1.035,
        0.292,    0.945,   -0.567,    0.849,   13.117,    4.965,    0.617,
       -1.904,   -2.920
    },
    {  -2.530,    0.148,    0.002,    0.130,   -0.002,    0.008,   -0.310,
        0.235,    1.559,    2.576,   -0.998,   -0.391,    0.399,    0.146,
       -0.082,   -0.672,    1.086,   -0.195,    3.166,    1.477,   -0.385,
       -0.266,    0.149,   -0.194,   -0.709,    1.810,   -0.529,    1.217,
       -0.447,   -0.276,   -0.925,   -0.428,   -0.202,   -0.220,    1.298,
        0.488,    2.273,   -0.128,   -0.378,   -0.010,    0.017,    0.054,
       -2.909,   -0.044,   -0.396,   -2.680,   -0.977,    0.218,   -0.596,
        0.884,    0.567,   -0.685,    0.250,    1.261,    1.047,    0.008,
        0.850,   -0.201,   -0.085,    0.918,   -0.510,    1.650,   -0.646,
      -10.185,   -0.070,    0.221,    0.143,    0.020,   -0.190,   -0.112,
        0.545,    4.397,    4.795,   -0.058,    1.970,    0.151,   -0.120,
       -0.020,    0.321,    0.912,   -0.787,    2.229,    1.032,    1.755,
        2.040,    1.830,   -0.149,    0.772,   -0.265,    0.372,    2.711,
        0.588,    0.532,    0.011,   -0.559,   -0.559,    0.968,    0.557,
       -0.754,   -4.153,   -0.160,    2.056,    0.052,    0.005,   -0.122,
       -0.871,   -0.972,    1.334,   -6.961,   -4.704,    0.999,    0.975,
        0.766,    0.714,   -1.021,    0.402,   10.804,    9.573,    0.538,
       -0.960,   -1.744
    },
    {  -2.401,    0.008,   -0.023,    0.032,   -0.014,   -0.001,   -0.103,
        0.193,    1.309,    1.634,   -0.374,    0.047,    0.319,    0.263,
        0.013,   -0.159,    1.044,   -0.849,    2.288,    1.071,   -0.218,
       -0.441,    0.277,   -0.189,   -0.683,    0.907,   -0.159,    2.130,
       -0.351,   -0.468,   -1.338,   -1.271,   -0.461,   -0.382,    1.428,
        0.524,    3.511,   -1.301,   -0.425,   -0.088,   -0.167,    0.088,
       -2.975,    0.171,    0.268,   -3.385,   -1.682,   -0.264,   -0.989,
        1.638,    0.638,   -0.582,    0.064,    1.242,    0.775,    0.482,
        0.340,   -0.169,   -0.123,    0.722,   -0.086,    2.186,   -0.831,
      -10.457,   -0.047,    0.079,   -0.016,    0.028,   -0.472,    0.632,
        0.423,    4.255,    5.233,   -0.170,    2.370,    0.079,   -0.044,
       -0.107,    0.424,    0.980,   -0.741,    2.637,   -0.027,    1.166,
        1.581,    1.066,   -0.500,   -0.744,    0.599,    1.485,    3.125,
        0.650,    0.145,    0.263,   -0.714,   -1.488,    1.014,    1.655,
       -1.000,   -5.050,    0.007,    2.225,   -0.085,    0.116,   -0.071,
       -0.494,   -0.632,    0.652,   -7.648,   -6.992,    0.888,    1.026,
        0.588,    0.844,   -0.644,    0.417,   15.214,    4.735,    0.446,
       -0.604,   -9.335
    },
    {  -2.582,    0.062,   -0.036,    0.033,    0.009,   -0.004,   -0.188,
        0.207,    1.586,    2.688,   -1.220,   -0.702,   -0.032,    0.318,
       -0.094,   -0.160,    1.223,   -0.247,    2.619,    0.947,   -0.187,
       -0.427,    0.463,   -0.673,   -0.730,    1.203,    0.236,    2.463,
       -0.655,   -0.936,   -1.234,   -2.173,   -0.318,   -0.883,    1.072,
        0.916,    2.934,   -0.679,   -0.102,    0.021,    0.001,   -0.162,
       -3.472,    0.313,   -0.246,   -3.060,   -1.617,    0.031,   -0.786,
        0.848,    0.374,   -0.032,   -0.278,    1.223,    0.830,    0.174,
        0.094,   -0.046,   -0.005,    0.426,    0.005,    0.880,   -0.383,
       -7.473,   -0.012,    0.011,    0.040,   -0.028,   -0.153,    0.343,
        0.376,    3.058,    4.788,   -0.134,    2.081,   -0.117,   -0.034,
       -0.150,    0.548,    0.627,   -0.758,    2.401,   -0.594,    1.005,
        1.488,    0.768,   -0.200,   -0.328,    0.348,    0.912,    4.041,
       -0.551,    0.894,    0.178,   -0.135,    0.374,    1.076,    0.140,
       -1.307,   -4.989,   -0.341,    2.725,    0.135,   -0.125,   -0.214,
       -0.707,   -0.972,    1.130,   -1.377,   -6.233,    0.470,    0.856,
        0.453,    0.848,   -0.642,    1.089,   14.687,    7.507,    0.480,
       -1.722,   -1.861
    },
    {  -2.617,    0.013,    0.003,    0.041,    0.014,    0.026,   -0.239,
        0.244,    1.321,    2.466,   -1.050,   -0.265,   -0.077,    0.271,
        0.024,    0.378,    1.206,   -0.529,    1.851,    0.748,   -0.252,
       -0.366,    0.355,   -0.159,   -0.349,    0.783,   -0.165,    2.789,
       -0.156,   -0.470,   -0.894,   -1.202,    0.242,   -0.244,    1.092,
        1.055,    2.317,   -0.272,   -0.116,   -0.119,    0.040,   -0.031,
       -2.606,    0.457,   -0.201,   -3.049,   -0.202,   -0.305,   -0.927,
        0.765,    0.424,    0.255,   -0.924,    1.661,    0.777,    0.036,
        0.840,    0.098,   -0.115,    0.967,   -0.155,    0.954,   -0.900,
       -7.003,    0.008,    0.096,   -0.024,   -0.034,   -0.178,    0.325,
        0.294,    2.877,    4.209,    0.014,    1.623,   -0.048,    0.006,
       -0.109,    0.529,    0.867,   -0.724,    2.633,   -0.165,    0.973,
        1.640,    0.377,   -0.291,   -0.594,    0.706,    0.987,    5.200,
       -0.322,    0.509,   -0.047,   -0.142,   -0.428,    2.090,    1.798,
       -2.038,   -5.084,   -0.097,    2.208,   -0.348,    0.396,   -0.127,
       -0.910,   -0.872,    1.215,   -3.863,   -9.566,    1.257,    1.430,
        0.656,    0.927,   -0.582,    0.306,   17.993,    7.754,    0.503,
       -2.405,   -3.694
    },
    {  -3.408,    0.026,   -0.022,    0.105,    0.034,   -0.004,   -0.094,
        0.281,    1.783,    2.174,   -0.831,   -0.069,    0.033,    0.154,
       -0.169,   -0.342,    1.102,    0.108,    2.072,    0.910,   -0.213,
       -0.289,    0.260,   -0.137,   -0.554,    1.227,   -0.235,    2.431,
       -0.227,   -0.718,   -1.303,   -1.840,    0.210,   -0.433,    0.709,
        1.145,    2.775,   -0.417,    0.143,   -0.209,    0.176,    0.133,
       -2.901,    0.558,   -0.474,   -4.130,   -0.320,    0.182,   -1.684,
        1.008,    0.594,    0.144,   -0.429,    1.973,    0.803,   -0.005,
        0.827,    0.248,   -0.397,    0.990,   -0.032,    0.462,   -0.975,
       -7.200,    0.029,   -0.073,    0.076,    0.033,   -0.009,    0.134,
        0.266,    3.272,    4.846,    0.148,    2.151,    0.021,   -0.072,
       -0.071,    0.447,    0.881,   -0.951,    2.619,    0.434,    1.241,
        1.991,    1.025,    0.065,    0.177,   -0.004,    1.162,    6.464,
        0.322,    0.221,    0.143,   -0.083,    0.083,    1.749,    0.955,
       -0.163,   -4.909,    0.007,    2.194,    0.074,    0.118,   -0.083,
       -0.543,   -0.801,    0.914,   -2.919,  -10.591,    1.174,    1.294,
        0.379,    0.702,   -0.672,    0.235,   21.025,    5.582,    0.316,
       -1.085,   -6.305
    },
    {  -2.873,    0.055,    0.002,    0.074,   -0.043,    0.015,   -0.116,
        0.365,    1.206,    2.723,   -1.333,   -0.235,   -0.295,    0.580,
        0.057,   -0.039,    1.636,   -0.290,    1.451,    0.529,   -0.124,
       -0.087,    0.257,   -0.162,   -0.308,    0.758,   -0.217,    1.352,
       -0.338,   -0.813,   -0.629,   -1.704,   -0.380,   -0.260,    1.210,
       -0.062,    2.690,   -0.327,   -0.142,   -0.347,   -0.087,    0.017,
       -2.959,    0.296,    0.216,   -3.506,   -0.588,   -0.043,   -0.567,
        0.453,    0.215,    0.065,   -0.409,    2.566,    1.589,    0.659,
        0.903,   -0.003,   -0.264,    1.616,    0.404,    1.202,   -0.758,
       -7.893,    0.049,   -0.038,    0.050,    0.015,   -0.046,    0.236,
        0.265,    3.494,    4.834,   -0.186,    2.251,   -0.063,   -0.025,
       -0.178,    0.464,    0.962,   -0.989,    2.233,    0.030,    0.945,
        1.313,    0.109,    0.027,   -0.391,    0.059,    0.811,    6.704,
       -0.203,   -0.606,    0.300,   -0.188,   -0.281,    1.941,    1.232,
       -0.743,   -4.215,   -0.064,    1.792,   -0.001,    0.133,   -0.088,
       -0.607,   -0.659,    0.783,   -4.164,  -11.848,    0.698,    1.633,
        0.429,    0.918,   -1.060,    0.318,   19.127,    4.421,    0.638,
       -1.377,   -5.239
    },
    {  -2.588,    0.045,    0.007,    0.024,    0.033,    0.051,   -0.246,
        0.327,    1.581,    2.600,   -1.110,   -0.311,   -0.022,    0.417,
       -0.622,    0.249,    1.225,    0.347,    2.349,    0.881,   -0.083,
       -0.453,    0.238,   -0.085,   -1.202,    1.088,   -0.211,    1.708,
       -0.429,   -0.865,   -0.759,   -1.711,   -0.623,   -0.455,    1.499,
        0.459,    2.011,   -0.693,    0.019,    0.081,   -0.031,    0.141,
       -1.602,    0.510,   -0.247,   -2.170,   -1.045,   -0.252,   -0.744,
        0.290,    0.233,   -0.134,   -0.592,    1.144,    1.060,    0.678,
        0.371,   -0.945,   -0.458,    1.014,   -0.107,    0.206,    0.493,
       -7.363,   -0.089,    0.038,    0.042,   -0.087,   -0.070,    0.077,
        0.148,    3.324,    3.957,   -0.156,    1.653,    0.030,   -0.094,
       -0.007,    0.548,    0.784,   -0.895,    1.513,    0.182,    0.593,
        0.942,    0.735,    0.106,   -0.095,    0.668,    0.187,    4.692,
       -0.253,    0.612,    0.004,   -0.282,   -0.340,    1.508,    1.472,
       -1.294,   -3.629,   -0.085,    1.566,    0.226,    0.026,   -0.099,
       -0.519,   -0.931,    0.914,   -4.133,   -4.962,    0.564,    1.072,
        0.429,    1.098,   -0.550,    0.342,    8.820,    5.287,    0.546,
       -2.912,   -3.571
    },
    {  -2.383,    0.043,   -0.037,    0.061,    0.041,    0.011,   -0.200,
        0.206,    1.445,    1.474,   -0.156,   -0.375,   -0.717,   -0.462,
       -0.456,   -0.044,    1.326,    0.475,    1.832,    0.802,   -0.071,
       -0.040,    0.233,   -0.091,   -0.711,    0.550,   -0.395,    1.726,
       -0.017,   -0.771,   -0.714,   -0.196,    0.453,   -0.988,    0.234,
        0.684,    2.019,   -0.681,   -0.078,    0.135,    0.131,   -0.070,
       -1.351,    0.774,   -0.491,   -3.270,   -0.316,    1.082,   -0.170,
        0.596,    0.079,   -0.638,   -0.100,    0.858,    0.875,   -0.033,
        0.504,   -0.221,   -0.499,    0.235,    0.130,    0.946,   -0.168,
       -7.334,    0.066,   -0.076,    0.007,    0.041,   -0.187,    0.237,
        0.249,    3.039,    4.370,   -0.006,    1.850,   -0.068,    0.008,
       -0.053,    0.523,    0.737,   -0.791,    1.476,   -0.026,    0.524,
        1.081,    0.282,   -0.254,    0.064,    0.548,    0.415,    3.297,
       -0.031,    0.270,   -0.037,   -0.586,   -0.361,    0.869,    0.642,
       -0.676,   -4.192,    0.176,    1.542,    0.230,   -0.230,   -0.217,
       -0.427,   -0.893,    0.639,   -4.220,   -6.141,    0.410,    1.603,
        0.600,    1.178,   -2.800,    0.585,   15.147,    7.086,    0.647,
       -3.612,   -4.775
    },
    {  -2.840,    0.097,   -0.009,   -0.042,    0.140,    0.011,   -0.208,
        0.284,    1.775,    1.759,    0.012,   -0.561,   -0.613,   -0.322,
       -0.333,   -0.327,    0.868,    0.402,    2.809,    1.425,   -0.332,
        0.115,   -0.158,   -0.409,   -1.260,    0.839,   -0.725,    2.728,
        0.189,    0.060,   -0.069,    0.904,    0.133,   -0.550,    0.093,
       -0.320,    2.654,   -0.930,   -0.201,   -0.010,   -0.066,    0.041,
       -1.568,    0.718,    0.059,   -4.784,   -0.073,    2.024,   -0.058,
        0.475,   -0.052,   -0.524,   -0.617,    0.723,    1.655,    0.128,
        0.577,   -0.359,   -0.009,    0.967,   -0.230,    1.730,   -1.035,
       -6.530,   -0.116,    0.104,   -0.051,   -0.056,   -0.187,    0.353,
        0.177,    2.749,    3.934,   -0.128,    1.737,   -0.083,   -0.073,
       -0.181,    0.364,    0.588,   -0.520,    1.304,    0.268,    0.670,
        0.866,    0.400,   -0.010,   -0.198,    0.787,    0.312,    4.071,
       -0.342,    0.157,    0.049,   -0.517,   -0.377,    0.942,    0.218,
       -0.586,   -3.689,   -0.013,    1.567,    0.048,   -0.714,   -0.088,
       -0.459,   -0.396,    0.679,   -3.937,   -5.887,    0.894,    0.857,
        2.080,    1.327,   -4.263,    0.584,   11.717,    5.240,    0.532,
       -5.123,   -1.495
    },
    {  -2.712,    0.029,   -0.012,   -0.060,    0.068,   -0.032,   -0.152,
        0.210,    1.496,    2.108,   -0.652,   -0.874,   -0.970,   -0.939,
       -0.139,   -0.312,    0.527,    0.539,    3.386,    2.217,   -0.269,
       -0.172,   -0.460,   -0.413,   -0.352,    0.602,   -0.481,    4.602,
       -0.015,    0.082,   -0.712,    1.149,   -0.147,    0.450,   -0.208,
       -0.561,    2.016,   -0.139,   -0.024,   -0.224,   -0.088,   -0.053,
       -2.761,    0.139,   -0.153,   -4.544,   -0.050,    1.736,   -0.162,
        0.275,   -0.158,   -0.677,   -0.397,    0.815,    1.020,    0.067,
        0.058,   -0.043,    0.162,    0.141,   -0.152,    1.009,   -0.274,
       -6.266,   -0.018,   -0.056,    0.025,    0.060,   -0.074,    0.273,
        0.125,    2.705,    5.294,   -0.176,    2.495,   -0.044,   -0.107,
       -0.194,    0.552,    0.826,   -1.036,    2.080,   -0.140,    0.905,
        1.733,    0.703,   -0.255,   -0.036,    0.568,    0.783,    5.179,
       -0.185,   -0.055,    0.490,   -0.225,   -0.269,    1.556,    0.504,
       -0.407,   -4.414,    0.275,    1.053,    0.167,   -0.281,   -0.004,
        0.065,   -1.133,    0.501,  -16.611,   -8.098,    0.590,    0.787,
        6.765,    0.663,   -6.945,    1.580,   17.802,    4.536,    0.412,
       -1.606,   -8.212
    },
    {  -2.727,    0.007,    0.033,   -0.009,    0.135,    0.046,   -0.121,
        0.235,    1.666,    1.276,   -0.539,   -0.558,   -0.647,   -1.582,
       -0.144,   -0.443,    1.225,    0.042,    3.147,    1.974,   -0.326,
       -0.027,   -0.081,   -0.342,   -0.717,    0.634,   -0.398,    5.705,
       -0.621,    0.253,   -0.234,    0.755,   -0.410,    0.727,   -0.754,
       -0.927,    2.977,   -0.514,   -0.142,   -0.225,    0.091,   -0.192,
       -2.416,    1.031,   -0.279,   -5.584,   -0.050,    2.237,   -0.070,
        0.146,    0.066,   -0.543,   -0.837,    0.825,    0.936,   -0.123,
        0.056,   -0.117,    0.480,    0.253,   -0.318,    1.262,   -0.305,
       -6.794,   -0.027,    0.049,    0.031,    0.092,   -0.032,    0.094,
        0.291,    2.730,    5.353,   -0.070,    2.278,    0.042,   -0.046,
       -0.123,    0.476,    0.700,   -0.949,    2.500,    0.445,    1.389,
        1.427,    0.204,    0.111,   -0.376,    0.564,    0.885,    4.721,
       -0.088,   -0.171,    0.292,   -0.280,   -0.719,    1.393,    0.436,
       -0.975,   -4.413,   -0.370,    0.006,    1.372,   -0.008,   -0.222,
       -0.274,    0.312,   -0.132,  -20.619,   -6.272,    0.482,    0.864,
       11.717,    0.812,  -17.109,    0.983,   27.018,   10.089,    0.384,
       -2.166,   -3.460
    },
    {  -2.525,    0.019,   -0.019,    0.004,    0.109,    0.024,   -0.203,
        0.278,    1.265,    1.444,    0.002,   -0.489,   -0.718,   -0.904,
       -0.296,   -0.073,    1.211,    0.416,    1.805,    1.133,   -0.005,
        0.159,    0.205,    0.081,   -0.391,    0.401,   -0.039,    6.277,
       -0.418,   -0.268,   -0.289,    0.360,   -0.325,    1.187,   -1.371,
       -0.953,    2.091,   -0.190,   -0.404,    0.231,    0.041,   -0.172,
       -2.776,    0.442,   -0.726,   -5.015,    0.009,    1.735,   -0.079,
        0.152,   -0.067,   -0.479,   -0.648,    0.586,    1.062,   -0.463,
        0.084,   -0.135,    0.194,    0.107,   -0.189,    0.756,   -0.271,
       -7.684,   -0.129,    0.059,   -0.060,    0.077,   -0.186,    0.228,
        0.303,    3.045,    4.587,    0.045,    1.702,   -0.050,   -0.030,
       -0.141,    0.524,    0.698,   -0.771,    1.860,   -0.391,    1.218,
        1.354,    0.606,   -0.341,   -0.208,    0.458,    0.567,    4.247,
       -0.507,    0.299,   -0.353,   -0.370,   -0.374,    0.940,    0.846,
       -0.537,   -4.510,   -0.099,    0.397,    1.537,   -1.053,   -0.292,
       -0.079,    0.044,    0.361,  -31.293,   -9.331,    0.751,    1.320,
       12.091,    0.699,  -25.606,    1.512,   28.100,   14.062,    0.453,
       -4.545,   -1.097
    },
    {  -2.147,    0.006,    0.026,   -0.012,    0.071,    0.013,   -0.013,
        0.185,    1.092,    0.770,   -0.237,   -0.183,   -0.564,   -0.047,
        0.120,   -0.177,    0.211,    0.555,    1.517,    0.241,   -0.012,
       -0.030,   -0.024,   -0.015,   -0.028,    0.362,   -0.215,    7.219,
       -0.709,    0.297,   -0.458,    0.896,   -0.532,    0.984,   -1.961,
       -0.489,    2.482,    0.022,   -0.243,   -0.038,   -0.010,    0.046,
       -2.370,    0.152,    0.383,   -4.993,   -0.034,    1.787,   -0.040,
        0.077,   -0.117,   -0.474,   -0.709,    0.769,    1.920,   -0.634,
       -0.049,    0.193,    0.020,   -0.014,   -0.045,    0.512,   -0.125,
       -8.234,   -0.026,    0.099,   -0.021,    0.013,   -0.118,    0.444,
        0.145,    3.482,    4.173,   -0.052,    1.518,    0.029,   -0.061,
        0.042,    0.385,    0.729,   -0.694,    1.984,    0.571,    1.206,
        1.691,    0.549,    0.023,   -0.050,    0.403,    0.517,    3.875,
       -0.064,    0.257,    0.424,   -0.214,    0.080,    0.846,    1.098,
       -1.246,   -4.574,   -0.147,   -0.643,    0.622,   -1.442,   -0.245,
       -0.073,   -0.190,    0.502,  -34.973,   -8.436,    0.891,    8.996,
        8.730,    0.992,  -24.623,    3.230,   26.872,   10.622,    0.507,
       -3.210,   -1.595
    },
    {  -2.891,    0.023,    0.084,   -0.031,    0.054,    0.046,   -0.123,
        0.229,    1.427,    1.296,    0.115,   -0.276,   -0.522,   -0.488,
        0.116,   -0.258,    0.366,    0.258,    2.103,    0.490,    0.045,
       -0.010,    0.052,   -0.029,   -0.161,    0.340,   -0.120,    7.503,
       -0.484,   -0.479,   -0.554,    1.583,   -0.235,    0.825,   -1.426,
       -0.132,    2.370,   -0.701,   -0.216,   -0.057,   -0.144,    0.288,
       -1.763,    0.521,   -0.243,   -4.782,    0.070,    1.597,   -0.074,
        0.137,   -0.140,   -0.584,   -0.820,    0.781,    1.965,   -0.711,
        0.019,    0.025,    0.420,   -0.285,   -0.240,    1.369,    0.031,
       -7.807,    0.056,    0.062,   -0.076,    0.064,   -0.038,    0.400,
        0.342,    3.327,    3.847,   -0.111,    1.323,   -0.051,   -0.008,
       -0.006,    0.488,    0.602,   -0.709,    2.020,   -0.017,    0.667,
        1.660,   -0.045,   -0.097,   -0.557,    0.055,    0.356,    4.387,
       -0.400,    0.479,    0.035,   -0.330,   -0.119,    1.123,    0.458,
       -1.165,   -4.347,   -0.419,    0.034,    0.299,   -1.030,   -0.146,
        1.034,   -0.364,    0.571,  -41.615,  -13.120,    1.093,    9.951,
        7.306,    1.060,  -21.304,    1.053,   24.037,   14.155,    0.463,
       -5.489,   -4.385
    },
    {  -2.625,    0.014,    0.022,   -0.021,    0.090,    0.000,   -0.063,
        0.228,    1.296,    1.606,   -0.557,   -0.756,   -1.102,   -0.391,
       -0.077,   -0.357,    0.919,    0.436,    2.217,    0.540,   -0.018,
       -0.055,    0.013,   -0.027,   -0.213,    0.474,   -0.148,    7.111,
        0.057,   -0.574,   -0.362,    1.811,   -0.434,    0.339,   -0.913,
       -0.350,    2.537,   -0.641,   -0.216,   -0.000,   -0.008,   -0.042,
       -1.660,    0.790,    0.021,   -4.715,   -0.044,    1.627,   -0.159,
        0.082,   -0.120,   -0.509,   -0.707,    0.772,    1.372,   -0.550,
        0.450,    0.194,    0.239,    0.261,   -0.229,    1.255,   -0.689,
       -6.731,   -0.131,    0.036,   -0.100,    0.092,   -0.171,    0.241,
        0.085,    2.919,    3.717,    0.016,    1.214,   -0.070,    0.035,
       -0.020,    0.424,    0.436,   -0.610,    2.004,    0.161,    0.658,
        0.625,   -0.247,   -0.159,   -0.198,    0.354,    0.836,    3.856,
       -0.571,    0.292,    0.047,   -0.261,   -0.142,    0.849,    0.461,
       -0.464,   -4.207,   -0.291,    0.202,   -0.519,   -0.977,    0.159,
        0.707,   -0.242,   -0.023,  -49.907,  -10.622,    0.638,    8.398,
       14.603,    1.074,  -23.010,    0.525,   24.079,   15.584,    0.575,
       -5.014,   -6.445
    },
    {  -2.484,    0.050,    0.012,   -0.024,    0.084,   -0.010,   -0.131,
        0.204,    1.255,    1.890,   -0.198,   -0.630,   -0.504,   -0.619,
       -0.362,   -0.149,    1.465,    0.480,    2.048,    0.665,   -0.014,
       -0.017,   -0.083,    0.002,   -0.057,    0.396,   -0.191,    6.557,
       -0.222,    0.302,   -0.507,    1.019,   -0.211,    0.927,   -0.862,
       -0.692,    1.881,   -0.107,   -0.214,   -0.244,   -0.075,   -0.046,
       -2.187,    0.263,   -0.100,   -5.704,    0.174,    2.297,   -0.162,
        0.184,   -0.090,   -0.613,   -0.735,    0.790,    1.008,   -0.376,
       -0.087,   -0.445,    0.193,   -0.068,   -0.003,    1.056,   -0.185,
       -6.601,   -0.036,   -0.026,   -0.012,    0.115,   -0.143,    0.220,
        0.276,    2.685,    4.053,    0.044,    1.544,   -0.054,   -0.059,
       -0.102,    0.522,    0.636,   -0.729,    1.541,   -0.123,    0.641,
        0.616,    0.239,    0.106,   -0.104,    0.538,   -0.038,    3.879,
       -0.158,   -0.229,    0.131,   -0.229,   -0.346,    1.078,    1.034,
       -0.722,   -4.516,   -0.596,    0.533,   -0.203,   -1.095,   -0.069,
       -0.116,    0.016,    0.095,  -52.010,   -9.866,    0.475,    4.251,
       22.737,    1.038,  -17.261,    0.722,   18.028,    7.700,    1.198,
       -3.569,  -11.050
    },
    {  -2.544,   -0.032,   -0.018,    0.001,    0.140,   -0.001,   -0.062,
        0.175,    1.265,    1.641,   -0.365,   -0.412,   -0.696,   -0.348,
        0.006,   -0.149,    0.807,    0.044,    1.792,    0.479,   -0.061,
       -0.067,    0.011,   -0.021,   -0.201,    0.367,   -0.035,    5.323,
       -0.270,    0.075,   -0.257,    0.647,   -0.037,    0.603,   -1.369,
       -0.018,    2.507,   -0.733,   -0.130,    0.080,    0.045,   -0.124,
       -2.015,    0.649,   -0.155,   -4.942,    0.068,    2.046,   -0.170,
        0.198,   -0.156,   -0.601,   -0.667,    0.859,    0.804,   -0.899,
        0.518,   -0.291,    0.829,    0.477,   -0.380,    0.921,    0.080,
       -6.425,   -0.046,    0.028,   -0.013,    0.131,   -0.169,    0.310,
        0.185,    2.689,    4.996,   -0.008,    1.868,    0.101,   -0.040,
       -0.008,    0.583,    0.941,   -0.900,    1.582,   -0.265,    0.666,
        1.090,    0.118,   -0.208,    0.209,    0.916,   -0.099,    4.096,
       -0.290,    0.498,    0.269,   -0.183,   -0.167,    1.356,    1.070,
       -1.264,   -4.754,   -0.427,    0.314,   -0.323,   -0.945,    0.395,
        0.452,   -0.010,    0.355,  -47.938,  -11.662,    0.925,    6.330,
       21.680,    1.031,   -8.999,    0.408,   22.172,   11.348,    0.644,
       -3.160,  -13.095
    },
    {  -2.684,    0.045,   -0.048,   -0.045,    0.101,    0.015,    0.008,
        0.260,    1.502,    1.226,   -0.035,   -0.047,   -0.434,   -1.037,
       -0.208,   -0.108,    0.796,    0.291,    1.367,    0.727,   -0.144,
       -0.164,    0.053,    0.152,   -0.518,    0.534,   -0.220,    5.072,
       -0.187,   -0.129,   -0.725,    0.385,    0.011,    0.673,   -0.454,
       -0.627,    1.791,   -0.541,   -0.221,   -0.061,    0.082,   -0.058,
       -0.707,    0.703,   -0.365,   -4.022,   -0.085,    1.550,   -0.223,
        0.216,   -0.107,   -0.592,   -0.584,    0.756,    1.207,   -0.680,
        0.247,   -0.598,    0.499,    0.448,   -0.059,    0.720,    0.262,
       -6.976,   -0.035,   -0.001,    0.010,    0.084,   -0.116,    0.357,
        0.143,    3.002,    4.730,    0.027,    1.924,   -0.072,   -0.185,
       -0.075,    0.526,    0.744,   -0.885,    2.523,   -0.043,    1.295,
        1.536,    0.442,   -0.376,   -0.285,    0.830,    0.488,    3.992,
       -0.215,    0.454,   -0.006,   -0.858,   -0.440,    0.929,    0.656,
       -0.825,   -4.706,   -0.569,    0.324,   -0.439,   -0.877,    0.462,
        0.193,   -0.418,    0.218,  -39.120,   -6.894,    0.502,    1.486,
       25.989,    1.928,   -6.695,    0.475,   19.570,    8.795,    0.653,
       -3.049,  -11.005
    },
    {  -2.878,   -0.006,    0.060,    0.016,    0.094,    0.022,   -0.080,
        0.256,    1.447,    1.004,   -0.064,   -0.340,   -0.689,   -1.477,
       -0.762,   -0.597,    1.374,   -0.057,    1.886,    1.045,   -0.052,
       -0.275,   -0.023,    0.275,   -0.663,    0.803,   -0.050,    4.822,
       -0.127,    0.239,   -0.584,    1.187,   -0.079,    0.509,    0.030,
       -0.803,    1.863,   -0.575,   -0.068,   -0.002,    0.102,    0.042,
       -1.196,    0.686,   -0.404,   -3.945,   -0.067,    1.698,   -0.085,
        0.098,   -0.029,   -0.678,   -0.734,    0.972,    2.605,   -0.634,
       -0.180,   -0.260,    0.203,    0.295,    0.231,    1.241,    0.552,
       -6.741,   -0.014,    0.067,   -0.031,    0.061,   -0.041,    0.271,
        0.203,    2.968,    4.760,   -0.072,    1.874,   -0.006,    0.057,
       -0.041,    0.342,    0.674,   -0.615,    2.139,    0.235,    1.541,
        2.493,    1.160,    0.276,    0.139,    0.009,    0.814,    5.052,
       -0.113,    0.130,   -0.152,   -0.333,   -0.170,    1.007,    0.980,
        0.028,   -4.704,   -1.225,   -0.006,   -0.812,   -0.648,    0.514,
        0.315,   -0.637,    0.389,  -27.891,  -10.260,    0.589,    1.146,
       20.175,    1.724,   -4.805,    0.765,   19.437,   12.672,    0.376,
       -6.088,   -3.589
    },
    {  -2.583,   -0.028,    0.019,    0.005,    0.075,   -0.028,   -0.045,
        0.242,    1.457,    1.340,   -0.613,   -0.493,   -0.458,   -1.536,
       -0.109,   -0.956,    1.004,    0.281,    1.683,    0.676,   -0.092,
       -0.255,    0.187,   -0.092,   -0.514,    0.785,   -0.143,    5.518,
       -0.255,    0.005,   -0.417,    0.976,   -0.019,    0.751,   -0.869,
       -0.589,    2.346,   -1.116,   -0.121,   -0.039,    0.348,    0.083,
       -1.246,    1.033,   -0.267,   -4.594,    0.087,    2.064,    0.005,
       -0.000,   -0.036,   -0.507,   -0.680,    0.828,    3.540,   -0.584,
       -0.215,    0.059,   -0.213,    0.262,    0.319,    1.461,    0.406,
       -6.264,   -0.093,    0.020,   -0.021,    0.017,   -0.044,   -0.046,
        0.081,    2.842,    4.558,   -0.040,    1.760,   -0.125,   -0.009,
       -0.053,    0.547,    0.713,   -0.777,    2.146,    0.722,    1.036,
        1.635,    0.905,    0.291,    0.121,    0.387,    0.520,    6.086,
       -0.279,    0.768,    0.044,   -0.645,   -0.134,    1.043,    0.687,
       -0.289,   -3.600,   -0.057,   -0.014,   -1.039,    0.056,    0.159,
       -0.194,   -0.554,    0.797,  -14.777,   -6.796,    0.557,    1.933,
       13.013,    1.200,   -5.431,    0.659,   17.514,   11.896,    0.512,
      -12.760,   -5.645
    },
    {  -2.699,    0.011,    0.009,   -0.030,    0.105,    0.012,    0.017,
        0.250,    1.574,    1.718,   -0.158,   -0.536,   -0.824,   -0.998,
       -0.195,   -0.359,    1.066,    0.364,    1.401,    0.340,   -0.013,
       -0.117,    0.219,    0.004,   -0.344,    0.587,   -0.183,    5.417,
       -0.467,    0.130,   -0.862,    0.381,   -0.283,    0.790,   -1.398,
       -0.451,    1.876,   -0.920,   -0.128,    0.154,    0.142,    0.001,
       -0.942,    0.773,   -0.161,   -4.983,   -0.100,    2.168,   -0.044,
        0.137,    0.029,   -0.556,   -0.565,    0.816,    3.454,   -0.838,
        0.212,    0.218,   -0.510,    0.568,    0.607,    1.255,    0.459,
       -7.232,   -0.034,    0.139,    0.014,    0.065,   -0.084,    0.249,
        0.299,    2.987,    5.102,   -0.032,    2.368,   -0.023,   -0.021,
       -0.095,    0.456,    0.692,   -0.793,    2.121,    0.063,    0.868,
        1.404,    0.369,   -0.076,   -0.391,    0.036,    0.703,    4.945,
       -0.168,   -0.004,    0.140,   -0.582,   -0.697,    0.995,    0.323,
       -0.541,   -2.827,   -0.637,   -0.198,   -0.032,    0.387,   -0.089,
       -0.024,   -0.164,    0.276,  -10.554,   -6.494,    0.486,    2.831,
        4.510,    1.184,   -8.235,    0.461,   17.638,    5.194,    0.448,
       -5.109,   -6.016
    },
    {  -2.754,    0.018,    0.013,    0.005,    0.046,    0.006,   -0.156,
        0.206,    1.584,    1.296,   -0.590,   -0.393,   -0.823,   -1.182,
       -0.169,   -0.328,    1.092,   -0.005,    1.499,    0.647,   -0.018,
       -0.268,    0.074,    0.023,   -0.454,    0.838,   -0.120,    4.371,
       -0.318,    0.230,   -0.901,    1.343,   -0.036,    0.383,    0.062,
       -0.464,    3.006,   -0.856,   -0.275,   -0.148,    0.034,   -0.046,
       -2.330,    0.834,   -0.025,   -4.541,   -0.047,    2.313,    0.132,
       -0.055,   -0.160,   -0.591,   -1.063,    0.877,    4.152,   -0.639,
        0.160,    0.514,   -0.598,    0.595,    0.549,    1.464,   -0.047,
       -5.931,   -0.013,   -0.046,   -0.017,    0.115,   -0.143,    0.001,
        0.153,    2.686,    4.893,   -0.030,    1.986,    0.044,   -0.125,
       -0.158,    0.609,    0.761,   -0.824,    1.230,   -0.481,    0.583,
        1.321,    0.612,    0.062,   -0.190,    0.686,    0.052,    3.692,
       -0.147,    0.855,    0.034,   -0.258,   -0.220,    0.947,    0.596,
       -0.784,   -1.511,   -0.772,    0.066,   -0.340,    0.649,    0.101,
       -0.139,    0.041,    0.702,   -7.750,   -8.517,    0.514,    1.454,
        2.269,    1.092,   -2.306,    0.881,   14.073,   10.614,    0.650,
       -4.391,   -0.459
    },
    {  -2.708,    0.057,    0.021,   -0.025,    0.029,   -0.053,   -0.108,
        0.259,    1.537,    1.645,   -0.130,   -0.496,   -0.963,   -0.980,
       -0.184,   -0.445,    0.529,    0.491,    2.615,    0.998,   -0.220,
       -0.561,    0.491,   -0.484,   -1.498,    1.136,   -0.427,    3.195,
       -0.133,    0.415,   -0.743,    0.466,   -0.082,    0.764,   -0.315,
       -0.590,    3.038,   -1.137,   -0.281,   -0.075,   -0.248,   -0.088,
       -2.196,    0.586,    0.008,   -3.613,   -0.164,    1.613,    0.202,
        0.023,   -0.114,   -0.397,   -0.687,    0.712,    4.926,   -2.147,
        0.458,    0.428,    0.374,   -0.994,    1.101,    0.604,   -1.489,
       -6.053,   -0.034,    0.042,    0.007,    0.069,   -0.230,    0.292,
        0.178,    2.469,    4.161,   -0.046,    1.774,   -0.014,   -0.043,
        0.056,    0.639,    0.808,   -0.805,    0.616,   -0.007,    0.236,
        0.312,    0.221,    0.170,   -0.167,    0.641,   -0.030,    4.529,
       -0.436,    1.025,    0.107,   -0.234,   -0.049,    1.477,    1.051,
       -1.443,   -2.484,   -0.955,    0.083,   -0.352,    0.922,    0.422,
       -0.157,    0.333,    0.626,   -0.975,   -7.106,    0.775,    0.772,
        1.772,    0.789,   -3.698,    0.878,   17.074,    6.489,    1.518,
       -3.583,   -0.799
    },
    {  -2.771,    0.065,    0.050,    0.003,    0.080,   -0.028,   -0.224,
        0.229,    1.882,    1.667,   -0.395,   -0.507,   -1.036,   -1.158,
       -0.059,   -0.302,    1.021,    0.281,    2.334,    1.492,   -0.293,
       -0.333,    0.201,    0.051,   -0.767,    0.763,   -0.077,    3.886,
       -0.260,    0.230,   -0.596,    0.652,   -0.373,    0.723,   -0.561,
       -0.725,    2.306,   -0.290,   -0.413,    0.014,    0.051,   -0.037,
       -2.644,    0.343,   -0.196,   -4.401,   -0.058,    1.871,   -0.006,
        0.168,   -0.027,   -0.619,   -0.863,    0.963,    6.555,   -0.559,
        1.513,    0.662,    0.164,   -0.525,   -0.226,   -1.554,    0.900,
       -7.103,   -0.021,   -0.207,   -0.024,    0.118,   -0.230,   -0.105,
        0.024,    3.162,    4.481,    0.051,    1.959,    0.008,   -0.080,
        0.031,    0.419,    0.683,   -0.906,    1.113,   -0.195,    0.233,
        0.181,    0.355,    0.059,   -0.108,    1.057,   -0.066,    4.239,
       -0.490,   -0.084,    0.099,   -0.237,   -0.396,    1.731,    0.776,
       -1.369,   -1.182,   -0.860,   -0.459,   -0.825,    0.309,    0.491,
       -0.620,    0.534,    1.094,   -6.969,   -4.319,    0.686,    0.788,
        2.252,    0.851,   -5.316,    2.958,   13.021,    5.767,    1.356,
       -2.087,   -0.435
    },
    {  -2.464,   -0.022,   -0.001,   -0.029,    0.016,    0.019,   -0.117,
        0.180,    1.358,    2.172,   -0.424,   -0.604,   -1.028,   -0.753,
        0.066,   -0.517,    1.005,    0.081,    2.281,    1.096,   -0.043,
       -0.109,   -0.186,    0.023,    0.004,    0.617,   -0.096,    3.880,
       -0.205,    0.262,   -1.374,    0.414,   -0.233,    0.961,   -0.495,
       -0.630,    2.425,   -0.272,   -0.285,   -0.110,    0.316,   -0.146,
       -2.992,    0.670,   -0.302,   -4.803,    0.046,    2.106,    0.049,
       -0.037,   -0.114,   -0.744,   -0.925,    0.964,    4.849,   -0.192,
        0.086,    1.108,    0.240,   -0.242,   -0.144,   -1.047,    0.388,
       -8.962,   -0.030,    0.037,   -0.018,   -0.077,   -0.186,    0.390,
        0.457,    3.714,    5.029,   -0.123,    2.274,   -0.182,   -0.201,
       -0.026,    0.755,    1.010,   -0.848,    1.060,   -0.073,    0.157,
        0.314,    0.376,    0.018,   -0.196,    0.928,   -0.089,    4.222,
       -0.276,    0.665,   -0.205,   -0.489,    0.055,    1.327,    1.117,
       -1.175,   -2.808,    1.232,   -0.618,   -1.640,    2.193,   -0.583,
       -0.284,   -0.005,    0.307,   -5.450,   -7.897,    0.893,    1.898,
        0.791,    0.636,   -4.328,    4.125,   15.272,    4.825,    1.176,
       -3.656,   -0.273
    },
    {  -2.897,    0.131,   -0.116,    0.026,   -0.010,   -0.026,   -0.167,
        0.218,    1.527,    1.673,    0.220,   -0.367,   -0.903,   -0.382,
       -0.081,   -0.477,    0.509,    0.918,    2.415,    1.484,   -0.029,
        0.428,   -0.454,   -0.044,   -0.152,    0.187,   -0.881,    5.526,
       -1.185,   -0.339,   -0.598,   -0.454,   -0.171,   -0.576,   -0.358,
        0.719,    2.739,   -0.175,    0.000,   -0.212,    0.002,    0.071,
       -3.233,    0.429,   -0.062,   -4.274,   -0.088,    2.156,    0.183,
        0.060,   -0.063,   -0.594,   -0.788,    1.093,    3.428,   -1.729,
       -0.900,   -0.293,   -1.021,   -0.568,    0.391,    2.178,   -0.978,
       -9.329,    0.097,    0.045,    0.084,   -0.039,   -0.253,    0.330,
        0.475,    4.079,    5.069,    0.074,    2.154,    0.004,   -0.083,
       -0.037,    0.727,    0.936,   -1.003,    0.923,   -0.009,    0.214,
        0.331,    0.690,    0.042,   -0.188,    1.288,   -0.244,    5.530,
       -0.430,    1.476,    0.041,   -0.520,   -0.091,    1.676,    1.750,
       -1.826,   -2.728,    1.224,   -0.619,   -0.634,    0.746,   -0.336,
       -0.362,   -1.595,    0.675,   -3.193,   -9.641,    0.618,    0.919,
       -2.199,    0.973,   -2.585,    0.229,   13.432,    7.064,    0.790,
       -2.227,   -0.584
    },
    {  -2.758,    0.037,   -0.004,    0.039,    0.081,    0.035,   -0.241,
        0.244,    1.595,    2.476,   -0.297,   -0.771,   -1.393,   -0.770,
       -0.082,   -0.400,    1.452,    0.547,    3.632,    2.504,    0.186,
        0.101,    0.224,    0.138,   -0.853,    1.238,   -0.547,    7.170,
       -0.072,   -0.871,    0.241,   -1.093,   -2.280,    0.216,   -0.289,
        1.963,    2.421,   -0.221,   -0.273,   -0.058,    0.214,    0.017,
       -3.087,    0.719,   -0.487,   -4.278,   -0.062,    1.884,   -0.056,
        0.185,   -0.195,   -0.482,   -0.654,    0.720,    5.317,   -1.344,
       -0.161,   -0.117,    0.879,    1.174,   -1.646,    2.239,    0.121,
       -8.551,    0.075,   -0.059,   -0.052,    0.015,   -0.064,    0.279,
        0.080,    4.043,    5.777,    0.049,    2.584,   -0.191,   -0.065,
       -0.137,    0.667,    1.004,   -0.905,    2.309,   -1.084,    0.237,
        0.951,    1.724,   -0.211,    0.130,    1.874,   -0.484,    6.033,
       -0.462,    0.863,    0.052,   -0.422,   -0.483,    2.422,    1.363,
       -2.034,   -2.168,    0.123,   -0.640,   -0.933,    0.329,   -0.032,
       -0.154,   -1.499,    0.311,   -3.360,   -7.310,    0.731,    0.689,
       -0.047,    0.778,   -4.369,    0.353,   14.251,    6.642,    0.454,
       -2.272,   -0.811
    },
    {  -2.375,    0.019,   -0.065,   -0.023,   -0.000,   -0.001,   -0.254,
        0.168,    1.583,    2.618,   -0.181,   -0.550,   -1.083,   -0.938,
       -0.299,   -0.414,    1.475,    0.500,    3.305,    2.251,    0.118,
       -0.021,    0.154,    0.026,   -0.642,    1.381,   -0.732,    7.106,
       -0.187,   -1.383,   -0.543,    0.489,    0.452,    0.945,    0.924,
       -0.054,    2.593,   -0.402,   -0.042,   -0.087,    0.136,    0.190,
       -3.240,    0.208,   -0.219,   -5.468,    0.017,    2.835,   -0.137,
        0.233,   -0.172,   -0.642,   -0.727,    1.028,    7.228,    0.228,
       -0.931,    0.652,   -0.420,    0.986,    1.148,   -3.169,    0.809,
       -7.872,    0.179,   -0.084,    0.011,    0.073,   -0.238,    0.425,
        0.129,    3.526,    6.936,   -0.200,    3.267,   -0.029,   -0.286,
       -0.030,    0.879,    1.393,   -1.122,    1.382,   -0.270,   -0.294,
       -0.008,    0.575,    0.025,    0.029,    1.314,   -0.449,    4.111,
       -0.391,    0.767,    0.159,   -0.314,   -0.148,    1.140,    0.842,
       -0.812,   -3.670,    0.536,   -1.728,   -1.142,    0.051,    0.003,
       -0.041,   -1.339,   -0.724,   -1.021,   -5.090,    0.815,    0.818,
       -0.308,    0.843,   -3.028,   -0.327,    8.554,    4.577,    0.787,
       -4.332,   -0.707
    },
    {  -2.576,    0.014,   -0.023,    0.013,    0.023,    0.043,   -0.167,
        0.178,    1.277,    2.693,   -0.396,   -1.285,   -1.181,   -0.560,
       -0.522,   -0.277,    1.638,    1.097,    3.565,    2.505,    0.027,
        0.423,    0.080,   -0.037,   -0.447,    1.008,   -0.810,    7.180,
       -0.155,   -1.191,    0.130,    0.893,    1.221,   -0.170,    1.415,
       -0.524,    2.702,   -0.256,   -0.304,   -0.238,   -0.070,    0.226,
       -3.349,    0.428,   -0.252,   -4.797,    0.029,    2.091,    0.065,
        0.139,   -0.184,   -0.526,   -0.614,    0.886,    7.298,    1.466,
       -0.650,    0.468,    1.143,   -1.161,    0.554,   -1.320,    0.997,
       -9.513,   -0.073,   -0.051,   -0.027,    0.163,   -0.153,    0.105,
       -0.033,    4.610,    5.815,   -0.207,    2.608,   -0.118,    0.241,
       -0.178,    0.845,    1.159,   -1.038,    1.312,   -0.019,    0.202,
       -0.029,    0.128,    0.054,   -0.368,    0.821,   -0.081,    4.850,
       -0.648,    0.260,    0.047,   -0.229,   -0.079,    1.733,    0.703,
       -1.209,   -4.308,    1.215,   -1.242,   -2.135,    0.576,    0.407,
        0.276,   -1.110,   -0.226,   -9.270,  -11.186,    0.570,    0.749,
        7.757,    0.788,   -8.506,   -1.072,   21.347,    4.879,    1.503,
       -2.548,   -0.614
    },
    {  -2.406,    0.067,   -0.051,   -0.032,    0.061,   -0.034,   -0.099,
        0.223,    1.234,    2.379,    0.066,   -0.709,   -1.070,   -1.095,
        0.268,   -0.280,    1.145,    0.646,    3.450,    2.277,   -0.193,
        0.068,   -0.241,    0.009,   -0.512,    0.658,   -0.323,    6.560,
        0.767,   -0.007,   -0.194,    0.804,    0.969,    0.159,    0.981,
        0.951,    3.168,   -0.038,   -0.191,   -0.503,    0.490,   -0.231,
       -3.795,    0.978,   -0.487,   -3.742,   -0.204,    1.616,    0.130,
        0.079,    0.106,   -0.637,   -0.738,    1.156,    7.870,    0.627,
       -0.025,    0.251,   -0.284,   -0.473,    0.983,   -0.363,    0.933,
      -10.749,    0.110,   -0.023,    0.019,    0.117,   -0.166,    0.571,
        0.648,    4.402,    5.976,    0.087,    2.547,   -0.303,   -0.159,
       -0.181,    0.654,    1.157,   -1.033,    1.725,   -0.573,   -0.264,
        0.117,    0.291,    0.182,   -0.317,    1.362,   -0.161,    5.624,
        0.011,    0.286,    0.316,   -0.774,   -0.298,    1.054,    1.356,
       -0.590,   -2.382,   -0.320,   -1.360,   -1.042,   -0.126,    0.243,
        0.114,   -1.234,    0.014,   -5.625,   -8.091,    0.541,    0.685,
        5.686,    0.813,   -2.840,    1.174,   16.213,    7.884,    0.926,
       -5.196,   -0.563
    },
    {  -2.404,    0.006,   -0.003,    0.021,    0.122,   -0.026,   -0.269,
        0.253,    1.558,    3.518,   -0.533,   -0.655,   -1.600,   -1.975,
        0.028,   -0.672,    1.143,    1.328,    3.957,    2.763,   -0.553,
        0.229,   -0.199,   -0.363,   -0.818,    1.094,   -0.425,    5.488,
        1.196,   -0.213,   -0.312,    2.219,    0.832,    0.111,   -0.304,
       -0.180,    2.647,   -0.366,   -0.376,    0.063,    0.062,    0.078,
       -3.319,    0.907,   -0.687,   -5.003,    0.014,    2.540,   -0.096,
        0.171,   -0.130,   -0.740,   -0.827,    1.083,    8.125,   -0.931,
       -0.497,   -1.004,   -0.211,    0.004,    0.253,    1.359,   -0.620,
       -8.583,   -0.054,    0.097,   -0.052,    0.023,   -0.148,    0.204,
        0.371,    3.677,    5.068,    0.130,    2.242,    0.108,   -0.183,
        0.030,    0.278,    0.625,   -0.563,    1.075,   -0.179,    0.033,
       -0.275,    0.240,   -0.016,   -0.111,    0.989,   -0.190,    7.579,
       -1.014,    0.378,    0.847,   -0.359,    1.052,    1.047,   -0.633,
       -1.768,   -2.785,   -0.040,   -1.181,   -1.998,   -0.433,    0.188,
        0.617,   -0.996,   -0.620,   -1.070,   -4.806,    0.419,    0.696,
        0.532,    0.724,   -2.152,   -2.346,    9.725,    6.218,    1.273,
       -1.819,   -0.449
    },
    {  -2.727,    0.021,    0.015,   -0.021,    0.108,    0.009,   -0.199,
        0.200,    1.656,    1.794,   -0.199,    0.139,   -1.105,   -0.481,
        0.107,   -0.365,    1.171,    1.196,    3.710,    2.312,   -0.536,
       -0.156,   -0.023,   -0.178,   -0.425,    1.538,   -0.561,    6.398,
        0.348,    0.944,   -0.878,    1.807,    0.023,   -1.513,    0.079,
       -1.738,    2.633,   -0.110,   -0.122,   -0.020,   -0.226,    0.263,
       -3.198,    0.561,   -0.676,   -4.682,   -0.032,    2.478,   -0.005,
        0.068,   -0.139,   -0.731,   -1.062,    1.412,    8.198,   -0.167,
       -0.158,   -1.306,   -0.641,   -0.735,    0.122,   -0.007,    0.442,
       -7.185,   -0.142,    0.014,   -0.025,   -0.012,   -0.071,    0.271,
        0.035,    3.223,    4.315,    0.016,    1.882,    0.064,   -0.109,
       -0.095,    0.270,    0.876,   -0.847,    2.001,   -0.477,   -0.290,
       -0.252,    0.032,   -0.045,   -0.278,    1.403,   -0.080,    9.246,
        1.897,   -1.190,    1.315,    0.519,    0.862,    1.635,    1.208,
       -2.114,   -3.270,   -0.326,   -1.616,   -2.392,   -1.327,    0.301,
        1.075,   -0.036,   -1.296,   -0.791,   -5.771,    0.275,    0.805,
        0.923,    0.782,   -2.076,   -4.904,   17.129,    5.228,    1.337,
        7.304,   -0.471
    },
    {  -2.526,    0.057,    0.007,    0.000,    0.099,    0.021,   -0.220,
        0.199,    1.585,    1.177,   -0.230,   -0.065,   -0.496,   -0.120,
        0.007,   -0.159,    0.793,    0.101,    1.655,    1.065,   -0.195,
        0.055,   -0.236,   -0.023,   -0.292,    0.397,   -0.162,    4.927,
        1.040,    0.498,   -0.443,    2.084,    0.198,   -1.161,   -0.079,
       -0.065,    2.839,   -0.531,   -0.312,   -0.131,    0.001,    0.244,
       -3.285,    0.559,   -0.678,   -4.580,    0.017,    1.919,   -0.007,
        0.039,   -0.143,   -0.542,   -0.695,    0.815,    8.481,   -0.156,
        1.249,   -0.056,    0.097,    0.630,    0.894,   -0.719,   -0.166,
       -8.158,   -0.098,    0.076,   -0.093,    0.079,   -0.127,    0.385,
        0.046,    3.655,    4.480,    0.012,    2.048,    0.064,   -0.036,
       -0.089,    0.267,    0.611,   -0.693,    1.966,   -0.688,   -0.580,
        0.852,    0.311,   -0.623,   -0.102,    1.257,   -0.309,    9.413,
        1.101,   -1.864,    2.193,   -0.312,    1.005,    0.196,    1.187,
       -2.037,   -2.825,    0.341,   -1.472,   -1.662,   -0.719,   -0.071,
        0.250,   -1.226,   -0.374,    4.306,   -5.886,    1.360,    1.452,
        0.533,    0.773,   -6.845,   -6.088,   18.683,    5.234,    0.411,
        0.036,   -0.585
    },
    {  -2.833,    0.076,    0.032,    0.037,    0.050,    0.010,   -0.113,
        0.246,    1.345,    1.752,   -0.098,   -0.344,   -0.879,   -0.907,
       -0.050,   -0.242,    1.492,    0.526,    2.073,    1.233,    0.251,
        0.473,    0.087,    0.079,   -0.246,    0.185,   -0.137,    4.578,
        0.282,   -0.075,    0.211,    1.093,    0.835,   -0.101,    0.398,
        0.390,    2.285,   -0.119,   -0.281,   -0.259,   -0.066,    0.180,
       -2.556,    0.892,   -0.559,   -5.284,   -0.047,    2.654,    0.003,
        0.027,   -0.098,   -0.615,   -0.865,    1.062,    7.700,    0.931,
        0.600,    0.008,    0.187,    0.426,    0.140,   -0.472,   -0.230,
       -8.657,    0.044,    0.084,    0.024,    0.107,   -0.075,    0.325,
        0.591,    3.632,    5.185,    0.192,    2.302,    0.031,   -0.037,
       -0.004,    0.477,    0.831,   -0.877,    3.158,    0.317,   -0.587,
       -0.462,    1.232,   -1.153,   -0.566,    1.804,    0.013,    8.471,
       -0.699,   -0.767,   -0.152,   -0.516,   -1.064,    0.095,    0.568,
       -1.013,   -2.142,    0.888,   -0.611,   -0.623,   -0.135,   -0.071,
        0.172,   -1.021,    0.249,   -5.081,  -12.688,    0.685,    1.135,
        4.038,    0.925,   -3.099,   -2.359,   16.927,    5.417,    0.559,
       -2.779,   -0.939
    },
    {  -2.632,   -0.013,    0.021,    0.026,    0.044,    0.035,   -0.134,
        0.242,    1.428,    2.315,   -0.192,   -0.557,   -1.168,   -1.198,
        0.220,   -0.477,    1.158,    0.910,    2.300,    1.731,   -0.181,
       -0.082,    0.012,   -0.042,   -0.447,    0.873,   -0.244,    5.525,
        0.314,    0.105,    0.069,    0.837,    1.282,    0.043,    0.120,
        0.499,    2.355,   -0.543,   -0.175,   -0.062,    0.080,   -0.035,
       -2.025,    0.945,   -0.438,   -3.339,   -0.065,    1.353,    0.102,
        0.079,   -0.056,   -0.419,   -0.566,    0.692,    7.057,    0.022,
        0.830,   -1.253,    0.083,    0.197,    0.521,   -0.443,   -0.595,
       -8.055,   -0.076,    0.120,    0.053,    0.025,   -0.008,    0.368,
        0.482,    3.201,    4.610,   -0.128,    1.877,    0.005,   -0.060,
       -0.067,    0.406,    0.771,   -0.766,    1.463,    0.367,   -0.505,
       -0.654,   -0.327,   -0.039,   -0.374,    0.097,    0.819,    7.039,
       -0.527,    0.481,   -0.800,   -0.047,   -0.970,   -0.911,    0.706,
        0.917,   -0.909,    0.037,   -0.378,   -0.333,   -0.463,   -0.023,
        0.156,   -0.989,    0.094,   -1.402,   -7.822,    0.665,    0.746,
        5.302,    1.059,   -4.866,    1.486,   20.084,    8.066,   -0.247,
       -6.788,   -0.724
    },
    {  -2.673,    0.067,    0.043,   -0.000,    0.148,    0.040,   -0.106,
        0.276,    1.679,    2.063,   -0.473,   -0.305,   -1.184,   -0.321,
        0.573,   -0.019,    1.222,    0.728,    2.038,    0.793,    0.091,
       -0.089,    0.217,    0.048,   -1.254,    0.852,   -0.372,    6.067,
       -0.349,    0.037,   -0.058,    0.256,    0.233,   -0.445,   -0.613,
        1.507,    2.820,   -1.100,   -0.100,    0.315,    0.225,    0.016,
       -0.889,    0.950,   -0.056,   -4.814,   -0.247,    2.287,    0.175,
       -0.087,    0.103,   -0.395,   -0.843,    0.844,    5.631,    0.242,
        0.188,   -0.880,    1.218,   -0.080,   -0.796,    0.469,   -1.043,
       -7.440,   -0.226,    0.149,   -0.064,   -0.001,   -0.074,    0.277,
        0.176,    3.133,    5.099,    0.016,    2.085,   -0.022,   -0.060,
       -0.139,    0.480,    0.778,   -0.985,    1.178,   -0.214,   -0.396,
       -0.438,   -1.350,   -0.378,   -0.707,    1.273,    0.050,    6.620,
       -0.081,    0.354,    0.337,   -0.018,    0.078,    0.323,    0.175,
        0.652,   -0.843,   -0.427,   -0.644,   -0.804,   -0.973,    0.078,
        0.083,   -0.516,   -0.010,   -6.206,   -5.315,    0.432,    1.018,
        0.494,    1.248,   -4.742,    6.803,   16.755,   11.374,    0.569,
       -7.115,   -0.525
    },
    {  -2.528,    0.049,    0.030,   -0.038,    0.064,    0.023,   -0.143,
        0.187,    1.231,    0.493,   -0.914,    0.644,   -0.272,    0.962,
        0.771,   -0.439,    0.997,    0.470,    2.046,    0.915,   -0.202,
       -0.299,    0.007,   -0.034,   -0.248,    0.708,   -0.417,    6.196,
       -0.573,    0.190,   -0.374,   -0.410,    0.014,   -0.842,   -1.226,
        0.581,    3.107,   -0.571,   -0.043,   -0.559,    0.199,   -0.014,
       -2.743,    1.365,   -0.265,   -5.357,   -0.015,    2.652,   -0.144,
        0.102,   -0.039,   -0.602,   -0.787,    0.810,    5.973,    0.643,
        0.505,    0.188,    1.144,   -0.249,   -1.481,    0.655,   -0.652,
       -6.665,   -0.005,    0.012,   -0.081,    0.123,   -0.141,    0.237,
        0.059,    2.965,    4.612,    0.003,    2.035,   -0.005,   -0.028,
       -0.058,    0.429,    0.422,   -0.647,    1.901,   -0.457,   -0.779,
       -0.746,   -1.167,   -0.195,   -0.606,    1.098,    0.363,    5.390,
        0.589,    0.160,    0.716,    0.519,   -0.043,   -0.296,   -0.081,
       -0.207,   -2.297,   -0.238,   -0.686,   -1.329,   -0.290,    0.099,
        0.642,   -1.645,   -0.286,   -4.622,  -12.582,    0.343,    1.459,
       -7.668,    0.850,   -3.326,    9.921,   19.522,    6.371,    0.528,
       -1.767,   -0.689
    },
    {  -2.565,   -0.018,   -0.005,   -0.054,    0.020,    0.014,   -0.182,
        0.180,    1.498,    0.898,   -0.276,    0.141,   -0.070,    2.053,
       -0.108,   -0.813,    1.065,    0.416,    2.779,    1.529,   -0.130,
        0.074,   -0.245,   -0.070,   -0.120,    0.661,   -0.155,    6.014,
       -0.617,   -0.108,   -0.581,   -0.372,    0.019,   -0.140,   -0.928,
        0.946,    2.840,   -0.506,   -0.331,   -0.106,    0.056,   -0.036,
       -2.668,    1.034,   -0.374,   -4.869,    0.153,    1.806,   -0.002,
        0.117,   -0.097,   -0.495,   -0.665,    0.805,    6.598,    1.126,
        0.007,    0.213,    1.449,   -0.539,   -1.353,    0.715,   -0.951,
       -6.924,   -0.038,    0.038,   -0.078,   -0.039,   -0.062,    0.182,
        0.111,    2.929,    3.243,    0.026,    1.072,   -0.116,   -0.054,
       -0.009,    0.157,    0.626,   -0.547,    1.752,   -0.311,   -0.778,
       -1.536,   -0.366,    0.021,   -0.303,    1.450,    0.150,    5.229,
        0.072,   -0.382,    0.329,   -0.660,   -0.401,   -0.188,    0.073,
       -0.517,   -2.693,    0.476,   -0.939,   -1.308,   -0.178,   -0.103,
        0.399,   -1.165,   -0.414,   -0.189,   -7.599,    0.210,    1.244,
       -5.723,    1.155,  -13.249,    5.973,   31.939,    8.681,    0.608,
        0.715,   -0.726
    },
    {  -2.819,   -0.007,    0.014,   -0.008,    0.014,   -0.030,   -0.158,
        0.221,    1.388,    1.800,   -1.065,   -0.147,   -0.839,    1.179,
        0.881,   -0.329,    1.306,    0.733,    3.460,    1.930,   -0.303,
       -0.528,   -0.200,   -0.077,   -0.376,    1.004,   -0.043,    5.320,
       -0.221,    0.663,    0.067,    0.093,   -0.638,    0.495,   -0.676,
        0.259,    2.383,   -0.306,   -0.178,   -0.030,   -0.118,    0.054,
       -3.289,    0.224,   -0.553,   -4.332,    0.135,    1.639,   -0.078,
        0.217,   -0.042,   -0.513,   -0.549,    0.789,    6.778,    1.233,
       -0.414,    0.824,    1.506,   -0.555,   -0.909,    0.660,   -0.339,
       -7.115,    0.019,    0.011,   -0.054,    0.043,   -0.113,    0.252,
        0.282,    2.866,    3.185,    0.101,    1.316,    0.036,    0.015,
       -0.123,    0.301,    0.595,   -0.690,    1.806,   -0.461,   -0.418,
       -0.437,   -0.333,   -0.106,   -0.396,    1.590,   -0.206,    5.037,
       -0.537,   -0.694,    0.092,   -0.870,   -1.062,   -0.011,    0.407,
        0.129,   -2.223,   -0.074,   -0.823,   -1.275,   -0.246,    0.120,
        0.419,   -1.166,   -0.428,    6.323,  -11.824,    0.436,    1.176,
        0.546,    0.678,  -10.960,    5.614,   42.562,    5.069,    0.850,
        0.902,   -0.573
    },
    {  -3.007,    0.029,   -0.065,   -0.036,    0.066,    0.045,   -0.053,
        0.169,    1.521,    1.835,   -1.838,   -0.386,   -1.514,    0.869,
        1.203,    0.199,    1.054,    0.331,    3.357,    1.675,   -0.310,
       -1.069,   -0.151,   -0.028,   -0.052,    1.577,   -0.356,    4.722,
       -0.055,    1.407,    0.322,    0.224,    0.085,    0.167,   -0.266,
       -0.799,    2.938,    0.602,   -0.153,   -0.131,    0.150,    0.140,
       -3.539,    0.844,   -0.865,   -4.676,    0.069,    1.858,   -0.104,
        0.182,   -0.098,   -0.510,   -0.481,    0.800,    7.488,    1.223,
       -0.788,    0.695,    1.564,   -0.359,   -0.459,    0.591,   -0.696,
       -6.999,   -0.002,   -0.058,   -0.016,    0.039,   -0.099,    0.274,
        0.162,    2.879,    4.715,    0.205,    1.967,   -0.011,   -0.053,
       -0.088,    0.371,    0.868,   -0.979,    1.837,   -0.555,   -0.370,
       -0.301,   -0.107,   -0.222,   -0.456,    1.150,   -0.138,    5.403,
       -0.527,   -0.099,   -0.525,   -0.377,   -0.738,    0.020,    0.401,
        0.914,   -2.571,   -0.083,   -1.119,   -1.285,   -0.257,   -0.048,
        0.516,   -1.235,   -0.927,   11.609,  -13.662,    0.219,    0.754,
       -0.304,    0.769,  -10.703,   12.678,   51.474,    7.175,    1.299,
       -5.651,   -0.748
    },
    {  -2.505,    0.008,   -0.030,   -0.014,    0.037,   -0.025,   -0.001,
        0.148,    1.146,    2.438,   -1.777,   -0.435,   -1.309,    0.767,
        2.293,    0.522,    1.374,   -0.211,    3.488,    1.950,   -0.185,
       -0.520,   -0.196,   -0.054,   -0.138,    0.975,   -0.303,    4.775,
       -0.252,    1.199,   -0.282,    0.461,    0.257,    0.155,   -0.031,
       -0.864,    3.230,   -0.298,   -0.210,   -0.331,    0.216,   -0.082,
       -3.560,    1.155,   -0.295,   -4.866,   -0.037,    2.203,   -0.078,
        0.224,   -0.051,   -0.499,   -0.596,    0.746,    8.081,    1.210,
       -1.156,    0.769,    1.773,   -0.625,   -0.204,    0.292,   -1.080,
       -6.959,   -0.084,   -0.036,   -0.034,    0.002,   -0.082,    0.113,
        0.046,    2.969,    5.059,    0.018,    2.048,   -0.110,    0.076,
       -0.071,    0.422,    0.892,   -0.767,    1.553,   -0.464,   -0.293,
       -0.273,   -0.075,    0.005,   -0.268,    1.076,   -0.071,    6.101,
        0.208,   -0.440,   -0.100,   -0.437,   -0.201,   -0.012,    0.417,
        0.933,   -2.649,   -0.415,   -1.142,   -1.755,   -0.098,    0.018,
        0.886,   -1.294,   -0.644,   13.960,  -13.583,    0.208,    1.384,
        0.574,    0.660,   -5.404,    8.658,   47.074,   12.288,    1.395,
       -9.285,   -0.608
    },
    {  -2.843,   -0.001,   -0.028,    0.008,    0.059,    0.064,   -0.214,
        0.216,    1.567,    2.321,   -1.600,    0.074,   -0.985,   -0.092,
        2.187,    0.710,    1.107,   -0.014,    3.237,    1.918,   -0.237,
       -0.433,   -0.307,   -0.042,   -0.216,    1.243,   -0.383,    4.518,
        0.252,    0.743,   -0.680,    0.686,   -0.224,   -0.016,    1.386,
       -0.749,    2.485,   -0.090,   -0.223,    0.181,    0.038,    0.147,
       -3.511,    0.241,   -0.429,   -4.519,    0.001,    1.942,    0.072,
        0.112,   -0.149,   -0.582,   -0.444,    0.790,    8.147,    0.960,
       -0.828,    0.637,    2.452,   -0.060,   -0.773,    0.509,   -0.704,
       -7.510,    0.009,    0.012,    0.013,    0.082,   -0.056,    0.298,
        0.233,    3.168,    4.306,   -0.042,    1.934,    0.081,   -0.208,
       -0.084,    0.210,    0.548,   -0.624,    1.679,   -0.336,   -0.271,
       -0.291,   -0.043,   -0.112,   -0.211,    1.097,    0.011,    6.095,
        0.592,   -0.528,    0.163,   -0.170,    0.498,    0.419,   -0.238,
        0.655,   -2.269,    0.026,   -1.201,   -1.623,   -0.611,    0.129,
        0.300,   -0.866,   -0.603,   17.593,   -9.296,    0.191,    1.095,
        2.487,    0.690,   -4.267,    7.220,   33.436,    5.690,    1.580,
      -14.965,   -0.546
    },
    {  -2.866,    0.015,   -0.018,   -0.030,    0.101,    0.047,   -0.206,
        0.202,    1.725,    2.403,   -0.357,    0.602,   -1.500,   -0.308,
        0.905,    0.417,    0.380,    1.135,    2.610,    1.155,   -0.204,
       -0.167,   -0.089,   -0.114,   -0.231,    0.856,   -0.050,    5.023,
        0.360,    0.772,   -1.067,    1.931,    0.196,    0.102,    0.884,
       -0.678,    2.035,   -0.178,   -0.125,   -0.014,   -0.008,    0.104,
       -2.519,    0.816,   -0.559,   -5.078,   -0.077,    2.156,   -0.040,
        0.185,   -0.072,   -0.617,   -0.563,    0.704,    7.967,    1.301,
       -0.080,    0.704,    2.109,   -0.164,   -1.878,    0.169,   -0.794,
       -7.745,   -0.112,    0.081,   -0.012,    0.117,   -0.201,    0.043,
        0.034,    3.576,    4.479,   -0.094,    1.989,    0.086,   -0.065,
       -0.007,    0.260,    0.735,   -0.611,    2.139,   -0.653,   -0.473,
       -0.402,    0.004,   -0.010,   -0.217,    1.393,   -0.090,    5.821,
        0.147,   -0.794,    0.575,   -0.003,   -0.051,    0.887,   -0.533,
        0.690,   -2.482,    0.254,   -1.043,   -1.326,   -0.474,    0.063,
        0.357,   -0.901,   -0.679,    9.180,   -6.696,    0.047,    1.732,
        0.437,    0.851,   -6.961,    2.468,   18.130,    5.055,    1.063,
      -14.880,   -0.512
    },
    {  -2.285,    0.010,    0.048,   -0.017,    0.078,   -0.010,   -0.134,
        0.190,    1.344,    2.841,    1.265,    0.295,   -0.587,   -1.436,
        1.001,   -0.201,    1.015,    0.465,    1.654,    0.342,   -0.156,
       -0.356,    0.238,   -0.136,   -0.276,    0.764,   -0.111,    6.362,
       -0.193,    0.693,   -1.365,    1.236,   -0.246,    0.398,    0.247,
       -0.705,    2.425,   -0.132,    0.050,   -0.057,   -0.198,    0.120,
       -3.074,    0.147,   -0.234,   -4.162,   -0.063,    1.814,   -0.139,
        0.175,   -0.151,   -0.551,   -0.536,    0.650,    6.102,    1.059,
       -0.313,    1.023,    1.207,   -0.579,   -0.467,    0.404,   -0.665,
       -8.275,   -0.066,    0.021,   -0.030,    0.103,   -0.161,    0.288,
        0.213,    3.487,    4.804,    0.013,    1.822,    0.071,   -0.067,
       -0.055,    0.401,    0.779,   -0.943,    2.077,   -0.781,   -0.316,
       -0.141,   -0.120,    0.030,   -0.205,    0.860,   -0.049,    6.427,
        0.361,   -1.105,    0.626,   -0.020,   -0.054,    0.777,   -1.368,
        1.067,   -2.025,    0.009,   -1.172,   -1.205,   -0.486,    0.065,
        0.307,   -1.161,   -0.210,   -1.452,   -6.044,    0.371,    2.081,
        7.732,    0.768,   -4.035,    5.501,   27.356,   11.319,    1.448,
       -8.723,   -0.620
    },
    {  -2.920,    0.042,   -0.020,   -0.012,    0.026,   -0.003,   -0.042,
        0.199,    1.208,    3.404,    1.277,    0.635,   -0.440,   -1.508,
        1.531,    0.483,    1.195,   -0.339,    1.497,    0.361,   -0.164,
       -0.181,    0.064,   -0.106,   -0.262,    0.730,   -0.142,    6.856,
       -0.259,    0.255,   -0.674,    1.210,   -0.844,    1.197,    0.012,
       -1.740,    2.638,   -0.345,   -0.064,   -0.211,   -0.180,    0.220,
       -2.747,    0.156,    0.054,   -3.969,   -0.017,    1.951,    0.025,
        0.134,   -0.100,   -0.508,   -0.383,    0.636,    5.449,    1.507,
       -0.583,    0.992,    0.509,   -0.008,    0.494,    0.037,   -0.565,
       -8.202,    0.061,   -0.049,    0.025,    0.191,   -0.112,    0.260,
        0.329,    3.433,    5.310,    0.037,    2.202,   -0.159,    0.001,
       -0.062,    0.497,    0.849,   -0.883,    2.302,   -1.184,   -0.252,
       -0.344,   -0.099,   -0.010,   -0.136,    1.557,   -0.255,    6.752,
        0.260,   -1.116,    0.868,    0.215,   -0.298,    1.615,   -1.133,
        0.725,   -2.502,   -0.005,   -1.256,   -1.714,   -0.710,    0.218,
        0.416,   -0.482,   -0.761,  -17.625,  -21.914,    0.402,    2.467,
       17.042,    0.782,   -3.215,    2.532,   39.354,   10.568,    0.948,
       -1.110,   -0.673
    },
    {  -2.938,    0.024,   -0.005,   -0.010,    0.042,    0.023,   -0.058,
        0.118,    1.262,    2.537,    0.703,    0.912,   -0.296,   -1.752,
        1.277,   -0.036,    1.205,    0.149,    1.848,    0.463,   -0.164,
       -0.272,    0.069,   -0.049,   -0.233,    0.678,   -0.117,    7.469,
       -0.776,    0.366,   -0.877,    1.183,   -0.510,    1.186,   -0.826,
       -0.823,    2.943,   -0.383,   -0.425,   -0.080,   -0.293,    0.114,
       -3.551,    0.170,   -0.144,   -4.416,    0.003,    1.650,   -0.224,
        0.135,   -0.024,   -0.649,   -0.323,    0.498,    5.266,    1.257,
       -0.156,    0.801,    0.374,   -0.450,    0.215,   -0.003,   -0.784,
       -8.062,    0.081,    0.013,    0.037,    0.126,   -0.023,    0.321,
        0.286,    3.419,    5.897,   -0.128,    2.771,   -0.055,   -0.065,
       -0.163,    0.432,    0.909,   -0.954,    2.328,   -1.074,   -0.120,
       -0.261,    0.088,   -0.097,   -0.207,    1.450,   -0.089,    6.235,
        0.141,   -1.676,    0.822,    0.175,   -0.391,    1.509,   -0.671,
        0.039,   -2.891,   -0.049,   -1.188,   -1.873,   -1.165,    0.365,
        0.599,   -0.598,   -0.841,  -22.851,  -23.994,    0.330,    3.506,
       14.691,    0.716,  -12.839,    2.682,   37.098,    6.217,    1.093,
       -4.295,   -0.510
    },
    {  -2.433,    0.005,    0.021,   -0.019,    0.055,    0.010,   -0.053,
        0.146,    1.221,    2.552,    0.438,    0.374,   -0.756,   -1.024,
        1.199,   -0.056,    0.881,    0.286,    1.411,    0.417,   -0.110,
       -0.228,    0.050,   -0.086,   -0.127,    0.784,   -0.158,    8.128,
       -0.568,    0.286,   -0.381,    1.171,   -0.846,    1.207,   -1.547,
       -0.517,    3.024,   -0.571,   -0.248,   -0.172,   -0.132,    0.073,
       -3.445,    0.450,   -0.157,   -5.047,   -0.048,    1.943,   -0.018,
        0.191,   -0.048,   -0.606,   -0.545,    0.711,    5.129,    0.559,
       -0.148,    0.622,    0.121,   -0.883,   -0.110,    0.655,   -0.723,
       -8.649,   -0.068,    0.098,   -0.069,    0.032,   -0.183,    0.428,
        0.178,    3.695,    6.170,   -0.106,    3.020,   -0.126,    0.062,
       -0.102,    0.748,    1.258,   -1.209,    2.326,   -0.940,   -0.102,
        0.123,    0.062,    0.006,   -0.094,    0.889,    0.132,    6.588,
        0.053,   -0.981,    0.701,    0.178,   -0.457,    1.632,   -0.538,
        0.465,   -2.980,   -0.217,   -1.439,   -2.198,   -0.951,   -0.026,
        0.903,   -0.590,   -0.570,  -21.695,  -10.350,    0.325,    2.457,
       12.569,    0.725,  -13.616,   11.667,   30.414,    3.250,    1.510,
       -2.491,   -0.484
    },
    {  -2.803,   -0.018,   -0.006,   -0.023,    0.077,    0.012,   -0.110,
        0.164,    1.471,    2.157,    0.457,    0.242,   -0.283,   -1.130,
        1.257,   -0.019,    1.088,    0.324,    1.532,    0.463,   -0.195,
       -0.270,    0.059,   -0.099,   -0.325,    0.738,   -0.134,    7.783,
       -0.175,    0.121,   -0.645,    0.953,   -0.642,    1.445,   -1.426,
       -0.727,    3.382,   -0.684,   -0.182,   -0.373,   -0.213,   -0.028,
       -3.327,    0.313,   -0.147,   -4.876,    0.027,    1.903,   -0.244,
        0.123,   -0.030,   -0.616,   -0.424,    0.799,    5.039,    0.843,
       -0.176,    0.548,    0.137,   -0.704,    0.271,    0.713,   -0.813,
       -8.433,   -0.015,   -0.017,   -0.114,    0.001,   -0.049,    0.350,
        0.222,    3.694,    6.432,   -0.022,    3.232,   -0.202,    0.003,
       -0.129,    0.528,    1.195,   -1.325,    2.293,   -0.867,   -0.317,
       -0.126,    0.122,   -0.011,    0.001,    1.007,   -0.112,    6.428,
        0.308,   -1.347,    1.021,    0.196,   -0.423,    1.488,   -0.680,
        0.284,   -2.676,   -0.169,   -1.432,   -1.925,   -0.771,    0.181,
        0.660,   -0.615,   -0.802,  -22.643,  -11.716,    0.411,    1.804,
       13.515,    0.908,  -15.669,   11.633,   32.969,    4.233,    1.694,
       -4.252,   -0.655
    },
    {  -2.695,   -0.025,   -0.031,   -0.028,    0.028,    0.028,   -0.134,
        0.187,    1.505,    2.138,    0.357,    0.693,   -0.722,   -0.604,
        1.376,   -0.491,    1.593,   -0.051,    1.984,    0.833,   -0.182,
       -0.195,    0.000,   -0.152,   -0.302,    0.954,   -0.194,    8.049,
       -0.688,    0.051,   -0.818,    0.795,   -0.244,    0.917,   -2.035,
       -0.758,    3.328,   -0.573,   -0.417,    0.060,    0.059,    0.127,
       -3.811,    0.336,   -0.304,   -4.487,   -0.035,    1.711,    0.040,
        0.167,   -0.072,   -0.457,   -0.503,    0.670,    5.198,    0.516,
       -0.133,    0.325,    0.609,   -0.741,   -0.310,   -0.205,   -0.169,
       -8.160,   -0.032,   -0.035,    0.031,    0.044,   -0.045,    0.177,
        0.104,    3.495,    6.137,   -0.010,    2.786,   -0.115,    0.060,
       -0.017,    0.629,    1.210,   -1.098,    2.164,   -0.709,   -0.251,
       -0.206,    0.024,   -0.213,   -0.044,    1.369,   -0.142,    6.833,
       -0.017,   -0.902,    0.650,   -0.133,   -0.778,    1.712,   -0.825,
        0.268,   -2.975,   -0.037,   -1.256,   -1.796,   -0.711,   -0.022,
        0.420,   -0.427,   -0.746,  -14.892,   -7.509,    0.443,    1.392,
       19.299,    0.818,  -15.183,    8.344,   40.901,    5.335,    1.115,
       -2.106,   -0.492
    },
    {  -2.638,    0.035,   -0.024,   -0.074,    0.064,    0.024,   -0.096,
        0.098,    1.536,    2.184,    0.895,    1.240,   -1.043,   -0.183,
        1.314,   -0.641,    1.386,   -0.178,    2.502,    1.056,   -0.136,
       -0.214,    0.001,   -0.229,   -0.301,    1.045,   -0.144,    7.671,
       -0.281,   -0.110,   -0.764,    0.351,   -0.314,    1.311,   -1.915,
       -1.012,    2.768,    0.018,   -0.440,   -0.260,    0.180,    0.016,
       -3.764,    0.148,   -0.284,   -3.998,   -0.120,    1.483,    0.065,
        0.123,   -0.088,   -0.588,   -0.540,    0.699,    5.720,    0.292,
        0.036,    0.776,    0.354,    0.047,   -0.911,   -0.224,   -0.186,
       -8.110,    0.104,    0.014,   -0.131,    0.095,   -0.058,    0.090,
        0.252,    3.310,    5.945,   -0.109,    2.766,   -0.111,    0.099,
       -0.122,    0.525,    0.979,   -0.997,    1.896,   -0.568,   -0.169,
       -0.169,   -0.086,   -0.001,   -0.207,    1.198,   -0.076,    6.868,
        0.320,   -1.028,    0.735,    0.308,   -0.644,    1.572,   -0.498,
        0.391,   -3.358,    0.252,   -1.538,   -2.228,   -0.924,    0.298,
        0.419,   -1.114,   -1.079,   -9.075,   -7.284,    0.290,    1.471,
       18.554,    0.714,   -8.563,   11.606,   40.198,    5.345,    1.701,
       -4.509,   -0.447
    },
    {  -3.191,   -0.006,   -0.006,   -0.010,    0.071,    0.031,   -0.153,
        0.228,    1.464,    2.360,    0.992,    0.507,   -0.708,   -0.146,
        1.715,   -0.060,    1.384,   -0.108,    2.290,    1.146,   -0.269,
       -0.122,   -0.067,   -0.278,   -0.166,    0.513,   -0.290,    7.585,
       -0.341,   -0.179,   -0.477,    0.740,   -0.145,    1.484,   -1.722,
       -1.020,    2.769,   -0.604,   -0.420,    0.096,   -0.143,    0.079,
       -3.181,    0.421,   -0.411,   -4.813,    0.103,    2.171,   -0.010,
        0.027,   -0.090,   -0.657,   -0.529,    0.763,    5.821,    0.572,
        0.209,    0.807,    0.546,   -0.252,   -1.218,    0.438,    0.205,
       -8.500,   -0.026,   -0.073,   -0.024,    0.163,   -0.015,    0.169,
        0.308,    3.727,    5.635,    0.035,    2.633,   -0.086,    0.029,
       -0.121,    0.472,    0.859,   -0.862,    1.374,   -0.265,   -0.137,
       -0.153,   -0.016,   -0.055,   -0.263,    0.997,   -0.076,    6.321,
       -0.161,   -1.205,    0.851,    0.084,   -0.152,    1.367,   -0.570,
        0.443,   -3.653,   -0.581,   -2.012,   -2.476,   -1.123,    0.295,
        0.659,   -0.862,   -0.864,  -11.922,  -18.548,    0.416,    1.323,
       12.103,    0.695,   -4.839,   11.045,   41.336,    6.592,    1.786,
       -2.237,   -0.453
    },
    {  -2.600,    0.019,   -0.007,   -0.024,    0.020,    0.002,   -0.107,
        0.130,    1.205,    2.512,    0.397,    0.286,   -0.477,   -0.636,
        0.934,   -0.180,    1.374,   -0.139,    2.528,    0.708,   -0.181,
       -0.236,    0.027,   -0.131,    0.025,    0.781,   -0.089,    7.326,
       -0.256,   -0.462,   -0.534,    0.970,   -0.212,    1.307,   -1.617,
       -0.943,    2.275,    0.057,    0.015,   -0.118,   -0.144,    0.110,
       -2.940,    0.532,   -0.327,   -5.374,   -0.063,    2.297,    0.019,
        0.192,   -0.124,   -0.419,   -0.562,    0.716,    6.537,    1.056,
        0.100,    0.517,    1.519,   -0.380,   -0.971,    1.011,   -0.997,
       -8.319,    0.044,   -0.092,   -0.030,    0.044,   -0.209,    0.138,
        0.284,    3.385,    5.575,   -0.054,    2.383,   -0.113,   -0.017,
       -0.131,    0.397,    0.978,   -0.692,    1.725,   -0.558,   -0.170,
        0.027,    0.055,   -0.045,   -0.232,    0.677,   -0.057,    6.055,
        0.487,   -1.059,    0.917,    0.402,   -0.434,    0.974,   -1.172,
        0.729,   -3.433,   -0.897,   -1.584,   -2.080,   -1.107,   -0.048,
        0.311,   -0.636,   -0.837,  -13.000,  -13.959,    0.638,    4.009,
        5.832,    0.738,  -13.488,    7.293,   37.956,    9.434,    2.415,
       -4.955,   -0.434
    },
    {  -2.613,   -0.016,    0.004,   -0.114,    0.127,    0.019,   -0.267,
        0.207,    1.571,    2.800,    0.779,    0.581,   -0.606,   -0.866,
        0.546,   -0.424,    1.176,    0.462,    1.832,    0.842,   -0.216,
       -0.364,    0.048,   -0.152,   -0.060,    0.718,   -0.160,    7.575,
       -0.330,    0.400,   -1.633,    0.918,   -0.132,    1.555,   -1.599,
       -1.622,    2.230,   -0.145,   -0.136,   -0.155,   -0.048,   -0.024,
       -2.852,    0.340,   -0.722,   -5.087,    0.154,    2.013,   -0.085,
        0.162,   -0.041,   -0.561,   -0.512,    0.607,    7.394,    1.507,
       -0.082,    0.695,    1.779,   -0.624,   -0.886,    0.623,   -0.755,
       -8.099,    0.027,   -0.031,    0.036,    0.073,   -0.163,    0.168,
        0.403,    3.309,    4.858,   -0.043,    2.220,   -0.121,    0.017,
       -0.067,    0.484,    0.603,   -0.741,    1.932,   -0.402,   -0.138,
       -0.034,   -0.000,    0.028,   -0.138,    0.817,    0.014,    5.021,
        0.132,   -0.590,    0.722,   -0.168,   -0.787,    1.174,   -0.788,
        0.222,   -3.337,   -0.093,   -1.388,   -2.187,   -0.886,    0.360,
        0.508,   -0.734,   -0.775,   -9.487,   -5.941,    0.535,    1.395,
        1.578,    0.978,  -10.820,    4.552,   21.690,    6.113,    3.488,
       -2.438,   -0.515
    },
    {  -2.747,    0.039,    0.016,   -0.030,    0.107,   -0.027,   -0.207,
        0.132,    1.667,    2.363,    0.841,    0.287,    0.801,   -0.483,
        0.486,   -0.489,    0.786,    0.834,    2.679,    1.090,   -0.036,
       -0.435,   -0.069,   -0.028,   -0.179,    0.787,   -0.160,    6.783,
       -0.428,    0.145,   -0.886,    1.805,   -0.186,    0.958,   -0.860,
       -1.551,    2.674,   -0.165,   -0.069,   -0.213,   -0.198,    0.104,
       -3.409,    0.080,   -0.891,   -4.304,   -0.114,    1.845,   -0.043,
        0.259,   -0.083,   -0.724,   -0.973,    1.191,    6.521,    0.857,
       -0.530,    1.046,    1.825,   -0.534,   -0.936,    0.189,   -0.467,
       -7.186,    0.001,    0.099,    0.006,    0.054,   -0.123,    0.184,
        0.190,    3.229,    4.133,   -0.050,    1.822,   -0.088,    0.045,
       -0.091,    0.394,    0.887,   -0.817,    2.153,   -0.576,   -0.457,
       -0.264,    0.164,    0.029,   -0.369,    1.398,    0.024,    5.293,
        0.592,   -0.910,    0.569,   -0.623,    0.082,    1.336,    0.392,
       -0.235,   -3.735,    0.090,   -1.673,   -2.172,   -0.495,    0.442,
        1.078,   -1.243,   -0.768,   -8.212,   -6.196,    0.384,    1.983,
        2.306,    0.659,   -3.821,    2.201,   12.938,    4.784,    1.429,
       -1.124,   -0.421
    },
    {  -2.591,    0.044,   -0.038,   -0.016,    0.082,    0.063,   -0.161,
        0.228,    1.527,    1.790,    0.166,    0.478,   -0.824,   -0.942,
        1.481,    0.359,    1.722,   -0.443,    1.999,    0.786,   -0.231,
       -0.342,   -0.072,   -0.199,   -0.252,    0.812,    0.032,    7.016,
       -0.246,    0.609,   -0.734,    1.987,   -0.495,    1.185,    0.047,
       -1.288,    1.941,    0.000,   -0.072,   -0.007,    0.244,    0.436,
       -2.283,    0.277,   -0.334,   -4.182,   -0.056,    1.796,   -0.002,
        0.124,   -0.032,   -0.668,   -0.634,    0.960,    7.648,    0.851,
       -0.129,    0.436,    1.441,   -1.240,   -2.104,    0.529,   -0.396,
       -7.462,   -0.073,    0.119,   -0.018,    0.015,   -0.078,   -0.027,
        0.078,    3.553,    5.529,   -0.003,    2.787,   -0.017,   -0.063,
       -0.012,    0.475,    1.016,   -0.897,    2.379,   -1.014,   -0.460,
       -0.211,   -0.042,   -0.167,   -0.419,    1.313,   -0.058,    6.668,
        0.629,   -1.108,    1.069,    0.367,   -0.863,    1.688,    0.146,
        0.097,   -1.896,    0.057,   -0.630,   -1.284,   -0.249,    0.155,
        0.109,   -1.118,   -0.119,  -12.733,   -6.082,    0.235,    1.732,
        4.815,    0.821,   -4.538,    4.161,   10.546,    3.260,    1.180,
       -1.796,   -0.595
    },
    {  -2.683,    0.019,    0.009,   -0.053,    0.073,    0.012,   -0.187,
        0.304,    1.300,    0.551,   -0.091,    0.229,   -0.200,    0.067,
        0.331,   -0.101,    0.947,   -0.621,    1.826,    0.777,   -0.267,
       -0.247,   -0.062,   -0.123,   -0.171,    0.373,    0.044,    6.582,
       -0.571,    0.306,   -0.672,    1.857,   -0.196,    0.720,   -1.501,
       -0.191,    1.890,   -0.105,   -0.074,    0.060,   -0.209,   -0.031,
       -2.433,    0.257,   -0.351,   -5.097,   -0.003,    2.163,    0.171,
        0.228,   -0.188,   -0.782,   -0.816,    1.006,    6.195,    0.945,
       -0.861,    0.794,    1.225,   -0.165,   -0.063,    0.325,   -0.699,
       -9.162,    0.024,    0.050,    0.049,    0.150,   -0.124,    0.352,
        0.693,    3.728,    5.278,    0.216,    2.477,    0.088,   -0.076,
       -0.192,    0.388,    0.966,   -1.010,    1.594,   -0.570,   -0.342,
       -0.111,   -0.101,   -0.174,   -0.191,    0.704,    0.095,    7.567,
       -0.293,   -0.032,   -0.292,   -0.410,   -0.906,    1.603,   -0.669,
        0.082,   -3.284,   -0.109,   -1.585,   -1.915,   -0.727,    0.043,
        0.560,   -0.427,   -1.058,  -18.007,   -9.518,    0.897,    1.979,
        2.650,    0.670,   -3.436,   10.430,   14.844,    3.996,    1.395,
       -0.049,   -0.670
    },
    {  -2.763,    0.032,   -0.052,   -0.027,    0.045,   -0.015,   -0.127,
        0.210,    1.564,    1.281,    0.195,    0.342,   -0.688,   -0.078,
        0.353,   -0.285,    1.813,   -0.717,    2.157,    0.909,   -0.202,
       -0.278,   -0.086,   -0.170,   -0.074,    0.835,   -0.213,    4.827,
        0.100,   -0.136,   -0.404,    0.197,   -0.484,    0.772,   -0.733,
       -1.237,    2.911,   -0.309,   -0.336,    0.174,   -0.103,   -0.026,
       -3.405,    0.440,   -0.372,   -5.443,    0.064,    2.660,    0.067,
        0.187,    0.005,   -0.718,   -0.561,    1.347,    6.392,    0.906,
       -0.382,    1.162,    1.021,   -0.382,   -0.794,    0.407,   -0.103,
       -8.702,    0.007,   -0.054,   -0.001,    0.006,   -0.144,    0.458,
        0.207,    3.812,    4.269,   -0.032,    1.698,   -0.007,    0.062,
       -0.061,    0.380,    0.757,   -0.891,    2.116,   -0.655,   -0.259,
       -0.199,    0.115,   -0.010,   -0.206,    1.121,    0.179,    7.839,
        0.359,   -0.308,   -0.378,   -1.508,   -0.216,   -1.365,   -0.449,
       -0.390,   -4.054,    0.147,   -1.659,   -2.081,   -0.127,   -0.415,
        0.682,   -1.003,   -1.371,  -19.055,   -6.477,    0.353,    1.797,
        5.071,    0.789,   -3.882,   12.694,   18.605,    6.837,    1.194,
        0.122,   -0.538
    },
    {  -2.881,    0.036,   -0.006,   -0.031,    0.108,    0.052,   -0.087,
        0.141,    1.680,    0.910,   -0.282,    0.433,   -0.778,   -0.199,
        1.054,   -0.521,    1.796,   -1.298,    2.043,    0.694,   -0.131,
       -0.164,   -0.176,   -0.074,   -0.100,    0.768,   -0.161,    4.885,
       -0.066,   -0.522,   -0.097,    1.477,    0.442,    0.940,   -0.102,
       -1.833,    3.375,   -0.432,   -0.500,   -0.020,   -0.115,   -0.039,
       -4.006,    0.348,   -0.048,   -5.447,   -0.087,    2.617,   -0.140,
        0.313,    0.018,   -0.820,   -0.834,    1.025,    6.850,    0.694,
       -0.437,    1.027,    1.971,   -0.617,   -1.266,    0.693,   -0.507,
       -8.170,    0.081,    0.028,    0.011,    0.003,   -0.092,    0.312,
        0.205,    3.701,    4.612,   -0.061,    1.555,    0.049,    0.060,
        0.042,    0.222,    0.620,   -0.524,    2.805,   -0.940,   -0.307,
       -0.408,    0.070,   -0.121,   -0.353,    1.846,    0.054,    9.285,
        0.668,    0.845,    1.512,    0.292,   -0.226,   -0.589,    0.078,
       -0.273,   -3.128,   -0.424,   -1.294,   -2.057,   -1.151,    0.173,
        0.477,   -1.001,   -0.701,  -15.015,   -7.794,    0.362,    2.648,
        1.704,    0.709,   -2.961,    2.388,   19.218,   23.195,    0.948,
       -6.869,   -0.538
    },
    {  -2.551,    0.028,   -0.042,   -0.050,    0.006,    0.024,   -0.047,
        0.276,    1.281,    0.961,   -0.004,    0.475,   -0.612,   -0.348,
        0.784,    0.385,    2.106,   -1.144,    2.159,    0.849,   -0.167,
       -0.243,    0.054,   -0.045,   -0.171,    0.669,   -0.166,    5.146,
       -0.053,   -1.006,   -0.354,    1.049,   -0.195,    0.601,   -0.143,
       -0.641,    2.377,   -0.330,   -0.335,    0.051,   -0.153,    0.147,
       -2.659,    0.597,   -0.355,   -4.667,   -0.029,    1.862,   -0.153,
        0.426,   -0.053,   -0.638,   -0.511,    0.855,    6.505,    0.829,
       -0.238,    0.519,    1.033,   -0.507,   -1.473,    0.612,   -0.146,
       -8.094,   -0.019,   -0.005,   -0.073,    0.081,   -0.162,    0.327,
        0.197,    3.488,    6.182,    0.026,    2.482,   -0.048,   -0.025,
       -0.128,    0.506,    1.045,   -0.886,    2.288,   -0.767,   -0.517,
       -0.414,   -0.029,   -0.139,   -0.408,    1.349,    0.259,   10.144,
       -0.096,    1.529,    1.560,    1.172,    0.461,   -0.294,    0.598,
       -0.074,   -2.256,    0.116,   -0.994,   -1.406,   -0.453,   -0.102,
        0.537,   -0.912,   -0.704,  -15.172,   -8.268,    0.428,    2.108,
        3.860,    0.891,   -6.140,    7.496,   25.744,   18.653,    0.807,
       -6.025,   -0.552
    },
    {  -2.980,    0.011,   -0.025,   -0.013,    0.038,    0.047,   -0.154,
        0.205,    1.845,    1.511,   -0.120,    0.727,    0.065,   -0.088,
        1.211,    0.428,    1.595,   -1.315,    2.164,    0.932,   -0.269,
       -0.529,    0.058,   -0.208,   -0.437,    1.012,   -0.049,    4.610,
        0.045,   -0.617,    0.398,    1.375,    0.034,    0.101,    0.245,
       -0.182,    2.027,   -0.205,    0.019,   -0.083,   -0.070,    0.184,
       -2.407,    0.234,   -0.389,   -4.427,   -0.083,    1.741,   -0.034,
        0.266,   -0.037,   -0.482,   -0.447,    0.683,    6.084,    0.830,
       -0.164,    1.446,    1.179,   -0.594,   -0.172,    0.528,   -0.912,
       -7.019,   -0.067,    0.002,   -0.028,    0.116,   -0.100,    0.260,
        0.087,    3.092,    7.460,    0.004,    3.400,   -0.298,   -0.072,
       -0.168,    0.716,    1.304,   -1.248,    2.031,   -0.710,   -0.348,
       -0.255,   -0.078,   -0.181,   -0.183,    1.181,   -0.042,   10.954,
       -0.251,   -0.194,    0.411,    0.668,    0.061,    0.419,    0.251,
        0.095,   -2.298,   -0.206,   -1.245,   -1.045,   -0.133,    0.129,
        0.487,   -0.720,   -0.393,  -18.612,   -6.377,    0.383,    1.174,
        8.828,    0.905,   -9.482,    2.677,   24.738,    7.404,    1.341,
        6.377,   -0.584
    },
    {  -2.584,    0.026,    0.012,    0.016,    0.037,    0.048,   -0.115,
        0.229,    1.422,    1.676,    1.185,    0.532,   -0.011,   -0.402,
        1.541,   -1.110,    0.401,   -0.451,    2.336,    0.854,   -0.182,
       -0.288,   -0.318,   -0.062,   -0.091,    0.720,   -0.175,    4.591,
       -0.103,   -0.445,   -0.679,    1.092,    0.079,    0.516,    0.206,
       -0.747,    2.735,   -0.160,   -0.231,   -0.003,   -0.149,   -0.164,
       -3.795,    0.738,   -0.626,   -4.755,    0.120,    2.022,   -0.022,
        0.235,   -0.143,   -0.634,   -0.759,    0.897,    5.421,    1.006,
        0.282,    0.564,    0.719,   -0.870,   -0.456,    0.689,   -0.428,
       -6.959,    0.001,    0.048,   -0.028,    0.045,   -0.018,    0.176,
        0.229,    3.008,    7.237,   -0.105,    3.218,   -0.126,   -0.079,
       -0.056,    0.523,    1.207,   -0.908,    1.737,   -0.393,   -0.184,
       -0.262,    0.062,    0.006,   -0.240,    1.161,    0.032,   11.540,
        0.588,   -0.694,    0.337,   -0.681,    0.134,   -0.464,    0.230,
        1.071,   -1.922,   -0.128,   -0.804,   -1.487,   -0.422,    0.320,
       -0.142,   -0.674,   -0.535,  -22.323,   -7.640,    0.357,    1.794,
        4.711,    0.703,   -5.990,    5.880,   19.411,    9.465,    1.689,
        5.401,   -0.516
    },
    {  -2.764,    0.016,    0.008,   -0.034,    0.098,    0.022,   -0.157,
        0.179,    1.573,    1.498,    0.790,   -0.111,   -0.867,   -0.393,
        0.645,   -0.421,    0.453,    0.002,    2.561,    0.867,   -0.082,
       -0.492,    0.048,   -0.131,   -0.328,    1.016,   -0.180,    5.471,
       -0.479,    0.400,   -0.948,    0.621,   -0.322,    0.990,   -0.411,
       -0.778,    2.661,   -0.295,   -0.213,   -0.139,   -0.374,    0.115,
       -3.000,    0.555,   -0.477,   -4.929,    0.021,    2.120,    0.045,
        0.068,   -0.093,   -0.529,   -0.801,    0.759,    6.616,    1.067,
       -0.615,    1.017,    1.635,   -0.124,   -0.663,    0.216,   -0.421,
       -7.874,   -0.033,    0.004,   -0.008,    0.105,   -0.174,    0.298,
        0.078,    3.688,    4.471,   -0.066,    1.795,    0.018,    0.007,
       -0.074,    0.338,    0.667,   -0.668,    2.627,   -0.674,   -0.396,
       -0.341,    0.008,   -0.084,   -0.512,    1.680,   -0.190,   10.955,
        0.719,   -0.392,   -0.990,    0.187,    0.682,   -0.988,    1.555,
        0.198,   -2.029,   -0.210,   -0.818,   -1.374,   -0.370,   -0.055,
        0.611,   -0.960,   -0.479,  -19.204,   -7.836,    0.335,    1.533,
        3.417,    0.601,   -5.938,    3.212,   14.431,   11.129,    1.476,
       -0.346,   -0.600
    },
    {  -2.831,    0.044,   -0.015,   -0.062,    0.142,    0.056,   -0.057,
        0.211,    1.710,    0.424,    0.354,    0.204,   -0.929,   -0.069,
        0.658,   -0.291,    1.149,   -0.506,    2.640,    0.779,   -0.354,
       -0.442,   -0.076,   -0.069,   -0.120,    0.981,   -0.083,    6.475,
       -0.665,   -0.209,   -0.532,    0.823,   -0.088,    0.910,   -1.260,
