//-----------------------------------------------------------------------------
// Network: bnn_4mu_8TeV_new_pt
// Inputs:
//                                                  Offset       Scale
//    angle_costhetastar                         3.739e-03   5.906e-01
//    angle_costheta1                           -3.530e-03   5.718e-01
//    angle_costheta2                           -4.737e-03   5.215e-01
//    angle_phi                                  3.130e-02   1.913e+00
//    angle_phistar1                             1.782e-02   1.789e+00
//    Z1mass                                     8.574e+01   1.064e+01
//    Z2mass                                     3.524e+01   1.895e+01
//    mass4l                                     1.400e+02   2.054e+01
//    pt4l                                       3.300e+01   4.086e+01
//
// Created: Wed Jan 23 20:03:34 2013
//-----------------------------------------------------------------------------
#include <cmath>
#include <vector>
#include <iostream>
//-----------------------------------------------------------------------------
// Make following visible only to this programming unit
namespace nsbnn_4mu_8TeV_new_pt {
  // NOTE: Network indices start at 0
  static const int nnetworks=100;
  static const int ninputs  =9;
  static const int nhidden  =12;
  static const int nparams  =133;

  static const double mean[ninputs]={
  3.73900e-03,
 -3.53000e-03,
 -4.73700e-03,
  3.13000e-02,
  1.78200e-02,
  8.57400e+01,
  3.52400e+01,
  1.40000e+02,
  3.30000e+01
  };

  static const double sigma[ninputs]={
  5.90600e-01,
  5.71800e-01,
  5.21500e-01,
  1.91300e+00,
  1.78900e+00,
  1.06400e+01,
  1.89500e+01,
  2.05400e+01,
  4.08600e+01
  };

  static const double weight[nnetworks][nparams]={
    {  -1.721,   -0.130,    0.588,   -0.702,    0.242,   -0.577,   -0.051,
       -1.402,    0.527,   -0.639,   -0.180,   -0.208,    0.122,    0.545,
        0.290,    0.405,    0.559,   -0.849,    0.235,    0.528,   -3.516,
        0.204,   -1.366,   -0.253,   -0.140,   -0.117,   -0.265,   -0.552,
        0.270,    0.096,   -3.409,   -1.223,   -0.238,    0.131,    0.130,
        0.003,    0.025,   -0.844,   -0.227,   -0.295,   -4.432,   -0.322,
        1.417,    1.464,   -0.237,    0.077,   -0.463,   -1.002,    0.708,
       -0.177,    1.956,   -0.030,   -0.062,   -0.022,    0.064,   -0.060,
       -0.028,   -0.159,   -2.683,    0.100,    0.110,    0.448,    0.036,
        0.099,   -0.373,   -0.755,    0.574,   -2.362,   -0.225,   -1.251,
       -3.528,    0.658,    0.809,   -0.302,    0.377,    0.296,    0.344,
        0.574,    0.081,    0.175,    2.427,   -0.058,   -0.029,   -0.045,
        0.076,    0.001,   -0.015,   -0.093,    0.056,    1.978,   -4.394,
       -0.654,    0.235,   -1.083,   -1.220,    0.192,   -0.101,   -0.443,
       -0.258,    0.051,   -3.965,   -0.074,   -1.002,   -0.658,    1.054,
        0.460,   -0.238,    0.187,    0.188,   -0.212,   -3.146,    0.414,
        0.049,   -0.096,   -0.092,    0.122,    0.905,   -1.311,   -0.389,
       -0.771,  -22.928,   -0.685,   -0.666,   -4.253,   -2.342,   -1.043,
        6.234,   -0.564,    0.073,    4.886,   -2.046,   -1.481,   -2.584
    },
    {  -1.905,   -0.210,    0.790,   -1.140,    0.277,   -0.015,    0.344,
       -0.298,   -0.457,   -0.111,    0.103,   -0.192,   -0.545,    0.529,
        1.505,    0.241,   -0.189,   -1.032,    0.684,    0.654,   -3.022,
        0.250,   -1.263,   -0.418,    0.048,   -0.212,   -0.265,   -0.332,
        0.244,    0.046,   -5.052,   -2.379,   -0.382,   -0.070,    0.064,
       -0.119,   -0.002,   -0.802,   -0.417,   -0.433,   -2.453,    0.040,
        0.575,    0.549,   -0.104,   -0.046,   -0.292,   -0.755,    0.360,
       -0.073,    1.741,   -0.027,   -0.025,   -0.023,   -0.043,   -0.034,
       -0.012,   -0.064,   -2.388,    0.027,   -0.112,    0.040,    0.224,
        0.184,   -0.502,   -0.151,    0.365,   -1.324,    0.060,   -0.225,
       -4.196,   -0.900,   -0.509,   -0.532,   -0.270,    0.367,   -0.201,
       -0.926,    1.097,    0.271,    1.406,   -0.024,    0.021,    0.065,
       -0.045,    0.081,    0.031,   -0.126,   -0.072,    1.385,   -2.042,
       -0.281,    0.059,   -0.028,   -0.869,    0.348,   -0.210,    0.393,
        0.232,   -0.033,   -2.415,    0.090,   -0.471,    0.201,    0.858,
        0.646,    0.096,    0.363,   -0.946,    0.123,   -3.498,    0.354,
       -0.012,   -0.011,   -0.333,    0.143,    1.123,   -1.093,   -0.311,
       -0.798,  -20.597,   -0.858,   -0.716,   -3.048,   -1.661,   -2.578,
        7.046,   -1.602,    0.081,    2.617,   -1.726,   -0.687,   -3.944
    },
    {  -2.560,   -0.221,    0.633,   -1.745,   -0.031,   -0.128,    0.615,
       -0.699,   -0.643,   -0.406,   -0.704,    0.184,    0.203,    0.463,
        1.025,   -0.032,    0.227,    0.029,    0.339,   -0.233,   -3.891,
        0.060,   -1.702,   -0.298,    0.024,   -0.266,   -0.327,   -0.380,
        0.309,   -0.059,   -2.866,   -1.016,   -0.006,    0.058,   -0.026,
        0.058,    0.201,   -0.836,   -0.150,   -0.165,   -3.699,   -0.145,
        1.170,    0.326,    0.343,   -0.281,   -0.598,   -0.782,    0.613,
       -1.182,    1.923,   -0.001,    0.025,   -0.002,    0.016,   -0.040,
        0.014,   -0.158,   -2.785,    0.019,   -0.036,   -0.197,   -0.082,
        0.154,   -0.763,   -0.144,    0.427,   -2.464,   -0.213,   -0.114,
       -2.233,    0.093,    0.333,   -0.808,   -0.376,   -0.437,    0.018,
        1.348,    1.017,    0.678,    2.110,   -0.168,   -0.001,    0.017,
        0.052,   -0.076,   -0.067,   -0.206,   -0.033,    1.964,   -3.175,
       -0.182,    0.279,    0.466,   -1.044,    0.484,   -0.380,    0.421,
       -0.241,   -0.134,   -5.035,    0.237,   -0.728,   -1.055,    0.787,
        0.315,   -0.221,    0.171,   -0.508,    0.197,   -2.855,    0.338,
       -0.119,    0.145,   -0.226,    0.031,    0.889,   -2.094,    0.014,
       -0.215,  -21.049,   -0.567,   -0.793,   -3.177,   -2.832,   -2.022,
        5.963,   -1.085,   -0.144,    3.443,   -0.928,   -3.136,   -1.478
    },
    {  -2.489,    0.253,    0.837,   -2.283,   -0.074,    0.108,    0.032,
        0.016,   -0.392,    0.166,   -0.220,   -0.086,   -0.286,    0.547,
        1.552,    0.115,   -0.385,   -1.249,    0.490,   -0.085,   -3.953,
        0.056,   -1.832,   -0.304,    0.027,   -0.162,   -0.366,   -0.473,
        0.629,   -0.005,   -2.622,   -1.193,   -0.224,   -0.257,   -0.354,
       -0.076,    0.267,   -0.651,    0.337,   -0.363,   -4.431,   -0.471,
        1.456,    0.360,    0.430,   -0.009,   -0.240,   -0.645,    0.447,
       -0.464,    1.801,   -0.080,    0.018,   -0.068,    0.110,   -0.019,
        0.026,   -0.152,   -2.699,    0.001,   -0.036,   -0.061,    0.106,
        0.184,   -0.508,   -0.061,    0.425,   -1.235,   -0.063,   -0.181,
       -4.127,    1.812,   -0.047,    1.403,   -0.643,   -0.280,   -0.303,
       -0.628,   -0.403,   -0.040,    2.466,   -0.199,   -0.081,    0.108,
       -0.049,    0.011,   -0.076,   -0.129,    0.060,    2.903,   -3.673,
       -0.500,    0.327,    0.162,   -1.495,    0.222,   -0.667,    1.053,
       -0.660,   -0.168,   -7.012,    0.109,   -0.580,   -0.403,    1.243,
        1.731,   -0.038,    0.261,   -0.968,    0.258,   -2.748,    0.137,
        0.094,   -0.051,   -0.207,    0.060,    1.179,   -1.115,   -0.428,
       -0.377,  -23.322,   -0.470,   -0.852,   -3.858,   -1.315,   -4.950,
        5.855,   -1.324,   -0.298,    1.963,   -0.782,   -4.567,   -2.024
    },
    {  -1.750,   -0.196,    0.593,   -1.332,    0.132,   -0.466,    0.395,
       -0.047,   -0.598,    0.062,   -0.402,   -0.450,   -0.045,    0.433,
        1.226,   -0.081,   -0.170,   -1.153,    0.594,   -0.174,   -3.270,
        0.174,   -1.342,   -0.368,   -0.016,   -0.159,   -0.198,   -0.473,
        0.300,   -0.020,   -3.258,   -0.726,   -0.134,    0.196,    0.078,
        0.181,    0.589,   -0.845,   -0.402,   -0.702,   -4.601,   -0.432,
        1.690,    0.455,    0.204,    0.013,   -0.244,   -0.335,    0.228,
       -0.729,    1.715,   -0.023,    0.025,   -0.058,    0.040,    0.063,
        0.014,   -0.154,   -2.478,   -0.029,   -0.399,    0.022,    0.139,
        0.362,   -0.448,    0.150,    0.204,   -1.719,    0.070,   -0.293,
       -2.723,    1.258,    0.259,    0.729,   -0.576,   -0.132,   -0.397,
       -0.315,   -1.267,    0.347,    2.023,   -0.153,   -0.034,    0.028,
        0.023,    0.018,   -0.081,   -0.183,   -0.208,    1.845,   -2.868,
       -0.598,   -0.012,   -0.469,   -1.290,    0.424,   -0.118,    0.671,
       -0.255,   -0.186,   -4.419,    0.119,   -0.272,   -0.619,    0.914,
        1.062,   -0.076,    0.348,   -0.189,    0.060,   -3.534,    0.639,
        0.111,   -0.104,   -0.165,    0.116,    1.117,   -1.113,   -0.140,
       -1.211,  -24.632,   -0.845,   -0.746,   -4.265,   -2.183,   -2.884,
        5.716,   -1.332,   -0.328,    3.065,   -1.303,   -4.590,   -2.250
    },
    {  -1.763,   -0.257,    1.327,   -1.711,    0.424,    0.275,    0.415,
        0.460,   -0.611,   -0.137,   -0.992,    0.016,   -0.121,    0.403,
        1.409,    0.118,    0.431,   -0.407,   -0.024,    0.185,   -3.728,
        0.001,   -1.613,   -0.363,   -0.061,   -0.118,   -0.270,   -0.550,
        0.002,    0.084,   -3.022,   -0.861,    0.062,   -0.052,    0.005,
        0.245,    1.181,   -1.123,   -0.580,   -0.024,   -2.997,    0.371,
        0.472,    1.024,   -0.120,   -0.146,   -0.333,   -1.196,    0.443,
        0.006,    1.845,   -0.051,    0.089,   -0.057,    0.083,    0.005,
        0.083,   -0.119,   -2.899,   -0.009,   -0.466,   -0.093,    0.263,
       -0.049,   -0.533,   -0.099,    0.024,   -1.066,    0.186,   -0.256,
       -3.103,   -0.134,    0.667,   -0.112,   -0.041,    0.711,    0.806,
        0.002,   -0.030,    0.989,    2.558,    0.062,    0.066,   -0.123,
       -0.064,    0.041,   -0.087,    0.166,   -0.049,    2.291,   -3.663,
       -0.503,    0.494,    0.145,   -0.394,    0.748,    0.154,    0.642,
        0.172,   -0.740,   -4.447,    0.362,   -0.881,   -0.996,    0.767,
        0.087,   -0.399,    0.470,    0.142,   -0.334,   -3.016,    0.742,
       -0.157,   -0.178,   -0.121,    0.150,    1.124,   -0.955,   -0.235,
       -0.340,  -20.369,   -0.486,   -0.795,   -3.069,   -0.901,   -1.727,
        5.319,   -1.397,    0.208,    4.253,   -3.256,   -1.426,   -2.127
    },
    {  -1.621,   -0.692,    0.663,   -1.619,    0.423,   -0.128,    0.338,
        0.339,   -0.492,   -0.017,   -1.349,    0.179,    0.204,    0.663,
        0.884,   -0.235,    0.491,   -1.016,    0.134,   -0.521,   -3.753,
        0.087,   -1.667,   -0.090,   -0.043,   -0.144,   -0.205,   -0.296,
        0.227,    0.033,   -3.513,   -1.275,   -0.165,   -0.001,   -0.092,
        0.010,    0.149,   -0.679,   -0.410,   -0.325,   -5.922,    1.324,
        1.199,   -0.065,   -0.079,   -0.181,   -0.881,   -1.568,    0.689,
        0.011,    2.088,   -0.056,   -0.022,   -0.002,    0.075,   -0.016,
        0.012,   -0.115,   -3.261,    0.004,   -0.263,   -0.085,    0.079,
       -0.071,   -0.408,    0.098,    0.047,   -1.176,    0.095,   -0.128,
       -6.632,   -0.086,    0.290,   -0.794,    0.590,    0.036,    0.521,
       -1.005,   -0.211,   -0.286,    2.308,   -0.096,   -0.081,   -0.025,
        0.058,   -0.104,   -0.076,   -0.285,   -0.040,    2.163,   -2.588,
       -0.301,    0.840,    0.589,   -0.117,    0.135,   -0.312,   -0.012,
        0.565,    0.097,   -3.366,    0.135,   -0.404,   -0.443,    0.715,
        0.520,   -0.278,    0.305,   -0.141,    0.066,   -3.216,    0.676,
        0.118,   -0.148,   -0.278,   -0.044,    1.306,   -1.634,    0.002,
       -0.484,  -23.054,   -0.436,   -1.083,   -5.389,   -2.705,   -2.444,
        5.857,   -1.316,    1.470,    3.507,   -1.738,   -2.920,   -1.477
    },
    {  -2.045,    0.021,    0.975,   -1.783,    0.157,   -0.130,    0.365,
       -0.932,    0.221,   -0.076,   -0.446,   -0.016,   -0.040,    0.257,
        0.616,   -0.063,    0.074,   -0.712,    0.178,   -0.013,   -3.764,
        0.019,   -1.588,   -0.350,   -0.101,   -0.110,   -0.293,   -0.511,
        0.474,   -0.050,   -3.414,   -0.810,   -0.117,   -0.119,   -0.275,
        0.117,    0.208,   -0.599,   -0.390,   -0.362,   -5.062,    1.305,
        0.192,   -0.179,   -0.418,   -0.298,    0.406,   -0.476,   -0.786,
        0.042,    2.218,    0.000,   -0.038,   -0.002,    0.116,    0.026,
        0.064,   -0.203,   -2.953,   -0.056,   -0.262,   -0.005,    0.020,
        0.049,   -0.736,    0.035,    0.068,   -0.616,   -0.107,   -0.218,
       -6.869,   -0.317,   -0.032,    0.733,   -0.194,   -0.249,   -0.080,
       -0.067,    0.078,   -0.346,    1.563,    0.034,   -0.056,   -0.002,
        0.023,    0.037,   -0.013,   -0.384,    0.164,    1.313,   -2.868,
        0.036,    0.834,    0.415,    0.153,   -0.116,   -0.175,   -0.479,
        0.303,   -0.138,   -3.630,    0.134,   -0.363,   -0.546,    0.949,
        0.377,   -0.207,    0.879,   -0.356,   -0.010,   -2.796,    0.297,
       -0.102,    0.041,   -0.255,    0.256,    1.121,   -0.623,    0.102,
       -0.687,  -28.036,   -0.782,   -2.371,   -4.617,   -5.184,   -4.619,
        8.053,   -1.529,    4.442,    2.740,   -2.805,   -2.807,   -3.034
    },
    {  -1.946,   -0.117,    0.449,   -0.737,   -0.056,   -0.028,    0.791,
       -1.001,   -0.395,   -0.102,   -0.636,    0.151,    0.097,    0.278,
        0.533,    0.008,    0.058,   -0.516,    0.270,   -0.051,   -3.029,
        0.019,   -1.368,   -0.239,   -0.002,   -0.150,   -0.280,   -0.494,
        0.214,    0.021,   -3.622,   -1.362,   -0.196,    0.119,    0.131,
       -0.035,    0.180,   -0.492,   -0.149,   -0.187,   -2.289,    0.075,
        0.523,   -0.022,    0.291,   -0.493,   -0.092,   -0.488,    0.890,
       -0.247,    1.682,    0.014,    0.050,   -0.009,    0.098,    0.017,
        0.014,   -0.085,   -2.242,   -0.021,   -0.513,   -0.014,   -0.002,
        0.122,   -0.911,    0.065,    0.231,   -1.272,   -0.319,   -0.106,
       -8.584,    0.901,   -0.751,    0.124,   -1.224,   -0.462,    0.093,
       -0.045,    0.026,   -0.011,    1.246,    0.073,   -0.117,    0.112,
       -0.050,   -0.025,    0.015,   -0.240,    0.173,    1.576,   -3.464,
       -0.108,    0.982,    0.607,   -0.082,    0.123,   -0.179,   -0.669,
        0.322,   -0.198,   -3.858,    0.035,   -0.526,   -0.507,    1.039,
        0.318,   -0.196,    0.367,   -0.125,    0.101,   -3.048,    0.588,
       -0.239,    0.145,   -0.228,   -0.033,    0.781,   -1.069,   -0.249,
       -0.985,  -23.754,   -0.995,   -1.533,   -2.705,   -3.788,   -1.420,
        6.591,   -1.078,   -0.871,    1.501,   -2.641,   -3.871,   -1.643
    },
    {  -1.305,    0.232,    0.072,   -0.672,    0.154,   -0.270,    0.217,
       -0.613,   -0.204,   -0.037,   -1.018,    0.115,    0.175,    0.502,
        0.594,   -0.053,    0.171,   -0.973,    0.205,   -0.338,   -3.912,
       -0.010,   -1.420,   -0.077,   -0.196,   -0.141,   -0.274,   -0.613,
        0.478,   -0.006,   -2.254,   -1.043,    0.161,   -0.323,    0.003,
        0.093,    0.301,   -0.373,   -0.416,   -0.113,   -3.011,   -0.587,
        1.090,   -0.374,    0.864,    0.400,   -0.132,    0.153,   -1.094,
       -0.273,    1.972,    0.012,   -0.089,    0.071,    0.012,   -0.002,
        0.066,   -0.152,   -2.728,   -0.025,   -0.107,   -0.040,   -0.069,
        0.046,   -0.601,    0.075,    0.262,   -0.799,    0.071,   -0.107,
      -10.911,   -0.142,    0.104,   -1.223,   -0.642,    0.142,    0.131,
        0.259,    0.076,   -0.687,    1.877,   -0.055,   -0.140,    0.056,
        0.006,    0.096,    0.034,   -0.248,   -0.149,    1.605,   -2.549,
       -0.038,    0.480,    0.674,   -0.432,    0.230,   -0.617,    0.076,
       -0.174,    0.411,   -3.325,    0.073,   -0.493,   -0.811,    0.841,
        0.232,   -0.291,    0.390,   -0.074,   -0.014,   -3.305,    0.139,
       -0.117,   -0.183,   -0.358,    0.263,    0.716,   -0.813,   -0.288,
       -0.787,  -33.231,   -0.781,   -1.591,  -10.447,   -1.141,   -0.245,
        6.549,   -1.359,   -3.994,    3.394,   -0.823,   -2.815,   -5.155
    },
    {  -1.478,   -0.217,    0.608,   -1.404,    0.086,    0.083,    0.297,
       -0.066,   -0.475,   -0.133,   -0.554,    0.115,    0.053,    0.412,
        0.760,   -0.230,    0.137,   -0.504,    0.316,   -0.315,   -3.480,
        0.051,   -1.309,   -0.226,    0.092,   -0.069,   -0.317,   -0.440,
        0.172,    0.058,   -2.312,   -0.731,   -0.043,   -0.011,    0.086,
        0.098,    0.634,   -0.579,   -0.195,   -0.024,   -1.604,   -0.031,
       -0.599,    0.612,   -0.683,   -0.399,    0.392,    0.262,    2.062,
       -0.257,    2.118,   -0.029,    0.032,    0.013,    0.040,    0.016,
        0.030,   -0.193,   -2.311,    0.019,   -0.403,    0.041,    0.123,
        0.130,   -0.610,    0.069,    0.068,   -0.917,   -0.014,   -0.073,
      -11.344,    0.045,    0.443,    0.260,    0.489,   -0.946,   -0.713,
        0.081,   -0.776,   -0.117,    2.566,   -0.063,    0.046,   -0.080,
        0.051,   -0.023,   -0.060,   -0.113,    0.056,    2.233,   -4.459,
       -0.087,    1.723,    0.824,   -0.155,    0.235,   -0.538,   -0.607,
        0.407,   -0.006,   -4.252,    0.187,   -0.363,   -0.878,    0.883,
        0.763,   -0.364,    0.186,    0.341,   -0.202,   -3.861,    0.830,
       -0.038,   -0.142,   -0.022,    0.017,    0.939,   -0.853,   -0.253,
       -0.338,  -39.614,   -0.842,   -1.335,   -6.242,   -2.124,   -0.010,
       11.714,   -1.580,   -5.749,    4.727,   -1.687,   -2.574,   -6.081
    },
    {  -1.994,   -0.444,    0.717,   -0.970,    0.287,   -0.278,    0.385,
       -0.766,   -0.510,   -0.112,   -0.979,    0.022,    0.155,    0.595,
        0.780,   -0.110,    0.094,   -1.140,    0.178,   -0.094,   -4.116,
        0.068,   -1.649,   -0.184,   -0.134,   -0.129,   -0.263,   -0.460,
        0.206,   -0.005,   -4.438,   -1.765,   -0.459,   -0.002,    0.116,
        0.085,    0.761,   -0.687,   -0.368,   -0.587,   -2.677,    0.768,
        0.425,   -0.219,    0.419,    0.435,   -1.484,   -1.059,   -1.767,
       -0.323,    1.685,   -0.012,    0.028,    0.017,    0.094,   -0.012,
        0.067,   -0.132,   -2.718,    0.050,   -0.594,   -0.076,   -0.034,
        0.128,   -0.721,    0.167,    0.016,   -0.975,    0.145,   -0.046,
      -10.975,   -0.755,   -0.827,    0.797,   -0.513,    0.996,    0.831,
        0.549,   -0.231,   -0.619,    2.410,   -0.031,    0.016,    0.023,
        0.024,   -0.009,   -0.061,   -0.102,   -0.024,    1.466,   -3.945,
        0.662,    0.353,    0.263,   -0.280,   -0.151,   -0.676,    0.251,
       -0.266,   -1.153,   -4.830,    0.171,   -0.807,   -0.767,    1.271,
        0.652,   -0.154,    0.366,   -0.211,    0.125,   -2.667,    0.578,
       -0.049,   -0.108,   -0.118,    0.039,    0.970,   -0.861,   -0.009,
       -0.200,  -41.455,   -1.000,   -1.217,   -6.817,   -1.351,   -0.080,
        4.693,   -1.083,   -9.541,   12.603,   -1.205,   -3.165,   -3.040
    },
    {  -2.204,    0.259,    0.524,   -1.547,    0.259,   -0.250,    0.323,
       -1.206,   -0.010,   -0.002,   -1.411,    0.189,    0.596,    0.622,
        0.707,   -0.050,    0.069,   -1.155,    0.568,   -0.027,   -3.023,
        0.114,   -1.240,   -0.052,    0.126,   -0.173,   -0.216,   -0.224,
        0.313,   -0.048,   -3.316,   -1.202,   -0.136,   -0.010,    0.156,
       -0.177,    0.318,   -0.825,   -0.182,   -0.128,   -2.355,    0.204,
       -0.240,   -0.682,    0.225,    0.415,    1.196,   -0.242,    0.435,
       -0.129,    1.788,    0.027,   -0.014,    0.014,    0.105,    0.027,
        0.160,   -0.151,   -2.788,   -0.015,   -0.923,   -0.119,    0.039,
        0.154,   -0.447,    0.272,    0.046,   -0.892,   -0.521,   -0.090,
      -10.305,    0.140,    0.314,   -1.175,    0.476,    0.615,    0.415,
        0.481,    0.750,    0.108,    1.674,    0.094,   -0.120,   -0.018,
       -0.011,    0.094,   -0.150,   -0.025,   -0.283,    1.829,   -7.274,
        0.121,    1.481,    1.006,   -0.575,   -0.285,   -0.649,   -0.181,
        0.123,    0.129,   -4.648,   -0.117,   -0.457,   -0.281,    0.915,
        0.701,   -0.193,    0.591,   -0.598,   -0.477,   -2.932,    0.687,
       -0.178,    0.050,   -0.054,   -0.058,    0.726,   -0.552,   -0.138,
       -0.878,  -30.906,   -0.779,   -0.983,   -6.242,   -2.346,   -0.757,
        5.574,   -1.513,   -2.612,    2.207,   -3.699,   -5.029,   -3.326
    },
    {  -1.719,    0.005,    0.727,   -1.303,    0.186,   -0.366,   -0.200,
       -0.125,   -0.011,    0.279,   -0.927,    0.098,    0.179,    0.434,
        0.928,   -0.163,    0.124,   -0.793,    0.146,   -0.136,   -3.923,
        0.057,   -2.104,   -0.315,   -0.093,   -0.133,   -0.380,   -0.640,
        0.503,    0.101,   -3.156,   -1.637,   -0.169,   -0.161,   -0.113,
        0.157,    0.440,   -0.561,   -0.468,   -0.616,   -3.338,    0.942,
        0.542,   -0.766,    0.991,   -0.026,   -0.716,    1.113,   -0.646,
        0.664,    1.775,    0.032,    0.030,   -0.053,    0.036,   -0.017,
        0.014,   -0.194,   -2.746,    0.051,   -0.666,    0.054,   -0.061,
        0.003,   -0.477,    0.044,    0.166,   -1.017,   -0.041,   -0.110,
       -7.431,    0.244,    0.249,    0.745,   -0.759,   -0.680,    0.224,
        0.346,   -0.963,   -0.095,    2.234,   -0.121,   -0.105,    0.109,
       -0.009,   -0.060,   -0.037,   -0.034,   -0.157,    2.362,   -3.320,
       -0.124,    1.015,    1.526,   -0.640,    0.328,   -0.872,    0.266,
        0.559,    0.006,   -4.020,   -0.004,   -0.505,   -0.608,    1.270,
        0.608,   -0.329,    0.561,    0.009,   -0.065,   -3.758,    0.518,
       -0.067,   -0.067,   -0.187,    0.071,    1.404,   -0.522,   -0.674,
       -0.876,  -16.847,   -0.842,   -1.381,   -2.059,   -1.075,    0.477,
        5.618,   -1.766,   -0.159,    2.541,   -0.943,   -2.352,   -3.233
    },
    {  -1.280,   -0.010,    0.494,   -1.161,    0.213,   -0.301,   -0.011,
        0.113,    0.076,    0.128,   -0.251,    0.038,   -0.191,    0.357,
        0.608,   -0.164,    0.072,   -0.530,    0.173,    0.096,   -2.788,
        0.108,   -0.985,   -0.440,   -0.182,   -0.020,   -0.273,   -0.358,
        0.278,    0.062,   -1.747,   -0.848,    0.094,   -0.130,   -0.021,
        0.088,    0.225,   -0.247,   -0.319,   -0.440,   -5.636,   -0.110,
        0.240,   -0.236,    0.050,    0.095,   -0.184,   -0.665,   -0.237,
        0.699,    1.750,    0.005,    0.018,   -0.042,    0.112,   -0.035,
        0.035,   -0.196,   -2.537,    0.031,   -0.575,    0.006,    0.067,
        0.173,   -0.681,   -0.008,    0.111,   -1.027,   -0.265,   -0.213,
       -5.533,   -0.401,    0.639,    0.644,   -0.561,    0.262,   -0.651,
        0.154,   -1.082,   -0.360,    2.020,   -0.145,   -0.024,    0.053,
        0.009,    0.012,   -0.007,   -0.029,   -0.115,    1.793,   -2.394,
        0.165,    1.129,    0.269,    0.032,   -0.034,   -0.245,   -0.411,
        0.507,    0.017,   -3.330,   -0.002,   -0.331,   -0.213,    1.023,
        0.378,   -0.179,    0.372,   -0.152,    0.087,   -2.188,    0.247,
        0.095,   -0.138,   -0.056,    0.278,    0.872,   -0.504,   -0.314,
       -0.131,  -18.872,   -0.852,   -1.684,   -3.529,   -1.401,    3.533,
        6.159,   -1.572,   -1.352,    4.085,   -1.942,   -3.407,   -2.510
    },
    {  -2.304,    0.390,    0.164,   -0.451,    0.060,   -0.125,    1.214,
       -0.871,    0.236,   -0.535,   -0.701,    0.059,   -0.071,    0.264,
        1.073,   -0.259,    0.177,   -0.452,   -0.043,   -0.226,   -4.233,
        0.158,   -1.648,   -0.374,   -0.025,   -0.351,   -0.229,   -0.269,
        0.030,   -0.018,   -3.429,   -1.527,   -0.092,   -0.231,   -0.085,
        0.005,    0.207,   -0.481,   -0.604,   -0.212,   -6.469,    0.140,
        0.570,   -0.039,    0.127,    0.617,    0.241,    0.843,   -0.591,
       -0.504,    1.943,    0.050,   -0.013,   -0.091,    0.049,    0.003,
        0.009,   -0.172,   -2.506,    0.066,   -0.309,    0.021,    0.052,
        0.073,   -0.621,    0.023,    0.039,   -0.871,    0.026,    0.062,
       -5.534,    0.351,   -0.304,    0.555,    1.163,   -0.371,    0.010,
        0.792,    0.109,   -0.152,    1.740,    0.037,   -0.038,    0.027,
       -0.011,   -0.140,    0.043,   -0.105,   -0.180,    2.054,   -3.992,
       -0.044,    1.266,    0.219,    0.113,    0.094,   -0.253,   -0.780,
       -0.029,    0.058,   -4.963,    0.127,   -0.360,   -0.963,    1.077,
        0.603,   -0.236,    0.587,   -0.072,    0.124,   -3.312,    0.111,
       -0.117,    0.052,    0.093,    0.473,    0.635,   -0.284,   -0.781,
       -0.561,  -25.018,   -1.639,   -1.239,   -4.648,   -1.652,    1.260,
        7.586,   -1.777,    3.109,    2.075,   -4.060,   -5.475,   -4.200
    },
    {  -2.186,    0.436,    0.106,   -0.123,   -0.004,   -0.018,    0.985,
       -0.595,    0.130,   -1.059,   -0.708,    0.240,    0.002,    0.125,
        1.065,   -0.117,    0.216,   -0.409,   -0.152,   -0.077,   -3.871,
        0.169,   -1.615,   -0.240,    0.054,   -0.171,   -0.183,   -0.383,
        0.182,    0.007,   -3.321,   -1.574,   -0.121,   -0.191,    0.121,
       -0.022,    0.741,   -0.590,   -0.692,   -0.102,   -6.269,    0.089,
        0.661,   -0.311,   -0.225,    0.545,    0.106,    0.500,   -0.404,
       -0.489,    2.139,    0.043,   -0.038,    0.074,    0.044,   -0.045,
        0.030,   -0.193,   -2.652,   -0.025,   -0.308,   -0.047,    0.124,
        0.095,   -0.774,    0.079,    0.054,   -1.172,    0.165,   -0.080,
       -5.414,    0.368,    0.005,    0.306,    1.158,   -0.285,   -0.005,
        0.690,   -0.568,   -0.313,    1.490,    0.251,   -0.123,   -0.052,
        0.072,   -0.078,    0.120,   -0.407,   -0.290,    2.293,   -3.750,
        0.088,    1.057,    0.207,    0.114,   -0.142,   -0.399,   -1.305,
        0.431,   -0.057,   -5.336,   -0.130,   -0.382,   -1.014,    0.480,
        0.515,   -0.760,    0.607,    0.154,    0.071,   -3.187,   -0.116,
       -0.126,   -0.197,    0.008,    0.259,    0.278,   -0.405,   -1.332,
       -0.095,  -26.389,   -2.153,   -1.334,   -4.917,   -1.027,    0.204,
        8.979,   -1.600,    0.675,    1.088,   -3.886,   -4.934,   -2.272
    },
    {  -1.501,    0.241,    0.572,   -1.117,    0.076,   -0.352,    0.364,
       -0.377,    0.089,    0.092,   -0.455,    0.035,    0.098,    0.498,
        0.484,    0.010,    0.064,   -0.389,    0.193,   -0.091,   -2.736,
        0.255,   -1.592,   -0.260,   -0.203,   -0.164,   -0.221,   -0.627,
        0.624,   -0.197,   -3.158,   -1.072,   -0.112,   -0.264,    0.039,
       -0.166,    0.072,   -0.860,   -0.025,    0.039,   -4.004,    0.212,
       -0.080,    0.131,   -0.146,    0.060,    0.296,   -0.320,    0.459,
        0.584,    1.812,    0.001,    0.020,   -0.047,    0.015,   -0.007,
        0.008,   -0.093,   -2.237,   -0.061,   -0.658,    0.065,   -0.020,
        0.192,   -0.692,    0.225,   -0.056,   -1.312,   -0.128,   -0.057,
       -3.098,    0.200,   -0.485,   -0.868,    0.529,    0.097,   -0.249,
        0.208,    0.299,    0.135,    2.013,    0.088,   -0.074,    0.011,
       -0.045,    0.096,   -0.084,   -0.097,    0.021,    1.155,   -4.881,
        0.282,    1.404,    0.060,    0.086,   -0.171,   -0.708,   -1.386,
        0.334,    0.060,   -3.602,   -0.404,    0.243,   -0.337,   -1.178,
        0.316,   -0.079,    0.651,   -0.284,   -0.044,   -2.602,    0.206,
        0.063,   -0.182,   -0.018,    0.136,    0.731,   -0.653,   -0.305,
       -0.132,  -30.823,   -0.796,   -1.516,   -1.455,   -3.251,    3.512,
        6.527,   -1.140,   -3.150,    9.875,   -3.501,   -2.441,   -5.874
    },
    {  -2.798,    0.063,    0.072,   -0.233,    0.017,    0.053,    0.948,
       -1.424,   -0.420,   -0.150,   -1.369,    0.447,    0.523,    0.964,
        0.505,   -0.132,    0.116,   -0.853,    0.079,   -0.021,   -3.483,
        0.119,   -1.100,   -0.366,   -0.154,   -0.217,   -0.322,   -0.574,
        0.555,   -0.015,   -4.656,   -2.011,   -0.480,    0.109,    0.106,
       -0.268,    0.291,   -0.642,   -0.579,   -0.304,   -2.730,   -0.021,
        0.217,    0.353,   -0.395,    0.025,    0.359,    0.018,   -0.089,
        0.523,    1.916,    0.033,   -0.001,   -0.086,    0.096,    0.006,
       -0.001,    0.001,   -2.814,   -0.032,   -0.498,   -0.146,    0.012,
       -0.164,   -0.237,    0.036,    0.179,   -1.447,    0.041,    0.035,
       -5.035,    0.255,   -1.384,   -0.609,    1.258,    0.433,   -0.332,
        0.758,   -0.471,    0.269,    1.743,    0.018,   -0.088,    0.107,
       -0.013,   -0.014,   -0.117,   -0.102,   -0.034,    1.131,   -3.662,
        0.215,    0.931,    0.281,    0.354,   -0.332,   -0.410,   -0.903,
        0.405,    0.032,   -4.092,   -0.528,    0.601,    0.538,   -1.064,
        0.237,    0.068,    0.555,   -0.250,    0.209,   -2.309,    0.415,
       -0.529,    0.353,   -0.043,    0.287,    0.703,   -0.349,   -0.220,
       -0.379,  -27.042,   -1.631,   -0.568,   -5.827,   -1.428,    2.375,
        5.940,   -1.113,   -1.599,    6.903,   -4.458,   -2.827,   -1.017
    },
    {  -2.766,    0.851,    0.076,   -0.201,   -0.240,   -0.059,    0.703,
       -0.862,    0.324,   -0.683,   -0.616,    0.006,   -0.183,   -0.339,
        0.522,   -0.122,   -0.019,   -0.854,    0.097,    0.038,   -4.153,
        0.036,   -1.783,   -0.170,   -0.014,   -0.124,   -0.303,   -0.567,
        0.416,   -0.207,   -2.591,   -0.545,    0.133,    0.086,   -0.121,
        0.152,    0.911,   -1.345,   -0.367,   -0.151,   -3.080,    0.193,
       -0.771,    0.338,    0.182,    0.124,    0.207,   -0.061,    0.291,
        0.041,    1.838,   -0.056,   -0.025,   -0.079,    0.041,   -0.053,
        0.084,   -0.108,   -2.741,   -0.038,   -0.184,   -0.254,    0.271,
        0.141,   -0.487,   -0.285,    0.273,   -0.943,   -0.123,   -0.264,
       -3.448,    0.189,   -0.167,   -0.392,    0.897,    0.211,   -0.277,
        0.071,   -0.005,   -0.092,    1.400,    0.046,   -0.217,   -0.151,
       -0.169,   -0.201,   -0.189,   -0.340,    0.175,    1.947,   -2.699,
       -0.252,    0.260,    1.006,   -0.098,    0.001,   -0.492,   -0.798,
        0.527,   -0.013,   -3.826,   -0.114,    0.078,   -1.248,   -1.049,
        0.138,   -0.019,   -0.097,    0.093,   -0.018,   -2.953,    1.067,
       -0.380,    0.718,   -0.226,    0.466,   -0.059,   -0.678,   -0.344,
        0.147,  -21.601,   -2.071,   -1.064,   -4.973,   -1.384,    1.131,
        6.225,   -0.901,   -4.002,    1.284,   -1.286,   -2.976,   -1.015
    },
    {  -3.915,    0.819,    0.180,   -0.537,   -0.099,    0.058,    1.716,
       -1.457,    0.032,   -0.546,   -0.468,    0.005,    0.110,    0.137,
        0.788,   -0.228,    0.304,   -0.687,    0.106,   -0.201,   -3.044,
        0.074,   -1.275,   -0.262,   -0.082,   -0.166,   -0.313,   -0.457,
        0.428,    0.081,   -3.178,   -0.948,   -0.283,    0.053,    0.085,
        0.058,    0.277,   -0.577,   -0.582,   -0.781,   -3.089,    0.166,
        0.115,    0.901,   -0.180,   -0.714,   -0.539,   -1.008,    0.545,
        0.182,    1.991,   -0.025,    0.041,    0.002,    0.133,   -0.048,
       -0.006,   -0.250,   -2.879,   -0.040,   -0.430,   -0.181,    0.304,
       -0.160,   -0.516,    0.137,    0.175,   -1.274,    0.034,   -0.082,
       -4.436,    0.372,   -0.633,   -0.462,    0.890,    0.809,   -0.083,
        0.866,   -0.618,   -0.236,    1.949,   -0.045,   -0.054,    0.116,
        0.031,    0.092,    0.021,   -0.134,   -0.163,    1.895,   -3.076,
       -0.444,    0.905,    0.771,   -0.120,    0.488,   -0.550,    0.225,
        0.664,   -0.541,   -4.350,   -0.303,    0.474,   -0.506,   -1.220,
        0.383,    0.599,   -0.698,   -0.458,   -0.425,   -2.352,    0.690,
       -0.711,    0.686,   -0.266,    0.447,    0.160,   -0.152,   -0.558,
       -0.403,  -22.022,   -1.000,   -1.431,   -4.270,   -1.215,   -1.098,
        6.022,   -1.347,   -2.628,    2.850,   -1.633,   -2.584,   -0.867
    },
    {  -2.094,    0.373,    0.093,   -0.250,   -0.046,   -0.036,    0.983,
       -0.953,    0.058,   -0.276,   -0.809,   -0.367,    0.267,    0.209,
        0.865,   -0.026,    0.520,   -1.104,    0.109,   -0.145,   -3.541,
        0.021,   -1.837,   -0.314,   -0.009,   -0.102,   -0.329,   -0.491,
        0.732,    0.036,   -5.121,   -1.607,   -0.250,    0.167,   -0.053,
        0.021,    0.154,   -1.085,   -0.396,   -1.078,   -0.951,   -0.549,
       -0.099,    1.142,    0.297,    0.707,    0.239,    1.399,    1.562,
       -0.202,    2.093,   -0.003,    0.000,   -0.054,    0.109,   -0.022,
        0.076,   -0.130,   -3.458,    0.061,   -0.264,   -0.079,    0.022,
        0.055,   -0.587,   -0.164,    0.102,   -1.569,   -0.189,   -0.162,
       -5.113,    0.085,   -1.103,   -0.800,    1.209,    0.230,   -0.293,
        0.850,   -0.461,    0.251,    2.145,   -0.183,   -0.117,    0.154,
        0.020,   -0.040,   -0.187,   -0.351,    0.107,    2.360,   -4.030,
       -0.330,    1.210,    0.138,    0.460,   -0.034,   -0.422,   -0.869,
        0.467,   -0.460,   -4.671,   -0.740,    0.368,   -1.351,   -1.303,
        0.131,   -0.040,   -0.357,   -0.235,   -0.156,   -2.331,    0.616,
       -0.182,    0.426,   -0.463,    0.196,   -0.167,   -1.031,   -0.338,
       -0.398,  -23.963,   -1.519,   -0.912,   -2.487,   -4.622,   -0.320,
        5.238,   -0.895,   -2.246,    2.177,   -5.111,   -1.734,   -1.047
    },
    {  -2.887,    0.770,    0.099,   -0.413,   -0.043,    0.059,    0.790,
       -0.719,   -0.059,   -1.590,   -0.853,    0.341,   -0.149,   -0.086,
        0.224,   -0.365,    0.092,   -1.268,   -0.187,   -0.031,   -3.493,
        0.053,   -1.760,   -0.126,   -0.138,   -0.178,   -0.296,   -0.450,
        0.481,    0.048,   -2.202,   -1.180,    0.308,   -0.571,    0.134,
        0.214,    0.925,   -0.484,   -0.408,   -0.135,   -1.724,   -0.590,
       -0.173,    0.576,    0.119,    0.640,    0.259,    0.404,   -0.510,
        0.391,    2.010,   -0.090,    0.040,    0.047,    0.025,   -0.067,
       -0.064,   -0.128,   -2.943,    0.046,   -0.880,   -0.219,    0.229,
        0.422,   -0.271,    0.531,    0.305,   -1.190,    0.271,   -0.562,
       -4.350,   -0.113,   -0.784,   -0.427,    1.121,    0.181,   -0.307,
        0.434,   -0.132,   -0.677,    2.202,    0.386,   -0.032,   -0.180,
        0.139,    0.147,   -0.173,   -0.474,    0.030,    3.014,   -2.997,
        0.037,    1.256,    0.004,    0.306,   -0.247,   -0.324,   -0.296,
        0.392,    0.107,   -4.729,   -0.232,    0.634,   -1.570,   -1.915,
       -0.410,   -0.126,    0.749,   -0.120,    0.203,   -3.313,   -0.114,
        0.221,    1.255,   -0.298,    0.434,   -0.283,   -0.553,    0.557,
       -0.056,  -16.642,   -1.369,   -1.410,   -2.203,   -0.856,    0.002,
        5.729,   -0.877,   -2.070,    0.951,   -1.925,   -0.854,   -2.403
    },
    {  -2.722,    0.327,    0.272,   -0.052,    0.047,    0.007,    1.270,
       -1.188,   -0.062,   -0.562,    0.078,    0.016,    0.158,    0.169,
        0.030,   -0.145,    0.153,   -0.906,   -0.038,   -0.367,   -3.258,
        0.180,   -1.271,   -0.240,   -0.052,   -0.223,   -0.265,   -0.181,
        0.095,    0.090,   -3.172,   -1.262,    0.070,   -0.277,    0.057,
        0.076,    0.578,   -1.344,   -0.278,   -0.012,   -1.499,   -0.263,
        0.620,   -0.990,   -1.224,    0.039,    1.272,    0.322,    0.902,
       -0.921,    1.770,   -0.031,    0.025,   -0.051,    0.032,   -0.019,
        0.158,   -0.174,   -2.720,   -0.013,   -2.313,    0.127,   -0.918,
       -0.083,   -0.114,    0.732,    0.071,   -1.074,   -0.052,    0.744,
       -5.893,   -0.041,   -0.416,   -0.379,    2.002,    0.579,   -0.137,
        0.901,   -0.312,   -0.033,    2.173,   -0.020,    0.060,    0.086,
       -0.030,   -0.028,   -0.025,    0.056,   -0.081,    1.771,   -6.268,
        0.496,    2.058,    0.014,    0.302,   -0.097,   -0.732,   -1.917,
        0.098,   -0.137,   -2.317,    0.096,    0.383,   -1.092,   -1.097,
       -0.033,    0.191,    0.630,    0.147,   -0.124,   -3.110,   -0.768,
        1.001,    0.825,   -0.209,    0.839,   -0.036,    0.267,    0.682,
        0.061,  -23.797,   -1.915,   -1.584,   -3.355,   -1.073,    0.324,
        5.824,   -0.694,   -5.196,    4.571,   -2.898,   -0.885,   -0.664
    },
    {  -2.971,    0.372,    0.127,   -0.156,    0.144,    0.214,    1.529,
       -1.279,   -0.170,   -0.507,   -0.007,   -0.154,    0.095,    0.003,
       -0.081,   -0.125,    0.344,   -1.271,   -0.366,   -0.132,   -4.188,
        0.101,   -1.767,   -0.378,    0.083,   -0.090,   -0.321,   -0.398,
        0.367,    0.067,   -4.098,   -1.324,   -0.075,    0.003,    0.136,
       -0.137,    0.232,   -0.904,   -0.407,   -0.174,   -4.447,   -0.124,
       -0.504,    0.088,    1.029,    0.012,   -0.276,   -0.669,   -0.514,
        0.644,    1.720,   -0.010,    0.070,   -0.033,    0.065,   -0.009,
       -0.001,   -0.072,   -2.635,   -0.015,   -2.997,    0.686,   -0.680,
        1.018,   -0.476,   -0.041,   -0.114,   -1.419,   -0.535,   -0.212,
       -4.321,   -0.057,   -0.204,   -0.514,    1.200,    0.913,   -0.301,
        0.547,   -0.434,   -0.608,    2.477,   -0.148,   -0.047,    0.113,
       -0.012,    0.015,   -0.045,   -0.149,   -0.159,    2.888,   -3.431,
        0.276,    1.260,    0.017,    0.097,   -0.050,   -0.323,   -0.784,
        0.445,    0.051,   -5.847,   -1.113,    0.783,   -1.270,   -1.873,
        0.805,   -0.108,   -0.662,   -0.709,   -0.875,   -3.218,   -0.523,
        0.508,    0.899,    0.141,   -0.027,   -0.098,   -0.134,    0.361,
       -0.070,  -25.280,   -1.997,   -1.065,   -4.669,   -4.127,    0.105,
        5.747,   -0.794,   -1.392,    2.346,   -2.962,   -1.015,   -3.230
    },
    {  -2.267,    0.608,    0.058,   -0.595,   -0.121,    0.014,    0.790,
       -0.905,    0.314,   -0.978,    0.190,   -0.069,    0.107,    0.080,
       -0.240,   -0.201,    0.290,   -1.853,   -0.000,   -0.308,   -3.702,
        0.004,   -1.731,   -0.231,    0.026,   -0.120,   -0.246,   -0.390,
        0.555,    0.008,   -2.363,   -0.223,    0.262,   -0.085,    0.219,
       -0.076,    0.853,   -1.702,    0.253,   -0.106,   -4.363,    0.210,
       -0.704,   -0.633,    0.847,    0.182,   -0.238,    0.096,   -0.295,
       -0.265,    1.738,   -0.061,   -0.048,   -0.019,    0.059,    0.038,
        0.028,   -0.107,   -2.468,   -0.046,   -2.374,    0.589,   -0.071,
        0.588,   -0.175,   -0.007,    0.140,   -1.250,   -0.290,    0.030,
       -2.736,   -0.104,   -0.025,    0.401,    1.070,    0.333,    0.073,
        1.339,    0.610,   -0.132,    1.781,    0.216,   -0.020,   -0.116,
       -0.135,   -0.191,   -0.115,   -0.214,    0.232,    2.215,   -4.924,
        0.155,    2.146,   -0.026,    0.303,   -0.077,   -0.624,   -0.966,
        0.742,    0.001,   -2.970,   -0.677,    0.472,   -0.321,   -1.047,
        0.454,   -0.240,    0.681,   -0.173,   -0.325,   -4.772,   -1.472,
        0.453,   -0.596,    0.012,    0.039,    0.704,   -1.948,   -0.975,
       -0.321,  -22.453,   -1.156,   -1.005,   -4.014,   -1.102,   -5.159,
        5.917,   -1.371,   -0.911,    1.312,   -2.671,   -1.116,   -0.995
    },
    {  -3.010,    0.396,    0.109,   -0.156,   -0.091,    0.070,    1.216,
       -1.329,   -0.455,   -0.419,    0.029,   -0.082,   -0.027,    0.247,
       -0.313,   -0.199,    0.329,   -1.556,   -0.059,   -0.269,   -3.876,
        0.270,   -1.798,   -0.332,   -0.045,   -0.164,   -0.305,   -0.708,
        0.424,    0.049,   -2.451,   -0.188,    1.450,   -0.317,    0.345,
       -0.209,   -0.061,   -1.083,    1.503,    0.061,   -4.468,   -0.013,
       -0.610,   -0.687,    0.840,    0.805,   -0.330,   -0.008,   -0.313,
        0.207,    1.853,   -0.050,    0.044,   -0.063,   -0.015,   -0.073,
       -0.053,   -0.162,   -2.975,    0.021,   -2.490,   -0.088,    0.074,
        1.014,   -0.043,   -0.137,   -0.157,   -1.822,    0.335,   -0.271,
       -2.358,   -2.904,   -0.010,   -2.992,    1.752,    0.871,    0.658,
       -0.076,    0.825,    0.593,    1.963,   -0.264,   -0.105,    0.188,
       -0.220,    0.006,   -0.203,   -0.326,   -0.015,    2.468,   -4.156,
       -0.311,    0.557,    0.954,   -0.010,    0.240,   -0.474,    0.842,
       -0.346,   -1.329,   -4.138,   -0.359,    0.334,   -0.585,   -1.805,
        0.356,   -0.267,    0.890,   -0.937,   -0.431,   -5.005,   -1.696,
       -0.162,   -0.034,   -0.040,   -0.179,    0.358,   -1.105,   -0.397,
       -0.973,  -17.958,   -1.973,   -1.195,   -2.269,   -0.778,   -3.046,
        4.634,   -0.867,   -0.291,    1.532,   -1.470,   -0.998,   -3.140
    },
    {  -3.300,    1.005,    0.220,   -0.499,    0.119,    0.107,    1.387,
       -0.580,   -0.704,   -0.871,   -0.461,    0.054,   -0.056,    0.032,
        0.013,   -0.010,    0.143,   -0.626,    0.013,   -0.067,   -4.324,
       -0.041,   -1.950,   -0.166,    0.052,   -0.186,   -0.431,   -0.364,
        0.376,   -0.061,   -5.341,    0.468,    1.701,    0.154,    0.012,
       -0.698,   -0.715,   -0.707,    0.117,    0.085,   -6.028,    0.244,
       -1.007,   -1.200,    1.728,    0.365,   -0.113,    1.459,   -0.946,
       -0.014,    1.878,   -0.032,   -0.000,    0.006,    0.091,    0.026,
       -0.000,   -0.170,   -2.888,    0.014,   -2.799,   -0.034,    0.814,
        1.713,   -0.293,    0.490,   -0.603,    0.297,    1.081,   -0.363,
        1.451,    0.874,   -1.072,    0.229,   -0.595,   -0.378,   -0.511,
       -0.318,    0.176,    0.110,    2.394,    0.082,    0.009,    0.017,
        0.081,    0.024,   -0.019,   -0.247,    0.100,    2.652,   -4.234,
       -0.520,    1.641,    0.121,    0.141,    0.095,   -0.088,   -0.102,
        0.249,   -0.044,   -3.152,    0.006,    0.200,   -0.877,   -0.914,
        0.115,   -0.158,   -0.015,    0.081,    0.037,   -3.475,   -1.235,
       -0.198,   -0.063,    0.017,   -0.140,    0.131,   -0.663,   -0.298,
       -0.160,  -23.231,   -0.825,   -3.738,   -3.234,   -2.554,   -1.614,
        6.065,   -0.702,    0.477,    2.397,   -1.641,   -2.608,   -2.687
    },
    {  -3.577,    0.292,    0.201,   -0.532,    0.035,    0.036,    1.850,
       -1.253,   -0.435,   -0.067,   -0.603,   -0.078,    0.047,   -0.201,
        0.056,    0.080,    0.545,   -1.851,    0.578,   -0.037,   -3.985,
        0.131,   -1.520,   -0.338,    0.031,   -0.148,   -0.427,   -0.527,
        0.315,   -0.121,   -4.777,    0.142,    1.619,    0.506,    0.168,
        0.101,   -0.361,   -1.394,    0.319,    0.078,   -4.803,    0.034,
       -0.540,   -0.806,    1.323,    0.563,   -0.321,    0.884,    0.202,
       -0.542,    2.137,   -0.051,   -0.013,   -0.046,    0.068,    0.042,
        0.127,   -0.054,   -3.486,   -0.035,   -3.336,    1.297,   -0.029,
        1.312,   -0.211,   -0.270,    0.042,   -1.538,   -0.658,   -0.184,
        1.303,   -0.920,   -0.730,    1.067,   -0.422,   -0.547,    0.102,
       -0.667,   -1.185,   -1.623,    1.954,   -0.006,   -0.008,    0.037,
       -0.002,   -0.026,   -0.158,    0.015,    0.095,    1.467,   -5.047,
       -1.272,    0.835,    1.011,   -0.085,   -0.113,   -0.053,    0.155,
       -0.013,   -0.400,   -6.390,   -0.736,    0.563,   -1.370,   -2.495,
        0.259,   -0.133,   -0.129,    0.067,   -0.181,   -4.222,   -1.191,
       -0.177,    0.160,    0.172,   -0.041,    0.217,   -0.957,   -0.749,
       -0.164,  -26.096,   -1.272,   -1.028,   -4.266,   -3.257,   -1.301,
        5.010,   -0.606,   -0.154,    5.210,   -2.480,   -1.835,   -3.235
    },
    {  -3.434,    0.379,    0.417,   -0.525,   -0.275,   -0.272,    2.668,
       -0.905,   -0.233,   -0.313,   -0.968,    0.031,    0.050,   -0.032,
        0.099,    0.042,    0.182,   -0.481,   -0.045,   -0.166,   -4.842,
        0.112,   -2.249,   -0.317,    0.119,   -0.082,   -0.185,   -0.358,
        0.295,    0.028,   -6.562,    0.187,    1.879,    0.139,    0.502,
       -0.238,   -0.743,   -2.181,    0.781,   -0.181,   -8.252,    0.588,
       -0.346,   -1.348,    2.478,    0.825,   -0.423,    0.355,   -0.245,
        0.263,    2.487,   -0.030,    0.114,   -0.069,    0.158,   -0.025,
        0.243,   -0.064,   -4.570,   -0.027,   -3.447,    1.053,   -0.615,
        1.001,   -1.175,   -0.028,   -0.552,   -1.441,   -0.042,    0.308,
       -0.338,    0.593,    0.505,   -0.596,   -0.065,    0.108,   -0.281,
       -0.703,   -1.904,   -1.086,    2.106,   -0.144,   -0.082,    0.075,
        0.070,    0.006,    0.046,    0.002,   -0.064,    2.491,   -4.523,
       -1.077,    0.713,    1.645,   -0.449,    0.098,   -0.465,   -0.206,
        0.749,   -0.597,   -4.388,   -0.532,    0.258,   -0.779,   -1.160,
        0.119,   -0.240,   -0.032,    0.004,    0.081,   -4.206,   -1.644,
       -0.142,    0.002,    0.128,   -0.060,    0.210,   -0.767,   -0.429,
       -0.343,  -34.087,   -0.826,   -4.594,   -5.120,   -6.708,   -4.647,
        4.670,   -0.581,    0.250,    2.221,   -0.879,   -5.024,   -2.632
    },
    {  -2.530,   -0.270,    0.910,   -0.383,    0.267,   -0.087,    1.824,
       -0.381,   -0.596,   -0.143,   -0.885,    0.004,   -0.075,    0.011,
        0.029,    0.066,    0.106,   -0.736,    0.068,   -0.100,   -5.004,
        0.270,   -2.114,   -0.535,    0.078,   -0.242,   -0.468,   -0.586,
        0.123,    0.123,   -4.621,    0.070,    1.768,   -0.098,    0.206,
        0.084,   -0.579,   -1.016,    0.297,   -0.073,   -5.521,    0.087,
       -0.141,   -0.912,    1.074,    0.403,   -0.361,    1.174,    0.134,
       -0.265,    2.040,   -0.025,    0.051,   -0.060,    0.032,    0.078,
        0.053,   -0.141,   -2.919,    0.105,   -2.822,    0.094,    0.107,
        1.041,   -0.085,   -0.325,   -0.229,   -0.711,    0.300,    0.058,
        1.945,    1.261,    0.270,   -0.124,   -0.827,    0.253,    0.149,
       -0.131,   -0.474,    0.964,    2.834,   -0.274,   -0.025,    0.087,
        0.027,    0.040,   -0.556,    0.243,    0.167,    2.304,   -4.690,
       -1.061,    1.173,    1.180,   -0.587,    1.486,    0.255,    0.666,
        1.065,   -0.042,   -5.007,   -0.517,    0.397,   -1.349,   -1.861,
        0.142,    0.101,    0.363,   -0.190,   -0.035,   -5.014,   -1.798,
       -0.158,   -0.140,    0.075,   -0.153,    0.116,   -0.911,   -0.478,
       -1.316,  -25.499,   -0.598,   -3.344,   -2.543,   -2.622,   -4.724,
        5.890,   -2.011,    0.145,    3.059,   -1.095,   -1.121,   -1.958
    },
    {  -2.349,    0.123,   -0.401,   -0.217,    0.407,   -0.743,    0.155,
       -1.444,   -0.953,    0.631,   -1.108,    0.062,   -0.030,    0.412,
       -0.135,    0.092,   -0.075,   -0.620,   -0.006,   -0.172,   -3.511,
       -0.188,   -1.504,   -0.266,   -0.285,   -0.165,   -0.193,   -0.735,
        0.566,    0.052,   -3.584,    0.253,    1.132,   -0.015,    0.132,
       -0.355,   -0.445,   -0.593,    0.587,   -0.199,   -6.238,    0.280,
       -1.885,   -0.833,    1.071,    0.215,   -0.633,    0.416,   -0.081,
       -0.286,    1.876,   -0.064,    0.056,   -0.067,   -0.005,    0.069,
        0.129,    0.066,   -3.050,    0.052,   -0.149,   -0.815,    0.864,
       -1.699,    0.571,    0.104,    0.069,    0.423,    0.303,    0.300,
        1.083,   -0.392,   -1.085,   -0.062,    0.336,   -0.456,   -0.869,
       -0.278,   -1.296,    0.760,    2.550,   -1.048,    0.147,    0.294,
        0.079,   -0.154,   -0.790,    0.728,    0.032,    0.732,   -1.595,
       -0.664,    0.220,   -0.274,    0.177,   -0.162,    0.458,   -0.177,
       -0.448,   -2.562,   -3.930,    0.004,    0.434,   -1.328,   -1.545,
        0.098,   -0.226,    0.088,   -0.004,   -0.198,   -2.484,   -0.656,
        0.263,   -0.372,    0.265,    0.307,    0.928,   -1.428,   -0.142,
       -0.003,  -20.000,   -0.530,   -2.135,   -2.336,   -5.784,   -2.056,
        5.698,   -0.041,    0.321,    1.594,   -0.832,   -1.241,   -1.274
    },
    {  -2.584,    0.393,    0.435,   -0.288,   -0.089,   -0.541,    1.789,
       -1.033,    0.657,    0.401,   -0.747,    0.059,   -0.054,    0.130,
       -0.003,    0.068,    0.086,   -0.708,   -0.164,   -0.079,   -2.943,
        0.009,   -1.205,   -0.258,   -0.118,   -0.172,   -0.269,   -0.622,
        0.381,    0.004,   -4.933,    0.212,    1.928,    0.203,    0.188,
       -0.045,   -0.647,   -1.442,    0.683,   -0.111,   -4.592,    0.224,
       -0.067,   -1.600,    0.809,    0.205,   -0.358,    0.168,    0.244,
       -0.004,    2.069,   -0.093,   -0.047,   -0.120,    0.017,   -0.009,
       -0.012,   -0.140,   -3.422,   -0.014,    3.101,   -0.247,   -0.183,
       -0.040,   -0.306,   -0.582,    1.575,   -0.032,   -0.193,   -1.243,
       -3.660,   -0.160,   -0.321,    0.972,   -0.669,   -2.117,   -0.482,
        1.233,    0.184,   -0.538,    2.967,   -0.392,   -0.139,    0.244,
        0.009,   -0.086,   -0.948,    0.819,    0.050,    2.105,   -1.355,
       -0.197,    0.035,    0.246,    0.059,   -0.165,   -0.292,    0.251,
        0.442,   -1.918,   -4.683,   -0.279,    0.796,   -1.509,   -2.307,
       -0.133,   -0.035,    0.338,    0.103,    0.062,   -3.551,   -1.916,
        0.327,   -0.532,    0.140,    0.238,    1.121,   -1.092,   -0.154,
       -0.360,  -17.319,   -0.523,   -2.313,   -3.312,   -3.188,   -3.165,
        4.807,   -0.569,    0.274,    1.824,   -1.205,   -0.728,   -0.969
    },
    {  -2.660,    0.389,    0.463,   -0.959,    0.092,   -0.401,    0.188,
       -0.856,   -0.337,   -0.664,   -0.780,   -0.014,    0.059,    0.187,
        0.168,    0.031,    0.159,   -1.016,    0.262,   -0.057,   -4.290,
        0.135,   -1.844,   -0.125,   -0.172,   -0.212,   -0.382,   -0.561,
        0.665,    0.054,   -3.006,    0.055,    1.001,    0.395,   -0.155,
       -0.108,   -0.456,   -0.621,    0.631,   -0.034,   -4.484,   -0.090,
       -0.770,   -0.707,    1.269,    0.458,   -0.284,    0.340,   -0.357,
        0.126,    1.843,    0.054,   -0.013,    0.073,    0.043,    0.001,
       -0.013,   -0.202,   -2.356,    0.046,    4.354,   -0.462,    0.053,
        0.079,   -0.013,    0.815,   -0.753,    0.993,    0.085,   -0.151,
       -2.788,   -0.459,   -0.460,   -0.452,    0.588,    0.578,   -0.705,
       -0.956,    1.502,    0.807,    3.191,   -0.526,    0.018,    0.137,
        0.351,   -0.166,   -1.307,    0.267,    0.547,    0.079,   -1.644,
        0.051,    0.010,   -0.012,   -0.055,    0.051,    0.132,    0.017,
       -0.079,   -1.508,   -3.578,   -0.369,    0.005,   -1.027,   -0.439,
        0.022,   -0.072,   -0.324,    0.123,    0.083,   -3.214,   -1.015,
       -0.092,   -0.010,   -0.004,   -0.097,    0.119,   -0.615,   -0.348,
       -0.219,  -34.624,   -0.671,   -2.309,   -6.226,   -2.744,   -2.375,
        6.965,    1.912,    0.646,    2.941,   -2.824,   -6.729,   -3.487
    },
    {  -1.824,   -0.293,    0.583,   -1.010,    0.253,   -0.089,    0.307,
       -0.429,   -0.530,   -0.331,   -0.437,    0.075,   -0.012,    0.126,
       -0.027,   -0.041,    0.044,   -0.609,   -0.013,   -0.052,   -3.778,
        0.049,   -1.697,   -0.331,   -0.047,   -0.129,   -0.269,   -0.473,
        0.406,    0.064,   -3.006,   -0.193,    0.871,    0.370,    0.193,
       -0.071,   -0.147,    0.044,   -0.035,    0.026,   -3.628,    0.077,
       -0.332,   -0.272,    1.174,    0.165,   -0.261,    1.039,   -0.432,
        0.205,    1.868,    0.021,   -0.101,   -0.025,    0.051,   -0.026,
       -0.102,   -0.112,   -2.167,   -0.034,    6.358,    0.409,   -0.104,
       -0.340,   -0.413,   -0.291,    0.760,   -0.743,   -0.238,    0.498,
       -1.612,   -0.039,    0.051,   -0.052,    0.081,   -0.024,   -0.108,
        0.461,   -0.323,    0.099,    2.755,   -0.497,   -0.018,   -0.103,
       -0.075,   -0.115,   -1.049,    0.650,    0.285,    0.358,   -2.469,
        0.043,   -0.018,    0.016,    0.003,    0.054,    0.021,    0.085,
        0.122,   -1.417,   -2.880,   -0.142,    0.017,   -0.266,   -1.294,
        0.167,   -0.099,    0.885,   -0.736,    0.057,   -3.188,   -0.967,
       -0.190,    0.090,    0.040,   -0.031,    0.145,   -0.435,   -0.138,
       -0.241,  -47.058,   -1.120,   -2.462,   -3.796,   -6.239,   -3.509,
        8.896,    6.900,    5.887,    2.562,  -14.040,   -1.522,   -6.355
    },
    {  -1.417,    0.166,    0.332,   -0.397,    0.157,   -0.135,    0.199,
       -0.311,   -0.236,    0.021,   -1.006,    0.329,   -0.181,    0.347,
       -0.150,   -0.172,   -0.239,   -0.885,    0.474,   -0.011,   -3.750,
        0.126,   -1.339,   -0.362,    0.025,   -0.067,   -0.224,   -0.245,
        0.215,    0.042,   -2.814,   -0.238,    0.770,    0.638,    0.008,
        0.229,   -0.128,   -0.256,    0.249,   -0.246,   -4.267,    0.158,
       -0.320,   -0.196,    0.894,    0.630,   -0.116,    0.293,   -0.571,
       -0.252,    2.009,   -0.001,   -0.026,   -0.001,   -0.000,   -0.020,
        0.030,   -0.119,   -2.022,   -0.021,    5.810,   -0.377,   -0.171,
       -0.016,   -0.079,   -0.022,   -0.373,    0.384,    0.414,   -0.171,
       -3.034,    0.067,    0.406,   -0.571,    0.091,   -0.197,    0.225,
        0.695,   -0.390,    0.048,    2.294,   -0.259,    0.010,   -0.030,
        0.005,   -0.156,   -0.686,    0.608,    0.386,    0.113,   -2.248,
        0.058,    0.014,    0.010,   -0.017,   -0.037,    0.019,   -0.089,
        0.131,   -1.592,   -3.195,   -0.324,    0.207,   -0.524,   -0.677,
        0.161,    0.099,    0.098,   -0.053,   -0.228,   -1.828,   -0.593,
       -0.097,   -0.041,    0.057,   -0.014,    0.128,   -0.554,   -0.073,
       -0.119,  -53.073,   -2.015,   -1.375,   -8.007,   -3.295,   -7.610,
       13.028,    4.256,    5.264,    4.664,   -7.987,   -6.266,   -4.006
    },
    {  -1.047,   -0.050,    0.209,   -0.302,    0.047,   -0.168,    0.242,
       -0.664,   -0.144,   -0.054,   -1.835,    0.296,   -0.327,    0.542,
       -0.138,    0.052,   -0.298,   -0.908,    0.189,    0.020,   -3.038,
        0.040,   -0.981,   -0.199,   -0.022,   -0.167,   -0.178,   -0.189,
        0.438,   -0.147,   -3.852,   -0.313,    0.926,    0.427,    0.152,
        0.001,   -0.172,   -0.593,    0.024,   -0.073,   -4.519,    0.171,
       -0.381,   -0.546,    1.002,    0.568,   -0.202,    0.116,   -0.368,
        0.065,    1.724,    0.115,   -0.075,   -0.096,   -0.033,   -0.016,
       -0.040,   -0.032,   -2.321,    0.007,    4.651,    0.279,    0.546,
        0.173,    0.158,   -0.489,   -0.336,   -0.070,   -0.395,   -0.074,
       -2.643,   -0.039,    0.253,   -0.744,   -0.117,   -0.133,    0.326,
        0.487,   -0.556,   -0.084,    1.916,   -0.164,   -0.046,   -0.002,
       -0.023,   -0.171,   -0.715,    0.472,    0.212,    0.389,   -1.956,
        0.068,    0.139,   -0.087,   -0.048,   -0.073,    0.002,    0.210,
        0.031,   -1.821,   -4.851,   -0.258,    0.149,   -1.738,   -0.660,
        0.017,   -0.163,   -0.499,    0.498,    0.086,   -3.640,   -1.275,
       -0.326,    0.113,    0.018,    0.065,    0.178,   -0.439,   -0.213,
       -0.496,  -50.294,   -1.932,   -2.040,   -8.997,  -10.662,   -7.574,
        5.741,    0.793,    3.320,    3.709,   -3.172,   -8.162,   -4.669
    },
    {  -1.308,    0.037,    0.476,   -0.882,    0.234,   -0.112,    0.295,
       -0.534,    0.145,   -0.069,   -0.533,    0.038,   -0.037,    0.140,
       -0.051,    0.038,    0.180,   -0.770,    0.040,   -0.180,   -4.022,
        0.049,   -1.562,   -0.316,   -0.088,   -0.120,   -0.308,   -0.523,
        0.656,    0.101,   -4.514,   -0.299,    2.016,    0.375,    0.210,
        0.108,   -0.488,   -0.664,    0.441,    0.071,   -5.575,    0.182,
       -0.941,   -0.455,    2.457,    0.215,   -0.344,    0.469,   -0.273,
        0.049,    1.802,    0.051,   -0.023,   -0.057,    0.028,   -0.008,
       -0.104,   -0.136,   -2.632,   -0.018,    4.240,   -0.501,    0.071,
       -0.529,    0.006,    0.479,    0.019,    0.579,   -0.089,    0.029,
       -1.030,   -0.312,   -0.451,   -0.106,    0.256,   -0.213,   -0.227,
        0.685,    0.940,   -0.119,    4.649,   -0.605,    0.246,    0.162,
        0.110,   -0.203,   -1.785,    0.944,    0.619,    0.380,   -2.906,
        0.095,   -0.011,    0.018,    0.076,   -0.101,   -0.029,   -0.012,
        0.175,   -2.116,   -3.586,   -0.094,    0.195,   -0.334,   -1.579,
        0.064,   -0.272,    1.156,   -0.539,   -0.527,   -3.066,   -0.882,
       -0.157,   -0.147,    0.087,    0.035,    0.120,   -0.145,   -0.767,
       -0.305,  -41.806,   -0.969,   -2.626,   -8.097,   -2.152,   -1.782,
        5.874,    5.925,    0.421,    3.359,  -10.850,   -1.232,   -3.823
    },
    {  -2.358,   -0.024,    0.938,   -1.750,    0.050,   -0.431,    0.267,
       -1.102,   -0.120,    0.110,   -0.550,    0.036,    0.007,    0.159,
        0.023,    0.009,    0.095,   -0.677,   -0.026,   -0.100,   -2.766,
        0.016,   -1.058,   -0.263,   -0.019,   -0.103,   -0.196,   -0.465,
        0.334,   -0.071,   -5.119,    0.220,    1.431,    0.626,   -0.113,
       -0.205,   -0.694,   -0.981,    0.728,   -0.518,   -4.798,    0.041,
       -0.649,   -0.453,    1.454,    0.367,   -0.192,    1.198,   -0.803,
        0.095,    1.615,    0.005,   -0.026,   -0.050,   -0.009,    0.028,
       -0.018,   -0.044,   -2.188,   -0.012,    4.914,   -0.790,    0.113,
       -0.130,    0.332,    0.072,   -1.127,    1.299,    0.263,    0.185,
       -1.537,   -0.459,   -0.134,   -0.052,   -0.327,    0.175,   -1.249,
       -0.084,   -0.478,   -0.529,    4.205,    0.152,   -0.059,    0.387,
        0.033,   -0.579,   -1.373,    0.216,    0.875,    0.009,   -2.091,
        0.045,    0.093,   -0.022,   -0.007,    0.070,    0.320,    0.158,
        0.056,   -1.880,   -3.104,   -0.438,    0.242,   -0.162,   -0.938,
        0.482,   -0.174,    0.557,    0.336,    0.094,   -3.684,   -1.770,
       -0.137,    0.145,    0.074,   -0.276,    0.431,   -0.362,   -0.212,
       -0.236,  -34.265,   -0.823,   -3.013,   -4.531,   -3.694,   -1.947,
        6.055,    6.326,   -0.307,    4.642,   -3.845,   -2.582,   -1.453
    },
    {  -1.926,   -0.176,    0.261,   -0.289,    0.034,   -0.051,    0.885,
       -0.561,    0.197,   -0.023,   -0.999,   -0.103,   -0.034,    0.355,
        0.271,    0.028,    0.151,   -1.271,   -0.237,   -0.230,   -3.633,
        0.279,   -1.485,   -0.211,   -0.086,   -0.226,   -0.394,   -0.594,
        0.589,   -0.052,   -3.254,    0.142,    0.973,    0.099,    0.082,
        0.006,   -0.325,   -0.640,    0.325,    0.045,   -3.084,    0.250,
       -0.268,   -0.544,    1.140,    0.174,   -0.021,    0.307,    0.172,
        0.067,    1.915,    0.008,    0.025,   -0.034,    0.075,   -0.106,
       -0.024,   -0.176,   -2.754,   -0.029,    4.030,   -1.338,    0.199,
        0.359,    0.701,    0.386,   -1.155,    0.748,   -0.155,    1.264,
       -1.380,   -0.608,   -0.582,   -0.027,    2.023,    0.733,   -1.042,
        1.070,   -0.110,   -0.002,    3.452,   -0.154,   -0.010,    0.094,
       -0.243,   -0.312,   -0.395,    0.470,    1.558,    0.008,   -1.182,
       -0.120,    0.121,    0.038,    0.113,    0.132,   -0.021,    0.070,
        0.466,   -2.418,   -5.558,   -0.595,    0.311,   -1.880,   -1.011,
        0.163,   -0.345,   -1.180,    0.209,    0.027,   -5.734,   -2.084,
       -0.542,   -0.305,    0.397,   -0.326,    0.761,   -0.871,   -0.605,
       -0.649,  -25.778,   -1.479,   -1.287,   -4.373,   -5.714,   -2.473,
        5.084,    1.643,    0.491,    2.345,   -1.112,   -2.187,   -1.822
    },
    {  -1.944,   -0.979,    0.175,   -0.105,   -0.101,    0.334,    0.676,
       -0.841,   -0.197,   -0.188,   -1.590,    0.285,    0.561,    1.340,
        1.133,   -0.071,    0.564,   -0.944,    0.062,    0.125,   -3.160,
       -0.109,   -1.349,   -0.095,   -0.099,   -0.060,   -0.269,   -0.580,
        0.449,   -0.025,   -5.386,    0.078,    1.356,    0.129,    0.425,
       -0.077,   -0.642,   -2.015,    0.199,   -0.142,   -4.198,    0.273,
       -0.718,   -0.491,    0.910,    0.377,   -0.493,    0.322,   -0.239,
       -0.149,    1.716,    0.023,    0.014,   -0.109,    0.006,   -0.045,
        0.137,   -0.095,   -2.500,    0.075,    1.058,   -0.107,   -0.012,
        0.169,    0.085,    0.073,   -0.295,    0.571,    0.051,    0.007,
        2.347,   -0.569,    0.101,   -0.457,    0.202,   -0.185,   -0.088,
        0.448,    0.360,    0.864,    4.335,    0.489,   -0.046,    0.197,
       -0.519,   -0.461,   -0.863,    0.645,    1.759,    0.738,   -1.507,
        0.211,    0.196,   -0.441,    0.018,   -0.106,    0.132,   -0.240,
        0.238,   -1.579,   -3.611,   -0.544,    0.561,   -0.421,   -0.907,
        0.069,   -0.257,    0.212,   -0.117,   -0.115,   -3.268,   -0.897,
       -0.137,    0.316,    0.318,   -0.204,    0.070,   -0.477,   -0.019,
       -1.905,  -22.277,   -0.701,   -0.518,   -3.681,   -3.801,   -2.125,
        5.682,    2.654,    1.542,    0.739,   -1.096,   -2.128,   -1.263
    },
    {  -2.142,   -0.498,    0.872,   -0.596,    0.309,   -0.071,    0.862,
       -0.683,   -0.515,    0.004,   -0.618,    1.141,    0.766,    0.132,
        0.061,    0.344,   -0.302,    0.637,    0.461,   -0.815,   -3.579,
        0.067,   -1.494,   -0.693,   -0.175,   -0.255,   -0.214,   -0.200,
        0.712,   -0.038,   -4.953,    0.126,    1.936,    0.119,    0.255,
       -0.112,   -0.452,   -1.286,    0.434,   -0.085,   -4.977,    0.140,
       -1.255,   -0.420,    0.953,    0.403,   -0.347,    0.169,   -0.314,
        0.064,    1.623,    0.036,   -0.071,   -0.095,    0.057,   -0.030,
        0.041,   -0.135,   -2.384,    0.012,    0.639,    0.013,    0.092,
       -0.024,   -0.033,    0.030,   -0.113,    0.608,   -0.072,    0.083,
        2.681,   -0.411,    0.060,   -0.393,    0.096,    0.059,    0.083,
        0.647,    0.291,   -0.104,    4.946,   -0.049,    0.785,    0.828,
       -0.457,   -0.557,   -0.539,    0.794,    1.619,    0.095,   -2.856,
        0.321,   -0.084,   -0.136,   -0.086,    0.002,    0.450,   -0.242,
        0.005,   -1.780,   -4.731,    0.059,    0.374,   -1.120,   -1.821,
        0.067,   -0.192,    0.181,   -0.545,   -0.164,   -1.700,   -0.717,
        0.089,    0.170,   -0.071,   -0.056,   -0.050,    0.097,   -0.329,
       -0.957,  -25.809,   -0.735,   -0.470,   -1.935,   -2.590,   -3.255,
        5.381,    3.520,    4.145,    0.604,   -5.298,   -1.299,   -1.560
    },
    {  -1.380,   -0.934,    0.504,   -0.379,    0.413,    0.231,    0.997,
        0.039,   -0.203,   -0.068,    0.293,   -0.689,   -0.886,    0.389,
       -0.551,    0.678,   -0.131,   -1.228,   -0.673,    0.379,   -3.504,
        0.081,   -1.501,   -0.064,   -0.246,   -0.276,   -0.316,   -0.620,
        0.289,    0.083,   -2.521,   -0.049,    1.373,    0.134,    0.416,
        0.047,   -0.248,   -0.331,    0.615,    0.177,   -3.703,    0.057,
       -0.578,   -0.430,    0.945,    0.217,   -0.345,    0.757,   -0.133,
       -0.140,    1.540,    0.033,    0.091,    0.011,    0.096,    0.013,
       -0.034,   -0.120,   -1.653,   -0.027,    0.542,   -0.062,    0.027,
       -0.022,   -0.008,   -0.011,   -0.113,    0.557,    0.123,    0.111,
        2.937,    0.193,   -0.283,   -1.395,    0.347,    0.046,    0.550,
       -0.235,   -0.198,    0.156,    1.904,    0.204,    0.943,   -0.127,
        0.828,    0.580,   -0.894,    0.133,   -0.565,    0.690,   -2.496,
        0.047,   -0.032,   -0.079,   -0.098,   -0.016,    0.336,    0.020,
        0.003,   -1.736,   -2.966,   -0.536,    0.101,   -0.335,   -0.860,
        0.165,   -0.148,    0.349,   -0.444,    0.031,   -4.867,   -1.959,
       -0.200,    0.142,   -0.010,   -0.576,   -0.044,   -0.633,   -0.068,
       -0.378,  -27.493,   -0.518,    0.317,   -2.924,   -1.198,   -3.652,
        8.268,    4.497,    1.393,   -0.302,   -6.913,   -2.149,   -2.086
    },
    {  -2.747,   -1.502,    1.112,   -0.666,    0.427,    0.060,    0.994,
       -0.654,   -0.278,    0.173,    2.210,    1.445,    0.196,    0.479,
       -0.423,   -0.429,    0.290,    0.769,    0.260,    0.086,   -3.506,
        0.068,   -1.450,   -0.248,    0.089,   -0.184,   -0.243,   -0.284,
        0.204,   -0.023,   -5.569,    0.302,    1.596,   -0.370,    0.323,
        0.026,   -0.807,   -1.354,    0.241,    0.028,   -5.115,    0.128,
       -0.231,   -0.388,    1.434,    0.684,   -0.063,    0.986,   -0.677,
       -0.054,    1.683,    0.065,    0.028,   -0.042,    0.018,    0.042,
        0.007,   -0.112,   -2.004,    0.035,    0.883,   -0.067,    0.014,
       -0.047,    0.011,   -0.030,   -0.143,    0.568,    0.147,    0.073,
        2.669,    0.236,   -0.751,   -0.722,    0.163,   -0.173,    0.254,
       -0.587,   -0.280,    1.104,    1.072,   -0.995,   -0.338,   -1.134,
        0.099,    0.414,   -0.470,   -0.635,   -0.696,   -0.789,   -2.261,
        0.181,    0.089,   -0.182,    0.014,    0.014,    0.362,   -0.063,
        0.152,   -1.697,   -4.257,    0.093,    0.390,   -1.443,   -1.336,
       -0.254,   -0.323,    0.146,   -0.264,    0.206,   -2.392,   -1.334,
       -0.570,   -0.126,   -0.044,    0.080,   -0.238,   -0.267,   -0.293,
       -0.527,  -30.205,   -0.647,    0.017,   -4.801,   -4.247,   -4.695,
        7.736,    4.681,    1.327,    0.192,   -4.824,   -1.213,   -0.768
    },
    {  -0.844,   -0.049,   -0.089,   -0.009,    0.193,   -0.052,    0.180,
       -0.946,   -0.071,    0.004,    3.848,   -0.785,    0.130,   -0.053,
       -0.196,   -0.041,   -0.122,   -1.268,   -0.280,   -0.577,   -3.888,
        0.138,   -1.457,   -0.304,    0.058,   -0.141,   -0.265,   -0.543,
        0.312,   -0.160,   -3.094,    0.168,    1.056,    0.159,    0.103,
       -0.041,   -0.212,   -0.567,    0.435,   -0.005,   -3.591,    0.145,
       -0.092,   -0.386,    1.117,    0.484,   -0.176,    0.417,    0.236,
       -0.041,    2.030,   -0.044,   -0.019,   -0.073,    0.042,   -0.004,
       -0.003,   -0.062,   -2.573,   -0.019,    2.844,   -0.891,    0.132,
       -0.650,    0.169,   -0.209,   -0.094,    0.259,    1.236,    0.899,
        0.990,    0.386,   -0.069,   -0.054,    0.059,   -0.004,    0.087,
       -0.001,   -0.441,    0.889,    0.711,    0.238,    0.516,    0.224,
       -1.020,   -0.244,    0.648,    0.467,    0.647,    0.415,   -2.121,
        0.546,   -0.013,   -0.268,   -0.087,    0.004,    0.512,   -0.418,
        0.417,   -1.434,   -3.637,   -0.192,    0.184,   -0.879,   -1.311,
        0.147,   -0.051,   -0.156,   -0.346,    0.041,   -2.741,   -0.417,
        0.120,   -0.016,    0.140,    0.177,    1.043,   -0.946,   -0.832,
       -0.207,  -27.721,   -1.709,   -0.880,   -7.238,   -6.314,   -2.969,
        7.024,    0.986,    1.701,   -0.220,   -1.709,   -1.442,   -1.352
    },
    {  -0.577,    0.101,   -0.014,   -0.275,    0.170,    0.034,    0.345,
       -1.356,    0.369,    0.035,    6.453,   -0.894,    0.005,   -0.396,
        0.062,   -0.291,    0.755,   -0.300,   -0.904,    0.229,   -4.564,
        0.039,   -1.977,   -0.425,   -0.001,   -0.181,   -0.370,   -0.787,
        0.723,    0.012,   -3.888,   -0.278,    1.415,    0.641,   -0.012,
        0.064,   -0.378,   -0.755,    0.414,   -0.151,   -4.142,    0.111,
       -0.459,   -0.715,    0.959,    0.194,   -0.229,    0.451,   -0.597,
        0.123,    2.495,    0.013,    0.109,   -0.027,   -0.011,    0.004,
        0.082,   -0.198,   -3.641,    0.048,    3.113,   -1.231,    0.453,
       -1.019,    0.304,    0.230,    0.262,    0.849,    1.068,    0.179,
        1.614,   -0.014,   -0.089,    0.039,   -0.007,   -0.012,   -0.063,
       -0.001,   -0.183,    1.457,    0.561,   -0.426,    0.064,    0.918,
       -0.827,   -0.455,    0.598,   -0.720,   -0.151,   -0.347,   -3.895,
        0.134,    0.298,   -0.426,    0.049,    0.209,    1.599,   -1.599,
       -0.770,   -0.268,   -4.726,   -0.147,    0.345,   -1.485,   -1.597,
        0.061,   -0.458,   -0.312,    0.160,   -0.128,   -4.993,   -2.102,
       -0.190,    0.112,    0.196,   -0.156,    0.151,   -1.045,   -0.474,
       -0.354,  -24.223,   -1.188,   -0.172,   -3.804,   -3.162,   -2.995,
        6.910,    0.644,    4.073,   -0.509,   -1.413,   -1.393,   -2.486
    },
    {  -1.273,    0.123,    0.236,   -0.262,    0.122,   -0.055,    0.443,
       -1.226,    0.172,   -0.167,   10.086,    0.731,   -0.842,   -0.113,
       -1.265,   -0.009,    0.050,   -0.187,    0.286,    0.190,   -3.865,
        0.130,   -1.662,   -0.536,   -0.074,   -0.194,   -0.238,   -0.732,
        0.395,    0.165,   -4.367,   -0.363,    1.097,    0.601,    0.428,
        0.121,   -0.303,   -0.527,    0.306,   -0.905,   -5.611,    0.120,
       -0.819,   -0.356,    1.943,    0.507,   -0.239,    0.610,   -0.701,
       -0.421,    2.082,    0.072,   -0.032,   -0.042,    0.068,   -0.022,
        0.101,   -0.114,   -3.411,   -0.019,    3.369,   -0.493,    0.533,
       -1.908,    0.371,   -0.174,   -0.068,    2.485,    0.693,    0.178,
        1.899,   -0.070,   -0.070,    0.040,    0.052,    0.005,    0.012,
       -0.120,    0.038,    1.592,    1.897,   -0.212,    0.216,    1.036,
       -0.627,   -0.812,    1.065,   -1.741,    0.390,   -0.743,   -3.404,
        0.328,   -0.141,   -0.246,   -0.290,    0.023,    2.166,    0.181,
       -0.108,   -0.723,   -4.315,   -0.333,    0.042,   -1.520,   -0.301,
        0.216,   -0.304,   -0.577,    0.027,    0.069,   -3.365,   -1.091,
       -0.114,    0.002,    0.117,    0.038,    0.358,   -0.639,   -0.252,
       -0.569,  -24.301,   -1.708,   -2.227,   -2.120,   -4.792,   -2.583,
        5.442,    0.789,    3.530,   -0.465,   -1.409,   -4.104,   -3.558
    },
    {  -0.849,    0.019,    0.122,   -0.177,    0.143,   -0.007,    0.222,
       -1.180,    0.100,   -0.115,   10.399,   -0.646,    0.401,   -0.150,
       -0.112,    0.362,    0.258,    0.706,   -0.187,    0.380,   -3.912,
        0.165,   -1.533,   -0.334,    0.083,   -0.061,   -0.344,   -0.230,
        0.575,   -0.069,   -3.050,   -0.210,    1.019,    0.666,   -0.019,
        0.121,   -0.255,   -0.354,    0.262,    0.107,   -6.909,    0.155,
       -0.306,   -1.329,    1.822,    1.177,   -0.237,    0.350,   -0.245,
        0.206,    1.689,   -0.037,   -0.033,   -0.057,    0.003,    0.027,
       -0.038,   -0.026,   -2.195,    0.026,    2.425,   -0.612,    0.525,
       -1.278,    0.396,   -0.247,    0.414,    0.775,   -0.363,    0.293,
        1.802,    0.059,   -0.025,    0.125,    0.021,   -0.210,   -0.118,
        0.107,    0.345,    2.072,    1.393,    0.153,   -0.001,    0.512,
       -0.317,   -0.465,    0.718,   -0.195,   -0.656,   -0.601,   -3.972,
        0.679,    0.201,   -0.067,   -0.341,   -0.129,    2.407,   -0.799,
       -0.477,   -0.680,   -4.327,   -0.292,    0.218,   -0.737,   -1.447,
       -0.089,   -0.204,   -0.043,    0.087,    0.135,   -3.343,   -1.118,
       -0.222,    0.219,    0.080,   -0.125,    0.158,   -0.454,   -0.197,
       -0.369,  -25.308,   -1.654,   -5.073,   -6.908,   -2.484,   -3.811,
        7.019,    0.636,    1.087,   -0.541,   -1.544,   -5.433,   -3.707
    },
    {  -0.628,   -0.065,    0.111,   -0.094,    0.049,   -0.026,    0.239,
       -0.602,    0.020,   -0.068,   11.295,   -0.208,   -0.384,   -0.033,
        0.067,    0.131,   -0.192,   -0.406,   -0.092,   -0.172,   -4.151,
        0.015,   -1.676,   -0.298,   -0.099,   -0.218,   -0.314,   -0.527,
        0.438,    0.012,   -3.469,   -0.113,    0.920,    0.467,    0.117,
        0.173,   -0.322,   -0.256,    0.322,   -0.780,   -3.225,    0.353,
       -1.047,   -0.079,    0.624,    0.113,   -0.278,    0.333,    0.052,
       -0.065,    1.813,    0.034,    0.009,   -0.107,    0.034,   -0.011,
        0.038,   -0.148,   -2.536,   -0.019,    2.702,   -0.615,    0.601,
       -1.011,    0.504,    0.055,    0.834,    1.316,   -0.488,   -0.288,
        2.094,   -0.139,    0.030,    0.052,    0.019,    0.042,   -0.197,
        0.069,    0.085,    1.359,   -2.959,    0.463,    0.156,    0.548,
       -0.083,   -0.545,   -0.205,   -1.184,   -0.343,   -0.144,   -3.509,
        0.152,   -0.122,    0.207,    0.066,    0.732,    0.568,   -0.117,
       -0.602,   -0.085,   -4.004,   -0.324,    0.310,   -0.566,   -1.473,
        0.423,   -0.216,    0.699,   -0.565,   -0.238,   -3.776,   -1.825,
       -0.318,    0.206,   -0.017,    0.063,    0.193,   -0.369,   -0.653,
       -0.721,  -28.269,   -3.089,   -3.546,   -4.994,   -4.041,   -2.417,
        6.544,    0.767,    6.014,   -0.728,   -5.120,   -1.538,   -1.047
    },
    {  -1.367,    0.076,    0.105,   -0.387,    0.080,   -0.038,    0.528,
       -1.083,   -0.017,   -0.126,   12.778,   -0.105,    0.735,    0.142,
        0.389,    0.146,   -0.771,    0.528,    0.213,   -0.912,   -2.921,
        0.076,   -1.276,   -0.142,    0.026,   -0.140,   -0.218,   -0.392,
        0.213,    0.003,   -2.207,   -0.054,    0.518,    0.276,    0.215,
        0.211,    0.380,    0.112,    0.368,    0.106,   -4.914,   -0.039,
       -0.547,   -0.819,    1.105,    0.317,   -0.316,    0.856,    0.206,
       -0.107,    1.954,    0.100,    0.057,   -0.065,    0.095,   -0.063,
        0.049,   -0.128,   -2.889,    0.017,    1.855,   -0.258,   -0.116,
       -0.626,    0.131,    0.076,    0.171,    0.813,   -0.122,   -0.000,
        1.691,   -0.056,   -0.094,   -0.007,    0.022,    0.038,   -0.039,
        0.040,   -0.156,    1.354,   -5.312,   -0.554,   -0.364,    0.378,
       -0.378,   -0.452,   -0.738,    0.396,    0.655,   -0.165,   -3.100,
       -0.036,   -0.209,    0.020,    0.048,    0.649,    0.316,   -0.430,
       -0.771,   -0.629,   -3.779,   -0.483,    0.280,   -0.678,   -0.920,
        0.115,   -0.152,   -0.268,   -0.146,   -0.081,   -3.234,   -1.217,
       -0.046,    0.228,    0.128,   -0.197,    0.172,   -0.646,   -0.104,
       -0.182,  -23.811,   -2.010,   -6.466,   -3.488,   -2.197,   -3.752,
        5.502,    2.381,    4.469,   -0.886,   -2.879,   -3.656,   -2.796
    },
    {  -1.020,   -0.053,    0.191,   -0.120,    0.163,   -0.077,    0.171,
       -0.792,    0.221,   -0.041,   13.275,   -0.205,   -1.000,    0.184,
        0.625,    0.640,    0.526,   -0.163,    0.078,    0.329,   -3.481,
        0.116,   -1.223,   -0.377,   -0.189,   -0.116,   -0.247,   -0.458,
        0.251,   -0.017,   -3.785,    0.014,    1.203,    0.331,    0.293,
        0.033,   -0.212,   -0.143,    0.469,   -0.051,   -3.617,   -0.051,
       -0.722,   -0.313,    0.987,    0.190,   -0.172,    0.089,    0.211,
        0.061,    1.798,    0.013,    0.034,   -0.077,    0.108,   -0.014,
        0.062,   -0.181,   -2.642,    0.025,    2.130,   -0.488,    0.109,
       -0.766,    0.308,   -0.096,    0.203,    0.856,   -0.028,    0.107,
        2.035,   -0.009,   -0.114,    0.034,    0.123,    0.032,   -0.077,
       -0.127,    0.094,    1.658,   -5.449,   -0.633,    0.232,   -1.185,
        0.215,    0.441,    0.183,    0.472,   -0.156,    0.011,   -2.549,
        0.380,   -0.021,   -0.254,    0.038,    0.089,    1.037,   -0.460,
       -0.439,   -0.709,   -4.245,   -0.661,    0.127,   -1.010,   -0.744,
        0.536,   -0.088,   -0.698,    0.339,    0.025,   -2.648,   -0.735,
       -0.107,    0.180,    0.001,    0.002,    0.065,   -0.698,   -0.148,
       -0.252,  -25.920,   -2.295,   -7.285,   -4.660,   -4.999,   -4.391,
        5.372,    1.642,    3.392,   -0.137,   -2.408,   -3.070,   -4.346
    },
    {  -1.064,    0.083,    0.166,   -0.362,   -0.003,   -0.156,    0.215,
       -0.935,    0.097,   -0.034,   12.217,   -0.543,    0.418,    0.824,
       -0.561,    0.212,   -0.826,   -0.914,   -0.359,   -0.259,   -3.688,
        0.042,   -1.498,   -0.153,   -0.126,   -0.021,   -0.274,   -0.579,
        0.208,    0.039,   -4.220,    0.081,    1.044,    0.285,   -0.195,
       -0.442,   -0.815,   -0.599,    0.352,   -0.482,   -4.291,   -0.136,
       -0.754,   -0.270,    1.252,    0.366,   -0.404,    0.445,    0.094,
       -0.052,    1.812,   -0.013,   -0.047,   -0.084,    0.043,    0.004,
       -0.021,   -0.042,   -2.941,    0.117,    1.223,   -0.019,   -0.262,
       -0.791,   -0.171,   -0.066,   -0.082,    0.764,    0.154,    0.221,
        2.537,   -0.085,    0.035,    0.099,   -0.013,   -0.010,   -0.123,
       -0.020,    0.023,    2.081,   -5.903,    0.380,   -0.099,    0.764,
       -0.100,    0.162,   -0.417,   -0.432,    0.677,   -0.431,   -3.309,
        0.343,   -0.186,   -0.057,   -0.078,    0.272,    1.060,   -0.556,
       -0.564,   -0.255,   -3.648,   -0.513,    0.426,   -0.052,   -1.584,
        0.260,   -0.134,    0.536,    0.520,    0.095,   -3.528,   -1.272,
       -0.180,   -0.111,   -0.014,    0.050,    0.361,   -0.510,   -0.270,
       -0.179,  -23.920,   -1.925,    0.415,   -5.933,   -1.673,   -2.250,
        5.189,    1.353,    6.012,    6.156,   -3.443,   -1.688,   -3.898
    },
    {  -1.411,    0.367,    0.047,    0.081,    1.044,   -0.558,    0.168,
       -0.867,   -0.565,   -0.208,   10.710,   -0.032,   -0.238,   -0.304,
        0.678,   -0.543,    0.078,    1.149,    0.553,    0.376,   -2.353,
       -0.121,   -0.983,   -0.055,   -0.147,   -0.113,   -0.167,   -0.349,
        0.386,    0.040,   -2.865,   -0.608,    0.471,    1.001,    0.216,
        0.038,   -0.477,   -0.496,    0.396,   -0.050,   -5.384,    0.266,
       -0.538,   -1.614,    0.561,    0.457,   -0.427,   -0.218,    0.128,
        0.178,    1.852,    0.008,   -0.090,   -0.043,   -0.001,   -0.075,
        0.039,   -0.166,   -2.317,   -0.009,    0.732,   -0.090,   -0.082,
       -0.068,    0.097,   -0.046,   -0.127,    0.506,    0.039,    0.070,
        1.518,    0.047,    0.064,    0.001,   -0.068,    0.011,    0.061,
       -0.189,    0.007,    1.809,   -5.943,    0.500,    0.466,   -0.618,
       -0.048,   -0.493,   -0.870,   -0.293,   -0.828,   -0.217,   -2.410,
        0.361,    0.089,   -0.387,   -0.104,    0.065,    1.227,   -0.860,
        0.235,   -0.642,   -3.264,   -0.437,    0.483,   -0.892,   -0.790,
       -0.083,   -0.118,    0.213,   -0.157,   -0.062,   -2.765,   -1.474,
        0.229,   -0.214,    0.106,   -0.006,    0.731,   -0.426,   -0.464,
       -0.143,  -25.525,   -0.661,    0.343,   -4.391,   -1.080,   -5.373,
        8.401,    3.497,    1.905,   -0.844,   -1.441,   -1.616,   -1.024
    },
    {  -0.437,    0.092,    0.042,   -0.148,    0.140,   -0.105,    0.059,
       -1.165,    0.310,   -0.065,    6.675,    0.090,   -0.183,    0.290,
       -0.742,    0.760,   -0.057,   -1.098,   -0.308,   -0.099,   -4.017,
        0.100,   -1.835,   -0.080,   -0.117,   -0.121,   -0.451,   -0.329,
        0.184,    0.005,   -3.584,   -0.057,    1.370,    0.519,    0.165,
        0.053,   -0.380,   -0.399,    0.627,    0.048,   -3.638,   -0.220,
       -0.417,   -0.583,    1.215,    0.299,    0.105,    1.253,   -0.492,
       -0.148,    1.903,    0.027,    0.048,   -0.088,    0.073,   -0.003,
       -0.024,   -0.211,   -2.651,    0.021,    1.497,    0.282,   -0.233,
       -0.885,    0.877,   -0.652,   -0.408,    0.444,    0.872,    0.327,
        2.506,   -0.122,   -0.116,    0.110,    0.080,   -0.057,   -0.031,
       -0.087,   -0.214,    2.016,   -4.166,   -0.618,   -0.132,   -0.703,
       -0.256,    0.211,   -0.103,    0.663,    0.723,   -0.185,   -2.103,
        0.316,   -0.069,   -0.068,    0.045,    0.086,    0.820,   -0.736,
       -0.439,   -0.372,   -4.246,   -0.677,    0.249,   -1.357,   -0.776,
        0.081,   -0.297,   -0.084,    0.514,    0.023,   -3.272,   -1.417,
        0.003,    0.285,    0.077,   -0.134,    0.265,   -0.389,   -0.457,
       -0.576,  -18.295,   -1.701,   -5.394,   -3.302,   -3.231,   -1.344,
        6.175,    0.488,    6.702,    1.620,   -1.775,   -2.965,   -1.865
    },
    {  -1.133,   -0.016,    0.117,   -0.055,    0.093,   -0.040,    0.462,
       -0.719,    0.136,   -0.068,    6.782,   -0.055,   -0.268,   -0.269,
       -0.114,   -0.014,    0.979,   -0.330,   -1.262,    0.579,   -4.451,
       -0.060,   -1.996,   -0.538,   -0.200,    0.016,   -0.324,   -0.813,
        0.716,    0.033,   -3.025,   -0.400,    0.860,    0.465,    0.238,
       -0.173,   -0.229,   -0.526,    0.342,   -0.344,   -4.642,    0.001,
       -0.791,   -0.858,    1.353,    0.428,   -0.315,    0.860,   -0.231,
       -0.430,    2.258,   -0.050,   -0.014,   -0.172,    0.125,    0.025,
        0.233,   -0.072,   -4.084,    0.028,    1.770,   -0.404,    0.297,
       -0.588,    0.315,    0.087,    0.365,    1.004,    0.077,    0.083,
        2.109,   -0.175,    0.005,    0.077,    0.023,   -0.047,   -0.200,
       -0.034,   -0.039,    2.045,   -5.115,    0.299,    0.053,   -0.594,
       -0.238,   -0.118,   -0.392,   -1.358,   -0.912,   -0.643,   -4.094,
       -0.080,   -0.076,   -0.066,   -0.038,    0.118,    0.365,   -0.586,
       -2.227,   -0.075,   -3.907,   -0.633,    0.428,   -0.663,   -1.207,
        0.224,    0.164,   -0.372,    0.059,   -0.267,   -3.970,   -1.889,
       -0.403,    0.328,    0.175,   -0.292,    0.135,   -0.581,    0.110,
       -0.534,  -21.951,   -3.057,   -1.027,   -2.731,   -2.596,   -1.242,
        4.498,    1.083,    3.116,   -3.362,   -1.407,   -2.180,   -1.082
    },
    {  -1.072,   -0.044,    0.231,   -0.225,    0.086,    0.048,    0.678,
       -0.763,    0.276,   -0.226,    2.598,    0.068,   -0.175,    0.003,
       -0.299,   -0.950,   -0.200,   -0.018,    0.303,    0.439,   -3.357,
       -0.101,   -1.379,   -0.209,   -0.014,   -0.163,   -0.231,   -0.511,
        0.500,    0.027,   -3.642,    0.016,    1.259,    0.264,    0.227,
       -0.176,   -0.226,   -0.656,    0.343,   -0.077,   -5.674,   -0.061,
       -0.799,   -1.000,    1.079,    0.537,   -0.345,    0.110,    0.456,
       -0.139,    1.937,   -0.001,    0.069,   -0.092,    0.048,    0.023,
        0.041,   -0.067,   -3.015,    0.016,    1.880,   -0.576,    0.017,
       -0.690,    0.215,   -0.050,   -0.033,    0.631,    0.130,    0.056,
        2.862,   -0.320,   -0.023,    0.092,    0.035,    0.042,   -0.032,
       -0.042,   -0.159,    2.263,   -3.475,   -0.283,   -0.296,    0.812,
        0.083,   -0.215,    1.746,   -0.792,    0.222,    0.118,   -1.526,
        0.114,   -0.218,   -0.060,    0.024,   -0.083,    0.076,   -0.820,
       -0.609,   -0.122,   -2.832,   -0.393,    0.235,   -0.302,   -0.953,
        0.199,   -0.131,   -0.049,   -0.080,   -0.016,   -3.119,   -0.917,
       -0.085,    0.188,    0.117,   -0.031,    0.315,   -0.187,   -0.423,
       -0.570,  -36.678,   -1.867,    1.288,   -5.358,   -6.241,   -6.250,
        4.988,    0.999,    5.087,   -0.651,   -1.220,   -2.489,   -3.782
    },
    {  -2.024,    0.358,    0.166,   -0.376,    0.192,   -0.111,    1.242,
       -1.397,    0.563,   -0.104,    3.337,   -0.048,   -0.009,    0.271,
       -0.016,   -0.268,   -0.352,    0.543,    1.328,    0.390,   -3.383,
        0.112,   -1.406,   -0.284,   -0.054,   -0.068,   -0.386,   -0.497,
        0.618,    0.085,   -3.003,   -0.276,    0.689,    0.324,    0.164,
       -0.045,   -0.186,   -0.517,    0.281,   -0.283,   -2.962,    0.173,
       -0.616,   -0.296,    0.869,    0.296,    0.081,    0.688,   -0.232,
       -0.052,    1.970,   -0.027,   -0.066,   -0.050,    0.086,   -0.057,
        0.002,   -0.165,   -2.342,   -0.013,    1.611,   -0.282,    0.129,
       -0.512,    0.148,   -0.155,    0.078,    0.827,    0.166,   -0.006,
        2.481,    0.024,   -0.066,    0.093,    0.021,   -0.037,   -0.011,
       -0.034,   -0.168,    1.710,   -4.220,    0.552,   -0.120,   -0.561,
        0.321,   -0.439,   -0.238,    0.583,    0.166,   -0.127,    0.096,
       -0.091,    0.096,    0.214,   -0.142,   -0.373,    0.224,   -0.937,
       -0.061,   -0.268,   -4.392,   -0.488,    0.148,   -1.119,   -0.927,
        0.101,    0.050,   -0.492,    0.298,    0.079,   -3.974,   -1.439,
       -0.248,    0.007,    0.187,   -0.180,    0.163,   -0.536,   -0.343,
       -0.101,  -46.359,   -1.343,    3.723,   -3.275,   -8.118,   -2.398,
        8.166,    1.245,   10.393,    0.237,   -0.955,   -6.907,   -4.409
    },
    {  -0.810,    0.025,    0.123,   -0.098,    0.121,    0.025,    0.374,
       -0.845,    0.447,   -0.053,    4.346,   -0.179,    0.076,    0.219,
       -0.166,   -0.265,   -1.207,    0.410,    1.322,    0.155,   -3.300,
        0.070,   -1.150,   -0.313,    0.088,   -0.075,   -0.214,   -0.308,
        0.253,    0.048,   -3.951,    0.074,    1.373,    0.029,    0.256,
       -0.039,   -0.337,   -0.924,    0.066,    0.024,   -2.084,    0.004,
        0.065,   -0.208,    1.356,    0.139,   -0.225,    0.666,    0.865,
       -0.196,    2.246,    0.059,    0.034,   -0.147,    0.126,    0.010,
       -0.024,   -0.261,   -2.615,    0.015,    2.273,   -0.349,    0.166,
       -0.699,    0.209,   -0.061,    0.124,    0.617,    0.510,    0.073,
        2.388,   -0.092,   -0.092,    0.136,    0.101,    0.014,   -0.059,
        0.033,    0.066,    1.739,   -4.361,    0.844,    0.047,   -0.185,
       -0.713,    0.376,    0.602,   -0.083,   -0.031,   -0.185,    0.325,
       -0.082,    0.062,    0.466,   -0.943,   -0.133,    0.173,   -0.458,
       -0.678,   -0.305,   -5.537,   -0.839,    0.345,   -0.640,   -1.599,
       -0.059,   -0.192,   -0.287,   -0.132,    0.099,   -3.274,   -1.056,
       -0.007,    0.114,    0.087,   -0.049,    0.052,   -0.232,   -0.307,
       -0.302,  -57.357,   -2.460,    8.090,   -9.919,   -3.748,   -0.890,
        9.121,    1.811,    7.679,   -2.717,   -0.334,   -5.703,   -9.372
    },
    {  -1.163,    0.061,    0.094,   -0.202,    0.087,   -0.041,    0.388,
       -0.744,   -0.028,   -0.082,    3.269,   -0.021,    0.162,    0.093,
       -0.087,   -0.390,   -0.130,    0.551,    0.649,    0.511,   -3.981,
        0.089,   -1.189,   -0.314,   -0.232,   -0.044,   -0.244,   -0.572,
        0.361,    0.043,   -3.649,   -0.173,    1.024,    0.550,    0.062,
       -0.022,   -0.234,   -0.729,    0.331,   -0.142,   -4.383,    0.120,
       -1.002,   -0.815,    1.208,    0.435,   -0.542,    0.336,   -0.215,
       -0.026,    2.049,   -0.022,   -0.026,   -0.085,    0.040,   -0.066,
       -0.015,   -0.204,   -2.644,   -0.051,    2.241,   -0.341,    0.430,
       -1.031,    0.119,    0.066,    0.330,    1.454,   -0.111,   -0.103,
        1.750,   -0.140,   -0.075,    0.019,    0.131,   -0.022,   -0.062,
        0.014,   -0.132,    1.676,   -5.148,   -0.298,   -0.015,    0.599,
        0.845,    0.036,    0.621,    0.030,    0.540,   -0.500,    2.436,
        0.015,    0.613,    0.640,   -0.541,   -0.905,    0.721,   -0.309,
        0.080,    0.136,   -5.756,   -0.620,    0.212,   -1.614,   -0.718,
        0.229,   -0.295,   -0.847,    0.122,    0.115,   -3.277,   -1.236,
       -0.248,    0.022,   -0.057,    0.057,    0.054,   -0.178,   -0.278,
       -0.424,  -56.979,   -2.916,    4.103,  -12.472,   -8.691,   -2.106,
        7.462,    1.028,    2.984,   -8.200,   -0.653,   -6.210,   -5.088
    },
    {  -1.065,    0.064,    0.012,   -0.074,    0.031,    0.028,    0.182,
       -0.473,   -0.016,   -0.059,    4.091,   -0.132,    0.134,    0.048,
       -0.693,   -1.115,   -0.044,   -0.494,    0.682,    0.568,   -4.549,
        0.038,   -2.181,   -0.390,   -0.308,   -0.304,   -0.430,   -0.459,
        0.691,    0.125,   -2.862,   -0.221,    0.827,    0.308,    0.103,
       -0.121,   -0.109,   -0.363,    0.304,   -0.058,   -5.705,   -0.214,
       -1.088,   -1.097,    1.653,    0.315,   -0.759,    0.243,   -0.237,
        0.218,    1.955,    0.010,   -0.021,   -0.014,   -0.011,   -0.032,
       -0.013,   -0.218,   -2.288,   -0.017,    2.150,   -0.416,    0.376,
       -1.167,    0.133,   -0.012,    0.489,    0.793,   -0.374,   -0.103,
        1.817,   -0.130,   -0.047,    0.132,    0.032,   -0.083,   -0.025,
       -0.124,    0.138,    2.059,   -7.271,    0.429,    0.854,   -0.042,
       -0.770,    0.648,    1.585,   -0.687,   -0.074,    0.187,    1.965,
       -0.658,    0.316,    0.890,   -0.537,   -1.242,    0.333,   -1.055,
        0.742,    0.528,   -5.915,   -0.432,    0.451,   -1.307,   -1.742,
        0.240,   -0.379,   -0.814,    0.297,    0.005,   -3.017,   -1.445,
       -0.337,    0.161,   -0.087,   -0.134,    0.117,   -0.330,   -0.144,
       -0.441,  -47.610,   -7.234,    2.987,   -2.704,   -8.326,   -1.449,
        8.973,    1.065,    2.431,  -12.763,   -0.521,   -3.291,   -1.726
    },
    {  -1.160,    0.067,    0.163,   -0.175,    0.127,   -0.004,    0.342,
       -0.649,   -0.010,   -0.112,    3.447,   -0.327,    0.070,   -0.048,
       -0.044,   -0.904,   -0.217,    0.194,    0.521,    0.387,   -3.489,
        0.162,   -1.117,   -0.337,    0.055,   -0.075,   -0.222,   -0.363,
        0.277,   -0.036,   -3.931,   -0.389,    1.029,    0.447,    0.133,
        0.094,   -0.281,   -0.619,    0.232,   -0.291,   -5.738,   -0.003,
       -0.579,   -0.271,    1.476,    0.759,   -0.543,    0.991,    0.352,
       -0.219,    1.794,    0.004,   -0.040,   -0.065,    0.075,   -0.039,
        0.109,    0.002,   -2.935,    0.066,    1.860,   -0.421,    0.240,
       -0.584,    0.163,    0.043,    0.167,    0.855,   -0.097,   -0.072,
        2.257,   -0.108,   -0.090,    0.016,    0.104,    0.121,   -0.099,
       -0.006,    0.028,    1.615,   -6.040,   -0.702,   -0.558,   -0.152,
        0.549,    0.102,    0.632,    0.369,    0.391,   -0.763,    2.420,
       -0.155,    0.625,    0.695,   -0.593,   -1.836,    0.854,    0.013,
        0.754,   -0.774,   -4.488,   -0.431,    0.087,   -1.077,   -0.823,
        0.108,   -0.010,   -0.471,   -0.046,    0.090,   -2.240,   -0.718,
       -0.200,    0.095,    0.023,   -0.016,    0.047,   -0.302,   -0.228,
       -0.126,  -53.876,   -3.212,    4.635,  -10.712,   -7.273,   -2.705,
        5.173,    1.813,    5.999,   -3.297,   -0.101,   -8.566,   -4.470
    },
    {  -1.352,    0.375,    0.007,   -0.422,    0.033,   -0.164,    0.229,
       -0.809,    0.536,   -0.147,    2.093,    0.062,   -0.079,    0.191,
       -0.167,   -0.112,   -0.548,    0.683,    0.428,    0.011,   -3.991,
        0.078,   -1.681,   -0.257,   -0.057,   -0.173,   -0.318,   -0.602,
        0.427,    0.039,   -4.115,   -0.031,    1.144,    0.425,    0.142,
       -0.132,   -0.362,   -0.831,    0.160,   -0.232,   -3.713,    0.136,
       -0.720,   -0.329,    0.866,   -0.011,   -0.291,    0.378,   -0.117,
       -0.046,    1.908,    0.040,   -0.104,   -0.062,    0.034,   -0.032,
       -0.033,   -0.050,   -2.012,   -0.020,    1.394,   -0.138,    0.000,
       -0.281,    0.052,   -0.070,   -0.059,    0.526,    0.082,    0.079,
        2.352,   -0.006,   -0.030,    0.074,    0.024,    0.039,   -0.093,
        0.004,   -0.041,    1.703,   -5.240,    0.401,   -0.735,   -0.313,
        0.380,    0.257,   -0.002,   -0.285,   -0.319,   -0.623,    1.976,
        1.203,    0.112,    0.066,   -0.671,    0.243,   -0.958,   -0.125,
       -0.096,   -0.623,   -3.939,   -0.517,    0.276,   -0.795,   -0.742,
        0.124,   -0.179,   -0.367,   -0.003,    0.018,   -2.948,   -1.157,
       -0.025,    0.202,    0.132,   -0.194,   -0.033,   -0.462,    0.033,
       -0.046,  -52.227,   -1.403,    3.205,   -4.483,   -5.185,   -2.842,
        9.463,    3.789,    8.483,   -6.838,   -0.138,   -6.685,   -3.861
    },
    {  -1.694,    0.302,    0.133,   -0.241,    0.084,   -0.095,    1.140,
       -0.611,    0.093,    0.008,    0.501,   -0.537,    0.318,    0.150,
        0.905,    0.024,   -0.547,   -0.031,   -0.298,   -0.185,   -3.179,
        0.071,   -0.986,   -0.282,   -0.051,   -0.201,   -0.246,   -0.293,
        0.469,    0.058,   -3.604,    0.134,    0.788,    0.040,    0.301,
       -0.102,   -0.244,   -0.867,    0.081,   -0.033,   -2.769,    0.029,
       -0.170,   -0.331,    0.664,    0.375,   -0.091,    0.402,   -0.191,
        0.038,    1.782,   -0.053,   -0.067,   -0.052,    0.057,    0.011,
        0.055,   -0.072,   -1.844,   -0.002,    0.757,   -0.037,    0.067,
       -0.175,    0.148,   -0.044,   -0.042,    0.425,    0.153,    0.053,
        1.886,   -0.086,    0.012,    0.090,    0.021,   -0.006,   -0.077,
        0.015,   -0.051,    1.275,   -4.356,    0.199,    0.700,    0.113,
       -0.072,   -0.190,    0.635,    0.422,    0.082,    0.184,    1.604,
        0.133,    0.225,    0.956,   -0.385,    0.038,   -0.269,    0.218,
        0.370,    0.105,   -3.728,   -0.512,    0.318,   -0.985,   -0.824,
        0.041,   -0.195,   -0.278,    0.137,   -0.021,   -3.159,   -1.057,
        0.072,    0.062,    0.176,   -0.033,    0.192,   -0.352,   -0.143,
       -0.169,  -55.850,   -1.844,   -0.372,   -8.342,  -12.674,   -3.542,
       10.897,    3.387,    6.605,   -2.300,    0.271,   -3.375,   -7.874
    },
    {  -2.583,    0.420,    0.057,   -0.217,    0.119,    0.117,    1.082,
       -1.031,   -0.050,   -0.634,   -0.803,   -0.254,    0.796,    0.119,
        0.684,    0.242,   -0.523,   -0.547,    0.287,   -0.229,   -4.070,
        0.033,   -1.781,   -0.059,   -0.019,   -0.170,   -0.340,   -0.756,
        0.664,   -0.046,   -4.178,   -0.095,    0.951,   -0.022,    0.276,
       -0.152,   -0.425,   -0.716,    0.192,   -0.189,   -3.963,    0.086,
       -0.212,   -0.525,    0.989,    0.395,   -0.153,    0.306,   -0.133,
        0.005,    1.806,    0.042,   -0.059,   -0.082,    0.053,   -0.037,
       -0.053,   -0.149,   -2.300,   -0.050,    1.243,   -0.059,   -0.165,
       -0.567,    0.134,   -0.141,   -0.196,    0.390,    0.307,    0.100,
        1.395,   -0.073,   -0.018,    0.094,    0.037,    0.008,    0.023,
        0.006,   -0.252,    1.236,   -4.334,   -0.909,   -0.600,    0.034,
        0.109,    0.357,   -0.555,    0.203,    0.051,   -0.260,    0.471,
       -0.172,    0.160,    0.363,   -0.031,    0.301,   -0.133,    1.074,
        0.035,   -0.011,   -3.582,   -0.724,    0.400,   -0.705,   -0.737,
        0.197,   -0.010,   -0.229,   -0.012,    0.030,   -2.882,   -0.661,
       -0.015,    0.039,    0.152,    0.068,    0.253,   -0.253,   -0.273,
       -0.146,  -53.110,   -1.495,   -0.075,   -4.757,  -17.512,   -6.793,
        6.651,    1.716,    3.440,    0.239,    1.259,   -2.997,  -11.253
    },
    {  -2.511,    0.630,   -0.040,   -0.396,   -0.101,    0.156,    1.247,
       -0.627,   -0.365,   -0.616,   -1.189,    0.286,   -0.025,    0.244,
       -0.784,   -0.107,   -0.303,    0.278,   -0.099,    0.465,   -3.590,
        0.068,   -1.371,   -0.166,   -0.164,   -0.080,   -0.184,   -0.464,
        0.458,   -0.054,   -3.953,    0.067,    1.026,   -0.048,    0.341,
       -0.128,   -0.323,   -0.856,    0.428,   -0.068,   -4.184,    0.220,
       -0.239,   -0.981,    0.569,    0.169,   -0.313,   -0.035,    0.299,
       -0.015,    1.882,   -0.041,   -0.076,   -0.028,    0.089,   -0.001,
        0.011,   -0.080,   -2.172,    0.009,    1.940,   -0.241,   -0.182,
       -0.521,    0.443,   -0.676,    0.041,    0.620,    0.899,    0.539,
        1.716,    0.011,    0.070,    0.005,   -0.154,   -0.055,   -0.020,
       -0.119,   -0.131,    1.897,   -4.513,    0.194,    0.315,    0.202,
        0.667,   -0.366,   -0.227,   -0.389,   -0.114,   -0.167,    0.792,
       -0.009,   -0.048,   -0.098,   -0.106,    0.130,   -0.144,    0.736,
        0.057,    0.024,   -4.032,   -0.450,    0.176,   -0.771,   -0.892,
        0.016,   -0.108,    0.101,   -0.333,    0.083,   -2.387,   -0.853,
        0.017,   -0.124,   -0.012,    0.068,    0.328,   -0.243,   -0.030,
       -0.071,  -49.107,   -1.276,   -0.219,   -7.775,  -14.442,  -15.302,
       10.251,    0.696,    2.165,    9.708,    2.425,   -5.070,   -3.532
    },
    {  -1.908,    0.349,    0.038,   -0.142,   -0.020,    0.042,    0.359,
       -0.527,    0.033,   -0.152,   -2.065,    0.228,   -0.162,    0.861,
       -0.195,   -0.069,   -0.153,   -0.855,    0.283,    0.009,   -2.704,
        0.041,   -0.955,   -0.183,   -0.044,   -0.029,   -0.201,   -0.421,
        0.284,    0.005,   -3.511,    0.036,    0.937,    0.175,    0.140,
        0.064,   -0.367,   -0.896,    0.222,   -0.078,   -3.755,    0.133,
       -0.243,   -0.555,    0.973,    0.558,   -0.198,    0.459,   -0.289,
        0.165,    1.712,    0.021,   -0.037,   -0.008,    0.028,    0.007,
        0.054,   -0.103,   -1.887,    0.022,    1.082,    0.037,   -0.147,
        0.184,   -0.694,    0.668,   -0.357,    0.577,    0.797,    0.351,
        2.148,   -0.026,   -0.045,   -0.040,    0.026,   -0.013,   -0.035,
       -0.147,    0.199,    1.478,   -3.782,    0.180,   -0.316,   -0.361,
       -0.364,    0.102,    0.013,   -1.127,   -0.421,    0.348,    1.416,
        0.545,   -0.144,    0.046,    0.020,   -0.317,   -0.367,    0.586,
        0.293,    0.076,   -4.018,   -0.153,    0.444,   -0.681,   -1.107,
       -0.213,   -0.335,   -0.342,   -0.199,    0.129,   -3.606,   -0.626,
        0.272,    0.136,    0.229,   -0.681,    0.096,   -0.393,   -0.174,
       -0.030,  -43.108,   -7.059,   -1.559,   -7.364,   -5.615,   -2.212,
        8.879,    0.624,    6.261,   -0.044,    1.830,   -2.224,   -3.827
    },
    {  -1.363,    0.153,    0.067,   -0.235,    0.088,   -0.039,    0.744,
       -0.771,    0.002,   -0.263,   -1.585,    0.447,   -0.146,    0.275,
       -0.395,    0.122,   -0.169,   -0.379,   -0.448,   -0.013,   -3.646,
       -0.016,   -1.541,   -0.180,   -0.133,   -0.161,   -0.309,   -0.452,
        0.466,    0.051,   -2.295,   -0.052,    0.662,    0.292,    0.043,
       -0.063,   -0.140,   -0.201,    0.493,   -0.014,   -4.248,    0.125,
       -0.644,   -0.877,    0.982,    0.384,   -0.493,    0.205,    0.221,
        0.119,    1.623,    0.020,    0.051,   -0.011,    0.051,   -0.022,
       -0.031,   -0.217,   -2.409,    0.015,    0.186,    0.038,   -0.011,
       -0.083,   -0.099,    0.013,   -0.076,    0.670,    0.032,    0.042,
        2.023,   -0.096,   -0.042,    0.083,    0.076,    0.010,   -0.064,
       -0.319,    0.087,    1.934,   -3.767,   -1.239,   -0.519,    0.199,
       -0.041,   -0.514,    0.125,   -0.082,    0.546,   -0.052,    3.546,
        0.294,   -0.327,    0.120,   -1.158,   -1.182,   -0.214,   -0.418,
        0.927,    0.661,   -3.571,   -0.299,    0.190,   -0.745,   -0.665,
        0.190,   -0.096,   -0.256,   -0.076,    0.105,   -4.332,   -1.419,
       -0.068,    0.006,   -0.106,   -0.036,    0.142,   -0.560,   -0.273,
       -0.702,  -35.120,   -1.739,   -0.754,   -4.794,   -6.403,   -2.163,
        5.405,    2.165,    2.973,   -2.132,    0.625,   -5.593,   -5.869
    },
    {  -3.968,    0.614,    0.019,   -0.305,   -0.010,    0.098,    1.439,
       -1.117,   -0.775,   -0.593,   -1.677,    0.139,    0.034,    1.388,
       -0.397,    0.590,    0.369,   -0.106,   -0.363,   -0.282,   -3.629,
       -0.035,   -1.391,   -0.043,   -0.177,   -0.070,   -0.321,   -0.600,
        0.336,   -0.040,   -3.178,   -0.035,    1.105,    0.186,    0.033,
        0.059,   -0.267,   -0.411,    0.299,   -0.008,   -3.464,    0.054,
       -0.553,   -0.331,    1.007,    0.234,   -0.263,    0.353,   -0.025,
       -0.057,    1.981,    0.010,    0.034,    0.029,   -0.023,    0.054,
       -0.157,   -0.107,   -2.301,    0.031,    0.477,   -0.114,    0.004,
        0.123,   -0.093,    0.119,   -0.241,    1.419,   -0.419,    0.057,
        1.608,   -0.188,   -0.017,    0.102,    0.106,   -0.004,   -0.036,
       -0.225,    0.042,    1.609,   -5.058,   -0.021,    0.301,   -0.353,
        0.147,    0.381,    0.355,    0.610,   -0.429,   -0.981,    4.990,
       -0.424,    0.272,    0.036,   -0.891,   -0.244,    0.528,    0.225,
       -0.604,    0.396,   -4.700,   -0.456,    0.213,   -1.176,   -1.063,
        0.109,   -0.068,   -0.251,   -0.049,    0.140,   -2.366,   -0.943,
        0.091,    0.092,    0.080,    0.066,    0.246,   -0.168,   -0.398,
       -0.503,  -36.770,   -2.174,   -0.495,   -4.644,   -6.695,   -3.305,
        8.076,    1.648,    2.152,    0.073,    4.102,   -5.604,   -2.070
    },
    {  -1.313,    0.160,   -0.006,   -0.050,    0.088,    0.018,    0.376,
       -0.652,   -0.092,   -0.093,   -0.485,    0.426,   -0.644,    0.485,
       -0.024,    0.295,   -0.663,    0.652,   -0.028,   -0.184,   -4.104,
        0.078,   -1.605,   -0.203,   -0.154,   -0.094,   -0.220,   -0.433,
        0.280,    0.041,   -2.765,   -0.117,    0.950,    0.424,    0.070,
        0.034,   -0.287,   -0.616,    0.493,   -0.020,   -4.428,    0.029,
       -0.473,   -0.913,    0.943,    0.299,   -0.380,   -0.102,    0.048,
        0.026,    2.117,   -0.012,    0.043,   -0.001,    0.023,   -0.008,
       -0.061,   -0.169,   -2.213,   -0.032,   -0.105,    0.209,   -0.474,
       -0.276,    0.077,    0.395,   -0.388,    1.544,    0.105,    0.540,
        1.912,    0.016,   -0.137,    0.121,    0.099,    0.016,   -0.040,
        0.021,   -0.036,    2.044,   -4.343,    0.211,   -0.334,    0.055,
