//-----------------------------------------------------------------------------
// Network: bnn_4e_7TeV_new
// Inputs:
//                                                  Offset       Scale
//    angle_costhetastar                        -5.075e-03   5.847e-01
//    angle_costheta1                            2.793e-04   5.517e-01
//    angle_costheta2                           -4.468e-03   5.076e-01
//    angle_phi                                 -1.347e-02   1.813e+00
//    angle_phistar1                             8.984e-03   1.782e+00
//    Z1mass                                     8.590e+01   1.037e+01
//    Z2mass                                     4.213e+01   2.109e+01
//    mass4l                                     1.469e+02   2.229e+01
//
// Created: Fri Jan 25 20:08:43 2013
//-----------------------------------------------------------------------------
#include <cmath>
#include <vector>
#include <iostream>
//-----------------------------------------------------------------------------
// Make following visible only to this programming unit
namespace nsbnn_4e_7TeV_new {
  // NOTE: Network indices start at 0
  static const int nnetworks=100;
  static const int ninputs  =8;
  static const int nhidden  =12;
  static const int nparams  =121;

  static const double mean[ninputs]={
 -5.07500e-03,
  2.79300e-04,
 -4.46800e-03,
 -1.34700e-02,
  8.98400e-03,
  8.59000e+01,
  4.21300e+01,
  1.46900e+02
  };

  static const double sigma[ninputs]={
  5.84700e-01,
  5.51700e-01,
  5.07600e-01,
  1.81300e+00,
  1.78200e+00,
  1.03700e+01,
  2.10900e+01,
  2.22900e+01
  };

  static const double weight[nnetworks][nparams]={
    {  -2.947,   -0.018,   -0.001,   -0.077,   -0.054,    0.096,   -0.178,
        0.159,    1.891,    4.776,   -0.012,   -0.144,    0.206,   -0.008,
       -0.310,   -0.372,   -0.007,   -1.894,   -0.292,    0.064,   -1.063,
       -0.008,    0.225,   -0.023,    0.644,    0.374,   -0.160,   -1.124,
       -0.065,    0.061,   -0.277,   -0.052,    0.005,    0.386,   -0.539,
        0.062,    1.000,   -0.276,   -0.196,   -0.071,    0.059,   -0.155,
       -0.084,   -0.278,    1.119,   -2.861,    1.242,    0.042,   -0.288,
        0.006,    0.008,   -0.177,   -0.828,    0.066,    3.775,    0.120,
       -0.674,    0.625,   -0.273,    0.040,    0.276,    0.660,   -0.219,
       -1.392,    0.184,    0.759,    0.301,   -0.019,   -0.131,   -0.260,
        0.088,    0.761,   -1.475,    0.419,    0.370,    0.595,    0.048,
        0.116,    0.279,   -0.435,   -0.597,    2.682,    0.714,   -0.249,
       -0.312,    0.075,   -0.142,    0.004,    0.704,   -0.236,    3.022,
        0.199,    1.211,   -0.148,    0.119,    0.013,    0.328,    0.906,
       -0.704,   -3.616,   -0.118,    0.013,   -0.117,    0.012,   -0.016,
       -0.116,   -0.230,   -1.744,  -13.214,   -5.854,   -8.826,   -0.487,
       -2.413,   -0.841,   -1.264,    5.355,   -0.906,   -1.157,    2.959,
        2.250,   -3.012
    },
    {  -2.817,   -0.015,   -0.005,   -0.066,    0.002,    0.042,   -0.123,
        0.159,    1.689,    4.365,   -0.250,   -0.036,    0.081,   -0.094,
       -0.209,   -0.347,   -0.141,   -1.419,    0.068,    0.144,   -0.781,
       -0.065,    0.201,   -0.365,    0.489,    0.644,    0.340,   -1.381,
        0.018,    0.035,   -0.347,   -0.021,    0.012,    0.302,   -0.612,
       -0.027,    0.953,   -0.337,   -0.136,   -0.024,    0.161,   -0.043,
       -0.001,    0.004,    1.067,   -2.620,    1.129,   -0.149,   -0.018,
       -0.040,    0.080,   -0.177,   -0.407,    0.325,    3.818,   -0.187,
       -1.247,    0.289,   -0.079,    0.110,    0.529,    0.771,   -0.766,
       -1.661,    0.119,    0.726,    0.459,   -0.247,   -0.008,    0.043,
       -0.049,    0.490,   -1.662,    0.372,    0.313,    0.550,   -0.029,
        0.037,    0.324,   -0.611,   -0.405,    2.235,    0.824,   -0.141,
       -0.208,   -0.048,   -0.109,   -0.022,    0.394,   -0.183,    2.728,
        0.149,    0.929,   -0.117,    0.148,   -0.011,    0.118,    0.621,
       -0.409,   -3.361,   -0.037,   -0.001,   -0.062,    0.019,    0.002,
       -0.177,   -0.362,   -1.408,  -12.022,   -7.116,  -12.723,   -0.371,
       -3.010,   -0.846,   -1.929,    3.470,   -0.690,   -1.554,    2.685,
        3.661,   -3.782
    },
    {  -2.938,   -0.015,    0.012,   -0.051,    0.006,    0.041,   -0.230,
        0.170,    1.930,    5.854,   -0.649,   -0.099,    0.007,   -0.032,
       -0.304,   -0.167,    0.041,   -2.226,   -0.002,    0.082,   -0.605,
        0.018,    0.225,   -0.080,    0.596,    0.662,    0.361,   -1.040,
       -0.164,    0.063,   -0.249,   -0.067,    0.021,    0.296,   -0.649,
        0.050,    1.934,   -0.008,   -0.194,   -0.140,    0.554,    0.004,
       -0.167,   -0.491,    1.087,   -2.972,    1.370,    0.081,   -0.021,
        0.060,    0.096,    0.009,   -0.671,    0.291,    2.785,   -0.126,
       -1.155,    0.064,   -0.143,    0.097,    0.442,    0.402,   -0.653,
       -1.961,    0.058,    1.000,    0.924,   -1.279,    0.296,    0.267,
        0.507,   -0.735,   -1.587,    0.451,    0.050,    0.895,    0.003,
       -0.135,    0.303,   -0.955,   -0.354,    2.877,    0.768,   -0.462,
       -0.615,   -0.210,   -0.216,    0.146,    0.892,   -0.315,    3.274,
        0.161,    1.387,   -0.085,    0.093,    0.006,    0.485,    0.713,
       -0.638,   -4.257,   -0.035,    0.046,   -0.064,   -0.049,   -0.017,
       -0.089,   -0.246,   -2.159,   -7.325,   -5.379,   -7.977,   -0.749,
       -2.641,   -1.320,   -1.961,    1.860,   -0.557,   -0.640,    1.096,
        2.389,   -2.677
    },
    {  -2.748,   -0.034,    0.034,   -0.048,    0.006,   -0.006,   -0.190,
        0.181,    1.686,    7.585,   -0.489,   -0.108,    0.138,   -0.106,
       -0.667,   -0.561,    0.073,   -2.645,    0.384,    0.079,   -0.239,
       -0.175,    0.218,   -0.172,    0.395,    0.478,    0.930,   -1.139,
       -0.135,   -0.004,   -0.159,    0.002,    0.039,    0.285,   -0.536,
        0.031,    2.616,   -0.129,   -0.212,   -0.190,    1.143,   -0.394,
        0.154,   -0.379,    1.192,   -2.254,    0.965,   -0.025,   -0.139,
       -0.057,    0.046,    0.058,   -0.512,    0.002,    4.071,   -0.286,
       -1.759,    0.216,   -0.255,   -0.034,    0.396,    0.846,   -0.562,
       -2.665,   -0.091,    1.400,    0.928,   -1.468,    0.812,   -0.368,
        0.319,   -0.235,   -1.996,    0.433,    0.346,    1.384,   -0.150,
       -0.073,    0.364,   -0.818,   -0.480,    4.353,    1.172,   -0.283,
       -0.683,   -0.018,   -0.294,    0.257,    0.599,   -0.371,    2.711,
        0.094,    1.126,   -0.177,    0.086,   -0.006,    0.397,    0.532,
       -0.590,   -3.581,    0.018,   -0.004,   -0.086,   -0.125,   -0.005,
       -0.156,   -0.270,   -1.630,   -9.133,   -6.184,  -11.214,   -0.552,
       -3.763,   -1.075,   -1.568,    1.714,   -0.514,   -0.701,    3.803,
        2.308,   -3.695
    },
    {  -2.998,   -0.019,    0.013,   -0.034,   -0.006,    0.051,   -0.204,
        0.135,    2.023,    7.093,   -0.631,   -0.284,    0.086,   -0.215,
       -0.468,   -0.291,    0.244,   -2.675,    0.619,    0.097,   -0.520,
       -0.146,    0.030,   -0.279,    0.329,    0.056,    1.263,   -1.327,
       -0.258,   -0.006,   -0.336,   -0.050,    0.091,    0.428,   -0.714,
       -0.125,    2.006,   -0.050,   -0.246,   -0.094,    0.875,    0.118,
       -0.403,   -0.392,    1.299,   -3.033,    1.400,   -0.031,   -0.202,
       -0.006,    0.120,    0.117,   -0.832,    0.407,    4.408,   -0.080,
       -1.689,    0.248,   -0.123,    0.008,    0.516,    0.605,   -0.483,
       -2.335,    0.022,    0.609,    0.837,   -1.890,   -0.054,    0.521,
        0.683,   -1.356,   -1.422,    0.277,    0.435,    0.710,    0.068,
       -0.157,    0.400,   -0.564,   -0.370,    3.715,    1.133,   -0.182,
       -0.345,   -0.098,   -0.334,    0.128,    0.571,   -0.440,    2.866,
        0.261,    1.118,   -0.185,    0.125,   -0.012,    0.276,    0.974,
       -0.676,   -3.973,    0.027,   -0.107,   -0.104,   -0.018,   -0.047,
       -0.110,   -0.330,   -1.849,  -10.758,   -5.297,  -10.471,   -0.607,
       -1.870,   -0.891,   -1.567,    4.462,   -0.443,   -1.096,    4.664,
        2.042,   -3.109
    },
    {  -2.805,    0.005,   -0.008,   -0.053,   -0.002,    0.017,   -0.175,
        0.247,    1.775,    4.066,   -0.325,   -0.009,    0.263,   -0.101,
       -0.103,   -0.411,   -0.140,   -1.182,    0.567,   -0.035,   -0.161,
       -0.221,    0.040,   -0.062,    0.134,    0.045,    0.652,   -1.353,
        0.009,   -0.016,   -0.265,   -0.003,    0.043,    0.414,   -0.607,
        0.007,    3.373,    0.178,   -0.048,   -0.167,    0.955,   -0.450,
        0.089,    0.514,    0.192,   -3.523,    1.926,   -0.164,   -0.034,
        0.116,    0.203,   -0.143,   -0.733,    0.236,    2.970,   -0.012,
       -1.016,    0.232,   -0.147,    0.074,    0.298,    0.500,   -0.391,
       -1.837,    0.351,    0.856,    0.967,   -0.691,    0.246,    0.020,
       -0.385,    0.460,   -1.388,    0.237,    0.239,    0.869,    0.097,
       -0.050,    0.311,   -0.635,   -0.627,    3.192,    1.287,   -0.117,
       -0.201,   -0.044,   -0.193,    0.041,    0.551,   -0.156,    2.804,
        0.274,    1.195,   -0.294,    0.102,   -0.013,    0.315,    0.959,
       -0.567,   -3.458,   -0.049,    0.058,   -0.105,   -0.028,   -0.013,
       -0.175,   -0.301,   -1.502,   -8.674,   -5.439,   -8.738,   -1.324,
       -2.994,   -1.518,   -0.921,    2.810,   -0.583,   -0.865,    3.082,
        1.797,   -3.591
    },
    {  -2.624,    0.033,   -0.013,   -0.048,    0.038,    0.015,   -0.205,
        0.103,    1.709,    4.126,   -0.498,    0.122,    0.030,   -0.129,
       -0.132,   -0.179,    0.049,   -1.339,    0.781,   -0.139,   -0.090,
       -0.105,    0.060,   -0.016,    0.033,   -0.272,    1.155,   -1.215,
       -0.182,    0.003,   -0.267,   -0.018,    0.015,    0.517,   -0.540,
       -0.053,    4.491,   -0.041,   -0.834,   -0.197,    1.409,   -0.423,
       -0.580,   -0.350,    0.881,   -2.156,    0.941,   -0.154,   -0.280,
       -0.074,    0.066,    0.029,   -0.564,    0.061,    3.646,   -0.216,
       -1.255,    0.249,   -0.127,    0.201,    0.275,    0.740,   -0.375,
       -2.583,   -0.063,    1.448,    0.955,   -0.899,    0.568,    0.044,
        0.783,    0.017,   -1.514,    0.415,    0.100,    0.785,   -0.018,
        0.036,    0.319,   -0.591,   -0.422,    4.251,    1.489,   -0.427,
       -0.370,    0.004,   -0.249,    0.005,    0.923,   -0.382,    2.366,
        0.307,    0.837,   -0.173,    0.043,    0.062,    0.293,    0.590,
       -0.426,   -3.881,   -0.166,    0.154,   -0.098,    0.078,    0.017,
       -0.131,   -0.373,   -1.995,   -8.117,   -6.440,  -10.858,   -0.905,
       -2.159,   -1.147,   -1.719,    3.954,   -0.425,   -1.077,    2.365,
        2.802,   -2.301
    },
    {  -3.073,    0.008,    0.047,   -0.054,   -0.019,    0.035,   -0.260,
        0.125,    2.020,    5.294,   -0.308,   -0.221,    0.112,    0.043,
       -0.454,   -0.187,    0.132,   -2.156,    0.355,   -0.083,   -0.215,
       -0.153,    0.114,   -0.056,    0.124,    0.089,    0.747,   -1.343,
       -0.202,   -0.006,   -0.173,   -0.010,    0.041,    0.362,   -0.544,
       -0.031,    4.633,    0.104,   -0.324,   -0.530,    1.082,   -0.276,
       -0.516,   -0.485,    1.105,   -2.887,    1.351,   -0.253,   -0.469,
        0.016,    0.277,    0.239,   -1.222,    0.517,    4.589,   -0.048,
       -1.780,    0.171,   -0.048,    0.024,    0.357,    0.921,   -0.516,
       -3.127,   -0.258,    1.207,    0.837,   -1.360,    0.805,    0.533,
        0.825,   -0.188,   -1.406,    0.423,    0.306,    0.620,   -0.029,
       -0.106,    0.217,   -0.589,   -0.350,    4.261,    1.285,   -0.153,
       -0.332,   -0.026,   -0.067,    0.240,    0.608,   -0.177,    3.128,
        0.185,    1.115,   -0.199,    0.168,   -0.025,    0.297,    0.647,
       -0.459,   -3.562,   -0.043,   -0.024,   -0.124,    0.024,    0.017,
       -0.128,   -0.247,   -1.677,  -14.054,   -6.143,   -9.444,   -1.165,
       -3.072,   -4.619,   -0.892,    3.761,   -0.405,   -1.384,    8.330,
        3.881,   -2.955
    },
    {  -2.919,   -0.049,   -0.002,   -0.047,   -0.007,    0.005,   -0.208,
        0.153,    1.730,    5.808,   -0.420,   -0.062,    0.110,   -0.290,
       -0.400,   -0.147,    0.133,   -2.049,    0.373,   -0.028,   -0.142,
       -0.120,    0.125,   -0.125,    0.227,    0.276,    0.544,   -1.067,
       -0.035,   -0.048,   -0.179,   -0.020,    0.050,    0.317,   -0.692,
       -0.014,    3.784,    0.215,   -0.155,   -0.463,    1.172,   -0.367,
       -0.142,    0.401,    0.273,   -3.428,    1.439,   -0.142,   -0.119,
       -0.009,    0.020,   -0.195,   -0.594,    0.297,    3.508,   -0.192,
       -1.149,    0.227,   -0.162,    0.154,    0.306,    0.574,   -0.458,
       -3.169,    0.076,    1.289,    1.035,   -1.530,    0.758,    0.453,
        0.589,   -0.192,   -1.578,    0.216,    0.345,    1.059,   -0.099,
        0.027,    0.313,   -0.740,   -0.266,    3.193,    0.829,   -0.209,
       -0.132,    0.028,   -0.133,    0.064,    0.462,   -0.152,    3.278,
        0.273,    1.143,   -0.142,    0.063,   -0.044,    0.383,    0.567,
       -0.408,   -3.621,    0.014,    0.062,   -0.033,    0.046,   -0.009,
       -0.155,   -0.298,   -1.704,  -14.838,   -7.661,  -12.219,   -1.124,
       -2.664,   -2.564,   -2.671,    4.888,   -0.545,   -0.775,    6.828,
        3.597,   -2.869
    },
    {  -2.899,    0.007,    0.024,   -0.044,    0.019,   -0.022,   -0.238,
        0.191,    1.781,    5.779,   -0.664,    0.059,    0.125,   -0.187,
       -0.284,   -0.383,    0.067,   -1.846,    0.538,   -0.100,   -0.137,
       -0.179,    0.098,   -0.076,    0.077,   -0.022,    0.763,   -1.566,
       -0.052,    0.007,   -0.228,   -0.030,    0.016,    0.363,   -0.480,
       -0.042,    4.412,   -0.034,   -0.354,   -0.364,    0.832,   -0.422,
       -0.379,   -0.230,    1.005,   -3.442,    1.300,    0.031,   -0.129,
        0.030,    0.043,   -0.054,   -0.572,    0.231,    4.600,   -0.125,
       -1.540,    0.168,   -0.059,    0.093,    0.342,    0.741,   -0.458,
       -2.487,    0.048,    0.888,    0.855,   -1.197,    0.675,    0.303,
        0.159,    0.175,   -1.614,    0.407,    0.225,    1.015,    0.061,
       -0.072,    0.293,   -0.796,   -0.312,    3.806,    1.151,   -0.174,
       -0.311,   -0.053,   -0.110,    0.103,    0.595,   -0.278,    2.581,
        0.065,    0.899,   -0.090,    0.076,   -0.026,    0.163,    0.586,
       -0.293,   -3.902,    0.001,    0.108,   -0.066,    0.051,    0.047,
       -0.161,   -0.399,   -1.941,  -19.250,   -6.275,  -13.078,   -1.030,
       -4.847,   -6.163,   -4.382,    8.509,   -0.555,   -0.851,    9.766,
        3.641,   -2.525
    },
    {  -2.864,   -0.026,    0.000,   -0.092,    0.021,    0.014,   -0.208,
        0.187,    1.708,    5.093,   -0.266,   -0.115,    0.257,   -0.087,
       -0.510,   -0.524,    0.022,   -1.620,    0.723,   -0.086,   -0.118,
       -0.155,    0.089,   -0.041,    0.006,    0.133,    0.539,   -1.075,
       -0.057,    0.002,   -0.177,   -0.046,    0.020,    0.291,   -0.337,
       -0.045,    5.670,    0.182,   -0.241,   -0.638,    1.790,   -0.312,
       -0.429,    0.260,    0.452,   -2.787,    0.996,   -0.011,   -0.134,
        0.030,    0.046,    0.000,   -0.489,    0.138,    3.428,    0.017,
       -0.925,    0.125,   -0.060,    0.059,    0.215,    0.473,   -0.155,
       -1.688,    0.198,    0.696,    0.882,   -0.607,    0.128,   -0.212,
        0.368,    0.543,   -1.256,    0.122,    0.136,    0.560,    0.033,
       -0.008,    0.203,   -0.619,   -0.390,    3.894,    1.045,   -0.122,
       -0.311,    0.006,   -0.188,   -0.012,    0.600,   -0.097,    2.896,
        0.172,    1.321,   -0.076,    0.157,    0.005,    0.314,    0.877,
       -0.628,   -3.617,   -0.017,    0.030,   -0.092,   -0.023,    0.053,
       -0.193,   -0.231,   -1.762,  -23.761,   -6.759,   -8.065,   -2.192,
       -3.965,   -2.647,   -4.211,   10.612,   -0.601,   -1.761,    6.423,
        1.638,   -2.934
    },
    {  -2.880,   -0.005,    0.012,   -0.115,   -0.040,    0.061,   -0.188,
        0.198,    1.708,    4.682,   -0.133,   -0.082,    0.183,    0.048,
       -0.295,   -0.157,   -0.079,   -1.764,    0.814,   -0.148,   -0.129,
       -0.199,   -0.037,   -0.024,    0.441,   -0.051,    1.113,   -1.424,
       -0.119,   -0.053,   -0.198,    0.027,   -0.013,    0.380,   -0.535,
        0.056,    4.612,    0.270,   -0.163,   -0.386,    1.216,   -0.317,
       -0.301,    0.049,    0.568,   -3.373,    1.183,   -0.039,   -0.283,
        0.038,   -0.002,   -0.061,   -0.566,    0.212,    3.453,   -0.032,
       -1.009,    0.277,   -0.048,    0.020,    0.328,    0.491,   -0.317,
       -2.005,    0.106,    0.415,    0.481,    0.022,   -0.076,   -0.194,
        0.257,    0.833,   -2.065,    0.614,    0.566,    1.023,   -0.150,
        0.004,    0.333,   -0.917,   -0.493,    3.348,    0.871,   -0.158,
       -0.402,   -0.037,   -0.176,    0.100,    0.497,   -0.175,    2.528,
        0.109,    0.783,   -0.129,    0.038,   -0.088,    0.260,    0.540,
       -0.483,   -3.129,   -0.032,   -0.037,   -0.072,    0.049,    0.016,
       -0.084,   -0.307,   -1.265,  -20.890,   -6.724,  -12.207,   -0.766,
       -3.599,   -2.811,   -4.339,    6.874,   -0.911,   -0.954,    6.011,
        4.702,   -4.666
    },
    {  -2.682,   -0.018,    0.027,   -0.058,    0.005,    0.054,   -0.144,
        0.117,    1.702,    4.127,   -0.309,    0.021,    0.164,   -0.091,
       -0.265,   -0.322,   -0.093,   -1.217,    0.988,   -0.128,   -0.016,
       -0.035,    0.027,   -0.010,   -0.063,    0.041,    1.030,   -1.152,
        0.002,   -0.105,   -0.255,    0.001,   -0.003,    0.392,   -0.478,
       -0.253,    2.920,    0.139,    0.178,   -0.283,    0.944,   -0.270,
        0.206,    0.467,   -0.123,   -3.187,    1.239,   -0.118,   -0.075,
        0.052,    0.155,   -0.121,   -0.472,    0.343,    3.538,   -0.176,
       -1.020,    0.124,   -0.010,   -0.000,    0.340,    0.556,   -0.310,
       -2.824,    0.290,    0.363,    0.228,   -0.110,   -0.160,    0.410,
        1.012,    0.319,   -1.480,    0.311,    0.275,    0.696,   -0.075,
        0.028,    0.305,   -0.570,   -0.304,    2.420,    0.836,   -0.211,
       -0.148,    0.109,   -0.093,   -0.050,    0.583,   -0.167,    2.990,
        0.175,    1.189,   -0.205,    0.212,    0.002,    0.331,    0.712,
       -0.618,   -3.521,    0.002,   -0.034,   -0.017,    0.042,   -0.015,
       -0.157,   -0.213,   -1.689,  -15.853,   -6.358,  -10.979,   -1.479,
       -2.703,   -1.466,   -3.029,    9.017,   -0.726,   -1.301,    2.244,
        3.080,   -3.384
    },
    {  -2.704,    0.023,    0.045,   -0.088,   -0.013,    0.028,   -0.135,
        0.139,    1.602,    4.341,   -0.214,   -0.027,    0.216,   -0.057,
       -0.170,   -0.168,   -0.018,   -1.568,    1.000,   -0.145,   -0.031,
        0.044,    0.058,    0.133,    0.138,    0.060,    1.201,   -1.153,
       -0.033,   -0.014,   -0.251,   -0.021,   -0.047,    0.478,   -0.583,
       -0.197,    2.692,    0.164,   -0.018,   -0.310,   -0.273,    0.241,
        0.739,    0.302,   -0.184,   -2.592,    1.410,   -0.266,    0.012,
        0.036,    0.074,   -0.161,   -0.773,    0.072,    3.364,   -0.324,
       -1.052,    0.138,   -0.108,    0.094,    0.415,    0.549,   -0.409,
       -3.892,   -0.355,    0.227,    0.661,   -0.545,   -0.332,    0.456,
        1.327,    0.635,   -1.684,    0.282,    0.550,    1.098,   -0.124,
        0.000,    0.150,   -0.412,   -0.159,    2.767,    0.678,   -0.188,
       -0.289,   -0.022,   -0.074,    0.026,    0.398,   -0.307,    2.385,
        0.161,    0.769,   -0.071,    0.001,   -0.011,    0.243,    0.450,
       -0.389,   -2.870,   -0.129,    0.040,   -0.008,    0.068,   -0.047,
       -0.182,   -0.209,   -1.259,  -13.601,   -7.849,  -12.847,   -1.112,
       -2.550,   -1.458,   -0.996,    4.992,   -0.037,   -0.762,    5.041,
        5.036,   -4.022
    },
    {  -2.744,   -0.023,    0.018,   -0.085,   -0.037,    0.041,   -0.109,
        0.259,    1.701,    4.350,   -0.145,    0.003,    0.178,   -0.036,
       -0.128,   -0.502,   -0.290,   -1.191,    1.189,   -0.204,   -0.288,
       -0.110,   -0.030,   -0.091,    0.073,   -0.372,    1.666,   -1.159,
       -0.013,    0.003,   -0.160,   -0.005,   -0.002,    0.366,   -0.449,
       -0.088,    4.218,    0.034,   -0.553,   -0.127,   -0.343,    0.485,
        0.947,    0.998,    0.310,   -3.164,    1.120,   -0.127,   -0.070,
        0.036,    0.147,   -0.029,   -0.521,    0.133,    3.614,   -0.243,
       -1.323,    0.089,   -0.173,    0.111,    0.502,    0.574,   -0.561,
       -4.117,    0.277,   -0.421,    0.826,   -0.177,   -0.027,   -0.419,
       -0.343,    0.894,   -1.455,    0.360,    0.506,    0.886,   -0.097,
       -0.009,    0.277,   -0.147,   -0.305,    2.794,    0.947,   -0.259,
       -0.247,    0.042,   -0.249,    0.176,    0.689,   -0.407,    2.871,
        0.297,    1.089,   -0.057,    0.021,   -0.002,    0.180,    0.601,
       -0.464,   -3.437,   -0.015,    0.047,   -0.063,    0.073,   -0.045,
       -0.233,   -0.512,   -1.444,  -14.316,   -6.000,  -14.879,   -0.836,
       -3.464,   -0.592,   -4.368,    3.206,   -6.453,   -0.890,    2.226,
        2.939,   -3.445
    },
    {  -2.704,    0.005,    0.033,   -0.055,   -0.016,   -0.017,   -0.222,
        0.173,    1.653,    5.493,   -0.262,   -0.100,    0.312,   -0.158,
       -0.255,   -0.518,    0.180,   -1.887,    0.585,    0.106,   -0.244,
       -0.190,    0.027,   -0.146,    0.081,   -0.064,    1.108,   -1.190,
       -0.174,   -0.023,   -0.168,    0.001,    0.004,    0.364,   -0.579,
       -0.045,    4.932,    0.104,    0.107,   -0.574,   -1.373,   -0.116,
        0.461,    0.428,    0.287,   -2.885,    1.044,    0.002,   -0.111,
        0.021,    0.045,    0.060,   -0.487,    0.124,    3.263,   -0.070,
       -1.085,    0.237,   -0.005,    0.075,    0.371,    0.742,   -0.308,
       -3.019,    0.039,    0.282,    0.509,    0.160,   -0.050,   -0.299,
        0.511,   -0.426,   -1.751,    0.254,    0.717,    1.119,   -0.110,
        0.033,    0.534,   -0.230,   -0.382,    3.066,    0.797,   -0.078,
       -0.388,   -0.178,   -0.339,    0.237,    0.623,   -0.393,    2.813,
       -0.015,    1.136,   -0.239,    0.086,   -0.061,    0.247,    0.768,
       -0.553,   -3.699,   -0.040,   -0.080,   -0.020,    0.079,    0.009,
       -0.160,   -0.448,   -1.611,  -10.997,   -6.131,  -10.637,   -0.719,
       -2.892,   -1.211,   -4.061,    3.470,   -0.245,   -0.797,    2.565,
        2.327,   -3.114
    },
    {  -2.719,    0.014,    0.032,   -0.084,    0.008,   -0.032,   -0.225,
        0.180,    1.748,    4.979,   -0.273,    0.005,    0.272,   -0.294,
        0.062,   -0.353,    0.075,   -1.820,    1.070,   -0.136,    0.032,
       -0.182,    0.095,   -0.131,   -0.042,   -0.004,    1.244,   -0.986,
       -0.098,   -0.062,   -0.093,    0.017,    0.030,    0.350,   -0.425,
       -0.097,    4.918,    0.112,   -0.391,   -0.385,   -1.304,    0.141,
        0.109,    0.478,    0.539,   -2.555,    1.108,   -0.109,   -0.264,
       -0.040,    0.061,    0.046,   -0.643,    0.085,    2.866,   -0.099,
       -0.802,    0.118,   -0.015,    0.091,    0.151,    0.583,   -0.338,
       -2.670,   -0.516,   -0.760,   -0.910,    1.256,    0.452,    0.035,
       -0.112,   -0.113,   -1.553,    0.448,    0.338,    1.318,   -0.233,
        0.034,    0.157,   -0.269,   -0.263,    3.214,    1.245,   -0.275,
       -0.326,   -0.061,   -0.335,    0.286,    0.602,   -0.531,    2.666,
        0.188,    1.043,   -0.079,    0.130,    0.032,    0.309,    0.623,
       -0.663,   -3.441,   -0.045,    0.007,   -0.050,    0.059,   -0.006,
       -0.177,   -0.381,   -1.612,  -10.955,   -6.030,   -7.741,   -1.079,
       -3.407,   -1.465,   -1.727,    5.313,    0.068,   -0.824,    1.291,
        2.092,   -3.153
    },
    {  -2.496,   -0.016,    0.026,   -0.006,   -0.030,   -0.004,   -0.159,
        0.162,    1.514,    5.359,   -0.322,    0.044,    0.315,   -0.150,
       -0.225,   -0.671,   -0.126,   -1.471,    0.929,   -0.221,   -0.355,
       -0.067,    0.019,   -0.144,    0.224,    0.133,    1.445,   -1.342,
       -0.036,    0.057,   -0.131,    0.017,    0.016,    0.302,   -0.461,
       -0.040,    4.518,    0.132,   -0.586,   -0.459,   -0.977,    0.315,
        0.650,    0.757,   -0.412,   -3.229,    1.469,   -0.255,   -0.243,
        0.017,   -0.002,   -0.068,   -0.719,    0.091,    3.497,   -0.193,
       -1.334,    0.154,   -0.168,    0.043,    0.613,    0.863,   -0.490,
       -0.770,   -0.291,   -0.746,   -1.176,   -0.255,    0.644,    0.535,
       -0.873,   -0.505,   -1.672,    0.379,    0.434,    0.892,   -0.117,
       -0.060,    0.193,   -0.537,   -0.237,    3.414,    1.517,   -0.326,
       -0.220,   -0.021,   -0.162,    0.257,    0.540,   -0.185,    3.067,
        0.269,    1.335,   -0.146,    0.058,    0.102,    0.248,    0.870,
       -0.608,   -3.796,   -0.127,   -0.112,   -0.061,    0.116,   -0.012,
       -0.155,   -0.470,   -1.664,   -7.536,   -6.649,  -10.332,   -0.696,
       -4.582,   -1.589,   -1.548,    2.208,   -0.154,   -1.019,    1.299,
        2.110,   -2.883
    },
    {  -2.555,    0.001,    0.050,   -0.014,   -0.030,    0.026,   -0.149,
        0.166,    1.511,    6.073,   -0.211,   -0.170,    0.073,   -0.133,
       -0.682,   -0.315,    0.008,   -2.279,    0.737,   -0.152,   -0.156,
       -0.119,    0.044,   -0.131,    0.163,   -0.292,    1.383,   -1.262,
        0.061,    0.063,   -0.274,    0.011,   -0.056,    0.476,   -0.668,
        0.007,    3.316,    0.406,   -0.608,   -0.321,   -0.951,    0.247,
       -0.312,    0.433,    0.352,   -2.934,    1.211,   -0.245,   -0.060,
       -0.067,    0.147,   -0.163,   -0.652,    0.136,    3.257,   -0.348,
       -1.005,    0.205,   -0.108,    0.062,    0.267,    0.757,   -0.356,
       -1.262,   -0.236,   -0.592,   -1.037,    0.339,    0.302,    0.587,
        0.023,   -0.930,   -1.259,    0.200,    0.292,    0.736,    0.014,
        0.074,    0.148,   -0.401,   -0.453,    2.101,    0.724,   -0.190,
       -0.149,    0.004,   -0.085,   -0.035,    0.598,   -0.213,    2.802,
        0.215,    1.342,   -0.198,    0.085,    0.074,    0.309,    0.804,
       -0.517,   -3.683,   -0.143,    0.001,   -0.180,    0.060,   -0.042,
       -0.129,   -0.321,   -1.734,   -8.151,   -7.298,   -9.761,   -0.892,
       -1.752,   -0.785,   -1.688,    2.862,   -0.414,   -1.409,    2.109,
        1.686,   -2.660
    },
    {  -2.623,   -0.003,    0.027,   -0.051,   -0.013,   -0.021,   -0.176,
        0.208,    1.500,    5.021,   -0.322,    0.259,    0.150,   -0.590,
       -0.078,   -0.405,   -0.147,   -1.125,    1.342,   -0.049,   -0.027,
        0.077,   -0.031,   -0.034,    0.111,    0.072,    1.052,   -1.207,
       -0.078,   -0.030,   -0.116,    0.005,   -0.038,    0.364,   -0.587,
        0.073,    2.849,    0.159,    0.350,   -0.026,    0.368,    0.053,
        0.042,    0.401,   -0.041,   -2.193,    0.886,   -0.016,   -0.051,
        0.079,    0.048,   -0.017,   -0.438,    0.001,    2.784,   -0.155,
       -1.005,    0.223,    0.009,   -0.039,    0.333,    0.778,   -0.303,
       -0.839,   -0.152,   -0.464,   -0.771,    0.063,    0.270,    0.400,
       -0.197,   -0.669,   -1.455,    0.190,    0.446,    1.030,   -0.257,
        0.053,    0.409,   -0.102,   -0.290,    2.874,    0.869,   -0.219,
       -0.272,   -0.121,   -0.201,    0.083,    0.330,   -0.199,    2.669,
        0.163,    0.989,   -0.137,    0.168,   -0.063,    0.263,    0.615,
       -0.437,   -2.438,   -0.038,    0.007,   -0.021,    0.070,   -0.038,
       -0.090,   -0.181,   -1.233,   -8.074,   -7.595,  -13.026,   -2.224,
       -2.708,   -1.469,   -2.371,    2.411,   -0.574,   -0.800,    3.393,
        3.081,   -4.431
    },
    {  -2.529,    0.008,    0.020,   -0.045,   -0.009,    0.024,   -0.146,
        0.219,    1.582,    3.749,   -0.234,   -0.064,    0.099,   -0.027,
       -0.221,   -0.195,    0.037,   -1.141,    1.030,   -0.101,   -0.218,
       -0.173,   -0.058,   -0.246,   -0.015,   -0.262,    1.766,   -1.483,
        0.067,   -0.033,   -0.224,   -0.046,   -0.070,    0.273,   -0.505,
        0.042,    3.805,   -0.061,   -0.658,    0.020,   -0.334,   -1.190,
        0.508,   -0.124,    0.015,   -3.028,    0.972,   -0.112,   -0.054,
        0.004,    0.125,   -0.045,   -0.629,    0.206,    3.054,   -0.126,
       -1.166,    0.101,   -0.063,    0.087,    0.331,    0.526,   -0.363,
       -1.428,   -0.521,   -0.295,   -0.637,    0.235,    0.363,    0.257,
       -0.511,   -0.395,   -0.905,    0.074,    0.209,    0.453,    0.009,
        0.071,    0.290,   -0.186,   -0.358,    2.801,    0.909,   -0.425,
       -0.223,    0.068,   -0.225,   -0.046,    0.877,   -0.456,    2.825,
        0.191,    0.872,   -0.168,    0.101,   -0.012,    0.269,    0.586,
       -0.638,   -3.308,   -0.058,   -0.105,   -0.043,    0.013,   -0.093,
       -0.153,   -0.311,   -1.445,  -14.392,   -5.862,  -10.827,   -0.855,
       -3.377,    0.344,   -5.051,    3.005,   -0.775,   -1.725,    0.971,
        4.486,   -3.017
    },
    {  -2.747,    0.017,    0.010,   -0.055,   -0.025,    0.020,   -0.189,
        0.167,    1.724,    4.656,   -0.029,    0.025,    0.252,   -0.010,
       -0.431,   -0.398,   -0.151,   -1.362,    0.726,    0.195,    0.007,
        0.017,   -0.079,   -0.131,    0.039,   -0.214,    1.126,   -1.316,
       -0.019,   -0.070,   -0.170,    0.012,   -0.006,    0.436,   -0.557,
        0.003,    4.532,   -0.316,   -0.568,   -0.208,   -0.086,   -0.258,
        0.147,    0.093,   -0.048,   -3.312,    1.307,    0.009,   -0.043,
       -0.041,    0.060,   -0.109,   -0.592,    0.228,    3.236,   -0.041,
       -1.136,    0.277,   -0.104,    0.078,    0.309,    0.823,   -0.501,
       -0.893,   -0.489,   -0.727,   -1.143,    0.220,    0.267,    0.348,
        0.320,   -0.807,   -0.988,    0.073,    0.238,    0.768,   -0.004,
        0.025,    0.265,   -0.157,   -0.431,    2.437,    0.607,   -0.186,
       -0.160,    0.019,   -0.126,    0.051,    0.348,   -0.071,    2.750,
        0.198,    0.993,   -0.136,    0.051,   -0.034,    0.322,    0.750,
       -0.465,   -3.803,    0.014,    0.085,   -0.044,    0.087,   -0.001,
       -0.046,   -0.359,   -1.854,  -19.066,   -6.404,  -11.513,   -0.941,
       -2.962,    6.417,   -3.378,    3.016,   -0.358,   -0.876,    4.757,
        2.651,   -3.013
    },
    {  -2.631,   -0.006,    0.037,   -0.054,   -0.028,    0.019,   -0.228,
        0.193,    1.729,    5.345,   -0.262,   -0.020,    0.113,   -0.193,
       -0.459,   -0.369,    0.126,   -1.930,    0.723,    0.131,   -0.118,
       -0.227,    0.023,   -0.062,   -0.010,   -0.269,    1.275,   -1.498,
       -0.071,   -0.048,   -0.161,   -0.009,   -0.096,    0.502,   -0.542,
       -0.072,    4.233,    0.487,   -0.426,   -0.546,   -0.314,   -0.261,
       -0.246,    0.412,   -0.438,   -2.619,    0.889,   -0.056,   -0.068,
        0.016,    0.108,    0.054,   -0.573,    0.305,    3.977,   -0.098,
       -1.310,    0.362,   -0.091,    0.015,    0.331,    0.553,   -0.355,
       -1.249,   -0.357,   -0.356,   -0.895,    0.272,    0.345,    0.547,
       -0.856,    0.012,   -1.198,    0.101,    0.454,    0.761,   -0.139,
        0.052,    0.214,   -0.347,   -0.340,    3.347,    0.931,   -0.252,
       -0.205,    0.101,   -0.037,    0.107,    0.611,   -0.154,    2.467,
        0.230,    1.041,   -0.212,    0.122,    0.047,    0.284,    0.623,
       -0.463,   -3.551,   -0.009,   -0.058,   -0.038,    0.086,   -0.056,
       -0.080,   -0.354,   -1.628,  -25.634,   -5.313,  -10.328,   -0.756,
       -2.235,   11.788,   -3.096,    5.459,   -0.498,   -1.092,    3.934,
        2.109,   -3.346
    },
    {  -2.569,    0.018,    0.030,   -0.015,   -0.018,    0.001,   -0.194,
        0.159,    1.600,    4.820,   -0.484,    0.105,    0.190,   -0.186,
       -0.093,   -0.405,    0.157,   -1.459,    1.497,    0.010,   -0.074,
        0.008,    0.031,   -0.183,    0.175,   -0.137,    2.058,   -1.498,
       -0.048,    0.029,   -0.167,   -0.008,   -0.024,    0.442,   -0.578,
        0.041,    5.353,   -0.558,    0.643,   -0.808,    0.229,   -0.298,
        0.117,    0.384,   -0.654,   -3.538,    1.159,   -0.157,   -0.083,
       -0.029,    0.002,    0.040,   -0.679,    0.184,    3.962,   -0.275,
       -1.266,    0.295,   -0.081,   -0.065,    0.492,    0.576,   -0.452,
       -1.343,   -0.071,   -0.509,   -0.668,    0.248,    0.616,    0.481,
       -0.352,   -0.594,   -1.590,    0.113,    0.434,    0.795,   -0.049,
        0.104,    0.143,   -0.646,   -0.245,    3.981,    1.574,   -0.201,
       -0.155,    0.037,   -0.144,    0.064,    0.535,   -0.177,    2.783,
        0.216,    0.955,   -0.130,    0.001,    0.043,    0.135,    0.423,
       -0.307,   -2.797,    0.008,   -0.024,   -0.086,    0.025,   -0.077,
       -0.070,   -0.352,   -1.188,  -29.764,   -6.611,  -12.286,   -0.880,
       -3.213,    9.565,   -5.796,    5.579,   -0.375,   -1.027,    3.926,
        4.791,   -4.259
    },
    {  -2.755,    0.000,    0.058,   -0.042,   -0.018,    0.007,   -0.165,
        0.075,    1.736,    3.911,   -0.059,   -0.064,   -0.027,    0.020,
       -0.108,   -0.045,    0.170,   -1.868,    0.876,   -0.106,   -0.237,
       -0.258,   -0.181,   -0.262,   -0.041,   -0.513,    1.873,   -1.319,
       -0.325,    0.027,   -0.200,   -0.066,   -0.025,    0.559,   -0.732,
        0.036,    5.496,   -0.813,    0.620,    0.186,    0.511,   -0.934,
        0.063,    0.437,   -0.414,   -3.369,    0.952,   -0.037,   -0.083,
       -0.021,   -0.011,    0.079,   -0.617,    0.199,    3.650,   -0.054,
       -0.990,    0.117,   -0.146,   -0.068,    0.176,    0.633,   -0.286,
       -1.366,   -0.125,   -0.568,   -0.710,    0.471,    0.282,    0.552,
       -0.526,   -0.757,   -1.259,    0.297,    0.425,    0.787,   -0.029,
        0.089,    0.382,   -0.129,   -0.685,    3.653,    0.901,   -0.048,
       -0.738,   -0.035,   -0.265,    0.278,    0.615,   -0.438,    2.931,
        0.136,    1.041,   -0.276,    0.092,   -0.014,    0.333,    0.726,
       -0.820,   -3.604,   -0.030,   -0.068,   -0.077,    0.014,   -0.067,
       -0.162,   -0.468,   -1.461,  -35.162,   -8.231,  -11.099,   -0.773,
       -1.362,    3.491,  -13.026,   11.769,   -0.519,   -1.021,    3.235,
        2.980,   -3.423
    },
    {  -2.282,    0.001,    0.051,   -0.010,   -0.015,    0.009,   -0.119,
        0.162,    1.407,    4.527,   -0.162,    0.285,    0.297,   -0.491,
       -0.093,   -0.464,   -0.062,   -1.105,    1.209,   -0.171,   -0.168,
       -0.083,    0.005,   -0.016,    0.057,   -0.136,    1.594,   -1.148,
       -0.060,    0.063,   -0.232,   -0.027,   -0.004,    0.435,   -0.659,
        0.059,    4.626,   -0.039,    0.067,   -0.516,    0.474,   -0.515,
       -0.105,    0.350,    0.222,   -3.547,    1.095,    0.013,   -0.103,
       -0.041,   -0.014,   -0.022,   -0.508,    0.102,    4.088,    0.113,
       -1.069,    0.190,   -0.024,   -0.117,    0.285,    0.602,   -0.235,
       -1.576,   -0.246,   -0.872,   -1.208,    0.414,    0.077,    0.601,
       -0.361,   -0.761,   -1.291,    0.294,    0.371,    0.752,   -0.004,
       -0.029,    0.287,   -0.529,   -0.473,    3.044,    1.065,    0.038,
       -0.211,    0.046,   -0.118,    0.010,    0.503,   -0.325,    2.654,
        0.021,    1.109,   -0.212,    0.106,   -0.019,    0.286,    0.616,
       -0.498,   -3.822,   -0.143,    0.017,   -0.061,    0.064,   -0.017,
       -0.200,   -0.393,   -1.920,  -37.465,   -6.277,   -8.679,   -0.899,
       -1.682,    2.888,  -12.024,   16.934,   -0.585,   -1.220,    3.385,
        2.295,   -2.309
    },
    {  -2.567,    0.005,    0.042,   -0.050,   -0.022,   -0.011,   -0.173,
        0.213,    1.508,    4.641,   -0.102,    0.200,    0.365,   -0.356,
       -0.030,   -0.616,   -0.091,   -1.166,    0.994,   -0.089,   -0.206,
       -0.183,   -0.012,   -0.054,   -0.002,   -0.115,    1.416,   -1.316,
       -0.129,    0.010,   -0.159,   -0.076,   -0.033,    0.423,   -0.507,
        0.051,    4.717,    0.024,   -0.148,   -0.527,    0.141,    0.090,
       -0.031,    0.597,    0.160,   -3.395,    0.839,   -0.164,   -0.169,
        0.017,    0.075,    0.001,   -0.588,    0.215,    3.837,   -0.118,
       -0.911,    0.201,   -0.044,    0.032,    0.321,    0.653,   -0.230,
       -1.670,   -0.161,   -0.870,   -1.272,    0.742,    0.176,    0.614,
       -0.577,   -0.541,   -1.140,    0.305,    0.350,    0.742,    0.007,
        0.023,    0.266,   -0.392,   -0.467,    3.188,    1.231,   -0.132,
       -0.124,   -0.028,   -0.153,    0.150,    0.464,   -0.325,    2.514,
        0.166,    0.965,   -0.103,    0.079,   -0.062,    0.232,    0.689,
       -0.657,   -3.907,   -0.059,   -0.074,   -0.113,    0.039,   -0.025,
       -0.122,   -0.357,   -1.904,  -36.219,   -6.907,   -8.466,   -0.711,
       -2.841,   -0.337,  -11.186,   18.134,   -0.346,   -1.228,    2.956,
        2.114,   -2.506
    },
    {  -2.780,    0.003,    0.054,   -0.030,   -0.008,    0.049,   -0.154,
        0.189,    1.729,    4.004,   -0.185,   -0.069,    0.030,   -0.070,
       -0.345,   -0.179,   -0.040,   -1.455,    0.836,    0.005,   -0.153,
       -0.175,    0.028,   -0.148,    0.012,   -0.290,    1.347,   -1.591,
       -0.067,   -0.044,   -0.277,   -0.026,    0.005,    0.425,   -0.653,
        0.091,    5.413,   -0.308,    0.167,   -0.992,    0.139,   -0.031,
       -0.078,   -0.186,    0.252,   -3.877,    1.241,    0.006,   -0.062,
       -0.047,    0.055,   -0.113,   -0.448,    0.229,    3.242,    0.078,
       -0.845,    0.112,   -0.037,    0.096,    0.203,    0.306,   -0.152,
       -1.466,   -0.239,   -0.511,   -0.292,    0.223,    0.597,    0.612,
       -0.792,   -0.966,   -1.542,    0.328,    0.543,    0.901,   -0.046,
        0.110,    0.504,   -0.560,   -0.467,    3.191,    0.856,   -0.085,
       -0.278,    0.005,   -0.100,    0.069,    0.490,   -0.142,    2.770,
        0.133,    1.052,   -0.168,    0.082,    0.029,    0.254,    0.550,
       -0.564,   -3.139,    0.008,   -0.069,   -0.097,    0.102,   -0.049,
       -0.084,   -0.227,   -1.514,  -36.717,   -6.350,   -9.219,   -1.076,
       -2.816,    0.361,  -11.906,   13.216,   -0.375,   -1.054,    6.386,
        3.539,   -2.938
    },
    {  -2.605,    0.026,    0.062,   -0.046,   -0.020,    0.036,   -0.159,
        0.144,    1.559,    4.141,   -0.135,   -0.040,    0.249,   -0.119,
       -0.313,   -0.386,    0.030,   -1.203,    0.653,    0.028,   -0.122,
        0.143,   -0.089,   -0.191,    0.331,   -0.210,    1.043,   -1.658,
        0.195,    0.016,   -0.319,    0.016,    0.068,    0.576,   -0.663,
        0.019,    5.453,    0.119,    0.331,   -0.516,   -0.484,    0.418,
       -0.081,   -1.425,    0.672,   -5.126,    1.756,   -0.160,   -0.090,
        0.020,   -0.211,    0.102,   -0.621,    0.063,    3.591,   -0.043,
       -1.066,    0.125,   -0.037,    0.010,    0.267,    0.364,   -0.207,
       -1.060,   -0.256,   -0.360,   -1.140,    0.536,    0.601,    0.096,
       -0.845,   -0.481,   -1.935,    0.342,    0.625,    1.138,   -0.136,
       -0.005,    0.241,   -0.862,   -0.205,    2.559,    0.595,   -0.000,
       -0.067,   -0.005,   -0.034,   -0.081,    0.506,   -0.189,    3.129,
        0.026,    0.900,   -0.188,    0.097,   -0.063,    0.295,    0.663,
       -0.556,   -3.279,   -0.024,   -0.074,   -0.035,    0.001,   -0.048,
       -0.052,   -0.333,   -1.400,  -34.523,   -7.344,  -16.319,   -0.844,
       -2.097,    4.666,  -10.242,    8.682,   -0.436,   -0.810,    8.539,
        6.561,   -4.280
    },
    {  -2.712,    0.002,    0.062,   -0.037,   -0.031,    0.072,   -0.104,
        0.133,    1.520,    3.868,   -0.045,   -0.099,    0.110,   -0.006,
       -0.223,   -0.135,    0.009,   -1.604,    1.035,   -0.227,    0.016,
       -0.212,   -0.082,   -0.079,    0.068,   -0.268,    1.292,   -1.540,
        0.079,    0.021,   -0.387,    0.010,    0.017,    0.546,   -0.782,
        0.227,    5.904,   -0.116,   -0.097,   -0.619,    0.109,   -0.004,
        0.268,   -1.368,    0.227,   -4.632,    1.551,   -0.308,   -0.209,
        0.058,   -0.008,   -0.007,   -0.731,    0.086,    3.463,    0.036,
       -1.083,    0.190,   -0.057,    0.069,    0.274,    0.375,   -0.324,
       -1.852,   -0.284,   -1.468,   -1.202,    0.158,   -0.060,    0.952,
       -0.036,   -0.814,   -1.256,    0.379,    0.218,    0.706,    0.001,
        0.032,    0.178,   -0.555,   -0.214,    3.052,    0.855,   -0.156,
       -0.225,   -0.017,   -0.119,   -0.042,    0.585,   -0.142,    2.790,
        0.226,    1.094,   -0.195,    0.070,    0.043,    0.323,    0.704,
       -0.425,   -3.685,   -0.007,    0.089,   -0.182,    0.093,    0.030,
       -0.143,   -0.386,   -1.812,  -31.770,  -10.826,  -14.331,   -0.830,
       -1.884,    9.108,   -5.661,    7.530,   -0.394,   -1.428,    7.272,
        2.523,   -2.560
    },
    {  -2.671,   -0.036,    0.058,   -0.070,   -0.035,    0.049,   -0.212,
        0.168,    1.794,    3.874,   -0.194,    0.024,    0.218,   -0.078,
       -0.294,   -0.328,    0.163,   -1.025,    1.185,   -0.218,    0.026,
       -0.015,    0.021,   -0.210,    0.064,   -0.828,    1.413,   -1.240,
       -0.064,    0.077,   -0.128,   -0.001,    0.038,    0.389,   -0.588,
        0.089,    6.034,    0.486,   -0.271,    0.367,    0.386,   -0.487,
        0.491,   -0.048,    0.086,   -3.315,    1.177,   -0.072,   -0.092,
        0.024,    0.036,   -0.027,   -0.546,    0.224,    3.285,    0.089,
       -1.315,    0.226,   -0.101,    0.100,    0.447,    0.596,   -0.370,
       -2.004,   -0.117,   -1.770,   -1.756,    0.489,   -0.074,    0.712,
        0.371,   -0.735,   -1.223,    0.583,    0.299,    0.931,   -0.085,
        0.052,    0.308,    0.018,   -0.156,    3.729,    1.237,   -0.120,
       -0.305,    0.061,   -0.303,    0.131,    0.426,   -0.301,    2.961,
        0.238,    1.015,   -0.296,    0.067,    0.004,    0.249,    0.684,
       -0.520,   -3.515,   -0.002,    0.021,    0.031,    0.025,    0.039,
       -0.095,   -0.322,   -1.686,  -24.603,   -5.040,  -12.178,   -0.744,
       -3.146,   11.441,   -5.702,    1.867,   -0.436,   -0.730,    4.999,
        3.516,   -3.139
    },
    {  -2.592,    0.021,    0.023,   -0.026,   -0.014,    0.048,   -0.128,
        0.117,    1.383,    4.414,   -0.122,   -0.102,    0.034,   -0.027,
       -0.264,   -0.199,   -0.005,   -1.751,    1.282,    0.069,   -0.085,
        0.028,    0.065,   -0.096,   -0.045,   -0.127,    1.208,   -1.068,
       -0.164,   -0.021,   -0.167,    0.013,    0.008,    0.390,   -0.399,
       -0.131,    6.556,   -0.308,   -0.371,    0.906,   -0.213,   -0.264,
        0.730,   -0.427,    0.734,   -2.768,    1.189,   -0.229,   -0.316,
       -0.024,    0.083,    0.140,   -1.028,    0.099,    4.448,   -0.302,
       -1.532,    0.319,   -0.156,    0.053,    0.417,    0.939,   -0.430,
       -0.723,    0.399,   -0.520,   -0.513,    0.824,   -0.675,    0.230,
        0.137,   -0.024,   -1.663,    0.304,    0.592,    0.866,   -0.066,
        0.124,    0.230,   -0.559,   -0.157,    4.187,    1.296,   -0.363,
       -0.145,    0.050,   -0.223,    0.147,    0.876,   -0.299,    3.060,
        0.319,    1.174,   -0.271,    0.119,   -0.043,    0.354,    0.866,
       -0.676,   -3.299,   -0.110,   -0.015,    0.013,    0.002,    0.011,
       -0.107,   -0.230,   -1.649,  -19.770,  -11.924,  -14.680,   -1.317,
       -2.919,    8.319,   -1.243,    3.016,   -0.119,   -1.062,    3.627,
        2.588,   -3.392
    },
    {  -2.847,    0.017,    0.043,   -0.078,   -0.022,    0.023,   -0.206,
        0.230,    1.709,    5.360,   -0.198,   -0.187,    0.130,   -0.017,
       -0.322,   -0.321,   -0.037,   -1.984,    1.261,   -0.177,   -0.088,
       -0.069,    0.061,    0.036,    0.275,   -0.108,    1.072,   -1.132,
       -0.012,   -0.039,   -0.200,   -0.035,    0.001,    0.532,   -0.593,
        0.072,    8.005,   -0.733,    1.114,    1.030,    0.093,   -0.592,
        0.805,    0.628,    0.617,   -3.184,    1.108,   -0.107,    0.030,
       -0.071,    0.043,   -0.020,   -0.443,    0.045,    3.912,   -0.197,
       -1.392,    0.194,   -0.113,    0.137,    0.372,    0.789,   -0.555,
       -0.700,    0.614,    0.125,   -0.320,    0.221,   -0.548,   -0.260,
        0.029,   -0.193,   -1.583,    0.189,    0.510,    1.034,   -0.061,
        0.009,    0.130,   -0.332,   -0.145,    3.676,    1.111,   -0.276,
       -0.183,    0.054,   -0.177,    0.084,    0.632,   -0.377,    2.374,
        0.323,    1.073,   -0.086,   -0.019,    0.026,    0.424,    0.672,
       -0.588,   -2.902,   -0.039,    0.034,   -0.021,    0.043,   -0.025,
       -0.070,   -0.289,   -1.324,  -15.162,   -6.713,  -13.800,   -1.159,
       -2.144,    1.483,   -5.656,    4.632,   -0.007,   -0.779,    5.039,
        1.642,   -4.122
    },
    {  -2.981,   -0.012,    0.043,   -0.123,   -0.007,    0.027,   -0.138,
        0.153,    1.852,    5.288,   -0.094,    0.009,    0.275,   -0.307,
       -0.328,   -0.299,    0.204,   -2.000,    0.499,    0.086,   -0.349,
       -0.100,    0.056,   -0.260,    0.164,   -0.173,    0.981,   -1.155,
       -0.175,    0.044,   -0.205,    0.021,    0.073,    0.347,   -0.494,
       -0.125,    6.974,   -0.435,   -0.150,    1.741,   -0.001,   -0.116,
        0.609,    0.258,    0.899,   -3.374,    0.981,   -0.093,   -0.077,
        0.017,    0.045,    0.157,   -0.811,    0.160,    3.134,   -0.258,
       -1.078,    0.141,    0.007,    0.108,    0.374,    0.530,   -0.322,
       -1.668,   -0.562,   -0.731,    0.081,   -0.714,    0.663,    0.388,
        0.161,    0.657,   -1.507,    0.194,    0.653,    1.018,   -0.281,
        0.139,    0.346,   -0.078,   -0.075,    3.106,    0.880,   -0.648,
       -0.533,   -0.142,   -0.471,    0.165,    1.053,   -0.645,    2.715,
        0.126,    0.899,   -0.155,    0.017,   -0.027,    0.268,    0.631,
       -0.650,   -3.905,   -0.112,   -0.072,    0.038,    0.091,   -0.005,
       -0.111,   -0.486,   -1.760,  -16.401,   -6.367,  -11.449,   -0.819,
       -2.621,    2.536,   -6.895,    3.150,    0.085,   -0.821,    0.472,
        4.819,   -2.918
    },
    {  -2.685,    0.007,   -0.013,   -0.061,   -0.039,    0.022,   -0.209,
        0.187,    1.598,    5.149,   -0.309,    0.339,    0.130,   -0.212,
       -0.203,   -0.457,   -0.083,   -1.537,    1.404,   -0.143,   -0.035,
        0.036,    0.043,   -0.080,    0.171,   -0.176,    1.091,   -1.394,
        0.002,   -0.010,   -0.204,    0.000,   -0.028,    0.329,   -0.344,
       -0.053,    6.359,   -0.036,    0.773,    1.303,    0.180,   -0.014,
        0.745,   -0.768,    1.596,   -2.846,    1.481,   -0.192,   -0.062,
        0.071,    0.062,   -0.042,   -1.128,    0.145,    3.967,   -0.082,
       -1.585,    0.299,   -0.107,    0.214,    0.465,    1.039,   -0.777,
       -1.653,   -0.483,    0.104,    0.430,   -0.829,    0.984,   -1.099,
       -0.159,   -1.593,   -1.519,    0.310,    0.780,    1.005,   -0.192,
        0.046,    0.248,   -0.122,   -0.113,    2.772,    0.540,   -0.138,
       -0.240,   -0.064,   -0.122,    0.028,    0.519,   -0.406,    2.454,
        0.101,    0.700,   -0.193,    0.034,   -0.021,    0.153,    0.544,
       -0.338,   -3.396,   -0.049,    0.115,   -0.021,    0.040,    0.037,
       -0.123,   -0.369,   -1.681,  -18.356,   -7.154,   -9.865,   -1.717,
       -5.178,    1.095,   -0.988,    1.886,   -0.181,   -0.693,    5.996,
        5.750,   -3.430
    },
    {  -2.841,   -0.003,    0.018,   -0.048,    0.007,    0.024,   -0.209,
        0.127,    1.774,    5.082,   -0.223,   -0.103,    0.167,   -0.147,
       -0.202,   -0.057,    0.042,   -1.957,    0.865,    0.079,   -0.258,
       -0.127,    0.122,   -0.106,    0.067,   -0.166,    1.524,   -1.164,
       -0.129,   -0.063,   -0.302,   -0.030,    0.019,    0.455,   -0.596,
       -0.091,    6.610,   -0.498,    0.142,    1.499,    0.095,    0.067,
        0.644,   -0.723,    0.484,   -3.279,    1.146,   -0.096,   -0.110,
       -0.025,    0.084,    0.106,   -0.573,    0.203,    4.372,   -0.155,
       -1.448,    0.268,   -0.058,    0.174,    0.383,    0.762,   -0.567,
       -1.828,    0.658,   -0.665,   -0.425,   -0.106,   -0.024,   -0.941,
       -0.526,   -0.288,   -1.537,    0.280,    0.470,    0.872,   -0.087,
        0.055,    0.230,   -0.505,   -0.427,    2.815,    1.030,   -0.305,
       -0.261,    0.058,   -0.212,    0.129,    0.453,   -0.271,    3.107,
        0.128,    1.210,   -0.234,    0.033,    0.062,    0.256,    0.868,
       -0.442,   -3.358,   -0.014,   -0.039,   -0.091,    0.093,   -0.020,
       -0.174,   -0.451,   -1.419,  -11.924,   -7.218,  -17.515,   -0.807,
       -2.166,    2.337,   -4.954,    6.712,    0.162,   -1.060,    2.078,
        2.566,   -3.294
    },
    {  -2.640,    0.016,    0.040,   -0.034,   -0.036,    0.032,   -0.205,
        0.183,    1.515,    5.216,   -0.373,    0.038,    0.019,   -0.150,
       -0.440,   -0.319,    0.054,   -1.620,    1.100,   -0.149,   -0.106,
       -0.027,    0.025,   -0.101,    0.107,   -0.168,    0.860,   -1.259,
       -0.035,   -0.033,   -0.206,   -0.009,   -0.002,    0.462,   -0.427,
       -0.025,    5.034,   -0.314,    0.082,    0.871,    0.322,   -0.086,
        0.500,    0.017,    0.375,   -3.062,    1.492,   -0.327,   -0.208,
       -0.087,    0.211,   -0.029,   -0.920,    0.203,    4.394,   -0.196,
       -1.250,    0.271,   -0.084,    0.152,    0.259,    0.976,   -0.421,
       -2.130,    0.145,   -0.906,   -0.073,   -0.327,   -0.072,    0.268,
       -0.244,    0.149,   -1.738,    0.507,    0.485,    0.911,   -0.023,
        0.047,    0.227,   -0.619,   -0.184,    2.825,    1.075,   -0.283,
       -0.210,    0.034,   -0.304,    0.129,    0.957,   -0.455,    2.422,
        0.153,    1.012,   -0.120,    0.074,    0.024,    0.164,    0.570,
       -0.338,   -3.469,   -0.024,    0.078,   -0.048,    0.057,    0.036,
       -0.129,   -0.309,   -1.708,   -9.465,   -8.084,  -17.051,   -1.223,
       -3.042,    3.326,   -1.033,    6.788,    0.736,   -0.918,    1.437,
        2.913,   -3.025
    },
    {  -2.818,   -0.029,    0.008,   -0.028,   -0.038,    0.010,   -0.227,
        0.183,    1.717,    5.629,   -0.097,    0.110,    0.232,   -0.226,
       -0.352,   -0.522,    0.143,   -1.909,    0.983,   -0.135,   -0.015,
       -0.050,    0.057,    0.083,    0.349,   -0.289,    1.145,   -1.823,
        0.057,   -0.081,   -0.242,    0.018,   -0.042,    0.429,   -0.568,
        0.010,    4.208,   -0.289,    0.357,    1.200,    0.207,   -0.226,
        0.532,   -0.265,    0.100,   -3.333,    1.385,   -0.113,    0.058,
        0.053,    0.020,    0.014,   -0.566,    0.209,    2.919,   -0.061,
       -1.135,    0.094,   -0.110,    0.006,    0.250,    0.427,   -0.308,
       -4.138,    0.343,   -0.691,   -0.196,    0.261,   -0.185,    0.446,
        0.264,    0.173,   -1.504,    0.080,    0.410,    1.023,   -0.291,
       -0.026,    0.163,   -0.622,   -0.052,    2.326,    1.078,   -0.031,
        0.136,   -0.027,   -0.054,   -0.112,    0.681,   -0.576,    2.657,
        0.150,    0.872,   -0.160,    0.049,   -0.039,    0.278,    0.661,
       -0.400,   -3.145,   -0.033,    0.011,   -0.012,    0.098,    0.013,
       -0.032,   -0.362,   -1.321,   -8.869,   -6.387,  -12.343,   -1.017,
       -4.722,    1.312,   -2.718,    2.810,    3.892,   -0.700,    0.897,
        3.270,   -5.095
    },
    {  -2.466,   -0.006,    0.009,   -0.035,   -0.003,    0.032,   -0.140,
        0.210,    1.325,    5.413,   -0.156,   -0.048,    0.452,   -0.195,
       -0.109,   -0.652,   -0.129,   -1.613,    1.289,   -0.415,   -0.151,
        0.045,   -0.017,    0.049,    0.264,    0.234,    1.710,   -1.177,
       -0.053,   -0.034,   -0.285,    0.039,   -0.001,    0.382,   -0.490,
       -0.006,    4.424,    0.006,   -0.209,    0.806,    0.197,   -0.191,
        0.710,   -0.544,    0.146,   -3.290,    1.292,   -0.101,    0.037,
       -0.019,    0.027,    0.025,   -0.591,    0.174,    3.719,   -0.086,
       -1.388,    0.267,   -0.087,    0.087,    0.494,    0.702,   -0.513,
       -5.322,    0.625,   -0.698,    0.470,    0.031,   -0.480,    0.959,
        0.366,    0.041,   -1.188,    0.243,    0.354,    0.713,   -0.018,
       -0.034,    0.246,   -0.572,   -0.376,    3.777,    1.458,   -0.282,
       -0.289,    0.091,   -0.279,   -0.065,    0.660,   -0.349,    2.945,
        0.187,    1.210,   -0.213,    0.090,    0.025,    0.311,    0.650,
       -0.502,   -3.973,   -0.075,    0.000,   -0.162,    0.054,    0.018,
       -0.117,   -0.499,   -1.774,   -7.866,   -8.168,  -11.283,   -0.560,
       -3.020,    1.662,   -3.829,    2.670,    5.522,   -1.003,    1.775,
        2.823,   -2.710
    },
    {  -2.957,   -0.038,    0.056,   -0.022,   -0.024,    0.042,   -0.208,
        0.177,    1.890,    5.055,   -0.156,   -0.130,    0.137,    0.056,
       -0.324,   -0.207,    0.079,   -2.035,    1.136,   -0.040,   -0.006,
        0.004,    0.107,    0.042,    0.165,   -0.142,    0.866,   -1.403,
       -0.089,   -0.018,   -0.212,   -0.012,   -0.054,    0.378,   -0.538,
        0.036,    4.961,    0.197,    0.342,    1.298,    0.659,    0.075,
        0.808,   -0.895,    0.492,   -2.699,    1.085,   -0.072,    0.019,
       -0.056,    0.119,    0.130,   -0.538,    0.030,    4.041,   -0.353,
       -1.201,    0.267,   -0.185,    0.145,    0.429,    0.580,   -0.561,
       -5.759,    0.959,   -0.367,    0.791,   -0.287,   -0.080,    0.940,
        0.184,   -0.430,   -1.914,    0.253,    0.609,    1.538,   -0.268,
       -0.035,    0.301,   -0.551,    0.113,    3.465,    1.009,   -0.597,
       -0.318,    0.068,   -0.400,    0.110,    0.970,   -0.205,    2.670,
        0.229,    0.840,   -0.112,    0.027,   -0.074,    0.220,    0.571,
       -0.396,   -3.444,   -0.023,    0.079,   -0.022,    0.066,   -0.012,
       -0.099,   -0.387,   -1.611,  -10.587,   -6.355,  -13.657,   -1.225,
       -3.567,    0.417,   -2.614,    7.107,    3.256,   -0.542,    1.387,
        5.187,   -3.567
    },
    {  -2.592,   -0.003,    0.017,   -0.058,   -0.029,    0.009,   -0.174,
        0.164,    1.536,    5.640,   -0.259,    0.042,    0.320,   -0.050,
       -0.200,   -0.389,   -0.141,   -1.784,    0.961,   -0.114,   -0.140,
       -0.134,   -0.075,   -0.105,   -0.023,   -0.233,    1.130,   -1.401,
        0.029,    0.014,   -0.242,    0.036,   -0.013,    0.482,   -0.427,
       -0.029,    5.001,    0.457,    0.537,   -0.272,   -0.860,    0.050,
        0.297,   -1.355,    0.002,   -2.749,    1.480,   -0.312,   -0.192,
        0.027,    0.215,   -0.220,   -0.771,    0.246,    4.030,   -0.244,
       -1.295,    0.404,   -0.196,    0.001,    0.369,    0.716,   -0.324,
       -4.687,    0.031,   -0.772,    0.480,    0.455,    0.216,    1.188,
        0.263,    0.423,   -1.311,    0.356,    0.356,    0.766,    0.006,
        0.043,    0.273,   -0.325,   -0.420,    2.331,    0.646,   -0.255,
       -0.242,   -0.017,   -0.073,    0.008,    0.460,   -0.060,    2.598,
        0.200,    0.813,   -0.087,    0.052,   -0.015,    0.057,    0.587,
       -0.397,   -2.902,   -0.028,   -0.016,   -0.090,    0.035,    0.006,
       -0.091,   -0.212,   -1.334,  -12.899,   -6.989,  -10.955,   -1.385,
       -3.469,    1.947,   -0.664,    3.720,    2.477,   -1.232,    3.257,
        4.615,   -3.997
    },
    {  -2.605,   -0.012,    0.003,   -0.047,   -0.022,    0.020,   -0.176,
        0.194,    1.536,    5.801,   -0.537,    0.005,    0.372,   -0.219,
       -0.363,   -0.515,    0.060,   -1.703,    1.496,   -0.034,    0.075,
        0.193,    0.107,    0.006,    0.157,   -0.290,    1.024,   -1.322,
       -0.008,   -0.084,   -0.240,   -0.003,   -0.022,    0.376,   -0.461,
       -0.011,    4.595,    0.408,   -0.009,    0.592,   -0.222,    0.330,
        0.497,   -0.529,    0.506,   -3.442,    1.126,   -0.081,    0.024,
       -0.007,    0.066,   -0.083,   -0.551,    0.270,    2.778,   -0.088,
       -0.940,    0.154,   -0.094,    0.032,    0.257,    0.585,   -0.454,
       -4.787,    0.247,   -0.567,   -0.654,    0.447,   -0.221,   -0.315,
        0.051,    0.877,   -1.748,    0.321,    0.588,    1.132,   -0.191,
       -0.021,    0.380,   -0.572,    0.329,    2.537,    0.821,   -0.198,
       -0.292,    0.064,   -0.179,   -0.070,    0.554,   -0.291,    2.714,
        0.158,    1.039,   -0.091,   -0.001,   -0.022,    0.364,    0.539,
       -0.531,   -3.485,   -0.023,    0.005,   -0.068,    0.010,   -0.009,
       -0.142,   -0.353,   -1.665,  -14.778,   -6.679,   -9.903,   -1.317,
       -4.066,    2.374,   -8.050,    2.909,    4.868,   -0.632,    2.259,
        2.707,   -3.575
    },
    {  -2.911,   -0.013,    0.053,   -0.022,   -0.037,    0.018,   -0.205,
        0.170,    1.715,    4.704,   -0.091,   -0.099,    0.079,    0.041,
       -0.262,   -0.287,   -0.036,   -1.815,    1.345,   -0.207,   -0.230,
       -0.040,   -0.009,   -0.108,    0.056,   -0.441,    1.415,   -1.536,
       -0.101,    0.106,   -0.187,    0.019,    0.018,    0.358,   -0.402,
        0.009,    4.573,   -0.085,    0.630,    0.680,    0.178,   -0.128,
        0.418,    0.192,    0.114,   -2.794,    0.708,   -0.127,   -0.132,
        0.038,    0.093,    0.137,   -0.483,    0.021,    3.568,   -0.279,
       -1.402,    0.087,   -0.112,   -0.046,    0.463,    0.835,   -0.719,
       -5.346,    0.308,    0.037,    0.130,   -0.037,    0.198,    0.217,
        0.326,    0.920,   -1.809,    0.550,    0.487,    0.810,   -0.088,
       -0.023,    0.331,   -0.228,   -0.523,    3.546,    0.925,   -0.186,
       -0.742,   -0.010,   -0.156,    0.131,    0.856,   -0.511,    2.287,
        0.121,    0.721,   -0.065,    0.011,   -0.020,    0.018,    0.608,
       -0.349,   -3.274,   -0.084,    0.044,   -0.096,    0.050,    0.043,
       -0.108,   -0.304,   -1.586,  -10.394,   -8.598,  -13.038,   -1.070,
       -4.573,    3.816,   -6.992,    1.841,   10.226,   -0.912,    2.703,
        4.031,   -3.360
    },
    {  -2.469,    0.018,    0.015,   -0.043,   -0.018,    0.022,   -0.145,
        0.204,    1.403,    4.884,   -0.393,    0.082,    0.295,   -0.247,
       -0.163,   -0.418,   -0.159,   -1.172,    0.977,    0.035,   -0.352,
       -0.260,   -0.059,   -0.290,    0.431,    0.202,    1.119,   -1.115,
       -0.141,    0.010,   -0.153,    0.015,    0.065,    0.421,   -0.702,
        0.060,    4.185,    0.512,   -0.202,    0.725,   -0.110,    0.093,
        0.534,    0.185,   -0.060,   -2.399,    1.161,   -0.109,   -0.090,
       -0.044,   -0.056,    0.034,   -0.677,    0.192,    3.766,   -0.219,
       -1.347,    0.231,   -0.059,    0.035,    0.442,    0.615,   -0.424,
       -5.268,   -0.137,   -0.157,   -0.051,   -0.411,   -0.031,    0.085,
        0.812,   -0.549,   -2.046,    0.285,    0.488,    1.317,    0.027,
        0.043,    0.169,   -0.374,   -0.279,    2.918,    1.016,   -0.315,
       -0.315,    0.098,   -0.074,    0.159,    0.365,   -0.309,    3.071,
        0.136,    1.039,   -0.114,    0.073,    0.017,    0.188,    0.581,
       -0.471,   -3.971,   -0.020,   -0.072,   -0.046,    0.055,    0.002,
       -0.100,   -0.581,   -1.661,   -3.519,   -7.268,  -15.797,   -0.440,
       -2.469,    4.605,   -1.337,    3.934,    8.902,   -0.809,    1.778,
        5.427,   -3.365
    },
    {  -2.959,    0.034,    0.037,   -0.092,   -0.031,    0.041,   -0.153,
        0.124,    1.797,    4.333,   -0.175,   -0.031,    0.093,    0.012,
       -0.165,   -0.096,    0.032,   -1.826,    0.473,    0.017,   -0.112,
       -0.110,    0.113,   -0.098,    0.104,    0.065,    0.473,   -1.248,
       -0.091,    0.015,   -0.138,   -0.038,    0.045,    0.338,   -0.586,
       -0.086,    4.342,    0.531,    0.128,   -0.477,    0.205,    0.064,
       -0.302,    0.619,   -0.323,   -2.748,    1.206,   -0.187,   -0.002,
        0.072,    0.127,   -0.004,   -0.910,    0.364,    3.081,   -0.326,
       -1.102,    0.155,   -0.091,    0.032,    0.352,    0.660,   -0.315,
       -4.361,   -0.179,   -0.378,   -0.380,   -0.222,   -0.418,    0.052,
        0.016,    0.348,   -1.446,    0.148,    0.332,    1.004,   -0.283,
        0.006,    0.198,   -0.212,   -0.155,    3.259,    1.037,   -0.393,
       -0.378,   -0.056,   -0.294,    0.192,    0.677,   -0.452,    3.173,
        0.383,    0.970,   -0.082,    0.045,    0.018,    0.206,    0.520,
       -0.494,   -4.080,   -0.054,   -0.058,   -0.050,    0.039,    0.019,
       -0.143,   -0.428,   -1.745,    1.473,   -8.942,  -18.188,   -1.113,
       -3.185,   -2.102,   -1.491,    2.328,    6.670,   -0.901,    1.788,
        6.142,   -3.606
    },
    {  -2.623,    0.008,    0.041,   -0.039,    0.002,    0.020,   -0.187,
        0.170,    1.590,    4.214,   -0.208,    0.096,    0.129,   -0.113,
       -0.200,   -0.342,   -0.058,   -1.141,    0.959,   -0.120,   -0.296,
       -0.064,    0.142,   -0.114,    0.139,   -0.040,    1.079,   -1.431,
        0.012,   -0.022,   -0.266,    0.003,    0.015,    0.451,   -0.519,
        0.039,    4.431,   -0.872,   -0.031,    0.044,    0.414,   -0.160,
       -0.402,    0.574,   -0.427,   -2.492,    0.953,    0.072,   -0.131,
        0.017,    0.048,   -0.067,   -0.565,    0.096,    3.062,    0.074,
       -1.074,    0.068,   -0.086,    0.045,    0.103,    0.476,   -0.069,
       -4.175,    0.036,   -0.303,    0.164,    0.049,    0.082,    0.002,
       -0.010,    0.613,   -1.256,    0.081,    0.282,    0.917,   -0.259,
        0.047,    0.278,   -0.523,   -0.212,    3.081,    1.054,   -0.328,
       -0.135,   -0.062,   -0.204,   -0.052,    0.631,   -0.087,    2.344,
        0.180,    0.754,   -0.064,    0.021,    0.017,    0.146,    0.468,
       -0.429,   -3.002,   -0.059,   -0.035,   -0.044,    0.041,    0.006,
       -0.102,   -0.401,   -1.254,    9.578,   -7.194,  -23.145,   -0.854,
       -3.226,   -5.461,   -2.705,    3.769,    5.290,   -0.880,    1.938,
        4.050,   -3.659
    },
    {  -2.464,    0.029,    0.010,   -0.043,    0.004,    0.033,   -0.127,
        0.164,    1.381,    4.317,   -0.132,    0.031,    0.024,   -0.222,
       -0.223,   -0.237,    0.011,   -1.321,    1.110,    0.031,   -0.132,
       -0.051,   -0.014,   -0.076,    0.121,   -0.096,    1.311,   -1.197,
       -0.058,    0.005,   -0.126,    0.020,    0.023,    0.346,   -0.450,
       -0.050,    4.766,   -0.500,    0.071,    0.310,    0.600,   -0.051,
       -0.063,    1.038,   -0.430,   -3.220,    1.040,   -0.121,   -0.232,
       -0.128,    0.034,   -0.033,   -0.603,    0.227,    3.047,   -0.105,
       -0.969,    0.027,   -0.037,    0.042,    0.288,    0.596,   -0.224,
       -4.046,    0.852,    0.141,    0.235,   -0.247,   -0.277,   -0.171,
        0.188,    0.099,   -1.586,    0.398,    0.323,    0.851,   -0.034,
        0.011,    0.187,   -0.450,   -0.201,    2.829,    1.098,   -0.430,
       -0.232,    0.094,   -0.125,    0.136,    0.470,   -0.390,    2.425,
        0.248,    0.864,   -0.003,    0.090,   -0.042,    0.272,    0.705,
       -0.684,   -2.591,   -0.032,   -0.037,   -0.041,    0.037,    0.005,
       -0.042,   -0.126,   -0.991,   10.074,   -8.232,  -28.377,   -1.319,
       -3.655,   -9.154,   -4.687,    4.179,    3.094,   -0.899,    1.573,
        2.297,   -8.642
    },
    {  -2.504,    0.019,    0.011,   -0.052,   -0.021,    0.009,   -0.185,
        0.131,    1.559,    4.576,   -0.309,    0.028,    0.085,   -0.051,
       -0.188,   -0.292,   -0.085,   -1.398,    1.118,    0.078,   -0.039,
        0.039,   -0.042,   -0.071,    0.143,   -0.076,    1.461,   -1.225,
       -0.091,   -0.044,   -0.190,   -0.018,   -0.017,    0.431,   -0.514,
       -0.106,    4.144,    0.131,    0.104,   -0.036,    0.838,   -0.302,
        0.007,    0.671,    0.283,   -2.743,    0.949,    0.040,   -0.158,
        0.037,   -0.006,    0.017,   -0.430,    0.129,    3.022,   -0.167,
       -1.044,    0.026,   -0.042,   -0.012,    0.295,    0.869,   -0.361,
       -3.946,    0.207,    0.524,    0.475,   -0.154,   -0.033,    0.485,
       -0.043,   -0.674,   -1.804,    0.162,    0.340,    1.293,   -0.207,
        0.023,    0.276,   -0.547,   -0.298,    2.059,    0.789,   -0.519,
        0.041,    0.022,   -0.407,    0.034,    0.484,   -0.146,    2.620,
        0.310,    0.983,   -0.139,   -0.056,   -0.073,    0.245,    0.722,
       -0.620,   -2.587,   -0.040,   -0.063,   -0.060,    0.028,    0.021,
       -0.068,   -0.210,   -1.070,    9.202,   -7.196,  -21.475,   -0.935,
       -2.783,   -6.924,   -4.791,    2.256,    3.597,   -0.798,    0.783,
        2.315,   -5.113
    },
    {  -2.716,   -0.003,    0.014,   -0.021,   -0.018,    0.039,   -0.167,
        0.183,    1.680,    5.065,   -0.236,   -0.072,    0.135,   -0.067,
       -0.455,   -0.172,    0.061,   -1.729,    0.795,    0.011,   -0.079,
       -0.083,   -0.105,   -0.032,    0.151,    0.065,    0.903,   -1.385,
       -0.041,   -0.052,   -0.189,    0.028,    0.009,    0.279,   -0.451,
       -0.007,    3.883,    0.144,    0.170,   -0.083,    0.928,   -0.253,
        0.084,    0.539,    0.216,   -3.324,    1.187,   -0.147,   -0.069,
        0.010,    0.006,    0.048,   -0.511,    0.172,    2.918,   -0.270,
       -1.020,    0.118,   -0.157,   -0.055,    0.292,    0.527,   -0.253,
       -4.091,    0.286,    0.278,   -0.017,    0.009,    0.097,    0.213,
       -0.252,    0.239,   -1.317,    0.177,    0.314,    0.836,   -0.048,
        0.037,    0.286,   -0.630,   -0.274,    2.766,    1.033,   -0.280,
       -0.137,    0.019,    0.052,    0.006,    0.477,   -0.081,    2.698,
        0.298,    1.126,   -0.085,    0.189,   -0.105,    0.370,    0.794,
       -0.525,   -3.006,   -0.023,   -0.035,   -0.042,   -0.014,    0.008,
       -0.076,   -0.225,   -1.306,    4.895,   -6.111,  -13.144,   -1.164,
       -4.718,   -8.836,   -4.267,    2.575,    7.001,   -0.968,    2.287,
        1.742,   -4.638
    },
    {  -2.699,    0.035,    0.044,   -0.017,   -0.028,    0.039,   -0.144,
        0.162,    1.609,    4.038,   -0.227,    0.038,    0.028,   -0.052,
       -0.204,   -0.177,   -0.006,   -1.493,    1.156,   -0.152,    0.005,
       -0.050,    0.137,   -0.017,    0.128,   -0.000,    1.134,   -1.315,
       -0.124,   -0.098,   -0.319,   -0.010,   -0.001,    0.468,   -0.563,
       -0.004,    4.680,    0.108,    0.044,   -0.230,    1.285,    0.004,
        0.111,    0.765,    0.231,   -2.746,    1.278,   -0.253,   -0.445,
       -0.065,    0.226,    0.096,   -0.781,    0.141,    3.769,   -0.083,
       -1.086,    0.226,    0.040,    0.102,    0.267,    0.670,   -0.349,
       -4.298,    0.214,   -0.260,    0.404,   -0.194,    0.117,   -0.067,
        0.332,   -0.005,   -1.529,    0.439,    0.310,    0.764,   -0.061,
       -0.049,    0.222,   -0.803,   -0.208,    3.416,    1.012,   -0.369,
       -0.339,    0.031,   -0.140,   -0.061,    0.721,   -0.045,    2.728,
        0.152,    1.134,   -0.214,    0.083,   -0.032,    0.352,    0.776,
       -0.655,   -3.362,   -0.051,   -0.030,   -0.066,    0.001,   -0.015,
       -0.135,   -0.361,   -1.707,    1.951,   -8.115,  -13.352,   -1.040,
       -2.316,   -5.667,   -0.916,    8.372,    9.005,   -1.134,    3.321,
        2.287,   -2.691
    },
    {  -2.660,   -0.010,    0.035,   -0.060,   -0.021,    0.019,   -0.137,
        0.156,    1.578,    3.997,   -0.157,    0.003,    0.120,   -0.046,
       -0.125,   -0.274,   -0.075,   -1.404,    1.672,   -0.198,   -0.024,
       -0.043,    0.245,    0.063,    0.376,   -0.473,    1.289,   -1.419,
       -0.091,    0.003,   -0.201,    0.010,   -0.017,    0.503,   -0.579,
        0.086,    4.596,    0.244,    0.484,   -0.056,    0.961,   -0.703,
        0.265,    0.810,    0.439,   -2.680,    1.015,   -0.039,   -0.080,
       -0.018,    0.044,    0.065,   -0.510,    0.233,    3.998,   -0.219,
       -1.136,    0.345,   -0.070,    0.120,    0.354,    0.748,   -0.268,
       -4.677,   -0.185,    0.739,    0.246,    0.006,   -0.026,    0.588,
        0.362,   -0.443,   -1.900,    0.279,    0.450,    1.365,   -0.235,
        0.043,    0.167,   -0.547,   -0.037,    3.203,    0.807,   -0.133,
       -0.277,    0.008,   -0.120,    0.160,    0.851,   -0.345,    2.900,
        0.114,    1.116,   -0.044,    0.091,   -0.149,    0.233,    0.679,
       -0.460,   -2.963,    0.000,   -0.034,   -0.047,   -0.041,   -0.011,
       -0.075,   -0.194,   -1.274,    2.731,   -8.498,  -17.172,   -0.959,
       -2.938,   -1.427,   -2.827,    7.562,   15.464,   -0.715,    3.313,
        3.224,   -5.377
    },
    {  -2.472,   -0.009,    0.022,   -0.051,   -0.000,    0.030,   -0.170,
        0.153,    1.461,    4.404,   -0.192,   -0.066,    0.167,   -0.063,
       -0.189,   -0.323,   -0.053,   -1.394,    1.178,   -0.261,   -0.167,
       -0.027,    0.033,   -0.092,   -0.015,   -0.106,    1.857,   -1.194,
       -0.109,    0.020,   -0.160,   -0.003,    0.019,    0.369,   -0.410,
       -0.175,    4.929,    0.075,    0.135,   -0.316,    0.735,   -0.449,
       -0.617,    0.613,    1.149,   -2.389,    0.669,   -0.108,   -0.249,
        0.007,    0.013,    0.055,   -0.565,    0.222,    4.106,   -0.096,
       -1.431,    0.128,   -0.097,   -0.078,    0.352,    0.689,   -0.368,
       -4.776,   -0.146,   -0.331,    0.382,   -0.189,   -0.099,    0.043,
        0.370,   -0.728,   -1.536,    0.389,    0.318,    0.835,   -0.054,
        0.012,    0.219,   -0.277,   -0.273,    2.837,    0.736,   -0.090,
       -0.215,    0.070,    0.001,    0.001,    0.471,   -0.354,    2.289,
        0.119,    1.082,   -0.192,    0.135,    0.012,    0.229,    0.636,
       -0.414,   -3.307,   -0.098,   -0.006,   -0.038,    0.037,   -0.006,
       -0.121,   -0.261,   -1.325,    6.551,   -7.497,  -14.667,   -0.626,
       -3.323,   -1.501,   -5.061,    5.827,   22.475,   -1.145,    6.226,
        1.519,   -4.649
    },
    {  -2.724,    0.027,   -0.002,   -0.069,   -0.020,    0.016,   -0.140,
        0.128,    1.591,    4.249,   -0.219,    0.033,    0.157,   -0.037,
       -0.042,   -0.139,    0.018,   -1.687,    1.037,   -0.127,   -0.083,
       -0.261,    0.028,    0.026,   -0.040,   -0.071,    1.221,   -1.347,
       -0.112,   -0.044,   -0.267,    0.015,    0.013,    0.376,   -0.529,
       -0.091,    5.536,    0.839,    0.463,    0.388,    0.992,   -0.517,
       -0.563,   -0.014,    0.305,   -2.943,    0.955,   -0.156,   -0.183,
        0.022,    0.040,    0.148,   -0.654,    0.149,    4.574,   -0.256,
       -1.566,    0.299,   -0.279,    0.041,    0.465,    0.654,   -0.582,
       -4.504,   -0.080,   -0.206,    0.393,   -0.054,    0.219,    0.248,
        0.206,   -0.265,   -1.072,    0.241,    0.225,    0.633,   -0.044,
       -0.029,    0.233,   -0.303,   -0.336,    2.840,    0.537,   -0.360,
       -0.167,    0.079,   -0.073,    0.036,    0.324,   -0.172,    2.969,
        0.183,    0.836,   -0.082,   -0.007,    0.032,    0.243,    0.519,
       -0.374,   -3.649,   -0.033,    0.010,   -0.085,    0.048,   -0.015,
       -0.143,   -0.360,   -1.621,    7.456,   -9.757,  -17.311,   -1.135,
       -3.083,   -1.163,   -3.481,    5.908,   31.353,   -1.713,    8.922,
        9.584,   -3.522
    },
    {  -2.651,    0.010,    0.027,   -0.042,   -0.027,    0.040,   -0.157,
        0.195,    1.395,    4.398,   -0.124,   -0.080,    0.070,    0.012,
       -0.232,   -0.027,   -0.101,   -1.597,    0.864,   -0.166,   -0.308,
       -0.217,   -0.041,   -0.227,    0.270,   -0.235,    1.086,   -1.237,
        0.008,   -0.038,   -0.201,    0.031,   -0.000,    0.328,   -0.551,
        0.074,    6.794,    0.868,    0.786,   -0.017,    1.202,   -0.567,
        0.276,   -0.234,    0.329,   -3.166,    1.481,   -0.027,   -0.089,
        0.031,    0.065,   -0.106,   -0.623,    0.136,    4.837,   -0.051,
       -1.760,    0.245,   -0.058,    0.023,    0.358,    0.649,   -0.485,
       -4.292,    0.159,    0.032,    0.155,    0.040,   -0.044,    0.576,
       -0.151,    0.287,   -1.404,    0.207,    0.470,    0.757,    0.009,
        0.063,    0.330,   -0.334,   -0.231,    2.894,    0.789,   -0.069,
       -0.093,    0.035,   -0.042,    0.020,    0.457,   -0.125,    3.454,
        0.134,    1.021,   -0.197,    0.063,   -0.058,    0.247,    0.509,
       -0.385,   -3.934,   -0.074,    0.042,   -0.119,    0.040,    0.017,
       -0.178,   -0.521,   -1.693,   10.979,  -11.243,  -22.620,   -0.564,
       -3.406,   -5.318,   -1.718,    7.431,   27.820,   -1.081,    7.858,
       12.020,   -2.982
    },
    {  -2.537,    0.029,    0.048,   -0.029,   -0.041,    0.062,   -0.115,
        0.187,    1.442,    4.294,   -0.118,   -0.044,    0.108,    0.041,
       -0.257,   -0.274,   -0.162,   -1.310,    1.450,    0.048,    0.066,
        0.027,    0.063,   -0.014,    0.119,    0.069,    1.216,   -1.562,
       -0.111,   -0.030,   -0.125,    0.012,    0.003,    0.242,   -0.317,
       -0.023,    7.452,    0.822,    0.456,   -0.390,    0.814,   -0.865,
        0.310,    0.190,    0.375,   -2.705,    1.118,   -0.179,   -0.259,
        0.029,    0.044,   -0.012,   -0.620,    0.151,    4.462,   -0.214,
       -1.424,    0.172,   -0.069,    0.107,    0.360,    0.679,   -0.480,
       -4.584,    0.507,   -0.236,   -0.144,    0.199,    0.149,   -0.104,
       -0.608,    0.358,   -1.600,    0.514,    0.478,    0.961,   -0.096,
       -0.097,    0.262,   -0.830,   -0.286,    3.181,    1.121,   -0.430,
       -0.448,    0.081,   -0.261,    0.245,    0.633,   -0.554,    2.966,
        0.128,    0.912,   -0.141,    0.038,   -0.031,    0.234,    0.543,
       -0.360,   -3.520,   -0.131,    0.037,   -0.066,    0.034,    0.048,
       -0.176,   -0.330,   -1.790,   13.199,   -8.718,  -24.958,   -0.987,
      -10.191,   -6.294,   -2.046,   10.279,   21.304,   -0.725,    0.998,
        7.441,   -2.630
    },
    {  -2.689,    0.014,    0.032,   -0.061,   -0.026,    0.007,   -0.179,
        0.225,    1.524,    4.751,   -0.359,    0.157,    0.114,   -0.002,
       -0.106,   -0.339,   -0.070,   -1.365,    1.218,   -0.280,   -0.128,
       -0.049,    0.176,   -0.133,    0.380,   -0.159,    0.920,   -1.724,
       -0.031,   -0.028,   -0.137,   -0.007,    0.018,    0.245,   -0.311,
        0.019,    6.667,    0.621,    0.460,   -0.293,    0.644,   -0.651,
       -0.174,    0.329,   -0.190,   -2.726,    1.168,   -0.127,   -0.028,
        0.000,    0.052,   -0.011,   -0.507,    0.186,    4.116,   -0.022,
       -1.308,    0.223,   -0.126,    0.148,    0.408,    0.748,   -0.575,
       -4.944,    0.271,   -0.106,    0.400,    0.474,    0.046,   -0.557,
       -0.600,    0.267,   -1.565,    0.197,    0.629,    1.024,   -0.223,
        0.070,    0.176,   -0.368,   -0.146,    3.565,    1.145,   -0.137,
       -0.212,    0.021,   -0.231,   -0.050,    0.829,   -0.599,    2.484,
        0.178,    0.812,   -0.164,    0.006,    0.041,    0.266,    0.482,
       -0.336,   -3.469,    0.001,    0.099,   -0.090,    0.084,    0.054,
       -0.168,   -0.420,   -1.610,    7.764,   -7.701,  -24.493,   -0.968,
      -12.977,   -7.606,   -2.766,    7.286,   14.067,   -0.874,    2.683,
        4.493,   -3.198
    },
    {  -2.598,    0.007,    0.001,   -0.030,   -0.012,    0.029,   -0.131,
        0.205,    1.387,    5.172,   -0.153,   -0.009,    0.199,   -0.082,
       -0.181,   -0.387,   -0.248,   -1.544,    0.570,   -0.109,   -0.142,
        0.013,    0.022,   -0.018,    0.331,    0.059,    0.919,   -1.840,
       -0.102,   -0.005,   -0.172,   -0.016,    0.008,    0.284,   -0.422,
       -0.045,    6.168,    0.251,    0.440,   -0.260,    0.101,    0.183,
       -0.670,    0.338,    0.007,   -2.289,    0.566,   -0.076,   -0.110,
        0.027,    0.033,    0.046,   -0.466,    0.111,    2.919,   -0.197,
       -0.980,    0.192,   -0.029,   -0.009,    0.407,    0.413,   -0.462,
       -5.228,   -0.205,   -0.295,   -0.233,    1.074,   -0.314,   -0.160,
       -0.658,    0.052,   -1.858,    0.477,    0.356,    1.246,   -0.172,
       -0.095,    0.425,   -0.421,   -0.507,    2.668,    0.475,   -0.303,
       -0.299,   -0.037,   -0.035,    0.074,    0.448,   -0.228,    2.612,
        0.209,    0.984,   -0.130,   -0.012,   -0.004,    0.306,    0.685,
       -0.469,   -3.533,   -0.086,    0.029,   -0.043,    0.056,   -0.014,
       -0.135,   -0.346,   -1.515,   -0.679,   -8.905,  -22.044,   -0.685,
      -10.431,   -6.611,   -6.780,    3.235,   11.483,   -0.711,    7.569,
        2.903,   -3.357
    },
    {  -2.590,    0.021,    0.012,   -0.031,   -0.003,    0.031,   -0.188,
        0.196,    1.289,    5.228,   -0.172,   -0.174,    0.056,   -0.019,
       -0.335,    0.002,   -0.155,   -2.025,    1.012,   -0.085,   -0.220,
        0.104,    0.269,   -0.030,    0.314,    0.427,    0.884,   -1.080,
       -0.132,   -0.104,   -0.330,    0.017,    0.010,    0.406,   -0.536,
       -0.068,    6.090,   -0.100,    0.430,    0.193,   -0.421,    0.277,
       -0.005,   -0.556,   -0.067,   -2.495,    0.741,   -0.112,   -0.197,
       -0.000,    0.032,    0.001,   -0.376,    0.085,    2.797,   -0.094,
       -0.965,    0.241,    0.023,    0.049,    0.252,    0.613,   -0.184,
       -5.087,    0.684,   -0.450,   -0.131,    0.658,   -0.120,   -0.152,
        0.464,    0.387,   -1.307,    0.431,    0.436,    0.634,   -0.068,
       -0.017,    0.261,   -0.454,   -0.221,    2.533,    0.412,   -0.128,
       -0.160,    0.065,   -0.004,    0.015,    0.344,   -0.213,    2.933,
        0.072,    0.936,   -0.202,    0.067,   -0.095,    0.313,    0.557,
       -0.327,   -3.703,   -0.081,   -0.009,   -0.078,    0.014,    0.008,
       -0.212,   -0.365,   -1.679,   -7.452,  -12.602,  -15.179,   -0.765,
       -2.328,   -7.337,   -4.667,    2.706,   12.706,   -1.236,   14.440,
        5.479,   -2.754
    },
    {  -2.538,   -0.010,    0.026,   -0.050,    0.002,   -0.002,   -0.150,
        0.177,    1.489,    4.357,   -0.247,    0.097,    0.108,   -0.197,
       -0.085,   -0.380,   -0.015,   -1.414,    0.973,   -0.139,   -0.087,
       -0.048,    0.072,   -0.076,    0.019,   -0.066,    1.105,   -1.336,
       -0.074,   -0.051,   -0.126,    0.017,    0.002,    0.259,   -0.366,
       -0.057,    6.934,   -0.156,   -0.223,   -0.232,   -0.779,   -0.307,
       -0.186,   -0.435,    0.142,   -2.818,    1.164,   -0.154,   -0.171,
        0.004,    0.098,    0.099,   -0.558,    0.130,    2.953,   -0.070,
       -1.054,    0.198,    0.091,   -0.057,    0.193,    0.610,   -0.299,
       -5.224,   -0.166,   -0.055,   -0.740,    0.237,   -0.857,    0.440,
        0.165,    0.280,   -1.404,    0.363,    0.331,    0.904,   -0.054,
       -0.057,    0.212,   -0.279,   -0.358,    3.439,    0.764,   -0.088,
       -0.375,    0.074,   -0.133,    0.093,    0.457,   -0.283,    2.428,
        0.128,    0.951,   -0.040,    0.152,   -0.054,    0.289,    0.545,
       -0.568,   -3.792,   -0.084,   -0.022,   -0.117,    0.078,   -0.016,
       -0.228,   -0.420,   -1.811,   -9.351,   -7.908,  -13.856,   -0.881,
       -6.543,   -3.694,   -2.513,    3.398,    5.575,   -0.934,   10.326,
        1.938,   -2.469
    },
    {  -2.460,    0.002,    0.037,   -0.025,   -0.008,    0.011,   -0.138,
        0.218,    1.459,    4.132,   -0.130,   -0.012,    0.064,   -0.151,
       -0.209,   -0.398,    0.019,   -1.289,    0.984,   -0.053,   -0.111,
        0.088,    0.046,   -0.172,    0.000,    0.009,    1.187,   -1.051,
       -0.112,   -0.039,   -0.229,   -0.008,    0.047,    0.341,   -0.448,
       -0.067,    7.162,    0.292,   -0.675,   -0.575,   -0.442,    0.376,
        0.192,    0.784,    0.633,   -3.771,    1.764,   -0.402,   -0.241,
       -0.030,    0.154,    0.025,   -0.811,    0.262,    3.390,   -0.225,
       -1.294,    0.195,    0.000,   -0.080,    0.403,    0.645,   -0.377,
       -7.011,    0.125,   -0.351,   -0.079,    0.506,    1.158,    0.004,
       -0.117,   -1.009,   -1.191,    0.315,    0.247,    0.609,   -0.065,
       -0.042,    0.265,   -0.421,   -0.157,    3.464,    0.990,   -0.228,
       -0.354,    0.071,   -0.213,    0.153,    0.516,   -0.198,    3.106,
        0.183,    1.117,   -0.153,    0.057,    0.007,    0.367,    0.669,
       -0.536,   -2.882,   -0.022,   -0.000,   -0.025,    0.078,   -0.047,
       -0.100,   -0.201,   -1.314,   -9.661,   -6.734,  -11.182,   -1.072,
       -3.377,   -5.196,   -1.489,    2.953,   -1.077,   -1.275,    5.138,
        3.668,   -4.014
    },
    {  -2.812,    0.005,    0.054,   -0.024,   -0.027,    0.024,   -0.140,
        0.166,    1.787,    4.848,   -0.216,   -0.030,    0.102,   -0.080,
       -0.261,   -0.420,   -0.011,   -1.697,    1.048,   -0.089,   -0.366,
       -0.243,   -0.052,   -0.057,   -0.095,   -0.526,    2.061,   -1.215,
       -0.042,   -0.044,   -0.288,    0.025,   -0.018,    0.389,   -0.474,
       -0.112,    7.186,   -0.704,    0.464,    0.707,   -0.104,    0.724,
       -0.198,    0.195,    0.245,   -3.622,    1.460,   -0.069,   -0.132,
        0.006,    0.101,   -0.175,   -0.884,    0.440,    3.396,   -0.142,
       -1.149,    0.119,   -0.084,   -0.066,    0.344,    0.586,   -0.269,
       -7.769,    0.640,   -0.050,    0.161,   -0.115,    0.038,   -0.162,
        0.469,    0.139,   -1.450,    0.263,    0.496,    0.818,    0.015,
       -0.006,    0.382,   -0.458,   -0.468,    3.208,    1.241,   -0.173,
       -0.233,    0.042,   -0.146,   -0.131,    0.874,   -0.317,    2.187,
        0.164,    0.847,   -0.204,    0.068,   -0.039,    0.217,    0.640,
       -0.689,   -3.439,   -0.065,   -0.110,   -0.040,    0.047,    0.006,
       -0.091,   -0.332,   -1.429,  -11.558,   -6.326,  -12.646,   -0.781,
       -2.586,   -4.931,   -2.265,    3.737,   -8.300,   -1.096,    1.160,
        1.932,   -4.557
    },
    {  -2.359,   -0.004,    0.035,   -0.000,   -0.012,    0.001,   -0.202,
        0.210,    1.460,    5.162,   -0.228,    0.246,    0.123,   -0.205,
       -0.070,   -0.402,   -0.268,   -1.433,    1.026,    0.168,   -0.192,
       -0.049,   -0.062,   -0.162,    0.191,    0.127,    1.429,   -1.118,
       -0.132,   -0.081,   -0.222,    0.041,    0.016,    0.346,   -0.435,
       -0.052,    6.338,   -1.273,   -0.159,   -0.826,    0.363,   -0.780,
       -1.402,   -0.203,   -0.198,   -2.772,    1.305,   -0.106,   -0.204,
       -0.073,    0.107,    0.153,   -0.988,    0.370,    3.546,   -0.070,
       -1.312,    0.306,   -0.055,    0.017,    0.422,    0.494,   -0.433,
       -7.319,    0.097,    0.457,   -0.242,   -0.888,   -1.255,   -0.005,
       -1.444,    0.219,   -1.519,    0.361,    0.540,    0.935,   -0.036,
        0.043,    0.336,   -0.824,   -0.133,    3.230,    0.861,   -0.230,
       -0.388,    0.071,   -0.149,    0.180,    0.636,   -0.261,    2.975,
        0.256,    1.309,   -0.114,    0.059,    0.015,    0.341,    0.569,
       -0.576,   -3.843,   -0.007,   -0.046,   -0.090,    0.058,   -0.001,
       -0.153,   -0.383,   -1.729,  -11.238,   -5.911,  -10.589,   -0.505,
       -3.190,   -0.514,   -1.324,    3.540,   -0.840,   -0.925,    4.516,
        2.103,   -3.073
    },
    {  -2.606,    0.000,    0.043,   -0.035,   -0.010,   -0.001,   -0.140,
        0.192,    1.514,    5.799,   -0.588,   -0.106,    0.068,   -0.150,
       -0.395,   -0.133,    0.035,   -2.173,    1.090,   -0.256,    0.052,
       -0.273,    0.228,    0.030,    0.344,   -0.201,    0.770,   -1.517,
       -0.054,   -0.062,   -0.208,    0.002,   -0.011,    0.411,   -0.641,
        0.065,    5.188,    0.626,    0.163,    0.656,    0.269,   -0.059,
        0.257,   -0.178,    0.396,   -2.821,    1.003,   -0.064,   -0.046,
       -0.030,   -0.001,   -0.071,   -0.454,    0.240,    3.535,   -0.101,
       -1.104,    0.150,   -0.049,    0.057,    0.224,    0.707,   -0.383,
       -6.620,   -0.557,   -0.251,    1.418,    0.209,    0.957,    0.180,
       -0.059,   -0.316,   -2.079,    0.507,    0.263,    1.395,   -0.100,
        0.014,    0.187,   -0.824,   -0.183,    2.953,    1.179,   -0.212,
       -0.267,    0.041,   -0.184,    0.095,    0.402,   -0.302,    2.724,
        0.192,    0.981,   -0.110,    0.140,   -0.024,    0.283,    0.421,
       -0.341,   -4.555,   -0.004,    0.099,   -0.098,    0.057,    0.018,
       -0.141,   -0.557,   -2.218,   -9.410,   -6.953,   -9.328,   -0.772,
       -3.607,   -1.936,   -4.414,    5.645,    6.188,   -0.813,    1.946,
        3.829,   -2.547
    },
    {  -2.728,   -0.007,    0.039,   -0.033,   -0.024,    0.041,   -0.161,
        0.164,    1.547,    5.653,   -0.160,   -0.097,    0.128,   -0.119,
       -0.344,   -0.436,   -0.007,   -2.067,    1.670,   -0.216,   -0.065,
       -0.011,    0.238,    0.010,    0.212,   -0.865,    1.911,   -1.376,
       -0.034,   -0.028,   -0.225,    0.004,    0.015,    0.373,   -0.526,
        0.146,    4.730,   -0.014,   -0.248,    0.383,   -0.049,    0.857,
       -0.196,   -0.213,   -0.481,   -4.397,    1.707,   -0.031,   -0.115,
       -0.015,   -0.022,    0.088,   -0.619,    0.129,    3.434,   -0.119,
       -1.164,    0.175,    0.012,    0.035,    0.316,    0.445,   -0.358,
       -6.906,   -0.590,   -0.198,    0.828,   -0.595,    1.100,    0.332,
       -0.188,   -0.473,   -1.454,    0.354,    0.326,    0.918,   -0.049,
        0.001,    0.181,   -0.559,   -0.134,    3.290,    1.273,   -0.193,
       -0.259,    0.030,   -0.041,    0.064,    0.433,   -0.223,    2.626,
        0.139,    1.014,   -0.079,    0.063,    0.040,    0.228,    0.569,
       -0.230,   -3.683,   -0.020,    0.109,   -0.137,    0.015,   -0.013,
       -0.071,   -0.380,   -1.846,   -8.173,   -8.688,  -12.908,   -0.730,
       -3.721,    0.938,   -4.638,    4.413,    7.694,   -0.952,    2.727,
        3.046,   -2.698
    },
    {  -2.768,   -0.036,    0.013,   -0.058,   -0.026,   -0.011,   -0.200,
        0.181,    1.523,    6.688,   -0.473,    0.007,    0.204,   -0.223,
       -0.430,   -0.508,    0.044,   -2.193,    2.251,   -0.405,   -0.131,
       -0.084,    0.609,   -0.198,    0.811,   -0.540,    1.772,   -1.251,
       -0.002,   -0.025,   -0.215,    0.002,    0.003,    0.391,   -0.499,
        0.074,    4.878,   -0.269,    0.392,   -0.066,   -0.391,   -0.754,
        0.455,   -0.726,   -0.622,   -3.692,    1.381,   -0.020,   -0.088,
       -0.054,   -0.014,   -0.059,   -0.395,    0.152,    4.085,   -0.086,
       -1.472,    0.205,   -0.086,    0.098,    0.388,    0.753,   -0.377,
       -5.429,   -1.077,   -0.049,    0.232,   -1.027,    0.090,    0.291,
        0.568,   -0.672,   -1.634,    0.295,    0.537,    1.184,   -0.110,
        0.011,    0.118,   -0.788,    0.334,    3.286,    1.461,   -0.242,
       -0.115,    0.003,   -0.223,   -0.035,    0.634,   -0.192,    2.644,
        0.220,    1.208,   -0.162,   -0.008,   -0.041,    0.303,    0.705,
       -0.520,   -4.162,   -0.027,    0.006,   -0.063,   -0.008,    0.030,
       -0.080,   -0.455,   -2.066,   -5.628,   -9.600,  -14.613,   -0.481,
       -3.172,    0.134,   -6.196,    3.530,    6.312,   -0.689,    1.471,
        1.904,   -2.632
    },
    {  -2.618,   -0.007,    0.047,   -0.021,   -0.022,    0.002,   -0.207,
        0.206,    1.625,    7.677,   -0.533,   -0.050,    0.163,   -0.215,
       -0.675,   -0.563,    0.212,   -2.483,    1.266,   -0.219,    0.156,
       -0.001,    0.196,   -0.104,    0.249,   -0.510,    1.192,   -1.277,
       -0.064,   -0.040,   -0.209,   -0.020,    0.005,    0.358,   -0.480,
        0.058,    4.581,    0.762,   -0.417,    0.272,   -0.010,    0.174,
        0.351,   -0.659,    0.569,   -2.560,    1.497,   -0.327,   -0.279,
       -0.036,    0.154,   -0.041,   -0.827,    0.155,    4.172,   -0.390,
       -1.678,    0.240,    0.009,   -0.009,    0.505,    0.890,   -0.758,
       -5.654,    1.208,    0.019,    0.735,   -0.304,   -0.167,   -0.002,
        0.501,   -0.617,   -1.673,    0.424,    0.503,    1.207,   -0.018,
       -0.012,    0.231,   -0.603,   -0.277,    3.284,    1.307,   -0.197,
       -0.231,   -0.028,   -0.178,    0.016,    0.631,   -0.390,    2.556,
        0.244,    1.206,   -0.201,    0.076,    0.023,    0.313,    0.592,
       -0.357,   -4.618,   -0.078,    0.066,   -0.050,    0.020,    0.031,
       -0.148,   -0.533,   -2.401,   -6.876,   -5.662,  -12.890,   -0.819,
       -3.382,    3.980,   -0.788,    2.262,   -0.015,   -0.674,    2.227,
        1.658,   -2.113
    },
    {  -2.590,   -0.015,    0.054,   -0.012,   -0.002,   -0.009,   -0.215,
        0.246,    1.523,    6.755,   -0.564,   -0.119,    0.296,   -0.586,
       -0.224,   -0.234,   -0.031,   -1.955,    0.401,   -0.009,   -0.574,
        0.033,    0.139,   -0.111,    0.380,    0.232,    0.580,   -1.426,
        0.037,    0.026,   -0.262,    0.002,   -0.014,    0.312,   -0.400,
        0.001,    4.317,   -0.101,    0.679,    0.003,   -0.360,   -1.601,
       -0.125,   -0.042,   -0.687,   -2.922,    1.283,   -0.081,   -0.235,
        0.133,    0.314,    0.102,   -1.045,    0.287,    2.550,   -0.039,
       -0.660,    0.168,   -0.030,    0.101,    0.309,    0.484,   -0.393,
       -5.064,   -0.733,    0.061,   -0.230,   -0.189,    0.072,    0.254,
       -0.187,    1.214,   -1.589,    0.337,    0.495,    0.942,   -0.186,
        0.050,    0.211,   -0.692,   -0.104,    1.896,    0.875,   -0.101,
       -0.118,   -0.026,   -0.152,   -0.084,    0.615,   -0.054,    2.804,
        0.072,    0.900,   -0.077,    0.068,    0.034,    0.232,    0.500,
       -0.390,   -4.500,   -0.056,    0.027,   -0.115,    0.163,    0.034,
       -0.180,   -0.591,   -2.075,  -12.409,   -6.368,  -11.783,   -0.641,
       -4.619,    0.577,   -0.691,    5.000,    1.552,   -1.076,    1.363,
        6.710,   -2.270
    },
    {  -2.603,    0.044,    0.029,   -0.015,    0.026,   -0.019,   -0.120,
        0.228,    1.566,    4.868,   -0.497,    0.001,    0.433,   -0.081,
       -0.005,   -0.346,   -0.154,   -1.471,    1.122,   -0.051,   -0.037,
        0.004,    0.176,   -0.072,    0.077,   -0.131,    0.891,   -1.139,
       -0.039,   -0.052,   -0.171,   -0.022,    0.009,    0.337,   -0.454,
       -0.023,    2.272,    0.016,   -0.048,    0.483,    0.235,    0.000,
        0.240,   -0.171,   -0.097,   -2.865,    1.135,   -0.115,   -0.130,
        0.003,    0.113,    0.063,   -0.663,    0.248,    3.784,   -0.077,
       -1.464,    0.266,   -0.094,    0.038,    0.418,    0.848,   -0.434,
       -4.267,   -0.140,    0.030,    0.344,    0.350,   -0.313,    0.217,
        0.095,   -0.544,   -1.532,    0.238,    0.429,    0.939,   -0.191,
       -0.084,    0.115,   -0.459,   -0.194,    3.141,    1.237,   -0.209,
       -0.244,   -0.133,   -0.246,   -0.045,    0.747,   -0.392,    2.763,
        0.188,    0.966,   -0.170,    0.067,   -0.053,    0.258,    0.588,
       -0.436,   -3.334,   -0.076,    0.016,   -0.023,   -0.004,    0.031,
       -0.110,   -0.265,   -1.532,  -14.517,   -6.236,   -8.079,   -1.358,
       -3.596,    2.864,   -2.363,    1.892,    0.391,   -0.947,    1.572,
        3.420,   -3.901
    },
    {  -2.718,    0.035,    0.012,   -0.063,    0.032,    0.004,   -0.134,
        0.159,    1.641,    3.263,   -0.175,    0.135,    0.054,   -0.065,
       -0.074,   -0.239,    0.011,   -1.184,    0.966,   -0.187,   -0.079,
       -0.123,    0.225,    0.028,    0.186,   -0.071,    0.591,   -1.529,
        0.035,   -0.082,   -0.094,    0.002,   -0.026,    0.388,   -0.463,
       -0.023,    1.986,    0.025,    0.457,    1.127,    0.368,   -0.279,
        0.098,   -0.680,   -0.929,   -2.950,    0.929,    0.071,   -0.052,
       -0.049,    0.029,   -0.065,   -0.588,    0.118,    3.345,   -0.069,
       -0.969,    0.194,   -0.021,    0.026,    0.295,    0.785,   -0.318,
       -4.395,    0.714,    0.082,   -0.081,    0.304,    0.068,   -0.101,
       -0.160,    0.376,   -1.529,    0.137,    0.423,    1.069,   -0.274,
        0.040,    0.030,   -0.270,    0.110,    2.213,    0.827,   -0.181,
       -0.059,    0.026,   -0.139,   -0.071,    0.551,   -0.288,    3.278,
        0.137,    1.356,   -0.209,    0.041,   -0.052,    0.414,    0.814,
       -0.722,   -4.513,   -0.054,   -0.029,   -0.065,    0.049,   -0.011,
       -0.129,   -0.358,   -2.293,  -19.102,   -7.443,  -10.212,   -0.902,
       -5.594,    0.294,   -4.422,    5.674,   -1.377,   -0.845,    1.515,
        2.707,   -2.571
    },
    {  -2.829,   -0.003,    0.073,   -0.084,   -0.022,    0.093,   -0.150,
        0.176,    1.805,    3.716,   -0.172,   -0.057,    0.133,    0.006,
       -0.332,   -0.223,    0.041,   -1.292,    0.551,   -0.153,   -0.085,
        0.018,    0.026,   -0.117,    0.237,   -0.082,    0.897,   -1.078,
       -0.090,   -0.017,   -0.100,    0.039,    0.008,    0.367,   -0.658,
       -0.060,    1.696,   -0.827,   -0.422,    1.353,    0.435,   -0.616,
       -0.109,   -0.044,   -0.303,   -3.031,    1.033,    0.039,   -0.016,
        0.025,    0.002,   -0.076,   -0.452,    0.137,    4.464,   -0.040,
       -1.306,    0.121,   -0.070,    0.318,    0.389,    0.624,   -0.493,
       -5.220,   -0.003,    0.579,   -0.308,    0.949,    0.775,    0.267,
        0.671,   -1.085,   -2.071,    0.353,    0.844,    1.499,   -0.331,
       -0.047,    0.294,   -0.321,    0.248,    3.152,    0.813,   -0.501,
       -0.355,    0.007,   -0.391,    0.129,    0.506,   -0.159,    2.466,
        0.161,    0.850,   -0.050,    0.050,   -0.006,    0.228,    0.397,
       -0.567,   -4.281,   -0.077,    0.009,    0.000,    0.048,    0.004,
       -0.213,   -0.473,   -2.017,  -18.998,   -6.394,  -12.612,   -0.667,
       -2.712,    0.254,   -5.937,    8.785,   -1.249,   -0.591,    1.816,
        4.239,   -2.512
    },
    {  -2.987,   -0.018,    0.010,   -0.048,   -0.007,    0.090,   -0.213,
        0.172,    1.834,    4.793,   -0.121,   -0.138,    0.051,   -0.021,
       -0.448,   -0.127,   -0.004,   -2.059,    0.732,   -0.091,   -0.386,
        0.039,    0.010,   -0.156,    0.078,   -0.221,    1.064,   -1.035,
       -0.174,   -0.040,   -0.145,    0.032,    0.032,    0.367,   -0.502,
       -0.014,    2.349,   -0.855,   -1.142,    1.466,    0.032,    0.069,
        0.422,   -0.471,    0.479,   -2.292,    0.926,   -0.093,    0.045,
       -0.000,    0.044,    0.154,   -0.731,    0.195,    4.741,   -0.322,
       -1.439,    0.213,    0.034,   -0.063,    0.385,    1.113,   -0.426,
       -6.055,   -0.796,   -0.278,    0.166,   -0.487,   -0.703,    0.092,
       -0.203,    0.175,   -1.443,    0.198,    0.904,    1.113,   -0.101,
        0.048,    0.165,    0.057,   -0.281,    3.029,    0.976,   -0.996,
       -0.039,    0.020,   -0.306,    0.585,    0.833,   -0.538,    4.148,
        0.437,    1.658,   -0.221,    0.005,    0.072,    0.560,    0.864,
       -0.991,   -3.124,   -0.033,   -0.043,   -0.054,    0.030,    0.016,
       -0.082,   -0.322,   -1.309,  -13.072,   -7.774,   -9.930,   -1.066,
       -2.891,    0.467,   -2.153,    4.748,    0.364,   -0.755,    0.634,
        2.672,   -4.585
    },
    {  -2.831,    0.007,    0.026,   -0.051,   -0.016,    0.026,   -0.216,
        0.178,    1.798,    5.203,   -0.248,   -0.125,    0.145,   -0.017,
       -0.329,   -0.211,    0.025,   -2.096,    1.015,   -0.250,   -0.072,
       -0.054,    0.047,   -0.123,    0.066,   -0.272,    0.734,   -1.415,
        0.032,   -0.029,   -0.188,   -0.005,    0.023,    0.399,   -0.519,
        0.019,    1.765,   -0.122,   -0.163,    0.326,    0.122,   -0.110,
       -0.474,    0.249,    0.054,   -2.931,    1.644,   -0.253,   -0.247,
        0.094,    0.153,   -0.141,   -0.684,   -0.037,    2.943,   -0.560,
       -1.067,    0.152,    0.054,   -0.010,    0.516,    0.917,   -0.371,
       -6.514,    0.279,   -0.371,    0.166,   -0.207,    0.407,   -0.510,
        0.264,   -0.334,   -1.826,    0.552,    0.533,    1.136,   -0.132,
       -0.064,    0.296,   -0.356,   -0.050,    3.062,    0.995,   -0.737,
       -0.369,   -0.092,   -0.306,   -0.009,    1.092,   -0.276,    2.391,
        0.208,    0.696,   -0.129,   -0.001,   -0.046,    0.131,    0.479,
       -0.216,   -3.602,    0.015,    0.095,   -0.061,    0.010,    0.027,
       -0.034,   -0.110,   -1.883,   -9.581,   -6.244,   -8.510,   -1.553,
       -3.329,    0.609,   -0.649,    1.004,    0.856,   -0.766,    1.001,
        5.661,   -3.180
    },
    {  -2.698,   -0.008,   -0.014,   -0.055,    0.022,    0.020,   -0.194,
        0.213,    1.494,    5.210,   -0.453,    0.151,    0.114,   -0.558,
       -0.059,   -0.182,   -0.043,   -1.433,    1.473,   -0.225,   -0.271,
       -0.087,    0.174,   -0.114,    0.048,   -0.361,    1.505,   -1.342,
       -0.029,   -0.052,   -0.163,    0.023,    0.018,    0.329,   -0.473,
        0.020,    2.484,    1.154,   -0.591,    0.430,    0.248,    0.156,
       -0.044,    0.363,   -0.556,   -3.365,    1.552,   -0.090,   -0.080,
       -0.016,   -0.010,   -0.013,   -0.559,    0.226,    3.931,   -0.269,
       -1.458,    0.135,   -0.061,   -0.035,    0.455,    0.807,   -0.533,
       -5.608,   -0.278,   -0.330,    0.413,    0.325,    1.295,    0.260,
        0.241,   -0.775,   -1.356,    0.372,    0.482,    0.864,   -0.134,
       -0.016,    0.157,   -0.330,   -0.081,    3.326,    1.025,   -0.283,
       -0.323,   -0.021,   -0.205,    0.069,    0.552,   -0.365,    3.377,
        0.237,    1.094,   -0.127,    0.030,   -0.002,    0.279,    0.456,
       -0.436,   -4.032,   -0.053,    0.032,   -0.079,    0.039,    0.002,
       -0.105,   -0.445,   -1.882,  -11.939,   -8.232,  -16.843,   -0.596,
       -4.725,    0.480,   -2.050,    3.274,    3.261,   -0.871,    3.033,
        9.150,   -3.302
    },
    {  -2.493,   -0.010,    0.019,   -0.008,   -0.026,    0.037,   -0.163,
        0.181,    1.435,    5.629,   -0.245,   -0.029,    0.171,   -0.061,
       -0.453,   -0.455,   -0.094,   -1.664,    1.087,   -0.051,   -0.170,
       -0.174,    0.006,   -0.118,   -0.042,    0.099,    1.294,   -1.304,
       -0.102,   -0.076,   -0.229,    0.008,    0.051,    0.267,   -0.394,
       -0.100,    2.875,   -0.480,   -0.465,    0.714,    0.367,    0.713,
       -0.649,   -0.308,   -1.201,   -3.199,    1.406,   -0.140,   -0.045,
       -0.029,    0.052,   -0.074,   -0.689,    0.282,    3.539,   -0.041,
       -1.306,    0.379,   -0.115,   -0.055,    0.455,    0.624,   -0.329,
       -5.398,   -1.254,   -0.096,   -0.897,   -0.140,    0.578,    0.346,
       -0.707,   -0.480,   -1.002,    0.193,    0.243,    0.503,    0.003,
       -0.032,    0.215,   -0.426,   -0.302,    3.325,    0.920,   -0.329,
       -0.247,    0.097,   -0.048,   -0.023,    0.448,   -0.436,    3.003,
        0.260,    0.878,   -0.167,    0.015,   -0.051,    0.317,    0.559,
       -0.522,   -3.884,   -0.055,   -0.022,   -0.072,    0.060,    0.019,
       -0.158,   -0.316,   -1.929,  -11.615,   -7.093,  -14.115,   -1.063,
       -4.630,    0.262,   -2.061,    2.493,    1.950,   -1.701,    4.003,
        6.494,   -2.642
    },
    {  -2.979,   -0.062,    0.019,   -0.067,   -0.041,    0.048,   -0.136,
        0.145,    1.746,    5.648,   -0.053,   -0.143,    0.154,    0.036,
       -0.401,   -0.449,   -0.101,   -2.248,    0.880,   -0.112,   -0.301,
       -0.013,   -0.008,    0.021,    0.205,   -0.031,    0.970,   -1.249,
       -0.031,    0.028,   -0.180,    0.042,   -0.015,    0.408,   -0.511,
       -0.107,    2.298,   -0.958,   -0.054,    1.318,   -1.044,    0.156,
        0.347,   -0.856,   -0.616,   -2.891,    1.230,   -0.150,   -0.098,
       -0.011,   -0.021,    0.141,   -0.878,    0.057,    3.654,   -0.145,
       -1.546,    0.280,   -0.065,    0.043,    0.469,    0.865,   -0.541,
       -5.329,   -0.025,   -1.065,   -0.840,    1.261,   -0.160,    0.522,
        0.189,   -0.742,   -1.772,    0.491,    0.687,    1.258,   -0.333,
        0.118,    0.104,   -0.516,    0.357,    2.771,    0.785,   -0.112,
       -0.179,    0.072,   -0.035,    0.082,    0.445,   -0.078,    2.768,
        0.253,    1.243,   -0.083,    0.027,    0.046,    0.298,    0.735,
       -0.708,   -3.096,    0.008,   -0.012,    0.003,    0.062,   -0.000,
       -0.122,   -0.302,   -1.283,   -9.913,   -8.143,  -10.693,   -0.878,
       -3.141,    0.226,   -1.172,    1.755,    1.707,   -0.755,    4.141,
        1.860,   -4.106
    },
    {  -2.715,   -0.034,    0.044,   -0.078,   -0.031,   -0.004,   -0.094,
        0.195,    1.725,    5.290,   -0.493,    0.109,    0.142,   -0.165,
       -0.107,   -0.368,    0.100,   -1.934,    1.058,   -0.370,   -0.069,
        0.200,   -0.013,    0.019,    0.341,   -0.472,    1.337,   -1.052,
        0.003,   -0.038,   -0.182,    0.016,   -0.026,    0.369,   -0.491,
