//-----------------------------------------------------------------------------
// Network: bnn_2e2mu_8TeV_new_pt
// Inputs:
//                                                  Offset       Scale
//    angle_costhetastar                        -1.448e-02   5.926e-01
//    angle_costheta1                            3.152e-03   5.546e-01
//    angle_costheta2                           -3.185e-03   5.126e-01
//    angle_phi                                 -2.854e-02   1.829e+00
//    angle_phistar1                            -3.755e-02   1.790e+00
//    Z1mass                                     8.689e+01   1.053e+01
//    Z2mass                                     3.601e+01   2.016e+01
//    mass4l                                     1.413e+02   2.102e+01
//    pt4l                                       3.302e+01   4.141e+01
//
// Created: Wed Jan 23 20:03:41 2013
//-----------------------------------------------------------------------------
#include <cmath>
#include <vector>
#include <iostream>
//-----------------------------------------------------------------------------
// Make following visible only to this programming unit
namespace nsbnn_2e2mu_8TeV_new_pt {
  // NOTE: Network indices start at 0
  static const int nnetworks=100;
  static const int ninputs  =9;
  static const int nhidden  =12;
  static const int nparams  =133;

  static const double mean[ninputs]={
 -1.44800e-02,
  3.15200e-03,
 -3.18500e-03,
 -2.85400e-02,
 -3.75500e-02,
  8.68900e+01,
  3.60100e+01,
  1.41300e+02,
  3.30200e+01
  };

  static const double sigma[ninputs]={
  5.92600e-01,
  5.54600e-01,
  5.12600e-01,
  1.82900e+00,
  1.79000e+00,
  1.05300e+01,
  2.01600e+01,
  2.10200e+01,
  4.14100e+01
  };

  static const double weight[nnetworks][nparams]={
    {   1.627,    0.205,   -1.233,   -1.052,   -0.272,   -0.154,   -2.162,
       -0.215,   -0.508,   -0.689,   -1.768,    0.634,    0.477,   -0.017,
       -0.037,    0.034,    0.007,   -1.394,    0.087,    0.647,   -5.241,
       -1.882,    2.249,   -1.442,    0.964,    0.670,   -0.192,    0.076,
       -1.832,   -3.195,    0.901,    0.668,    1.800,    1.139,   -0.404,
        0.510,   -0.593,    0.343,   -0.150,    0.546,    2.391,   -0.562,
       -0.561,   -0.057,   -0.005,   -0.104,   -0.670,   -1.749,    1.940,
       -0.689,   -0.911,    0.299,    1.084,    1.188,    0.037,    0.468,
        0.676,    0.473,    0.186,   -0.580,    1.938,   -0.098,    0.028,
       -0.089,    0.086,    0.001,    0.109,   -0.026,   -3.826,    0.171,
       -2.294,    0.206,    0.560,   -0.418,   -0.827,   -0.178,   -0.016,
       -0.718,    0.855,   -1.547,    5.064,    1.609,   -1.214,   -0.855,
       -0.119,    0.623,    0.159,    2.330,   -0.822,    1.659,   -3.755,
       -0.232,   -0.156,    0.330,   -0.125,   -0.050,    2.286,   -1.012,
       -0.699,   -0.392,    3.129,    0.635,    1.037,   -0.061,    0.129,
       -0.050,    0.151,    1.636,   -0.434,    0.339,    2.600,   -0.479,
        0.052,    0.006,   -0.079,   -0.022,    0.073,    0.097,   -0.075,
        2.107,  -11.124,   -0.251,   -1.454,   -0.495,    0.433,   -1.308,
       -0.485,    4.081,   -0.428,    1.130,   -1.813,    1.819,    3.392
    },
    {   0.821,   -1.497,   -0.159,    0.839,    0.136,   -0.315,    0.977,
        0.396,   -0.331,   -1.238,   -1.858,    0.374,    0.363,    0.003,
       -0.157,   -0.086,   -0.042,   -1.920,    0.190,    0.463,   -0.117,
       -0.444,    0.869,   -0.753,   -1.947,   -0.760,    0.748,    1.391,
       -0.694,   -1.100,    1.158,    0.628,    2.162,    1.113,   -0.454,
        0.539,   -0.623,    0.253,   -0.238,    1.064,    2.498,   -0.356,
       -0.470,    0.200,    0.151,   -0.095,   -0.451,   -1.152,    1.453,
       -0.593,   -0.000,   -0.462,    1.965,    0.834,    0.388,    0.538,
        0.828,    1.051,   -0.256,   -1.432,    1.955,   -0.019,    0.013,
       -0.029,    0.063,    0.087,   -0.002,   -0.105,   -3.776,    0.091,
       -2.427,   -0.333,    0.428,   -1.185,   -0.172,   -0.153,    0.216,
       -0.173,   -0.372,   -1.506,    2.879,    0.575,   -1.077,   -0.382,
       -0.086,    0.023,    0.144,    0.737,   -0.378,    1.796,   -2.671,
       -0.097,   -0.103,    0.132,   -0.050,    0.076,    1.625,    0.059,
       -0.626,   -0.330,    3.017,    0.814,    0.815,   -0.017,    0.078,
       -0.125,    0.302,    1.796,   -0.763,    0.213,    2.968,   -0.649,
        0.263,   -0.102,   -0.125,   -0.099,    0.070,    0.275,   -0.169,
        2.628,  -10.037,    0.303,   -1.358,   -0.008,    0.420,   -1.967,
       -0.388,    3.583,   -0.396,    1.127,   -3.336,    2.058,    2.306
    },
    {   3.816,    1.000,   -0.260,    0.749,    0.228,   -0.552,    1.543,
        0.216,    0.692,    0.060,   -2.369,    0.530,    0.428,    0.282,
       -0.047,   -0.081,    0.014,   -1.986,   -0.149,    0.531,    1.708,
       -1.501,   -0.049,    1.011,    1.935,    0.114,    1.051,    1.607,
        0.945,    0.366,    1.094,    0.852,    2.317,    1.343,   -0.330,
        1.153,   -0.850,    0.908,   -0.881,    0.708,    2.325,   -0.181,
       -0.337,    0.004,    0.294,   -0.105,   -0.385,   -0.995,    1.332,
       -0.334,    0.046,   -0.522,    1.742,    0.687,    0.295,    0.815,
        1.104,    1.366,   -0.225,   -0.933,    2.088,   -0.081,    0.136,
       -0.152,    0.090,    0.032,   -0.029,   -0.063,   -4.058,    0.116,
       -2.059,    0.195,    0.665,   -0.843,   -0.277,    0.143,    0.231,
       -0.760,    0.440,   -0.145,    4.318,    1.366,   -0.924,   -0.738,
        0.042,    0.260,    0.324,    1.524,   -0.693,    2.297,   -3.636,
       -0.177,   -0.228,    0.058,   -0.106,    0.117,    1.825,   -0.393,
       -1.089,   -0.036,    3.449,    0.893,    1.105,    0.128,   -0.004,
       -0.047,    0.052,    2.149,   -0.794,    0.097,    2.362,   -0.397,
        0.170,   -0.045,   -0.081,    0.012,    0.073,    0.315,   -0.114,
        1.991,   -9.191,    0.277,   -1.135,    0.260,    0.472,   -3.336,
       -0.607,    3.389,   -0.938,    1.303,   -2.778,    1.511,    3.235
    },
    {   5.206,    0.200,    1.806,    0.413,   -0.791,    0.644,   -0.830,
       -0.107,   -0.322,   -0.062,   -2.567,    0.687,    0.682,    0.464,
       -0.067,    0.012,    0.166,   -2.147,   -0.131,    0.810,    2.337,
        0.060,    0.165,   -0.421,    0.004,    0.373,   -0.192,    0.311,
        0.132,    0.316,    0.699,    0.376,    1.467,    0.940,   -0.193,
        0.171,   -0.199,    0.497,   -0.474,    0.339,    2.761,   -0.315,
       -0.498,    0.039,    0.230,    0.026,   -0.499,   -1.082,    1.333,
       -0.525,   -0.433,   -0.345,    1.591,    0.957,    0.195,    0.155,
        0.244,    0.284,   -0.761,   -1.140,    2.403,   -0.020,    0.059,
       -0.065,    0.107,    0.021,    0.109,   -0.163,   -4.589,    0.110,
       -2.455,    0.488,    1.186,   -1.156,   -0.592,   -0.176,    0.322,
       -0.406,    0.286,    0.871,    2.978,    0.876,   -0.803,   -0.301,
        0.048,    0.104,    0.302,    1.117,   -0.633,    1.583,   -3.573,
       -0.229,   -0.369,    0.196,   -0.053,    0.265,    1.891,   -0.899,
       -0.372,   -0.740,    3.705,    0.578,    1.160,    0.280,    0.217,
        0.095,    0.373,    1.779,   -0.640,    0.033,    2.638,   -0.737,
        0.089,    0.044,   -0.070,   -0.033,    0.152,    0.254,   -0.285,
        1.887,  -10.256,   -1.218,   -1.177,    1.369,    0.962,   -3.406,
       -0.691,    4.108,   -0.807,    1.577,   -2.238,    2.048,    3.607
    },
    {   5.868,   -0.858,   -0.037,    0.244,    0.748,    1.718,   -0.982,
        0.460,    0.390,    0.440,   -1.849,    0.462,    0.264,   -0.115,
       -0.176,   -0.065,    0.042,   -1.337,   -0.193,    0.356,    2.593,
        0.592,   -1.323,    0.752,    0.135,   -0.245,    0.125,   -0.576,
        0.393,    0.128,    0.451,    0.241,    1.961,    1.392,   -0.500,
        0.866,   -0.523,    1.112,   -1.635,    0.495,    2.001,   -0.351,
       -0.252,    0.157,    0.242,    0.008,   -0.390,   -0.774,    1.138,
       -0.617,   -0.357,   -0.192,    1.843,    1.507,    0.198,    0.764,
        0.695,    0.504,    1.033,   -0.754,    2.018,   -0.056,    0.001,
        0.039,    0.098,   -0.070,    0.168,    0.101,   -3.714,   -0.002,
       -2.888,   -0.333,    0.317,   -0.864,   -0.149,    0.227,    0.041,
       -0.475,   -1.270,   -0.631,    2.775,    0.747,   -0.601,   -0.532,
       -0.113,    0.405,    0.263,    1.236,   -0.256,    1.242,   -3.664,
       -0.245,   -0.210,    0.152,    0.014,    0.170,    1.993,   -0.390,
       -0.737,   -0.358,    3.327,    0.961,    0.902,    0.023,    0.127,
       -0.194,    0.252,    1.885,   -0.659,    0.464,    3.395,   -0.967,
        0.276,   -0.107,   -0.144,   -0.055,    0.037,    0.154,   -0.064,
        3.022,  -10.327,    0.085,   -1.873,    0.482,    0.678,   -1.941,
       -0.572,    4.104,   -0.508,    1.163,   -2.609,    1.468,    1.909
    },
    {   6.113,   -0.788,    1.547,    0.543,   -0.581,    0.316,   -0.690,
        0.196,   -0.465,    0.068,   -1.347,    0.469,    0.186,   -0.095,
       -0.168,   -0.112,    0.013,   -0.957,   -0.207,    0.172,    2.090,
        0.563,   -0.755,    0.761,   -0.169,    0.180,    0.877,   -0.221,
        0.201,    1.024,    0.918,    0.385,    2.069,    1.318,   -0.315,
        0.979,   -0.248,    0.758,   -0.753,    0.229,    2.130,   -0.244,
       -0.210,   -0.039,    0.216,   -0.039,   -0.231,   -0.681,    1.182,
       -0.406,   -0.138,   -0.477,    0.964,    0.405,    0.104,    0.669,
        0.615,   -0.130,    0.035,   -0.203,    1.805,    0.042,    0.056,
       -0.010,    0.067,    0.081,    0.095,    0.022,   -3.433,    0.054,
       -1.585,    0.709,   -0.413,    0.293,   -0.031,    0.282,    0.932,
        0.221,    0.296,    1.732,    3.325,    0.915,   -0.541,   -0.756,
       -0.098,   -0.130,    0.152,    1.479,   -0.231,    1.289,   -3.602,
       -0.379,   -0.080,    0.336,   -0.082,    0.010,    1.959,   -0.754,
       -0.663,   -0.607,    3.429,    0.652,    1.263,    0.224,    0.012,
        0.052,    0.096,    1.203,   -0.419,    0.039,    2.184,   -0.480,
        0.139,   -0.148,   -0.070,   -0.074,    0.017,    0.112,   -0.091,
        1.689,   -7.044,   -2.037,   -1.884,    0.648,    0.570,   -3.247,
       -0.862,    3.987,   -0.141,    1.009,   -1.843,    2.139,    3.130
    },
    {   3.680,   -0.384,   -0.097,    0.172,    1.332,   -0.696,    0.212,
       -0.210,    0.074,   -0.660,   -1.684,    0.727,    0.354,    0.044,
       -0.241,   -0.249,   -0.117,   -1.314,   -0.005,    0.157,    2.576,
        0.740,   -1.244,    0.981,   -0.110,    0.079,   -0.038,    0.790,
        0.128,   -0.569,    1.142,    0.314,    1.669,    1.168,   -0.079,
       -0.074,   -0.393,    0.117,   -0.120,    0.735,    3.008,   -0.546,
       -0.474,   -0.014,    0.494,    0.228,   -0.509,   -0.970,    1.351,
       -0.541,   -1.875,    1.321,    1.586,    0.970,    0.798,   -0.262,
        0.353,    0.161,    0.137,   -0.979,    1.746,    0.031,   -0.019,
       -0.079,    0.045,   -0.020,    0.006,   -0.077,   -3.300,    0.076,
       -4.851,    0.271,    0.848,    0.318,    1.147,   -1.554,   -0.915,
       -0.338,   -0.899,    1.003,    2.236,    0.974,   -0.225,   -0.444,
       -0.025,    0.104,    0.231,    0.790,   -0.358,    1.041,   -2.769,
       -0.048,   -0.114,    0.392,   -0.077,    0.032,    1.798,   -0.380,
       -0.579,   -0.141,    3.269,    0.416,    0.977,    0.149,    0.038,
       -0.108,    0.121,    1.948,   -0.589,   -0.132,    2.164,   -0.321,
        0.026,    0.052,   -0.017,   -0.155,   -0.014,    0.163,   -0.228,
        2.329,   -7.396,   -0.528,   -1.502,    0.806,    0.554,   -2.626,
       -0.353,    3.900,    0.453,    1.736,   -1.603,    1.871,    1.940
    },
    {   4.810,   -0.928,    0.196,   -1.586,   -0.814,    0.372,   -0.333,
       -0.006,    0.196,    0.167,   -1.721,    0.520,    0.366,    0.145,
       -0.235,   -0.034,    0.027,   -1.544,    0.516,    0.627,    2.686,
        0.019,   -0.896,    0.589,    0.086,    0.107,   -0.239,    0.440,
        0.025,    0.671,    0.899,    0.757,    1.616,    1.044,   -0.583,
        1.082,   -0.945,    0.527,   -0.511,    0.595,    2.021,   -0.361,
       -0.082,   -0.111,   -0.010,    0.061,   -0.292,   -0.742,    0.871,
       -0.506,   -0.585,   -0.410,    1.466,   -0.337,   -0.132,    0.263,
        0.512,    1.080,   -0.192,    0.131,    1.854,   -0.015,   -0.061,
       -0.116,    0.087,   -0.015,    0.116,   -0.023,   -3.391,    0.151,
       -3.063,   -0.451,    0.974,   -0.473,   -0.567,    0.539,    0.404,
       -1.372,   -0.010,    0.429,    2.204,    0.358,   -0.311,   -0.228,
       -0.033,   -0.017,    0.086,    0.869,   -0.085,    1.066,   -3.007,
       -0.136,   -0.352,    0.405,   -0.029,    0.158,    2.168,    0.098,
       -0.960,   -0.260,    2.770,    0.317,    0.933,    0.312,    0.094,
       -0.121,    0.240,    1.238,   -0.109,    0.310,    2.705,   -0.678,
       -0.008,   -0.012,   -0.122,   -0.090,   -0.023,    0.061,    0.031,
        1.274,  -14.671,    0.329,   -1.505,    0.795,    0.520,   -2.467,
       -0.266,    4.156,    0.136,    2.884,   -1.664,    1.606,    6.634
    },
    {   7.642,    1.578,   -0.624,    1.109,   -1.382,    0.348,   -0.108,
       -1.960,   -0.200,   -0.806,   -3.068,    0.475,    0.866,    0.215,
       -0.247,   -0.108,    0.074,   -2.953,    0.392,    1.295,    2.633,
       -0.909,   -1.151,    1.166,    0.596,    0.248,   -1.093,    0.473,
       -0.116,    0.236,    0.400,    0.735,    2.033,    1.502,   -0.655,
        0.770,   -0.586,    0.576,   -0.287,    0.955,    2.739,   -0.402,
       -0.632,    0.067,    0.230,    0.110,   -0.723,   -1.603,    1.847,
       -0.816,   -2.243,    0.347,    2.641,    1.850,   -0.363,    0.807,
        0.017,    0.025,   -0.498,   -0.765,    2.286,   -0.037,    0.077,
       -0.029,    0.107,   -0.024,    0.097,   -0.117,   -4.582,    0.240,
       -8.835,   -0.135,   -1.921,    0.170,   -2.087,   -0.555,   -0.467,
       -1.888,   -0.317,   -0.100,    2.583,    0.842,   -0.910,   -0.289,
       -0.041,    0.003,    0.202,    0.742,   -0.393,    1.518,   -3.355,
       -0.177,   -0.366,    0.321,   -0.019,    0.223,    2.297,   -0.586,
       -0.666,   -0.531,    3.505,    0.686,    0.730,    0.139,    0.091,
        0.047,    0.135,    1.771,   -0.469,    0.570,    2.559,   -0.822,
        0.144,   -0.086,   -0.174,   -0.061,    0.189,    0.602,   -0.169,
        2.161,  -11.138,    1.037,   -1.152,    0.544,    0.635,   -1.668,
       -0.367,    3.840,   -1.611,    1.359,   -1.333,    2.292,    1.706
    },
    {   7.457,    1.798,    1.132,    0.534,   -0.569,   -0.536,   -0.147,
        0.323,    0.610,    0.497,   -1.701,    0.618,    0.433,   -0.108,
       -0.287,   -0.039,    0.060,   -1.087,   -0.159,    0.412,    2.595,
       -0.013,   -0.757,    0.592,   -0.069,   -0.036,   -0.020,    0.435,
        0.659,    1.375,    2.061,    1.079,    3.243,    1.918,   -0.345,
        0.370,   -0.372,    1.232,   -0.240,    0.738,    3.110,   -0.821,
       -0.513,    0.214,    0.430,   -0.065,   -0.525,   -1.201,    1.767,
       -0.826,   -0.067,    0.245,    1.794,    1.011,    0.143,   -0.028,
        0.217,   -0.300,    2.036,   -0.421,    1.864,    0.037,   -0.067,
        0.048,    0.105,   -0.041,    0.040,   -0.116,   -3.171,    0.054,
       -9.803,    0.305,   -1.752,    0.521,   -2.002,   -1.328,   -0.579,
        0.016,   -0.901,   -1.765,    3.067,    1.283,   -0.234,   -0.523,
       -0.022,    0.192,    0.457,    1.513,   -0.508,    0.876,   -3.116,
       -0.111,   -0.165,    0.076,    0.013,    0.032,    2.130,   -0.696,
       -0.498,   -0.310,    3.136,    0.486,    0.951,    0.085,    0.074,
        0.001,    0.118,    2.027,   -0.702,   -0.006,    2.651,   -0.559,
        0.234,   -0.221,   -0.265,   -0.076,    0.088,    0.117,   -0.065,
        1.967,  -14.851,    2.840,   -1.483,    0.847,    0.477,   -1.985,
       -0.411,    4.617,   -2.156,    1.177,   -1.846,    1.472,    2.485
    },
    {   7.970,    0.434,    0.260,   -0.342,    1.427,    0.153,   -0.268,
        0.908,    0.141,   -0.156,   -1.800,    0.721,    0.683,   -0.235,
       -0.189,   -0.347,   -0.146,   -1.451,   -0.112,    0.831,    3.857,
        0.314,   -1.439,    0.810,    0.135,   -0.038,   -0.248,    1.328,
        0.508,    1.103,    1.183,    0.332,    2.721,    1.500,   -0.262,
        0.392,   -1.046,    0.656,   -0.729,    1.225,    2.601,   -0.186,
       -0.485,    0.195,    0.328,   -0.070,   -0.597,   -1.786,    1.807,
       -0.606,   -0.041,   -1.321,    1.758,    0.383,    0.172,    0.877,
        0.573,   -0.175,    0.122,   -0.331,    1.971,   -0.079,    0.044,
       -0.014,    0.100,    0.003,    0.135,    0.064,   -4.074,   -0.046,
       -5.568,    0.114,   -0.532,   -0.291,    0.572,   -0.981,    1.010,
        0.972,   -0.170,   -0.528,    3.784,    1.388,   -0.459,   -0.723,
       -0.166,    0.181,    0.254,    1.739,   -1.189,    2.436,   -2.809,
        0.088,   -0.245,    0.409,   -0.090,   -0.042,    1.879,   -0.192,
       -0.693,   -0.526,    3.736,    0.265,    1.044,    0.333,    0.204,
       -0.021,    0.226,    1.809,   -0.097,    0.167,    2.784,   -0.943,
        0.156,   -0.105,   -0.200,   -0.108,    0.233,    0.429,   -0.150,
        2.430,   -7.774,   -3.016,   -0.899,    0.585,    0.491,   -2.137,
       -0.663,    3.955,   -2.420,    1.313,   -1.392,    2.746,    1.742
    },
    {   4.678,   -1.803,    0.380,    0.216,    0.084,    0.909,   -0.300,
       -1.665,   -0.648,   -1.492,   -2.181,    0.346,    0.385,   -0.082,
       -0.246,   -0.082,   -0.008,   -1.660,   -0.162,    0.265,    2.062,
       -1.431,   -1.223,    1.582,    0.678,   -0.266,   -1.372,    0.166,
       -1.061,   -0.539,    1.506,    0.514,    2.338,    1.042,   -0.391,
        0.855,   -0.674,    0.732,   -0.130,    0.984,    2.852,   -0.379,
       -0.697,    0.241,    0.555,    0.067,   -0.612,   -1.148,    1.444,
       -0.614,   -0.116,   -0.652,    2.385,    0.948,    0.139,    0.878,
        1.525,    1.347,   -0.230,   -1.148,    1.976,   -0.018,    0.007,
       -0.047,    0.005,    0.008,    0.133,    0.102,   -3.483,   -0.103,
       -8.468,   -0.028,    0.634,   -0.714,    0.210,   -1.220,    1.975,
        0.999,   -0.480,   -0.695,    2.301,    0.797,   -0.529,   -0.045,
       -0.160,    0.129,    0.236,    0.907,   -0.513,    1.337,   -3.749,
        0.070,   -0.074,    0.441,   -0.248,    0.069,    2.367,   -0.425,
       -0.924,   -0.333,    3.222,    0.454,    0.914,   -0.070,    0.127,
       -0.157,    0.122,    1.568,   -0.238,    0.198,    2.592,   -0.772,
        0.043,   -0.097,   -0.138,   -0.009,    0.181,    0.369,   -0.195,
        2.517,  -10.027,   -0.139,   -1.645,    0.444,    0.682,   -2.019,
       -0.494,    4.302,   -1.210,    1.476,   -1.507,    1.988,    1.733
    },
    {   7.075,    1.466,   -0.947,   -0.521,    1.160,    1.134,   -0.844,
        0.032,    0.179,    0.541,   -8.356,    1.207,    1.907,    0.051,
       -0.041,    0.641,    1.917,   -0.201,   -2.144,    0.255,    1.607,
       -0.367,   -0.500,    0.274,    0.268,    0.102,   -0.071,    1.148,
        0.074,   -0.363,    0.732,    1.204,    3.087,    1.381,   -0.219,
        0.947,   -0.484,    0.643,   -1.302,    0.795,    4.039,   -0.781,
       -1.070,    0.305,    0.698,    0.083,   -1.100,   -0.864,    2.110,
       -1.031,    0.181,   -0.746,    2.558,    1.002,    0.088,    1.136,
        1.529,    1.434,   -0.604,   -0.819,    2.427,   -0.035,   -0.058,
       -0.015,    0.119,    0.039,    0.159,    0.093,   -5.476,   -0.008,
       -6.456,   -0.032,    0.214,   -0.787,   -0.366,    1.843,    2.825,
       -0.125,    0.603,    0.951,    2.653,    0.637,   -0.610,   -0.454,
       -0.035,    0.078,    0.271,    0.883,   -0.621,    1.710,   -3.736,
       -0.099,    0.097,    0.332,   -0.168,   -0.060,    2.558,   -0.305,
       -0.845,   -0.373,    2.790,    0.551,    0.987,    0.089,   -0.096,
       -0.086,   -0.016,    1.476,   -0.131,    0.319,    2.898,   -0.924,
        0.271,   -0.070,   -0.151,   -0.128,    0.134,    0.351,   -0.095,
        2.085,   -7.946,   -2.326,   -2.169,    1.845,    0.466,   -1.615,
       -0.475,    3.455,    0.538,    1.703,   -1.818,    1.655,    2.035
    },
    {  10.409,    0.036,   -0.449,    0.708,    0.310,   -1.410,   -0.489,
       -0.353,   -0.069,   -1.102,   -5.700,    1.072,    1.145,    0.345,
       -0.183,    0.225,    0.501,   -0.904,   -0.361,    0.198,    2.071,
       -0.395,   -0.475,    0.040,    0.211,    0.187,   -0.018,    0.944,
        0.449,   -0.505,   -0.035,    0.156,    1.942,    1.313,   -0.351,
        1.029,   -0.510,    0.784,   -1.000,    0.525,    2.615,   -0.332,
       -0.404,    0.012,    0.242,    0.051,   -0.390,   -0.724,    1.177,
       -0.547,   -0.398,   -0.695,    1.871,    1.008,   -0.307,    0.611,
        1.219,   -0.099,    0.605,   -0.570,    2.124,   -0.006,   -0.041,
       -0.006,    0.082,   -0.039,    0.123,   -0.053,   -4.184,    0.027,
       -1.007,    0.439,   -0.915,   -0.206,    0.109,   -1.257,   -0.097,
        0.824,   -1.830,   -0.053,    2.558,    0.490,   -0.803,   -0.043,
       -0.068,    0.122,    0.294,    0.946,   -0.592,    1.984,   -4.172,
       -0.520,   -0.311,    0.409,   -0.133,    0.284,    2.263,   -0.608,
       -1.005,   -0.211,    3.110,    0.362,    0.799,    0.176,    0.117,
        0.033,    0.176,    1.333,   -0.069,    0.276,    2.908,   -1.063,
        0.162,   -0.062,   -0.155,   -0.030,   -0.004,    0.110,    0.024,
        2.083,  -11.354,   -0.405,   -3.797,    1.972,    0.556,   -3.874,
       -0.330,    3.620,    0.367,    1.595,   -1.730,    3.035,    1.965
    },
    {   7.342,    0.319,   -1.112,   -0.166,   -1.069,   -1.396,   -0.797,
       -0.207,   -1.699,   -0.480,   -3.835,    0.061,   -0.230,    0.227,
       -0.081,    0.002,    2.147,   -0.554,   -1.004,   -0.440,    1.707,
       -0.381,   -0.284,    0.059,    0.186,    0.091,   -0.053,    0.948,
        0.277,   -0.197,    0.763,    1.130,    2.505,    2.054,   -0.785,
        1.010,   -0.838,    1.053,   -0.631,    1.117,    3.194,   -0.631,
       -0.455,    0.171,    0.472,    0.142,   -0.509,   -0.965,    1.867,
       -0.688,   -2.815,   -0.428,   -1.379,    0.994,   -0.899,    0.519,
       -0.954,   -1.220,    0.226,   -0.461,    1.911,   -0.031,    0.055,
       -0.048,    0.073,   -0.015,    0.083,    0.084,   -3.354,    0.002,
        0.073,    1.651,   -2.537,   -0.268,   -0.387,   -1.399,   -0.067,
       -0.255,   -1.779,    0.973,    3.593,    1.023,   -1.052,   -0.471,
       -0.088,    0.161,    0.451,    1.357,   -0.808,    2.457,   -4.043,
       -0.719,   -0.765,    0.627,    0.309,    0.150,    2.468,   -0.953,
       -0.494,   -1.817,    3.493,    0.795,    1.065,    0.139,    0.062,
       -0.025,    0.334,    2.070,   -0.743,    0.245,    2.899,   -0.763,
        0.042,   -0.148,   -0.101,   -0.021,   -0.024,    0.115,   -0.224,
        2.474,  -10.078,   -0.372,   -1.248,    2.989,    0.449,   -1.998,
       -0.019,    4.569,    0.436,    1.241,   -0.500,    1.814,    2.467
    },
    {   6.271,    1.606,    0.417,    1.112,    0.337,   -1.323,    0.078,
       -1.193,   -1.656,    1.417,   -2.821,   -0.256,   -0.262,    0.297,
        0.057,    0.086,    1.700,   -0.337,   -0.645,   -0.381,    1.607,
       -0.683,   -0.310,   -0.002,    0.186,    0.035,    0.174,    1.368,
       -0.256,   -0.404,    1.276,    0.413,    1.447,    1.565,   -1.013,
        0.621,   -0.711,    1.507,    0.484,    0.679,    2.996,   -0.272,
       -0.189,   -0.099,    0.159,   -0.180,   -0.335,   -0.863,    0.964,
       -0.681,   -4.757,    0.671,   -1.677,    1.529,    0.258,    0.936,
       -0.799,   -1.375,    1.672,   -0.463,    2.099,    0.015,    0.048,
       -0.000,    0.072,    0.100,    0.115,   -0.142,   -4.333,    0.083,
        0.061,    0.895,   -1.846,   -0.380,    0.175,   -0.899,   -0.712,
       -0.051,   -1.006,    1.053,    3.047,    0.934,   -0.905,   -0.403,
        0.133,    0.173,    0.245,    1.343,   -0.660,    1.268,   -4.889,
        0.747,   -0.212,   -0.803,    0.645,   -0.622,   -0.310,   -0.342,
       -0.410,    1.025,    3.513,    0.540,    0.787,    0.177,    0.049,
        0.081,    0.125,    2.007,   -0.367,    0.082,    2.310,   -0.422,
        0.054,    0.014,   -0.089,   -0.055,   -0.044,    0.134,   -0.138,
        1.856,  -11.213,    1.093,   -1.761,    1.304,    0.379,   -2.999,
       -0.640,    3.978,    0.364,    1.590,    0.191,    3.099,    3.267
    },
    {   5.569,   -1.051,   -0.808,   -0.928,   -0.198,    1.282,   -0.230,
        1.650,   -0.757,   -1.134,   -3.724,    0.007,    0.042,    0.357,
       -0.143,   -0.003,    2.278,   -0.206,   -1.486,   -0.191,    1.493,
       -0.491,   -0.618,    0.082,    0.228,    0.154,   -0.033,    1.030,
       -0.097,   -0.285,    0.893,    0.686,    1.484,    1.628,   -0.562,
        0.758,   -0.437,    1.375,   -1.087,    0.600,    3.833,   -0.520,
       -1.057,   -0.003,    0.810,    0.239,   -1.120,   -2.217,    2.847,
       -0.810,   -3.349,    1.438,   -2.016,    0.759,   -1.020,   -0.355,
        0.026,   -1.924,   -1.343,    1.391,    2.100,   -0.060,    0.131,
       -0.107,    0.115,    0.017,   -0.034,    0.079,   -4.087,   -0.011,
        0.153,    0.721,   -2.441,   -1.144,   -0.105,   -1.085,   -1.150,
       -0.188,   -0.904,    1.153,    2.827,    0.908,   -0.620,   -0.414,
       -0.144,   -0.012,    0.422,    1.267,   -0.548,    1.419,   -6.707,
        0.988,   -1.040,    0.212,   -0.642,   -0.634,    2.150,   -1.216,
        1.573,   -0.311,    3.019,    0.679,    1.062,    0.223,    0.128,
        0.035,    0.033,    1.771,   -0.321,    0.414,    2.549,   -0.641,
        0.152,    0.044,   -0.180,   -0.087,    0.058,    0.264,   -0.255,
        2.256,   -6.396,   -0.593,   -1.971,    1.398,    0.471,   -1.205,
       -0.285,    3.931,    0.424,    1.469,    2.036,    1.327,    2.210
    },
    {   6.411,   -0.327,    0.775,    0.088,    0.509,   -0.393,   -2.009,
        0.872,    1.165,    0.853,   -3.392,   -0.293,   -0.278,    0.407,
        0.066,   -0.013,    2.495,    0.046,   -0.865,   -0.257,    1.867,
       -0.344,   -0.362,   -0.071,    0.115,    0.046,    0.014,    1.545,
       -0.016,   -0.364,    0.918,    0.902,    1.628,    1.472,   -0.714,
        0.306,   -0.716,    0.660,    0.219,    0.477,    3.377,   -0.593,
       -0.593,   -0.057,    0.208,    0.256,   -0.391,   -1.353,    1.537,
       -0.873,    2.186,   -0.705,   -0.389,   -0.317,    0.047,   -0.608,
       -0.801,    0.143,   -0.525,   -0.122,    2.003,   -0.115,    0.031,
       -0.059,    0.092,    0.068,    0.032,    0.008,   -3.383,    0.024,
       -0.059,    0.764,   -2.363,   -0.778,   -0.469,   -0.800,   -0.793,
       -0.736,   -0.351,    1.538,    2.764,    1.077,   -0.561,   -0.257,
        0.006,    0.045,    0.278,    0.796,   -0.287,    1.227,   -6.846,
        0.538,   -1.548,   -0.759,   -0.301,   -0.840,    1.506,   -0.192,
        1.527,    0.341,    2.833,    0.327,    0.842,    0.271,    0.155,
       -0.050,    0.102,    1.088,   -0.183,    0.195,    2.370,   -0.766,
        0.039,   -0.136,   -0.048,   -0.028,    0.104,    0.306,   -0.085,
        2.258,   -7.222,    0.587,   -1.371,    1.760,    0.517,   -2.238,
       -0.008,    4.900,    0.359,    1.415,    2.899,    2.883,    1.791
    },
    {   5.471,   -0.524,   -0.696,   -0.133,    0.943,    0.654,   -0.673,
       -0.158,   -0.189,   -0.114,   -3.644,   -0.139,   -0.319,    0.663,
        0.038,    0.039,    2.520,   -0.507,   -0.901,   -0.494,    1.860,
       -0.450,   -0.349,   -0.044,    0.262,    0.092,   -0.006,    1.318,
       -0.038,   -0.447,    1.421,    0.245,    1.435,    1.289,   -0.081,
        0.405,   -0.471,    0.586,   -0.015,    0.168,    2.878,   -0.311,
       -0.346,   -0.071,    0.445,    0.131,   -0.609,   -0.992,    1.699,
       -0.590,    8.142,   -0.009,    0.314,    0.256,   -0.367,   -0.222,
        0.056,   -0.211,    0.811,    0.320,    2.183,   -0.022,    0.047,
       -0.115,   -0.019,    0.057,    0.078,    0.025,   -4.522,    0.089,
        0.012,    0.519,   -1.345,   -0.856,    0.044,   -0.720,   -0.738,
       -0.579,    0.503,    0.837,    1.998,    0.644,   -0.553,   -0.121,
       -0.052,    0.009,    0.069,    0.969,   -0.371,    1.169,   -3.672,
       -0.341,    0.021,    0.800,    0.272,    1.179,    0.364,    0.366,
       -0.870,    0.567,    3.120,    0.475,    1.403,    0.067,    0.072,
       -0.017,    0.406,    1.812,   -0.754,    0.013,    2.316,   -1.047,
        0.011,   -0.036,   -0.211,    0.044,    0.248,    0.306,   -0.376,
        2.065,   -8.886,    2.323,   -1.192,    1.719,    0.661,   -2.337,
        0.181,    3.945,    0.502,    1.642,    0.399,    1.369,    1.311
    },
    {   8.597,    0.110,   -0.536,   -0.204,   -1.005,   -1.272,   -1.299,
        1.201,   -0.130,    0.675,   -3.399,   -0.248,   -0.356,    0.419,
       -0.237,    0.049,    2.457,   -0.562,   -0.657,   -0.687,    1.939,
       -0.675,   -0.427,   -0.023,    0.213,    0.079,    0.077,    1.436,
        0.066,   -0.740,    0.968,    0.452,    1.855,    1.473,   -0.584,
        0.433,   -0.445,    0.780,   -0.992,    0.464,    3.462,   -0.939,
       -0.346,    0.154,    0.203,   -0.060,   -0.507,   -1.385,    2.173,
       -0.770,    6.425,   -1.148,   -0.068,   -0.032,    0.839,   -0.202,
       -0.066,   -0.483,    0.094,   -0.350,    2.087,   -0.027,    0.096,
       -0.088,    0.146,    0.039,    0.142,    0.000,   -3.952,   -0.019,
       -0.081,    0.521,   -2.052,   -0.942,    0.151,   -0.553,   -0.702,
       -0.510,   -0.674,    1.217,    2.592,    0.815,   -0.676,   -0.182,
       -0.019,   -0.033,    0.272,    0.993,   -0.604,    1.224,   -3.738,
       -1.120,    0.132,    0.375,   -1.003,    0.606,    0.379,   -0.374,
       -0.061,    0.734,    2.906,    0.670,    0.881,    0.019,    0.107,
       -0.091,    0.169,    1.479,   -0.336,    0.237,    2.340,   -0.768,
        0.114,    0.107,   -0.195,    0.033,    0.110,    0.108,    0.269,
        1.652,   -6.156,   -1.269,   -1.423,    1.564,    0.681,   -2.046,
        0.023,    3.916,    0.655,    1.784,    1.009,    1.891,    2.014
    },
    {   4.089,    0.173,    1.155,    0.050,    1.393,    0.918,    2.583,
       -0.358,    1.132,   -0.016,   -4.565,   -0.212,   -0.355,    0.436,
        0.007,    0.216,    3.201,   -0.826,   -0.465,   -0.820,    1.856,
       -0.403,   -0.348,    0.065,    0.190,    0.085,   -0.078,    1.296,
        0.114,   -0.389,    1.044,    0.097,    1.832,    1.175,   -0.516,
        0.791,   -0.600,    1.204,   -0.576,    0.679,    3.608,   -0.744,
       -0.501,    0.109,    0.573,    0.163,   -0.629,   -1.243,    2.335,
       -0.871,    7.835,    0.476,    0.852,   -0.244,    0.218,   -1.278,
        0.478,    0.212,    0.559,    0.670,    2.310,   -0.137,   -0.058,
       -0.062,    0.013,    0.036,    0.227,   -0.076,   -4.523,    0.112,
       -0.336,    0.636,   -2.433,   -1.159,    0.240,   -1.024,   -1.014,
       -1.556,    0.084,    0.762,    2.671,    0.785,   -0.683,   -0.201,
        0.037,    0.128,    0.244,    0.644,   -0.326,    1.225,   -6.907,
       -2.066,    0.835,    0.318,   -1.404,    1.005,    0.546,   -0.636,
       -0.185,    0.747,    2.827,    0.819,    0.961,    0.040,    0.161,
       -0.152,    0.166,    1.674,   -0.841,    0.051,    2.496,   -0.636,
        0.138,    0.015,   -0.073,   -0.074,    0.150,    0.264,   -0.170,
        2.095,   -9.069,    0.113,   -1.450,    2.393,    0.756,   -1.917,
       -0.101,    3.782,    0.579,    2.333,    0.922,    1.658,    2.597
    },
    {   5.359,   -0.152,    0.355,   -1.334,   -0.114,   -0.713,   -0.794,
       -0.093,    0.567,   -0.294,   -3.723,    0.012,   -0.345,    0.475,
       -0.057,    0.130,    2.748,   -0.465,   -0.920,   -0.432,    1.659,
       -0.620,   -0.396,   -0.050,    0.128,   -0.031,    0.029,    1.392,
       -0.145,   -0.303,    0.352,    0.427,    1.429,    1.186,   -0.235,
        0.309,   -0.351,    0.264,   -0.609,    0.452,    3.337,   -0.734,
       -0.439,   -0.040,    0.319,    0.014,   -0.702,   -1.533,    1.971,
       -0.801,    7.912,   -0.188,   -0.266,    0.306,    0.673,   -0.857,
        0.936,   -1.566,    0.405,    0.401,    2.047,    0.008,   -0.017,
       -0.115,    0.171,    0.070,    0.089,   -0.044,   -3.895,    0.033,
        0.046,    0.882,   -1.978,   -0.829,   -0.382,   -0.586,   -0.946,
       -0.639,    0.592,    0.860,    2.742,    0.841,   -0.654,   -0.326,
        0.081,    0.188,    0.204,    0.874,   -0.297,    1.438,   -6.154,
       -0.457,    0.329,    0.428,   -0.251,    0.517,   -0.731,    0.914,
        0.401,   -0.169,    3.234,    0.553,    0.911,    0.299,    0.091,
       -0.026,    0.000,    2.033,   -0.296,    0.010,    2.358,   -0.514,
        0.108,   -0.001,   -0.066,    0.058,    0.105,    0.098,   -0.333,
        2.189,   -5.743,    0.533,   -1.395,    1.498,    0.555,   -1.689,
       -3.338,    4.133,    0.431,    1.577,    0.466,    1.818,    2.638
    },
    {   5.071,   -1.064,   -0.923,    0.669,    0.269,   -0.068,    0.416,
        1.287,   -1.537,   -1.414,   -3.663,   -0.315,   -0.186,    0.221,
       -0.064,   -0.079,    2.972,   -0.257,   -0.830,   -0.239,    1.996,
       -0.422,   -0.209,    0.043,    0.232,    0.088,   -0.002,    1.825,
        0.012,   -0.294,    0.665,    0.687,    1.806,    0.880,   -0.403,
        0.176,   -0.480,    0.353,   -0.862,    1.082,    3.098,   -0.310,
       -0.573,    0.067,    0.532,    0.089,   -0.258,   -0.681,    1.518,
       -0.721,    4.337,   -0.300,    1.028,    0.503,   -0.536,   -0.281,
        0.049,    0.557,    0.001,    0.560,    1.740,   -0.058,    0.081,
       -0.017,    0.085,   -0.017,    0.138,    0.059,   -3.080,   -0.044,
        0.281,    0.511,   -1.808,   -0.635,   -0.455,   -0.390,   -0.411,
       -0.451,    0.048,    0.530,    3.926,    1.247,   -0.915,   -0.335,
        0.190,    0.101,    0.323,    1.482,   -0.525,    2.067,   -4.430,
       -0.825,   -0.520,   -0.725,    0.387,   -0.012,    0.247,   -0.214,
       -0.107,    0.335,    3.684,    0.697,    1.141,    0.224,    0.045,
       -0.275,    0.162,    1.788,   -0.279,    0.014,    2.437,   -0.423,
        0.157,   -0.055,   -0.129,   -0.052,    0.055,    0.140,   -0.014,
        1.988,   -7.623,   -0.240,   -1.181,    1.863,    0.513,   -1.633,
       -1.593,    4.288,    0.599,    1.238,    0.586,    1.750,    3.480
    },
    {   4.628,    0.621,    1.181,    1.473,   -1.298,    1.504,   -0.847,
        0.721,   -0.675,   -1.345,   -4.144,   -0.165,   -0.250,    0.272,
       -0.236,   -0.075,    2.529,   -0.789,   -0.923,   -0.608,    2.647,
       -0.597,   -0.710,    0.109,    0.108,    0.115,    0.027,    1.983,
        0.023,   -1.026,    0.338,    1.124,    2.547,    2.047,   -0.398,
        0.712,   -0.767,    0.092,   -0.848,    0.434,    2.581,   -0.379,
       -0.236,    0.013,    0.272,   -0.107,   -0.413,   -1.334,    1.652,
       -0.615,    3.767,   -1.633,    0.415,   -1.200,   -0.104,   -0.112,
       -0.266,    1.597,    0.204,    0.172,    1.898,   -0.054,    0.012,
        0.037,    0.110,    0.035,    0.148,    0.074,   -3.960,    0.008,
       -0.266,    0.917,   -1.776,   -0.777,   -0.002,   -0.896,   -0.736,
       -0.251,   -0.691,    1.134,    4.035,    1.365,   -0.848,   -0.511,
       -0.021,    0.138,    0.213,    1.894,   -0.822,    2.487,   -6.254,
       -0.358,    0.543,   -1.569,   -0.755,   -0.339,   -0.132,    1.370,
       -0.287,   -0.088,    3.393,    0.430,    1.030,    0.199,    0.103,
       -0.070,    0.185,    1.659,   -0.163,    0.095,    2.419,   -0.609,
       -0.052,    0.113,   -0.020,    0.045,    0.093,    0.426,   -0.108,
        1.922,  -10.490,   -0.061,   -1.589,    1.095,    0.411,   -2.178,
        0.625,    3.595,    0.468,    1.219,   -1.583,    2.539,    2.582
    },
    {  -0.094,   -2.571,   -1.190,    0.713,    1.658,   -0.188,    0.755,
       -0.275,    0.586,   -0.272,   -3.247,   -0.171,   -0.273,    0.326,
        0.012,    0.011,    2.149,   -0.283,   -1.035,   -0.140,    2.120,
       -0.561,   -0.644,    0.072,    0.089,    0.285,    0.029,    1.750,
        0.300,   -0.679,    0.442,    0.667,    2.070,    1.402,   -0.641,
        0.207,   -0.791,   -0.711,   -0.035,    1.081,    2.276,   -0.286,
       -0.348,   -0.078,    0.390,    0.181,   -0.381,   -0.980,    1.414,
       -0.550,    1.812,    1.296,   -1.042,   -0.025,   -0.276,    0.366,
        0.821,   -0.449,   -0.330,   -0.141,    2.139,    0.059,    0.082,
       -0.119,    0.083,   -0.004,    0.138,   -0.051,   -4.202,    0.025,
        1.282,   -0.764,   -1.955,   -1.309,   -0.258,   -0.382,   -0.869,
        1.115,   -1.725,    1.430,    2.693,    0.899,   -0.525,   -0.169,
        0.093,    0.148,    0.188,    0.883,   -0.231,    1.532,   -1.801,
        0.895,   -0.270,   -0.119,    0.413,    0.951,    0.283,    1.170,
       -0.341,   -0.492,    3.129,    0.660,    1.074,    0.013,    0.197,
       -0.135,    0.179,    2.012,   -0.543,    0.051,    2.846,   -0.533,
        0.202,    0.043,   -0.100,   -0.237,    0.062,    0.233,   -0.016,
        2.857,   -7.557,    0.364,   -1.688,    1.106,    0.610,   -1.923,
        0.106,    4.022,    0.621,    1.548,    0.351,    1.304,    1.877
    },
    {   0.506,   -1.122,   -0.652,    0.158,    0.842,    0.254,    0.031,
       -0.900,    0.848,    0.349,   -2.815,   -0.373,   -0.210,    0.337,
        0.038,    0.089,    1.939,   -0.235,   -0.568,   -0.307,    1.817,
       -0.503,   -0.381,    0.005,    0.140,   -0.078,   -0.211,    0.847,
        0.096,   -0.582,    1.193,    0.555,    2.073,    1.368,   -0.561,
        0.194,   -0.696,    0.415,   -0.224,    0.646,    1.540,   -0.348,
       -0.382,   -0.095,    0.164,   -0.112,   -0.264,   -1.001,    1.035,
       -0.552,    3.907,    0.892,   -0.873,   -1.460,   -0.447,   -0.742,
        1.278,   -1.138,    1.247,    0.657,    1.627,   -0.016,    0.036,
        0.057,    0.058,   -0.045,    0.098,   -0.045,   -2.824,   -0.002,
        0.241,    1.210,   -1.736,   -0.622,   -0.273,   -1.269,   -1.035,
       -0.681,    0.659,    0.547,    2.258,    0.574,   -0.613,   -0.075,
       -0.066,    0.143,    0.245,    1.004,   -0.376,    1.027,   -0.704,
       -0.620,   -1.421,   -0.516,   -0.351,    1.256,    0.381,    0.145,
       -0.831,    0.273,    3.220,    0.438,    0.976,    0.271,    0.116,
        0.014,    0.303,    1.961,   -0.383,    0.127,    3.458,   -1.098,
        0.380,   -0.298,   -0.287,   -0.111,   -0.015,    0.544,   -0.280,
        2.595,   -9.264,    0.600,   -1.675,    1.918,    0.644,   -1.903,
        0.073,    4.022,    0.476,    1.795,    0.313,    1.966,    1.579
    },
    {   2.155,   -1.265,   -0.805,    0.469,    1.259,   -0.266,    0.111,
        1.109,    0.392,    0.424,   -3.252,   -0.116,   -0.170,    0.140,
       -0.239,    0.056,    2.388,   -0.310,   -0.688,   -0.446,    3.329,
       -0.618,   -0.462,   -0.180,   -0.073,    0.059,   -0.299,    2.626,
        0.360,   -1.347,    1.507,    0.429,    2.356,    1.822,   -0.665,
        0.009,   -0.443,    0.634,   -0.160,    1.178,    1.642,   -0.324,
       -0.212,   -0.058,    0.165,   -0.015,   -0.261,   -1.030,    1.033,
       -0.436,    2.356,   -0.394,   -0.798,    1.883,    0.611,    0.067,
        0.250,   -0.450,   -0.486,   -1.903,    2.077,   -0.047,   -0.066,
       -0.047,    0.100,    0.083,   -0.011,    0.094,   -4.295,    0.081,
        0.545,    0.459,   -2.075,   -1.431,   -0.287,   -0.372,   -1.132,
       -1.704,    1.013,    0.861,    3.996,    1.015,   -1.228,   -0.322,
       -0.020,    0.295,    0.333,    1.702,   -0.630,    2.234,    3.333,
        0.591,   -1.297,   -1.840,   -0.665,    1.449,    0.873,    3.260,
        0.999,    1.541,    3.198,    0.523,    1.060,   -0.085,    0.100,
       -0.196,   -0.034,    2.013,   -0.643,    0.352,    2.573,   -1.117,
        0.004,   -0.132,   -0.168,   -0.025,    0.158,    0.432,   -0.587,
        1.967,   -7.453,    0.340,   -1.375,    0.802,    0.605,   -2.008,
        0.307,    3.905,    0.422,    1.232,    0.281,    1.496,    1.544
    },
    {   2.106,   -1.233,    0.109,   -0.682,    0.106,    0.210,    0.317,
        1.684,   -0.344,    0.030,   -3.189,   -0.209,   -0.015,    0.333,
        0.027,    0.149,    2.203,   -0.336,   -1.008,   -0.155,    2.498,
       -0.447,   -1.016,    1.162,    0.175,    0.150,   -0.268,    2.314,
        0.039,   -0.787,    0.806,    0.754,    2.246,    1.112,   -0.157,
        0.554,   -0.662,    0.161,   -0.872,    0.941,    2.387,   -0.228,
       -0.423,   -0.007,    0.191,   -0.038,   -0.674,   -1.453,    1.837,
       -0.725,    3.076,   -0.618,    0.181,    0.220,   -0.077,   -0.328,
        0.016,    0.286,   -0.128,    3.952,    2.289,   -0.078,   -0.055,
        0.043,    0.088,    0.007,   -0.013,   -0.001,   -4.543,    0.059,
        1.502,    1.094,   -2.819,   -1.774,   -0.243,   -0.547,   -1.902,
        0.599,   -0.397,    1.186,    3.265,    1.063,   -0.921,   -0.486,
        0.045,    0.071,    0.432,    1.301,   -0.473,    1.905,   -1.298,
        2.716,   -1.478,    0.112,    1.114,    0.547,    0.605,   -0.548,
       -2.707,   -0.348,    4.730,    1.019,    1.446,    0.058,    0.132,
       -0.134,    0.012,    2.563,   -0.698,    0.407,    4.090,   -0.417,
        0.169,   -1.126,   -0.723,    0.053,    0.299,   -1.587,   -0.604,
        1.025,   -8.231,    0.913,   -0.967,    0.761,    0.448,   -1.217,
        1.242,    3.651,    0.361,    1.240,    0.190,    1.940,    0.903
    },
    {   1.483,   -0.736,   -0.092,   -0.339,    0.212,   -0.023,    0.177,
        1.137,   -0.307,    0.105,   -2.745,    0.023,   -0.153,    0.269,
       -0.109,    0.136,    2.150,    0.028,   -0.979,   -0.160,    1.739,
       -0.328,   -0.305,    0.996,    0.420,   -0.000,    0.031,    1.035,
       -0.172,   -1.080,    0.617,    0.127,    0.942,    0.953,   -0.394,
        0.444,   -0.403,    0.225,    0.506,    1.303,    2.436,   -0.599,
       -0.242,    0.240,    0.361,   -0.196,   -0.760,   -1.051,    1.596,
       -0.706,    2.121,   -0.315,    0.112,    0.119,   -0.266,   -0.188,
       -0.049,    0.084,    0.154,    2.421,    2.116,    0.034,    0.070,
       -0.057,   -0.060,    0.029,    0.020,   -0.236,   -3.780,    0.033,
        2.319,   -0.680,   -4.213,   -1.374,    0.434,   -1.382,    0.180,
       -0.208,   -1.637,    0.937,    2.275,    1.027,   -0.635,   -0.437,
       -0.172,    0.422,    0.167,    1.034,   -0.196,    1.009,    0.041,
        0.890,   -0.366,   -0.335,    1.183,   -0.562,   -0.434,    0.746,
       -0.190,   -0.501,    4.483,    0.286,    1.150,    0.369,    0.299,
        0.467,    0.188,    1.807,    0.752,   -0.471,    3.521,    1.228,
        1.259,    0.103,   -0.174,   -0.189,    0.300,    2.408,   -1.530,
       -0.177,   -8.090,    1.333,   -1.422,    0.866,    0.613,   -1.540,
        1.271,    4.713,    0.391,    1.061,    0.315,    0.496,    0.909
    },
    {   1.709,   -0.372,   -1.041,   -0.499,   -0.309,    0.803,    0.002,
        1.836,    0.582,    0.352,   -3.641,   -0.478,   -0.551,    0.463,
        0.183,    0.156,    1.989,   -0.707,   -0.179,   -0.581,    1.830,
       -0.054,   -1.440,    1.333,    0.297,   -0.003,    0.066,    0.477,
       -0.464,   -1.054,    1.511,    0.276,    1.331,    1.467,    0.142,
       -0.062,   -0.756,   -0.932,    0.924,    1.185,    3.065,   -0.428,
       -0.508,    0.078,    0.428,   -0.097,   -0.660,   -1.765,    2.390,
       -0.729,    2.915,   -0.698,    0.170,   -0.102,   -0.072,    0.026,
        0.161,    0.311,   -0.548,    2.659,    2.323,   -0.069,   -0.026,
       -0.153,   -0.052,    0.019,    0.102,   -0.024,   -4.763,    0.171,
        1.651,   -0.196,   -1.445,   -1.008,    1.145,   -0.724,   -0.020,
        0.715,   -2.201,   -0.780,    3.512,    0.174,    1.136,    0.270,
        0.272,   -0.093,    0.272,    2.493,   -0.755,   -0.142,    2.499,
        0.845,   -0.356,   -0.287,   -0.135,   -0.082,    0.183,    1.160,
       -0.378,    1.485,    3.689,   -0.315,    0.343,    0.028,    0.343,
       -0.394,   -0.060,   -0.415,   -1.367,   -1.319,    3.066,   -0.329,
       -0.312,   -0.094,    0.168,   -0.026,   -0.946,    0.931,    0.483,
        0.081,  -11.006,    0.413,   -1.441,    0.372,    0.438,   -1.868,
        2.338,    3.769,    0.314,    1.434,    1.373,   -0.102,    3.719
    },
    {   3.696,   -1.065,    0.662,   -0.978,    0.154,   -0.111,    0.045,
        1.545,    0.828,    0.070,   -3.398,   -0.240,   -0.147,    0.199,
       -0.035,    0.097,    2.261,   -0.528,   -0.555,   -0.645,    1.646,
       -0.168,   -0.446,    0.475,    0.184,   -0.002,   -0.032,    1.335,
       -0.205,   -0.191,    0.640,    0.141,    1.535,    0.759,   -0.208,
        0.440,   -0.200,    0.780,   -1.253,    0.582,    2.839,   -0.615,
       -0.432,    0.314,    0.391,   -0.062,   -0.196,   -0.851,    1.292,
       -0.625,    2.876,   -0.598,    0.005,    0.132,   -0.136,   -0.009,
        0.145,    0.172,   -0.093,    2.424,    1.899,   -0.062,    0.007,
        0.009,    0.056,   -0.045,    0.100,   -0.149,   -3.177,    0.029,
        0.672,    1.225,   -1.930,   -0.833,   -0.871,   -0.702,   -0.582,
       -0.123,   -0.063,    0.695,    3.061,    0.786,    1.245,    0.270,
       -0.032,   -0.087,    0.171,    1.555,   -0.275,    0.259,    3.451,
        1.003,   -0.723,   -0.647,   -0.059,    0.260,    0.210,    1.121,
       -0.452,    2.147,    5.160,    0.021,   -1.157,    0.802,   -0.629,
       -0.782,    0.024,    1.130,   -0.738,   -0.821,    3.077,   -0.964,
       -1.201,   -0.886,    0.335,    0.068,   -0.513,    0.954,   -0.091,
       -0.424,  -10.427,    0.756,   -1.611,    1.710,    0.393,   -1.430,
        3.421,    4.689,    0.351,    1.222,    1.336,   -0.986,    0.516
    },
    {   3.165,   -1.587,    0.094,   -0.550,    0.413,   -0.165,   -0.547,
        1.609,    0.404,    0.017,   -3.330,   -0.035,   -0.062,    0.448,
       -0.039,   -0.025,    1.963,   -1.243,   -0.210,   -0.667,    1.682,
       -0.482,   -0.819,    0.196,    0.088,    0.107,    0.095,    1.448,
       -0.377,   -0.777,    1.745,    0.333,    1.675,    1.361,   -0.223,
        0.401,   -0.306,    1.045,   -0.430,    0.270,    2.276,   -0.526,
       -0.280,    0.083,    0.316,   -0.053,   -0.323,   -0.963,    1.310,
       -0.458,    1.841,   -0.488,   -0.105,    0.056,   -0.115,   -0.026,
        0.003,   -0.161,    0.450,    2.185,    1.941,   -0.011,    0.083,
       -0.009,    0.027,    0.022,    0.081,    0.048,   -3.701,    0.164,
       -0.028,    1.290,   -0.365,   -0.336,    0.114,   -1.219,   -0.753,
        0.039,   -0.114,   -0.491,    3.162,    0.227,    0.973,    0.052,
        0.194,    0.001,    0.145,    1.581,   -0.068,    0.004,    2.244,
        0.989,   -0.254,   -0.158,   -0.047,    0.038,    0.110,    1.177,
       -0.210,    0.943,    2.255,    0.069,    1.161,   -0.226,   -0.555,
       -0.428,   -0.118,   -0.772,   -0.225,    0.219,    0.484,    1.202,
        0.671,    0.025,   -0.853,   -1.302,   -0.437,    0.581,    0.247,
       -0.395,   -7.447,    0.544,   -1.325,    1.074,    0.498,   -1.931,
        1.264,    3.830,    0.496,    1.996,    1.394,    0.367,   -0.505
    },
    {   2.335,    0.021,   -0.522,    0.458,   -0.108,    0.030,   -0.025,
        1.201,    0.736,   -0.251,   -3.575,   -0.437,   -0.371,    0.460,
       -0.016,    0.180,    2.533,   -0.792,   -0.389,   -0.352,    1.797,
       -0.724,   -0.845,   -0.311,    0.246,    0.075,   -0.119,    1.309,
       -0.544,   -0.902,    0.940,    0.790,    2.180,    1.906,   -0.432,
        0.381,   -0.478,    0.769,   -1.034,    0.605,    3.642,   -0.676,
       -0.831,    0.152,    0.385,    0.052,   -0.497,   -1.616,    2.400,
       -1.025,    3.029,   -0.900,   -0.006,   -0.039,   -0.077,   -0.005,
        0.056,    0.411,    0.048,    2.403,    2.184,   -0.046,    0.052,
       -0.006,    0.005,    0.025,    0.150,   -0.073,   -4.288,    0.116,
        0.429,   -1.004,   -1.268,    0.444,   -0.769,   -0.360,    0.860,
        0.182,    0.162,    0.570,    3.395,    0.154,    1.024,    0.185,
        0.328,   -0.098,    0.213,    1.709,   -0.162,   -0.003,    1.853,
        0.726,   -0.277,   -0.141,   -0.078,    0.018,    0.140,    0.667,
       -0.590,    1.317,   -0.249,   -1.052,   -1.497,   -1.167,    0.457,
        0.164,   -0.141,   -0.565,   -0.099,    1.153,   -0.302,   -0.807,
       -0.053,   -0.633,    0.786,    0.097,   -0.057,    0.429,    0.069,
        0.369,   -9.399,    1.130,   -1.451,    0.946,    0.726,   -1.529,
        2.053,    3.914,   -0.031,    1.895,    1.870,    0.471,    0.056
    },
    {   1.457,   -0.352,   -0.588,    0.594,    0.174,   -0.071,   -0.125,
        0.884,   -0.244,   -0.177,   -3.542,   -0.269,   -0.292,    0.428,
       -0.111,   -0.114,    2.512,   -0.493,   -0.736,   -0.359,    1.734,
       -0.867,   -0.400,   -0.840,    0.149,    0.112,    0.098,    1.119,
        0.331,   -0.109,    1.259,    0.623,    2.357,    1.509,   -0.767,
        0.347,   -0.727,    0.773,   -0.471,   -0.016,    3.386,   -0.955,
       -0.297,    0.258,    0.222,    0.031,   -0.454,   -1.075,    1.334,
       -0.765,    2.390,   -0.421,    0.069,   -0.110,   -0.099,   -0.119,
       -0.098,    0.122,   -0.029,    1.928,    1.749,   -0.007,    0.002,
       -0.025,    0.076,    0.050,    0.001,   -0.265,   -2.713,    0.004,
        2.040,   -0.911,   -1.098,   -0.205,    1.327,   -1.107,   -0.740,
       -0.898,    1.315,   -0.404,    3.179,    0.362,    0.939,    0.185,
        0.056,   -0.087,    0.211,    1.866,   -0.523,    0.115,    2.071,
        0.643,   -0.368,   -0.221,    0.042,    0.002,    0.144,    0.742,
       -0.353,    1.000,   -1.225,    0.073,   -0.403,    0.458,   -0.106,
       -0.238,    0.817,   -0.049,    0.612,    0.125,   -3.350,    1.252,
       -0.027,    0.955,   -0.650,    0.288,   -0.019,   -0.457,    0.741,
        0.813,  -10.778,    1.517,   -1.789,    0.767,    0.448,   -3.013,
        2.996,    4.836,   -0.302,    2.229,    2.509,    0.520,   -0.585
    },
    {   1.136,   -0.946,   -0.984,    0.850,    0.030,    0.301,    0.352,
        0.317,   -0.086,   -0.888,   -2.775,   -0.222,   -0.111,    0.122,
       -0.080,    0.186,    1.622,   -0.215,   -0.600,   -0.319,    1.864,
       -0.384,   -0.176,   -0.069,    0.103,    0.000,   -0.029,    0.721,
        0.004,   -0.065,   -0.469,    0.571,   -1.048,   -0.616,   -0.063,
       -0.538,   -0.746,   -0.337,   -0.007,    0.359,    2.589,   -0.497,
       -0.282,    0.134,    0.199,   -0.174,   -0.245,   -0.925,    1.170,
       -0.644,    1.267,    0.058,    0.296,   -0.174,   -0.016,    0.603,
        0.067,    0.954,    0.419,   -1.703,    1.857,   -0.103,    0.006,
       -0.091,    0.031,    0.046,    0.037,   -0.071,   -3.604,    0.011,
        0.705,    0.546,    1.763,    1.536,   -0.162,   -0.421,   -0.562,
       -0.308,    0.052,    0.636,    2.179,    0.233,    0.683,    0.121,
        0.101,   -0.018,    0.148,    0.845,   -0.365,   -0.020,    2.566,
        1.024,   -0.704,   -0.214,   -0.076,    0.135,    0.250,    0.855,
       -0.305,    0.862,   -1.390,    0.297,    0.220,   -1.452,   -0.535,
        0.479,   -0.773,    0.791,    0.680,    0.437,   -1.729,    0.254,
       -0.156,    0.058,    0.119,   -0.065,    0.021,   -0.212,    0.137,
       -1.685,  -12.747,    0.552,   -1.929,    4.503,    0.564,   -2.888,
        0.448,    3.901,    0.491,    3.143,    1.851,   -0.151,   -2.549
    },
    {   3.454,   -0.244,   -1.867,    1.621,   -0.014,    0.168,   -0.307,
        1.231,    0.275,   -0.297,   -3.494,    0.041,   -0.048,    0.227,
       -0.176,    0.184,    1.709,   -0.691,   -0.809,   -0.305,    1.519,
       -0.621,   -0.183,   -0.158,    0.212,    0.129,    0.181,    1.415,
       -0.262,   -0.120,    0.150,    0.784,   -1.326,   -0.463,    0.252,
       -1.023,   -1.257,    0.130,   -0.291,    0.426,    3.611,   -0.709,
       -0.835,    0.379,    0.755,   -0.057,   -0.655,   -1.109,    2.494,
       -0.738,   -0.461,    0.574,   -1.059,    0.608,    0.121,    1.266,
        0.702,    0.720,    0.769,    0.164,    1.998,   -0.051,    0.041,
       -0.096,    0.085,    0.044,    0.142,   -0.153,   -3.732,    0.028,
        1.056,    0.239,    2.450,    1.427,   -0.626,    0.786,   -1.187,
        0.711,   -0.919,    0.836,    3.294,    0.692,    1.091,    0.160,
        0.052,   -0.052,    0.103,    1.939,   -0.529,    0.115,    3.213,
        1.188,   -0.777,   -0.550,   -0.040,    0.126,    0.218,    1.017,
       -0.267,    1.648,   -1.051,   -2.792,    0.162,   -1.221,    0.541,
        0.220,    0.460,   -0.528,   -0.128,   -0.405,   -2.738,    0.364,
       -0.151,   -0.070,    0.181,    0.081,   -0.091,    0.063,   -0.000,
       -3.127,  -10.690,    0.569,   -2.867,    1.507,    0.452,   -0.962,
        0.197,    4.183,    0.506,    1.809,    1.283,    0.047,   -2.003
    },
    {   1.301,   -0.324,   -0.866,    0.337,    0.215,    0.211,   -0.334,
        0.865,   -0.186,   -0.794,   -3.384,   -0.069,   -0.329,    0.240,
       -0.085,    0.137,    2.067,   -0.686,   -0.768,   -0.122,    2.403,
       -0.547,   -0.368,   -0.309,    0.204,    0.172,    0.066,    1.297,
        0.834,   -0.177,   -0.367,    0.343,   -1.787,   -0.928,   -0.085,
       -0.457,   -0.877,   -0.379,   -0.787,    0.929,    2.058,   -0.191,
       -0.399,   -0.044,    0.294,   -0.037,   -0.482,   -1.203,    1.696,
       -0.635,   -0.122,   -0.803,   -0.413,    0.686,    0.529,    0.018,
        1.821,    0.259,    0.228,    0.463,    2.107,   -0.035,    0.130,
       -0.157,    0.042,    0.017,    0.060,   -0.014,   -3.862,    0.014,
        1.052,    0.826,    2.542,    1.767,   -0.713,    0.829,   -1.440,
        1.088,   -1.400,    0.137,    3.158,    0.784,    1.034,    0.252,
        0.100,   -0.101,    0.077,    2.028,   -0.615,   -0.049,    2.793,
        1.105,   -0.648,   -0.505,    0.007,    0.088,    0.137,    0.667,
       -0.226,    1.305,   -4.450,    0.167,    0.833,    0.423,   -0.372,
        1.161,    0.054,   -1.049,    0.676,    0.280,   -2.546,    0.648,
       -0.228,    0.143,    0.153,    0.088,   -0.037,   -0.480,    0.286,
       -2.320,   -8.208,    0.691,   -1.519,    0.917,    0.626,   -1.856,
        0.424,    4.062,    0.544,    1.519,    1.418,   -0.062,   -1.971
    },
    {   2.386,   -0.483,   -0.524,    0.166,    0.232,   -0.036,   -0.052,
        1.332,    0.309,   -0.520,   -2.598,   -0.102,   -0.102,   -0.034,
       -0.122,    0.145,    1.412,   -0.385,   -0.217,   -0.532,    1.773,
        0.232,    0.203,   -0.490,    0.038,    0.240,   -0.208,    0.947,
        0.133,    0.292,    0.126,    0.223,   -1.896,   -1.028,   -0.165,
       -0.677,   -1.499,   -1.291,    0.220,    0.791,    3.004,   -0.648,
       -0.670,    0.112,    0.541,   -0.148,   -0.731,   -1.611,    2.351,
       -0.673,   -0.148,   -2.028,   -1.304,    0.346,    0.596,   -0.019,
        2.450,   -0.288,   -0.134,    0.650,    2.220,   -0.065,    0.051,
       -0.064,    0.078,    0.091,    0.072,    0.135,   -4.367,    0.070,
        0.641,    0.515,    1.364,    1.026,   -0.156,    0.449,   -0.338,
        0.836,   -0.956,    0.208,    2.751,    0.416,    0.930,    0.070,
       -0.052,   -0.247,    0.217,    1.270,   -0.475,    0.127,    2.713,
        0.614,   -0.811,   -0.074,   -0.089,    0.086,    0.291,    0.715,
       -0.195,    1.762,   -5.011,   -0.103,   -0.108,    1.533,   -0.674,
       -0.460,   -0.106,    0.251,    0.071,   -0.011,   -3.480,    1.293,
       -0.277,    0.187,    0.131,    0.062,   -0.233,   -0.078,   -0.152,
       -2.077,   -9.605,    1.748,   -2.364,    1.251,    0.670,   -1.369,
        0.546,    4.326,    0.915,    1.968,    1.412,    1.842,   -1.707
    },
    {   1.566,   -0.421,   -0.189,   -0.143,    0.058,    0.132,   -0.032,
        1.302,    0.083,   -0.392,   -2.772,   -0.133,   -0.155,    0.171,
       -0.036,    0.194,    1.761,   -0.432,   -0.673,   -0.573,    2.429,
        0.547,   -1.247,    1.212,    0.114,   -0.079,   -0.190,    0.552,
        0.124,   -0.283,    0.015,    0.483,   -1.715,   -0.994,   -0.180,
       -1.048,   -1.500,   -0.777,    0.407,    0.526,    2.628,   -0.566,
       -0.164,    0.222,    0.278,   -0.098,   -0.536,   -1.255,    1.556,
       -0.635,    0.048,   -1.433,   -1.172,    0.416,    0.752,   -0.122,
        1.987,   -0.762,   -0.300,    0.281,    2.078,   -0.009,   -0.053,
       -0.014,   -0.016,    0.031,    0.143,    0.033,   -4.052,    0.065,
        0.589,    0.328,    1.424,    0.726,   -0.235,    0.419,   -0.803,
        0.681,   -0.726,    0.250,    3.511,    0.448,    1.139,    0.316,
        0.255,   -0.070,    0.160,    1.599,   -0.058,    0.152,    2.997,
        1.095,   -0.620,   -0.521,   -0.107,    0.226,    0.212,    1.263,
       -0.496,    1.647,   -6.071,   -0.296,    1.139,    0.463,    0.628,
        0.382,    0.443,    0.965,    0.953,    0.379,   -2.883,    0.793,
       -0.063,    0.025,    0.141,    0.127,   -0.130,   -0.050,   -0.005,
       -2.244,   -8.504,    1.588,   -1.678,    0.495,    0.463,   -2.377,
        0.709,    4.420,    1.008,    1.854,    1.647,    0.808,   -2.171
    },
    {   2.800,   -0.821,   -0.632,   -0.546,    0.277,    0.448,    0.088,
        2.019,   -0.035,   -0.889,   -3.714,   -0.088,   -0.173,    0.209,
       -0.118,    0.129,    3.002,   -0.124,   -1.250,   -0.351,    1.850,
       -0.187,   -0.853,    0.709,    0.320,   -0.025,   -0.192,    2.136,
       -0.468,   -0.803,   -0.397,    0.583,   -2.795,   -1.235,   -0.162,
       -1.072,   -1.240,   -1.756,   -0.093,    1.310,    2.594,   -0.510,
       -0.579,    0.060,    0.453,    0.029,   -0.659,   -1.541,    1.732,
       -0.617,   -0.387,   -1.149,   -1.408,    0.526,    0.319,   -0.188,
        2.664,   -0.444,   -0.196,    0.554,    2.034,   -0.081,    0.077,
       -0.125,    0.089,   -0.026,    0.174,    0.023,   -3.913,    0.107,
        0.839,    0.552,    1.964,    1.029,   -0.208,    0.497,   -0.808,
        0.804,   -0.580,    0.183,    2.776,    0.517,    0.854,    0.174,
       -0.078,   -0.091,    0.113,    1.603,   -0.481,    0.109,    2.338,
        0.883,   -0.496,   -0.452,   -0.135,    0.227,    0.166,    0.727,
       -0.486,    1.417,   -4.129,    0.631,    0.201,    0.332,   -0.607,
       -0.372,   -0.556,   -1.653,   -1.609,   -0.803,   -2.490,    0.581,
       -0.176,    0.163,    0.053,    0.019,   -0.023,   -0.374,   -0.002,
       -1.819,   -9.848,    0.709,   -1.517,    0.681,    0.622,   -1.808,
        0.589,    4.007,    0.783,    2.424,    1.443,   -0.172,   -3.025
    },
    {   1.828,   -0.656,   -0.275,   -0.170,    0.058,    0.095,    0.119,
        1.598,   -0.279,   -0.273,   -3.379,   -0.234,   -0.149,   -0.059,
       -0.096,    0.049,    1.664,   -0.635,   -0.811,   -0.422,    3.510,
       -0.164,   -0.647,    0.777,    0.009,   -0.224,   -0.038,   -0.186,
       -0.007,    1.613,    0.311,    0.175,   -1.361,   -0.645,   -0.179,
       -0.435,   -0.888,   -1.019,    0.449,    0.648,    4.007,   -1.334,
       -0.692,    0.044,    0.385,   -0.025,   -0.313,   -1.032,    2.034,
       -0.841,    1.755,   -0.021,   -0.046,    0.315,   -0.364,    0.714,
        1.876,    1.838,   -0.308,    0.278,    1.912,    0.021,    0.137,
       -0.054,    0.019,    0.078,    0.187,    0.041,   -3.656,   -0.004,
        0.388,    0.444,    1.584,    0.875,   -0.049,    0.424,   -0.209,
        0.512,   -0.730,    0.117,    3.465,    1.230,    0.981,    0.150,
       -0.043,   -0.194,    0.116,    1.747,   -0.641,    0.079,    3.839,
        1.289,   -1.227,   -0.418,    0.106,    0.303,    0.390,    1.642,
       -0.867,    1.841,   -1.438,    0.947,    0.533,   -1.091,   -1.240,
        0.353,   -0.431,   -0.726,   -0.164,   -0.169,   -2.757,    0.526,
       -0.238,    0.238,    0.141,    0.137,    0.154,   -0.069,   -0.108,
       -2.508,  -11.714,    1.680,   -2.647,    1.498,    0.964,   -1.014,
        0.390,    3.880,    0.854,    1.539,    1.224,   -0.340,   -1.988
    },
    {   1.582,   -0.452,   -0.183,   -0.231,    0.142,    0.098,   -0.192,
        0.794,    0.240,   -0.589,   -2.515,   -0.361,   -0.148,    0.316,
       -0.047,   -0.021,    1.281,   -0.313,   -0.161,   -0.361,    2.144,
       -0.078,   -0.513,    0.521,   -0.007,    0.037,   -0.161,    1.131,
        0.061,    0.466,    0.079,    0.400,   -2.386,   -0.963,   -0.241,
       -0.760,   -1.030,   -1.050,   -0.120,    1.018,    2.737,   -0.641,
       -0.317,   -0.075,    0.183,    0.096,   -0.282,   -0.845,    1.183,
       -0.695,    1.002,    0.211,    0.402,    0.682,    0.403,    0.683,
        2.527,    0.515,   -1.610,    1.242,    2.024,   -0.083,   -0.045,
       -0.011,    0.045,   -0.058,    0.025,    0.110,   -3.473,   -0.092,
        0.790,    0.423,    1.801,    0.985,   -0.430,    0.391,   -0.704,
        0.667,   -0.818,    0.736,    2.938,    0.439,    0.719,    0.257,
        0.101,   -0.154,    0.184,    1.384,   -0.179,    0.176,    3.150,
        0.996,   -1.025,   -0.285,   -0.028,    0.095,    0.465,    0.711,
       -0.718,    1.615,   -1.575,    1.497,    1.202,   -0.989,   -0.706,
       -0.163,   -0.096,   -0.616,    0.024,    0.591,   -2.842,    0.560,
       -0.144,    0.149,    0.076,    0.067,    0.041,   -0.277,    0.066,
       -2.503,  -11.285,    1.942,   -2.230,    0.860,    0.568,   -3.094,
        0.457,    4.384,    0.694,    2.831,    1.336,   -0.316,   -2.711
    },
    {   2.005,   -0.476,   -0.195,   -0.102,    0.350,    0.186,    0.117,
        1.804,   -0.002,   -0.315,   -3.348,   -0.220,   -0.276,    0.272,
       -0.072,    0.177,    1.977,   -0.870,   -0.370,   -0.700,    5.588,
       -0.787,    0.358,   -0.612,   -0.023,   -0.982,    0.482,    0.635,
       -0.890,    0.285,   -0.082,    0.508,   -1.265,   -0.599,    0.139,
       -0.978,   -0.834,   -0.015,   -0.347,    0.727,    3.386,   -0.783,
       -0.891,    0.608,    0.414,    0.099,   -0.707,   -1.034,    1.168,
       -0.585,    1.830,   -0.562,    0.892,    0.671,    0.554,    0.140,
        1.035,   -0.111,    1.064,    0.441,    1.734,   -0.049,    0.011,
       -0.016,    0.139,    0.010,    0.068,    0.017,   -3.375,   -0.033,
        0.776,    0.469,    1.455,    1.018,   -0.479,    0.519,   -0.497,
        0.386,   -0.194,    0.198,    3.591,    0.654,    1.080,    0.285,
        0.022,   -0.096,    0.123,    1.500,   -0.195,    0.182,    2.563,
        1.101,   -0.578,   -0.385,   -0.181,    0.190,    0.335,    0.966,
       -0.669,    0.928,   -3.131,    0.232,    1.387,   -0.685,   -0.206,
       -0.058,    0.508,   -0.731,   -0.140,   -0.110,   -1.825,    0.439,
        0.030,    0.164,    0.179,    0.048,   -0.041,   -0.109,    0.098,
       -1.735,   -9.369,    1.169,   -1.593,   -0.483,    0.457,   -1.315,
        0.275,    4.195,    0.604,    1.761,    1.246,   -1.450,   -1.952
    },
    {   2.323,   -0.347,   -1.493,    1.101,    0.124,    0.220,   -0.306,
        1.382,   -0.139,   -1.229,   -3.350,   -0.248,   -0.276,    0.381,
       -0.185,   -0.012,    2.147,   -0.690,   -0.691,   -0.320,    9.407,
       -0.818,    0.800,   -2.768,   -0.825,    0.008,    1.035,    0.545,
       -1.114,   -0.570,    0.017,    0.883,   -1.980,   -0.656,   -0.191,
       -0.668,   -0.621,   -0.678,   -0.303,    0.951,    2.750,   -0.248,
       -0.491,   -0.050,    0.612,   -0.080,   -0.568,   -1.946,    2.002,
       -0.406,   -1.102,   -1.202,   -2.145,   -0.614,   -0.423,   -0.155,
       -1.661,    0.608,   -0.180,   -1.011,    2.043,   -0.061,    0.020,
       -0.146,    0.097,    0.015,    0.036,   -0.059,   -4.007,   -0.055,
        1.010,    0.494,    1.952,    1.084,   -0.177,    0.377,   -0.379,
        0.992,   -0.617,    0.835,    4.293,    0.555,    1.070,    0.365,
        0.217,   -0.056,    0.313,    2.937,   -1.049,    0.169,    3.663,
        1.197,   -0.988,   -0.413,   -0.045,    0.318,    0.292,    1.465,
       -0.783,    2.233,   -1.627,    0.531,    0.308,    0.157,   -0.114,
        0.008,   -0.136,   -1.027,   -0.064,   -0.102,   -3.096,    0.584,
       -0.187,   -0.004,    0.130,    0.106,    0.036,   -0.123,    0.321,
       -3.375,   -9.843,    0.441,   -1.740,    0.783,    0.424,   -1.734,
       -0.077,    4.091,    0.577,    1.950,    1.214,   -1.544,   -1.920
    },
    {   1.911,   -0.745,   -0.667,    0.029,    0.203,    0.124,    0.151,
        1.424,   -0.005,   -0.568,   -3.227,   -0.119,   -0.170,    0.333,
       -0.083,    0.086,    1.991,   -0.580,   -0.616,   -0.412,    2.635,
        0.931,   -0.553,    1.275,    0.522,    0.271,    0.455,   -1.280,
       -0.673,   -0.092,   -0.344,    0.996,   -0.893,   -0.005,   -0.141,
       -0.278,   -0.457,    0.471,   -0.809,    0.328,    3.190,   -0.587,
       -0.699,    0.128,    0.359,    0.193,   -0.063,   -0.911,    1.712,
       -0.827,   -6.254,   -0.966,   -0.688,    1.316,    1.563,   -0.319,
       -0.796,    0.157,    1.570,   -1.400,    1.981,   -0.152,    0.054,
       -0.094,    0.077,    0.043,    0.087,    0.134,   -3.842,    0.018,
        0.777,    0.612,    1.752,    1.234,   -0.322,    0.282,   -0.602,
        0.642,   -0.746,    0.331,    3.629,    0.151,    1.119,    0.260,
        0.174,   -0.017,    0.175,    1.305,    0.170,    0.012,    2.634,
        1.107,   -0.472,   -0.299,    0.095,    0.048,    0.212,    1.111,
       -0.465,    1.164,   -2.626,    0.831,    0.603,   -1.289,    0.120,
       -0.275,    0.114,   -0.522,   -0.074,   -1.135,   -2.005,    0.469,
       -0.092,    0.203,    0.133,    0.114,    0.004,   -0.115,   -0.014,
       -2.010,   -9.810,    1.407,   -1.640,    0.368,    0.521,   -1.761,
       -0.184,    3.791,    0.517,    2.932,    1.479,   -0.437,   -1.828
    },
    {   1.089,   -0.167,   -0.143,    0.002,    0.064,    0.084,    0.068,
        1.205,   -0.133,    0.005,   -3.290,   -0.136,   -0.493,    0.470,
       -0.053,    0.181,    2.638,   -0.274,   -0.513,   -0.343,    3.947,
        2.064,    0.117,   -0.479,   -0.606,    0.364,    0.616,    0.172,
       -0.033,    1.486,   -0.012,    0.484,   -1.143,   -0.460,   -0.218,
       -0.501,   -0.422,   -0.394,    0.214,    0.608,    6.712,   -0.425,
        0.443,   -0.510,    0.150,   -0.019,   -2.001,   -0.612,   -0.630,
       -1.303,   -1.027,   -0.526,    0.371,   -0.103,    1.143,    2.415,
       -0.121,   -0.235,    0.417,    0.145,    2.123,   -0.068,   -0.010,
       -0.117,    0.055,    0.054,    0.110,   -0.083,   -3.826,   -0.056,
        0.669,    0.172,    1.230,    0.856,   -0.052,    0.160,   -0.423,
       -0.299,   -0.118,    0.619,    3.473,    1.037,    1.276,    0.286,
       -0.131,   -0.321,    0.325,    1.311,   -0.934,   -0.326,    2.637,
        0.893,   -0.916,   -0.163,   -0.055,   -0.116,    0.027,    0.066,
       -0.216,    1.633,   -5.320,    0.693,    1.956,   -0.297,    0.410,
        0.218,    0.365,    0.197,    0.168,   -0.685,   -3.239,    0.933,
       -0.254,   -0.050,    0.108,   -0.060,   -0.286,   -0.161,    0.332,
       -2.588,  -10.403,    2.531,   -1.258,    0.630,    0.753,   -1.473,
        0.080,    4.753,    0.858,    1.135,    0.726,   -1.227,   -2.383
    },
    {   1.056,   -0.280,   -0.226,   -0.026,    0.011,    0.096,   -0.271,
        0.692,   -0.121,    0.028,   -3.477,   -0.811,   -0.293,    0.215,
        0.113,    0.136,    1.806,   -0.183,   -0.675,   -1.105,    3.627,
       -0.582,    0.111,   -1.625,    0.420,    0.096,   -0.586,    0.225,
       -0.445,    0.179,   -0.033,    0.806,   -0.937,   -0.317,    0.452,
       -0.859,   -0.855,    0.617,   -0.740,    0.238,    8.241,   -0.503,
       -0.853,   -1.840,    1.205,    0.395,   -1.056,   -0.077,   -0.057,
       -2.283,   -0.993,   -0.460,    0.773,   -0.518,    0.110,   -0.323,
       -2.300,   -0.980,    0.725,   -0.089,    2.052,    0.076,   -0.007,
       -0.111,    0.102,   -0.012,    0.195,    0.024,   -3.705,   -0.039,
        0.444,    0.369,    1.575,    0.757,   -0.249,    0.358,   -0.786,
        0.103,   -1.002,    0.404,    4.100,    0.492,    1.362,    0.319,
        0.162,   -0.111,    0.390,    1.984,   -0.244,   -0.027,    3.839,
        0.715,   -0.998,   -0.600,    0.219,    0.098,    0.277,    1.526,
       -0.281,    1.367,   -4.220,    0.506,   -0.111,    0.136,   -0.129,
        0.212,   -0.272,   -3.031,   -0.120,   -0.064,   -3.017,    0.590,
       -0.262,    0.032,    0.168,   -0.039,    0.056,    0.034,   -0.023,
       -2.873,  -12.500,    2.180,   -1.552,    0.641,    0.540,   -0.407,
       -0.686,    3.990,    0.738,    1.641,    1.538,   -1.351,   -2.177
    },
    {   2.265,   -0.444,   -0.457,   -0.040,    0.188,    0.083,    0.020,
        1.439,    0.189,   -0.464,   -3.511,   -0.323,   -0.144,    0.143,
       -0.090,   -0.122,    2.671,   -0.560,   -0.698,   -0.671,    1.334,
       -0.044,   -0.306,    0.504,   -0.188,    0.335,    1.191,    1.322,
        0.041,    0.765,    0.530,    0.356,   -1.832,   -0.982,   -0.265,
       -0.463,   -1.011,   -0.587,    0.033,    0.753,    2.582,   -0.229,
       -0.173,   -0.015,    0.312,   -0.085,   -0.150,   -0.115,    1.099,
       -0.428,   -0.822,    0.574,   -1.060,    0.472,   -1.170,    0.584,
        0.799,    0.148,    0.519,   -0.041,    1.729,   -0.039,   -0.014,
       -0.013,    0.047,    0.024,    0.068,   -0.073,   -3.412,    0.049,
        0.641,    0.286,    1.286,    0.805,   -0.006,    0.260,   -0.562,
        0.416,   -0.400,    0.149,    3.866,    0.766,    1.260,    0.108,
        0.274,   -0.339,   -0.074,    1.756,    0.035,    0.096,    3.114,
        1.066,   -0.549,   -0.528,   -0.020,    0.105,    0.390,    1.493,
       -0.962,    2.134,   -1.433,    1.369,    0.612,    0.030,   -0.316,
       -1.878,    0.456,   -0.706,    0.832,    0.256,   -2.538,    0.798,
       -0.246,    0.197,    0.195,    0.085,   -0.000,   -0.587,    0.276,
       -1.650,   -7.181,    1.936,   -1.291,    0.643,    0.622,   -2.514,
       -0.179,    3.498,    0.735,    1.231,    1.237,    0.034,   -1.969
    },
    {   1.786,   -0.567,   -0.219,    0.026,    0.084,   -0.016,    0.051,
        1.256,    0.050,   -0.547,   -2.896,   -0.124,   -0.065,    0.345,
       -0.126,   -0.003,    1.849,   -0.408,   -0.647,   -0.289,    1.880,
       -0.094,    0.422,   -0.084,   -0.304,    0.516,    0.983,   -1.609,
        1.243,    1.439,   -0.017,    0.703,   -2.095,   -0.724,   -0.205,
       -0.816,   -1.253,   -0.873,    0.528,    0.828,    2.686,   -0.335,
       -0.429,   -0.090,    0.283,   -0.018,   -0.614,   -1.250,    1.822,
       -0.611,    0.684,    0.259,    1.193,    0.418,   -0.769,   -0.256,
        0.933,   -1.513,   -0.018,   -0.385,    1.972,   -0.083,    0.046,
       -0.070,    0.023,   -0.008,    0.180,   -0.090,   -3.746,    0.027,
        1.029,    0.705,    1.912,    1.617,   -0.357,    0.885,   -0.410,
        1.365,   -1.034,    0.655,    3.493,    0.917,    1.257,    0.064,
       -0.109,   -0.110,    0.159,    2.223,   -0.912,    0.589,    3.409,
        0.991,   -1.186,   -0.393,    0.020,    0.083,    0.207,    1.029,
       -0.570,    2.007,    1.549,   -1.222,   -0.672,    0.902,    1.393,
        0.415,    0.668,    1.155,    0.148,   -0.090,   -3.359,    0.810,
       -0.259,    0.239,    0.271,    0.005,    0.046,   -0.289,    0.478,
       -3.415,   -8.238,    1.651,   -2.205,    0.506,    0.725,   -2.565,
       -0.184,    3.924,    0.679,    1.689,    1.127,    0.420,   -1.851
    },
    {   1.750,   -0.457,   -0.054,    0.003,    0.310,    0.027,    0.002,
        1.087,    0.035,   -0.066,   -3.332,   -0.335,   -0.243,    0.198,
       -0.146,   -0.060,    2.021,   -0.570,   -0.342,   -0.302,   -3.686,
       -0.146,    1.704,    0.757,   -0.345,    0.099,    0.722,   -1.305,
       -0.582,   -0.054,    0.075,    0.804,   -2.719,   -1.421,    0.176,
       -0.925,   -0.866,   -1.072,    0.405,    1.739,    2.672,   -0.558,
       -0.555,    0.142,    0.496,   -0.051,   -0.360,   -0.979,    1.527,
       -0.742,    3.127,   -1.082,   -0.927,   -0.499,   -1.638,   -0.632,
        0.763,    1.723,    0.125,    0.539,    2.132,   -0.092,    0.018,
       -0.057,    0.052,    0.023,    0.104,   -0.003,   -4.358,    0.107,
        1.022,    0.659,    2.195,    1.850,   -0.879,    0.624,   -0.912,
        1.044,   -0.747,    0.692,    3.418,    0.607,    1.158,    0.205,
        0.038,   -0.171,    0.121,    1.973,   -0.283,   -0.027,    3.229,
        1.159,   -0.407,   -0.455,   -0.062,    0.052,    0.252,    0.891,
       -0.514,    2.367,    2.383,    0.642,   -1.726,    1.446,   -0.476,
        0.077,   -0.240,    0.921,   -0.153,   -0.780,   -2.638,    0.470,
       -0.084,    0.022,    0.179,    0.041,   -0.018,    0.010,    0.095,
       -2.331,  -10.663,    2.263,   -1.978,   -0.424,    0.351,   -1.371,
        0.275,    4.035,    0.486,    1.280,    1.193,    0.414,   -2.624
    },
    {   1.392,   -0.537,   -0.608,    0.089,    0.167,    0.143,   -0.095,
        0.899,   -0.103,   -0.620,   -3.753,   -0.084,   -0.168,    0.301,
       -0.158,   -0.071,    2.515,   -0.680,   -0.956,   -0.207,   -3.686,
        0.079,   -0.652,   -0.262,   -0.489,    0.726,   -0.012,    0.802,
       -1.195,    0.775,    0.403,    0.598,   -0.852,   -0.429,   -0.224,
       -0.210,   -0.310,    0.345,   -0.329,    0.684,    2.288,   -0.290,
       -0.585,    0.321,    0.483,    0.020,   -0.644,   -1.246,    1.662,
       -0.571,    7.846,    0.275,   -0.175,   -0.199,   -0.759,   -0.036,
        1.134,    2.018,   -0.006,    0.602,    2.135,    0.031,    0.066,
       -0.115,    0.084,    0.019,    0.075,    0.050,   -4.344,    0.041,
        1.082,    0.733,    1.977,    1.160,   -0.204,    0.118,   -0.920,
       -0.205,    0.419,    0.999,    2.968,    0.370,    1.046,    0.208,
        0.089,   -0.140,    0.235,    1.698,   -0.309,   -0.046,    3.455,
        1.049,   -0.710,   -0.627,   -0.178,    0.255,    0.179,    1.435,
       -0.677,    1.565,    3.005,    0.494,   -1.244,    1.365,    0.490,
       -0.183,   -0.216,   -0.382,    1.075,    0.312,   -2.096,    0.454,
       -0.029,    0.024,   -0.010,    0.069,   -0.022,   -0.324,    0.073,
       -1.653,   -8.349,    1.423,   -1.463,    1.394,    0.285,   -1.578,
       -0.489,    4.075,    0.356,    1.825,    1.605,    0.812,   -2.994
    },
    {   1.819,   -0.717,   -0.233,   -0.222,   -0.006,    0.082,    0.119,
        1.384,    0.009,   -0.188,   -2.917,   -0.022,   -0.130,    0.234,
       -0.033,    0.011,    1.833,   -0.511,   -0.529,   -0.194,   -5.363,
       -0.252,    0.232,   -0.275,   -1.939,    0.212,   -0.046,   -0.810,
        0.293,   -0.725,    3.055,   -0.354,    0.193,    0.445,   -0.068,
        0.429,    0.177,    2.044,   -0.575,   -0.002,    2.057,   -0.365,
       -0.049,    0.146,    0.158,   -0.096,   -0.403,   -1.127,    0.987,
       -0.599,    4.807,    0.422,   -0.293,    0.382,   -0.503,    0.560,
        0.261,    0.531,   -0.247,    0.606,    1.765,   -0.040,    0.015,
       -0.135,    0.021,    0.035,    0.123,   -0.011,   -3.334,   -0.009,
        0.870,    0.484,    1.608,    1.293,   -0.271,   -0.360,   -0.804,
       -0.708,   -0.250,    0.860,    2.469,    0.237,    0.733,    0.155,
        0.085,    0.030,    0.133,    1.026,   -0.065,   -0.090,    2.142,
        0.842,   -0.365,   -0.389,    0.030,    0.043,    0.218,    1.168,
       -0.444,    1.173,    1.209,   -0.168,   -0.886,    0.882,    0.277,
        0.066,   -0.330,    0.741,   -0.414,   -0.484,   -2.272,    0.344,
       -0.076,    0.007,    0.097,    0.033,   -0.016,   -0.113,    0.053,
       -1.690,   -6.264,    1.198,   -1.986,    0.677,   -0.351,   -2.506,
       -3.933,    4.103,    0.410,    2.321,    1.607,    0.774,   -4.427
    },
    {   1.884,    0.391,   -0.817,   -0.312,    0.015,    0.017,    0.036,
        0.145,    0.345,   -0.142,   -2.472,   -0.183,   -0.116,    0.306,
        0.061,   -0.007,    1.430,   -0.234,   -0.595,   -0.195,   -2.179,
        0.227,   -0.082,    0.706,    0.479,   -0.288,    1.214,   -0.604,
        0.329,    0.203,    4.527,   -0.350,    0.113,   -0.235,   -0.278,
        0.524,   -0.234,    0.264,    0.358,   -0.116,    1.522,    0.084,
       -0.324,   -0.076,    0.135,   -0.059,   -0.372,   -0.762,    1.025,
       -0.490,    3.681,   -0.400,    0.454,   -0.377,    0.070,   -0.486,
       -0.086,   -0.273,   -0.023,    0.751,    1.974,   -0.012,    0.016,
       -0.110,    0.015,    0.018,    0.124,   -0.197,   -3.293,    0.036,
        1.341,    0.535,   -0.394,    0.811,   -0.010,   -0.103,   -0.113,
        0.545,   -0.223,   -0.023,    2.484,    0.363,    0.763,    0.125,
        0.111,   -0.070,    0.135,    1.208,   -0.329,   -0.058,    1.672,
        0.179,   -0.196,   -0.199,    0.140,    0.103,   -0.005,    0.536,
       -0.193,    1.371,    1.619,   -0.726,   -0.352,   -0.057,    0.196,
        0.026,   -0.047,    1.286,   -0.047,   -0.555,   -2.649,    0.684,
       -0.265,   -0.017,    0.209,    0.190,    0.065,   -0.441,    0.176,
       -2.355,   -9.933,    1.355,   -2.121,    0.299,    0.475,   -2.439,
       -0.642,    4.754,    0.746,    2.185,    1.322,    1.228,   -1.724
    },
    {   1.876,   -0.338,   -0.452,   -0.089,    0.136,   -0.015,   -0.053,
        1.000,    0.028,   -0.148,   -2.982,   -0.231,   -0.318,    0.215,
        0.058,    0.070,    1.761,   -0.174,   -0.535,   -0.221,    4.416,
        0.245,    0.397,    0.157,    0.776,    0.274,    0.457,   -0.319,
       -0.299,   -0.014,    3.590,   -0.001,    0.893,    0.466,   -0.162,
        0.448,   -0.755,    0.412,   -0.231,   -0.051,    1.747,   -0.083,
       -0.122,   -0.007,    0.102,   -0.104,   -0.336,   -1.018,    0.951,
       -0.525,   -3.272,    0.346,   -1.043,   -0.368,    0.609,   -0.025,
        0.181,    0.586,    0.445,    1.001,    1.724,   -0.039,   -0.008,
        0.002,    0.113,    0.014,    0.089,   -0.115,   -3.064,   -0.031,
        0.628,    0.485,   -0.562,    0.445,   -0.321,    0.029,   -0.404,
       -0.374,   -0.034,   -0.155,    2.635,    0.198,    0.662,    0.302,
        0.095,    0.140,    0.038,    1.493,   -0.268,   -0.132,    2.337,
        0.871,   -0.466,   -0.180,    0.013,    0.082,    0.174,    0.822,
       -0.181,    1.364,    0.906,    0.604,    0.441,   -0.481,   -0.077,
        0.837,    0.099,   -0.544,    0.855,    0.973,   -2.190,    0.499,
       -0.124,    0.019,    0.109,    0.092,   -0.043,   -0.227,    0.320,
       -1.501,  -10.697,    2.489,   -3.241,    0.645,   -3.923,   -2.684,
       -0.472,    3.809,    0.418,    3.177,    1.219,    0.177,   -4.385
    },
    {   2.181,   -0.863,   -0.656,    0.071,    0.257,    0.212,   -0.057,
        1.782,   -0.059,   -0.669,   -2.697,   -0.138,   -0.286,    0.213,
        0.084,    0.107,    1.701,   -0.362,   -0.467,   -0.282,    5.474,
       -0.625,    0.682,    0.397,   -0.466,   -1.007,    0.116,   -0.810,
        0.217,    0.365,    3.756,    0.255,    1.527,    0.761,   -0.275,
        0.045,   -1.013,    0.260,    0.064,   -0.100,    2.860,   -0.349,
        0.026,   -0.078,    0.222,    0.107,   -0.237,   -1.000,    1.713,
       -0.881,   -7.236,    0.227,   -0.081,   -0.342,    0.556,   -0.184,
       -0.226,    0.177,   -0.739,    1.135,    1.904,   -0.015,    0.078,
       -0.039,    0.028,    0.022,    0.109,   -0.170,   -3.724,    0.131,
        1.868,    0.062,    0.980,    1.041,    0.219,    0.137,   -0.570,
       -0.366,    0.108,    0.127,    2.664,    0.232,    0.990,    0.185,
       -0.097,    0.014,    0.122,    1.184,   -0.239,   -0.092,    1.743,
        0.493,   -0.309,   -0.208,    0.111,    0.132,    0.070,    0.789,
       -0.246,    0.707,    2.389,    1.211,   -0.856,    0.771,   -0.406,
       -0.295,    0.188,    0.797,   -0.178,    0.870,   -2.385,    0.598,
       -0.070,    0.111,    0.198,    0.076,   -0.010,   -0.022,    0.160,
       -1.814,   -4.177,    1.175,   -2.582,   -6.080,   -2.105,   -1.136,
        0.949,    4.058,    0.881,    2.975,    2.061,    0.644,   -3.166
    },
    {   2.076,   -0.555,   -0.503,   -0.283,    0.121,    0.031,   -0.027,
        1.373,    0.179,   -0.413,   -2.708,   -0.286,   -0.388,    0.063,
        0.100,   -0.023,    1.775,   -0.126,   -0.434,   -0.364,    6.873,
       -0.028,    0.366,    0.028,   -0.416,   -0.869,   -1.625,   -0.520,
       -0.603,    0.335,    3.136,    0.445,    0.921,    0.743,   -0.374,
        0.081,   -0.922,    0.534,    0.110,    0.198,    2.691,   -0.336,
       -0.193,   -0.077,    0.372,    0.109,   -0.259,   -0.915,    1.472,
       -0.606,   -4.090,   -0.852,   -0.554,    0.018,    0.609,    0.455,
        0.278,   -0.278,   -0.325,   -0.017,    1.777,    0.031,    0.007,
       -0.029,    0.047,    0.043,    0.048,    0.004,   -3.469,    0.098,
        1.644,    0.687,    1.018,    1.404,   -0.156,    0.166,   -0.886,
       -0.686,    0.046,    0.389,    1.981,    0.163,    0.486,    0.428,
       -0.066,    0.048,    0.016,    0.865,   -0.147,    0.108,    2.455,
        0.914,   -0.398,   -0.502,    0.055,    0.153,    0.226,    0.872,
       -0.500,    0.982,    2.837,    0.165,   -0.984,    0.623,    0.050,
       -0.243,   -0.097,    0.275,    0.145,    1.401,   -3.014,    0.664,
       -0.017,    0.012,    0.080,    0.018,   -0.070,   -0.173,    0.088,
       -2.050,   -9.746,    1.699,   -3.078,   -5.810,   -2.772,   -2.963,
       -2.813,    4.214,    0.193,    4.668,    1.459,    0.960,   -5.019
    },
    {   1.428,   -0.319,   -0.388,   -0.147,    0.203,    0.047,    0.047,
        0.772,   -0.042,   -0.153,   -3.070,   -0.052,   -0.208,    0.092,
       -0.157,    0.206,    1.597,   -0.667,   -0.315,   -0.211,    5.296,
        0.163,    0.078,    0.171,   -0.696,   -0.556,   -0.838,   -0.101,
       -0.717,   -0.001,    4.007,   -0.439,    0.336,    0.620,    0.149,
        0.304,   -1.157,    0.002,   -0.345,   -0.866,    2.601,   -0.457,
       -0.547,   -0.010,    0.457,    0.098,   -0.045,   -0.419,    0.975,
       -0.368,   -2.235,   -0.899,   -0.068,    0.542,    0.214,   -0.206,
       -0.180,   -0.793,   -0.063,   -1.251,    1.482,    0.020,    0.048,
        0.020,    0.036,    0.037,    0.096,   -0.017,   -2.544,   -0.099,
        3.947,    0.049,   -0.004,   -0.381,    0.460,   -0.670,    0.609,
       -0.850,    0.340,    0.057,    3.402,    0.015,    0.735,    0.178,
        0.092,    0.100,    0.106,    1.541,   -0.127,   -0.109,    1.951,
        0.037,   -0.777,    0.155,    0.182,   -0.082,    0.008,   -0.172,
       -0.053,    1.096,    0.416,    0.527,    0.669,    1.033,   -0.224,
        0.157,   -0.193,    0.712,   -0.086,    0.097,   -2.523,    0.586,
       -0.090,    0.146,    0.260,    0.060,    0.026,    0.159,   -0.032,
       -1.690,  -14.266,    3.131,   -3.460,   -1.420,   -1.657,   -2.188,
       -1.324,    4.532,    0.799,    4.218,    1.500,    0.734,   -3.680
    },
    {   1.615,   -0.331,   -0.385,    0.000,    0.139,    0.028,   -0.220,
        1.097,    0.100,   -0.468,   -3.251,   -0.314,   -0.409,    0.208,
       -0.043,    0.086,    1.824,   -0.544,   -0.379,   -0.414,    2.919,
       -0.014,    0.412,    0.412,   -0.004,    0.094,   -0.653,    0.371,
       -0.544,   -0.108,    2.415,    0.546,   -0.504,   -0.078,    0.547,
       -0.546,   -0.806,    0.091,   -0.011,   -0.341,    2.244,   -0.470,
       -0.324,    0.200,    0.286,   -0.067,   -0.379,   -1.214,    1.441,
       -0.653,   -2.435,   -0.891,    0.522,    0.211,   -0.025,   -0.006,
       -0.125,   -0.778,    0.299,   -1.225,    1.804,   -0.016,    0.011,
       -0.041,    0.067,   -0.026,    0.019,    0.004,   -3.120,   -0.023,
        5.551,   -0.692,    1.254,    0.962,   -0.761,    0.039,   -0.056,
       -0.597,    0.171,   -0.673,    3.271,    0.136,    0.902,    0.048,
        0.117,    0.023,    0.242,    1.437,   -0.200,   -0.032,    2.859,
        0.312,   -1.160,   -0.234,    0.604,   -0.232,    0.066,    1.006,
       -0.178,   -0.174,    1.157,    0.675,    0.412,    1.358,   -0.103,
       -0.216,   -0.162,   -0.052,   -0.446,    0.210,   -2.210,    0.421,
       -0.017,   -0.025,    0.107,    0.005,   -0.043,   -0.220,    0.101,
       -1.336,  -13.157,    1.759,   -3.694,   -4.401,   -1.396,   -1.533,
       -1.862,    5.034,   -0.455,    3.401,    0.872,    0.600,   -6.666
    },
    {   2.109,   -0.514,   -0.468,    0.033,    0.106,    0.263,   -0.128,
        1.736,   -0.034,   -0.696,   -3.154,   -0.446,   -0.355,    0.434,
       -0.040,    0.041,    2.124,   -0.684,   -0.280,   -0.337,    3.018,
        0.159,    1.298,    0.606,   -0.072,    0.108,   -0.583,   -0.160,
       -0.055,    0.464,    4.244,    0.516,   -0.009,   -0.586,    1.264,
       -0.522,   -0.295,    0.197,   -0.050,   -0.075,    2.181,    0.302,
       -0.097,   -0.049,    0.054,    0.224,   -0.204,   -0.133,    0.904,
       -0.801,   -2.188,   -0.793,    0.653,    0.167,   -0.027,   -0.067,
       -0.123,   -0.844,    0.066,   -0.478,    1.818,   -0.074,    0.075,
        0.015,    0.089,    0.005,    0.026,   -0.150,   -3.349,    0.199,
        4.432,   -0.083,    0.586,   -0.273,    0.075,    0.067,    0.461,
        0.618,    0.028,   -0.037,    1.878,    0.175,    0.736,    0.257,
        0.015,    0.056,    0.064,    0.574,    0.069,   -0.004,    2.422,
       -0.356,   -0.125,   -1.223,    0.093,   -0.329,    0.483,    0.733,
       -0.249,   -0.293,    0.115,    1.921,   -0.517,    0.477,    0.515,
       -0.072,   -0.729,   -0.285,   -0.521,   -0.112,   -2.043,    0.465,
       -0.053,   -0.060,    0.175,    0.076,    0.049,   -0.215,    0.196,
       -2.328,   -4.405,    1.620,   -1.523,   -1.612,   -2.777,   -1.976,
       -1.504,    4.222,   -1.106,    2.954,    0.607,    0.446,   -2.208
    },
    {   3.010,   -0.666,   -0.779,    0.002,    0.133,    0.117,   -0.045,
        2.049,    0.025,   -0.748,   -2.761,   -0.191,   -0.220,    0.211,
       -0.074,    0.110,    1.722,   -0.514,   -0.422,   -0.364,    4.308,
       -0.172,    0.876,    0.795,    0.047,    0.605,   -1.120,   -0.103,
        0.376,   -0.377,    3.403,    0.813,   -0.561,   -0.493,    0.592,
       -0.690,   -1.021,   -0.225,    0.395,   -0.403,    3.064,   -0.428,
       -0.113,   -0.288,   -0.125,   -0.381,   -0.079,   -0.205,    0.720,
       -0.609,   -1.882,   -0.555,    0.337,    0.075,    0.000,   -0.059,
       -0.142,   -0.733,    0.216,   -0.942,    1.678,   -0.073,   -0.011,
       -0.045,    0.038,   -0.009,    0.036,   -0.027,   -3.132,    0.038,
        4.148,   -1.075,   -1.211,   -0.021,    0.303,    0.160,   -0.346,
       -0.773,    2.366,   -0.985,    2.374,    0.110,    0.698,    0.217,
        0.050,    0.029,    0.106,    1.063,   -0.210,   -0.060,    2.439,
       -0.691,    0.029,    0.031,   -0.069,    0.020,    0.030,    0.270,
        0.028,    1.761,    3.270,   -0.598,   -1.949,   -1.527,    0.133,
       -0.148,    0.055,   -0.377,    1.111,   -0.348,   -0.973,   -0.505,
        0.301,   -0.557,   -0.051,    0.144,    0.439,    0.018,   -0.237,
        0.207,   -8.172,    1.432,   -2.281,   -1.685,   -1.124,   -1.851,
       -2.051,    3.996,   -0.977,    3.217,    2.722,    0.496,   -0.377
    },
    {   2.114,   -0.627,   -0.759,    0.568,    0.108,    0.124,   -0.267,
        1.883,   -0.217,   -0.962,   -2.961,   -0.216,   -0.231,    0.184,
       -0.026,    0.112,    1.664,   -0.340,   -0.506,   -0.371,    4.024,
        0.082,    0.879,    0.625,    0.014,    0.334,   -1.373,   -0.339,
       -0.385,   -0.248,    2.039,    0.047,    0.228,   -0.609,   -1.044,
       -0.161,   -0.698,   -0.045,   -0.353,    1.445,    0.081,   -0.030,
        0.323,    0.018,    0.727,    0.183,    0.598,   -0.389,    0.035,
       -0.523,   -2.464,   -1.084,    0.136,    0.356,    0.165,   -0.021,
       -0.228,   -1.049,    0.664,   -1.829,    1.777,   -0.087,    0.079,
       -0.084,    0.047,   -0.031,    0.030,   -0.108,   -2.895,    0.047,
        2.316,   -0.454,   -0.578,    0.063,    0.243,    0.038,   -0.590,
       -1.432,    1.388,   -0.573,    2.894,    0.019,    0.796,    0.089,
        0.242,    0.036,    0.117,    1.986,   -0.315,   -0.073,    2.429,
       -0.742,    0.035,   -0.115,   -0.177,   -0.020,   -0.055,    0.234,
        0.069,    1.762,    3.647,   -0.202,   -2.035,   -0.709,    0.569,
       -0.371,    0.172,    1.288,    0.591,   -0.380,   -0.478,   -0.468,
       -0.154,   -0.928,   -0.138,   -0.421,    0.071,   -0.074,    0.370,
       -0.456,   -8.428,    0.780,   -2.976,   -1.650,   -0.241,   -0.177,
       -1.238,    4.652,   -1.863,    1.528,    2.465,    0.804,   -0.465
    },
    {   1.247,   -1.261,   -0.715,    0.563,    0.675,    0.025,    0.587,
       -0.271,    1.347,   -0.686,   -2.889,   -0.096,   -0.049,    0.230,
       -0.151,    0.048,    1.528,   -0.582,   -0.490,   -0.259,    3.363,
       -0.622,   -0.144,   -0.469,   -0.090,   -0.031,    0.888,    0.246,
        0.921,    0.230,   -1.578,    0.241,   -0.578,   -0.002,   -0.475,
       -0.729,   -0.291,   -0.162,    0.276,   -0.617,   -0.149,   -0.301,
        1.248,    1.141,    0.054,    0.490,    0.406,    0.454,   -0.099,
       -0.010,   -2.211,   -1.026,    0.490,    0.203,    0.010,   -0.229,
       -0.181,   -0.795,    0.520,   -0.938,    2.084,   -0.103,   -0.040,
       -0.087,    0.121,    0.041,    0.081,    0.156,   -3.961,   -0.081,
        2.166,   -0.199,   -0.418,    0.055,    0.372,   -0.025,   -0.370,
       -1.387,    1.616,   -0.470,    3.822,    0.620,    1.316,    0.142,
        0.012,   -0.061,    0.359,    2.280,   -0.797,   -0.131,    2.827,
       -0.394,    0.302,   -0.086,   -0.071,   -0.099,    0.038,    0.445,
       -0.193,    2.807,    1.683,   -0.482,   -0.512,   -0.159,    0.052,
        0.081,    0.157,    1.146,    0.067,   -0.138,   -0.700,   -0.822,
       -1.552,   -1.937,    0.455,   -0.202,    0.566,   -0.957,    0.788,
       -1.367,   -9.327,    0.529,   -2.583,   -0.234,    0.137,   -0.496,
       -1.349,    4.343,   -2.091,    1.869,    2.138,    1.268,   -0.729
    },
    {   4.095,    0.680,   -2.220,    1.498,    0.071,   -0.539,   -0.409,
        0.543,    0.804,    0.141,   -2.757,   -0.061,   -0.091,    0.183,
       -0.233,    0.167,    1.663,   -0.129,   -0.645,   -0.280,    0.862,
       -1.443,   -0.867,   -0.363,    0.993,   -0.512,   -0.307,    0.030,
       -0.381,   -0.996,   -1.453,   -0.352,    0.500,    0.610,    1.061,
       -0.845,   -0.375,   -0.469,   -0.857,   -0.165,    0.115,   -0.367,
        1.568,    0.573,    0.240,    0.531,    0.924,    0.826,   -0.245,
       -0.736,   -4.577,   -1.456,    0.912,    0.891,   -0.011,   -0.581,
       -0.268,   -2.353,    0.777,   -2.012,    1.995,   -0.102,    0.001,
       -0.069,    0.103,    0.040,    0.102,    0.007,   -3.931,    0.045,
        2.247,   -0.232,   -0.405,    0.115,    0.167,   -0.167,   -0.779,
       -0.992,    1.542,   -0.541,    3.773,    0.735,    1.154,    0.377,
       -0.085,   -0.093,    0.344,    2.373,   -0.471,    0.158,    2.278,
       -0.366,    0.050,   -0.057,   -0.021,   -0.076,    0.091,    0.175,
       -0.072,    1.457,    1.278,   -0.515,   -0.178,   -0.038,    0.155,
        0.037,    0.003,    0.979,    0.002,   -0.475,   -1.095,   -0.606,
       -2.654,   -1.363,    0.094,   -0.734,    0.638,   -0.309,    0.896,
       -0.960,  -13.112,    0.677,   -2.230,   -0.345,   -0.129,   -0.762,
       -1.093,    4.311,   -1.713,    1.607,    5.586,    2.062,   -0.719
    },
    {   2.225,   -0.315,   -1.826,    0.820,    0.233,    0.444,   -0.321,
        1.195,   -0.238,   -0.929,   -2.648,    0.103,   -0.282,    0.177,
       -0.139,    0.229,    1.786,   -0.031,   -0.837,   -0.191,   -1.721,
        1.246,   -0.841,    0.441,   -0.887,    2.365,   -0.256,   -0.721,
       -0.309,    0.581,   -0.660,   -0.030,   -0.597,   -0.493,    0.850,
       -0.640,   -2.486,   -0.791,    0.304,   -0.509,    0.401,   -0.826,
        1.351,    0.935,   -0.056,    0.898,    0.620,    0.928,   -0.578,
       -0.575,   -3.369,   -0.845,    0.422,    0.444,    0.038,   -0.033,
       -0.129,   -1.251,    0.620,   -2.769,    1.909,   -0.025,    0.011,
       -0.138,    0.036,    0.066,    0.103,    0.112,   -3.517,   -0.038,
        2.300,   -0.053,   -0.236,   -0.019,    0.159,   -0.011,   -0.564,
       -1.125,    1.479,   -0.424,    3.138,    0.455,    0.885,    0.271,
        0.080,    0.102,    0.148,    1.496,   -0.295,   -0.063,    2.609,
       -0.610,    0.079,    0.132,   -0.050,   -0.084,    0.113,    0.239,
       -0.533,    2.180,    2.020,   -0.509,   -0.193,   -0.386,    0.248,
       -0.052,    0.184,    1.641,    0.229,   -0.038,   -0.976,   -0.341,
       -1.654,   -1.341,    0.433,   -0.458,    0.308,   -0.613,    0.613,
       -0.365,   -8.485,    0.678,   -1.805,    0.157,   -0.119,   -0.490,
       -1.396,    4.070,   -3.196,    1.824,    2.984,    1.085,   -0.678
    },
    {   1.794,    0.792,   -1.174,    0.947,   -0.190,   -0.617,   -0.267,
       -0.248,    0.563,   -0.078,   -2.765,   -0.113,   -0.149,    0.282,
       -0.050,    0.040,    1.680,   -0.790,   -0.318,   -0.181,   -2.905,
       -0.038,    0.886,   -0.327,   -0.166,   -0.195,    0.093,   -1.169,
       -0.442,    0.795,   -4.930,   -0.558,   -0.602,   -1.810,   -0.722,
        0.478,    0.236,   -0.819,    0.714,   -0.404,   -1.062,    0.225,
        1.772,    1.088,    0.003,   -0.040,    0.700,    0.658,    0.772,
       -1.212,   -3.056,   -1.214,    0.331,    0.450,   -0.021,   -0.325,
       -0.327,   -1.387,    0.272,   -1.415,    1.869,   -0.008,   -0.045,
       -0.046,    0.035,    0.120,    0.167,    0.050,   -3.592,    0.004,
        2.188,   -0.356,   -0.247,    0.072,    0.288,   -0.212,   -0.514,
       -1.298,    1.602,   -0.502,    3.288,    0.735,    1.218,    0.043,
       -0.015,   -0.107,    0.175,    1.998,   -0.832,   -0.010,    2.584,
       -0.431,    0.062,    0.085,   -0.126,   -0.127,   -0.018,    0.254,
       -0.035,    2.576,    1.696,   -0.643,   -0.183,   -0.133,    0.289,
        0.049,    0.239,    1.339,    0.086,   -0.051,   -0.514,   -0.487,
       -1.106,   -0.997,    0.238,   -0.071,    0.554,   -0.264,    0.462,
       -0.395,   -9.300,    0.228,   -1.886,   -0.728,   -0.612,   -0.489,
       -1.142,    4.070,   -1.660,    1.017,    2.122,    1.270,   -0.604
    },
    {   3.625,    0.383,    0.140,    1.634,    1.253,   -0.206,    0.445,
       -1.354,    0.333,   -0.016,   -3.795,   -0.143,   -0.183,    0.378,
       -0.146,    0.085,    2.127,   -0.589,   -0.768,   -0.372,   -2.287,
        0.472,   -0.063,    0.033,    0.120,    0.062,   -0.137,   -0.098,
        0.326,   -2.001,   -3.993,   -0.254,   -1.213,    1.284,    0.056,
       -0.224,    0.205,    0.761,   -0.965,    0.367,    0.136,   -0.835,
        1.820,    0.684,    0.348,    0.761,    0.928,    0.994,    0.133,
       -0.821,   -2.790,   -0.923,    0.825,    0.315,   -0.155,   -0.162,
       -0.296,   -0.805,    0.402,   -1.555,    2.143,    0.010,    0.089,
       -0.060,   -0.036,   -0.006,    0.192,    0.071,   -4.336,    0.007,
        2.309,   -0.226,   -0.488,    0.019,    0.424,    0.035,   -0.427,
       -0.958,    1.715,   -0.483,    3.826,    0.895,    1.100,    0.113,
       -0.005,   -0.213,    0.063,    2.197,   -0.444,    0.037,    1.935,
       -0.087,   -0.535,    0.034,    0.182,    0.031,   -0.100,    0.818,
        0.480,    0.096,    1.361,   -0.607,   -0.177,   -0.070,    0.208,
        0.056,    0.007,    0.904,    0.013,   -0.450,   -0.985,   -0.618,
       -1.850,   -1.330,    0.502,   -0.529,    0.517,   -0.602,    0.328,
       -0.965,  -11.015,    0.239,   -2.375,   -3.242,    0.324,   -0.471,
       -1.272,    3.671,   -1.702,    1.657,    1.564,    1.351,   -0.702
    },
    {   2.082,   -1.200,    0.208,   -0.189,    1.012,    0.051,   -1.020,
        0.670,    1.107,   -1.018,   -3.538,   -0.059,   -0.339,    0.346,
        0.074,   -0.035,    2.502,   -0.535,   -0.687,   -0.324,   -2.270,
        0.270,   -0.021,    0.062,    0.077,    0.099,   -0.055,   -0.263,
        0.179,   -1.881,   -2.406,   -1.303,   -1.143,    1.133,   -0.177,
       -0.192,    0.164,    0.207,   -0.666,   -0.540,   -0.512,    0.695,
        1.246,    0.375,   -0.385,   -0.290,   -0.296,    0.621,    0.125,
       -0.322,   -2.770,   -1.063,    0.302,    0.536,   -0.061,   -0.052,
       -0.219,   -1.699,    0.487,   -0.753,    2.057,   -0.033,    0.042,
       -0.039,   -0.100,    0.008,    0.055,   -0.131,   -3.646,    0.022,
        2.901,   -0.431,   -0.490,    0.242,    0.423,    0.198,   -0.536,
       -1.673,    2.219,   -0.743,    3.115,    0.360,    0.683,    0.273,
        0.232,   -0.008,    0.176,    1.448,   -0.474,   -0.069,    2.006,
        0.491,   -0.851,    0.676,    0.107,    0.050,   -0.207,    0.650,
        0.182,    0.264,    2.143,   -0.732,   -0.316,   -0.038,   -0.057,
        0.038,   -0.001,    1.576,    0.234,   -0.579,   -0.688,   -0.508,
       -1.373,   -0.811,    0.222,    0.066,    0.172,   -0.424,    0.903,
       -0.440,  -12.620,    0.230,   -1.639,   -3.933,   -0.174,   -0.597,
       -1.065,    4.185,   -1.776,    3.343,    1.004,    1.023,   -0.621
    },
    {   1.262,   -0.455,   -0.456,    0.053,   -1.293,   -0.174,    0.224,
        0.146,   -1.277,    0.984,   -3.411,   -0.452,   -0.304,    0.135,
       -0.146,    0.186,    2.482,   -0.218,   -0.684,   -0.597,   -1.830,
        0.554,    0.075,   -0.228,    0.175,   -0.002,   -0.048,   -0.111,
        0.117,   -1.668,   -1.700,    1.072,    0.395,    0.556,    0.101,
        0.147,    0.397,    0.443,    0.587,    0.224,    0.149,    0.572,
        1.422,    0.581,   -1.018,    0.396,    0.240,   -0.057,   -0.683,
       -0.533,   -1.809,   -0.830,    0.136,    0.403,    0.243,   -0.064,
       -0.089,   -0.571,    0.381,   -1.203,    2.014,    0.007,    0.082,
       -0.074,   -0.039,    0.020,    0.186,   -0.077,   -3.675,    0.151,
        2.230,   -0.451,   -0.530,   -0.039,    0.194,   -0.027,   -0.403,
       -0.896,    1.114,   -0.631,    3.118,    0.197,    1.013,    0.346,
        0.061,   -0.018,    0.317,    1.662,   -0.685,   -0.091,    1.934,
        0.187,   -1.028,    0.430,    0.131,    0.031,   -0.014,    0.771,
       -0.119,   -0.405,    2.042,   -0.411,   -0.139,   -0.400,    0.146,
        0.068,   -0.069,    1.270,    0.132,   -0.058,   -0.675,   -0.478,
       -1.623,   -1.144,    0.733,   -0.327,    0.290,   -0.518,    0.503,
       -0.002,  -10.382,   -0.152,   -1.423,   -1.652,   -0.875,   -0.702,
       -1.513,    4.304,   -2.093,    2.208,    1.274,    2.118,   -0.883
    },
    {  -2.980,   -0.417,    0.017,    0.580,   -0.036,    0.214,    0.076,
        1.247,    0.249,    0.138,   -3.007,   -0.144,   -0.117,    0.154,
       -0.226,    0.067,    1.830,   -0.718,   -0.369,   -0.695,   -3.080,
        1.067,    0.055,   -0.011,    0.137,   -0.030,   -0.078,   -0.363,
        0.105,   -2.360,   -1.126,    0.516,   -0.085,    0.359,    0.114,
        0.039,    0.165,   -0.383,    0.348,   -0.040,   -1.587,    0.222,
       -0.608,   -0.821,    0.434,   -0.145,   -0.413,   -0.887,    0.135,
       -0.175,   -1.871,   -0.615,    0.170,    0.349,    0.052,    0.041,
       -0.001,   -0.482,    0.122,   -1.409,    1.928,    0.107,    0.072,
       -0.008,    0.006,    0.039,    0.132,   -0.024,   -3.742,   -0.001,
        1.910,   -0.139,   -0.129,    0.102,    0.036,   -0.012,   -0.138,
       -0.412,    0.714,   -0.416,    3.111,    0.104,    0.917,    0.166,
