//-----------------------------------------------------------------------------
// Network: Graviton_4e
// Inputs:
//                                                  Offset       Scale
//    angle_costhetastar                         2.721e-03   5.601e-01
//    angle_costheta1                            9.119e-03   5.519e-01
//    angle_costheta2                            2.623e-03   4.906e-01
//    angle_phi                                 -1.003e-02   1.828e+00
//    angle_phistar1                             3.829e-03   1.792e+00
//    Z1mass                                     8.266e+01   1.082e+01
//    Z2mass                                     3.027e+01   9.953e+00
//    mass4l                                     1.241e+02   4.526e+00
//
// Created: Sun Jan 20 19:28:35 2013
//-----------------------------------------------------------------------------
#include <cmath>
#include <vector>
#include <iostream>
//-----------------------------------------------------------------------------
// Make following visible only to this programming unit
namespace nsGraviton_4e {
  // NOTE: Network indices start at 0
  static const int nnetworks=100;
  static const int ninputs  =8;
  static const int nhidden  =12;
  static const int nparams  =121;

  static const double mean[ninputs]={
  2.72100e-03,
  9.11900e-03,
  2.62300e-03,
 -1.00300e-02,
  3.82900e-03,
  8.26600e+01,
  3.02700e+01,
  1.24100e+02
  };

  static const double sigma[ninputs]={
  5.60100e-01,
  5.51900e-01,
  4.90600e-01,
  1.82800e+00,
  1.79200e+00,
  1.08200e+01,
  9.95300e+00,
  4.52600e+00
  };

  static const double weight[nnetworks][nparams]={
    {  -0.420,   -1.174,   -0.129,   -0.752,    0.252,   -0.503,   -1.008,
        0.113,   -0.556,   -0.468,    0.263,   -1.129,   -0.310,    0.299,
        0.170,    0.801,    0.701,    0.012,    0.280,   -0.666,    0.714,
        0.448,   -0.372,    0.483,   -1.341,    0.027,    0.495,    0.613,
        0.015,   -0.894,   -0.181,   -0.005,    0.631,    0.064,   -0.203,
        0.417,    1.156,   -0.598,   -1.312,    0.200,    0.265,   -0.483,
       -0.635,   -0.040,    0.061,    2.501,   -0.428,    0.570,    0.746,
        0.311,   -0.548,    0.452,    0.483,    0.446,    0.758,   -1.062,
        0.112,    0.421,   -0.082,    0.137,    0.538,    0.355,   -0.358,
        0.558,    0.614,    0.435,    0.063,    0.421,    0.257,   -0.590,
       -0.816,   -0.173,    0.225,   -0.620,    0.132,   -0.545,   -0.557,
        0.073,    0.497,   -0.304,    0.568,   -0.007,   -0.713,   -1.246,
        0.375,    0.746,   -0.162,    0.342,   -0.422,   -0.584,    0.233,
        0.451,    0.469,    0.199,   -0.170,    0.129,   -0.714,    0.174,
        0.314,    0.760,   -0.128,   -0.261,    0.144,    1.004,   -0.187,
       -0.844,   -0.892,    0.600,   -0.612,    0.339,   -0.501,    0.237,
        0.410,    0.334,    0.480,   -0.544,    0.139,    0.028,    0.180,
        0.292,    0.024
    },
    {  -0.461,    0.093,    0.137,    0.405,    0.947,   -0.554,    1.036,
       -0.405,   -0.029,   -0.808,   -0.317,    0.285,    0.080,    0.439,
       -0.125,   -0.216,   -0.550,    0.144,   -0.003,    0.192,   -0.582,
       -0.166,    0.042,    0.034,   -0.402,   -0.805,    0.338,    0.133,
       -0.508,   -1.082,   -0.277,    0.566,   -0.571,   -0.735,   -0.438,
       -0.063,   -0.162,    0.662,    0.534,   -0.130,    0.222,   -0.108,
       -0.161,    0.604,    0.110,   -0.426,   -0.381,    1.043,   -0.863,
        0.282,   -0.666,   -0.140,    0.137,    0.702,   -0.540,   -0.075,
        0.334,   -0.275,   -0.328,    0.011,    0.467,   -0.706,   -0.644,
       -0.252,   -0.330,    0.686,    0.410,    0.307,   -0.046,   -0.767,
       -0.067,   -0.561,   -1.542,   -0.051,   -0.918,   -0.776,   -0.166,
        0.320,    0.321,   -0.292,   -0.291,   -1.600,   -0.419,   -1.503,
        0.611,    0.120,   -0.319,   -0.301,    0.290,    0.019,   -0.006,
        0.600,    0.069,    0.022,   -0.215,    0.150,    0.852,    0.234,
       -0.090,   -0.134,   -0.916,    0.051,    0.505,    0.101,   -0.150,
        1.101,   -0.261,   -0.206,   -0.520,   -0.252,    0.125,    0.569,
        0.107,    0.187,   -0.209,    0.043,   -0.006,   -0.650,   -0.308,
       -0.512,   -0.152
    },
    {  -0.604,   -0.042,    0.743,    0.370,    0.097,   -0.609,   -0.261,
        0.278,   -0.292,    0.116,    0.132,    0.050,   -0.090,    0.123,
       -0.034,   -0.632,    0.565,    0.091,   -0.436,    0.002,   -0.790,
       -0.131,   -0.162,    0.778,   -0.092,    0.084,    0.624,    0.182,
        0.009,    0.475,    0.562,    0.199,   -0.480,   -0.707,   -0.084,
        0.239,    0.100,    0.059,   -0.313,    0.677,   -0.180,    0.477,
        0.392,   -0.187,   -0.672,    0.093,   -0.261,    0.122,    0.152,
       -0.042,    0.167,   -0.223,    0.092,   -0.396,   -0.527,   -0.059,
        0.286,    0.130,   -0.356,    0.487,    0.103,    0.485,    0.176,
       -0.582,    0.312,    0.681,    0.524,    0.936,   -0.930,   -0.407,
       -0.392,   -0.342,   -0.371,    0.490,    0.191,   -0.343,   -0.186,
        0.310,   -0.543,    0.075,    0.680,   -0.714,   -0.157,   -0.776,
        0.182,    0.026,   -0.186,    0.201,    0.134,   -0.371,    0.145,
       -0.398,   -0.354,    0.037,    0.192,   -0.386,   -0.463,   -0.202,
       -0.092,   -0.554,   -0.327,   -0.304,   -0.026,    0.269,   -0.143,
       -0.131,   -0.343,    0.611,   -0.657,   -0.440,    0.171,   -0.091,
        0.385,    0.318,    0.147,   -0.333,   -0.105,    0.549,   -0.622,
        0.781,   -0.164
    },
    {   1.696,    0.685,   -0.316,   -0.620,   -0.226,   -0.356,   -0.508,
       -0.220,   -0.330,   -3.269,    0.223,   -0.180,    0.603,    0.123,
       -0.824,    0.136,    0.506,    0.363,    1.440,    0.221,   -0.398,
       -0.102,   -0.282,    0.902,    0.114,   -0.138,   -0.415,    0.086,
       -0.701,   -0.256,   -0.215,   -0.061,   -0.095,   -0.811,    0.102,
       -0.083,    1.526,    0.091,   -0.058,    0.315,   -0.556,    0.352,
       -0.127,    0.191,    0.532,   -0.829,    0.178,   -0.619,   -0.502,
        0.076,   -0.095,   -0.557,    0.035,    0.480,    0.805,    1.008,
        0.195,   -0.695,   -0.388,    0.783,    0.174,   -0.562,    0.037,
       -0.568,    0.393,    0.738,   -0.310,   -0.380,    0.333,    0.219,
        0.363,    0.020,    0.109,   -0.367,    0.097,    0.197,    0.369,
       -0.023,    0.745,   -0.140,   -0.347,   -0.661,   -0.027,   -0.927,
       -0.082,    0.040,   -0.126,    0.446,    0.502,   -0.300,   -0.837,
        0.139,    0.309,    0.738,   -0.082,   -0.062,    0.076,    0.602,
       -0.226,    0.034,   -0.644,    0.130,   -0.556,   -0.528,    0.267,
       -0.018,   -0.207,    0.123,   -0.797,   -0.074,   -0.048,    0.484,
        0.372,    0.036,   -0.110,   -0.092,   -0.353,   -0.612,   -0.702,
       -0.368,   -0.447
    },
    {   0.152,   -0.174,    0.146,    0.094,    0.177,   -0.096,    0.521,
        0.489,   -0.086,   -0.135,   -0.577,   -0.470,   -0.317,    0.366,
       -0.183,   -1.194,   -0.005,    0.044,    1.037,    0.036,   -0.708,
        0.374,   -0.051,   -0.004,    0.183,    0.293,    0.061,    0.116,
        0.077,   -0.180,   -0.582,    0.321,   -1.021,   -0.216,    0.647,
        0.814,   -0.205,    0.511,   -0.358,    0.980,    1.105,   -0.370,
       -0.432,    0.151,    0.228,   -0.194,    0.103,   -0.087,    0.266,
       -0.115,   -1.206,   -0.411,   -0.780,    0.262,    0.535,    0.344,
        1.362,   -0.662,   -0.618,   -0.056,    0.303,    0.492,   -0.489,
       -1.112,   -0.149,   -1.247,    0.362,    0.268,   -0.111,    0.099,
       -0.148,    0.204,    1.399,   -0.081,    0.936,    0.591,    0.350,
       -0.264,   -0.213,    0.013,    1.010,    0.296,    0.578,   -0.242,
        0.569,   -0.210,    0.149,    0.600,    0.021,    0.339,   -0.529,
       -0.109,    0.335,    0.342,    0.284,   -0.212,   -0.429,    0.305,
       -0.186,   -0.183,    0.165,    0.187,    0.671,    0.436,    0.108,
        0.685,   -0.137,    0.272,   -0.561,   -0.682,    0.204,    0.262,
       -0.178,    0.363,    0.055,   -0.209,   -0.570,    0.519,   -0.205,
       -0.194,   -0.347
    },
    {   1.194,    0.059,    1.073,   -0.505,   -0.068,    0.308,   -0.544,
       -0.174,    0.353,   -0.950,   -0.026,    0.138,   -0.662,   -0.593,
       -0.608,    0.370,   -0.536,    0.290,    0.358,   -0.191,    0.506,
       -0.916,   -1.018,    0.168,    0.109,   -0.332,    0.242,   -0.013,
       -0.191,    0.579,   -0.539,    0.288,    0.516,    0.530,   -0.072,
       -0.726,    1.264,   -0.154,   -0.747,   -0.658,    0.111,    0.390,
        0.450,    0.011,    0.382,   -0.701,    0.859,    0.574,    0.850,
       -0.939,   -1.326,    0.579,    0.897,   -1.316,    0.176,    1.871,
       -1.065,   -0.687,   -0.083,    0.291,    1.153,    0.237,   -0.953,
        0.087,    0.440,   -1.003,    0.220,    0.409,   -0.251,    0.431,
        0.367,    0.085,    0.510,    0.876,   -0.112,    0.242,    0.400,
       -1.221,   -0.447,   -0.420,    0.165,    0.978,    0.331,   -0.603,
       -0.067,   -0.185,    0.489,    0.124,   -0.152,   -0.745,    0.540,
       -0.408,    0.090,   -0.052,    0.162,   -0.058,    0.781,    0.733,
       -0.644,   -0.780,    0.649,    0.685,    0.252,    0.029,    0.581,
        0.969,   -0.262,    0.613,   -0.782,    0.590,   -0.229,   -0.215,
       -0.136,    0.468,    0.146,   -0.243,   -0.150,    0.137,    0.411,
       -0.469,   -0.406
    },
    {   1.874,    0.125,   -1.091,   -0.522,    0.219,    0.906,    0.099,
       -0.669,    0.237,    0.805,   -0.640,   -1.322,    0.028,    0.115,
       -0.498,   -0.841,   -0.441,    0.364,    0.225,   -0.038,    0.450,
       -0.456,   -0.159,    1.295,    0.196,   -0.181,    0.076,    0.099,
        0.486,    0.107,   -0.225,    0.035,    0.325,   -1.318,   -0.170,
        0.492,   -0.485,   -0.277,   -1.067,   -0.794,   -0.518,   -0.469,
       -1.410,    0.549,   -0.537,   -0.851,    0.586,   -0.060,    0.240,
       -0.578,   -0.458,    1.210,    0.420,    0.021,   -0.458,   -0.856,
       -0.302,    0.513,   -0.833,    0.135,   -0.832,    1.121,   -0.984,
       -0.337,    0.197,   -1.174,   -0.290,    0.253,   -0.134,    0.754,
        0.666,   -0.549,    1.003,   -1.178,   -0.373,    0.600,   -0.112,
        0.536,   -0.399,    0.372,    0.172,   -0.953,   -0.429,   -0.011,
        0.813,   -0.394,   -0.277,    0.903,    0.921,   -1.001,    2.264,
       -0.006,    0.477,    0.636,    1.175,    0.096,   -1.046,   -0.445,
       -0.085,   -0.872,   -0.711,   -0.513,    0.342,   -0.321,   -0.648,
        0.121,    0.802,    0.131,   -0.605,    0.378,    0.303,   -0.415,
        0.386,    0.082,   -0.048,    0.247,   -0.436,    0.039,   -0.080,
        0.192,   -0.355
    },
    {  -1.098,   -0.007,   -1.055,    0.842,    0.036,    0.023,    0.613,
        0.672,    0.119,    0.435,    0.232,    0.832,   -0.152,   -0.246,
       -0.058,    0.072,    0.080,   -0.635,    1.470,   -0.336,    0.953,
        0.657,    0.503,   -0.137,   -0.163,    0.149,    0.536,    0.504,
       -0.372,    0.426,    0.700,   -0.343,   -0.018,   -0.346,   -0.270,
        0.146,   -0.090,    0.323,    0.104,    0.342,    0.262,   -0.217,
        0.655,   -0.410,    0.073,    0.237,   -0.308,    0.042,   -0.139,
        0.372,   -0.346,   -0.850,    0.171,   -0.404,   -0.675,    1.249,
       -0.426,   -0.565,   -0.199,    0.234,   -0.251,    0.281,    0.054,
        0.217,   -0.494,    0.489,    0.169,   -0.139,   -0.357,    0.474,
        0.583,   -0.781,   -0.825,   -0.122,   -0.729,   -0.273,   -0.005,
        0.219,    0.264,    0.078,    0.685,    0.251,   -0.015,   -0.128,
        0.039,   -0.419,   -0.212,   -0.074,    0.044,    0.387,   -0.597,
        0.394,    0.814,   -0.130,   -0.711,    0.635,    0.047,    0.029,
       -0.017,    0.184,   -0.199,    0.651,    0.011,   -0.033,   -0.167,
        0.266,    0.891,    0.269,   -0.630,   -0.445,   -0.333,    0.468,
        0.477,   -0.421,    0.163,    0.438,   -0.254,   -0.366,    0.069,
       -0.294,   -0.257
    },
    {  -0.284,   -0.963,    0.021,   -0.575,    0.222,    0.291,   -0.277,
        0.514,    0.137,   -0.677,    0.061,   -0.431,    0.377,    0.433,
       -0.802,   -0.516,   -0.564,   -0.236,    0.197,    0.330,    0.054,
       -0.328,    0.672,    0.047,   -0.005,   -0.212,   -0.555,    0.768,
        0.036,    0.711,    0.476,    0.167,   -0.155,   -0.670,   -0.254,
        0.547,   -0.211,    0.347,   -0.238,    0.466,    0.016,    0.878,
        0.014,    0.110,   -0.285,    0.876,   -0.358,   -0.707,    0.022,
        0.304,   -0.465,   -0.262,   -0.057,    0.149,    0.150,   -0.472,
        0.049,    0.073,    0.680,   -0.237,    0.844,   -0.296,   -0.645,
       -0.501,   -0.147,   -0.943,    0.326,    0.162,    0.010,    0.537,
        0.431,    0.225,    0.196,    0.799,    0.168,    0.201,   -0.465,
       -0.552,   -0.119,    0.330,   -0.235,    0.593,   -0.047,   -0.460,
       -0.287,   -0.072,    0.472,   -0.449,   -0.550,   -0.061,   -0.447,
        0.910,    0.312,   -0.367,   -0.629,    1.111,    0.511,    0.484,
       -0.330,   -0.510,   -0.236,   -0.408,   -0.283,    0.322,    0.245,
        0.968,    0.557,    0.038,   -0.639,    0.147,    0.182,    0.111,
        0.669,    0.221,    0.494,   -0.346,   -0.386,    0.229,    0.580,
       -0.130,    0.236
    },
    {  -0.234,   -0.591,   -0.143,   -0.657,    0.376,    0.007,   -0.204,
        0.346,   -0.718,   -1.227,    0.147,    0.983,    0.574,   -0.031,
       -0.696,   -0.040,    0.338,   -0.199,   -1.012,   -0.473,    0.098,
        0.222,    0.244,   -0.322,    0.273,    0.625,    0.086,    2.587,
        0.013,    0.026,   -0.630,    0.268,   -1.048,    0.288,    0.834,
        0.526,    1.295,    0.049,    0.059,   -0.000,    0.302,   -0.689,
       -0.273,   -0.193,    0.839,   -0.891,   -0.540,    0.195,   -0.307,
        0.133,   -0.128,    0.047,   -0.284,   -0.753,    0.635,    0.113,
       -0.050,   -0.311,    0.007,   -0.029,   -0.395,   -0.135,   -0.601,
        0.318,   -0.013,    0.581,    0.308,   -0.079,   -0.177,   -0.666,
       -0.478,    0.538,    0.586,    0.183,    0.401,    0.480,   -0.139,
        0.350,   -0.247,    0.250,   -0.115,    1.048,   -0.533,   -1.082,
       -0.004,    0.394,   -0.835,   -0.108,    0.123,   -0.165,   -0.258,
       -0.055,    0.074,   -0.231,   -0.223,    0.091,   -0.990,    0.045,
       -0.005,    0.191,    0.300,   -1.187,    0.647,    0.196,    0.780,
        0.720,   -0.940,    0.563,   -0.866,    0.225,   -0.257,   -0.217,
        0.113,    0.380,    0.046,    0.251,    0.609,    0.276,    0.211,
        0.553,    0.302
    },
    {  -1.585,    0.950,    0.148,    0.276,   -0.251,    0.107,   -0.212,
        0.077,    0.255,    1.322,    0.101,    0.612,    0.004,   -0.071,
        0.218,   -0.460,   -0.025,    0.089,    0.948,   -0.315,   -0.687,
       -0.883,   -0.015,    0.103,   -0.371,   -0.411,    0.571,    0.615,
       -0.716,   -0.653,    0.006,    0.212,   -0.364,   -0.546,   -0.041,
       -0.435,    1.389,   -0.021,    0.060,    0.044,   -0.269,   -0.137,
       -0.097,    0.012,   -0.028,    0.732,   -0.139,    0.122,    0.728,
       -0.072,    0.667,   -0.512,   -0.220,    0.333,    0.227,    0.153,
        0.682,    0.346,   -0.290,    0.140,   -0.716,   -0.452,    0.663,
       -0.141,    0.038,   -0.153,   -0.163,   -0.167,    0.013,   -0.256,
       -0.136,   -0.026,   -1.321,   -0.192,    0.549,   -0.381,   -0.425,
       -0.021,    0.074,   -0.439,   -0.372,   -0.340,   -0.076,    0.282,
       -0.217,   -0.263,    0.018,    0.133,    0.117,    0.074,   -1.138,
       -0.128,   -0.514,    0.111,   -0.096,    0.264,    0.098,   -0.072,
        0.073,    0.715,    0.181,   -0.388,    0.002,    0.089,   -0.063,
        0.398,    0.156,   -0.294,   -0.563,    0.393,    0.374,    0.376,
        0.423,   -0.576,    0.185,    0.361,    0.492,   -0.033,   -0.556,
       -0.848,   -0.061
    },
    {   0.264,    0.247,   -0.493,   -0.285,    0.134,    0.093,    0.373,
        0.170,   -0.208,   -0.164,    0.032,    0.089,    0.133,   -0.057,
        0.109,    0.595,    0.357,    0.314,    1.077,    0.268,   -0.227,
       -0.162,    0.267,   -0.165,   -0.115,    0.150,   -0.605,   -0.807,
       -0.031,   -0.245,    0.030,    0.066,   -0.440,    0.180,    0.304,
        0.191,   -0.052,    0.808,    0.182,   -0.213,   -0.257,    0.424,
        1.005,   -0.039,   -0.162,    0.398,   -0.277,   -0.030,   -0.025,
       -0.227,    0.110,    0.663,   -0.083,   -0.156,   -0.274,    0.505,
       -0.064,    0.062,   -0.104,    0.065,   -0.407,    0.010,    0.266,
       -1.157,    0.038,    0.862,    0.259,   -0.280,   -0.165,   -0.122,
        0.106,   -0.141,    2.558,    0.574,   -0.371,    0.354,   -0.173,
        0.494,    0.033,   -0.099,    0.267,    0.246,    0.023,    0.198,
        0.069,    0.170,   -0.276,   -0.005,    0.786,    0.415,   -1.208,
       -0.128,   -0.599,   -0.024,   -0.071,    0.205,    0.047,    0.050,
       -0.397,   -1.460,    0.033,    0.144,   -0.037,    0.102,   -0.166,
        0.020,    0.197,    0.539,   -1.443,   -0.592,   -0.389,    0.165,
       -0.462,   -0.346,   -0.034,    0.496,   -0.676,    0.464,   -0.047,
       -0.509,   -0.086
    },
    {  -1.410,   -0.508,    0.965,    1.185,   -0.165,   -0.540,   -0.296,
        0.842,   -0.404,    0.676,    1.353,    0.060,    1.140,   -0.092,
        0.425,    1.068,    0.309,    0.589,   -1.433,    1.410,    1.046,
       -0.776,    0.805,   -0.287,   -1.054,    0.306,    0.721,   -1.070,
       -0.264,   -0.653,    0.608,   -0.221,   -0.184,    0.662,    0.780,
        0.072,   -0.084,   -0.470,   -0.264,   -0.249,   -0.061,    1.107,
       -0.173,   -0.197,   -0.208,    0.305,   -0.988,    0.174,    0.076,
        0.713,   -0.700,   -0.357,   -0.472,    0.865,    0.423,   -0.296,
       -0.425,    0.326,   -0.148,    1.027,   -0.251,   -0.810,   -0.647,
       -1.747,    0.079,   -0.137,    0.085,    0.434,   -0.406,    0.017,
        0.118,   -0.252,    0.719,   -0.824,   -0.269,   -0.478,    0.631,
        0.303,   -0.048,    0.077,    0.232,    1.617,   -0.085,    0.717,
        0.717,    0.331,   -0.421,   -0.007,    0.268,    0.219,    0.041,
       -0.011,   -0.393,    0.177,    0.507,   -0.454,    1.740,   -0.201,
       -0.808,    1.075,   -0.329,   -1.327,    0.609,    0.009,   -0.253,
       -0.223,   -0.138,   -0.350,   -0.886,   -0.100,   -0.190,    0.403,
       -0.323,   -0.269,    0.116,    0.393,   -0.466,   -0.076,    0.356,
       -0.415,    0.497
    },
    {  -0.606,   -0.932,    0.327,   -0.148,   -0.224,   -0.317,   -0.660,
       -0.385,   -0.644,   -0.216,    0.289,    0.599,    0.295,    0.328,
        0.294,    0.048,   -0.547,   -0.368,   -0.303,   -0.126,    0.089,
        0.313,    0.266,   -0.031,    0.326,   -0.175,    0.053,    0.119,
       -0.024,   -0.377,   -0.574,    0.802,   -0.088,    0.059,   -0.468,
        0.424,   -0.474,    0.094,    0.350,    0.041,   -0.661,    0.376,
        0.978,    0.373,    0.012,   -0.760,   -0.275,   -0.345,    0.442,
       -0.855,    0.362,    0.660,   -0.412,   -0.759,   -0.149,   -0.370,
       -0.141,   -0.007,   -0.662,   -0.063,    0.102,   -0.156,   -0.101,
       -1.169,    0.018,    0.803,    0.580,   -0.166,   -0.259,   -0.283,
       -0.163,   -0.379,    0.606,    0.010,   -0.602,   -0.669,   -0.119,
        0.252,    0.387,    0.613,   -0.032,   -0.851,   -0.228,    0.870,
        0.007,    0.265,   -0.342,    0.243,    0.578,    0.283,   -0.506,
        0.037,   -0.426,   -0.132,   -0.059,    0.124,    0.355,    0.229,
       -0.623,   -0.490,   -0.081,   -0.305,    0.559,   -0.817,    0.903,
       -0.435,    0.717,    0.034,   -0.761,    0.358,   -0.024,   -0.677,
       -0.254,   -0.298,    0.205,   -0.561,   -0.613,   -0.450,   -0.497,
       -0.838,    0.050
    },
    {   0.862,   -0.543,   -1.226,    0.167,    0.221,   -0.419,   -0.499,
       -0.135,    0.335,   -0.010,   -0.290,   -0.946,   -0.096,    0.068,
       -0.231,   -0.454,   -0.200,    0.015,   -0.243,   -0.789,   -0.225,
        0.242,    0.128,   -0.251,    1.091,    0.165,   -0.202,    1.369,
       -0.014,    0.809,    0.413,    0.558,   -0.491,   -0.290,   -0.010,
        0.739,    0.114,   -0.537,    0.030,    0.543,   -0.369,   -0.296,
        0.631,    0.864,   -0.101,   -0.528,    0.126,   -0.308,    0.826,
        0.214,    0.835,   -0.362,   -0.170,   -0.291,    0.220,   -0.458,
       -0.524,   -0.668,    0.173,    0.160,   -0.059,   -0.310,   -0.973,
       -0.338,   -0.506,    1.326,   -0.280,    0.297,   -0.167,   -0.328,
        0.785,   -0.332,   -1.590,   -0.098,   -0.625,    0.632,    0.072,
        0.692,   -0.289,   -0.234,   -0.315,   -0.130,   -0.679,    0.618,
       -0.156,   -0.341,    0.168,   -1.110,    0.245,   -0.540,    1.069,
       -0.003,    1.382,    0.932,   -0.432,    0.014,   -0.670,   -0.357,
        0.044,   -0.420,    0.865,   -0.690,    0.494,   -0.226,   -0.099,
        0.473,   -0.085,   -0.192,   -0.629,    0.332,    0.209,   -0.320,
        0.273,   -0.238,    0.171,    0.074,   -0.144,   -0.294,    0.237,
        0.362,   -0.118
    },
    {   0.394,   -0.263,    0.402,   -0.116,   -0.069,    0.294,    0.257,
        0.024,    0.252,   -0.273,   -0.231,    0.096,   -0.253,   -0.506,
        0.247,   -0.476,    0.291,    0.136,    0.065,    0.447,    0.205,
        0.219,   -0.088,    0.308,    0.749,    0.144,    0.080,    1.624,
       -0.024,   -0.515,    0.334,   -0.121,   -0.373,   -0.113,    0.187,
       -0.214,    0.358,   -0.094,    0.531,    0.086,   -0.045,    0.100,
       -0.280,   -0.132,    0.116,   -1.916,    0.342,    0.540,    0.076,
       -0.346,   -0.132,   -0.580,    0.381,    0.317,    0.564,    0.214,
       -0.966,   -0.257,   -0.425,    0.355,    0.068,   -0.307,   -0.414,
        0.024,    0.113,   -0.636,   -0.157,    0.001,   -0.493,    0.009,
       -0.258,   -0.294,    1.393,   -0.372,   -0.475,   -0.524,    0.349,
        0.006,    0.190,   -0.345,    0.675,   -0.625,    0.243,   -0.241,
       -0.464,   -0.517,    0.411,    0.151,    0.112,   -0.295,    0.047,
        0.270,    0.796,   -0.091,   -0.313,    0.009,   -0.019,    0.417,
       -0.044,   -0.389,    0.526,    0.001,   -0.007,    0.063,    0.020,
       -0.125,    0.093,    0.157,   -0.630,   -0.333,    0.476,   -0.382,
        0.178,    1.310,   -0.419,    0.270,    0.021,    0.188,   -0.268,
       -0.430,    0.959
    },
    {  -0.933,    0.091,   -0.395,   -0.613,   -0.100,    0.096,    0.129,
       -0.327,    0.163,    1.029,   -0.071,    0.543,    0.223,   -0.272,
       -0.031,   -0.343,    0.093,    0.674,   -0.144,    0.894,    0.033,
       -0.326,   -0.076,   -0.249,   -0.450,    0.239,    0.448,    0.018,
       -0.079,    0.939,   -0.138,   -0.210,    0.014,    0.507,    0.662,
       -0.068,   -0.537,    0.232,    0.744,    0.155,   -0.158,   -0.004,
       -0.173,    0.079,    0.633,   -0.668,   -0.156,   -0.876,    0.063,
        0.037,   -0.067,    0.345,    0.137,   -0.183,    0.007,   -0.070,
        0.384,   -0.019,   -0.061,   -0.397,   -0.011,   -0.422,    0.659,
       -0.970,    0.357,    0.750,    0.072,   -0.119,   -0.875,   -0.059,
       -0.081,   -0.350,    0.357,   -0.035,   -0.170,    0.038,    0.086,
       -0.616,    0.037,   -0.470,    0.738,   -0.292,    0.091,   -0.095,
       -0.447,    0.077,   -0.787,   -0.114,    0.626,    0.671,    1.068,
       -0.498,   -1.127,    0.336,    0.146,   -0.452,   -0.362,   -0.244,
        0.309,   -0.046,    0.410,    0.221,    0.290,   -0.011,    0.169,
        0.557,   -0.215,    0.245,   -0.727,   -0.412,    0.066,    0.494,
       -0.523,   -0.075,   -0.665,    0.416,   -0.212,   -0.048,   -0.377,
        0.160,   -0.611
    },
    {   0.631,   -0.048,   -0.222,    0.105,    0.521,    0.214,   -0.147,
       -0.189,    0.512,    0.852,    0.222,    0.797,   -0.322,    0.048,
        0.245,   -0.215,   -0.250,    0.152,   -0.102,    0.059,   -0.398,
       -0.069,    0.082,   -0.113,   -0.197,   -0.171,   -0.045,   -0.186,
        0.028,    0.091,    0.071,    0.344,   -0.235,    0.545,    0.067,
       -0.290,   -0.616,   -0.040,   -0.418,    0.408,    0.263,    0.290,
       -0.123,   -0.453,    0.207,   -0.440,    0.294,    0.047,    0.187,
       -0.068,    0.132,    0.815,   -0.314,    0.274,    1.479,    0.009,
        1.060,    0.637,    0.097,   -0.443,   -0.283,    0.112,    0.178,
       -0.074,    0.253,   -0.224,    0.194,    0.828,    0.244,   -0.364,
       -0.329,   -0.198,   -0.250,    0.234,   -0.131,   -0.559,   -0.314,
        0.873,   -0.773,   -0.774,    0.070,    0.979,   -0.260,   -0.058,
       -0.323,    0.099,   -0.287,    0.569,    0.161,    0.481,    0.366,
        0.077,    0.044,   -0.204,    0.245,    0.008,    0.214,   -0.222,
        0.027,    0.641,    0.369,   -0.028,   -0.097,    0.063,    0.290,
        0.435,    0.487,    0.163,   -0.452,    0.240,    0.561,    0.993,
       -0.407,    0.101,   -0.154,    0.552,    0.027,    0.051,    0.012,
       -0.265,   -0.199
    },
    {  -0.650,   -0.072,   -0.520,    0.258,    0.026,    0.053,    0.213,
        0.196,    0.089,   -0.865,   -0.149,   -0.491,   -0.854,    0.151,
       -0.199,    0.327,   -0.299,   -0.401,    0.321,   -0.103,    0.247,
        0.257,    0.847,    0.119,   -0.369,   -0.017,   -0.378,    0.555,
       -0.781,   -0.160,    0.136,    0.600,   -0.163,    0.159,    0.287,
        0.422,   -0.285,    0.046,    0.340,    0.304,   -0.253,   -0.081,
        0.413,   -0.124,    0.239,   -0.894,   -0.073,    0.772,    0.158,
        0.285,   -0.468,    0.063,    0.257,    0.455,   -0.356,    0.476,
        0.429,   -0.219,    0.242,    0.172,   -0.384,    0.025,    0.454,
        0.867,    0.234,    0.999,    0.525,    0.329,   -0.216,   -0.106,
       -0.124,   -0.258,    0.218,    0.629,    0.183,    0.245,   -0.057,
        0.138,    0.610,    0.160,   -0.132,   -0.404,    0.204,   -0.082,
        0.273,    0.261,   -0.220,   -0.602,   -0.518,    0.591,   -0.463,
        0.428,    0.426,    0.113,   -0.178,    0.378,    0.446,    0.024,
        0.129,    0.090,    0.094,   -0.217,    0.056,   -0.397,    0.261,
       -0.087,   -0.135,   -0.639,   -0.361,   -0.284,   -0.274,   -0.204,
        0.135,   -0.157,   -0.278,    0.450,    0.225,   -0.263,    0.486,
       -0.418,    0.321
    },
    {   0.260,   -0.676,   -0.173,   -0.075,   -0.282,    0.053,    0.062,
       -0.493,    0.094,    0.118,   -0.141,    0.548,    0.573,    0.631,
        0.011,   -0.119,   -0.152,   -0.186,    0.388,   -0.442,   -0.465,
       -0.110,    0.147,   -0.555,   -0.499,   -0.236,   -0.088,    0.195,
       -0.653,    0.086,    0.093,    0.140,   -0.089,    0.234,   -0.384,
       -0.270,   -0.915,    0.003,    0.225,    0.125,   -0.086,   -0.747,
       -0.048,   -0.311,   -0.158,    0.270,    0.002,   -0.064,    0.142,
        0.231,    0.325,   -0.498,    0.023,   -0.383,    0.127,   -0.076,
        0.590,    0.260,   -0.016,   -0.026,   -0.119,   -0.241,   -0.003,
       -0.912,    0.020,   -0.835,   -0.531,   -0.150,    0.143,    0.353,
        0.014,   -0.657,    0.528,   -0.038,   -0.786,   -0.032,    0.138,
        0.062,   -0.219,   -0.168,    0.286,   -0.229,    0.077,    0.295,
       -0.062,    0.561,   -0.112,    0.647,   -0.213,   -0.105,    0.494,
        0.195,    0.013,   -0.345,    0.036,    0.184,    0.014,   -0.263,
       -0.067,   -0.180,   -0.395,    0.275,    0.361,    0.001,   -0.339,
       -0.338,   -0.307,    0.209,   -0.886,   -0.187,   -0.213,    0.429,
       -0.328,   -0.190,    0.478,    0.483,   -0.486,    0.444,   -0.159,
        0.824,    0.501
    },
    {   1.205,    0.222,   -0.138,    0.159,    0.401,   -0.433,   -0.663,
        0.048,   -0.296,   -0.687,   -0.015,   -0.149,   -0.710,   -0.109,
       -0.198,    0.089,   -0.481,   -0.205,    1.031,   -0.064,   -1.115,
       -0.704,    0.106,    0.267,   -0.262,   -0.476,    0.445,   -0.548,
       -0.436,    0.193,    0.244,   -0.852,    0.329,   -0.146,    0.169,
        0.062,    0.153,   -0.065,   -0.377,    0.196,   -0.024,    0.282,
        0.259,   -0.599,   -0.304,   -0.533,   -0.449,   -0.082,    0.153,
        0.321,    0.082,    0.673,   -0.000,   -0.546,    0.177,   -0.607,
       -0.101,   -0.214,    0.189,   -0.285,   -0.766,   -0.017,   -0.234,
       -0.539,    0.463,    0.065,    0.438,   -0.496,    0.042,    0.060,
       -0.096,    0.242,   -0.373,    0.045,    0.413,   -0.596,   -0.638,
        0.032,    0.417,    0.502,    0.081,   -0.884,    0.893,   -0.132,
       -0.282,   -0.117,    0.116,   -0.321,   -0.140,    0.243,   -1.216,
       -0.485,    0.007,    0.103,    0.374,   -0.240,   -0.161,    0.382,
        0.612,   -0.293,    0.150,   -1.069,   -0.263,    0.294,    0.193,
        0.858,    0.585,   -0.705,   -0.385,   -0.014,   -0.245,    0.167,
        0.041,    0.215,   -0.442,    0.599,   -0.135,   -0.300,    0.422,
       -0.153,   -0.343
    },
    {   0.346,    0.953,    0.318,    0.147,   -0.478,    0.793,    0.963,
        0.222,    0.142,   -0.067,    0.371,   -0.185,    0.258,    0.687,
       -0.325,   -0.326,   -0.003,    0.339,    0.163,    0.005,   -0.398,
       -0.508,   -0.042,   -0.724,   -0.754,   -0.033,   -0.066,    0.550,
        0.105,   -0.154,   -0.127,   -0.104,   -0.098,   -0.280,   -0.497,
       -0.156,    0.180,    0.192,    0.266,   -0.789,    0.172,    0.064,
        0.318,   -0.297,    0.034,   -0.148,    0.280,   -0.167,   -0.309,
        0.027,   -0.382,    0.031,   -0.419,    0.338,   -0.532,    0.101,
       -0.577,    0.166,   -0.377,    0.158,    0.463,    0.373,   -0.590,
       -0.949,   -0.078,   -0.775,   -0.385,    0.043,    0.235,    0.595,
        0.299,   -0.617,   -0.191,   -0.059,    0.411,    0.510,    0.347,
       -0.198,    0.568,    0.268,   -0.300,   -0.746,   -0.356,   -0.350,
        0.367,   -0.043,   -0.749,    0.204,    0.285,    0.471,   -0.148,
       -0.228,   -0.253,   -0.222,   -0.192,    0.278,    0.220,   -0.248,
       -0.008,    0.309,   -0.011,   -0.082,    0.467,   -0.179,    0.618,
        0.215,    0.017,   -0.026,   -0.730,   -0.371,    0.379,    0.194,
        0.413,    0.048,   -0.250,   -0.009,   -0.725,   -0.457,   -0.264,
        0.005,    0.331
    },
    {   0.232,   -0.030,    0.075,   -0.121,   -0.764,    0.260,   -0.217,
       -0.305,   -0.121,   -0.058,   -0.063,   -0.273,   -0.113,    0.638,
       -0.104,    0.605,    0.175,    0.532,    0.901,    0.390,   -0.824,
       -0.220,    0.318,    0.513,    0.037,   -0.307,    0.601,    0.922,
       -0.232,    0.560,   -0.588,    0.248,   -0.001,   -0.630,    0.052,
       -0.170,    0.020,    0.160,    0.044,    0.621,   -0.565,   -0.391,
        0.311,   -0.326,    0.670,   -0.203,    0.447,    0.138,   -0.027,
       -0.300,    0.318,    0.259,   -0.210,    0.053,    0.115,   -0.234,
        0.272,   -0.342,   -0.147,   -0.002,   -0.355,   -0.557,    0.033,
       -0.089,    0.099,    0.081,    0.529,    0.241,    0.062,    0.137,
        1.041,    0.097,   -0.399,   -0.094,    0.361,    0.110,    0.456,
       -0.275,    0.207,    0.037,    0.431,   -0.415,   -0.025,   -0.688,
       -0.220,    0.202,    0.139,    0.429,    0.261,   -0.522,    0.049,
       -0.087,    0.578,   -0.279,   -0.291,   -0.176,    0.545,    0.587,
       -0.123,   -0.508,   -0.022,   -0.140,    0.632,    0.107,    0.024,
        0.510,    0.517,    0.058,   -0.741,   -0.285,   -0.152,    0.268,
        0.084,   -0.040,   -0.555,   -0.222,   -0.087,   -0.622,   -0.995,
       -0.412,   -0.305
    },
    {   0.742,   -0.531,   -0.653,   -0.236,    0.028,   -0.133,   -0.014,
       -0.141,    0.351,    0.401,   -0.451,    0.356,   -0.638,    0.245,
        0.142,    0.190,    0.318,    0.060,    0.580,   -1.256,    0.304,
       -0.052,    0.246,    0.154,    0.534,   -0.052,   -0.001,   -1.250,
       -0.465,    0.654,    0.014,   -0.462,    0.334,    0.218,    0.250,
       -0.564,    1.111,    0.071,   -0.377,   -0.594,   -0.278,   -0.266,
        0.652,   -0.086,   -1.001,   -0.075,   -0.273,   -0.092,   -0.446,
        0.009,    0.413,    0.129,   -0.609,    0.002,    0.216,    0.025,
        0.823,    0.053,   -0.169,    0.072,   -0.643,   -0.559,    0.376,
       -0.095,    0.476,    0.248,    0.324,   -0.276,   -0.015,    0.719,
       -0.196,    0.283,    0.607,    0.090,   -0.478,   -0.058,   -0.106,
        0.333,   -0.212,   -0.391,   -0.330,   -0.257,    0.349,   -0.318,
        0.608,    0.615,   -0.271,   -0.220,   -0.116,    0.243,    0.563,
       -0.115,   -0.119,   -0.490,    0.347,   -0.454,   -0.166,    0.575,
        0.317,   -0.382,   -0.267,   -0.059,    0.008,    0.255,   -0.021,
       -0.472,    0.139,    0.570,   -0.504,    0.550,    0.142,   -0.300,
       -0.081,    0.103,   -0.467,    0.912,   -0.420,    0.580,    0.232,
       -0.077,    0.115
    },
    {  -0.173,    0.272,    0.339,   -0.166,   -0.373,    0.290,   -0.696,
        0.031,    0.348,    0.281,    0.017,    0.552,   -0.679,   -0.221,
       -1.171,    0.252,   -0.322,    0.101,   -0.797,   -0.076,   -0.569,
       -0.349,   -0.035,    0.370,    0.288,    0.005,   -0.373,    0.955,
       -1.206,    0.464,   -0.045,    0.326,    0.379,   -0.349,   -0.547,
        0.560,   -0.814,   -0.009,   -0.889,    0.684,   -0.072,    0.042,
        0.312,    0.518,    0.080,   -0.213,    0.347,    0.740,   -0.271,
       -0.395,    0.453,    0.056,    0.179,    0.091,    0.473,    0.522,
       -0.277,   -0.373,   -0.822,    0.640,    0.072,   -0.284,    0.011,
        1.396,    0.187,   -0.097,   -0.996,   -0.010,   -0.372,    0.440,
       -0.699,    0.414,    0.026,   -0.084,    0.319,   -0.135,   -0.257,
        0.270,   -1.320,    0.409,    0.131,    0.538,    0.275,   -0.168,
       -0.304,   -0.410,    0.226,   -0.861,   -0.763,   -0.590,    1.377,
       -0.325,   -0.730,   -0.655,    0.297,    0.309,    0.220,   -0.133,
        0.632,   -1.034,   -0.163,   -0.433,    0.674,   -0.278,    0.134,
        0.326,   -0.303,    0.636,   -0.654,    0.494,   -0.348,   -0.713,
       -0.138,   -0.408,   -0.722,   -0.070,    0.176,    0.224,    0.289,
        0.193,    0.065
    },
    {   0.398,    0.064,    0.142,    0.227,    0.109,   -0.660,    0.596,
        0.395,    0.216,   -0.199,   -0.901,   -0.014,    0.144,    0.229,
       -0.124,   -0.675,   -0.016,   -0.023,   -1.430,   -0.419,    0.524,
        0.061,    0.123,    0.408,   -0.126,   -0.382,    0.900,    0.074,
       -0.293,    0.384,    0.571,   -0.055,   -0.402,    0.250,    0.973,
       -0.610,   -1.283,   -0.222,    0.877,    0.336,    0.033,   -0.405,
        0.118,    0.071,   -0.405,    2.467,    0.457,    0.682,   -0.020,
        0.348,   -0.265,   -0.511,   -0.338,   -0.288,   -0.238,    0.343,
       -0.245,   -0.111,    0.554,    0.508,   -0.264,   -0.005,    0.306,
       -0.307,    0.310,    0.635,   -0.038,   -0.019,    0.520,    0.477,
        0.074,   -0.113,    0.854,   -0.924,   -0.252,   -0.112,   -0.438,
        0.103,    0.517,    0.123,   -0.234,   -0.656,    0.040,    0.855,
        0.412,    0.412,    0.127,    0.008,    0.355,    1.537,   -0.654,
       -0.214,   -0.691,    0.527,    0.064,   -0.279,    0.007,    0.067,
       -0.049,    0.568,    0.116,    0.581,    0.435,   -0.062,   -0.064,
       -0.483,   -0.142,    0.306,   -0.749,   -0.175,    0.390,    0.011,
       -0.143,   -0.295,    0.504,   -0.025,   -0.476,   -0.455,   -0.187,
       -0.271,    0.522
    },
    {  -0.245,    0.051,    0.059,   -0.301,    0.353,   -0.291,    0.498,
       -0.010,   -0.055,    0.064,    0.031,   -0.141,   -0.086,    0.013,
        0.392,    0.007,   -0.156,    0.519,   -0.424,    0.489,   -0.031,
       -0.178,    0.089,   -0.663,   -0.116,    0.790,   -0.021,    1.107,
        0.041,    0.827,    0.145,    0.018,   -0.322,   -0.372,    0.102,
       -0.086,    0.141,   -0.116,   -0.138,   -0.124,   -0.178,    0.426,
       -0.175,   -0.100,   -0.221,   -0.050,   -0.181,   -0.055,   -0.058,
       -0.348,   -0.147,    0.280,    0.356,   -0.119,   -1.231,   -0.109,
       -0.030,    0.239,   -0.276,    0.706,    0.216,   -0.392,   -0.501,
        1.183,   -0.102,    0.151,   -0.014,    0.064,   -0.434,    0.054,
        0.091,    0.409,   -0.216,   -0.118,   -0.055,    0.465,   -0.122,
       -0.520,   -0.217,    0.182,   -0.996,   -0.558,    0.134,    0.069,
       -0.396,   -0.568,    0.051,   -0.151,    0.459,   -0.047,    0.392,
       -0.177,   -0.573,   -0.136,    0.023,   -0.561,   -0.606,    0.013,
       -0.234,    0.217,   -0.293,    0.248,    0.054,   -0.082,   -0.015,
        0.382,    0.491,   -0.389,   -0.909,   -0.234,    0.381,   -0.081,
        0.664,    0.342,   -0.610,    0.044,    0.585,    0.181,    0.190,
        0.508,   -0.305
    },
    {  -0.774,    0.193,    0.173,    0.400,    0.036,    0.288,   -0.292,
        0.568,   -0.272,   -0.034,   -0.422,   -0.069,    0.657,    0.013,
       -0.126,    0.693,    0.360,    0.515,    0.068,   -0.079,   -0.538,
        0.775,    1.027,   -0.097,   -0.225,    0.044,   -0.299,    0.112,
        0.040,   -0.695,    0.085,   -0.314,    1.122,   -0.729,   -0.061,
        0.010,    1.075,    0.324,    1.204,   -0.331,   -0.151,    0.464,
       -0.272,    0.041,    0.275,   -1.000,    0.262,    0.862,    0.191,
        0.098,   -0.843,    0.367,    0.457,   -0.372,   -0.575,    0.503,
        0.535,    0.131,   -0.141,    0.797,    0.928,    0.069,   -0.155,
        0.303,    0.021,    1.115,    0.246,   -0.255,   -0.201,   -0.348,
       -0.708,    0.084,    0.042,   -0.018,   -0.613,   -0.804,    0.468,
       -0.136,    0.796,    0.179,    0.400,    0.885,    0.527,    0.655,
       -0.531,    0.720,   -0.251,   -0.178,    1.062,    0.122,   -1.023,
        1.196,    0.354,   -0.230,   -0.870,    0.249,    0.585,    0.302,
       -0.146,   -0.275,    0.518,    0.275,    0.149,    0.163,    0.433,
       -1.465,    0.359,    0.786,   -0.495,   -0.340,   -0.155,    0.362,
        0.030,    0.400,   -0.345,   -0.631,    0.226,   -0.175,   -0.136,
        0.187,    0.353
    },
    {   0.072,   -0.054,    0.760,    0.174,   -0.071,    0.043,   -0.687,
       -0.710,    0.204,    0.973,    0.111,   -0.567,    0.173,   -0.341,
        0.345,   -0.042,   -0.222,   -0.906,   -0.428,    0.927,   -0.216,
        0.284,   -0.157,    0.063,   -0.534,    0.369,    0.229,   -1.258,
        0.167,    0.869,    0.404,   -0.030,   -0.575,   -0.608,   -0.077,
       -0.253,   -0.660,    0.385,    0.928,   -0.139,   -0.145,    0.645,
        0.036,   -0.118,   -0.092,    0.943,    0.679,   -0.351,   -0.283,
        0.077,   -0.242,    0.400,    0.673,    0.070,   -0.160,   -0.515,
       -0.011,   -0.197,    0.162,   -0.301,   -0.976,    0.351,   -0.571,
        0.229,    0.265,   -0.166,    0.128,   -0.413,    0.108,    0.391,
        0.329,   -0.447,   -0.329,   -0.305,   -0.406,    0.313,   -0.108,
        0.128,   -0.025,   -0.124,   -0.304,    0.640,   -0.496,   -0.158,
        0.417,   -0.218,   -0.143,    0.455,    0.093,   -0.729,    0.270,
       -0.182,    0.562,   -0.127,    0.109,   -0.133,   -0.090,    0.191,
        0.325,    0.440,   -0.154,    0.577,    0.105,   -0.001,    0.330,
        0.331,   -0.455,    0.447,   -0.292,    0.790,    0.497,    0.312,
       -0.295,   -0.473,    0.004,    0.286,   -0.198,    0.067,   -0.406,
        0.087,   -0.059
    },
    {   1.744,   -0.889,   -0.184,    0.056,   -0.165,    0.373,   -0.431,
        0.371,    1.139,   -0.676,    0.217,    1.221,   -0.765,    0.052,
       -0.105,   -0.363,   -0.165,   -0.085,    1.403,   -0.013,    1.122,
        1.101,    0.479,   -0.413,   -0.555,   -0.124,    0.721,    0.272,
       -0.366,    0.107,    0.693,    0.399,   -0.226,    0.948,    0.591,
       -0.111,   -0.168,   -0.574,    0.115,   -0.192,    1.029,   -0.077,
       -0.833,    0.278,    0.641,   -0.435,   -0.080,   -0.293,    0.232,
        0.282,   -0.116,    0.212,   -0.048,   -0.595,    0.514,   -0.923,
       -0.800,    0.034,   -0.959,    0.258,    0.463,   -0.008,   -0.196,
        0.810,   -1.290,    0.094,   -0.230,    0.278,    0.165,   -0.162,
        0.255,   -0.127,   -0.003,   -0.961,   -0.120,   -0.354,    0.885,
       -0.357,   -1.053,   -0.083,   -0.550,   -0.594,   -0.133,    0.918,
        0.284,    0.219,   -0.265,    0.028,    0.481,   -0.438,    0.719,
        0.062,    1.372,    0.688,   -0.554,   -0.122,   -0.486,   -0.338,
       -0.278,   -0.287,   -0.733,    0.001,   -0.085,   -0.277,   -0.287,
       -0.707,    0.058,   -0.797,   -0.285,    0.197,   -0.273,    0.337,
       -0.490,    0.074,   -0.063,   -0.242,   -0.210,    0.334,   -0.324,
        0.242,    0.264
    },
    {   0.028,    0.441,    0.222,    0.328,   -0.156,    0.128,    1.054,
        0.259,   -0.147,    0.835,    0.088,    0.631,    0.381,    0.276,
       -0.363,   -0.202,    0.044,    0.388,    0.512,   -0.065,    0.186,
        0.139,   -0.343,    0.568,   -0.388,   -0.103,    0.243,   -2.158,
        0.814,   -0.292,   -0.028,    0.732,   -0.268,   -0.326,   -0.051,
        0.216,    0.883,    0.197,    0.339,    0.056,   -0.235,    0.576,
        0.796,   -0.930,    0.223,    0.912,    1.387,    0.176,    0.044,
       -0.167,    0.387,   -0.354,   -0.145,   -0.209,   -1.913,   -0.108,
       -0.592,    0.122,   -0.049,    0.166,   -0.029,   -0.237,    0.857,
        1.718,    0.480,    0.730,   -0.146,   -0.092,    0.524,   -0.003,
       -0.567,    0.011,   -0.003,   -0.095,   -0.622,   -0.024,    0.288,
        0.057,   -0.045,   -0.266,   -0.329,   -0.414,    0.239,   -0.118,
        0.438,   -0.061,   -0.505,   -0.071,   -0.378,    0.320,    1.023,
        0.286,    0.026,    0.218,   -0.409,    0.001,   -0.102,   -0.109,
        0.008,   -0.014,    0.746,   -0.184,   -0.337,   -0.237,   -0.113,
       -0.603,    0.036,    0.457,   -1.089,   -0.498,    0.621,    0.531,
       -0.071,    0.011,   -0.079,   -0.578,    0.289,    0.577,    0.189,
       -0.050,    0.341
    },
    {  -0.255,    0.858,    0.251,    0.674,   -0.011,    0.049,    0.836,
       -0.140,    0.192,   -0.200,   -0.472,    0.300,    0.441,    1.044,
        0.420,    0.766,   -0.488,    0.702,   -0.383,    0.096,    0.888,
       -0.104,    0.136,   -0.050,   -0.029,    0.697,    0.021,   -0.182,
        0.877,    0.430,    0.216,    0.317,   -0.202,   -0.473,    0.034,
        0.312,    0.309,    0.223,    0.595,   -0.703,    0.209,    0.342,
       -0.614,   -0.300,    0.086,   -0.490,    0.205,   -0.239,   -0.201,
        0.295,    0.994,   -0.004,   -0.263,    0.238,    0.733,   -0.211,
       -0.698,    0.238,    0.404,   -0.425,   -0.729,   -0.496,   -0.195,
       -0.677,    0.646,    0.643,    0.156,   -0.057,   -0.483,   -0.163,
       -0.133,   -0.557,   -0.398,   -0.114,   -0.430,   -0.241,    0.260,
       -0.429,    1.106,    0.391,   -0.438,   -2.252,    0.438,   -0.003,
       -0.638,    0.151,    0.487,    0.570,    0.186,   -0.601,   -1.096,
        0.022,   -0.874,   -0.515,   -0.290,    0.300,    0.402,    0.140,
       -0.102,    2.892,    0.547,    0.452,    0.091,   -0.237,    0.534,
       -0.809,   -0.104,    0.001,   -0.853,   -0.248,   -0.078,   -0.387,
        0.323,    0.339,   -0.140,    0.349,   -0.254,   -0.412,   -0.030,
       -0.396,    0.166
    },
    {   0.896,    0.109,    1.014,    0.150,   -0.190,    0.031,   -0.163,
       -0.169,    0.002,    0.662,   -0.189,    0.376,    0.122,   -0.239,
       -0.137,    0.339,   -0.029,   -0.216,    0.447,   -0.582,   -0.231,
       -0.184,   -0.393,    0.024,    0.891,    0.213,   -0.520,    0.630,
       -0.375,    0.179,   -0.882,    0.369,    0.109,   -0.163,   -0.400,
       -0.119,    0.554,    0.600,   -0.624,    0.039,   -0.265,   -0.198,
        0.483,    0.501,   -0.145,    0.430,    0.157,    0.117,    0.085,
       -0.113,    0.164,    0.304,    0.094,    0.025,    0.237,   -0.681,
       -0.144,   -0.429,   -0.036,    0.005,    0.667,    0.616,    0.147,
       -0.470,   -0.109,    0.330,   -0.043,    0.279,   -0.410,   -0.034,
        0.133,   -0.232,    0.538,   -0.227,   -0.439,    0.376,   -0.303,
        0.502,   -0.015,    0.331,    0.320,   -0.741,   -0.273,   -0.020,
       -0.776,   -0.126,    0.544,    0.164,   -0.258,   -0.219,   -0.183,
        0.284,    0.225,    0.183,   -0.299,    0.242,    0.849,    0.036,
        0.253,    0.322,    0.086,   -0.593,   -0.353,   -0.258,    0.041,
       -0.108,   -0.383,   -0.309,   -0.400,    0.621,   -0.100,   -0.478,
        0.165,   -0.222,   -0.404,    0.115,   -0.371,    0.163,   -0.349,
       -0.366,    0.529
    },
    {  -0.319,   -0.192,    0.174,    0.040,   -0.339,   -0.987,    0.218,
        0.737,    0.622,   -0.931,   -0.211,   -0.586,   -0.559,   -0.066,
        0.255,   -0.720,   -1.261,   -0.304,   -0.618,   -0.112,    0.330,
        0.932,    0.710,   -0.172,   -0.522,   -0.531,    0.239,    0.424,
       -0.531,    0.269,   -0.569,    0.152,    0.001,    0.190,    0.045,
        0.397,    0.696,   -0.039,    0.695,   -0.327,   -0.014,    0.079,
       -0.528,   -0.303,    0.185,    1.096,   -0.506,   -0.227,   -0.289,
       -0.159,    0.395,    0.145,    0.269,    0.266,   -0.767,    0.434,
        1.079,   -0.430,   -0.608,    0.605,   -0.056,   -0.218,    0.288,
       -0.974,    0.126,   -0.537,   -0.176,   -0.264,    0.703,    0.415,
        0.172,   -0.549,   -0.412,    0.464,    0.135,   -0.042,   -0.351,
        0.218,   -0.531,    0.004,    0.555,    0.776,    0.106,   -0.939,
       -0.098,   -0.179,    0.196,   -0.165,   -0.496,    0.420,   -0.250,
        0.579,    0.271,    0.339,    0.116,    0.117,    0.826,   -0.052,
        0.391,   -1.558,   -0.318,   -0.792,   -0.945,   -0.061,    0.069,
        0.712,    0.254,    0.197,   -0.584,   -0.355,    0.023,    0.087,
        0.066,    0.441,   -0.131,   -0.423,   -0.356,    0.576,    0.262,
       -0.395,   -0.262
    },
    {   0.598,   -0.390,    0.195,   -0.363,   -0.221,   -0.226,    0.134,
       -0.495,   -0.026,   -0.076,    0.172,   -0.120,   -0.307,   -0.352,
       -0.093,   -0.517,   -0.146,    0.140,    0.268,   -0.162,    0.302,
       -0.062,    0.027,    0.023,   -0.063,   -0.382,   -0.107,    0.050,
       -0.236,   -0.195,    0.265,    0.039,   -0.254,    0.474,    0.929,
       -0.096,   -0.092,   -0.579,   -0.217,   -0.379,    0.198,   -0.266,
       -0.447,    0.007,   -0.309,    1.384,    0.135,    0.445,    0.521,
        0.218,    0.362,   -0.020,    0.223,   -0.183,   -0.233,    0.230,
        0.272,   -0.669,   -0.048,   -0.084,   -0.048,    0.341,    0.381,
       -0.047,   -0.210,    0.264,   -0.349,    0.000,   -0.304,   -0.116,
        0.081,    0.314,   -0.176,   -0.119,   -0.397,    0.203,    0.150,
        0.077,    0.181,    0.017,    0.676,   -1.134,    0.040,   -0.607,
       -0.216,   -0.097,    0.272,    0.105,   -0.089,    0.081,   -0.901,
        0.232,    0.104,   -0.106,   -0.209,    0.140,    0.292,    0.094,
       -0.515,    0.768,    0.260,   -0.026,    0.268,   -0.100,    0.463,
       -0.234,    0.238,    0.152,   -0.874,   -0.321,    0.645,   -0.041,
       -0.500,    0.306,    0.092,   -0.224,   -0.084,    0.017,   -0.683,
       -0.735,    0.146
    },
    {  -0.307,    0.140,    0.008,   -0.273,    0.143,   -0.654,    0.084,
        0.149,    0.366,    0.215,   -0.457,   -0.185,    0.341,    0.705,
       -0.437,   -0.177,    0.034,    0.336,    0.166,    0.171,   -0.229,
        0.160,   -0.089,   -0.661,   -0.445,    0.214,    0.189,   -0.041,
       -0.291,   -0.118,    0.289,    0.039,   -0.159,    0.831,    0.254,
        0.461,   -0.787,    0.112,    0.841,    0.026,   -0.168,    0.004,
       -0.036,    0.327,    0.363,    0.261,   -0.438,    0.038,    0.379,
        0.367,   -0.052,    0.090,   -0.652,   -0.095,   -0.589,   -0.223,
        0.852,    0.553,    0.270,   -0.246,   -0.031,    0.349,   -0.283,
       -0.342,    0.026,   -0.557,   -0.170,    0.019,    0.174,    0.470,
        0.344,   -0.091,   -0.651,    0.134,    0.324,    0.197,   -0.255,
        0.158,    0.319,    0.164,   -0.745,   -0.704,    0.439,   -0.189,
       -0.058,    0.527,    0.198,   -0.416,    0.003,    0.574,   -0.021,
        0.396,    0.283,   -0.272,    0.057,   -0.269,    0.388,    0.251,
       -0.275,    0.652,   -0.367,   -0.006,   -0.053,   -0.093,   -0.066,
        0.539,    0.056,    0.289,   -0.742,   -0.501,    0.390,    0.138,
       -0.219,   -0.346,   -0.459,   -0.396,   -1.140,   -0.276,    0.141,
       -0.023,    0.136
    },
    {   1.206,    0.274,    0.976,   -0.054,   -0.151,    0.302,   -0.104,
       -0.404,   -0.062,   -0.169,   -0.810,    0.133,    0.620,    0.837,
       -1.055,   -0.213,    0.814,    0.315,    0.501,   -0.007,   -1.001,
        0.253,    0.005,    0.451,   -0.391,   -0.868,    0.400,   -0.002,
        0.049,   -0.454,    0.011,   -0.173,   -0.221,   -0.577,   -0.929,
       -0.102,    1.697,   -0.042,    0.877,    0.663,    0.308,   -0.490,
       -0.464,    0.142,    0.623,    0.152,    0.038,   -0.190,   -0.708,
        0.102,   -0.656,   -0.378,    0.559,   -0.016,    0.234,    0.388,
       -0.372,   -0.310,   -0.199,    0.161,   -0.687,   -0.074,    0.541,
       -0.552,    0.244,    0.596,    0.593,    0.188,   -0.049,   -0.863,
        0.327,    0.204,    0.081,   -0.512,   -0.164,   -0.595,    0.263,
       -0.481,   -0.024,    0.373,   -0.524,    0.342,    0.337,    0.123,
       -0.135,    0.258,    0.161,   -0.457,    0.244,   -0.078,   -0.100,
        0.134,    0.083,   -0.184,    0.695,   -0.246,    0.642,   -0.302,
       -0.315,    0.671,    0.324,   -0.402,    0.889,   -0.668,   -0.008,
       -0.318,   -0.557,    0.732,   -0.874,    0.597,    0.095,    0.487,
        0.377,    0.601,   -0.057,    0.263,    0.184,    0.396,    0.316,
       -0.282,   -0.145
    },
    {  -0.342,   -0.000,   -0.017,    0.052,    0.007,   -0.080,    0.257,
       -0.117,   -0.198,    0.098,   -0.232,    0.148,   -0.295,   -0.205,
       -0.105,    0.359,    0.287,    0.384,   -0.245,    0.735,   -0.254,
       -0.338,   -0.028,   -0.146,   -0.171,    0.160,   -0.139,    0.468,
       -0.102,    0.382,    0.330,   -0.088,    0.668,    0.462,   -0.348,
       -0.024,   -0.246,   -0.129,    0.404,   -0.148,    0.055,    0.048,
        0.057,    0.374,    0.234,   -0.668,    0.060,   -0.880,   -0.537,
        0.132,    0.086,    0.544,    0.335,   -0.508,    1.257,   -0.036,
       -0.334,    0.187,    0.205,    0.051,    0.357,   -0.132,   -0.078,
       -0.909,   -0.397,    0.031,   -0.734,   -0.183,   -0.270,    0.065,
       -0.730,   -0.690,    1.056,   -0.094,    0.234,    0.074,    0.008,
        0.040,    0.834,    0.032,   -0.263,   -0.934,    0.176,    0.051,
        0.034,    0.499,   -0.223,   -0.190,    0.301,   -0.367,    0.033,
        0.406,    0.208,    0.276,   -0.257,    0.179,    0.505,    0.073,
        0.054,   -0.418,   -0.039,   -0.048,    0.093,   -0.013,   -0.198,
       -0.084,   -0.084,   -0.211,   -0.473,   -0.639,   -0.207,    0.387,
        0.131,   -0.535,   -0.613,   -0.020,   -0.011,   -0.158,   -0.112,
       -0.646,   -0.314
    },
    {   0.925,    0.129,    0.797,   -0.229,   -0.109,    0.152,   -0.270,
       -0.235,    0.020,    0.891,    0.178,    0.502,    0.295,   -0.266,
       -0.259,   -0.505,   -0.071,    0.086,   -0.196,   -0.044,    0.561,
       -0.290,   -0.064,   -0.011,    0.051,    0.660,    0.142,    0.937,
       -0.072,   -0.664,    0.008,    0.133,   -0.075,   -0.437,    0.254,
        0.082,    0.205,   -0.556,    0.022,   -0.235,   -0.030,    0.041,
       -0.700,    0.151,    0.080,    0.687,    0.025,   -0.384,   -0.395,
        0.059,    0.097,   -0.039,   -0.242,    0.340,   -0.233,   -0.127,
        0.425,    0.162,    0.119,   -0.177,    0.109,    0.363,    0.546,
        0.373,   -0.893,   -0.183,   -0.061,   -0.289,   -0.185,    0.445,
       -0.192,   -0.383,   -0.062,   -0.060,    0.390,    0.012,   -0.662,
        0.318,    0.012,   -0.336,    0.551,    1.161,    0.043,    0.522,
        0.313,    0.098,   -0.120,   -0.035,    0.168,    0.702,    0.154,
        0.179,   -0.500,   -0.141,    0.287,   -0.323,    0.766,   -0.224,
       -0.213,   -0.158,   -0.784,   -0.204,   -0.189,    0.249,   -0.348,
       -0.419,   -0.066,   -0.630,   -1.051,    0.425,    0.443,   -0.604,
        0.197,    0.328,    0.472,   -0.156,   -0.277,   -0.152,    0.429,
       -0.300,    0.205
    },
    {   1.300,    0.110,    0.504,    0.097,    0.199,   -0.152,   -0.070,
        0.017,    0.587,    0.156,    0.034,    0.198,   -0.431,    0.023,
        0.101,   -0.408,   -0.458,   -0.132,    1.834,    0.623,    0.149,
       -0.096,    0.458,   -0.014,    0.272,    0.348,    0.102,   -1.202,
       -0.056,   -0.777,   -0.547,    0.031,    0.422,    0.515,   -0.005,
        0.190,    1.323,   -0.062,    0.241,    0.364,    0.300,   -0.096,
        0.575,   -0.512,    0.126,   -0.199,    0.180,    0.354,   -0.092,
        0.042,   -0.067,    0.256,    0.577,   -0.255,   -0.531,    0.451,
        0.672,   -0.067,   -0.282,    0.514,    0.342,   -0.007,   -0.023,
       -0.148,    0.376,    0.008,   -0.248,   -0.140,    0.245,   -0.513,
        0.187,    0.231,    2.354,    0.229,    0.762,    0.051,    0.498,
       -0.110,    0.185,   -0.100,   -0.194,    1.121,   -0.146,    0.594,
        0.298,   -0.056,    0.623,    0.459,   -0.243,   -0.202,    0.672,
       -0.125,    0.686,    0.135,   -0.572,    0.136,   -0.385,    0.304,
        0.105,   -0.524,   -0.142,    0.792,   -0.859,   -0.234,   -0.116,
       -0.484,   -0.173,    0.311,   -0.880,    0.571,    0.583,   -0.404,
       -0.504,   -0.063,   -0.382,   -0.513,    0.769,    0.215,    0.145,
        0.053,   -0.369
    },
    {  -0.189,    0.511,   -1.249,    0.343,   -0.124,    0.267,   -0.528,
       -0.218,    0.147,   -0.897,   -0.121,   -0.689,   -0.434,   -0.033,
        0.244,    0.205,    0.045,   -0.223,    0.105,   -0.452,    0.494,
       -0.651,   -0.111,   -0.097,   -0.164,   -0.097,    0.451,   -0.104,
        0.678,    0.108,   -0.262,   -0.295,    0.119,   -0.354,    0.584,
        0.043,   -0.573,   -0.044,    0.123,   -0.017,   -0.010,   -0.434,
        0.235,    0.493,    0.315,   -0.267,    0.208,   -0.282,   -0.119,
        0.042,    0.323,   -0.791,   -0.801,    0.312,    0.073,   -0.368,
        0.099,    0.419,    0.260,   -0.547,   -0.411,    0.227,   -0.721,
       -0.708,    0.359,    0.855,   -0.294,   -0.423,    0.268,   -0.022,
       -0.026,   -0.026,   -0.005,    0.166,   -0.190,    0.577,   -0.083,
        0.560,    0.543,   -0.311,   -0.428,   -0.537,   -0.314,   -0.264,
        0.266,    0.118,    0.259,    0.144,   -0.744,   -0.633,    0.057,
       -0.162,   -0.529,    0.148,   -0.591,   -0.192,    0.071,   -0.049,
       -0.021,    0.090,    0.630,    0.332,    0.428,   -0.162,    0.418,
        0.650,   -0.414,    0.277,   -0.608,   -0.178,   -0.924,    0.161,
        0.479,   -0.376,    0.640,   -0.059,   -0.504,    0.091,    0.007,
        0.101,   -0.426
    },
    {   0.818,   -0.474,   -0.181,   -0.567,    0.086,    0.188,    0.142,
        0.175,    0.222,    0.409,   -0.437,   -0.150,   -0.066,   -0.210,
        0.148,    0.273,   -0.056,    0.059,   -1.143,    0.391,   -0.198,
       -0.121,    0.126,   -0.401,    0.211,   -0.261,    0.033,    1.115,
       -0.135,   -0.614,   -0.218,   -0.079,    0.295,    0.323,    0.155,
        0.291,    0.408,   -0.298,   -0.022,   -0.321,   -0.172,   -0.011,
        0.399,   -0.159,    0.185,   -0.433,   -0.169,    0.277,    0.060,
       -0.079,   -0.002,   -0.363,   -0.225,   -0.134,    0.217,   -0.156,
       -0.313,    0.119,    0.285,   -0.327,    0.644,   -0.325,   -0.446,
       -0.059,    0.680,    0.133,    0.437,   -0.105,    0.084,    0.582,
       -0.244,    0.161,   -1.060,   -0.063,    0.590,   -0.376,   -0.044,
        0.367,   -0.078,   -0.040,   -0.127,    0.650,   -0.449,    0.341,
       -0.238,    0.003,    0.423,    0.077,    0.022,    0.353,   -1.065,
        0.191,   -0.594,   -0.168,   -0.040,    0.124,   -0.013,   -0.095,
       -0.523,   -0.324,    0.330,   -0.033,   -0.364,    0.174,    0.537,
       -0.568,   -0.773,    0.203,   -0.423,   -0.038,   -0.550,   -0.221,
        0.766,    0.093,    1.009,   -0.173,   -0.366,   -0.496,   -0.491,
       -0.553,    0.449
    },
    {   0.502,    0.315,   -0.019,    0.359,   -0.041,   -0.008,   -0.208,
        0.135,   -0.153,    0.336,    0.550,   -0.329,    0.312,   -0.029,
       -0.096,    0.130,   -0.321,    0.178,    0.015,    0.219,   -0.414,
       -0.254,    0.123,    0.031,    0.144,    0.349,   -0.721,    0.152,
        0.694,    0.360,    0.803,   -0.240,   -0.088,   -0.127,   -0.129,
        0.424,    0.476,   -0.190,   -0.140,   -0.062,   -0.158,    0.078,
        0.049,   -0.145,   -0.048,    0.057,   -0.067,    0.580,    0.063,
       -0.110,   -0.038,   -0.423,   -0.643,    0.226,    0.276,    0.182,
        0.076,    0.716,    0.414,   -0.280,    0.119,    0.181,    0.366,
       -0.199,   -0.227,    0.077,    0.340,    0.246,   -0.316,    0.721,
        0.222,   -0.038,   -0.647,    0.496,    0.517,    0.070,   -0.066,
        0.548,    0.415,   -0.051,   -0.024,   -0.507,   -0.108,   -0.640,
       -0.306,   -0.007,    0.022,    0.394,    0.021,   -0.365,   -0.571,
       -0.023,    0.620,    0.163,    0.103,   -0.419,    0.168,    0.399,
       -0.272,    0.098,    0.005,   -0.218,    0.271,   -0.427,   -0.058,
       -0.109,   -0.347,   -0.039,   -0.632,    0.438,   -0.029,    0.226,
       -0.336,   -0.438,    0.491,    0.168,   -0.283,   -0.482,   -0.657,
       -0.629,    0.011
    },
    {   0.125,    0.014,   -0.018,    0.285,   -0.352,   -0.072,    0.202,
        0.113,    0.289,    1.298,    0.171,   -0.624,    0.090,   -0.093,
        0.074,    0.064,    0.087,    0.145,   -0.473,    0.059,   -0.001,
       -0.253,    0.105,   -0.128,    0.259,    0.351,    0.299,    0.053,
       -0.189,    0.708,   -0.039,    0.121,    0.213,    0.063,    0.010,
       -0.041,   -2.836,    0.199,    0.115,    0.458,    0.368,   -0.224,
        0.010,   -0.139,    0.136,   -1.865,   -0.233,   -0.049,   -0.183,
       -0.229,   -0.176,    0.260,    0.182,   -0.095,    0.081,   -0.063,
        0.402,    0.093,    0.178,    0.018,    0.384,    0.221,   -0.324,
       -0.677,    0.429,    0.071,    0.013,    0.060,   -0.071,   -0.208,
        0.199,    0.275,   -0.615,   -0.097,   -0.499,   -0.359,    0.112,
        0.113,    0.173,   -0.047,   -0.213,   -1.191,    0.386,   -0.007,
        0.272,    0.212,    0.343,   -0.102,    0.232,    0.329,    1.094,
       -0.120,    0.240,    0.106,    0.409,    0.079,   -0.207,   -0.008,
       -0.071,   -0.330,    0.447,    0.388,    0.167,   -0.059,    0.379,
        0.023,   -0.065,    0.299,   -0.807,   -0.557,    0.562,   -0.604,
        0.542,   -0.299,    0.350,   -1.021,    0.610,   -0.665,    0.024,
        0.307,   -0.415
    },
    {   0.885,    0.206,   -0.247,   -0.424,   -0.151,   -0.014,    0.001,
        0.255,    0.250,    0.715,   -0.102,   -0.280,   -0.260,   -0.138,
       -0.067,    0.135,    0.053,    0.163,    0.686,   -0.075,   -0.377,
       -0.094,    0.090,   -0.045,   -0.158,    0.025,    0.203,    0.649,
        0.142,    0.530,   -0.065,    0.078,   -0.029,   -0.185,   -0.008,
        0.096,    0.185,   -0.048,   -0.089,    0.013,   -0.118,    0.258,
       -0.208,   -0.136,    0.039,   -0.136,   -0.340,    0.092,   -0.063,
       -0.271,    0.074,   -0.691,   -0.145,   -0.063,   -0.141,    0.316,
        0.120,    0.080,    0.227,   -0.007,   -0.137,   -0.073,    0.125,
       -0.826,   -0.017,   -0.470,    0.058,   -0.018,   -0.089,    0.146,
        0.100,    0.021,   -0.257,    0.120,    0.011,   -0.031,    0.018,
       -0.013,    0.169,   -0.103,   -0.025,    0.346,   -0.071,   -0.407,
        0.261,   -0.219,    0.091,    0.021,   -0.422,   -0.324,    0.541,
        0.211,    0.365,    0.234,   -0.209,   -0.149,    0.071,    0.024,
       -0.089,   -0.943,    0.120,   -0.126,   -0.242,   -0.090,    0.276,
        0.362,   -0.224,   -0.153,   -1.417,   -0.031,    0.718,    0.638,
        0.402,    0.110,    0.734,    1.225,   -0.542,   -0.175,    0.620,
       -0.129,   -0.415
    },
    {  -0.272,    0.443,    0.230,    0.229,    0.320,    0.000,   -0.175,
        0.301,   -0.119,    0.370,   -0.198,   -0.536,    0.513,    0.382,
       -0.177,    0.055,   -0.482,   -0.047,    0.224,   -0.079,    0.683,
        0.241,    0.007,   -0.082,   -0.405,   -0.404,    0.399,    0.079,
       -0.073,   -0.000,    0.030,    0.328,   -0.032,    0.250,   -0.103,
        0.276,   -0.076,    0.041,    0.187,   -0.352,    0.183,    0.272,
        0.414,   -0.049,   -0.312,    0.237,   -0.209,   -0.293,   -0.307,
       -0.106,   -0.022,   -0.077,   -0.052,   -0.044,   -0.308,    0.400,
        0.114,    0.050,    0.196,    0.001,   -0.404,   -0.044,    0.489,
        0.042,   -0.122,   -0.149,    0.234,   -0.003,    0.123,    0.062,
       -0.130,    0.367,    0.339,   -0.053,   -0.500,    0.029,   -0.120,
        0.238,    0.277,   -0.132,    0.152,   -0.285,   -0.143,    0.473,
        0.283,    0.202,    0.070,    0.148,   -0.026,    0.706,   -0.171,
       -0.331,    0.075,    0.464,    0.021,    0.176,   -0.050,    0.143,
        0.055,    0.096,    0.483,   -0.267,    0.007,   -0.116,    0.075,
        0.553,    0.072,    0.029,   -0.252,    0.542,    0.142,    0.849,
       -0.181,   -0.055,    0.488,    0.592,   -0.020,    0.953,   -0.524,
       -0.172,   -0.677
    },
    {  -0.498,   -0.123,    0.101,   -0.306,   -0.185,    0.027,    0.120,
        0.128,    0.193,   -0.567,   -0.275,   -0.518,    0.082,    0.518,
       -0.264,   -0.326,   -0.366,   -0.474,   -0.475,    0.138,    0.173,
        0.230,    0.490,   -0.319,    0.454,   -0.065,   -0.087,   -0.409,
        0.209,   -0.142,    0.494,    0.300,   -0.728,   -0.378,    0.118,
        0.010,    0.782,    0.204,    0.681,   -0.554,   -0.123,    0.472,
       -0.023,   -0.373,   -0.086,    0.409,   -0.420,   -0.339,   -0.353,
        0.431,   -0.157,   -0.201,    0.036,   -0.088,   -0.567,   -0.020,
        0.569,    0.387,    0.155,   -0.358,   -0.244,    0.305,   -0.142,
        0.049,   -0.010,   -0.146,    0.158,    0.386,   -0.352,    0.402,
       -0.414,   -0.409,   -0.990,    0.583,   -0.166,   -0.577,    0.613,
       -0.061,   -0.310,   -0.467,   -0.317,   -0.371,   -0.016,   -0.514,
       -0.333,    0.160,    0.045,    0.463,    0.272,   -0.329,    0.171,
        0.119,   -0.104,    0.550,    0.370,   -0.393,   -0.116,    0.237,
        0.325,   -0.100,   -0.275,   -0.140,   -0.186,    0.491,    0.095,
        0.275,   -0.578,    0.590,   -0.846,   -0.393,    0.117,   -0.627,
        0.674,    0.531,    0.556,   -0.637,   -0.248,    0.175,   -0.829,
        0.198,    0.027
    },
    {   0.903,    0.583,    0.416,    0.730,    0.076,    0.411,    0.306,
       -0.142,    0.339,   -0.437,   -0.025,   -0.699,   -0.406,   -0.074,
        0.247,    0.019,    0.282,   -0.002,    0.146,   -0.087,   -0.061,
        0.077,   -0.425,    0.450,   -0.377,    0.458,    0.416,    0.168,
       -0.010,    0.018,   -0.719,    0.162,    0.050,   -0.504,   -0.398,
       -0.218,   -0.673,   -0.063,   -0.773,   -0.373,    0.295,   -0.248,
        0.508,    0.170,   -0.239,   -0.113,    0.065,   -0.683,    0.160,
        0.372,   -0.023,   -0.010,   -0.396,    0.016,    0.452,   -0.759,
        0.083,    0.320,   -0.257,   -0.124,    0.743,    0.075,   -0.494,
        0.497,    0.096,   -0.595,    0.109,   -0.190,    0.276,    0.187,
       -0.118,    0.170,    0.615,   -0.529,    0.788,    0.092,    0.134,
       -0.175,   -0.761,    0.203,    0.096,    0.475,   -0.226,   -0.643,
       -0.477,   -0.291,   -0.797,   -0.779,    0.110,   -1.009,    0.528,
       -0.118,   -0.266,    0.517,    0.163,   -0.209,   -0.240,    0.130,
        0.335,    0.287,    0.128,   -0.117,   -0.961,    0.707,   -0.245,
       -0.088,   -0.268,    0.095,   -0.451,   -0.122,   -0.466,    0.130,
        0.652,   -0.217,    0.405,   -0.440,    0.427,    0.385,    0.091,
        0.314,   -0.246
    },
    {  -1.349,   -0.373,    1.286,   -0.054,    0.635,   -0.829,   -0.227,
        0.255,    0.004,   -0.163,   -0.449,   -0.128,   -0.693,    0.155,
       -0.234,   -0.364,    0.200,   -0.246,    1.329,   -0.504,   -1.326,
        0.246,    0.229,   -0.035,    0.098,    0.223,    0.013,    0.235,
        0.541,   -0.743,    0.393,   -0.461,    0.001,   -0.612,   -1.433,
        0.146,   -0.599,   -0.313,   -0.054,   -0.816,   -1.257,    0.137,
        0.742,   -0.224,   -0.868,    0.434,    0.165,    1.159,    0.548,
       -0.422,   -0.695,    0.609,   -0.145,   -0.602,    1.148,    0.089,
        0.197,    0.592,   -0.015,    0.424,   -0.414,    0.249,    0.427,
        0.919,   -0.470,   -0.457,   -0.106,   -0.177,    0.368,   -0.126,
       -0.263,   -0.361,   -1.049,    0.897,    0.526,   -0.109,    0.613,
       -0.186,   -0.375,    0.212,    0.447,   -0.125,    0.039,   -0.928,
        0.125,    0.143,   -0.135,    0.852,    0.732,   -0.427,    0.594,
       -0.527,   -0.756,   -0.050,    0.111,   -0.772,   -0.976,   -0.146,
       -0.104,   -0.723,   -0.638,   -0.491,    0.104,    0.935,   -0.344,
        1.468,   -0.056,   -0.410,   -0.626,   -0.246,    0.411,    0.467,
        0.256,   -0.165,    0.147,    0.263,    0.282,    0.444,   -0.626,
        0.187,   -0.157
    },
    {  -1.232,    0.248,   -0.027,   -0.288,   -0.389,    0.079,   -0.255,
       -0.260,   -0.822,   -0.522,   -0.288,    0.100,    0.053,    0.521,
        1.216,   -0.104,   -0.101,    0.738,   -0.034,    0.830,    0.081,
        0.611,   -0.137,    0.286,    0.404,    0.211,    0.763,    1.821,
       -0.429,   -0.714,   -0.556,   -0.166,    1.021,    0.769,   -0.397,
        0.647,   -1.329,   -0.063,    0.547,   -0.019,   -0.656,    0.444,
        0.395,    0.364,   -0.125,    1.473,    0.910,    0.766,    0.022,
       -0.014,    0.563,   -0.065,    0.103,    0.156,   -0.374,    0.579,
       -0.405,   -0.548,   -0.425,    0.321,   -0.817,    0.503,   -0.227,
       -0.199,    0.018,   -0.157,   -0.551,   -0.039,   -0.626,    0.060,
        0.513,    0.500,   -0.526,    0.085,   -0.907,   -0.217,    0.041,
       -0.095,    0.470,    0.250,   -0.383,    0.113,    0.570,   -0.080,
        0.712,    0.383,   -0.350,   -0.554,   -0.236,    0.634,   -0.152,
        0.441,    0.503,    0.280,   -0.033,    0.101,    0.851,    0.133,
       -0.093,   -0.435,    0.712,   -0.364,   -0.227,   -0.009,   -0.286,
       -0.330,   -0.181,    0.104,   -0.646,   -0.273,   -0.122,   -0.289,
        0.244,   -0.173,    0.097,    0.240,   -0.353,   -0.626,    0.259,
       -0.580,    0.401
    },
    {  -0.339,    0.040,    0.359,    0.398,    0.351,   -0.123,    0.160,
        0.143,    0.270,    0.015,    0.766,   -0.227,   -0.096,    0.220,
       -0.361,   -0.085,   -0.855,    0.155,   -0.133,    0.486,   -0.032,
       -0.013,   -0.431,    0.014,    0.235,   -0.048,   -0.350,    0.784,
       -0.073,   -1.002,   -0.023,    0.270,   -0.134,   -0.495,    0.085,
       -0.262,   -1.061,   -0.063,   -0.815,    0.367,    0.002,   -0.136,
        0.335,    0.126,    0.011,    0.327,   -0.533,   -0.174,    0.051,
       -0.390,    0.008,    0.434,   -0.257,   -0.388,   -1.433,   -0.357,
       -0.517,   -0.423,   -0.083,    0.207,    0.036,   -0.285,    0.295,
       -0.072,   -0.061,    0.259,    0.020,    0.391,   -0.038,    0.073,
        0.102,    0.281,   -0.139,   -0.175,   -0.409,    0.365,    0.750,
       -0.266,   -0.211,    0.047,    0.348,   -0.675,   -0.165,    0.069,
        0.092,    0.238,   -0.163,    0.262,    0.793,    0.136,    0.223,
       -0.061,    0.721,    0.407,   -0.198,   -0.192,   -0.295,    0.265,
        0.252,    0.025,   -0.042,    0.465,   -0.071,    0.016,   -0.019,
        0.147,    0.443,   -0.031,   -0.926,   -0.449,   -0.193,   -0.427,
        0.180,   -0.730,   -0.463,   -0.407,   -0.021,    0.139,   -0.124,
        0.592,   -1.180
    },
    {   0.620,    0.024,    0.395,   -0.023,    0.407,   -0.604,   -0.203,
       -0.034,    0.213,   -0.637,   -0.104,   -0.288,    0.171,    0.216,
       -0.161,   -0.212,   -0.204,    0.089,    0.466,    0.364,   -0.279,
       -0.251,   -0.291,    0.468,   -0.312,   -0.814,    0.513,    0.187,
       -0.094,   -0.621,   -0.182,   -0.330,   -0.035,    0.086,   -0.140,
       -0.390,   -0.760,    0.039,    0.076,   -0.584,    0.494,    0.175,
        0.075,   -0.108,   -0.110,   -1.089,   -0.320,   -0.684,    0.067,
        0.112,   -0.378,   -0.123,   -0.089,    0.015,    0.088,   -0.011,
        0.186,    0.341,   -0.377,   -0.314,    0.150,   -0.196,    0.001,
        0.112,    0.040,    0.047,   -0.115,    0.099,    0.279,   -0.445,
       -0.460,    0.049,   -0.429,   -0.973,   -0.226,   -0.279,    0.307,
       -0.178,   -0.425,    0.215,   -0.024,   -1.038,   -0.021,   -0.858,
       -0.556,    0.309,    0.285,    0.458,    0.070,    0.074,    0.934,
       -0.063,   -0.274,    0.345,   -0.135,   -0.144,   -0.242,    0.024,
        0.179,   -0.272,    0.338,   -0.013,   -0.069,   -0.023,    0.280,
       -0.361,    0.586,    0.236,   -1.015,    0.518,    0.463,    0.307,
        0.464,    0.388,   -0.625,    0.251,    0.526,    0.333,   -0.433,
        0.927,    0.503
    },
    {  -0.003,   -0.152,   -0.063,   -0.445,    0.004,   -0.216,   -0.142,
        0.025,   -0.467,   -0.159,    0.020,   -0.173,   -0.090,   -0.027,
       -0.260,   -0.067,   -0.270,   -0.524,    0.135,   -0.427,    0.106,
        0.895,   -0.124,    0.362,   -0.205,   -0.374,   -0.067,   -0.478,
        0.645,    0.464,   -0.034,   -0.196,    0.398,    0.534,   -0.084,
        0.108,   -0.178,   -0.285,    0.261,    0.167,   -0.033,   -0.452,
        0.431,    0.879,   -0.418,    0.227,   -0.145,   -0.115,    0.057,
        0.355,   -0.217,    0.914,   -0.080,    0.098,   -0.730,    0.183,
        0.679,   -0.323,   -0.069,    0.042,   -0.225,   -0.036,    0.026,
       -0.976,   -0.628,   -0.635,   -0.234,    0.035,    0.396,   -0.282,
        0.222,   -0.144,    1.184,    0.140,    0.233,   -0.778,    0.208,
       -0.386,   -0.536,   -0.220,   -0.078,    0.567,   -1.024,    0.038,
        0.363,    0.252,   -0.041,    0.405,   -0.074,   -0.140,   -0.861,
        0.012,   -0.877,   -0.443,    0.194,    0.075,    0.461,    0.129,
        0.066,   -1.381,    0.115,   -0.407,   -0.230,   -0.353,    0.331,
       -0.140,   -0.034,   -0.475,   -1.097,    0.599,   -0.370,    0.171,
       -0.462,   -0.600,   -0.210,   -0.463,    0.047,    0.151,   -0.472,
       -0.641,   -0.627
    },
    {   0.576,   -0.005,    0.132,    0.443,    0.163,    0.426,   -0.025,
        0.263,    0.177,   -0.713,    0.404,    0.096,   -0.125,   -0.028,
       -0.175,   -0.569,   -0.156,    0.395,   -1.146,   -0.264,    0.136,
       -0.090,   -0.359,   -0.212,   -0.085,   -0.483,   -0.258,   -1.076,
        0.208,    0.236,   -0.051,    0.045,   -0.742,    0.490,    0.215,
        0.191,    0.919,    0.193,    0.761,   -0.073,   -0.242,    0.215,
        0.003,   -0.064,   -0.116,   -0.234,   -0.186,   -0.348,   -0.079,
        0.141,   -0.260,   -0.398,   -0.173,    0.017,   -0.516,    0.327,
       -0.249,   -0.092,   -0.192,    0.527,    0.123,    0.067,   -0.278,
        0.081,   -0.367,    0.431,   -0.185,   -0.387,   -0.614,   -0.241,
       -0.487,    0.366,   -0.049,    0.081,   -0.305,    0.277,    0.227,
        0.273,    0.055,    0.008,   -0.326,    0.148,    0.053,    0.423,
        0.526,   -0.095,   -0.107,   -0.398,    0.029,    0.420,    0.918,
       -0.113,   -0.303,   -0.541,    0.045,    0.125,    0.396,   -0.242,
        0.136,    0.271,    0.064,   -0.418,   -0.496,   -0.310,    0.106,
       -0.559,   -0.113,   -0.485,   -0.617,    0.205,    0.573,    0.041,
       -0.324,    0.563,    0.624,   -0.418,   -0.074,    0.309,    0.441,
        0.463,    0.345
    },
    {  -0.175,   -0.622,   -0.071,   -0.309,    0.046,   -0.116,   -0.181,
       -0.092,    0.186,    1.749,    0.323,    0.507,   -0.100,   -0.291,
        0.150,    0.074,    0.041,   -0.187,    0.458,   -0.034,    0.629,
        0.182,   -0.093,   -0.123,   -0.420,   -0.301,   -0.022,    0.538,
        0.189,   -0.107,   -0.139,    0.063,    0.108,    0.009,    0.136,
        0.018,    0.124,    0.342,    0.008,    0.255,    0.264,   -0.198,
       -0.211,    0.309,    0.145,   -0.579,    0.084,    0.035,   -0.140,
        0.250,    0.165,    0.025,    0.164,    0.117,   -0.215,   -0.048,
       -0.203,   -0.052,   -0.162,    0.347,    0.278,    0.052,   -0.186,
       -0.769,   -0.132,   -0.151,   -0.043,   -0.075,   -0.414,    0.322,
       -0.099,    0.113,    0.350,   -0.072,   -0.222,   -0.438,    0.055,
        0.149,   -0.134,   -0.149,   -0.057,   -0.791,   -0.007,   -0.110,
       -0.224,   -0.085,    0.053,    0.035,   -0.035,   -0.062,    0.732,
       -0.179,    0.274,    0.232,   -0.128,   -0.005,    0.074,   -0.160,
       -0.202,    0.218,    0.070,   -0.582,    0.038,   -0.107,   -0.068,
       -0.493,   -0.553,    0.187,   -1.491,    0.559,    0.883,    0.848,
        0.181,    0.661,    0.417,    0.336,   -0.271,    0.285,   -0.508,
       -0.005,    0.789
    },
    {   0.842,   -0.073,    0.404,   -0.105,   -0.039,    0.359,    0.323,
       -0.098,    0.356,    0.877,    0.042,    0.862,    0.404,   -0.225,
        0.009,   -0.207,    0.034,   -0.080,   -0.059,    0.039,    0.088,
       -0.101,    0.140,   -0.339,    0.104,    0.087,    0.106,   -0.446,
        0.058,    0.222,   -0.121,    0.046,    0.785,    0.624,    0.019,
        0.069,   -0.615,   -0.194,    0.043,    0.102,    0.384,   -0.260,
       -0.161,    0.033,   -0.051,    0.054,    0.077,    0.193,    0.018,
        0.014,    0.125,   -0.592,   -0.010,    0.090,    0.013,   -0.322,
       -0.297,   -0.015,    0.463,   -0.214,    0.332,    0.222,    0.201,
       -0.070,    0.073,    0.379,   -0.275,    0.169,    0.012,   -0.022,
       -0.337,    0.061,   -0.035,   -0.132,   -0.168,    0.002,   -0.064,
        0.000,    0.246,    0.070,   -0.276,    0.808,   -0.056,   -0.519,
       -0.370,   -0.256,    0.177,   -0.298,   -0.041,   -0.630,   -0.453,
       -0.055,    0.257,   -0.047,    0.076,   -0.059,   -0.100,    0.287,
       -0.115,    0.774,   -0.068,    0.187,   -0.262,    0.078,   -0.116,
       -0.071,   -0.008,    0.115,   -1.212,   -0.295,    0.459,   -0.851,
       -0.401,    0.129,    0.231,    0.386,    0.104,   -1.067,    0.478,
       -0.784,    0.871
    },
    {  -0.328,   -0.015,   -0.071,   -0.153,    0.450,   -0.254,    0.249,
       -0.371,   -0.260,   -0.453,    0.109,    0.064,    0.287,    0.197,
        0.050,    0.227,    0.080,    0.443,    0.484,    0.186,    0.732,
        0.317,   -0.100,    0.018,   -0.492,   -0.233,    0.291,   -0.148,
        0.343,    0.062,   -0.511,    0.139,    0.414,    0.035,    0.171,
       -0.078,    0.096,   -0.595,   -0.344,   -0.309,    0.297,   -0.493,
       -0.261,    0.219,   -0.089,    0.778,    0.126,   -0.547,   -0.205,
       -0.047,    0.152,    0.063,   -0.085,    0.161,    0.257,    0.394,
       -0.097,    0.506,    1.229,   -0.193,    0.377,    0.666,    0.361,
        0.699,   -0.027,    0.470,   -0.148,    0.016,    0.025,    0.198,
        0.148,    0.017,   -0.198,   -0.310,    0.172,    0.131,   -0.024,
       -0.171,    0.271,    0.238,    0.289,   -0.083,    0.388,   -0.222,
       -0.232,   -0.134,    0.479,    0.167,    0.233,   -0.399,    0.175,
       -0.109,   -0.148,   -0.274,   -0.629,    0.238,   -0.362,   -0.121,
       -0.724,    0.186,   -0.010,   -0.425,   -0.223,   -0.030,    0.163,
       -0.493,   -0.406,   -0.341,   -1.300,   -0.429,   -0.038,    0.873,
       -0.181,    0.492,    0.815,    0.266,    0.540,   -0.576,   -0.381,
        0.074,    0.560
    },
    {   0.525,   -0.072,    0.916,    0.515,   -0.379,    0.042,   -0.375,
       -0.211,   -0.396,    0.691,    0.239,    0.418,    0.162,   -0.082,
        0.558,   -0.431,   -0.077,    0.216,    0.613,   -0.609,   -0.007,
        0.087,    0.096,   -0.058,    0.192,   -0.144,   -0.254,   -0.053,
        0.223,   -0.343,    0.193,    0.383,   -0.333,   -0.660,    0.027,
       -0.255,    0.334,   -0.321,   -0.141,   -0.273,   -0.085,   -0.421,
       -0.358,   -0.141,    0.267,   -0.398,   -0.166,    0.712,    0.052,
        0.173,   -0.184,   -0.398,    0.381,   -0.288,    0.636,    0.111,
        0.420,    0.237,    0.178,   -0.501,   -0.558,   -0.061,   -0.232,
       -0.414,   -0.090,    0.166,   -0.091,    0.238,   -0.229,    0.239,
        0.276,    0.382,   -0.398,    0.094,    0.586,   -0.224,   -0.193,
       -0.111,    0.071,   -0.054,   -0.063,   -0.217,   -0.630,    0.108,
       -0.232,    0.345,   -0.038,   -0.365,   -0.074,    0.048,   -0.497,
       -0.043,   -0.165,   -0.290,   -0.104,    0.145,    0.290,    0.119,
        0.450,    0.543,   -0.241,    0.764,   -0.195,   -0.009,   -0.195,
       -0.443,   -0.383,    0.395,   -0.454,    0.350,    0.319,   -0.539,
        0.394,    0.257,   -0.527,    0.460,   -0.505,   -0.356,    0.567,
        0.414,    0.360
    },
    {   0.546,   -0.103,    0.450,    0.455,    0.105,   -0.230,   -0.412,
       -0.021,    0.068,   -0.773,    0.026,    0.378,   -0.823,   -0.067,
       -0.319,   -0.010,   -0.169,    0.168,    0.477,   -0.513,    0.004,
        0.328,    0.118,   -0.123,    0.549,    0.228,   -0.411,   -0.516,
       -0.359,    0.255,   -0.014,    0.328,   -0.191,    0.185,   -0.036,
       -0.246,    1.314,   -0.017,    0.393,    0.266,    0.299,   -0.035,
        0.077,    0.230,    0.454,   -0.183,   -0.028,    0.548,    0.211,
        0.207,   -0.223,   -0.262,    0.208,   -0.106,   -1.500,    0.148,
        0.155,   -0.062,   -0.221,    0.091,    0.176,    0.075,   -0.104,
        0.180,    0.188,    0.354,    0.023,   -0.040,    0.021,   -0.238,
        0.231,   -0.110,    0.677,    0.273,    0.575,   -0.206,   -0.092,
        0.323,   -0.381,   -0.256,   -0.166,   -1.035,    0.448,    0.344,
        0.019,   -0.178,    0.054,    0.270,   -0.075,    0.233,   -0.150,
       -0.420,   -0.135,   -0.305,    0.332,   -0.295,   -0.450,   -0.172,
       -0.319,    0.417,   -0.264,    0.013,   -0.058,    0.229,    0.446,
       -0.010,    0.280,   -0.156,   -1.221,    0.714,   -0.308,   -0.614,
       -0.163,    0.395,   -0.586,   -0.310,    0.208,    0.330,   -0.424,
        0.528,   -0.077
    },
    {   0.772,   -0.240,   -0.041,    0.136,    0.083,    0.263,    0.275,
        0.193,   -0.040,   -0.201,    0.027,    0.140,   -0.107,    0.160,
       -0.077,    0.231,    0.349,   -0.016,    0.517,   -0.076,    0.388,
        0.050,   -0.076,    0.087,   -0.325,   -0.131,    0.236,    0.003,
        0.148,    0.255,   -0.254,   -0.103,   -0.192,    0.053,    0.333,
       -0.144,    0.375,    0.111,   -0.082,    0.070,   -0.395,   -0.040,
        0.433,    0.192,   -0.154,   -0.784,    0.177,    0.460,    0.009,
       -0.045,   -0.142,    0.145,    0.110,   -0.076,   -0.486,    0.251,
       -0.068,    0.073,    0.192,   -0.025,   -0.491,   -0.170,    0.332,
       -0.073,    0.202,   -0.417,    0.266,   -0.141,    0.033,    0.221,
       -0.020,    0.210,    0.000,    0.052,    0.117,   -0.267,    0.247,
        0.089,    0.158,    0.105,    0.126,    0.192,   -0.196,   -0.564,
       -0.055,   -0.055,    0.245,    0.020,   -0.207,    0.114,   -1.417,
       -0.345,   -0.500,   -0.223,   -0.212,    0.150,   -0.010,    0.165,
       -0.039,    0.193,    0.059,   -0.043,    0.187,    0.176,   -0.233,
       -0.109,    0.105,   -0.152,   -0.668,   -0.208,   -0.312,    0.597,
        0.348,    0.094,   -0.354,    0.746,   -0.527,   -0.182,    0.678,
       -0.471,    0.270
    },
    {   0.197,   -0.274,    0.012,    0.392,   -0.031,    0.099,    0.342,
        0.291,   -0.411,   -0.544,    0.651,   -0.513,    0.888,   -0.385,
       -0.547,    0.706,    0.602,   -0.087,    0.670,   -0.316,    0.121,
        0.869,   -0.311,    0.763,   -0.216,    0.035,   -0.087,    0.271,
       -0.306,   -0.192,   -0.624,    0.576,   -0.158,   -0.156,    0.290,
       -0.557,    0.154,   -0.621,   -0.140,   -0.092,   -0.160,    0.285,
        0.041,   -0.130,   -0.117,    0.531,   -0.394,    0.136,    0.380,
       -0.136,   -0.169,   -0.428,    0.941,   -0.461,    0.252,   -0.288,
       -0.659,   -0.388,   -0.209,    0.309,    0.292,   -0.302,   -0.555,
       -0.256,   -0.524,   -0.516,    0.940,    0.057,   -1.062,   -0.425,
       -0.362,   -0.293,   -0.015,   -0.057,   -0.744,    0.514,    0.500,
        0.180,   -0.319,   -0.482,   -0.481,    0.411,   -0.001,   -0.343,
       -0.227,   -0.665,    0.347,   -0.325,   -0.173,   -0.407,   -0.719,
        0.360,    0.824,   -0.150,   -0.155,    0.144,    0.409,    0.113,
       -0.124,   -0.513,    0.003,   -0.608,   -0.278,   -0.074,    0.229,
        0.469,    0.231,   -0.499,   -0.700,   -0.424,   -0.239,    0.284,
        0.179,   -0.604,    0.225,    0.380,    0.026,    0.155,    0.395,
       -0.431,   -0.893
    },
    {  -0.186,    0.264,    0.399,   -0.031,    0.109,   -0.017,    0.497,
        0.432,   -0.646,    0.344,    0.547,   -0.378,    0.367,   -0.189,
        0.568,    0.652,    0.272,    0.648,    0.242,   -0.675,    0.026,
        0.102,   -0.025,    0.105,    0.550,    0.314,   -0.287,   -0.700,
        0.030,   -1.004,   -0.855,    0.513,   -0.177,    0.621,    0.459,
        0.248,   -0.776,    0.552,    0.275,    0.120,    0.058,    0.040,
        1.002,   -0.320,    0.084,   -0.673,    0.091,   -0.348,   -0.463,
        0.478,   -0.745,    0.049,   -0.788,   -0.169,    0.086,    0.245,
       -0.337,    0.346,   -0.340,   -0.792,    0.433,   -0.053,   -0.387,
       -0.347,    0.301,   -0.242,   -0.237,    0.370,    0.256,   -0.569,
       -0.548,    0.957,   -1.105,    0.155,    0.524,    0.309,    0.473,
       -0.342,   -0.361,   -0.123,    0.374,   -0.360,   -0.040,    0.682,
        0.241,    0.254,   -0.002,   -0.043,    0.195,    0.728,    0.079,
        0.251,   -0.054,    0.631,    0.926,    0.300,    0.040,    0.306,
        0.141,   -0.899,   -0.198,   -0.870,    0.298,   -0.160,    0.076,
        0.633,    0.355,   -0.247,   -0.462,   -0.566,   -0.213,   -0.458,
       -0.192,   -0.257,   -0.107,   -0.066,   -0.110,   -0.067,   -0.281,
        0.276,   -0.460
    },
    {   0.625,    0.314,   -1.162,   -0.436,    0.254,    0.025,   -0.369,
       -0.831,   -0.289,   -0.622,   -0.050,   -0.845,   -0.605,    0.188,
        0.304,    0.550,    0.176,    0.224,   -0.686,   -0.362,   -0.688,
       -0.171,   -0.060,   -0.015,    0.641,   -0.345,   -1.318,   -1.401,
        0.419,   -0.474,   -0.149,   -0.730,    0.689,    0.398,    0.108,
       -0.498,    0.579,    0.646,   -0.048,   -0.332,   -0.578,   -0.139,
        0.497,   -0.444,    0.520,    0.359,    0.198,    0.656,   -0.336,
       -0.778,   -0.250,    0.030,   -0.046,   -0.060,   -0.515,   -0.982,
        0.011,    0.128,    0.259,   -0.304,   -0.996,    0.316,    0.004,
        0.076,   -0.060,   -0.988,   -0.773,   -0.832,    0.603,   -0.739,
       -0.847,   -0.248,    0.486,    0.379,   -1.071,   -0.657,   -0.048,
        0.743,    0.133,    0.035,    0.874,   -1.366,   -0.224,   -1.065,
        0.249,   -0.117,   -0.505,    0.510,    0.557,   -0.344,   -0.437,
        0.590,    0.575,    0.298,   -0.552,    0.659,    1.421,   -0.708,
        0.785,   -1.025,    0.420,   -0.349,   -0.051,   -0.235,   -0.136,
       -0.738,   -0.463,    0.487,   -0.360,    0.198,   -0.532,   -0.134,
       -0.086,    0.217,   -0.252,    0.242,    0.222,    0.119,   -0.442,
       -0.267,    0.335
    },
    {  -0.564,    0.094,   -0.031,   -0.290,    0.510,   -0.846,    0.171,
       -0.235,    0.296,    0.809,   -0.111,   -0.791,   -0.500,   -0.182,
        0.091,   -0.025,   -0.248,   -0.032,   -0.273,    0.927,    0.137,
        0.147,   -0.342,    0.394,    1.287,    0.059,   -0.359,   -0.242,
        0.285,   -0.410,    0.549,    0.413,    0.392,   -0.160,    0.113,
       -0.195,   -0.770,    0.195,   -0.445,   -0.053,   -0.177,    0.156,
        0.126,    0.024,   -0.466,   -1.632,    0.034,   -0.462,   -0.391,
       -0.008,   -0.284,    0.666,   -0.408,    0.323,    0.586,   -0.351,
       -0.456,   -0.270,   -0.111,   -0.994,   -0.730,   -0.370,   -0.513,
        0.305,    0.220,    0.505,   -0.195,   -0.494,    0.835,    0.767,
        0.155,   -0.383,    0.438,   -0.812,    0.138,   -0.021,    0.161,
        0.064,    0.031,   -0.204,   -0.215,    0.444,    0.079,    0.641,
        0.487,    0.001,   -0.202,   -0.458,   -0.461,    0.149,   -0.512,
       -0.092,   -0.312,    0.550,    0.091,   -0.145,    0.193,    0.457,
        0.069,    0.257,   -0.445,    0.159,    0.236,    0.546,    0.358,
       -0.801,   -0.262,    0.756,   -0.936,   -0.343,    0.403,   -0.286,
        0.470,   -0.542,   -0.188,    0.257,   -0.242,   -0.398,    0.384,
       -0.629,    0.055
    },
    {   0.220,    0.351,   -0.694,   -0.021,    0.182,    0.433,    0.148,
        0.603,    0.222,    1.134,   -0.243,    0.972,    0.532,    0.380,
       -0.251,   -0.411,    0.045,    0.743,   -1.069,    0.195,    0.148,
        0.057,    0.793,   -0.518,    0.565,   -0.136,    0.843,    0.676,
       -0.750,    0.339,    0.178,    0.318,   -0.150,   -0.192,   -0.424,
        0.129,   -0.084,   -0.874,    0.447,    0.277,   -0.067,    0.445,
       -0.362,    0.124,   -0.207,    0.547,   -0.222,   -0.663,    0.444,
        0.273,   -0.182,    0.209,    0.184,    0.198,   -0.367,    0.745,
        0.696,   -0.238,   -0.483,    0.229,    0.111,   -0.253,    0.675,
        0.036,   -0.386,    0.325,   -0.074,    0.089,   -0.487,   -0.320,
       -0.265,   -0.207,    0.246,   -0.384,   -0.211,    0.272,   -0.158,
       -0.120,    0.559,    0.036,   -0.328,   -0.345,    0.041,    0.366,
        0.249,    0.217,   -0.143,    0.320,    0.281,    0.155,    0.170,
        0.311,   -0.807,    0.086,    0.002,    0.245,   -0.292,   -0.829,
        0.529,    0.791,   -0.165,    0.762,    0.363,   -0.118,    0.114,
       -0.312,   -0.580,   -0.038,   -0.470,   -0.154,    0.533,   -0.051,
       -0.447,    0.140,    0.389,   -0.213,    0.299,   -0.707,   -0.641,
        0.233,    0.341
    },
    {  -0.271,    0.049,   -0.540,   -0.105,   -0.033,    0.054,    0.446,
        0.310,   -0.290,   -0.003,    0.272,   -0.178,   -0.192,    0.155,
        0.579,    0.695,   -0.126,   -0.007,   -0.225,   -0.317,   -0.317,
       -0.407,    0.027,   -0.207,    0.179,    0.069,    0.196,    0.167,
        0.557,    0.305,    0.065,    0.153,    0.311,   -0.007,    0.051,
        0.001,   -0.352,   -0.018,    0.319,   -0.208,   -0.144,    0.208,
       -0.104,   -0.312,   -0.010,   -0.136,   -0.183,   -0.020,    0.499,
        0.044,   -0.062,    0.165,    0.036,   -0.289,   -0.379,    0.151,
        0.446,    0.040,    0.129,   -0.309,    0.190,    0.199,    0.165,
        0.484,    0.034,   -0.392,   -0.518,    0.206,    0.137,    0.116,
       -0.308,    0.257,    0.338,   -0.251,   -0.182,   -0.171,   -0.250,
       -0.066,   -0.592,    0.058,   -0.039,    0.522,   -0.778,   -0.132,
       -0.040,   -0.255,    0.318,    0.156,    0.023,   -0.315,    0.529,
        0.130,   -0.088,    0.058,   -0.565,    0.133,    0.214,    0.209,
        0.471,    0.342,   -0.304,    0.058,    0.304,   -0.710,    0.283,
       -0.382,    0.281,   -0.369,   -0.592,   -1.060,   -0.183,   -0.075,
        0.049,   -0.503,   -0.128,   -0.823,    0.476,    0.200,   -0.484,
       -0.209,    0.281
    },
    {   0.257,    0.147,   -0.578,   -0.281,   -0.183,   -0.118,   -0.376,
       -0.572,    0.097,    0.589,   -0.411,   -0.306,   -0.468,    0.074,
       -0.102,   -0.669,    0.189,   -0.119,   -0.253,    0.481,   -0.006,
        0.385,    0.210,    0.655,   -0.636,   -0.229,   -0.040,   -0.816,
        0.038,    0.166,    0.072,    0.457,    0.087,   -0.045,   -0.132,
       -0.191,    0.151,   -0.146,   -0.060,    0.292,   -0.346,    0.588,
       -0.565,   -0.054,    0.076,   -0.325,    0.617,    0.250,   -0.022,
        0.113,    0.034,   -0.214,    0.292,    0.220,    1.609,    0.461,
        1.117,   -0.576,   -0.092,    0.499,   -0.265,   -0.264,    0.010,
        0.250,    0.206,    0.249,    0.569,    0.469,   -0.231,    0.415,
        0.450,   -0.218,    0.991,   -0.137,   -0.848,   -0.347,   -0.138,
        0.162,    0.082,   -0.210,    0.460,   -0.105,   -0.392,   -0.068,
        0.167,    0.081,   -0.802,   -0.305,   -0.257,   -0.007,    0.361,
       -0.201,    0.681,    0.405,    0.124,   -0.163,   -0.474,   -0.178,
        0.278,   -0.682,   -0.386,    0.019,   -0.328,   -0.298,   -0.648,
       -0.018,    0.104,    0.419,   -0.430,    0.548,    0.310,   -0.055,
        0.345,    0.511,    0.522,    0.217,    0.088,    0.373,    0.361,
        0.506,   -0.183
    },
    {   0.774,    0.142,    0.843,    0.080,    0.153,   -0.110,   -0.270,
       -0.050,    0.047,   -1.360,    0.055,   -0.567,    0.316,    0.390,
        0.039,   -0.060,   -0.061,    0.546,    0.153,    0.206,   -0.134,
       -0.073,    0.040,    0.090,   -0.305,   -0.342,   -0.150,    0.120,
       -0.182,   -0.213,    0.339,   -0.039,    0.568,   -0.021,   -0.019,
        0.123,   -0.919,    0.552,   -0.039,    0.114,   -0.111,    0.008,
       -0.157,    0.108,    0.342,    0.318,   -0.044,    0.006,    0.125,
        0.087,   -0.036,   -0.357,   -0.065,   -0.063,    2.117,    0.106,
        0.232,   -0.437,    0.078,    0.179,    0.509,   -0.049,    0.254,
       -0.159,    0.016,   -0.288,    0.284,    0.580,   -0.229,   -0.055,
       -0.082,    0.330,    2.369,    0.148,    0.169,   -0.110,   -0.047,
       -0.222,   -0.288,   -0.045,   -0.258,   -0.348,   -0.096,    0.278,
        0.313,    0.385,   -0.048,    0.048,   -0.094,   -0.102,    1.095,
       -0.190,    0.027,   -0.039,   -0.114,    0.036,    0.121,    0.177,
       -0.094,    0.148,   -0.202,   -0.152,   -0.003,   -0.089,   -0.115,
       -0.447,   -0.079,    0.224,   -0.738,    0.648,   -0.338,    0.630,
        0.263,    0.018,    0.439,    0.400,    0.375,   -0.260,   -0.431,
       -0.335,    0.731
    },
    {   0.191,   -0.427,    0.001,    0.108,    0.493,   -0.583,    0.005,
        0.216,    0.457,   -0.616,    0.056,    0.315,    0.139,   -0.076,
       -0.427,    0.062,    0.376,   -0.376,    0.184,    0.634,    0.128,
        0.373,   -0.185,    0.154,    0.270,   -0.367,    0.392,   -0.230,
       -0.053,    0.930,   -0.599,   -0.376,   -0.033,   -0.143,    0.092,
        0.125,   -0.277,    0.020,    0.261,    0.003,   -0.196,    0.064,
       -0.850,   -0.217,    0.446,   -0.362,   -0.201,    0.004,   -0.095,
        0.440,   -0.233,   -0.308,    0.139,    0.623,    0.527,    0.181,
        0.599,   -0.621,   -0.055,   -0.156,   -0.278,   -0.283,   -0.008,
       -0.101,    0.533,   -0.077,    0.462,    0.303,   -0.368,   -0.227,
       -0.042,   -0.076,    0.111,    0.131,   -0.094,   -0.082,   -0.016,
        0.277,   -0.264,   -0.216,   -0.466,    0.183,    0.283,    0.407,
       -0.493,   -0.356,   -0.118,    0.190,    0.047,   -0.448,   -0.262,
       -0.163,   -0.217,   -0.098,   -0.318,    0.131,   -0.136,    0.231,
        0.109,   -0.864,   -0.213,   -0.499,   -0.185,    0.001,   -0.003,
        0.079,    0.087,   -0.122,   -0.873,    0.588,   -0.639,   -0.470,
       -0.263,    0.453,   -0.576,    0.629,    0.575,    0.431,   -0.236,
        0.688,   -0.893
    },
    {  -0.529,    0.876,    0.020,   -0.193,    0.799,    0.571,    0.088,
       -0.073,   -0.170,   -0.299,   -0.189,    1.103,    0.922,    0.337,
       -0.652,    0.440,    0.700,    0.033,   -0.466,    0.043,   -0.585,
       -0.532,   -0.136,    0.370,    0.380,    0.081,   -0.283,    0.948,
       -0.301,   -1.573,    0.553,    0.156,    0.022,   -0.000,   -0.320,
        0.138,    0.200,    0.021,    0.823,   -0.691,    0.260,    0.475,
       -0.745,   -0.606,    0.189,   -0.268,    0.752,    0.997,    0.117,
       -0.447,    1.041,    0.612,   -0.260,    0.539,    0.337,    0.227,
       -0.341,    0.086,    0.214,   -0.575,    1.471,    0.127,   -0.343,
        0.555,   -1.126,   -0.483,    0.243,    0.276,   -0.350,    1.323,
       -0.541,   -0.045,   -0.824,   -0.192,   -0.537,   -0.361,   -0.068,
        0.341,    0.085,    0.807,   -0.484,    1.388,    0.339,    0.180,
        0.176,   -0.174,    0.119,   -1.000,   -0.165,   -0.609,   -0.431,
       -0.743,   -0.795,    0.013,   -0.252,    0.149,    0.133,   -0.119,
        0.125,    0.171,   -0.700,    0.179,   -0.059,    0.809,    0.519,
        0.551,   -0.798,   -0.263,   -0.468,    0.054,   -0.317,   -0.629,
        0.397,    0.404,   -0.165,   -0.195,   -0.118,   -0.100,    0.129,
        0.020,   -0.133
    },
    {  -0.281,   -0.149,    0.265,    0.172,   -0.148,    0.377,   -0.215,
       -0.675,    0.824,    0.111,    0.374,    0.388,   -0.007,   -0.505,
        0.126,    0.364,    0.193,   -0.527,    0.371,   -0.009,   -0.365,
       -0.169,   -0.203,   -0.169,   -0.438,   -0.072,    0.302,   -0.023,
       -0.236,    0.421,    0.301,    0.719,   -0.353,    0.196,    0.152,
       -0.028,   -0.084,    0.515,    0.138,    0.598,   -0.223,   -0.357,
       -0.228,   -0.037,    0.212,   -0.131,   -0.017,   -0.112,    0.062,
       -0.189,    0.450,   -0.054,   -0.024,    0.511,    0.257,   -0.153,
       -0.002,    0.476,    0.131,    0.025,   -0.040,   -0.094,    0.167,
        0.539,    0.081,    0.788,    0.223,   -0.242,   -0.046,   -0.366,
       -0.206,    0.104,   -0.255,   -0.305,    0.359,   -0.119,   -0.223,
       -0.154,    0.221,    0.233,   -0.276,   -0.191,    0.180,    0.744,
        0.145,   -0.165,   -0.095,    0.596,    0.751,   -0.234,    0.066,
       -0.548,    0.008,   -0.093,   -0.435,   -0.180,    0.335,   -0.296,
        0.024,   -0.335,    0.665,    0.558,    0.031,   -0.648,    0.641,
        0.637,   -0.031,    0.007,   -0.464,    0.053,   -0.115,    0.386,
       -0.271,   -0.136,   -0.075,    0.309,    0.931,    0.198,   -0.484,
       -0.643,   -0.229
    },
    {   0.591,   -0.053,   -0.577,    0.240,   -0.192,   -0.295,   -0.270,
        0.537,   -0.379,   -0.992,    0.022,   -0.698,   -0.265,   -0.093,
        0.189,    0.358,    0.256,   -0.410,    0.788,   -0.403,   -0.664,
       -0.216,    0.071,   -0.106,   -0.468,    0.080,    0.238,    1.283,
       -0.257,   -0.831,    1.050,    0.366,    0.040,    0.215,    0.056,
       -0.169,   -0.704,   -0.463,    0.902,    0.271,    0.568,   -0.730,
        0.146,    0.533,    0.005,    0.055,   -0.296,   -0.128,    0.142,
        0.287,   -0.215,    0.851,   -0.170,   -0.292,   -0.467,   -0.364,
       -0.083,   -0.833,    0.250,    0.613,   -0.023,   -0.367,    0.238,
        0.168,    0.069,   -0.338,   -0.639,    0.009,   -0.542,   -0.457,
       -0.362,   -0.882,    0.634,   -0.501,    0.010,   -0.200,    0.225,
       -0.827,   -0.602,    0.099,   -0.172,   -0.652,    0.258,   -0.087,
        0.731,    0.056,    1.035,    0.632,   -0.409,    0.000,    0.063,
       -0.315,    0.293,    0.203,   -0.453,   -0.312,    0.364,    0.176,
        0.222,   -1.074,   -0.525,    0.663,    0.169,    0.079,   -0.711,
        0.181,   -0.159,    0.010,   -0.548,   -0.306,   -0.602,    0.298,
        0.300,   -0.437,   -0.641,   -0.096,    0.166,    0.518,    0.274,
       -0.285,    0.309
    },
    {   0.346,    0.571,   -0.510,   -0.481,   -0.004,    0.626,   -0.506,
       -0.749,    0.138,   -0.802,   -0.052,    1.231,    0.346,    0.156,
       -0.451,   -0.309,    0.310,    0.046,   -0.610,    0.040,    0.451,
        0.261,    0.129,    0.006,    0.012,    0.177,   -0.334,    0.054,
        0.069,   -0.091,    0.368,    0.061,    0.333,   -0.004,    0.158,
       -0.173,    0.916,    0.036,    0.084,   -0.340,   -0.822,    0.597,
       -0.066,   -0.151,    0.249,   -0.086,   -0.179,    0.553,    0.249,
       -0.066,   -0.329,   -0.348,   -0.049,    0.069,   -0.602,    0.483,
       -0.080,    0.261,   -0.131,   -0.074,   -0.075,   -0.114,    0.247,
        0.309,   -0.088,    0.621,   -0.191,    0.040,    0.003,   -0.283,
       -0.378,    0.084,    0.148,   -0.214,   -0.086,   -0.442,   -0.057,
       -0.037,   -0.372,   -0.010,   -0.117,    0.384,   -0.265,   -0.398,
        0.234,   -0.237,    0.036,    0.138,   -0.130,    0.284,   -0.395,
        0.422,    0.768,   -0.106,   -0.074,    0.951,    0.442,   -0.188,
       -0.458,   -0.498,    0.503,    0.082,    0.197,    0.434,    0.068,
       -0.026,    0.016,    0.095,   -0.473,    0.233,   -0.456,   -0.659,
        0.940,    0.045,    0.988,    0.105,    0.657,    0.493,   -0.243,
       -0.469,    0.433
    },
    {   0.076,   -0.676,    0.937,    0.535,   -0.627,    0.180,   -0.502,
       -0.167,   -1.108,    0.756,   -0.468,   -0.892,   -0.127,    0.159,
       -0.706,   -0.578,   -0.210,   -0.042,   -0.090,    0.380,    0.792,
       -0.191,   -1.156,   -0.098,   -0.236,    0.017,    0.520,    0.041,
        0.841,    0.061,   -0.359,    0.326,    0.258,   -1.137,    0.746,
        0.639,   -0.767,   -0.105,    0.854,    0.098,    0.312,   -0.615,
        0.063,    0.327,   -0.103,   -0.253,   -0.197,   -0.157,    0.539,
        0.010,    0.105,    0.136,    0.216,    0.237,    0.252,    0.069,
        0.039,   -0.435,   -0.540,    0.013,   -1.453,    0.043,   -0.124,
       -0.052,    0.700,   -0.229,    0.260,   -0.398,    0.231,    0.519,
        0.106,    0.123,   -0.276,   -0.518,   -0.359,   -0.105,   -0.128,
       -0.074,   -0.141,    0.197,   -0.206,   -0.897,    0.103,   -0.035,
       -0.197,   -0.376,    0.150,    0.021,   -0.248,   -0.299,    0.321,
        0.094,    0.823,    0.439,   -0.254,   -0.125,   -0.666,   -0.302,
        0.461,   -0.079,    0.802,   -0.028,   -0.109,    0.004,    0.147,
       -0.383,    0.023,    0.219,   -0.969,    0.216,    0.400,   -0.284,
        0.036,   -0.703,   -0.297,    0.233,   -0.208,   -0.156,   -0.580,
        0.690,    0.281
    },
    {   0.382,    0.330,    0.712,    0.336,   -0.049,    0.484,    0.117,
       -0.151,   -0.079,   -0.385,   -0.029,    0.676,   -0.148,    0.073,
       -0.415,   -0.034,    0.475,    0.361,   -1.546,   -0.252,   -0.727,
        0.040,    0.036,   -0.145,   -0.118,   -0.075,    0.046,    0.239,
       -0.487,   -0.068,   -0.141,    0.554,    0.069,   -0.034,    0.509,
       -0.729,   -0.214,   -0.649,   -0.349,   -0.314,    0.379,   -0.200,
       -0.595,   -0.116,   -0.328,   -0.212,   -0.204,   -0.109,    0.051,
       -0.166,   -0.286,    0.606,   -0.092,    0.094,   -0.817,    0.583,
        0.907,   -0.299,   -0.127,    0.767,   -0.021,   -0.280,    0.258,
       -0.290,    0.332,    0.891,   -0.757,    0.629,    0.478,    0.182,
       -0.465,   -0.372,    0.448,   -0.449,    0.042,    0.240,    0.107,
       -0.020,    0.537,    0.165,   -0.228,    0.953,    0.226,   -0.219,
        0.314,   -0.027,    0.327,    0.338,   -0.492,    0.546,    0.107,
        0.119,    0.345,   -0.029,    0.597,    0.077,    0.223,   -0.473,
       -0.187,    0.389,   -0.112,    0.394,    0.348,   -0.024,   -0.398,
       -0.561,   -0.269,    0.652,   -0.596,    0.188,   -0.354,   -0.532,
        0.017,    0.434,   -0.278,   -0.320,    0.318,   -0.587,    0.098,
       -0.336,    0.633
    },
    {   0.447,    0.153,   -0.265,   -0.105,    0.092,    0.223,    0.190,
        0.512,   -0.227,    0.757,    0.142,    0.515,   -0.294,   -0.069,
        0.321,   -0.108,   -0.342,   -0.022,    0.323,   -0.457,   -0.361,
       -0.021,    0.163,    0.030,    0.360,    0.223,    0.412,   -0.677,
       -0.250,    0.461,    0.335,    0.110,   -0.176,    0.162,    0.520,
