//-----------------------------------------------------------------------------
// Network: Graviton_2e2mu
// Inputs:
//                                                  Offset       Scale
//    angle_costhetastar                         1.135e-02   5.572e-01
//    angle_costheta1                           -1.503e-04   5.555e-01
//    angle_costheta2                           -3.457e-03   5.133e-01
//    angle_phi                                  6.090e-03   1.763e+00
//    angle_phistar1                             2.412e-02   1.797e+00
//    Z1mass                                     8.157e+01   1.240e+01
//    Z2mass                                     2.991e+01   1.011e+01
//    mass4l                                     1.238e+02   3.890e+00
//
// Created: Sun Jan 20 19:28:34 2013
//-----------------------------------------------------------------------------
#include <cmath>
#include <vector>
#include <iostream>
//-----------------------------------------------------------------------------
// Make following visible only to this programming unit
namespace nsGraviton_2e2mu {
  // NOTE: Network indices start at 0
  static const int nnetworks=100;
  static const int ninputs  =8;
  static const int nhidden  =12;
  static const int nparams  =121;

  static const double mean[ninputs]={
  1.13500e-02,
 -1.50300e-04,
 -3.45700e-03,
  6.09000e-03,
  2.41200e-02,
  8.15700e+01,
  2.99100e+01,
  1.23800e+02
  };

  static const double sigma[ninputs]={
  5.57200e-01,
  5.55500e-01,
  5.13300e-01,
  1.76300e+00,
  1.79700e+00,
  1.24000e+01,
  1.01100e+01,
  3.89000e+00
  };

  static const double weight[nnetworks][nparams]={
    {   4.488,    0.887,   -0.508,    0.259,    0.118,   -0.457,    1.487,
        1.079,   -0.846,   -4.387,   -0.276,    0.269,    0.778,   -0.229,
       -0.405,   -0.063,   -0.276,    0.371,    2.819,    0.703,   -1.276,
        0.251,    0.499,   -0.288,   -0.647,   -0.369,   -1.128,    1.125,
        0.068,    1.077,   -1.116,   -1.307,    0.261,    0.066,   -0.410,
        0.454,    0.143,    0.390,    0.804,   -0.911,    1.389,    0.130,
        1.073,    0.901,   -1.210,   -5.284,   -0.726,    1.540,    0.644,
        1.311,   -0.087,    0.313,    0.323,   -0.597,    2.039,    0.328,
        1.637,    0.943,   -0.081,    0.230,   -0.352,   -0.600,   -0.232,
        0.877,   -0.910,   -0.604,    0.530,   -0.751,   -0.329,   -0.111,
       -0.866,    0.416,    4.927,   -1.331,   -0.118,    1.230,    0.438,
        0.484,   -0.610,    0.099,    0.721,    1.305,    0.069,    0.984,
       -1.002,   -0.112,    0.098,   -0.134,   -0.402,    0.193,    1.350,
       -0.070,   -0.054,    0.589,   -0.779,   -1.102,    0.581,    0.641,
       -0.228,   -0.857,    0.251,    0.431,    0.671,   -0.062,   -0.154,
        0.571,    0.547,   -0.496,   -1.026,   -0.435,   -0.234,    0.285,
       -0.480,   -0.327,   -0.310,    0.374,   -0.022,    0.172,    0.711,
       -0.052,   -0.234
    },
    {   2.342,    0.402,   -0.680,    0.189,   -0.534,   -0.191,    0.684,
       -0.783,   -0.864,    2.103,   -0.523,   -0.769,   -0.260,   -0.067,
       -0.671,   -0.408,   -0.077,    0.431,    0.159,   -0.426,   -0.162,
        0.908,    0.378,    0.180,    0.349,    0.390,    0.058,    0.758,
        0.288,   -0.595,    0.437,    0.061,    0.081,   -0.082,    0.327,
       -0.077,    1.709,   -0.429,   -0.259,    0.154,    1.036,   -0.443,
       -0.490,   -0.039,    0.920,    1.357,   -0.085,   -0.746,   -0.312,
        0.129,   -0.174,   -0.292,   -0.050,   -0.027,    1.054,    0.133,
        1.069,    0.351,   -0.265,    0.025,   -0.154,   -0.306,   -0.363,
        0.801,   -0.091,    0.356,    0.338,    0.552,   -0.385,   -0.173,
        0.393,    0.343,   -1.588,   -0.175,   -0.148,   -0.622,    0.262,
       -0.776,   -1.403,    0.668,   -0.819,    1.837,    0.063,    1.156,
       -0.849,    0.188,   -0.019,   -0.361,   -0.278,    0.220,   -2.159,
        0.051,   -0.865,    0.231,    0.374,    0.881,   -0.178,    0.365,
       -0.457,   -0.091,   -0.169,   -0.433,    0.054,   -0.090,   -0.045,
       -0.284,   -0.462,    0.276,   -0.618,   -0.204,   -0.225,    0.001,
        0.174,   -0.193,    0.609,    0.578,    0.263,   -0.154,    0.535,
        0.301,    0.703
    },
    {   0.753,   -0.873,    0.221,    0.159,   -0.004,    0.176,   -0.034,
       -0.369,   -0.762,    1.460,   -0.198,   -0.250,   -0.565,   -0.243,
       -0.182,   -0.700,    0.212,    0.546,   -0.177,   -0.191,   -0.048,
       -0.472,   -0.304,    0.207,    0.315,   -0.397,   -0.423,   -1.418,
        0.001,    0.785,   -1.200,    0.027,    0.093,    0.409,    0.215,
        0.160,    0.995,    0.069,    1.198,    0.253,    0.021,    0.009,
       -0.207,   -0.321,    0.139,   -0.141,   -0.270,   -0.768,   -0.474,
       -0.503,   -0.139,   -0.396,   -0.391,    0.658,   -0.367,    0.245,
        0.298,    0.697,    0.168,   -0.404,    0.475,   -0.360,    0.251,
        0.993,   -0.219,   -0.971,   -0.928,   -0.083,    0.107,   -0.173,
        0.284,    0.405,    1.545,    0.466,   -0.472,    0.193,   -0.223,
        0.448,    0.336,    0.148,    0.384,    1.415,   -0.057,   -0.398,
        0.429,   -0.139,    0.480,    0.052,   -0.090,    0.435,    0.427,
       -0.650,   -0.313,    0.477,   -0.566,    0.355,    0.885,    0.124,
       -0.410,   -0.007,   -0.212,    0.259,   -1.158,    0.289,    0.277,
        0.088,    0.013,    0.167,   -0.520,    0.115,   -0.293,    0.123,
       -0.434,    0.620,    0.175,   -0.021,    0.435,   -0.169,    0.216,
       -0.266,   -0.027
    },
    {   1.761,   -0.385,   -0.490,   -0.233,    0.039,    1.008,   -0.078,
       -0.401,    0.053,   -1.275,   -0.336,   -1.186,   -0.715,   -0.103,
        0.162,    0.116,    0.414,    0.047,    4.097,    0.275,   -1.163,
        0.860,   -1.052,   -0.070,   -0.492,    0.644,   -0.213,    0.501,
        0.202,    0.061,    0.412,    0.164,    0.312,    0.327,    0.101,
       -0.212,    0.082,    0.520,    0.315,   -0.402,    1.017,   -0.001,
       -0.642,   -0.091,    0.218,    0.354,   -0.306,   -0.414,    0.503,
       -0.051,    0.633,    0.561,   -0.581,   -0.368,   -0.121,    0.584,
        0.612,   -0.204,    0.665,    0.357,    0.504,    0.129,   -0.491,
       -1.242,    0.855,   -0.031,    0.207,   -0.112,    0.774,   -0.099,
       -0.047,   -0.149,   -1.002,    0.120,   -0.670,   -0.708,    0.164,
        1.436,   -0.543,   -0.672,   -0.363,   -4.251,   -0.475,   -0.160,
       -0.512,   -0.388,    0.297,    0.536,    0.880,    0.874,    4.166,
       -0.058,    1.509,   -0.448,   -0.497,   -0.012,   -0.615,   -0.017,
        0.862,   -1.445,   -0.119,    0.898,   -0.991,   -0.003,    0.210,
        0.035,    0.255,    0.172,   -0.771,    0.238,   -0.655,    0.102,
       -0.657,    0.242,    0.093,   -0.126,   -0.059,    0.303,    0.232,
        0.387,   -0.445
    },
    {   1.767,   -0.608,   -1.052,    0.474,    1.331,   -0.583,    0.551,
        1.007,   -0.206,   -1.874,   -0.317,   -1.654,   -1.028,   -0.846,
       -0.065,    0.283,    0.674,   -0.171,    5.506,   -0.832,   -0.473,
        0.213,    0.320,   -0.155,   -1.421,    0.164,   -0.098,   -2.978,
        0.223,   -0.930,    0.703,    0.857,   -0.222,    0.877,    1.061,
       -0.595,    1.905,   -0.493,   -1.289,   -0.998,    1.023,    0.146,
       -0.375,    0.116,    0.225,   -4.211,    0.546,    0.036,    0.327,
       -0.552,    0.116,   -0.353,   -0.280,   -0.732,    3.807,   -0.105,
        0.283,    0.587,   -0.557,   -0.503,    1.304,    0.619,    0.086,
        6.910,   -0.349,    1.605,   -0.811,    1.470,    1.106,    1.650,
        0.538,    0.473,    2.774,   -0.318,   -0.681,    0.211,   -1.015,
       -0.757,   -0.909,   -0.803,    0.433,   -2.221,   -0.086,    1.334,
       -1.085,   -0.729,   -0.506,   -0.916,   -0.000,   -0.376,    1.827,
        0.029,   -1.401,    1.343,    0.104,   -0.384,   -0.802,   -0.603,
        0.179,    2.204,    1.254,    0.471,    0.919,    0.068,    0.481,
        0.845,    0.451,    0.083,   -0.630,   -0.344,   -0.373,   -0.063,
       -0.405,    0.382,   -0.204,   -0.002,    0.078,   -0.236,    0.164,
        0.511,   -0.177
    },
    {  -5.506,   -0.459,   -0.710,    1.348,   -0.002,    0.408,    0.347,
       -0.483,    0.680,   -0.387,   -0.158,   -0.959,   -0.367,   -0.035,
        0.108,    0.256,    0.202,   -0.063,    4.565,   -0.118,   -0.214,
        0.582,    0.728,    0.681,    0.897,   -0.881,    0.018,    5.470,
       -0.197,   -0.959,   -0.184,   -0.135,    0.209,    0.082,    0.034,
       -0.007,    0.633,   -0.281,   -1.053,   -0.786,   -0.017,   -0.038,
       -0.374,   -0.060,    0.287,   -1.643,    0.323,   -0.715,    0.451,
       -0.489,   -0.307,    0.091,    1.157,   -0.121,   -5.696,    0.049,
       -0.210,   -0.005,   -0.235,   -0.246,   -0.001,    0.571,    0.189,
        9.529,   -0.600,   -1.043,    0.204,    0.031,   -0.052,   -0.716,
        0.813,   -0.362,    3.408,    0.861,   -0.187,    0.034,    0.285,
       -0.314,    0.822,    1.053,   -0.562,    5.738,    0.122,   -0.549,
       -0.116,   -0.726,    0.316,   -0.458,   -0.465,   -0.120,    1.895,
        0.142,   -1.194,    0.897,    0.160,    0.016,   -0.064,   -0.171,
       -0.209,   -9.822,    0.296,   -0.107,    1.158,   -0.874,   -0.518,
       -0.045,    0.145,   -0.133,   -1.431,   -0.363,   -0.708,   -0.417,
       -0.427,    0.535,   -0.309,   -0.635,    1.181,   -0.833,   -0.100,
        0.519,   -0.093
    },
    {  -2.459,   -0.987,   -0.283,    0.247,    0.289,    0.154,    1.258,
       -0.356,   -0.867,   -1.417,   -0.440,   -1.393,   -0.784,   -0.096,
       -0.030,   -0.220,    0.372,    0.275,    3.468,    1.446,   -0.775,
        0.602,   -0.489,   -0.322,   -1.006,    0.209,    0.294,    3.904,
       -0.258,    0.680,   -0.509,    0.363,    0.258,   -1.014,   -0.322,
        0.924,  -11.148,   -0.161,    0.369,    0.356,    0.160,   -0.341,
        0.604,   -0.463,   -0.203,   -0.857,   -1.449,   -0.668,   -1.049,
       -0.295,   -0.155,   -0.392,    0.103,    0.824,   -0.186,   -0.227,
       -0.115,    0.739,   -0.295,   -0.419,    1.257,    1.080,   -0.298,
        2.123,   -0.795,    0.169,    0.056,    0.107,    0.775,   -0.426,
        0.000,   -0.027,    4.386,    0.141,   -0.419,    0.231,   -0.261,
       -0.950,    1.305,    0.583,   -0.561,   11.816,   -0.154,   -0.668,
       -0.130,   -1.022,    0.603,    0.620,    0.482,   -0.037,    2.163,
        0.308,   -1.757,    1.637,    0.115,   -0.214,   -0.313,   -0.226,
       -0.244,   -7.477,    0.128,    0.721,   -0.284,   -0.306,   -0.878,
       -0.186,    0.219,   -0.832,   -2.030,   -0.011,   -0.578,    0.103,
        0.470,   -0.524,    0.403,   -0.362,   -0.074,   -0.547,    0.667,
        0.454,   -0.410
    },
    {   4.056,    0.421,   -1.066,   -0.339,   -0.539,    0.485,   -0.093,
       -0.357,    0.749,   -1.387,   -0.308,   -1.724,   -0.742,   -0.239,
        0.151,    0.398,    0.504,   -0.028,   -0.639,    0.306,   -1.498,
       -0.219,   -0.825,    0.610,   -0.822,   -0.698,    0.057,    1.500,
       -0.008,   -1.657,    1.191,    0.177,   -0.135,   -0.496,   -0.552,
        0.029,    0.025,    1.142,   -0.455,    0.567,    0.070,    1.530,
        0.177,   -0.620,   -0.948,   -0.733,    0.723,   -0.740,   -0.001,
       -0.912,   -0.169,   -0.257,   -0.024,   -0.001,   -0.851,   -0.175,
       -0.792,    0.731,   -0.134,   -0.454,   -0.014,    0.308,   -0.200,
       -1.617,    0.183,   -0.534,    0.088,   -1.139,   -0.979,   -0.576,
       -0.917,    0.800,    1.347,    0.457,   -0.479,    0.266,    1.043,
       -0.002,    1.104,   -0.151,   -0.079,    3.112,   -0.545,   -0.401,
       -0.864,   -0.049,   -0.337,    0.131,    0.899,    0.592,    1.324,
       -0.046,   -1.343,   -1.144,   -0.018,    0.085,   -0.685,    0.213,
        0.342,   -3.624,    0.018,   -0.216,   -0.797,    0.314,    0.388,
        0.506,   -0.006,   -0.436,   -0.754,    0.122,   -0.479,    0.220,
        0.430,   -0.087,   -0.212,   -0.336,    0.193,   -0.051,   -0.126,
        0.305,   -0.158
    },
    {  -4.276,   -0.226,   -0.145,   -0.677,   -0.030,   -0.072,    0.127,
        0.040,   -0.120,    1.660,   -0.167,    1.282,    1.571,    0.278,
        0.630,   -0.442,   -0.414,   -0.892,   -2.334,    0.119,   -1.347,
        0.567,    0.565,   -0.020,    0.283,    0.250,   -0.370,    1.681,
        0.464,    1.307,    0.846,    1.088,   -0.182,   -0.246,   -0.276,
        0.397,   -1.996,   -0.169,   -1.432,    0.884,   -0.534,   -0.552,
        0.066,    0.324,    0.278,   -1.085,   -0.401,   -1.221,    1.081,
        1.933,   -0.531,   -1.066,   -0.659,    0.877,   -0.025,   -0.296,
        0.119,    1.775,   -0.011,   -0.362,   -1.405,    1.156,    0.295,
       -1.375,   -0.876,   -0.952,   -0.143,   -0.157,   -1.097,    0.006,
       -0.163,   -0.088,    1.874,   -0.054,   -1.283,   -0.375,    0.394,
        0.275,   -0.177,   -0.086,   -0.552,   -5.701,   -0.593,    1.629,
       -1.294,   -0.563,    1.234,   -0.233,    0.893,   -0.144,   -0.732,
       -0.050,   -1.101,    0.994,   -1.596,    0.050,   -1.173,   -0.800,
        1.303,    0.662,    0.492,    0.210,   -0.473,    1.600,    0.034,
        1.334,   -0.037,    0.231,   -0.122,    0.403,    0.076,   -0.265,
        0.289,   -0.454,    0.290,   -0.146,    0.087,    0.294,    0.185,
        0.349,   -0.138
    },
    {  -1.460,   -0.151,    0.042,    0.172,   -1.898,   -0.711,   -2.074,
       -1.421,   -0.388,   -3.264,   -0.162,   -0.340,   -0.587,    1.445,
        0.077,   -0.372,   -0.999,   -0.175,    5.344,   -0.135,    1.283,
       -0.508,   -0.767,    0.610,   -0.328,   -0.737,    0.170,    3.076,
        0.401,    2.184,    2.172,   -0.371,    0.172,   -0.827,   -0.797,
       -1.077,   -1.370,   -0.063,   -1.059,    0.690,   -0.118,    0.058,
        0.128,    0.108,   -0.166,   -0.240,   -0.382,   -0.492,    0.746,
        1.095,   -0.159,   -0.453,   -0.535,    0.156,   -3.370,    0.052,
       -0.420,    0.591,   -1.084,   -0.016,   -0.121,   -0.404,    0.468,
        0.608,   -0.106,   -1.799,   -0.321,   -0.054,   -0.284,   -0.837,
       -0.492,    0.583,    1.486,   -0.453,   -1.149,   -0.486,    0.884,
        0.941,    0.241,    0.209,   -0.097,   -0.539,   -0.281,   -1.404,
       -0.775,   -0.576,   -1.483,   -0.053,   -0.950,    0.111,   -0.396,
       -0.105,   -0.534,    0.983,   -0.999,    0.346,   -0.793,   -0.562,
        1.127,   -8.604,    0.178,    0.743,    0.830,    1.444,   -0.413,
       -1.219,   -1.714,    0.182,   -0.635,    0.077,    0.343,    0.140,
        0.322,   -0.630,    0.165,   -0.091,    0.173,    0.163,    0.041,
        0.217,   -0.112
    },
    {   5.227,   -0.447,    0.784,   -0.275,   -0.292,   -0.359,    0.704,
       -0.150,    0.223,  -10.869,    0.437,   -0.517,    0.914,   -0.057,
       -1.109,    1.218,    0.067,   -0.833,    1.458,    1.380,    0.665,
        1.609,    0.127,    1.037,    0.073,    0.278,   -1.323,    1.475,
        0.400,    1.409,    0.764,   -0.240,    0.195,   -0.133,   -0.304,
       -0.547,   -1.779,   -0.172,   -1.409,    1.214,   -0.231,   -0.347,
        0.080,    0.294,   -0.066,   -1.619,   -0.340,   -1.623,    1.394,
        2.202,   -0.469,   -0.389,   -0.157,    0.007,   -7.236,   -0.987,
        1.151,   -1.869,    0.026,    0.612,   -0.345,   -0.080,    0.548,
       -5.511,    0.478,    1.297,   -0.138,   -0.092,    1.657,    0.130,
        0.583,    0.505,    8.261,   -0.165,   -0.380,    0.598,   -0.115,
       -0.220,   -1.301,   -0.476,    0.541,   -3.953,    0.002,    0.984,
        0.986,    1.106,   -0.427,   -0.406,   -0.109,    0.648,   -0.609,
       -0.357,   -0.967,    0.435,   -0.770,   -0.195,   -0.776,   -0.568,
        0.765,    1.758,    0.770,   -2.305,    0.992,    0.857,   -0.270,
       -1.463,   -0.847,    0.177,   -0.995,    1.017,    0.032,   -0.148,
        0.576,   -0.697,    0.366,    0.669,    0.075,    0.215,   -0.099,
        0.505,    0.202
    },
    {   6.311,   -0.001,    0.791,    0.467,    0.251,   -0.558,    0.054,
        0.566,   -0.623,   -9.178,    0.084,   -0.597,    0.230,   -0.715,
        0.098,   -0.554,   -0.323,    0.325,   -1.794,   -0.170,    1.283,
       -1.168,   -0.153,   -0.136,    0.325,    0.263,    0.325,    1.095,
       -0.110,    1.526,    0.702,   -0.337,    0.238,   -0.014,   -0.333,
       -0.512,   -0.245,   -0.081,   -0.839,   -0.082,   -0.352,    0.108,
        0.551,    0.599,   -0.287,   10.503,   -0.145,   -0.113,    0.119,
       -0.439,    0.308,    0.319,    0.095,   -0.399,   -8.021,    0.177,
        0.545,   -0.403,   -0.281,    0.488,   -0.804,    0.167,    0.417,
       -5.617,   -0.601,   -1.079,   -0.710,    0.243,    0.231,   -0.268,
        0.439,   -0.010,    3.264,    0.970,   -0.158,   -0.288,    0.053,
       -0.204,    0.939,    0.647,   -0.525,   -4.878,   -0.167,    0.614,
        0.212,   -0.094,   -1.140,   -0.230,   -0.408,   -0.108,   -0.737,
        0.214,    1.088,    0.816,    0.254,    0.108,    0.152,    0.041,
       -0.467,   -0.389,    0.162,   -0.525,    0.343,   -0.724,   -0.026,
        0.313,    0.371,    0.293,   -0.668,   -0.057,   -0.150,   -0.474,
        0.243,   -0.502,    0.918,   -0.363,    0.786,   -0.641,   -0.121,
       -0.453,    0.005
    },
    {   1.402,    0.919,   -0.855,   -0.126,    0.831,    0.339,    1.011,
        0.109,    0.454,    3.479,   -0.868,    0.446,    0.068,   -0.515,
       -0.217,   -0.399,    0.110,    1.121,   -1.954,   -0.131,    1.482,
       -1.394,   -0.101,    0.325,    0.261,    0.216,   -0.063,    1.295,
       -0.206,    1.029,    0.035,    0.178,    0.246,   -0.246,   -0.665,
        0.275,   -4.496,    0.280,   -0.253,   -0.330,   -0.996,   -0.529,
        0.043,    0.309,   -0.065,    2.577,   -0.145,    0.101,   -0.026,
        0.665,   -0.859,   -0.126,   -0.760,    0.574,   -3.030,   -1.550,
        1.070,   -0.365,   -0.667,    0.569,   -0.724,   -0.886,    0.383,
       -6.747,   -1.127,   -0.168,   -0.003,    0.133,    0.254,   -0.543,
       -0.067,    0.419,    5.643,   -0.218,    0.330,   -0.327,   -0.269,
       -1.237,    0.016,    0.071,   -1.354,   -2.561,    0.171,    0.059,
       -0.387,   -0.426,   -0.287,    0.302,    0.664,    0.210,    0.028,
       -1.775,   -0.597,    0.743,   -0.566,    0.242,    0.933,    0.334,
       -0.362,   -2.195,    0.386,    1.774,    1.054,   -0.556,   -0.140,
        0.559,    0.234,   -0.372,   -0.529,   -0.132,    0.198,   -0.425,
        0.551,    0.187,   -0.161,    0.129,    0.195,    0.143,   -0.128,
       -0.204,   -0.321
    },
    {  -0.620,   -0.118,   -0.284,    0.898,   -0.477,    0.000,    0.021,
       -0.134,    0.480,   -0.172,    1.130,    0.217,   -0.370,    0.725,
        0.233,   -0.853,    0.563,   -0.784,   -1.614,    0.213,    1.535,
        1.053,   -0.205,   -0.202,    0.207,   -0.120,   -0.013,   -3.114,
       -0.235,   -0.171,    0.605,    1.105,   -0.033,   -0.294,    0.370,
        0.347,   -0.209,    0.302,   -0.733,    0.523,    1.091,    0.088,
       -0.305,    0.711,   -0.509,    0.060,   -0.050,   -0.083,    0.485,
       -0.052,   -0.129,   -0.262,   -0.300,    0.178,    0.799,   -0.560,
        0.945,    0.274,   -0.126,    0.358,    0.144,   -0.011,    0.125,
        0.758,   -1.431,   -0.890,   -0.231,    0.143,   -0.350,   -0.109,
        0.488,   -0.031,   -0.554,    0.160,    0.092,    0.389,    0.184,
       -0.287,   -0.274,    0.411,    0.966,   -2.177,   -0.112,   -0.091,
        0.353,   -0.860,   -0.273,   -0.313,   -0.539,    0.148,   -0.946,
       -0.016,   -0.711,    0.577,   -0.103,   -0.106,    0.103,    0.267,
       -0.099,    3.568,   -0.663,    0.241,    0.513,   -1.041,    0.015,
       -0.225,    0.732,    0.357,   -0.364,    0.130,    0.101,   -0.524,
        0.059,    0.068,    0.871,    0.118,   -0.082,   -0.009,    0.275,
       -0.867,   -0.107
    },
    {   1.084,    0.730,    0.418,    0.211,    1.221,    0.796,    1.426,
        0.359,   -0.711,    2.582,    0.493,    0.825,   -0.122,    0.786,
       -0.200,   -0.682,   -0.451,    0.195,    0.546,   -0.893,    0.052,
        0.063,    0.342,    0.171,   -0.710,    0.307,   -0.866,    1.461,
       -0.027,    0.059,   -0.775,    0.385,    0.351,    0.236,    0.106,
        0.045,   -1.099,    0.532,    0.599,   -0.092,   -0.093,    0.030,
        0.757,    0.600,   -0.807,   -1.841,   -0.371,   -1.617,   -0.984,
       -0.124,   -0.025,   -0.082,    0.226,    0.312,    0.595,    0.833,
       -0.066,    0.688,    0.224,   -0.036,    0.845,   -0.210,    0.924,
       -0.025,   -0.217,   -0.121,    0.239,   -0.248,   -0.133,    0.351,
       -0.132,    0.284,    2.833,    0.367,    0.490,   -0.549,    0.653,
       -0.207,   -0.310,    0.711,   -0.409,    0.331,    1.552,    0.436,
        1.044,   -0.386,    0.368,    0.427,    0.279,   -0.748,    0.144,
       -0.056,   -0.149,    0.524,   -0.136,   -0.319,    0.542,    0.455,
       -0.074,    1.430,    0.041,   -1.231,    1.086,    0.172,   -0.122,
       -0.267,   -0.207,   -0.011,   -0.387,   -0.196,    0.179,   -0.026,
        0.178,    0.152,   -0.435,    0.128,    0.105,   -0.252,   -0.152,
       -0.549,    0.506
    },
    {   2.611,   -0.395,    0.423,   -0.393,   -0.057,    0.227,   -0.537,
        0.066,    0.151,   -5.490,    0.179,    0.678,    0.368,   -0.042,
       -0.909,    0.541,   -1.067,    0.620,   -2.897,    1.692,   -0.545,
        0.205,    1.141,    1.188,    0.646,   -0.447,    0.086,    4.191,
        0.750,    0.152,   -0.613,   -0.659,    0.110,   -0.588,    0.696,
       -0.509,    0.342,   -0.137,    0.382,   -1.013,    0.184,    0.346,
        0.035,   -0.587,   -0.271,   -1.366,   -0.417,   -1.604,   -0.606,
       -0.002,    0.104,    0.541,    0.577,   -0.471,    0.499,    0.359,
       -0.234,   -0.221,   -0.197,   -0.064,    0.372,    0.706,    0.081,
        2.862,    0.033,    0.379,   -0.023,   -0.027,   -0.134,   -0.480,
        0.546,   -1.175,    2.551,   -0.109,    0.255,   -0.266,   -0.175,
       -0.045,    0.763,    0.331,   -0.131,   -0.853,    0.025,    1.273,
        0.887,    0.063,    0.154,    1.052,    0.048,   -0.587,    2.548,
        0.312,    0.859,   -0.501,   -0.377,   -0.330,    0.069,   -0.401,
        0.288,    1.543,   -0.100,   -1.094,    0.674,    0.010,   -0.189,
       -0.343,   -0.262,   -0.151,   -0.428,    0.622,    0.098,    0.076,
       -0.340,    0.086,   -0.415,   -0.228,   -0.179,   -0.146,   -0.270,
        0.174,    0.367
    },
    {  -1.613,   -0.074,   -0.180,    0.117,   -0.137,   -0.092,   -0.219,
       -0.236,    0.051,   -0.617,    0.313,    0.370,   -0.883,    0.957,
       -0.454,   -0.383,    0.109,    0.634,   -0.125,   -0.034,   -0.376,
        0.925,    1.041,    0.782,    0.570,   -1.315,    0.096,   -0.605,
       -0.680,    0.027,    1.039,    0.696,   -0.844,    0.381,    0.599,
        0.676,    0.426,    0.041,    0.742,    0.303,    0.540,   -0.678,
        0.344,    0.873,   -0.332,   -0.907,    0.013,   -1.053,   -0.934,
        0.410,   -0.080,    0.550,    0.743,    0.469,    2.713,    0.500,
        0.104,    0.213,   -0.044,   -0.602,   -0.145,   -0.679,   -0.223,
       -0.245,   -0.375,   -0.827,    0.156,   -0.091,    0.554,   -0.027,
       -0.268,    0.191,    1.797,   -0.373,   -1.877,   -0.826,   -0.356,
        0.290,   -0.001,    0.072,   -0.492,   -0.207,   -0.375,   -0.597,
        0.921,   -1.184,    0.150,   -1.150,   -0.837,    1.655,   -1.508,
       -0.003,   -1.104,    0.793,   -0.478,   -0.366,    0.271,    0.496,
       -0.271,    1.974,   -0.105,   -1.521,    1.210,    0.154,    0.426,
       -0.450,   -0.620,   -0.009,   -0.710,    0.178,    0.348,   -0.047,
        0.034,   -0.092,   -0.424,    0.313,   -0.057,    0.328,    0.166,
       -0.355,    0.324
    },
    {   1.320,   -0.437,    0.957,    0.219,   -0.076,    0.586,    0.394,
       -0.617,    0.109,    0.839,    0.127,   -0.243,   -0.099,   -0.159,
       -0.164,    0.167,    0.980,    0.906,   -0.993,   -0.161,    0.043,
        0.665,   -0.163,    0.032,    0.601,    0.476,   -0.317,   -0.234,
       -0.346,   -0.267,    0.448,    0.246,    0.137,   -0.143,   -0.294,
        0.279,    0.812,   -0.245,    1.104,    0.464,    0.622,    0.026,
       -0.566,    0.494,    0.141,   -1.135,   -0.133,   -1.145,   -0.842,
       -0.009,   -0.001,    0.131,    0.476,    0.229,   -0.519,   -0.346,
        0.048,    0.328,   -0.216,   -0.605,    0.087,    0.485,    0.929,
        0.367,    0.454,    0.531,   -0.553,   -0.873,    0.344,    0.427,
       -0.005,    0.027,    2.058,   -0.011,   -1.967,   -0.192,    0.176,
        0.199,   -0.187,   -0.109,   -0.231,    0.014,   -0.149,   -0.404,
        0.403,   -0.443,   -0.346,   -0.421,   -0.052,    0.450,   -0.674,
       -0.108,   -0.480,    0.525,   -0.009,   -0.397,    0.097,    0.467,
       -0.072,   -0.795,    0.416,    0.591,    0.387,   -0.367,   -0.236,
       -0.633,    0.144,    0.353,   -0.565,   -0.019,   -0.105,   -0.055,
       -0.016,    0.065,   -0.300,    0.104,   -0.254,    0.368,    0.365,
       -0.764,    0.092
    },
    {   0.740,   -0.486,   -0.322,    0.285,   -0.221,   -0.364,    0.676,
        0.367,   -0.185,   -0.475,    0.269,   -0.133,    0.659,    0.608,
       -0.164,   -0.533,   -0.270,    0.607,   -0.862,   -0.176,   -0.141,
       -0.310,    0.272,   -0.413,   -0.568,    0.245,   -0.133,   -0.479,
       -0.909,   -0.472,   -0.301,   -0.703,   -0.654,   -0.217,    0.597,
        0.256,   -1.278,    0.297,    1.183,    0.782,    0.025,    0.054,
        0.224,   -0.188,    0.092,   -1.209,   -0.313,   -1.689,   -0.345,
       -0.214,    0.394,    0.643,    0.528,   -0.459,   -1.373,    0.042,
        0.111,    0.168,    0.188,    0.518,   -0.048,   -0.032,    0.527,
       -0.632,    0.049,   -0.621,    0.405,   -0.183,   -0.304,    0.174,
        0.802,    0.159,   -0.728,    0.538,   -1.061,   -0.052,   -0.347,
       -0.010,    0.378,   -0.694,    0.535,   -0.433,    0.378,   -0.576,
       -0.526,    0.612,   -0.552,    0.358,    0.253,    0.039,   -0.035,
        0.944,   -0.639,    0.361,    0.313,   -0.691,    0.392,   -0.165,
        0.192,    1.489,    0.107,   -1.023,    0.882,    0.248,   -0.046,
       -0.171,   -0.205,   -0.094,   -0.413,   -0.189,    0.170,    0.001,
        0.222,   -0.332,   -0.338,    0.114,   -0.434,    0.192,   -0.159,
        0.013,    0.402
    },
    {   0.783,   -0.218,    0.503,    0.055,   -0.307,   -0.624,    0.009,
       -0.327,   -0.147,   -0.893,   -0.208,    0.144,    0.098,   -0.271,
       -0.043,   -0.284,   -0.557,    0.205,   -1.361,    0.091,    0.819,
        0.440,   -0.346,   -0.166,    0.162,   -0.144,   -0.014,    0.459,
       -0.195,    0.287,   -0.621,   -0.097,   -0.008,   -0.207,    0.168,
       -0.101,    0.128,    0.761,   -0.023,    0.414,    0.444,    0.298,
       -0.499,    0.345,   -0.484,    0.619,    0.039,    0.053,   -0.140,
       -0.064,   -0.613,   -0.440,   -0.145,   -0.422,   -0.729,   -0.083,
        0.720,    0.382,    0.299,    0.883,    0.194,   -0.013,    0.083,
       -0.918,    0.047,   -0.776,    0.153,   -0.050,    0.085,    0.052,
        0.180,   -0.134,    0.407,    0.119,    0.013,    0.337,    0.158,
        0.141,    0.329,   -0.311,    0.144,    0.601,   -0.098,   -0.347,
        0.356,   -0.072,    0.443,    0.128,    0.143,   -0.475,    0.409,
       -0.319,   -0.619,    0.000,   -0.318,   -0.398,   -0.416,    0.024,
        0.261,   -1.115,   -0.195,   -0.038,   -0.298,   -0.185,    0.330,
        0.225,   -0.036,    0.134,   -0.610,   -0.422,    0.782,   -0.590,
       -0.146,    0.094,    0.296,   -0.015,   -0.891,    0.202,    0.107,
        0.158,   -0.185
    },
    {  -1.159,    0.693,   -0.478,    0.387,   -0.098,    0.059,   -0.268,
        0.863,    0.244,   -0.660,   -0.309,   -0.694,    0.445,    0.476,
       -0.657,   -0.296,   -0.396,    0.329,    0.837,    0.210,    0.856,
        0.721,   -0.209,    0.047,   -0.111,   -0.142,   -0.473,   -0.837,
        0.326,    0.696,    0.619,    0.329,   -0.214,    0.392,    0.208,
        0.060,    0.143,    0.109,   -0.163,    0.523,    0.747,    0.323,
       -0.043,   -0.482,    0.162,    0.360,    0.067,    0.047,    0.104,
       -0.914,   -1.100,    0.169,   -0.470,    0.053,    0.179,   -0.209,
        0.459,   -0.430,    0.161,   -0.077,    0.428,    0.134,   -0.357,
       -1.269,    0.070,   -0.993,    0.785,   -0.222,   -0.221,    0.141,
        0.094,   -0.194,    0.724,   -0.169,   -0.943,   -0.694,    0.268,
       -0.150,   -0.217,    0.187,   -0.372,    0.451,   -0.126,    0.092,
       -0.748,    0.204,    0.530,    0.418,    0.893,   -0.829,   -0.484,
       -0.113,    0.094,    0.834,   -0.269,   -0.328,    0.527,    0.068,
       -0.111,   -0.191,   -0.116,    0.045,    0.169,    0.190,    0.344,
       -0.324,    0.424,    0.281,   -0.689,   -0.125,    0.133,    0.408,
       -0.202,   -0.062,   -0.254,   -0.545,   -0.825,    0.392,   -0.277,
        0.207,   -0.137
    },
    {   1.098,   -0.013,    0.878,   -0.896,    0.205,   -0.047,   -0.153,
       -0.203,    0.075,   -0.600,    0.101,   -0.553,    0.155,    0.829,
        0.289,    0.220,    1.049,   -0.737,   -3.358,   -0.527,   -0.046,
        0.514,   -0.206,   -0.039,   -0.083,    0.592,   -0.081,    2.159,
       -0.022,   -1.758,   -0.599,    0.348,    0.041,   -0.074,    0.114,
       -1.232,   -0.909,    0.051,   -0.574,    0.608,    0.911,   -0.198,
       -0.249,   -0.129,    0.302,   -3.645,   -0.620,    0.230,    0.276,
       -0.025,    0.498,   -0.823,   -0.463,    0.247,   -4.447,    0.233,
        0.033,    0.398,   -0.051,   -0.846,    0.409,    0.236,   -0.330,
        5.439,   -1.204,    0.420,    0.386,   -0.648,    0.321,   -0.401,
        0.469,    0.277,    1.868,    0.376,    1.511,    0.738,   -0.009,
        0.021,   -0.314,   -0.678,   -0.416,   -3.142,    0.048,    0.255,
        0.238,    0.235,    0.006,    0.169,    0.676,   -0.607,    0.264,
       -1.149,    0.343,    0.519,    0.254,    0.649,   -0.760,    0.546,
        0.699,   -0.558,   -0.270,   -0.731,    0.675,   -0.947,    0.101,
       -0.751,   -0.758,    0.991,   -0.218,    0.638,    0.124,   -0.274,
        0.290,    0.233,    0.470,   -0.159,   -0.300,    0.424,   -0.061,
       -0.032,    0.580
    },
    {   1.192,   -0.085,    0.665,   -0.950,    0.185,    0.147,   -0.064,
       -0.419,    0.034,   -3.341,   -0.498,    0.139,   -0.771,   -0.213,
       -0.448,    0.071,   -0.004,    0.809,    1.355,    1.342,   -0.742,
        0.114,    0.628,   -0.834,   -0.665,    0.206,   -1.873,    0.802,
       -0.532,    0.721,    0.582,   -0.790,   -0.835,   -0.282,    0.366,
       -0.026,    0.639,   -0.314,   -0.584,   -0.017,   -0.542,    0.331,
       -0.518,    1.274,    0.257,    0.625,    0.346,    0.592,   -0.861,
        0.938,   -0.058,    0.807,    0.568,   -1.264,    1.372,    1.020,
        0.809,   -0.717,   -1.876,    0.528,    0.693,   -0.092,   -0.167,
       -6.428,   -1.147,    0.552,    0.682,    0.195,   -0.382,    0.500,
       -0.895,   -0.450,    1.702,    0.368,    1.443,    1.284,   -0.189,
        0.075,   -0.253,   -0.476,   -0.199,   -0.899,   -1.244,   -0.114,
       -1.789,   -0.236,   -0.365,    0.169,    0.645,    0.389,    3.743,
       -0.333,    0.034,   -0.676,   -0.238,    0.266,    0.618,   -0.732,
       -0.106,    2.395,   -0.020,   -1.741,    1.184,    0.199,    0.342,
       -0.477,   -0.194,   -0.298,   -1.066,    0.545,    0.125,    0.258,
       -0.245,   -0.082,   -0.450,   -0.150,   -0.785,    0.541,    0.262,
       -0.160,    0.276
    },
    {   2.584,    0.032,    1.707,   -1.621,    0.390,    0.471,   -0.023,
       -0.597,    0.338,   -2.078,    0.923,   -1.609,   -0.494,    0.489,
        0.029,   -0.662,   -0.272,    0.249,   -4.262,   -1.313,    1.396,
       -0.096,   -0.413,    0.383,   -1.231,   -0.772,    0.431,   -2.268,
       -0.100,   -2.135,   -0.976,    0.354,   -0.088,    0.090,    0.352,
        0.722,    5.836,   -1.954,   -2.253,    0.841,    2.306,    0.283,
        0.249,    0.673,    0.063,    0.741,    0.286,    1.013,   -0.861,
        1.320,   -0.005,    1.238,    0.883,   -1.008,    1.498,    0.351,
        1.191,   -1.054,   -1.797,    0.460,    0.859,    0.656,   -0.485,
        1.800,   -0.331,   -0.827,   -1.848,   -0.819,   -0.022,   -0.726,
       -1.050,    0.579,   -1.283,    0.536,   -0.025,    0.258,   -0.053,
       -0.607,   -0.017,    0.629,   -0.594,    3.207,    0.350,   -0.459,
       -0.497,   -0.030,   -0.495,    0.463,    0.774,    0.720,   -9.081,
        0.208,    0.247,    0.895,   -0.108,   -1.020,   -0.700,    1.272,
       -0.574,    2.322,    0.326,   -1.714,   -0.748,    0.515,   -0.144,
       -0.612,   -0.068,   -1.411,   -0.632,    0.562,    0.137,    0.192,
       -0.431,    0.113,   -0.359,   -0.303,    0.052,    0.023,    0.089,
       -0.173,    0.189
    },
    {   1.332,    0.010,    0.944,   -0.846,    0.006,    0.103,   -0.016,
       -0.268,    0.035,   -6.765,   -0.632,    1.692,   -1.307,   -0.636,
       -0.799,   -0.465,    0.796,   -0.340,   -0.296,   -1.108,   -0.144,
       -1.200,   -0.414,   -0.011,    0.297,    0.543,    0.554,   -1.472,
       -0.161,   -1.510,   -0.853,    0.270,    0.042,    0.206,    0.573,
        0.613,   -0.965,    0.589,    1.007,   -0.182,    0.109,    0.767,
       -0.983,   -1.267,    0.282,   -2.056,    0.077,   -0.616,   -1.219,
       -1.242,   -0.521,   -0.427,   -1.797,   -1.514,    0.905,   -0.008,
        1.151,   -1.003,   -1.338,    0.202,    0.507,    0.301,   -0.355,
       -1.517,   -0.183,    0.684,   -0.711,    0.459,    0.552,   -0.985,
       -0.202,    0.571,   -0.187,   -0.482,   -0.695,    0.824,   -1.246,
       -0.185,   -1.050,   -0.684,    1.541,   -1.250,    0.107,    0.921,
        1.516,   -0.085,    0.892,    0.524,    0.896,    0.421,    3.763,
        0.424,    0.141,   -0.316,   -0.768,   -1.056,   -0.045,   -0.561,
       -0.561,    2.796,    0.336,   -2.017,    0.383,    0.472,    0.224,
        0.095,    0.721,   -1.642,   -0.426,    0.616,   -0.164,    0.051,
       -0.378,    0.083,   -0.033,   -0.414,    0.048,    0.358,   -0.152,
       -0.324,    0.206
    },
    {   2.266,    0.380,    1.600,   -1.486,    0.120,    0.401,   -0.105,
       -0.297,    0.242,   -0.241,   -0.361,   -1.203,    0.769,    0.291,
       -0.442,    0.474,   -0.252,    0.906,    1.032,   -0.650,   -1.152,
       -1.511,    0.723,   -0.532,   -0.595,    0.205,   -0.376,   -1.104,
        0.208,   -1.416,   -0.844,    0.171,   -0.074,   -0.031,    0.382,
       -0.075,    1.094,    0.351,    1.149,   -0.222,   -1.920,    0.754,
       -0.317,   -0.220,   -0.200,    2.993,   -0.360,   -1.499,   -1.862,
       -2.667,    0.482,   -0.192,    0.310,    0.479,    0.075,    1.027,
       -0.944,   -0.579,    1.530,    1.798,   -0.436,    0.408,    0.243,
        0.706,   -1.065,    1.349,   -0.393,   -1.686,   -0.462,    0.067,
        0.523,   -0.322,   -0.282,   -1.466,    0.929,    0.168,   -0.244,
        0.673,   -0.229,    0.587,    0.869,    0.205,    0.236,    1.177,
       -0.859,    1.827,    0.056,    1.434,    0.685,   -1.172,    1.000,
        0.705,   -0.021,   -0.970,   -1.635,    0.454,    0.811,    0.909,
        0.145,    0.376,   -0.232,    1.051,    0.337,   -1.015,    0.095,
       -1.235,   -0.686,   -0.579,   -0.538,    0.422,    0.088,    0.153,
       -0.420,   -0.143,    0.259,    0.146,   -0.152,   -0.122,   -0.298,
       -0.232,    0.161
    },
    {   0.900,   -0.135,    0.808,   -0.542,    0.210,    0.129,   -0.079,
       -0.210,    0.104,   -0.218,    0.793,   -0.622,    0.515,   -0.164,
       -0.634,    1.962,    1.051,    1.146,   -1.510,   -0.847,   -0.202,
       -0.793,    0.041,   -0.829,   -0.846,    0.162,    0.665,   -1.164,
       -0.219,   -1.162,   -0.810,    0.307,   -0.140,    0.218,    0.332,
        0.645,   -0.358,   -1.016,   -1.319,   -0.616,   -0.833,   -1.180,
       -0.539,   -1.004,    1.151,   -1.535,   -0.228,   -1.030,    0.493,
        1.288,   -0.134,   -0.644,   -0.546,    0.300,    2.342,   -0.279,
        0.709,    0.235,   -0.605,    0.275,   -0.949,   -0.612,   -0.317,
        3.362,    0.381,    0.316,    0.484,    0.940,    0.314,    0.515,
       -0.647,    1.141,   -3.872,   -0.568,    0.123,    0.008,    0.292,
        1.030,   -1.222,    0.315,   -0.414,    0.070,   -0.393,    0.925,
       -0.360,    0.572,   -0.948,    0.834,    1.150,   -1.199,    0.445,
        0.620,    0.928,   -0.913,   -0.386,   -0.202,    0.190,    0.099,
        0.238,   -1.621,   -0.023,    1.591,   -0.426,   -0.192,   -0.059,
        0.394,    0.235,    0.516,   -0.418,    0.389,   -0.038,    0.179,
       -0.496,    0.148,    0.229,   -0.112,    0.305,    0.242,   -0.174,
        0.106,   -0.451
    },
    {   0.391,    0.044,    0.553,    0.938,    0.892,   -1.957,    0.510,
        0.959,   -0.302,   -2.485,   -0.170,   -1.511,    1.043,   -0.405,
       -0.655,   -0.177,    0.426,   -0.019,   -1.796,    0.619,   -0.734,
        0.337,   -0.271,   -0.803,   -0.306,   -0.645,   -0.509,   -1.458,
       -0.243,   -2.209,   -0.743,   -0.337,    0.233,    0.618,    0.382,
       -0.276,    1.201,    1.153,    0.652,   -0.769,   -1.718,    0.527,
        0.064,    0.143,    0.262,   -2.351,    0.182,    0.715,    0.425,
        0.263,   -0.074,    0.804,   -0.327,   -1.153,    2.640,    1.382,
       -0.267,   -0.413,   -0.213,    1.142,   -1.476,   -0.491,   -0.798,
       -0.562,   -0.468,   -1.226,    0.408,   -1.327,   -0.029,   -0.987,
       -1.000,    0.774,   -1.200,    0.017,    1.690,    0.060,   -0.758,
       -0.802,    0.980,    0.002,    0.009,   -0.585,   -0.527,    0.248,
       -0.633,   -1.190,    1.352,    0.160,    0.308,   -0.079,   -0.778,
       -0.765,   -0.339,    0.783,   -0.744,   -0.113,    1.247,    0.670,
        1.864,    1.880,    0.084,   -0.815,   -0.440,   -0.405,   -0.280,
        0.436,   -1.151,   -0.194,   -0.530,    0.004,   -0.501,    0.057,
       -0.319,   -0.137,   -0.125,    0.072,    0.347,   -0.176,   -0.079,
       -0.030,    0.014
    },
    {   1.209,   -0.061,   -1.234,    0.835,    0.086,   -0.087,   -0.220,
       -0.200,   -0.359,   -2.119,   -0.196,   -1.391,    1.439,    0.022,
       -0.253,   -0.078,    0.453,    0.002,   -0.183,   -0.521,    0.024,
       -0.519,   -0.370,   -0.336,   -0.084,    0.752,    0.606,    0.209,
       -0.414,    0.253,   -0.063,   -0.577,   -1.527,   -0.260,   -0.270,
        0.608,    1.281,    1.428,    0.150,    0.549,    0.480,    0.304,
        0.176,    0.216,   -0.963,   -0.941,    0.697,    0.780,   -0.184,
       -0.274,    0.310,   -0.465,   -0.083,   -0.328,   -0.354,    0.042,
       -0.633,    0.061,   -0.748,   -0.147,    0.092,    0.854,   -1.123,
       -0.424,    0.137,   -0.958,    0.503,   -0.689,    0.366,   -0.084,
       -0.804,    0.516,    0.744,    0.556,    0.840,   -0.552,   -1.116,
        0.231,    0.529,    0.229,   -0.521,   -1.909,   -0.350,   -1.623,
       -1.134,    0.104,    0.040,    0.450,    0.594,    0.460,   -4.412,
        0.241,    0.190,    0.352,   -0.704,   -1.137,    0.002,   -0.703,
       -0.486,   -0.325,    0.385,    0.735,    0.382,   -0.036,    0.494,
        0.544,    0.545,   -0.504,   -0.439,    0.160,   -0.392,    0.137,
       -0.056,   -0.078,    0.172,   -0.025,    0.246,   -0.234,   -0.512,
        0.018,   -0.232
    },
    {   1.680,   -0.251,   -0.278,   -0.527,    0.171,   -0.130,   -0.566,
       -0.386,   -1.121,   -2.438,   -0.283,   -1.380,    1.771,   -0.427,
       -0.371,   -0.377,    0.413,    0.157,    0.671,    0.481,    0.760,
       -1.605,    1.348,   -0.459,    1.350,    0.602,   -1.382,   -2.826,
        1.436,    0.065,   -1.328,   -0.033,   -0.864,    0.242,   -1.305,
        0.383,    3.036,    0.072,    0.778,    0.249,   -0.097,   -0.232,
       -0.496,    0.535,    2.167,   -3.861,    2.410,    0.054,    1.848,
       -1.091,    0.184,   -0.162,   -0.159,   -0.300,   -1.279,    0.736,
        2.013,    1.291,   -0.133,    0.208,    0.995,    0.011,   -0.485,
        1.470,    0.385,    0.113,    0.112,   -0.546,    0.019,   -0.123,
        0.103,    0.268,    4.265,    0.052,    0.630,    0.055,   -0.736,
        0.248,    1.317,    1.504,   -0.148,   -2.031,   -0.051,   -2.517,
       -1.402,    0.250,   -0.098,    0.347,    0.502,    0.598,   -1.307,
       -0.238,   -1.329,    1.231,    2.272,   -0.086,   -0.836,   -0.230,
        0.457,    2.760,    0.892,   -0.764,    0.158,    0.380,    0.811,
        1.434,    1.259,    0.252,   -0.250,    0.111,   -0.516,   -0.355,
        0.199,   -0.035,    0.081,   -0.217,    0.147,   -0.052,   -0.293,
        0.273,   -0.091
    },
    {   0.205,    1.158,   -0.449,   -1.908,   -0.021,   -0.598,    0.593,
       -0.285,    1.611,   -0.216,    0.067,    0.192,   -0.597,    0.338,
       -0.363,   -0.190,    1.160,    0.085,    1.139,    0.749,   -1.801,
       -0.575,   -0.128,   -0.072,    1.295,    1.075,   -0.169,    1.472,
       -0.090,    0.852,   -0.613,    0.164,    0.144,    0.009,   -0.364,
        0.109,   -0.037,   -0.415,   -0.692,   -0.443,    0.965,    1.174,
        0.483,    0.178,    0.582,    0.606,   -1.146,    1.493,   -0.225,
       -1.752,   -1.146,    1.449,    0.395,   -0.372,   -0.755,    0.208,
        1.093,    0.627,    0.157,    0.067,    0.184,   -0.079,   -0.522,
        1.553,   -0.022,   -1.463,    1.021,    0.266,   -0.090,   -0.014,
       -0.521,    0.100,    1.010,   -0.114,    1.103,    0.875,   -0.417,
       -0.130,    0.049,   -0.236,   -0.140,   -1.631,   -0.047,   -0.577,
        1.439,   -1.328,    0.586,   -0.325,    0.669,   -0.941,   -1.510,
        1.252,    0.278,   -1.576,   -0.838,    0.702,   -0.129,   -1.591,
        0.143,    0.610,   -0.445,   -1.595,    1.388,   -1.123,    0.663,
        0.335,   -0.129,   -0.970,   -0.837,   -0.172,    0.055,   -0.181,
        0.643,   -0.099,   -0.281,   -0.567,    0.369,    0.421,    0.028,
        0.108,   -0.094
    },
    {   0.936,    0.250,    1.256,   -0.490,    1.300,    0.178,    1.001,
        0.769,   -1.256,   -1.115,    0.178,   -1.372,    0.210,    0.283,
       -0.302,   -1.174,   -1.013,    1.190,    1.795,    0.228,   -1.340,
        0.008,    1.275,   -0.576,    0.863,   -1.772,    0.215,   -1.127,
        0.796,   -0.078,   -0.362,   -0.364,    0.056,    0.401,   -0.997,
        0.558,    1.001,    1.186,    0.318,   -0.289,   -0.347,   -1.059,
        0.252,   -1.491,    1.197,   -1.118,    0.119,   -1.260,   -0.552,
        0.167,   -0.023,   -0.104,   -0.009,    0.548,   -1.557,    0.138,
        1.273,   -1.236,    1.717,   -0.754,    0.416,    0.264,    0.958,
        1.701,    0.131,   -1.132,    1.084,   -0.135,    0.056,   -0.304,
       -0.326,    0.112,   -0.844,   -0.153,    1.758,   -0.477,   -0.895,
       -0.202,   -0.044,    0.360,   -0.289,   -0.818,    0.248,    1.164,
        0.187,    0.155,   -0.359,    0.480,    0.342,    0.293,    1.619,
        0.859,    1.272,   -0.306,    1.222,   -1.331,   -0.812,   -0.291,
        0.713,    1.094,    0.084,    0.749,   -0.566,    0.287,    0.452,
        0.203,   -0.108,    0.006,   -0.661,   -0.322,    0.220,    0.026,
        0.061,   -0.072,   -0.517,    0.283,    0.465,    0.093,   -0.340,
        0.141,    0.494
    },
    {   0.641,   -0.522,   -0.725,    0.346,   -0.935,   -0.220,    0.468,
        0.296,   -0.369,    1.519,   -0.271,   -1.842,   -1.036,   -0.073,
        0.198,   -0.255,    0.003,    0.154,    0.036,   -0.502,    0.089,
       -0.168,   -0.597,   -0.564,   -0.700,    0.017,   -0.352,   -0.224,
        0.111,    0.144,    0.019,   -0.072,   -0.880,    0.440,   -0.476,
       -0.128,   -0.088,    0.478,    0.993,    0.465,   -0.338,    0.183,
       -0.389,   -0.572,    0.633,   -0.939,   -0.776,   -1.065,    1.425,
       -1.395,   -0.097,   -0.673,   -0.380,    1.490,    0.391,   -0.331,
       -0.579,   -0.567,    0.242,   -0.524,    0.666,    1.034,   -0.472,
       -0.425,   -0.682,   -0.784,   -0.356,    0.229,    0.152,   -0.175,
        1.173,   -0.558,    0.990,    0.418,    0.908,   -0.790,   -1.081,
        0.236,    0.901,   -0.203,    0.370,    0.456,    0.129,    0.419,
        0.845,   -0.570,   -0.064,   -0.489,   -0.651,   -0.195,   -0.591,
       -0.728,    0.911,    0.469,    0.918,   -0.391,   -0.512,   -0.206,
       -0.479,    1.940,    0.014,    1.658,   -1.103,    0.222,    0.444,
        0.084,   -0.313,   -0.042,   -0.383,   -0.170,    0.409,   -0.004,
        0.035,   -0.100,    0.247,   -0.121,   -0.099,   -0.245,    0.294,
        0.034,    0.567
    },
    {   0.970,   -0.789,   -0.126,   -0.300,   -0.892,   -0.486,   -0.371,
       -0.645,    0.494,    1.585,   -0.106,   -0.885,   -0.485,    0.494,
        0.143,   -0.312,   -0.062,   -0.954,    1.139,    0.015,    0.918,
       -1.160,    1.017,    0.283,    0.364,    0.011,   -1.460,   -0.850,
        0.045,    0.948,    0.152,   -0.182,   -0.987,    0.285,    0.190,
       -0.621,    1.215,   -0.112,   -1.297,    0.954,    0.562,    0.618,
        0.139,   -0.829,   -0.930,   -0.287,    0.204,    0.488,   -0.259,
        0.852,   -0.202,   -0.955,   -0.485,    1.079,   -3.214,    0.081,
        0.775,   -0.389,   -1.539,    0.151,   -0.257,   -1.309,    0.769,
       -0.133,    0.778,    0.731,   -2.211,    0.343,   -0.524,    0.767,
       -0.679,   -0.161,    0.683,    0.300,    0.425,   -0.839,   -1.466,
        0.369,    0.441,    0.138,    0.339,    1.844,    0.021,    2.036,
        1.201,   -0.456,   -0.273,    0.187,   -0.370,   -1.164,   -1.683,
       -0.006,    0.439,    0.806,    2.516,   -0.631,    0.377,    0.843,
       -0.957,    1.756,    0.139,    1.207,   -1.328,    0.241,    0.187,
        0.135,   -0.347,    0.007,   -0.404,   -0.124,    0.498,   -0.342,
        0.064,    0.096,    0.287,    0.294,   -0.088,   -0.389,    0.244,
       -0.448,    0.549
    },
    {  -0.893,   -0.446,   -0.417,   -0.428,   -0.089,    0.066,   -0.220,
       -0.139,    0.519,    0.777,    0.504,    0.577,   -1.092,   -1.291,
        0.540,    0.515,   -0.167,    0.182,    0.866,   -0.067,   -0.059,
        0.573,   -0.094,   -0.321,    0.348,    0.974,   -0.221,   -0.346,
       -0.510,    0.080,   -0.474,   -0.450,    0.734,    0.042,   -0.012,
       -0.089,   -1.297,    0.034,    0.667,   -0.732,    0.042,   -0.015,
        0.372,    0.494,    0.129,    2.261,    0.061,    0.528,   -0.791,
        0.766,    0.139,    0.165,    0.143,   -0.663,   -1.434,   -0.354,
       -1.302,   -0.694,    0.031,    0.157,    0.200,    0.373,    0.460,
        1.360,   -0.250,   -1.277,   -0.873,   -0.102,    0.103,   -0.289,
       -0.112,   -0.017,   -0.694,    0.098,   -0.764,    0.405,   -0.681,
       -0.543,   -0.621,   -0.416,    0.093,   -0.619,   -0.055,   -0.464,
        0.337,    0.039,   -0.256,   -0.062,    0.143,   -0.045,    1.623,
        0.308,    0.034,    0.680,    0.460,   -0.191,   -0.182,    0.797,
        0.022,    0.245,    0.522,    0.415,    0.217,   -0.306,   -0.093,
        0.067,    0.557,    0.688,   -0.956,    0.516,   -0.313,   -0.165,
       -0.162,   -0.480,    0.146,   -0.444,    0.343,    0.261,   -0.975,
        0.216,    0.149
    },
    {  -2.026,    0.234,   -0.594,    0.203,    0.299,    0.327,    0.027,
       -0.146,    0.200,    2.242,   -0.180,   -0.285,    0.298,   -0.349,
       -0.284,    0.295,   -0.293,    0.415,   -2.399,    0.226,    0.491,
       -0.040,    0.249,    0.358,    0.180,    0.100,    0.876,    0.894,
       -0.263,    0.182,   -0.143,   -0.120,   -0.123,   -0.290,    0.149,
        0.219,   -1.163,    0.037,    0.765,   -0.494,   -0.020,    0.008,
        0.220,    0.178,    0.103,    0.823,   -0.148,    0.482,   -0.390,
        0.165,    0.296,   -0.204,   -0.713,    0.162,   -1.030,   -0.181,
       -0.984,   -0.770,    0.320,    0.087,    0.031,    0.222,    0.021,
       -0.082,   -0.183,   -0.040,    0.767,   -0.483,    0.197,    0.689,
        0.314,   -0.494,    1.135,    0.031,    0.013,    0.184,   -0.286,
       -0.021,   -0.100,   -0.224,   -0.131,   -0.860,   -0.100,    0.269,
        0.086,   -0.085,   -0.074,   -0.103,    0.732,    0.028,    1.458,
        0.524,   -0.259,    0.280,    0.051,    0.096,   -0.131,    0.283,
        0.091,   -1.127,   -0.059,    0.584,    0.533,    0.340,   -0.269,
        0.172,   -0.062,   -0.609,   -0.790,   -0.191,   -0.219,   -0.053,
       -0.190,   -0.855,    0.514,   -0.480,   -0.307,   -0.037,    0.163,
       -0.255,   -0.291
    },
    {   0.141,   -0.210,    0.323,    0.570,    0.173,   -0.340,    0.279,
       -0.146,    0.235,   -0.445,   -0.155,    0.115,    0.244,   -0.013,
       -0.656,   -0.036,   -0.016,   -0.444,    1.468,    0.246,   -0.156,
       -0.495,    0.132,   -0.619,   -0.539,   -0.373,    0.166,   -0.636,
        0.180,    0.649,    0.515,    0.543,   -0.197,    0.352,    0.240,
       -0.292,   -1.364,    0.038,    0.984,   -1.084,    0.113,    0.135,
       -0.013,    0.021,    0.171,    1.018,   -0.446,    0.145,    0.637,
        0.230,    0.340,   -1.164,   -0.321,   -0.789,   -1.062,   -0.163,
       -1.539,   -0.717,    0.251,   -0.097,    0.173,    0.379,   -0.077,
       -0.753,    0.453,    0.565,   -0.562,    0.595,    0.037,   -0.363,
        0.097,    0.289,    0.297,    0.459,    0.632,    0.516,    0.383,
        0.908,    0.383,   -0.718,   -0.348,   -0.780,   -0.087,   -1.032,
        0.419,    1.397,    0.225,   -0.454,    0.241,   -0.382,   -0.392,
        0.035,   -0.571,    0.361,   -0.117,   -0.384,    0.111,    0.878,
       -0.092,    1.625,   -0.569,   -0.343,   -0.174,   -0.230,    1.186,
       -0.454,   -0.165,   -0.306,   -0.756,    0.141,   -0.039,    0.190,
       -0.487,   -0.611,    0.042,   -0.501,    0.392,   -0.269,    0.237,
       -0.480,    0.060
    },
    {  -0.567,    0.163,   -0.095,    0.192,   -0.168,   -0.197,   -0.054,
       -0.023,    0.010,   -0.452,    0.158,   -0.058,    0.073,    0.153,
        0.138,   -0.180,   -0.464,    0.083,    0.216,    0.268,    0.157,
        0.455,   -0.565,    0.196,   -0.364,    0.060,   -0.459,    1.135,
       -0.906,    0.009,   -0.040,   -0.443,   -0.210,   -0.028,   -0.236,
        0.125,   -0.812,   -0.266,    0.779,   -0.819,   -0.098,   -0.014,
        0.078,   -0.020,    0.261,   -0.350,    0.200,   -0.086,    0.086,
       -0.688,   -0.258,    0.016,   -0.167,   -0.015,    0.488,   -0.097,
       -0.567,   -0.624,   -0.092,   -0.560,   -0.285,    0.182,    0.080,
       -0.548,   -0.776,    0.064,   -0.846,    0.037,   -0.076,    0.227,
       -0.379,    0.385,    0.698,    0.420,   -0.047,    0.600,    0.058,
        0.230,    0.062,   -0.148,   -0.334,    0.194,   -0.140,    0.484,
        0.128,   -0.092,   -0.629,    0.151,    0.146,    0.053,   -0.945,
       -0.211,   -0.940,   -0.510,    0.005,    0.008,    0.347,    0.454,
       -0.085,   -1.912,    0.203,   -0.596,    0.372,    0.034,    0.038,
        0.109,    0.003,   -0.441,   -0.772,   -0.494,    0.417,    0.193,
       -0.188,   -0.649,    0.064,    0.327,    0.296,   -0.447,    0.001,
       -0.719,   -0.435
    },
    {  -1.009,   -0.334,   -0.300,    0.371,   -0.142,   -0.275,    0.096,
        0.576,   -0.391,    0.874,    0.473,   -0.136,   -0.099,    0.037,
       -0.118,   -0.005,   -0.185,    0.224,    0.478,    0.103,    0.434,
        0.071,    0.080,   -0.119,   -0.273,   -0.351,    0.202,   -0.108,
       -0.443,    0.204,    0.102,   -0.024,    0.244,   -0.039,   -0.340,
        0.196,   -0.967,    0.312,    0.989,    0.988,   -0.045,    0.129,
        0.544,   -0.044,   -0.330,    0.664,    0.064,    0.485,   -0.241,
       -0.220,    0.140,    0.252,    0.228,    0.060,   -1.007,   -0.045,
        0.787,   -0.458,    0.019,   -0.031,    0.257,    0.305,   -0.084,
        0.890,    0.557,   -0.498,   -0.021,    0.139,   -0.275,   -0.337,
        0.239,   -0.416,   -0.115,   -0.278,   -0.115,   -0.194,   -0.038,
       -0.305,   -0.107,    0.308,    0.031,   -0.616,    0.927,   -0.454,
       -0.348,   -0.112,   -0.533,    0.155,    0.209,    0.334,   -0.776,
        0.064,   -0.985,   -0.722,    0.340,    0.060,    0.068,    0.189,
        0.562,    0.567,   -0.598,    1.302,   -0.072,    0.119,    0.313,
        0.012,   -0.103,   -0.142,   -1.076,   -0.341,   -0.266,    0.736,
        0.182,   -0.378,    0.177,   -0.562,    0.322,    0.036,   -0.109,
       -0.207,   -0.055
    },
    {  -0.349,   -0.043,   -0.239,    0.599,    1.064,   -0.474,   -0.383,
        0.116,    0.312,    0.172,   -0.392,   -0.379,    0.080,   -0.491,
       -0.063,   -0.329,   -0.430,    0.964,    0.465,    0.146,   -0.225,
       -0.861,   -0.118,   -0.377,   -1.249,   -0.188,   -0.430,    0.148,
       -0.123,    0.471,    0.269,   -0.637,   -0.854,    0.550,   -0.033,
        0.032,   -0.662,    0.591,   -0.013,    0.643,    0.057,   -0.268,
        0.398,   -0.015,    1.148,   -0.820,    0.193,    0.811,   -0.235,
       -0.135,   -0.147,    0.098,    0.433,    0.216,   -1.186,    0.068,
        0.800,    0.544,    0.226,    0.015,   -0.018,    0.223,    0.813,
        1.356,    0.084,    0.995,   -0.847,    0.113,    0.181,   -0.153,
       -0.330,    0.036,    0.460,    0.013,    0.861,   -0.081,   -0.823,
        0.426,    0.352,   -0.437,   -0.351,    1.183,    0.225,    1.284,
        1.137,   -0.657,   -0.093,    0.043,   -0.240,   -0.179,   -1.076,
       -0.115,   -0.374,    0.483,   -0.564,   -0.700,    0.181,   -0.554,
        0.037,   -1.081,   -0.077,    0.309,    0.318,   -0.379,   -0.136,
       -0.238,    0.291,    0.541,   -0.578,    0.022,    0.224,    0.108,
       -0.377,    0.076,   -0.262,   -0.128,    0.627,   -0.285,    0.531,
        0.291,   -0.024
    },
    {  -0.181,    0.581,   -0.690,    0.481,   -0.211,    0.011,    0.701,
       -0.610,   -1.048,    0.758,    0.153,   -0.333,    0.360,    0.333,
        0.011,    0.601,    0.671,   -0.234,    0.768,    0.086,    0.393,
       -0.759,    0.104,    0.396,   -0.736,   -0.717,    0.579,   -0.703,
       -1.115,    0.015,   -0.980,    0.088,   -0.597,   -0.067,    0.444,
        0.752,    0.651,    0.932,    0.773,    0.603,    0.326,    0.652,
       -0.492,   -0.085,   -0.065,    0.274,    0.386,   -0.418,   -0.394,
        0.385,    0.612,   -0.169,    0.013,    0.055,    0.935,    0.148,
       -0.815,    0.683,    0.040,    0.031,   -0.282,   -0.143,   -0.000,
        0.148,   -0.766,   -0.346,    0.241,   -0.505,   -0.029,    0.260,
        0.102,    0.712,    1.157,    0.303,    1.125,    0.549,   -0.003,
        0.010,    0.092,   -0.154,   -0.296,    0.559,    0.481,    0.494,
        0.438,   -1.141,    0.157,    0.867,   -0.526,   -0.576,   -0.842,
       -0.016,   -0.402,   -0.231,    0.433,    0.173,   -0.625,    0.016,
        0.322,    0.713,   -0.146,   -0.055,    0.026,   -0.206,    0.457,
        0.467,   -0.288,    0.465,   -0.399,    0.129,   -0.300,    0.263,
        0.321,   -0.218,    0.081,    0.734,   -0.171,    0.836,    0.000,
        0.339,    0.065
    },
    {  -1.147,    0.043,   -0.417,    0.667,   -0.224,   -0.242,    0.053,
        0.373,   -0.019,   -0.266,    0.431,    0.124,   -0.554,    0.920,
       -0.168,    0.011,    0.021,   -0.402,   -0.024,   -0.010,   -0.393,
        0.220,    0.154,   -0.190,   -0.134,   -0.189,    0.117,    0.883,
       -0.107,   -0.565,    0.293,    0.814,    0.123,   -0.198,   -0.030,
        0.074,    2.541,   -0.051,    0.330,    0.035,   -0.160,   -0.115,
       -0.078,   -0.076,    0.210,    0.047,   -0.716,    0.470,    0.362,
        0.088,   -0.064,   -0.103,   -0.113,    0.004,   -0.467,    0.352,
        0.066,   -0.104,    0.389,    0.113,   -0.292,    0.154,    0.147,
        1.215,   -0.339,    0.258,    0.543,   -0.282,   -0.131,   -0.279,
        0.023,    0.424,    1.047,    0.124,    0.660,    0.240,   -0.388,
        0.106,   -0.129,   -0.355,    0.073,    2.556,    0.207,    0.514,
        0.149,   -0.013,   -0.446,   -0.281,    0.287,   -0.157,   -1.227,
        0.076,   -0.342,   -0.287,    0.254,   -0.111,    0.395,   -0.541,
        0.072,   -1.184,    0.085,    0.630,    0.137,    0.127,   -0.002,
        0.003,   -0.059,    0.294,   -1.411,   -0.569,   -0.194,    0.637,
       -0.133,   -0.339,    0.324,    0.635,   -0.107,    0.696,    0.885,
        0.247,   -0.793
    },
    {  -1.076,    0.086,    0.858,    0.461,   -0.176,    0.094,    0.196,
       -0.003,   -0.240,    6.873,   -0.554,    0.289,    0.214,    0.311,
       -0.010,   -0.540,   -0.251,   -0.261,   -1.310,   -0.280,    0.944,
       -0.630,    0.161,   -0.022,    0.020,    0.009,    0.199,    3.771,
       -0.221,   -0.178,   -0.576,   -0.065,    0.026,    0.404,    0.052,
       -0.116,   -0.940,    0.588,    0.119,    0.048,    0.034,    0.294,
       -0.049,    0.042,   -0.233,    0.359,   -0.129,    0.851,    0.114,
        0.151,    0.102,   -0.417,   -0.520,    0.184,   -3.467,    0.222,
        0.118,    0.618,    0.375,    0.160,   -0.347,    0.062,   -0.050,
       -1.859,   -0.549,    0.499,   -0.142,   -0.127,    0.007,   -0.488,
       -0.353,    0.161,    2.970,    0.403,   -0.345,    0.098,    0.465,
        0.007,    0.207,    0.037,   -0.163,   -2.471,    0.183,    0.256,
       -0.602,   -0.240,    0.284,   -0.016,   -0.447,    0.228,    4.614,
       -0.409,    0.062,   -0.253,   -0.150,   -0.022,   -0.097,    0.183,
        0.324,   -2.711,   -0.690,   -0.084,    0.544,    0.411,    0.081,
       -0.156,    0.303,   -0.288,   -0.487,   -0.538,    0.243,   -0.488,
       -0.545,    0.015,    0.633,   -0.131,    0.541,    0.217,    0.127,
       -0.095,   -0.396
    },
    {   1.218,    0.008,   -0.027,    0.157,   -0.784,   -0.248,    0.885,
       -0.284,   -0.276,    4.619,   -0.087,   -0.256,   -0.146,    0.256,
        0.140,    0.274,    0.159,    0.227,   -1.391,   -0.003,    0.928,
       -0.528,   -0.107,    0.012,    0.327,    0.323,   -0.077,    3.587,
        0.242,   -0.005,   -0.086,    0.695,    1.042,    0.430,   -0.234,
       -0.102,   -0.976,    0.295,    0.569,    0.717,   -0.426,   -0.143,
        0.018,   -0.206,    0.012,    0.576,   -0.107,    0.719,    0.278,
        0.078,   -0.014,   -0.074,   -0.408,    0.066,    0.640,   -0.216,
       -0.247,   -0.172,    0.885,    0.344,    0.492,    0.082,    0.163,
        4.785,    0.151,    0.002,    0.448,   -0.069,    0.058,    0.420,
        0.053,   -0.077,    1.666,   -0.116,    0.370,   -0.256,    0.236,
       -0.025,   -0.107,   -0.242,    0.260,   -1.220,    0.314,    0.138,
       -0.040,   -0.207,   -0.367,    0.386,    0.319,    0.210,    0.080,
        0.451,    0.082,    0.044,   -0.032,    0.077,   -0.319,   -0.120,
        0.159,   -0.970,   -0.355,    0.061,   -0.095,   -0.137,   -0.052,
        0.335,    0.143,    0.312,   -2.103,   -0.127,    1.094,   -0.597,
        0.243,   -0.482,    0.574,   -0.303,   -0.148,    0.290,   -0.128,
        0.299,    0.167
    },
    {   6.631,   -0.414,    0.023,   -0.168,   -0.777,   -0.785,    0.691,
       -0.777,   -0.199,   -4.628,   -0.663,    0.281,    0.081,   -0.716,
        0.153,    0.131,   -0.180,    0.211,    1.168,   -0.200,    0.849,
       -0.181,   -0.038,    0.066,    0.028,   -0.267,    0.315,   -1.848,
       -0.015,   -0.084,   -0.456,   -0.525,    0.165,   -0.115,    0.087,
        0.754,    3.591,    0.088,    0.024,   -0.131,    0.420,   -0.455,
        0.274,    0.179,   -0.085,    0.892,    0.116,    0.660,    0.350,
        0.377,   -0.248,   -0.534,   -0.597,   -0.128,    0.439,    0.068,
        0.400,   -0.292,    0.402,   -0.038,    0.453,    0.202,   -0.367,
       -1.012,    0.164,    0.785,    0.603,   -0.097,   -0.002,    0.374,
        0.231,    0.027,    1.511,    0.066,   -1.053,    1.114,   -0.019,
       -0.198,   -0.194,   -0.126,   -0.163,   -9.190,    0.333,    0.580,
       -0.003,   -0.110,    0.329,    0.095,   -0.520,   -0.297,    1.663,
       -1.074,    0.626,    0.235,   -0.180,   -0.306,   -0.675,   -0.264,
        0.437,   -1.962,   -0.052,   -0.146,    0.216,    0.432,    0.497,
       -0.797,   -0.083,    0.046,   -1.385,    0.121,    0.093,    0.782,
        0.121,   -0.134,    0.361,   -0.169,   -0.441,    0.333,   -0.945,
       -0.181,    0.321
    },
    {   1.589,    0.366,    0.097,   -0.097,   -0.261,   -0.985,    0.158,
       -0.087,    0.278,   -3.126,   -0.146,    0.081,   -0.121,   -0.138,
       -0.133,   -0.376,   -0.892,    0.096,    1.241,   -0.027,    0.786,
       -0.534,    0.134,   -0.060,   -0.117,   -0.258,    0.156,   -4.635,
       -0.465,   -0.606,    0.378,    0.990,   -0.367,   -0.349,   -0.619,
        0.096,    2.115,   -0.249,    0.207,   -0.045,   -0.189,   -0.140,
       -0.968,    0.117,    0.100,    2.070,    0.242,    1.438,    1.221,
       -0.064,   -0.025,   -0.182,   -0.284,   -0.614,    0.955,    0.094,
       -0.191,   -0.225,    0.485,    0.027,    0.043,    0.250,    0.144,
       -0.258,   -0.163,    0.776,   -0.135,   -0.042,   -0.054,    0.506,
        0.331,   -0.330,    0.926,   -0.402,    1.000,    0.049,   -0.413,
       -0.686,   -0.201,    0.593,   -0.546,   -1.712,   -0.356,   -0.002,
       -0.447,    0.352,   -0.096,   -0.016,    0.138,    0.563,    7.749,
       -0.291,   -0.497,    0.426,   -0.534,   -0.650,   -0.074,    0.088,
       -0.872,   -1.951,   -0.917,    0.110,   -0.203,   -0.036,   -0.002,
       -0.405,   -0.428,    0.262,   -0.251,   -0.065,    0.522,    0.723,
       -0.377,    0.165,    0.515,   -0.223,   -0.600,   -0.104,    0.193,
        0.122,    0.432
    },
    {  -0.396,   -0.315,   -0.755,   -0.221,   -0.327,   -0.103,   -0.507,
       -0.108,    0.230,    4.300,    0.658,    0.525,    0.082,    0.376,
       -0.317,   -0.346,    0.360,    0.070,    2.068,    0.145,    1.033,
       -0.959,    0.550,    0.343,   -0.485,   -0.883,    0.113,    1.981,
        0.062,    0.367,    0.462,    0.168,    0.398,    0.333,   -0.416,
       -0.053,    4.835,   -0.419,   -0.034,    0.541,   -0.334,   -0.034,
       -0.103,   -0.309,    0.658,    1.047,    0.389,    1.236,    0.604,
        0.079,   -0.018,   -0.178,   -0.339,   -0.074,    2.195,    1.079,
       -0.090,    0.482,    0.260,   -0.284,   -0.743,   -0.235,    0.526,
        4.850,   -0.296,    0.299,   -0.720,    0.743,    0.912,    0.206,
       -0.043,    0.885,   -0.270,    0.639,   -0.085,   -0.703,    0.372,
        0.050,    0.773,   -0.031,    0.235,    2.143,   -0.203,    0.030,
        0.189,    1.065,    0.146,    0.990,    0.262,   -0.571,   -1.131,
       -0.158,   -0.410,    0.121,   -0.675,    0.615,    0.118,    0.014,
       -0.214,    1.271,    0.133,   -1.275,    0.412,    0.317,    0.076,
       -0.648,   -0.485,    0.093,    0.226,    0.606,   -1.206,    0.337,
        0.213,   -0.247,    0.687,   -0.123,    0.559,    0.067,   -0.021,
       -0.086,    0.351
    },
    {  -0.153,   -0.278,   -0.639,    0.692,   -0.830,   -0.065,   -0.870,
       -0.641,    0.639,    1.180,    1.158,   -0.140,    0.751,   -0.903,
       -0.046,    0.119,    0.061,    0.031,   -1.324,    0.303,   -0.396,
        0.241,   -2.133,   -0.097,    0.951,    0.133,   -0.124,   -1.328,
       -0.042,    0.997,    0.340,   -0.768,    0.823,    0.057,   -0.582,
        1.995,    1.418,    0.489,    1.023,   -1.368,   -1.360,    0.670,
        0.007,   -0.411,    0.290,    0.917,    0.062,    1.345,    0.890,
       -0.656,    0.010,   -0.001,   -0.559,   -0.338,    1.386,    0.118,
       -1.637,   -1.506,   -0.493,    0.182,   -0.231,    0.283,    0.373,
        0.450,    0.619,    0.726,    0.177,    1.281,   -0.424,   -0.661,
       -0.303,    0.582,   -0.122,   -0.645,    0.308,    0.942,    0.323,
        0.567,   -1.011,   -0.817,   -0.093,   -1.550,   -0.157,   -1.139,
        0.872,    0.124,   -0.078,    0.070,    0.333,   -0.167,   -0.963,
        1.091,   -0.432,    0.015,    0.847,    0.416,    0.935,    1.104,
       -1.003,    0.817,    0.593,   -0.791,    0.112,   -0.321,    0.488,
       -0.347,   -0.557,    0.175,   -0.548,    0.503,   -0.177,   -0.076,
       -0.042,   -0.362,    0.330,    0.300,    0.157,    0.094,   -0.868,
        0.228,    0.141
    },
    {  -1.855,    0.174,    1.401,    0.656,   -0.414,   -0.010,    0.055,
       -0.247,    0.103,    1.892,    0.134,   -0.446,    0.743,   -0.350,
       -0.819,   -0.012,   -0.195,   -0.326,   -1.184,    0.016,   -0.686,
        0.765,   -1.460,    0.448,   -0.779,   -0.483,   -0.300,    4.758,
       -0.176,    0.074,   -0.308,    0.035,    0.368,    0.398,    0.589,
       -0.476,    3.388,    0.447,   -0.203,   -0.024,    0.102,    0.293,
        1.535,    0.921,   -0.564,    1.572,    0.296,    0.959,    0.557,
        0.753,   -0.603,   -0.155,   -0.168,    0.522,    4.391,   -0.061,
        0.368,    0.298,   -0.223,   -0.363,    0.307,    0.601,   -0.262,
       -0.101,    0.047,   -0.046,    0.096,   -0.732,    0.359,    0.975,
        0.890,   -1.115,   -1.722,    0.282,   -0.946,    0.723,   -0.002,
       -0.182,    0.072,    0.086,    0.005,   -0.591,   -0.343,   -0.068,
        1.152,    0.320,   -0.277,    0.021,   -0.730,    0.140,    2.986,
        0.755,   -0.435,    0.308,   -0.179,   -0.654,    0.620,    0.149,
        0.520,    1.677,    0.100,   -0.234,    0.649,   -0.277,    0.714,
       -0.134,   -0.490,    0.046,   -0.864,   -0.424,    0.037,    0.282,
        0.333,   -0.431,    0.386,    0.031,   -0.097,   -0.552,    0.093,
       -0.110,    0.260
    },
    {  -0.867,    0.047,    0.759,    0.398,   -0.303,   -0.171,    0.131,
        0.141,    0.300,    1.222,    0.059,    0.025,    0.085,   -0.420,
        0.635,    0.691,   -0.680,   -0.077,    1.593,    0.019,   -1.186,
        1.365,    0.280,   -0.244,   -0.585,   -0.626,    0.041,    0.051,
       -0.548,   -1.323,    0.142,    1.511,   -0.586,    0.782,   -0.248,
        0.246,   -0.994,    0.089,   -0.775,   -0.494,   -0.146,    1.226,
       -0.414,   -0.632,    0.142,    0.934,    0.159,    1.113,    0.542,
        0.175,   -0.199,   -0.166,   -0.244,   -0.030,    0.478,    0.327,
       -0.168,    0.432,    0.626,    0.750,    0.404,    0.118,   -0.471,
       -0.166,   -0.309,    0.282,   -0.223,   -0.716,   -0.616,   -0.005,
       -0.482,   -0.197,   -1.073,    0.392,   -0.818,    0.406,   -0.235,
       -0.915,   -0.391,    1.396,   -0.169,   -0.020,   -0.087,    0.416,
        0.381,   -0.854,    0.900,    0.523,    0.460,   -1.113,    0.391,
        0.129,    0.485,    0.340,   -0.159,    1.652,   -0.302,    0.231,
        0.875,    0.569,    0.162,    0.099,    0.450,    0.183,   -1.033,
        0.550,   -0.601,   -0.677,   -0.662,   -0.462,    0.062,    0.434,
       -0.195,    0.280,    0.652,   -0.377,   -0.151,   -0.200,   -0.127,
       -0.034,   -0.036
    },
    {   1.891,    0.000,    0.798,   -0.569,    0.191,    0.274,   -0.241,
       -0.187,    0.649,    0.863,    0.002,   -0.989,   -0.987,   -0.090,
        0.124,    0.639,    1.183,   -0.375,    1.839,   -0.043,   -1.758,
        0.779,    0.142,   -0.029,   -0.086,   -0.205,   -0.111,    0.183,
        1.119,   -0.183,   -1.194,    1.226,    0.740,   -1.420,   -1.405,
        0.423,    3.020,    1.510,   -0.382,    1.164,    0.631,    0.105,
        1.436,    0.622,   -0.258,   -1.423,   -0.337,   -1.832,    0.707,
       -0.145,    0.094,    0.704,   -0.271,    0.387,    0.256,   -0.945,
       -0.440,   -0.629,   -0.760,    1.057,   -0.750,    0.819,   -0.745,
        0.226,    0.275,    0.116,   -0.498,   -0.613,    0.279,    0.635,
       -0.258,    0.432,   -3.874,    0.233,   -0.210,   -0.243,    1.192,
        0.731,    0.367,   -0.552,   -0.028,   -0.581,   -1.234,   -0.766,
       -1.515,   -0.187,   -0.433,   -0.131,    1.218,    0.428,   -0.758,
        0.353,    0.752,    0.631,    1.014,   -0.415,    0.347,    0.141,
        0.110,   -1.600,   -0.202,   -1.549,   -0.972,    0.031,    0.062,
        0.453,    0.548,    0.257,   -0.483,    0.315,   -0.172,    0.355,
        0.235,   -0.172,    0.140,   -0.122,   -0.038,    0.085,    0.198,
       -0.262,   -0.585
    },
    {   0.626,   -0.823,    0.365,   -0.430,   -1.182,   -0.936,    0.993,
        0.747,   -0.288,   -6.305,   -0.224,   -0.458,    0.841,   -0.772,
       -0.092,   -0.360,    0.242,    0.306,    1.586,    0.101,   -1.413,
        0.966,    0.120,   -0.105,   -0.166,   -0.329,   -0.089,    1.939,
       -0.639,    1.032,    0.258,   -0.251,    0.711,    0.359,    0.032,
        0.893,    1.347,    0.206,    1.114,    0.529,   -0.025,   -0.039,
       -0.140,   -0.324,   -0.116,   -1.390,    1.178,   -0.763,   -0.528,
       -0.309,    0.135,    0.071,    0.249,   -0.437,    0.716,    0.399,
       -0.885,    0.549,    0.001,    0.084,   -0.692,   -0.186,   -0.716,
        0.115,   -0.583,   -0.460,   -1.630,   -0.657,   -0.916,   -0.410,
        0.195,    0.256,    0.833,   -0.044,    0.262,   -0.707,    0.192,
       -0.015,    0.185,   -0.656,   -0.237,    2.255,   -0.513,   -0.196,
        0.649,   -0.559,   -0.980,    0.548,   -0.487,    0.454,   -2.598,
       -0.243,   -0.669,    0.386,   -1.129,    0.125,    0.051,    0.481,
       -0.472,    1.013,    0.281,    0.459,   -0.871,    0.738,   -0.260,
        1.240,    0.119,   -1.083,   -0.645,   -0.140,    0.255,    0.459,
        0.145,    0.510,   -0.091,    0.011,    0.339,    0.247,   -0.148,
       -0.362,   -0.231
    },
    {   1.981,   -0.110,    1.114,    0.501,    0.144,   -0.274,    1.776,
        0.165,   -0.239,   -4.561,   -1.031,   -0.791,    0.535,   -0.408,
       -0.611,   -0.138,    0.355,   -0.167,    2.038,   -0.181,   -1.342,
       -0.896,   -0.062,   -0.326,    0.153,    1.048,   -0.017,   -1.098,
        0.168,   -0.201,   -0.626,    1.060,   -0.025,   -0.213,   -0.445,
       -0.039,    1.802,   -0.434,   -0.096,    0.356,    1.029,    0.584,
        0.609,   -0.659,   -1.290,   -0.420,   -0.116,   -1.145,    0.300,
       -1.503,   -0.008,   -1.038,   -0.508,    0.458,    1.824,    0.211,
        1.754,    0.680,   -0.098,    0.092,   -0.191,   -0.525,   -0.207,
       -0.451,    0.529,   -1.125,    0.382,    0.723,   -0.425,   -0.957,
       -1.149,    1.048,    1.854,   -0.207,    1.352,   -0.993,    0.341,
        0.084,    0.024,   -0.284,    0.099,   -2.674,   -0.214,    0.145,
        1.164,   -0.562,    0.179,   -0.485,    0.371,    0.750,   -2.733,
        0.279,    0.217,   -0.363,   -0.696,   -0.410,    0.336,    0.473,
       -0.664,   -1.033,   -1.046,    0.184,   -0.411,    0.765,    0.684,
       -0.306,   -0.755,   -0.289,   -0.778,   -0.155,   -0.097,    0.062,
       -0.014,    0.037,    0.176,    0.342,    0.215,    0.352,   -0.039,
       -0.400,    0.136
    },
    {   1.898,    0.999,   -0.943,   -0.136,    0.233,   -0.980,   -0.127,
       -1.400,    0.565,    1.447,    0.183,   -1.291,    0.877,   -0.071,
       -0.004,   -0.123,   -0.204,   -0.070,    0.378,   -0.646,    0.490,
       -0.840,   -0.726,   -0.979,    0.799,    0.199,   -1.034,    0.384,
        2.632,    1.022,    0.960,    1.500,    0.547,    0.584,   -1.228,
       -0.746,    1.563,    0.110,    1.389,    1.013,   -0.460,    0.243,
       -0.122,   -0.209,   -0.030,    0.128,   -0.397,   -2.127,   -0.708,
        0.890,   -0.939,   -0.961,   -0.509,    0.304,    2.490,    1.227,
        2.048,    0.262,    0.008,    0.230,    0.801,    1.081,    0.692,
        0.684,    1.206,    0.128,    1.529,   -0.139,    0.891,   -0.026,
       -0.396,   -0.623,    1.582,   -0.137,    1.402,   -0.725,    0.264,
        0.507,   -0.077,   -1.475,    0.132,    1.443,   -0.119,    1.025,
        1.010,    1.114,   -0.259,   -0.152,   -0.486,   -0.188,   -0.263,
       -0.752,   -0.556,    0.205,   -0.368,   -0.160,    0.704,    1.328,
       -0.460,   -2.767,   -0.256,    0.413,   -1.298,   -0.232,   -0.796,
       -0.814,    0.705,   -1.557,   -0.499,   -0.108,    0.441,   -0.114,
       -0.150,    0.439,    0.184,    0.030,   -0.221,    0.197,    0.067,
       -0.312,    0.109
    },
    {   0.492,   -0.637,   -1.147,   -0.766,   -0.383,   -0.534,   -0.436,
        0.138,    1.227,   -0.683,   -0.696,    0.719,   -0.225,   -0.507,
       -0.254,    0.523,    0.682,   -0.419,    2.474,    0.589,    2.797,
        1.084,    0.264,   -0.436,    0.222,   -0.440,   -0.575,   -1.835,
        0.534,    2.216,    0.712,   -0.585,   -1.354,    1.255,    0.811,
        0.911,   -0.533,    0.587,    1.471,   -1.288,    2.338,    0.311,
       -1.100,   -0.047,    0.704,   -0.983,    0.203,   -0.359,   -0.263,
        0.247,    0.354,   -0.929,   -1.973,   -0.247,    4.135,   -0.962,
        0.181,   -0.038,   -1.754,    0.940,   -1.862,   -1.043,    0.522,
        0.883,    0.656,    1.258,   -1.049,    1.984,   -0.331,    1.882,
        1.023,   -1.617,    2.124,   -0.101,    1.334,   -1.228,    0.329,
        0.452,   -0.143,   -0.882,    0.270,    1.634,    0.014,   -1.155,
        0.736,    0.090,   -0.123,   -0.280,   -0.706,    0.228,   -2.562,
       -0.552,    0.255,    0.180,   -0.236,    0.051,   -1.179,   -0.408,
        0.136,   -1.046,   -0.128,   -0.714,    1.467,    0.463,   -0.403,
        0.906,    1.861,   -1.622,   -0.360,    0.145,   -0.051,    0.325,
       -0.055,    0.154,    0.093,    0.075,   -0.249,    0.310,    0.246,
        0.172,    0.028
    },
    {   2.029,   -0.242,   -1.518,   -1.385,   -2.536,    0.341,   -0.638,
       -0.085,    1.448,   -0.923,   -0.496,   -0.926,    1.186,    1.956,
       -0.894,   -0.442,    0.514,   -0.377,    1.944,    0.287,    2.278,
        1.251,    0.070,   -0.047,   -0.231,   -0.809,    0.147,   -1.967,
        0.025,    1.170,   -1.082,   -0.081,   -0.006,    0.861,    0.552,
        0.511,   -1.389,    0.164,    0.840,   -1.674,   -0.334,    1.442,
       -1.179,   -2.924,    0.340,   -0.298,   -0.148,    1.056,   -0.242,
        0.831,   -0.563,   -0.502,   -0.970,   -0.006,    4.805,   -0.637,
        1.401,    0.559,    1.058,    2.660,    1.065,    2.089,    1.164,
        1.384,   -0.029,    0.765,   -0.933,    1.923,   -0.059,    1.387,
        0.903,   -1.678,    2.745,    0.068,    1.630,   -1.470,    0.620,
        0.719,   -0.067,   -1.001,    0.159,   -2.152,   -1.866,   -0.319,
       -1.271,   -2.069,   -0.935,    0.417,    2.039,    1.386,   -0.675,
        0.998,   -0.778,    0.358,    1.683,    1.332,   -0.345,    0.210,
       -0.576,   -1.787,   -1.550,    1.902,   -0.206,    0.508,   -1.363,
       -0.155,    0.625,   -0.801,   -0.236,    0.210,    0.250,    0.258,
       -0.223,    0.143,    0.113,   -0.146,   -0.217,    0.395,    0.131,
        0.162,   -0.032
    },
    {   0.611,    0.026,    1.183,    0.024,    0.416,   -2.242,    0.038,
       -0.850,    1.264,   -1.752,   -0.978,   -1.189,    1.143,    1.991,
       -1.023,   -1.330,   -0.874,    0.170,    2.156,    0.104,    1.750,
        0.735,    0.220,    0.327,   -0.153,   -0.057,   -0.404,    2.222,
        0.346,   -1.224,   -1.048,    1.235,    0.508,   -0.156,   -2.936,
        0.505,    0.358,    0.755,    0.453,    2.020,    0.185,   -1.617,
        0.071,    1.899,    0.031,   -2.467,   -0.327,    1.787,   -0.806,
       -0.144,    0.038,   -0.161,    0.092,    1.551,    0.294,    0.092,
       -0.568,   -0.777,   -0.823,   -2.124,   -1.386,    1.220,    1.403,
        0.320,   -0.247,    0.367,   -0.750,    1.337,   -0.517,    1.132,
        1.458,   -1.820,    3.182,    0.263,    1.584,   -2.624,    0.830,
        0.031,    0.486,   -0.619,   -0.213,   -0.501,   -1.014,   -0.668,
       -0.418,   -0.370,   -0.198,   -0.106,    0.346,    0.373,   -0.887,
        1.286,   -0.260,   -0.377,    0.840,    0.564,   -1.511,   -1.185,
        1.283,   -1.982,   -0.971,   -2.455,   -1.324,    0.003,    0.319,
        0.553,    1.188,   -0.190,   -0.399,   -0.095,    0.214,    0.281,
       -0.049,   -0.118,   -0.268,    0.101,   -0.178,    0.295,    0.322,
        0.199,   -0.355
    },
    {   1.660,    1.857,    0.421,    0.789,    1.686,    0.947,   -0.925,
       -0.435,   -0.073,   -1.922,   -1.271,   -1.045,    0.825,    1.903,
       -0.625,   -1.466,   -0.681,    0.588,    0.665,   -0.044,   -1.063,
       -0.289,   -0.455,   -0.715,   -1.851,   -0.680,    1.386,    0.490,
        0.149,    0.175,   -0.823,    0.851,    0.643,   -0.921,   -0.600,
        0.511,    1.579,   -0.862,    0.156,    0.607,    0.305,    0.537,
        0.314,    0.746,    0.197,   -1.817,    0.144,    1.955,   -1.195,
       -0.083,   -0.044,    0.772,    0.679,    0.107,    2.995,    0.075,
        1.225,    1.535,    1.986,   -0.691,    0.617,    0.793,   -0.554,
        0.574,    0.160,    1.588,   -1.739,    0.782,    0.125,    1.059,
        0.036,   -0.368,    1.030,    0.146,    0.984,   -0.977,    0.371,
        0.460,   -0.266,   -0.901,    0.236,    0.256,   -0.489,    1.310,
        1.339,   -0.449,   -1.686,    1.057,    1.015,   -0.045,    2.467,
        0.398,    2.514,    1.502,   -1.119,    0.501,   -0.259,   -0.679,
       -0.800,   -1.353,    0.355,   -1.656,    0.927,   -0.058,   -0.161,
       -0.075,    0.154,   -1.227,   -0.377,   -0.106,    0.201,    0.162,
        0.044,   -0.172,   -0.290,    0.148,   -0.125,    0.347,   -0.062,
        0.378,   -0.145
    },
    {   1.209,    0.762,   -2.147,    1.829,   -0.334,    1.014,    1.113,
       -0.683,    0.511,    0.056,   -0.742,   -1.245,    1.473,   -1.881,
       -0.237,    0.796,   -1.333,   -0.583,   -3.754,   -1.052,   -3.850,
       -1.491,    0.605,    0.365,    0.766,    1.296,    0.499,    2.555,
        0.381,    1.971,   -2.029,    0.431,    0.459,    0.398,   -0.582,
       -0.029,    2.003,   -0.031,   -2.598,   -1.239,    0.265,   -0.134,
       -0.667,    0.315,    0.423,   -3.308,   -0.098,    1.755,   -1.557,
        0.100,   -0.772,    0.927,    1.445,    0.789,   -1.362,   -0.041,
        0.826,    2.048,   -0.592,   -1.093,   -0.461,   -4.224,   -2.412,
       -0.448,   -0.767,   -1.094,    1.059,   -2.067,   -0.218,   -1.594,
       -1.082,    1.657,    1.379,   -1.176,   -0.196,   -2.332,   -1.194,
        1.422,   -0.141,   -4.158,   -0.930,   -0.506,    0.152,   -1.436,
        1.091,   -0.264,    0.028,   -0.137,   -0.383,   -0.764,   -1.311,
       -0.430,   -0.956,    0.993,    1.813,   -0.484,   -0.685,   -0.242,
        0.222,    1.307,   -0.329,    2.124,    3.277,   -0.411,   -1.194,
       -3.217,   -0.454,   -1.698,   -0.502,    0.074,   -0.224,   -0.254,
        0.353,    0.205,   -0.155,    0.071,    0.325,    0.113,   -0.067,
        0.240,    0.079
    },
    {  -0.861,   -0.035,   -1.677,   -0.518,    0.107,    0.281,    0.721,
        0.424,   -0.319,    1.025,   -0.635,   -0.273,   -0.170,   -0.058,
       -0.438,   -0.487,    0.299,   -1.106,    2.314,   -2.181,   -0.954,
        0.714,    0.041,   -0.274,    1.156,   -0.248,    1.016,    2.290,
        0.171,    1.281,   -1.373,    0.277,    0.652,   -0.240,   -1.194,
        0.153,    2.200,    0.106,   -1.732,   -1.532,    0.095,   -0.282,
       -0.500,    0.371,    0.113,   -1.692,    0.068,    1.344,   -0.964,
       -0.009,    0.200,    0.636,    0.585,   -0.067,    1.036,   -0.913,
       -0.231,   -0.231,   -0.103,   -1.616,    1.235,    1.077,   -0.242,
       -0.929,   -0.480,   -0.847,    0.759,   -0.702,   -0.824,    0.009,
       -0.992,    0.999,    4.743,    1.847,    1.192,    0.862,   -0.567,
       -0.035,   -1.330,    0.336,   -2.047,   -0.999,    0.295,    0.414,
        0.248,    0.791,   -0.194,    1.038,   -0.199,    0.605,   -1.502,
       -0.283,   -1.131,    1.577,    2.141,   -0.162,   -0.168,   -0.297,
        0.283,   -5.243,   -0.526,    0.718,   -0.387,   -2.384,    0.587,
        0.802,    2.195,    1.448,   -0.624,   -0.336,   -0.049,    0.011,
        0.263,    0.251,   -0.288,   -0.145,    0.131,    0.019,   -0.128,
        0.146,   -0.114
    },
    {  -2.291,   -0.417,   -2.431,   -2.059,    1.097,   -0.381,    0.074,
        0.181,    1.165,   -5.278,   -0.000,   -1.809,    0.271,    0.213,
        1.950,    0.460,    0.409,    0.989,   -2.055,    1.797,    0.373,
       -0.819,    1.994,    1.161,   -2.081,   -3.501,    0.412,    3.975,
        0.165,    2.367,   -2.736,    0.718,    0.414,    0.300,   -1.226,
       -0.008,   -1.205,   -1.238,   -3.098,    0.395,   -2.596,    1.907,
       -2.343,   -3.783,    1.548,   -2.975,    0.157,    3.423,   -0.645,
       -0.475,    0.113,    1.582,    1.523,   -0.316,   -0.643,    2.266,
       -0.884,   -1.750,    0.964,   -1.055,   -2.675,   -0.383,    1.357,
       -2.504,   -0.455,   -1.806,    2.586,   -1.326,   -0.453,   -1.327,
        0.543,    3.447,   -0.354,    1.825,    1.345,    2.141,    1.412,
       -0.508,    0.201,    1.166,    0.052,   -0.231,    0.917,    2.363,
        2.003,    0.814,    1.208,    1.790,   -0.386,   -1.875,   -2.460,
        0.510,   -2.901,   -2.384,   -1.462,    0.187,    0.276,    1.154,
       -0.036,    5.503,   -0.157,   -1.728,   -0.671,   -1.816,    0.156,
       -0.728,    0.128,    0.706,   -0.253,   -0.251,   -0.083,    0.111,
        0.363,    0.084,   -0.209,    0.128,    0.179,   -0.088,   -0.181,
       -0.258,   -0.262
    },
    {  -2.771,    0.326,   -2.831,   -1.679,   -1.234,    0.234,    1.048,
        1.030,   -0.433,   -3.286,    0.854,    2.542,    2.452,   -1.361,
        0.536,    1.251,   -0.970,   -0.312,   -0.497,   -0.096,   -3.061,
       -1.011,    2.630,    0.589,    0.557,    0.198,    0.451,    4.774,
        0.543,    2.901,   -3.434,    1.366,    0.371,   -0.225,   -1.828,
        0.260,   -0.974,   -0.638,   -1.156,    1.658,   -2.217,    0.239,
       -1.704,   -1.113,    2.078,    0.822,   -0.534,   -1.121,    1.527,
       -1.925,    0.366,    0.558,   -0.638,   -1.024,    0.056,   -0.277,
       -0.288,    0.390,    2.531,    0.529,   -1.736,   -0.002,    0.040,
        2.489,    1.382,    1.215,   -1.111,    0.593,    2.383,    0.032,
       -4.433,   -1.379,    0.221,   -1.868,    0.998,    0.884,    1.971,
        0.946,    0.704,    0.026,   -1.661,   -2.371,    0.457,    2.554,
       -1.264,   -0.266,   -0.055,    1.034,    1.045,    0.333,   -2.209,
        3.783,    2.187,   -0.235,    0.898,    1.011,    0.668,   -0.169,
       -1.432,    0.606,   -0.778,    2.624,    0.656,   -1.441,    1.318,
        0.350,   -1.836,   -3.940,   -0.512,   -0.298,   -0.237,   -0.094,
        0.322,    0.413,   -0.111,    0.032,    0.079,    0.055,   -0.294,
        0.138,    0.005
    },
    {  -4.430,   -4.080,    3.478,    4.977,   -5.629,    2.036,    0.029,
       -2.146,   -3.593,   -3.871,    0.410,    2.123,    2.938,    5.155,
       -0.559,   -0.925,   -1.804,    1.507,   -6.661,   -1.356,   -5.597,
       -2.441,    0.651,    0.631,    0.208,    1.508,    1.430,    4.569,
        0.694,    2.716,   -3.716,    0.913,    0.980,    0.685,   -1.162,
       -0.040,   -1.712,   -0.665,   -2.564,    1.988,   -3.301,   -0.245,
       -2.062,   -2.096,    3.278,    1.557,   -1.506,   -2.366,    2.631,
       -3.828,    1.194,    2.233,   -0.875,   -1.373,   -0.085,    2.994,
        1.208,   -2.756,   -4.287,    3.311,    1.997,    4.344,    0.120,
       -6.592,    1.038,   -1.469,    0.525,    2.304,   -2.666,    0.190,
       -5.809,   -0.321,   -5.798,   -1.405,   -3.038,    2.743,    3.598,
        0.653,   -3.034,   -2.137,    1.052,   -6.051,    0.478,    4.151,
       -3.062,    0.399,   -0.608,    2.613,    2.932,   -0.288,    3.878,
        1.195,    3.605,   -3.630,    0.527,   -3.085,   -0.643,    1.513,
       -4.200,    8.376,   -0.507,   -2.746,    1.491,   -1.134,    1.184,
       -2.657,    0.790,   -2.350,   -0.464,    0.002,   -0.180,   -0.435,
        0.333,    0.247,   -0.295,   -0.018,    0.069,    0.327,   -0.273,
       -0.051,    0.133
    },
    {  -2.106,    0.403,    3.591,    0.069,   -2.249,   -0.965,   -2.331,
        0.579,   -2.034,   -1.644,   -0.714,   -0.055,    2.368,   -1.269,
       -1.407,    0.421,    1.940,   -0.508,   -2.941,   -0.144,   -2.861,
       -0.982,   -0.249,   -0.021,   -0.039,   -0.030,    1.068,    3.324,
        0.685,    1.427,   -1.734,    0.626,    0.915,    1.045,    0.256,
        0.131,   -1.289,   -1.837,   -1.575,    2.545,   -3.545,    0.008,
       -2.934,   -1.752,    3.112,    2.013,   -2.559,   -0.403,    2.907,
       -2.411,   -0.033,    1.517,    0.820,   -0.720,    3.122,    5.839,
        3.581,    3.207,    1.435,    3.811,   -2.752,   -1.906,   -4.860,
        0.106,    0.859,    2.517,    0.137,    1.380,   -0.067,   -1.861,
       -2.614,    0.606,   -1.817,   -2.340,    0.908,    1.887,   -0.433,
        3.058,   -2.027,   -0.682,   -3.162,   -4.351,   -0.340,    3.624,
       -3.100,   -0.601,    1.109,    0.891,    0.858,   -0.550,    4.094,
        3.030,    2.740,   -0.627,    0.732,   -4.750,   -2.019,   -0.152,
        1.915,    4.933,   -0.601,   -4.484,   -2.914,    1.282,    0.157,
       -1.151,    1.305,   -0.876,   -0.421,    0.027,   -0.187,   -0.157,
        0.127,    0.268,   -0.074,   -0.078,    0.183,    0.151,   -0.236,
        0.113,    0.186
    },
    {  -3.536,   -1.661,   -1.839,    3.308,   -1.157,   -1.148,    0.982,
        2.989,    0.068,    5.756,   -0.196,    1.327,    1.410,   -1.165,
        0.589,    1.419,    2.203,   -0.837,    0.713,   -1.646,    1.819,
       -0.389,   -1.634,   -1.375,    0.070,   -0.201,    0.252,    3.186,
        0.380,    0.024,   -2.542,    2.277,   -1.562,    0.805,   -3.165,
       -0.151,    0.214,   -1.087,   -1.610,    1.355,   -3.117,   -0.189,
       -2.620,   -2.244,    1.421,    1.744,    3.859,   -0.021,    3.909,
       -0.465,    1.064,   -1.744,   -1.928,   -1.077,    6.127,    0.242,
       -0.252,   -0.304,    0.342,    1.120,    0.757,    1.359,   -0.369,
       -2.624,    0.140,   -1.768,   -2.231,   -0.001,   -0.458,    0.922,
       -2.581,    1.287,    0.267,    0.475,   -0.081,   -0.435,   -0.466,
       -0.237,   -0.087,    2.501,    0.312,   -4.768,   -0.627,    3.509,
       -2.700,   -0.858,    0.007,    1.487,    1.261,    0.355,   -4.303,
       -0.740,   -2.844,   -2.375,    0.774,   -0.686,    0.442,    0.340,
        1.596,   -2.629,   -0.886,   -2.652,   -0.433,   -1.578,    0.613,
        1.311,    1.339,   -1.472,   -0.018,   -0.158,   -0.250,   -0.122,
       -0.073,    0.225,   -0.216,   -0.216,    0.075,   -0.027,   -0.254,
       -0.295,   -0.310
    },
    {  -1.982,   -1.342,    2.780,    0.293,    1.345,    1.569,   -1.576,
       -0.224,   -0.449,   -2.529,    0.520,    1.904,   -2.116,   -0.048,
       -1.299,   -0.180,    0.488,    1.744,   -0.555,    2.439,    3.203,
        1.074,    1.141,    1.821,    1.152,   -0.912,   -0.111,   -2.941,
       -0.365,   -2.122,    0.001,    0.836,    0.319,   -2.388,    0.344,
       -1.944,   -0.510,   -1.858,    2.384,   -0.638,    2.016,   -1.448,
        2.604,   -0.169,   -0.298,   -0.365,    1.268,    0.868,    0.905,
       -1.449,    0.479,    0.759,   -0.313,    0.840,   -0.184,   -1.360,
        0.852,   -0.234,   -0.914,   -0.242,    1.530,    1.271,   -2.369,
        0.490,   -0.332,   -1.154,   -1.629,   -1.198,    0.723,   -1.389,
       -1.507,    0.647,   -1.999,   -0.020,   -0.491,    1.542,   -0.131,
       -1.642,   -0.596,    1.614,   -0.091,   -2.981,   -0.312,    2.045,
       -2.142,   -0.443,    0.555,    0.373,   -0.040,   -0.075,   -1.821,
       -0.185,   -2.625,   -1.008,   -0.351,    0.296,    0.281,    0.880,
       -0.324,   -3.829,   -1.579,    1.952,    0.537,    0.151,   -1.109,
       -0.505,    0.674,   -0.316,   -0.312,    0.065,   -0.019,   -0.141,
        0.046,   -0.067,   -0.064,   -0.164,    0.189,   -0.100,   -0.192,
       -0.500,    0.044
    },
    {  -7.372,    0.178,   -0.185,    0.530,   -0.736,   -0.941,   -0.104,
        0.079,    0.266,   -1.207,   -0.509,   -1.765,    1.952,   -2.262,
       -0.104,   -1.348,   -1.444,    1.575,   -4.377,   -0.373,    1.913,
       -2.760,    0.413,    0.196,    0.336,    0.724,    0.081,   -0.611,
        0.232,   -2.631,   -0.507,   -0.452,   -0.123,    1.958,   -0.268,
       -0.749,   -7.173,   -0.980,    3.134,   -0.649,   -1.009,    0.332,
       -0.331,   -0.749,   -0.029,   -1.756,   -0.284,   -1.000,    1.521,
        2.321,   -0.343,   -0.924,   -0.467,    0.056,    3.690,    0.109,
        1.601,    0.765,    0.198,   -0.894,   -1.401,    0.685,   -2.419,
       -5.527,    0.296,    0.421,   -2.334,    0.153,    1.109,   -1.923,
       -0.713,    0.184,   -3.543,   -0.574,   -2.694,    2.359,   -1.210,
       -0.547,   -0.137,    0.976,    0.116,   -2.132,    0.027,    2.055,
        1.158,   -0.108,    0.045,    1.143,    0.451,   -0.011,    3.264,
        0.318,    3.184,    1.089,   -0.181,    0.074,   -0.433,   -1.259,
       -1.021,   -8.821,   -1.201,    0.643,   -0.812,    0.979,    2.949,
        1.249,    1.230,   -0.842,    0.288,    0.404,    0.272,   -0.171,
       -0.142,    0.280,    0.167,   -0.063,    0.306,   -0.386,   -0.341,
        0.260,   -0.106
    },
    {  -3.189,   -2.514,   -0.203,   -0.764,    0.746,    1.903,    1.359,
        1.067,    0.323,    4.718,    0.237,    1.628,    0.890,   -0.749,
        0.679,   -0.670,    0.317,   -0.457,   -4.266,    0.149,    0.806,
       -0.080,    0.066,   -0.773,   -0.217,   -1.143,   -0.136,    0.597,
       -0.712,   -1.265,   -0.142,   -0.221,   -0.752,   -0.593,    0.645,
        0.522,    0.747,   -0.092,    0.908,   -1.209,   -1.825,    0.944,
        0.756,    0.271,   -0.350,   -0.782,   -0.267,   -0.655,    1.323,
       -1.226,    0.152,   -1.563,   -0.927,    1.090,   -0.614,    0.066,
       -1.396,   -0.939,   -0.008,    1.852,   -0.516,   -0.721,    0.196,
        0.883,   -0.287,    0.564,   -1.119,   -0.776,    1.065,    0.044,
       -0.899,   -1.002,   -2.225,    0.045,   -1.128,    1.706,   -0.457,
        0.062,   -0.224,    0.222,    0.053,    2.060,    0.657,    0.639,
        1.974,   -1.047,    0.506,   -0.128,    0.882,   -1.163,    1.843,
        0.034,    1.816,    0.495,    0.264,   -0.476,   -0.260,   -0.376,
        0.244,   -2.762,   -0.361,    0.072,   -0.476,   -1.796,    1.412,
        0.761,    0.087,    1.419,   -0.703,   -0.093,   -0.288,   -0.339,
        0.143,   -0.239,    0.289,    0.271,    0.216,   -0.331,    0.099,
        0.495,   -0.150
    },
    {  -3.487,    0.394,   -0.868,   -0.122,   -0.377,   -0.423,    0.146,
       -0.037,    0.008,    0.390,   -0.997,   -1.689,   -1.365,   -0.119,
       -0.044,   -0.765,    0.798,    0.319,   -3.161,   -0.483,    0.380,
        0.581,    1.109,   -0.730,    0.756,    0.387,   -0.161,    3.657,
        0.276,   -1.452,    0.352,    0.745,   -0.053,   -0.849,   -1.002,
       -0.742,    0.516,    0.839,    1.660,   -0.879,   -1.891,    0.895,
        1.144,    0.437,   -0.665,   -0.710,    0.426,   -0.607,    0.096,
        1.206,    0.344,   -1.142,    0.610,   -0.322,    1.817,    0.064,
       -1.256,    0.928,    0.055,    0.070,   -0.417,   -0.329,    0.102,
        1.130,    1.961,    1.036,    1.479,    0.933,    0.117,    0.868,
        0.434,   -1.359,   -0.867,   -0.512,   -0.793,    0.682,   -0.018,
       -0.652,    0.191,    0.742,   -0.381,    1.099,   -0.311,   -0.398,
       -1.046,   -1.244,    0.063,    0.014,   -1.571,   -0.706,    1.149,
        0.391,    1.204,    0.635,   -0.001,   -0.074,   -0.228,   -0.264,
       -0.022,    0.266,    2.193,    0.336,    0.341,    0.273,    1.800,
        0.259,   -0.951,    0.021,   -1.086,   -0.483,   -0.020,    0.075,
        0.202,   -0.127,    0.132,    0.322,   -0.225,   -0.239,    0.171,
        0.539,   -0.087
    },
    {  -1.365,   -0.626,   -0.582,    1.687,    3.001,   -0.874,   -1.099,
       -0.296,   -0.088,    4.630,    0.113,   -1.384,   -0.058,   -0.339,
       -0.146,   -0.860,    0.788,   -0.577,    0.041,    1.666,   -1.082,
        2.219,    3.003,   -1.459,   -0.392,    2.944,   -2.267,    1.589,
       -0.044,   -1.604,    0.656,   -1.722,    0.106,    0.165,    0.199,
       -0.685,    3.110,    0.747,   -0.760,    0.210,   -0.175,    0.643,
       -2.409,   -0.899,   -0.684,   -2.387,   -0.382,   -2.343,   -0.799,
        0.164,    0.255,    0.255,    0.872,    0.286,    3.607,    0.206,
       -3.040,    1.293,    0.053,    0.206,   -0.685,   -0.821,   -0.141,
        1.714,   -0.915,    1.627,   -1.001,   -2.740,   -0.441,    0.907,
       -0.131,    0.371,    1.222,    0.596,    1.256,   -1.638,    1.759,
       -0.447,    2.055,    0.928,   -2.516,   -0.489,    0.489,    0.545,
        1.823,    1.472,   -0.988,    0.087,    1.770,    0.654,    3.921,
        0.114,    2.137,   -3.201,    0.696,    0.201,    0.376,   -0.944,
       -0.110,   -1.933,   -0.252,    0.692,    1.310,    3.350,   -0.049,
        0.383,    0.212,   -0.499,   -0.747,    0.321,    0.444,   -0.018,
       -0.163,    0.015,   -0.322,    0.168,   -0.162,   -0.249,   -0.212,
        0.275,   -0.260
    },
    {  -1.311,   -0.252,   -1.063,    1.221,    1.733,   -0.090,   -0.621,
       -0.275,   -0.288,    2.517,   -0.149,   -1.828,    1.582,    0.263,
       -0.330,   -1.032,   -0.666,    0.193,   -1.261,    1.150,    1.042,
       -1.696,   -0.336,    0.608,   -0.147,   -1.385,    0.032,    0.410,
        0.638,    0.357,    0.619,    0.695,    1.386,    0.915,    0.309,
       -0.586,    0.482,    0.528,    1.359,    2.187,    1.057,   -0.930,
       -0.257,   -0.367,    0.653,   -1.952,    0.024,   -2.314,   -1.317,
        0.015,    0.170,    0.219,    0.196,    0.093,   -0.062,    0.586,
        0.132,    1.211,   -1.172,    2.311,   -1.401,   -0.378,   -0.450,
       -0.234,    0.334,    0.870,    0.175,   -0.698,   -0.820,    1.919,
        0.616,    0.281,    0.983,    0.465,    0.652,   -0.866,    1.242,
       -0.018,    1.059,    0.530,   -1.591,   -1.617,   -0.628,    0.780,
       -0.399,   -2.401,    0.997,   -0.359,   -0.034,    1.344,    2.880,
        0.272,    1.555,   -1.976,    0.227,    0.261,    0.245,   -0.889,
       -0.029,    0.563,   -0.075,   -0.827,    1.586,   -1.797,   -0.726,
        0.504,    0.893,   -0.749,   -0.400,    0.352,    0.319,    0.238,
       -0.150,   -0.205,   -0.484,    0.018,   -0.002,   -0.263,   -0.043,
        0.383,   -0.039
    },
    {   1.616,    0.792,   -0.255,   -0.719,    1.204,    0.132,    0.341,
        0.132,    0.439,   -2.257,   -0.278,   -1.992,   -1.206,    0.176,
       -0.176,    0.262,    0.464,    0.561,    0.206,   -1.039,    1.134,
        0.597,   -1.276,   -1.043,    1.237,    0.694,   -0.739,    6.542,
        0.970,   -0.431,    1.671,    0.808,   -0.695,    1.791,    2.366,
       -0.936,    1.297,   -0.273,    0.574,    0.412,    2.409,    0.336,
       -1.508,   -1.360,    0.656,   -2.901,    0.770,   -1.730,    2.648,
       -1.154,   -1.528,   -0.532,    0.383,    0.744,   -0.291,    1.358,
        1.173,    0.212,    0.866,    2.165,    0.626,   -0.402,   -0.217,
        0.314,   -1.508,   -1.382,    1.027,    1.765,   -0.210,    0.537,
       -0.953,    0.305,    1.318,    0.855,    1.100,   -2.107,    1.928,
        0.030,    1.973,    1.373,   -2.255,    3.239,   -0.184,   -2.876,
        0.435,    0.453,    0.850,   -1.079,   -1.219,   -0.450,    3.478,
        0.737,    2.044,   -2.727,    0.243,    0.400,   -0.585,   -1.350,
        0.203,    1.985,   -1.935,   -0.219,   -0.514,   -2.089,   -0.286,
        1.072,    2.111,    3.630,   -0.254,   -0.014,   -0.427,   -0.129,
       -0.330,    0.105,    0.050,   -0.174,    0.083,   -0.191,    0.169,
        0.388,    0.021
    },
    {   1.652,   -1.618,   -0.651,    0.779,   -1.122,    0.435,    0.303,
        1.760,    1.349,   -3.284,   -0.584,   -2.655,   -1.760,    0.453,
       -0.326,    0.511,    0.605,    0.709,   -0.476,   -0.355,    1.509,
        2.009,    1.258,   -0.610,    0.572,    0.318,   -1.134,   -1.462,
       -1.608,   -0.505,   -2.308,   -0.252,   -1.384,   -0.660,    0.664,
        0.908,   -0.835,   -0.251,   -1.009,    1.246,   -2.243,    0.512,
       -1.287,   -0.604,    2.235,   11.080,   -0.344,    0.601,   -0.651,
       -1.047,    1.737,    0.161,    1.025,   -0.804,    1.495,   -2.776,
       -1.528,   -0.706,    1.839,    1.203,   -0.459,   -0.084,   -1.425,
        2.052,   -0.203,    2.294,   -1.645,   -2.595,    0.671,    0.658,
        0.272,    0.019,    0.542,   -0.783,   -1.307,    1.322,   -2.241,
        0.635,    2.706,    0.421,   -1.725,    4.035,    0.774,   -2.589,
        1.828,    0.562,    0.252,   -1.142,   -0.488,   -1.840,    2.376,
        0.480,    2.130,   -1.437,    0.753,    0.769,    0.390,   -1.433,
       -0.234,   -3.311,   -0.184,   -0.976,   -3.651,    0.409,   -0.147,
       -1.954,    1.894,    0.914,   -0.550,   -0.054,   -0.375,   -0.108,
        0.269,    0.292,    0.071,    0.128,   -0.172,   -0.201,    0.297,
        0.363,   -0.169
    },
    {   2.827,    1.132,   -2.293,   -0.118,    1.283,   -0.806,   -1.066,
       -0.088,   -0.933,   -1.776,   -0.320,   -1.494,   -1.105,    0.375,
       -0.075,    0.402,    0.702,    0.470,   -1.955,    0.509,    1.027,
        1.062,    1.861,   -0.393,   -0.141,   -0.224,    0.291,   -0.892,
       -2.724,   -0.353,   -2.296,   -0.554,   -0.166,    0.346,    0.112,
        0.564,   -2.027,    0.063,   -0.724,    1.971,   -0.800,   -0.796,
       -1.223,   -0.217,    1.845,   -3.099,    1.457,    0.551,   -1.019,
        1.792,    0.659,   -0.922,    0.748,    0.840,   -0.003,    0.378,
       -0.469,    0.084,    0.066,   -2.328,    0.392,   -1.663,    0.844,
        1.750,    0.311,    0.854,   -0.872,   -1.463,    0.106,    0.627,
        0.561,   -0.342,    0.643,   -0.358,   -0.135,    0.995,   -0.151,
        0.303,    0.928,    0.412,    0.637,    2.772,    0.375,   -1.297,
        1.075,   -0.299,    0.319,   -1.120,   -1.288,   -0.064,    3.124,
        0.176,    1.888,   -2.471,    0.530,    0.618,    0.150,   -0.774,
       -0.027,   -0.815,    1.646,    1.374,    0.084,   -1.419,   -0.751,
       -1.107,   -0.988,   -0.677,   -0.491,    0.165,   -0.465,   -0.254,
        0.143,    0.353,    0.127,    0.008,   -0.382,   -0.016,    0.194,
        0.556,   -0.020
    },
    {  -1.049,   -0.524,   -1.170,    0.512,    1.557,   -0.430,   -0.727,
       -0.548,    0.258,   -1.327,   -0.231,   -1.628,   -0.682,    0.309,
        0.178,    0.224,    0.420,    0.234,   -0.690,    0.127,   -0.965,
       -1.011,   -0.267,    0.942,    0.485,   -1.059,    0.399,   -1.734,
        0.155,    1.090,    0.207,    0.230,    0.175,    0.279,    0.267,
        0.319,   -0.547,    0.378,    0.008,   -0.925,    0.670,    0.996,
        0.235,    1.386,    0.057,    1.485,    0.022,    0.120,   -1.037,
        0.396,   -0.006,    0.506,    0.288,   -0.686,    0.296,   -0.973,
       -0.310,    0.059,   -0.797,   -0.272,    1.256,    0.248,    0.454,
        0.609,    0.359,    0.592,   -0.684,    0.866,    0.028,    0.881,
        0.441,   -0.861,    1.446,    0.039,   -1.352,    1.038,    0.422,
       -0.281,   -0.598,    0.185,    0.192,    1.990,   -0.179,    1.063,
        0.631,    1.557,   -0.122,    0.324,   -0.712,   -0.499,    1.767,
        0.232,    1.235,   -1.247,    0.474,    0.448,   -0.264,   -0.738,
        0.170,   -1.260,    0.343,    0.041,    0.304,   -0.518,   -0.167,
       -0.849,   -0.265,    0.406,   -0.496,    0.249,   -0.434,    0.094,
       -0.253,    0.035,    0.074,   -0.091,   -0.414,    0.105,    0.024,
        0.387,   -0.076
    },
    {  -0.154,   -0.210,    0.158,   -0.271,   -1.254,   -0.140,   -0.989,
        0.172,   -0.077,   -1.294,   -0.251,   -0.792,   -0.910,    0.199,
        0.156,    0.011,    0.300,    0.399,    0.004,    0.525,   -0.670,
        0.346,    0.392,   -0.135,    0.480,    0.372,    0.111,    1.007,
        0.027,    0.235,   -0.607,    0.060,    0.848,   -0.713,   -0.563,
