//-----------------------------------------------------------------------------
// Network: Higgs0M_4mu
// Inputs:
//                                                  Offset       Scale
//    angle_costhetastar                        -2.334e-03   5.595e-01
//    angle_costheta1                           -4.455e-03   5.784e-01
//    angle_costheta2                           -1.441e-03   5.336e-01
//    angle_phi                                  7.558e-03   1.797e+00
//    angle_phistar1                            -1.326e-04   1.789e+00
//    Z1mass                                     8.227e+01   1.089e+01
//    Z2mass                                     2.894e+01   9.767e+00
//    mass4l                                     1.239e+02   3.719e+00
//
// Created: Sun Jan 20 19:28:37 2013
//-----------------------------------------------------------------------------
#include <cmath>
#include <vector>
#include <iostream>
//-----------------------------------------------------------------------------
// Make following visible only to this programming unit
namespace nsHiggs0M_4mu {
  // NOTE: Network indices start at 0
  static const int nnetworks=100;
  static const int ninputs  =8;
  static const int nhidden  =12;
  static const int nparams  =121;

  static const double mean[ninputs]={
 -2.33400e-03,
 -4.45500e-03,
 -1.44100e-03,
  7.55800e-03,
 -1.32600e-04,
  8.22700e+01,
  2.89400e+01,
  1.23900e+02
  };

  static const double sigma[ninputs]={
  5.59500e-01,
  5.78400e-01,
  5.33600e-01,
  1.79700e+00,
  1.78900e+00,
  1.08900e+01,
  9.76700e+00,
  3.71900e+00
  };

  static const double weight[nnetworks][nparams]={
    {   2.629,   -0.169,    0.097,   -0.099,   -0.227,    0.127,   -2.350,
       -2.505,    0.864,    1.676,    0.240,    1.493,    0.905,   -0.068,
       -0.057,    0.188,    0.165,    0.428,    0.336,   -1.666,   -1.474,
       -1.436,   -1.374,   -0.624,   -1.125,    0.146,    1.750,   -5.075,
        0.433,    1.270,   -1.073,    0.528,    0.653,   -0.568,    0.816,
       -0.056,    0.468,    0.403,    0.398,    0.601,   -0.128,   -0.360,
       -0.795,    0.955,   -0.072,   -1.473,   -0.034,   -0.305,    1.155,
       -0.102,    0.020,    0.226,    0.227,    0.039,    3.422,    0.099,
        0.714,   -0.205,   -1.114,   -0.044,    1.429,   -0.317,   -1.452,
        1.262,   -0.248,    0.358,    0.989,   -0.146,    0.011,   -0.499,
       -0.026,   -0.154,    5.378,    1.408,    0.065,   -0.931,   -0.711,
       -0.376,   -0.109,   -0.400,   -1.583,   -1.566,   -0.129,    1.228,
       -0.019,    0.033,    0.214,    0.064,   -0.171,   -0.137,    2.294,
        1.161,   -0.451,    0.323,    0.007,   -1.460,    0.034,   -1.429,
        0.301,    4.587,   -0.162,   -0.314,   -0.595,    3.148,   -0.044,
        0.416,   -0.202,    0.135,   -0.353,   -1.163,    0.546,   -0.104,
       -0.205,   -0.457,   -0.844,   -0.278,    0.606,    0.076,   -0.919,
       -0.184,   -0.520
    },
    {   2.437,   -0.047,    0.045,   -0.105,    0.087,    0.038,   -2.037,
       -2.246,    0.937,    2.478,    0.328,   -1.980,    0.787,   -0.101,
       -0.413,   -0.295,    0.295,    0.346,    7.903,   -0.168,   -0.314,
       -0.231,    0.693,   -0.477,   -1.632,   -0.305,   -0.218,   -3.700,
        0.112,   -1.259,    1.117,   -0.372,    0.643,    0.429,   -1.830,
        1.210,    1.053,    0.215,    0.871,    0.319,   -0.112,   -0.462,
       -1.453,    1.080,    0.135,   -2.844,   -0.633,   -1.802,    0.055,
       -0.300,   -0.063,   -1.151,   -0.647,   -0.644,    4.442,   -0.231,
       -0.448,   -0.331,   -2.730,   -0.199,    0.497,    0.304,    0.228,
        1.210,   -0.425,   -0.380,    1.604,    0.124,   -0.250,   -0.116,
        0.269,   -0.238,    0.033,   -0.074,    0.388,   -0.622,   -1.039,
        0.156,   -0.264,    0.269,    1.351,   -2.816,    0.221,    1.853,
        1.987,   -0.387,   -0.219,   -0.202,    0.146,   -0.195,    0.951,
        0.191,    1.008,   -0.120,    0.017,   -0.032,   -0.736,   -0.435,
        0.301,    5.364,   -0.311,   -0.958,   -1.399,    2.882,   -0.040,
        1.748,    0.945,   -0.241,   -0.626,   -1.291,    0.384,    0.791,
       -0.322,   -0.401,   -0.284,   -0.506,    0.561,    0.228,   -0.752,
        0.721,   -0.418
    },
    {   2.354,    0.017,   -0.027,    0.021,    0.033,   -0.087,   -2.207,
       -2.322,    0.921,    1.846,   -0.002,   -1.311,    0.026,    0.064,
       -0.179,    0.048,    0.242,    0.116,   13.671,    0.522,    1.763,
        0.685,    0.614,   -0.349,    0.707,    0.077,    0.882,   -1.975,
        0.758,   -1.835,   -1.426,   -0.285,    0.238,    0.346,    0.067,
       -0.407,    0.285,    0.543,    0.191,    0.814,   -0.270,   -0.475,
       -0.648,    1.518,    0.498,   -3.299,    0.116,   -2.112,   -0.299,
        0.315,    0.546,   -0.929,   -0.972,    1.011,    4.181,   -0.187,
       -0.535,   -0.291,   -2.675,   -0.075,    0.937,    0.499,   -0.351,
        1.457,   -0.322,   -1.053,    1.079,   -0.222,   -0.130,   -0.148,
        0.121,   -0.118,   -8.454,    0.763,   -0.659,   -0.460,   -0.312,
       -0.068,    0.217,   -0.886,    0.365,   -1.548,   -0.265,    0.096,
        1.951,    0.011,   -0.213,   -0.010,    0.038,   -0.067,    2.859,
        1.249,    1.497,    1.596,    0.370,    0.596,   -0.772,    0.423,
        0.874,    2.971,   -0.482,   -0.357,   -0.693,    1.828,    0.017,
        1.045,    0.233,   -0.505,   -0.642,   -1.166,    0.914,   -0.176,
       -0.376,   -0.344,   -0.544,   -0.588,    0.459,   -0.530,   -0.614,
        0.371,   -0.496
    },
    {   2.249,   -0.201,    0.110,   -0.168,   -0.020,    0.008,   -1.741,
       -1.893,    0.687,    8.071,   -0.215,   -1.269,    0.229,    0.238,
       -0.070,   -0.899,    0.248,    0.093,   -2.681,   -0.160,    1.103,
       -0.921,   -0.042,    0.263,    0.475,    0.012,   -0.523,   -1.354,
        0.119,   -1.652,    0.075,    0.051,    0.001,    0.037,    0.092,
       -0.298,   -5.628,   -0.358,   -1.056,    1.247,   -1.275,   -0.851,
       -0.079,    0.364,   -0.096,   -2.993,    0.049,    1.298,   -0.077,
       -0.128,    0.627,    1.048,    1.076,   -0.130,    3.165,    0.048,
       -0.359,   -0.199,   -1.963,    0.045,    0.855,    0.173,   -0.165,
        1.529,    0.044,   -0.804,    1.936,   -0.235,    0.105,    0.427,
        0.524,   -0.611,    0.468,   -0.811,   -0.263,   -0.910,    0.077,
        0.189,    0.035,   -0.978,    0.538,   -1.951,   -0.180,    1.215,
        1.446,    0.027,   -0.067,   -0.175,    0.189,   -0.093,   -6.286,
        0.353,   -0.424,    0.616,   -1.051,   -0.221,    1.653,    0.032,
        1.272,    3.620,    0.154,   -0.754,   -0.854,    1.720,    0.070,
        0.937,   -0.276,   -0.095,    0.595,   -1.312,   -0.588,   -0.514,
       -0.792,   -0.250,    0.112,   -0.574,    0.538,    0.198,   -0.897,
       -0.277,   -0.573
    },
    {   2.177,   -0.102,    0.115,   -0.094,   -0.098,    0.010,   -1.864,
       -1.983,    0.573,    4.710,   -0.969,    0.063,   -0.154,    0.544,
       -0.185,   -2.017,   -1.174,    1.086,   -1.059,    1.719,   -0.502,
       -0.459,   -2.255,    1.119,   -1.376,    0.386,    0.967,   -1.027,
       -0.053,   -0.832,    0.323,    0.098,    0.010,    0.066,    0.026,
        0.045,   -2.056,   -0.715,   -1.702,   -0.534,   -0.125,    0.544,
        2.061,   -1.706,    1.066,   -2.452,   -0.339,    0.530,   -2.802,
        0.567,   -0.033,   -0.975,   -0.899,    0.091,    2.981,    0.122,
       -0.422,   -0.194,   -1.713,   -0.132,    1.307,   -0.141,   -0.507,
        1.818,   -0.618,   -0.532,    2.644,    0.631,   -0.608,   -0.714,
       -0.018,   -0.741,   -0.887,    0.660,   -0.854,    0.394,   -1.587,
       -0.436,    0.619,    1.128,   -1.055,   -2.232,   -0.054,    1.971,
        1.108,    0.025,   -0.035,   -0.137,    0.255,   -0.120,   -4.249,
        0.534,   -0.036,   -0.225,   -1.570,   -0.243,    0.443,    0.973,
        1.246,    3.206,   -0.128,   -0.563,   -0.319,    1.961,   -0.394,
        0.783,   -0.068,   -0.015,   -0.182,   -1.203,    0.347,   -0.144,
       -1.257,    0.220,   -0.426,   -0.394,    0.253,   -0.026,   -0.919,
       -0.015,   -0.593
    },
    {   2.400,   -0.007,    0.113,   -0.071,    0.063,   -0.002,   -2.025,
       -2.176,    0.670,   -0.557,    1.066,   -1.659,    0.591,   -0.945,
        0.540,    0.799,    0.364,    0.041,   -1.369,    0.118,    1.264,
       -0.049,    0.060,   -0.184,    0.492,    0.102,    0.477,   -1.199,
        0.050,   -1.070,    0.268,    0.136,   -0.152,   -0.033,    0.170,
       -0.030,   -1.603,    0.587,    0.326,   -0.363,    0.249,   -0.405,
        0.826,   -0.652,    0.214,   -1.497,    0.132,    0.477,   -2.023,
        0.198,   -0.238,    0.138,   -0.208,    0.139,    1.153,   -0.046,
        0.205,   -0.093,   -0.710,    0.226,    0.070,   -0.216,    0.034,
        2.679,   -0.874,   -0.164,    0.067,    0.689,   -0.670,    0.653,
        0.685,   -0.103,   -2.761,    0.212,   -0.494,   -0.035,   -0.847,
       -0.618,    0.459,   -1.099,   -0.078,   -2.207,   -0.064,    1.586,
        1.735,   -0.125,   -0.318,    0.184,    0.562,   -0.316,   -1.440,
        0.644,    0.912,    0.396,   -0.066,    1.092,    0.101,    0.259,
        0.568,    3.233,   -0.612,   -0.334,   -0.240,    1.945,   -0.144,
        0.823,    0.113,   -0.326,    0.226,   -1.320,   -0.084,   -0.262,
       -1.048,    0.329,   -0.640,   -0.629,    0.583,   -0.028,   -0.684,
       -0.108,   -0.702
    },
    {   2.359,   -0.195,    0.213,   -0.026,    0.032,   -0.060,   -2.457,
       -2.591,    0.982,   -2.553,   -0.220,    1.675,    0.644,   -0.239,
        0.151,   -0.345,   -0.248,    0.125,   -3.263,   -0.073,    1.328,
       -1.493,    0.106,    0.638,    0.187,   -0.245,   -0.524,   -3.059,
       -0.318,   -1.433,    1.763,   -0.103,   -0.064,    0.521,    0.281,
       -0.655,   -1.378,   -0.042,   -0.755,   -0.587,    0.051,    0.167,
       -0.136,   -0.269,    0.130,   -1.898,    0.824,    0.445,   -2.399,
        0.146,   -0.586,    0.617,   -0.279,    0.522,    2.653,   -0.107,
        0.415,    0.162,   -1.783,   -0.154,    0.808,   -0.184,   -0.397,
       -1.299,    0.156,    1.054,    1.168,   -1.351,   -0.499,   -0.974,
       -0.001,    0.152,   -0.823,   -1.024,    0.257,    0.877,   -1.698,
       -0.302,   -0.450,    0.279,   -0.939,   -0.659,   -0.348,   -0.267,
       -0.512,   -0.180,    0.378,    0.121,   -1.388,    0.398,   -4.208,
        1.423,    0.281,    1.886,   -0.964,    0.679,   -0.075,   -0.128,
        0.634,    2.642,   -0.268,   -0.407,   -0.680,    1.612,   -0.091,
        0.705,   -0.059,   -0.219,   -0.975,   -0.882,   -0.804,   -0.512,
       -0.588,   -1.086,   -0.286,   -0.431,   -0.213,   -0.035,    0.456,
       -0.342,   -0.888
    },
    {   2.335,   -0.207,    0.116,   -0.193,   -0.215,   -0.015,   -2.006,
       -2.318,    0.951,   -2.218,   -0.010,    1.390,    0.322,    0.007,
        0.200,   -0.085,   -0.218,   -0.063,   -2.080,    0.134,    1.645,
       -1.229,    0.374,   -0.594,    0.092,   -0.042,    0.149,   -1.914,
       -0.170,   -0.271,    1.630,    0.148,   -0.248,   -0.339,    0.241,
       -0.128,   -1.397,    1.657,   -0.750,   -0.550,   -0.172,    0.622,
       -0.078,    0.320,   -0.434,   -1.537,    0.021,   -0.961,   -0.279,
        0.131,   -0.037,   -0.126,   -0.224,    0.185,    2.982,    0.035,
       -0.000,   -0.175,   -1.890,    0.080,    0.610,    0.347,   -0.341,
        3.894,    0.989,   -0.903,    1.714,    0.249,   -0.712,   -0.245,
       -0.624,   -0.175,    3.699,    0.789,    0.335,   -0.602,   -0.229,
       -0.481,    0.684,   -0.079,    0.074,   -1.561,    0.473,   -0.421,
        0.290,   -0.102,   -0.763,    0.322,   -0.441,    0.665,   -2.248,
        0.724,    0.124,    0.978,   -0.295,   -0.572,    0.537,    0.342,
        1.221,    3.466,   -0.283,   -0.302,   -0.613,    1.386,   -0.176,
        0.626,   -0.550,   -0.175,   -0.035,   -0.917,   -0.798,   -0.324,
       -0.873,   -0.189,   -1.135,   -0.722,    0.201,   -0.213,    0.244,
       -0.031,   -0.895
    },
    {   1.904,   -0.064,    0.067,   -0.094,   -0.090,   -0.010,   -1.516,
       -1.796,    0.498,   -1.506,    0.005,    1.240,    0.952,   -0.184,
        0.023,    0.112,    0.333,   -0.056,   -1.457,    0.163,    0.681,
       -1.718,    0.359,   -0.065,   -0.263,   -0.286,    0.345,   -1.203,
       -0.073,   -1.166,    0.216,   -0.082,   -0.186,    0.122,    0.331,
       -0.014,   -4.239,    0.596,   -0.467,   -0.361,    0.651,   -0.323,
        1.253,    0.306,   -0.060,   -6.442,   -0.447,   -0.400,    0.363,
        0.779,    0.285,   -0.749,   -0.405,   -0.746,    2.743,    0.052,
        0.034,    0.285,   -1.357,    0.152,    0.750,    0.191,   -0.153,
       -2.867,    0.294,   -0.285,    1.067,    0.309,    0.419,    0.514,
       -0.334,   -0.214,    5.122,    1.012,   -0.133,   -1.145,    0.057,
        0.445,    0.785,   -0.021,   -0.393,    0.464,   -0.284,    1.188,
        0.015,   -0.193,   -0.244,    0.264,   -0.266,    0.359,   -5.702,
       -0.189,   -0.533,   -0.608,   -1.169,    0.989,    0.831,   -0.705,
        1.335,    3.294,   -0.660,   -0.390,   -0.455,    1.388,    0.214,
        0.381,   -0.905,    0.037,    1.165,   -1.228,   -1.058,   -0.769,
       -0.792,    0.929,   -0.550,   -0.810,    0.053,    0.156,    0.407,
        0.073,   -0.768
    },
    {   2.245,   -0.141,    0.022,   -0.116,   -0.116,    0.041,   -1.556,
       -1.721,    0.634,   -1.462,    0.364,    0.289,    0.964,    0.058,
        0.063,    0.089,    0.342,   -0.002,   -1.267,   -0.060,    1.220,
       -0.269,    0.061,   -0.002,    0.047,    0.134,   -0.120,   -1.390,
        0.146,   -0.911,   -0.775,   -0.006,    0.048,    0.043,   -0.058,
        0.024,   -3.275,   -0.634,    1.117,    1.387,   -0.472,    0.335,
       -0.434,   -1.066,    0.431,   -6.050,    0.127,    1.313,    0.090,
        0.684,   -0.850,    0.057,   -0.728,    0.281,    2.318,   -0.178,
       -0.025,   -0.154,   -1.266,    0.218,    0.213,   -0.466,   -0.060,
       -1.581,   -0.025,   -0.660,    1.386,    0.021,   -0.004,   -0.200,
        0.042,   -0.163,    3.606,   -0.121,    0.159,   -0.460,    0.276,
        0.573,    0.102,   -0.365,    0.273,    0.847,   -0.313,    0.896,
       -1.069,   -0.629,    0.706,    0.869,   -0.715,   -0.587,   -3.148,
       -0.262,    0.045,    0.805,    0.688,    0.391,   -0.206,   -0.019,
       -0.197,    4.027,   -0.335,   -0.583,   -0.642,    1.633,    0.048,
        0.547,   -0.843,    0.221,    0.039,   -1.509,   -0.441,   -1.063,
       -1.054,   -0.112,    0.281,   -0.607,   -0.600,    1.251,    0.220,
        0.637,   -0.759
    },
    {   2.354,   -0.069,   -0.012,   -0.041,   -0.008,   -0.058,   -1.820,
       -1.901,    0.679,   -1.502,    0.167,    1.397,   -0.426,    0.021,
       -0.283,    0.045,    0.042,   -0.314,   -1.351,   -0.137,    0.891,
        0.067,   -0.068,    0.156,    0.241,    0.045,    0.014,   -0.980,
        0.016,   -0.597,   -0.712,    0.029,    0.135,    0.258,    0.018,
        0.021,    0.450,    0.566,    0.294,    0.644,   -0.149,   -0.311,
       -1.040,    0.931,    0.090,   -2.497,    0.327,    0.024,   -1.788,
        0.764,    0.944,    0.305,    0.508,    0.347,    4.082,   -0.266,
        0.188,   -0.565,   -2.362,    0.049,    0.204,   -0.177,    0.272,
       -1.607,   -0.055,   -0.444,    0.924,   -0.045,   -0.070,    0.085,
        0.090,   -0.130,    5.596,   -0.654,   -0.078,   -0.562,   -0.090,
       -0.136,    1.005,   -0.063,    0.702,  -13.771,    0.531,    1.367,
       -0.242,   -0.236,    0.048,    0.693,    0.095,    0.507,   -4.315,
        1.090,    0.636,    1.036,   -0.316,    0.855,   -0.660,   -0.157,
        0.216,    2.940,   -0.180,   -0.466,   -0.529,    1.769,   -0.055,
        0.392,   -0.453,    0.073,    0.105,   -1.739,   -0.481,   -1.078,
       -1.250,   -0.325,    0.125,   -0.357,   -1.378,    0.189,    1.274,
       -0.500,   -0.414
    },
    {   2.052,   -0.024,   -0.034,    0.043,   -0.084,    0.053,   -1.641,
       -1.639,    0.617,   -2.042,    0.354,    1.245,   -1.735,    0.295,
       -0.581,   -0.393,   -0.349,    0.023,   -2.814,   -0.473,    1.261,
        0.111,   -0.007,   -0.229,   -0.031,   -0.850,   -0.338,   -0.939,
       -0.005,   -1.008,   -0.009,    0.112,   -0.113,    0.040,    0.055,
       -0.050,    2.174,   -0.191,    0.113,    0.659,    0.121,    0.326,
       -0.493,    0.561,   -0.065,   -4.803,   -0.222,   -0.060,   -0.106,
       -0.496,   -0.153,    2.025,    0.035,    0.043,    2.355,   -0.277,
        0.075,    0.146,   -1.329,    0.024,    0.169,   -0.101,    0.196,
       -3.422,    0.679,   -0.001,    0.979,    0.077,    0.901,   -0.624,
       -0.042,   -0.314,   -1.406,    0.652,    0.446,   -1.652,   -0.282,
        0.615,    0.497,   -0.044,    0.291,   -3.366,   -0.584,    0.437,
       -0.758,    0.494,    0.229,    0.604,   -0.024,   -0.568,   -1.196,
       -0.001,    0.698,    0.786,   -0.113,   -0.078,    0.158,    0.374,
       -0.079,    3.145,   -0.554,   -0.601,   -0.640,    1.311,    0.056,
        0.562,   -0.656,   -0.264,   -0.394,   -1.495,   -0.593,   -0.355,
       -1.223,   -0.699,    0.090,   -0.644,   -0.584,   -0.446,   -0.799,
       -1.227,   -0.722
    },
    {   2.148,   -0.042,   -0.044,    0.007,    0.009,    0.028,   -1.573,
       -1.566,    0.585,   -1.064,    0.013,    0.664,    0.695,   -0.107,
       -0.025,    0.013,    0.073,   -0.098,   -7.675,    0.853,    0.040,
        0.881,    0.060,    0.237,    1.075,    0.142,   -0.585,   -0.842,
       -0.028,   -0.833,    0.187,   -0.010,    0.021,   -0.140,   -0.043,
        0.068,   -4.224,   -0.091,    0.155,    0.064,   -1.868,   -0.134,
        0.161,   -0.098,   -0.262,   -6.723,   -0.281,   -0.666,   -0.107,
       -1.007,   -0.492,   -0.680,   -0.310,    0.821,    3.066,    0.284,
       -0.008,   -0.005,   -1.409,    0.126,    0.496,   -0.363,   -0.006,
       -6.581,    0.060,   -1.165,   -0.415,    0.727,   -0.167,   -0.032,
        1.185,    0.800,   -1.030,   -0.011,    0.580,   -0.906,    0.008,
        0.157,   -0.310,    0.098,    0.133,   -3.775,    0.594,   -1.031,
        0.504,    0.096,   -0.167,    0.064,    0.343,    0.647,   -0.954,
        0.135,    0.188,   -0.972,   -0.066,   -0.134,    0.686,    0.453,
       -0.332,    2.806,   -0.547,   -0.370,   -0.491,    0.986,   -0.318,
        0.659,   -0.792,   -0.156,    1.784,   -2.070,   -1.584,   -0.396,
       -1.408,    1.779,    0.598,   -0.513,   -0.816,   -0.586,    0.106,
       -0.729,   -0.681
    },
    {   2.334,   -0.202,    0.005,    0.055,   -0.054,    0.041,   -1.785,
       -1.915,    0.640,   -2.269,   -0.126,    1.300,    1.583,   -0.288,
       -0.141,   -0.391,    0.063,    0.011,   -4.519,    0.867,    0.785,
       -0.476,   -0.871,   -0.492,    0.166,    0.779,    0.483,   -1.014,
        0.064,   -1.088,    0.019,    0.099,   -0.042,   -0.020,    0.159,
       -0.087,   -2.692,   -0.536,   -0.595,    1.121,    0.406,    0.095,
       -0.118,   -0.168,   -0.316,   -3.532,   -0.104,   -0.520,   -0.133,
       -0.373,   -1.309,   -0.976,   -0.370,    1.036,    2.790,    0.295,
        0.390,   -0.001,   -1.568,    0.099,    0.566,   -0.634,   -0.002,
       -8.336,    0.198,   -0.260,    0.189,   -0.720,   -0.561,    0.010,
        0.675,    0.007,   -2.131,    0.155,    1.868,   -0.872,    0.002,
       -0.037,    0.610,    0.728,   -0.399,   -5.680,    1.569,    0.513,
        0.866,   -0.724,    2.175,   -0.609,   -0.249,   -0.025,   -1.294,
        0.111,    0.611,   -1.640,    0.046,   -0.079,   -0.275,   -0.073,
        0.251,    3.334,   -0.140,   -0.752,   -0.461,    1.621,   -0.191,
        0.522,   -0.578,    0.103,   -1.155,   -1.406,   -0.945,   -0.135,
       -0.942,   -0.285,    0.207,   -0.478,   -1.259,   -0.463,   -0.445,
       -0.483,   -0.863
    },
    {   2.127,   -0.023,   -0.027,   -0.081,    0.018,    0.023,   -1.738,
       -1.831,    0.684,   -1.119,   -0.040,    0.715,    0.679,   -0.039,
       -0.014,   -0.018,    0.159,   -0.085,   -4.283,   -0.064,    0.249,
        0.154,    0.481,    0.505,    0.812,    0.023,   -0.106,   -1.208,
       -0.078,   -0.773,    0.167,    0.018,    0.013,   -0.470,   -0.337,
        0.242,   -0.660,   -0.328,   -1.163,    0.187,   -0.163,    0.392,
        0.347,    1.106,   -0.290,   -2.900,   -0.711,    0.493,   -0.072,
        0.021,   -0.138,    0.697,    0.247,   -0.262,    2.916,    0.198,
       -0.444,   -0.162,   -1.684,   -0.072,    0.226,   -0.780,    0.338,
       -0.904,    0.157,    0.373,   -1.094,    0.230,   -0.205,    0.180,
       -1.261,    0.846,   -1.026,    0.164,    0.552,   -1.046,    0.118,
        0.113,   -0.072,   -0.206,    0.292,   -0.534,    0.175,   -1.136,
       -0.021,   -0.199,   -0.200,    0.503,    0.635,   -0.399,   -1.820,
       -0.031,    0.905,   -1.117,    0.157,   -0.346,    0.088,    0.267,
       -0.345,    2.794,   -0.388,   -0.354,   -0.388,    1.354,   -0.004,
        0.549,   -0.515,    0.126,   -0.591,   -1.538,   -1.722,    0.049,
       -0.856,   -0.114,   -0.504,   -0.528,    0.032,   -0.870,   -0.737,
       -0.380,   -0.733
    },
    {   1.671,   -0.055,   -0.021,    0.001,    0.001,    0.003,   -1.021,
       -1.083,    0.379,   -1.212,   -0.018,    0.768,    0.775,   -0.164,
        0.006,    0.113,    0.376,   -0.141,   -0.459,    0.027,   -0.886,
        0.054,   -0.007,   -0.019,    0.039,    0.235,   -0.026,    0.630,
       -0.620,    0.774,   -0.431,    0.432,   -0.456,    0.793,    0.449,
        0.563,    3.640,   -0.415,    0.158,    0.613,   -0.604,   -0.564,
       -0.327,   -0.729,   -0.229,   -3.817,   -0.253,   -0.775,   -0.069,
        0.877,   -0.064,   -0.065,   -0.312,   -0.011,    2.181,   -0.216,
       -0.299,    0.036,   -1.120,   -0.088,    0.234,   -0.321,   -0.176,
       -1.144,   -0.007,    0.670,   -0.762,    0.137,   -0.041,    0.314,
        0.254,   -0.088,    1.368,    0.018,    0.070,   -0.163,   -0.616,
       -0.348,    0.141,   -0.090,    0.217,   -1.030,   -0.308,   -0.569,
       -0.116,    0.228,   -0.993,    0.487,   -0.264,   -0.154,   -1.785,
        0.122,    0.258,    0.026,    0.133,    0.154,   -0.469,   -0.314,
        0.062,    3.243,   -0.238,   -0.448,   -0.543,    1.366,   -0.157,
        0.714,   -0.549,    0.240,   -2.073,   -3.046,   -1.508,   -1.216,
        0.121,    1.374,   -1.450,   -0.749,   -1.429,   -0.155,   -0.109,
       -1.332,   -0.918
    },
    {   1.846,   -0.079,    0.030,   -0.087,   -0.020,   -0.021,   -0.913,
       -1.066,    0.386,   -1.229,   -0.022,    0.964,    0.593,   -0.106,
        0.024,   -0.085,    0.119,   -0.023,   -1.114,    0.048,   -0.731,
        0.205,   -0.101,    0.304,   -0.102,   -0.054,    0.149,    1.923,
       -0.203,   -0.104,    0.023,   -0.680,    0.141,    0.266,    0.421,
       -0.046,    2.219,    0.516,    0.639,   -0.209,   -0.270,    0.529,
        0.369,    0.022,   -0.084,    1.621,    0.049,    0.590,   -0.970,
        0.005,    0.185,   -0.202,   -0.241,    0.207,    1.996,    0.209,
        0.080,   -0.038,   -0.712,    0.029,    0.459,   -0.255,   -0.063,
       -0.479,    0.088,   -0.094,   -0.838,    0.051,   -0.118,    0.196,
        0.271,   -0.230,   -0.580,    0.034,    0.094,    0.508,    0.145,
       -0.296,   -0.335,   -0.015,   -0.388,   -1.887,   -0.301,   -0.197,
        0.041,    0.051,   -0.098,    0.695,   -0.110,   -0.085,   -3.542,
        0.533,   -0.282,   -0.071,   -0.080,   -0.254,    0.357,   -0.410,
       -0.394,    2.404,    0.018,   -0.271,   -0.402,    1.108,   -0.018,
        0.522,   -0.033,    0.021,    2.793,   -3.356,   -1.382,   -0.699,
       -0.225,    0.586,    1.003,   -0.705,   -0.978,    0.138,    0.689,
        0.304,   -0.936
    },
    {   1.600,   -0.041,   -0.050,   -0.018,   -0.058,   -0.011,   -0.791,
       -0.839,    0.263,   -1.038,   -0.074,    0.685,    0.467,    0.034,
        0.015,    0.025,    0.224,   -0.103,   -0.900,   -0.102,   -0.262,
        0.168,   -0.218,    0.025,   -0.460,   -0.190,   -0.247,    1.045,
       -0.167,    0.565,   -0.192,   -0.120,    0.826,   -0.155,   -0.521,
       -0.074,    1.037,   -0.118,    0.528,   -0.187,   -0.146,   -0.089,
       -0.002,    0.057,   -0.120,   -0.012,   -0.022,    0.382,    0.092,
        0.106,    0.120,   -0.393,   -0.519,    0.054,    1.824,    0.065,
       -0.259,   -0.273,   -0.647,   -0.039,    0.081,   -0.283,   -0.036,
       -0.857,    0.165,    0.202,   -0.899,    0.072,    0.001,    0.105,
       -0.083,    0.053,    0.015,   -0.409,   -0.356,    0.136,   -0.325,
       -0.120,    0.027,    0.618,   -0.419,   -1.413,    0.473,   -0.303,
       -0.288,    0.177,   -0.249,    0.175,   -0.141,    0.243,   -0.921,
       -0.185,   -0.069,    0.130,   -0.529,   -0.361,   -0.301,    0.270,
       -0.592,    2.158,   -0.158,   -0.325,   -0.373,    0.693,    0.116,
        0.200,   -0.441,    0.202,    3.351,   -4.259,   -2.736,   -1.071,
        0.288,    1.498,    1.465,   -1.635,   -1.315,    0.504,    1.174,
        0.272,   -1.496
    },
    {   1.910,   -0.059,   -0.126,   -0.108,   -0.068,    0.011,   -1.074,
       -1.155,    0.392,   -1.076,    0.021,    0.615,    0.413,   -0.063,
       -0.014,    0.051,    0.228,   -0.078,    0.156,    0.180,   -0.262,
       -0.236,   -0.533,   -0.212,    0.517,   -0.042,    0.103,    1.330,
        0.219,    0.166,    0.101,   -0.183,    0.137,   -0.027,    0.140,
        0.060,    0.742,   -0.066,    0.375,   -0.198,   -0.018,   -0.202,
        0.375,    0.327,   -0.111,    0.027,    0.062,    0.445,    0.052,
        0.046,    0.081,   -0.267,   -0.324,    0.030,    2.009,    0.020,
        0.011,   -0.211,   -0.913,   -0.124,    0.361,   -0.051,   -0.142,
       -1.027,    0.037,    0.598,   -0.802,   -0.010,    0.059,    0.009,
       -0.065,    0.054,    1.042,   -0.302,    0.372,    0.430,    0.522,
        0.197,    0.323,    0.271,   -0.271,   -0.116,    0.359,   -0.193,
        0.347,    0.272,   -0.181,   -0.139,    0.356,    0.110,    0.744,
       -0.002,   -0.215,    0.078,    0.137,    0.189,    0.029,   -0.379,
       -0.071,    2.315,   -0.167,   -0.439,   -0.361,    0.940,    0.001,
        0.392,   -0.494,   -0.027,    1.499,   -3.976,   -3.269,    0.193,
        0.954,    1.390,    1.654,   -1.389,   -1.532,    0.172,   -0.446,
       -0.358,   -1.522
    },
    {   1.617,   -0.002,    0.021,   -0.057,   -0.078,    0.002,   -1.034,
       -1.088,    0.429,   -1.099,   -0.046,    0.788,    0.635,   -0.063,
       -0.040,    0.044,    0.221,   -0.179,   -1.040,    0.256,    0.070,
       -0.256,   -0.158,    0.228,   -0.114,    0.187,   -0.227,    1.275,
        0.028,    0.481,   -0.300,   -0.199,    0.241,    0.094,   -0.090,
       -0.019,    0.353,    0.084,    0.512,    0.242,    0.149,    0.037,
       -0.248,   -0.355,    0.171,    1.478,   -0.029,    0.646,   -0.677,
       -0.008,   -0.173,    0.486,    0.566,   -0.295,    2.377,    0.294,
       -0.213,   -0.141,   -1.016,    0.317,    0.770,    0.101,   -0.412,
       -0.368,    0.276,    0.153,   -0.802,   -0.259,    0.087,    0.378,
       -0.251,    0.222,   -1.431,   -0.027,    0.699,   -1.041,    0.298,
       -0.124,   -0.332,   -0.333,    0.397,   -3.141,   -0.342,   -0.469,
        0.067,    0.641,    0.098,    0.495,    0.431,   -0.154,   -2.720,
        0.062,    0.103,    0.035,   -0.889,   -0.278,   -0.161,   -0.314,
       -0.089,    2.344,   -0.331,   -0.427,   -0.156,    0.924,   -0.076,
        0.328,   -0.707,    0.133,    1.509,   -2.485,   -1.816,   -0.874,
        1.305,    1.037,    0.671,   -0.748,   -0.309,   -0.779,   -0.344,
        2.335,   -0.940
    },
    {   1.565,   -0.009,   -0.082,   -0.144,   -0.047,   -0.094,   -1.023,
       -1.132,    0.438,   -0.944,   -0.084,    0.654,    0.457,   -0.057,
        0.014,    0.164,    0.350,   -0.148,   -1.628,   -0.158,    0.559,
        0.657,    0.143,    0.138,    0.191,    0.725,    0.414,    1.515,
        0.269,   -0.526,    0.751,    0.173,   -0.253,   -0.158,   -0.070,
        0.239,    1.216,   -0.077,    0.682,   -0.125,    0.052,   -0.218,
       -0.027,   -0.061,   -0.035,   -2.039,    0.221,    0.611,    0.197,
       -0.075,    0.214,   -0.494,   -0.600,    0.090,    2.167,    0.077,
       -0.215,   -0.105,   -0.872,   -0.021,    0.604,   -0.023,   -0.330,
       -2.035,   -0.338,   -0.612,    0.550,    0.120,   -0.465,   -0.433,
       -0.198,   -0.036,   -1.013,    0.004,    0.328,   -1.039,    0.200,
       -0.081,   -0.250,   -0.314,    0.285,    0.039,    0.275,   -0.806,
       -0.010,    0.051,   -0.039,    0.382,    0.530,   -0.273,   -1.506,
        0.384,   -0.077,    0.230,   -0.145,    0.094,   -0.368,   -0.076,
        0.155,    2.216,   -0.035,   -0.336,   -0.364,    0.890,    0.051,
        0.316,   -0.329,   -0.002,   -0.498,   -2.635,   -2.185,   -0.210,
        0.308,    1.257,   -0.482,   -1.008,   -0.998,   -0.976,   -0.651,
       -0.152,   -1.067
    },
    {   1.435,   -0.026,    0.036,   -0.095,   -0.028,    0.053,   -0.920,
       -1.085,    0.402,   -0.655,    0.021,    0.522,    0.455,   -0.054,
       -0.058,    0.103,    0.297,   -0.054,    2.215,   -0.141,   -0.202,
       -0.535,    0.407,   -0.477,    0.501,    0.325,   -0.054,    0.668,
       -0.167,   -0.213,   -0.019,    0.181,   -0.158,   -0.024,   -0.145,
        0.044,    1.608,    0.569,   -0.352,   -0.399,   -0.414,    0.574,
       -0.320,   -0.378,    0.424,    1.859,   -0.561,    0.045,    0.290,
       -0.637,   -0.392,    0.216,    0.031,    0.182,    2.119,    0.062,
        0.177,   -0.202,   -0.731,    0.022,    0.339,   -0.086,    0.090,
       -3.247,    0.154,   -0.173,    0.061,    0.109,    0.212,    0.467,
        0.599,    0.032,   -1.240,    0.082,    0.377,   -1.271,    0.134,
        0.006,   -0.291,   -0.351,    0.104,   -0.722,    0.012,   -0.586,
        0.039,    0.047,   -0.044,    0.055,    0.155,   -0.098,   -0.924,
       -0.103,   -1.028,   -0.023,   -0.291,    0.227,    0.105,    0.427,
        0.468,    1.950,   -0.220,   -0.263,   -0.329,    0.932,   -0.250,
        0.390,   -0.140,    0.018,   -1.395,   -2.519,   -1.768,    1.452,
        1.064,    0.384,   -0.236,   -1.202,   -1.352,   -1.040,   -2.296,
       -0.134,   -1.743
    },
    {   1.510,   -0.053,   -0.172,    0.028,   -0.059,   -0.033,   -1.089,
       -1.126,    0.411,   -1.337,   -0.115,    1.005,    0.872,   -0.083,
        0.033,   -0.091,    0.130,   -0.144,    2.893,    0.292,   -0.197,
        0.447,   -0.043,   -0.541,   -0.350,    0.482,   -0.487,   -2.201,
       -0.174,   -0.217,    0.111,   -0.471,   -0.087,   -0.392,    0.209,
        0.312,    1.811,   -0.242,   -0.471,   -0.454,    0.035,   -0.161,
        0.164,    0.153,   -0.022,    2.017,    0.059,   -0.150,   -0.317,
       -0.999,   -0.053,    0.386,   -0.103,    0.049,    1.232,   -0.010,
       -0.725,    0.368,   -0.149,    0.044,   -0.439,   -0.422,    0.272,
        0.708,   -0.435,    0.229,    0.196,   -0.080,   -0.246,    0.112,
        0.059,   -0.404,   -1.162,   -0.133,   -0.053,   -0.364,    0.027,
        0.114,   -0.253,   -0.364,    0.161,    0.037,    0.092,   -0.526,
       -0.059,   -0.084,   -0.020,    0.209,    0.405,   -0.024,   -1.439,
       -0.223,   -0.237,    0.614,    0.384,   -0.137,   -0.296,    0.007,
       -0.119,    2.243,   -0.209,   -0.510,   -0.426,    0.780,   -0.116,
        0.388,   -0.424,    0.052,   -1.567,   -2.776,   -1.240,   -0.003,
        0.148,    2.029,   -1.466,    2.002,    0.197,   -1.763,   -1.646,
       -1.341,   -1.365
    },
    {   1.849,   -0.026,    0.067,   -0.161,   -0.024,    0.069,   -1.370,
       -1.504,    0.577,   -1.540,    0.002,    0.842,    1.025,   -0.097,
       -0.187,    0.060,    0.337,   -0.181,    2.468,   -0.247,   -0.526,
       -0.151,    0.375,   -0.626,    0.295,   -0.005,   -0.217,    2.735,
        0.004,   -0.349,   -0.461,    0.704,   -0.204,   -0.256,    0.214,
        0.156,    2.137,    0.505,    0.242,   -0.151,   -0.050,    0.070,
        0.299,    0.300,   -0.076,    1.935,   -0.015,   -0.069,   -0.204,
       -1.228,    0.032,    0.350,   -0.086,   -0.097,    1.427,   -0.023,
       -0.902,    0.682,   -0.040,   -0.060,    0.030,    0.136,    0.056,
        1.770,   -0.158,   -0.303,    0.287,   -0.162,   -0.415,    0.218,
       -0.696,    0.793,   -1.961,   -0.325,   -0.610,    1.174,    0.096,
        0.137,   -0.313,   -0.642,    0.540,   -0.453,    0.048,   -0.710,
       -0.279,    0.020,   -0.022,    0.029,    0.233,   -0.133,    1.185,
       -0.604,    0.400,   -0.469,    0.257,    0.065,    0.231,   -0.672,
       -0.063,    2.472,   -0.319,   -0.466,   -0.426,    1.105,    0.033,
        0.475,   -0.435,   -0.124,   -0.686,   -1.468,   -1.499,    1.161,
       -0.239,   -0.090,   -0.526,    1.278,   -0.295,   -0.565,   -1.288,
        0.204,   -1.196
    },
    {   2.338,   -0.062,   -0.139,   -0.063,   -0.017,    0.047,   -1.369,
       -1.382,    0.552,   -1.149,   -0.256,   -0.670,    0.121,    0.150,
        0.078,   -0.431,   -0.352,    0.246,    0.983,    0.029,   -0.556,
       -0.552,    0.040,    0.020,    0.034,   -0.216,    0.063,    1.077,
       -0.169,    0.554,    0.032,    0.542,   -0.068,    0.622,    0.413,
        0.249,    1.083,   -0.162,   -0.172,   -0.118,    0.044,    0.147,
       -0.200,    0.572,   -0.279,    2.032,   -0.400,    0.141,    0.014,
        0.267,   -0.128,    0.027,    0.029,    0.014,    1.205,    0.021,
       -0.701,    0.784,   -0.052,   -0.062,   -0.118,    0.094,   -0.039,
       -1.495,   -0.341,   -0.021,   -0.483,    0.473,   -0.412,    0.152,
        0.449,   -0.480,   -0.627,    0.101,   -0.366,    0.118,    0.176,
       -0.217,   -0.737,    0.507,    0.199,   -0.122,    0.089,   -0.573,
       -0.150,    0.045,   -0.075,    0.300,    0.365,   -0.100,   -1.485,
       -0.181,    0.147,    0.103,    0.526,   -0.077,   -0.092,    0.265,
        0.048,    2.010,   -0.171,   -0.288,   -0.367,    0.806,    0.013,
        0.390,   -0.316,   -0.005,    1.320,   -4.676,   -0.820,    2.825,
        0.209,    0.057,    2.064,    1.366,   -0.386,   -0.099,   -1.302,
        1.737,   -1.404
    },
    {   1.690,   -0.104,   -0.107,   -0.063,   -0.082,   -0.036,   -1.235,
       -1.297,    0.493,   -0.452,   -0.254,    1.145,    0.282,   -0.651,
       -0.751,   -0.033,    0.570,    0.815,    1.112,    0.033,   -0.718,
       -0.778,    0.009,    0.014,   -0.190,   -0.394,    0.079,    0.285,
        0.525,   -0.523,   -0.566,    0.795,   -0.116,   -0.103,   -0.319,
       -1.043,    1.213,    0.207,    0.230,    0.012,   -0.213,   -0.140,
       -0.148,    0.381,    0.576,    2.541,   -1.267,   -0.113,    0.034,
        0.308,   -0.553,   -0.250,   -0.490,    0.397,    1.025,   -0.031,
       -0.567,    0.753,   -0.093,   -0.019,    0.048,   -0.040,   -0.044,
       -3.097,    0.094,    0.630,    0.671,    0.182,    0.368,   -0.546,
       -0.512,    0.292,   -1.441,    0.845,    0.549,    0.325,   -0.307,
       -0.025,    0.023,   -0.182,    0.138,   -0.696,    0.036,   -0.799,
        0.041,   -0.056,   -0.032,   -0.078,    0.036,    0.068,   -2.427,
       -0.126,    0.366,    0.108,    1.331,   -0.029,   -0.607,    0.187,
        0.183,    4.071,   -0.546,   -0.478,   -0.370,    1.762,   -0.042,
        0.528,   -1.012,   -0.255,   -0.875,   -1.809,   -0.118,    1.397,
       -0.150,    0.252,    0.363,    1.269,   -1.024,    0.007,   -1.285,
        0.628,   -0.772
    },
    {   1.742,   -0.089,    0.051,   -0.046,   -0.009,    0.019,   -1.172,
       -1.250,    0.406,    0.668,    0.202,    0.705,   -0.041,    0.314,
       -0.442,   -0.599,    0.792,    0.046,    1.462,    0.037,   -0.903,
       -0.787,    0.154,   -0.004,   -0.096,   -0.210,    0.041,    2.079,
        0.367,   -0.324,    0.483,   -0.667,    0.154,   -0.332,   -0.473,
        0.503,    0.913,   -0.027,    0.850,   -0.409,    0.084,   -0.136,
        0.281,    0.400,   -0.002,   -0.235,    0.036,   -0.093,   -0.116,
       -0.192,    0.141,   -0.156,    0.340,   -0.078,    0.731,   -0.201,
       -0.350,    0.842,    0.074,   -0.031,   -0.198,   -0.056,   -0.000,
        3.262,    0.310,   -0.354,    0.555,   -0.272,   -0.907,    0.135,
        0.416,    0.211,   -1.677,    0.232,    0.056,    0.491,    0.483,
        0.227,    0.114,   -0.038,   -0.197,   -0.738,   -0.160,   -0.872,
        0.187,    0.204,   -0.234,    0.477,    0.479,   -0.037,   -2.180,
        0.017,    0.008,    0.224,    0.998,    0.073,    0.046,    0.154,
       -0.171,    2.011,   -0.071,   -0.349,   -0.289,    0.893,    0.006,
        0.368,   -0.182,    0.052,    0.803,   -2.493,   -0.387,    1.582,
        0.212,    0.964,   -0.314,    1.153,    0.748,   -0.840,   -0.784,
        1.759,   -1.260
    },
    {   1.925,   -0.026,   -0.050,   -0.136,   -0.046,   -0.027,   -1.411,
       -1.521,    0.487,    0.771,    0.407,    0.834,    0.719,   -0.013,
       -0.182,   -0.474,    0.766,   -0.160,    1.196,    0.038,   -0.974,
       -0.544,    0.064,   -0.003,    0.009,   -0.319,    0.123,    1.642,
       -0.480,    0.012,    0.502,    0.428,   -1.477,   -0.288,    0.368,
       -0.115,    0.513,    0.185,    0.868,    0.089,    0.112,    0.126,
       -1.103,   -0.700,    0.039,   -6.380,   -0.309,    0.870,   -1.034,
       -1.169,    0.949,   -0.972,    0.514,    0.067,    1.270,   -0.030,
       -0.238,    1.293,   -0.196,    0.011,    0.430,    0.452,   -0.325,
        2.263,   -0.426,   -0.361,    0.314,    0.280,    0.190,    0.375,
       -0.212,    0.159,   -5.038,   -0.086,    0.294,   -0.147,    0.257,
        0.811,    0.827,    0.459,   -0.371,   -1.029,   -0.007,   -1.043,
        0.605,   -0.092,    0.032,   -0.403,   -0.196,   -0.240,   -3.084,
       -0.142,    0.427,   -0.087,    1.394,   -0.026,   -1.252,   -0.399,
        0.408,    2.998,   -0.104,   -0.450,   -0.538,    1.415,   -0.103,
        0.717,   -0.191,    0.035,    1.457,   -2.409,   -0.304,    1.708,
        0.177,    0.781,    0.116,    1.103,   -0.200,   -0.056,   -0.822,
        0.685,   -0.914
    },
    {   1.671,   -0.029,    0.017,   -0.012,   -0.025,   -0.037,   -1.067,
       -1.091,    0.403,    0.391,    0.204,    0.444,    0.443,    0.158,
       -0.271,   -0.262,    0.632,   -0.040,    1.158,    0.041,   -0.745,
       -0.536,    0.076,    0.173,   -0.053,   -0.275,    0.107,    1.631,
        0.133,    0.219,   -0.134,   -0.063,    0.740,    0.380,    0.179,
        0.220,    0.607,    0.094,    0.314,    0.395,    0.138,   -0.158,
       -0.514,   -0.365,    0.116,   -3.329,   -0.254,   -0.899,    0.162,
       -0.308,   -0.427,    0.971,   -0.760,   -0.019,    0.866,   -0.323,
       -0.308,    1.088,   -0.081,   -0.036,   -0.053,    0.316,   -0.244,
        2.308,    0.132,   -1.301,    0.027,   -0.100,   -0.205,    0.063,
        0.436,    0.027,   -2.499,   -0.057,    0.136,    0.206,   -0.400,
       -0.729,   -0.362,   -0.411,   -0.171,   -0.729,    0.022,   -0.612,
        0.405,   -0.076,    0.191,   -0.183,   -0.224,    0.100,   -2.047,
        0.059,    0.190,    0.191,    1.023,   -0.209,   -0.350,   -0.048,
        0.150,    2.252,   -0.198,   -0.189,   -0.341,    1.132,   -0.127,
        0.379,   -0.733,   -0.066,    1.931,   -2.781,   -0.643,    1.501,
        1.316,    1.239,    0.042,    0.760,    0.703,    2.225,   -1.247,
        0.889,   -0.712
    },
    {   1.913,   -0.030,   -0.027,   -0.023,   -0.024,    0.021,   -1.257,
       -1.335,    0.514,   -0.922,    0.371,    0.215,    0.566,   -0.300,
        0.263,    0.294,    0.482,   -0.011,    1.145,    0.091,   -0.849,
       -0.648,    0.110,    0.061,    0.036,   -0.202,    0.153,   -2.087,
        0.490,    0.142,    0.198,   -0.141,    0.584,    0.805,   -0.443,
       -0.035,    0.617,    0.309,    0.791,    0.068,   -0.060,    0.024,
       -0.681,   -0.179,    0.235,    1.119,    0.103,    0.165,    0.307,
       -0.068,   -0.931,   -0.135,   -0.008,   -0.180,    0.650,   -0.123,
       -0.123,    0.746,   -0.038,    0.026,   -0.121,    0.048,    0.001,
        0.599,    0.303,    0.746,    0.215,    0.041,   -0.193,   -0.319,
        0.672,    0.012,    0.183,   -0.604,   -0.023,    0.143,    0.049,
       -0.161,   -0.122,    0.328,    0.677,   -0.911,   -0.052,   -0.625,
        0.221,   -0.030,    0.036,   -0.194,   -0.131,   -0.005,   -2.223,
       -0.288,   -0.053,    0.236,    1.068,    0.248,   -0.761,    0.086,
        0.064,    2.286,   -0.217,   -0.332,   -0.462,    1.023,    0.030,
        0.426,   -0.208,    0.118,    0.491,   -2.682,   -0.238,    1.617,
       -0.254,    0.674,    0.119,    1.481,   -0.701,   -0.074,   -1.967,
        0.431,   -1.119
    },
    {   1.655,   -0.082,    0.144,   -0.113,   -0.040,    0.050,   -1.234,
       -1.374,    0.529,   -0.718,    0.026,   -0.672,    0.254,    0.037,
       -0.079,    0.061,    0.170,   -0.020,    1.121,    0.027,   -0.921,
       -0.685,   -0.007,    0.078,   -0.000,   -0.126,    0.057,    2.393,
       -0.432,   -0.522,    0.302,   -0.016,    0.348,   -0.496,   -0.327,
        0.091,   -2.492,    0.385,   -0.228,   -0.421,    0.742,   -0.083,
       -0.040,   -1.123,   -0.017,    1.318,   -0.367,   -0.369,    0.142,
        0.289,   -0.627,    0.008,   -0.156,   -0.332,    0.958,   -0.005,
       -0.275,    1.077,   -0.187,   -0.241,    0.282,    0.465,   -0.391,
        0.072,   -0.256,    0.952,    0.123,   -0.229,   -0.711,    0.995,
       -0.209,    0.297,   -1.286,   -0.457,   -0.686,    0.236,   -1.021,
        1.001,    0.019,    0.431,    0.495,   -0.790,   -0.008,    0.309,
       -0.653,    0.127,   -0.314,    0.309,    0.294,   -0.222,   -1.983,
        0.190,    0.088,   -0.300,    1.436,    0.005,   -0.709,    0.231,
        0.365,    2.356,   -0.324,   -0.303,   -0.199,    0.947,   -0.024,
        0.608,   -0.252,   -0.298,    0.277,   -1.881,   -1.765,    1.407,
        0.071,    0.348,    0.315,    0.722,    0.345,    0.041,   -0.743,
        0.583,   -0.775
    },
    {   1.673,   -0.059,    0.026,   -0.082,   -0.003,   -0.049,   -1.239,
       -1.404,    0.422,   -0.546,    0.062,   -0.714,    0.264,    0.002,
       -0.175,    0.242,    0.401,   -0.029,    1.312,    0.075,   -1.068,
       -0.468,    0.029,   -0.002,    0.015,   -0.207,    0.075,   -3.170,
        0.393,   -0.080,    0.898,   -0.100,    0.752,   -0.082,    0.091,
        0.101,   -3.040,   -0.363,    0.529,    0.559,    1.416,    0.342,
       -0.303,    0.383,   -0.023,   -1.994,    0.189,   -0.313,   -0.062,
        0.170,   -1.390,    0.947,   -0.705,   -0.587,    0.827,   -0.399,
        0.988,   -0.648,   -1.267,    0.078,   -0.558,   -0.604,   -0.250,
       -1.212,   -0.146,   -0.935,    0.779,    0.124,    0.193,   -0.601,
       -0.372,   -0.164,    1.019,    0.121,   -0.884,   -0.003,   -0.150,
       -0.379,    0.111,   -0.156,    0.436,   -0.956,    0.167,    0.142,
       -1.242,    0.043,    0.006,    0.048,    0.083,    0.062,   -1.494,
        0.116,    0.001,   -0.116,    0.627,   -0.187,   -0.460,    0.316,
        0.601,    2.638,   -0.097,   -0.455,   -0.411,    1.264,   -0.112,
        0.608,   -0.393,    0.214,    0.240,   -1.724,   -1.037,    1.561,
       -0.728,    0.436,    0.161,   -0.076,   -0.445,    0.086,   -0.922,
        0.412,   -0.927
    },
    {   1.878,   -0.072,    0.033,   -0.036,   -0.087,    0.087,   -1.325,
       -1.446,    0.560,   -1.130,   -0.189,   -1.026,   -0.194,    0.004,
        0.413,   -0.629,   -0.440,   -0.715,    1.186,    0.039,   -0.609,
       -0.774,    0.032,    0.087,   -0.035,   -0.194,    0.068,    3.751,
       -0.327,   -0.001,    0.536,   -0.384,    0.700,    0.170,    0.987,
        0.291,   -3.258,   -0.357,    0.359,    0.374,    1.837,   -0.180,
       -0.519,    0.325,    0.282,    3.364,    0.701,    0.661,    0.021,
        0.045,   -0.115,    0.296,   -0.240,    0.083,    1.846,   -0.050,
       -1.234,    1.230,   -0.063,    0.248,   -0.343,   -0.506,    0.376,
       -3.158,    0.598,    0.095,    0.592,   -0.561,    0.834,   -0.572,
       -0.065,    0.146,    0.684,   -0.100,    1.021,    0.048,    0.100,
        0.292,   -0.146,   -0.388,    0.004,   -0.831,    0.187,    0.774,
       -1.216,    0.162,    0.294,    0.034,   -0.484,    0.283,   -2.709,
       -0.507,   -0.498,    0.287,    0.678,   -0.023,   -0.101,   -0.223,
        0.032,    3.404,   -0.261,   -0.292,   -0.485,    1.677,   -0.102,
        0.538,   -0.406,    0.127,   -0.649,   -2.041,   -0.244,    1.724,
       -0.489,    0.662,    0.161,    0.683,   -0.933,    1.139,   -0.451,
       -1.249,   -1.142
    },
    {   2.161,   -0.042,    0.028,   -0.066,   -0.014,    0.000,   -1.252,
       -1.344,    0.498,    3.677,    0.876,    0.161,    0.212,   -0.142,
        0.378,    0.815,    0.351,   -0.494,    1.328,    0.035,   -0.687,
       -0.891,    0.119,    0.029,    0.011,   -0.266,    0.091,   -2.746,
       -0.058,    0.164,   -0.694,   -0.062,   -0.145,   -0.753,   -0.789,
        0.287,   -2.891,   -0.561,    0.234,    0.066,    1.316,    0.205,
       -0.780,   -0.012,    0.483,   -1.255,   -0.840,   -0.679,   -1.009,
       -0.038,    0.474,    0.489,   -1.426,   -0.058,    1.584,    0.271,
       -1.034,    0.696,   -0.110,   -0.161,   -0.399,   -0.036,    0.224,
       -4.148,   -0.091,    0.392,   -0.739,   -0.697,    0.144,   -0.234,
        0.059,   -0.430,    0.917,    0.003,    1.365,   -0.081,    0.179,
        0.059,   -0.290,   -0.306,   -0.038,   -0.872,    0.072,    0.644,
       -1.271,    0.045,    0.070,   -0.161,   -0.173,    0.110,   -1.031,
       -0.338,   -0.873,    0.239,    0.104,    0.253,   -0.373,   -0.400,
       -0.445,    3.130,    0.049,   -0.350,   -0.528,    1.639,   -0.458,
        0.767,   -0.451,    0.231,    1.297,   -3.703,    0.838,    1.428,
        0.162,    0.642,    0.207,    0.454,   -0.606,    0.801,   -0.708,
       -0.465,   -0.679
    },
    {   1.966,   -0.120,    0.179,   -0.162,   -0.176,    0.011,   -1.462,
       -1.636,    0.573,    1.048,   -0.276,    0.693,   -0.247,   -0.337,
       -0.509,   -0.505,   -0.525,    0.456,    1.258,   -0.078,   -1.119,
       -0.868,    0.026,   -0.027,   -0.106,   -0.218,    0.195,   -3.604,
        0.869,    0.408,    0.050,    1.159,    0.107,    0.314,   -0.594,
        0.046,   -2.400,   -0.226,    0.067,    0.041,    1.222,   -0.089,
       -0.546,    0.159,    0.310,   -0.114,   -0.020,    0.106,   -0.326,
        0.111,    0.371,    0.538,   -0.800,    0.295,    0.998,    0.285,
       -0.452,    1.069,   -0.138,    0.016,    0.355,    0.412,   -0.137,
       -1.444,    0.668,    0.465,   -1.768,   -0.196,    0.185,   -0.090,
       -0.512,    0.548,    2.771,   -0.250,    0.420,    0.484,    0.113,
       -0.719,   -0.180,    0.574,   -0.437,   -2.114,    0.374,   -0.086,
        0.051,    0.390,   -0.253,    0.887,    0.206,   -0.067,   -0.994,
       -0.027,   -0.886,    0.259,    0.038,   -0.087,    0.066,    0.202,
        0.043,    2.433,   -0.105,   -0.423,   -0.204,    1.429,    0.125,
        0.598,    0.099,    0.019,    0.195,   -1.692,    0.217,    1.142,
        0.200,    0.676,    0.288,    0.594,   -0.400,    0.252,   -0.274,
       -1.328,   -0.610
    },
    {   1.806,   -0.089,    0.014,   -0.022,   -0.016,    0.013,   -1.625,
       -1.684,    0.590,    2.545,   -0.633,    0.025,   -0.660,    0.313,
       -0.843,   -0.055,    0.009,   -0.121,    1.624,    0.009,   -1.121,
       -1.145,    0.148,    0.267,   -0.221,   -0.529,    0.291,   -0.994,
       -0.030,   -0.797,    0.363,    0.072,    0.399,   -0.641,   -0.631,
        0.309,   -1.799,   -0.032,    0.250,    0.174,    0.801,    0.273,
       -0.535,   -0.142,    0.094,   -1.161,   -0.072,    0.067,   -0.246,
        0.758,    0.456,    1.384,   -0.403,    0.199,    1.040,   -0.212,
       -0.316,    1.283,   -0.058,    0.073,   -0.212,    0.100,   -0.319,
       -2.151,   -0.271,    1.474,   -0.484,    0.334,    0.426,    0.104,
       -0.419,   -0.199,    0.953,   -0.439,    0.973,    0.319,    0.278,
        0.210,    0.813,   -0.126,    0.289,    1.438,    0.455,    1.301,
        0.368,   -0.010,   -0.603,   -0.518,    0.616,   -0.005,   -0.990,
       -0.250,   -0.964,   -0.148,    0.055,    0.248,    0.700,    0.129,
       -0.191,    3.122,   -0.467,   -0.397,   -0.873,    1.745,   -0.282,
        0.978,    0.350,   -0.230,   -0.341,   -1.539,    0.642,    1.087,
       -0.816,    0.652,    0.272,    0.758,   -0.669,    0.128,   -1.091,
       -1.506,   -0.706
    },
    {   2.392,   -0.097,   -0.004,   -0.002,    0.036,   -0.011,   -1.978,
       -2.073,    0.806,    1.558,   -0.012,   -0.799,    1.076,   -0.190,
       -0.030,   -0.266,   -0.048,    0.268,    1.751,    0.174,   -1.211,
       -0.769,    0.056,   -0.022,    0.010,   -0.259,    0.070,   -2.925,
       -0.170,   -1.463,    1.729,   -0.349,    0.116,    0.126,   -0.183,
       -0.424,   -2.591,   -0.466,    0.484,    0.313,    1.407,    0.162,
       -0.534,    0.418,    0.131,    8.479,    0.083,   -0.097,    0.817,
        0.029,   -0.317,   -0.501,   -0.144,    0.854,   -0.442,   -0.528,
       -0.804,   -0.876,    0.087,    2.218,   -1.426,   -0.005,   -0.349,
       -2.872,    0.121,   -1.491,   -0.710,    0.213,    0.528,   -0.324,
       -0.830,    0.388,   -1.215,   -0.117,   -0.888,   -0.228,   -0.245,
       -0.425,    0.234,    0.403,    0.034,    0.443,    0.694,   -0.313,
        0.433,    0.066,   -0.664,   -1.059,    1.317,    0.152,    2.486,
       -0.976,    0.073,   -0.414,   -0.615,    1.435,   -0.359,   -0.902,
       -0.616,    4.387,    0.519,   -0.486,   -0.578,    2.674,    0.171,
        0.859,   -0.399,    0.185,   -0.699,   -1.441,    0.710,    0.988,
       -0.482,    0.542,    0.650,   -0.103,   -0.492,   -0.539,   -0.193,
       -0.044,   -0.571
    },
    {   2.684,   -0.064,    0.079,   -0.066,   -0.151,   -0.019,   -2.299,
       -2.208,    0.790,    2.798,    0.173,   -1.938,   -0.482,   -0.073,
       -0.046,    0.534,    0.560,   -0.109,    2.567,    0.361,   -1.427,
       -1.755,    0.359,   -0.226,    0.521,   -0.039,   -0.445,   -2.261,
       -0.173,   -0.755,    1.380,    0.213,   -0.455,    0.226,    0.137,
       -0.146,   -3.953,   -0.396,    0.061,    0.076,    2.354,   -0.242,
       -0.800,    0.224,    0.542,   -1.187,    0.874,    0.306,    0.089,
       -1.161,    0.664,    1.408,    0.271,    0.107,   -3.575,    0.900,
        0.094,    1.300,    0.066,    0.559,   -0.095,   -0.209,   -0.436,
       -2.376,   -0.135,   -1.309,   -0.753,    0.165,    0.058,   -0.316,
       -0.389,    0.384,    0.558,    0.124,   -0.069,   -0.193,   -0.344,
        0.312,    0.008,    1.014,   -0.231,    4.967,   -0.155,   -0.707,
        0.343,   -0.016,   -0.254,   -0.439,   -0.323,   -0.261,    2.133,
       -0.105,   -1.045,    1.260,   -0.271,    0.513,    0.005,    0.452,
        0.230,    2.379,   -0.032,   -0.527,   -0.384,    1.052,   -0.075,
        0.681,   -0.058,    0.074,    0.912,   -1.660,    0.656,    0.327,
       -0.735,    0.608,    0.024,   -0.386,   -0.903,   -0.487,   -0.868,
        0.606,   -0.875
    },
    {   2.497,   -0.126,    0.079,   -0.032,   -0.128,   -0.003,   -2.272,
       -2.396,    0.825,    4.399,   -0.985,    0.523,   -0.867,    0.609,
        0.387,   -0.578,    0.302,   -0.426,    1.282,    0.009,   -0.995,
       -0.764,    0.075,    0.006,    0.072,   -0.092,    0.108,   -0.543,
        0.000,   -1.006,    0.265,   -0.085,   -0.132,    0.238,    0.440,
       -0.224,   -3.319,   -0.171,    0.382,    0.182,    1.854,   -0.004,
       -1.050,   -0.153,    0.510,    0.385,   -0.178,   -0.023,    1.009,
       -0.563,    0.569,   -0.786,    0.335,    0.359,   -1.617,    0.486,
       -0.377,   -0.211,   -0.112,   -0.731,    0.508,   -0.723,    0.035,
       -1.140,   -0.059,   -0.722,    0.318,   -0.024,    0.032,   -0.297,
       -0.155,    0.295,   -0.133,   -0.160,    1.223,    0.739,   -1.185,
        0.647,    0.371,   -0.545,    0.690,    2.044,    0.037,   -0.049,
       -0.055,   -0.690,    0.146,   -0.782,    0.186,   -0.583,    1.192,
       -0.172,   -0.490,    1.624,   -0.075,    0.010,    0.022,    0.257,
       -0.343,    3.051,   -0.463,   -0.370,   -0.833,    1.325,    0.345,
        0.840,   -0.448,    0.207,   -0.506,   -1.045,    0.761,    1.361,
       -0.568,    0.462,    0.203,    0.313,   -0.821,    0.084,   -0.176,
        0.760,   -0.626
    },
    {   2.419,   -0.056,   -0.021,   -0.180,   -0.236,   -0.045,   -2.425,
       -2.458,    0.841,    5.446,    0.009,   -0.557,   -0.571,    1.157,
       -1.979,    0.820,    0.659,   -0.940,    1.550,   -0.027,   -1.301,
       -0.791,   -0.055,    0.058,   -0.170,   -0.373,    0.166,   -1.045,
       -0.030,   -2.116,    0.123,   -0.039,   -0.654,    1.043,    1.070,
       -0.379,   -5.728,   -0.249,    0.303,    0.526,    3.554,   -0.018,
       -0.572,    0.071,    0.389,    6.933,   -0.791,    0.643,   -0.196,
       -0.941,   -0.344,    0.729,    1.675,    0.303,    1.788,    0.386,
       -1.079,    0.062,    0.313,   -0.201,    0.660,   -0.191,   -0.759,
       -2.301,    0.527,   -1.588,    1.325,   -0.347,    0.657,   -0.980,
       -0.355,    0.212,    3.809,    1.161,    1.039,   -1.504,   -0.392,
        0.730,    0.949,    0.247,    0.548,   -4.697,    0.152,   -1.057,
        0.642,    0.561,   -0.281,    1.922,    0.883,   -0.147,    2.063,
       -0.073,   -0.477,    2.614,   -0.348,   -0.376,    0.460,    0.494,
       -0.361,    4.951,   -0.550,   -0.503,   -0.840,    1.903,   -0.054,
        0.477,   -1.505,    0.313,    0.072,   -1.005,   -0.013,    1.133,
       -0.430,    0.583,   -0.084,   -0.046,   -0.303,    0.288,   -0.535,
        0.594,   -0.738
    },
    {   2.089,   -0.041,    0.036,    0.018,   -0.023,   -0.005,   -2.000,
       -1.986,    0.782,    3.541,   -0.265,   -0.521,   -0.409,    0.906,
       -0.990,    0.304,   -0.241,   -0.075,    1.269,    0.089,   -0.503,
       -1.321,   -0.052,    0.109,   -0.040,   -0.255,    0.163,    1.645,
       -0.160,    0.344,    0.096,   -0.200,   -0.850,    0.191,    0.258,
        0.765,   -2.900,    0.110,   -0.053,    0.533,    1.965,    0.006,
        0.078,    0.624,   -0.273,   -1.645,   -1.094,   -0.901,   -0.538,
       -0.893,   -0.833,   -0.947,   -0.462,    0.325,    3.298,   -0.154,
        0.559,   -0.000,   -1.071,   -0.390,   -0.691,   -0.596,   -0.441,
       -0.898,    0.090,   -1.209,   -0.332,    0.040,    0.073,    0.060,
        0.265,    0.006,    0.134,    0.879,    0.866,    0.281,   -1.079,
        0.042,   -0.064,    0.461,    2.219,    1.037,    0.267,    1.024,
       -0.059,    0.567,    0.044,    0.343,    0.330,   -0.360,    1.220,
       -0.140,   -0.793,    0.626,   -0.084,    0.038,   -0.161,   -0.060,
        0.085,    3.928,   -0.498,   -0.493,   -0.619,    1.742,   -0.309,
        0.661,   -0.775,    0.149,   -0.667,   -1.258,    0.654,    1.016,
        0.073,    0.617,   -0.111,    0.486,   -0.931,   -0.007,   -0.055,
        1.230,   -0.804
    },
    {   2.375,   -0.036,    0.061,   -0.082,   -0.042,   -0.060,   -1.728,
       -1.732,    0.597,    2.295,   -0.038,   -1.163,   -0.026,    0.039,
       -0.694,    0.347,    0.040,   -0.128,    1.347,    0.094,   -1.077,
       -0.878,    0.072,    0.157,   -0.015,   -0.253,    0.082,    3.009,
        0.532,    0.042,   -0.364,   -0.100,   -0.221,   -0.909,   -0.416,
        0.246,   -2.549,    0.009,   -0.052,    0.131,    1.608,    0.038,
       -0.411,   -0.008,    0.165,    1.792,   -0.474,    0.329,    0.490,
       -0.077,   -0.257,   -0.010,   -0.231,    0.268,    0.968,   -0.040,
        0.002,    1.206,   -0.242,    0.329,   -0.374,   -0.318,    0.586,
       -1.061,    0.098,   -0.893,    0.398,    0.052,    0.047,   -0.198,
       -0.054,    0.180,    0.815,    0.019,    0.459,    0.232,   -1.319,
       -0.449,    0.281,   -0.912,    0.916,    4.041,    0.045,   -0.878,
       -0.354,    0.164,   -1.074,   -0.334,   -0.428,    0.272,    0.925,
       -0.252,   -0.460,    1.259,    0.216,   -0.325,    0.079,    0.393,
       -0.446,    2.713,   -0.516,   -0.153,   -0.440,    0.698,   -0.255,
        0.838,   -0.516,   -0.484,    0.640,   -1.905,    0.462,    0.939,
        0.214,    0.587,   -0.165,    0.474,   -1.348,    0.115,   -0.080,
        0.463,   -0.647
    },
    {   1.932,   -0.179,   -0.057,    0.051,   -0.244,    0.006,   -1.774,
       -2.006,    0.633,    1.073,   -0.462,   -0.225,    1.643,    0.004,
       -0.081,   -0.345,    0.342,   -0.162,    2.421,    0.516,   -0.842,
        1.677,   -0.413,   -0.063,    0.053,   -0.277,   -0.267,    0.414,
       -0.757,    1.008,    0.039,   -0.745,    0.550,   -0.195,    0.820,
        1.353,   -3.239,   -0.194,    0.192,    0.007,    1.788,   -0.093,
       -0.680,   -0.354,    0.080,    2.290,   -0.609,    0.181,    0.589,
       -0.364,    0.743,   -0.442,    0.743,   -0.151,    1.436,    0.115,
       -1.302,   -0.860,    0.058,   -0.072,   -0.034,   -0.267,    0.178,
       -1.482,   -0.243,   -1.311,    0.558,   -0.050,    0.161,   -0.620,
       -0.380,    0.045,   -0.330,   -0.567,   -0.109,   -0.324,   -0.076,
        0.426,    0.435,   -0.735,   -0.001,    3.303,   -0.240,    0.367,
       -1.612,    0.031,    0.110,    0.391,    0.062,   -0.204,    0.663,
        0.325,    1.335,   -0.092,    0.159,    0.138,   -1.199,   -0.873,
       -0.089,    2.268,   -0.110,   -0.130,   -0.619,    1.142,   -0.110,
        0.446,   -0.328,   -0.025,    0.100,   -1.017,    0.653,    0.317,
        0.118,    0.684,   -0.186,    0.976,   -0.668,    0.345,    0.529,
        0.217,   -0.669
    },
    {   1.848,   -0.087,    0.006,    0.088,   -0.029,    0.042,   -1.547,
       -1.565,    0.648,    1.538,   -0.090,   -0.823,   -0.003,    0.084,
       -0.417,    0.064,    0.120,    0.005,    1.901,    0.217,    0.024,
       -0.189,   -1.165,   -0.230,    0.297,   -0.381,   -0.093,    0.934,
       -0.038,    0.784,   -0.561,    0.045,   -0.134,    0.178,    0.243,
       -0.034,   -3.209,    0.079,   -0.052,   -0.217,   -0.084,   -0.663,
        0.050,   -1.284,   -0.410,    3.445,   -0.227,   -0.073,    0.157,
       -0.760,    0.144,   -0.286,    0.941,    0.782,    1.453,    0.124,
       -1.026,   -0.803,    0.165,    0.223,   -0.065,   -0.227,    0.135,
       -1.071,   -0.259,   -0.777,   -0.721,    0.212,   -0.068,    0.228,
        0.235,   -0.639,   -0.484,   -0.055,   -0.693,   -0.276,   -0.352,
        0.453,    0.331,   -0.494,   -0.093,    0.894,   -0.105,   -0.066,
        1.370,   -0.020,    0.003,   -0.210,   -0.058,   -0.168,    1.066,
        0.076,    0.607,   -1.171,   -0.252,   -0.479,   -0.515,    1.146,
        0.219,    2.832,   -0.063,   -0.571,   -0.476,    1.471,   -0.122,
        0.607,   -0.131,    0.099,    0.169,   -1.260,    0.988,   -0.441,
        1.315,    0.428,   -0.041,    1.104,   -0.501,    0.228,    0.732,
       -0.188,   -1.089
    },
    {   1.703,    0.021,   -0.073,   -0.156,    0.007,    0.037,   -1.275,
       -1.378,    0.510,    1.388,    0.207,   -0.404,   -0.059,   -0.274,
        0.465,   -0.527,    0.186,    0.261,    2.045,    0.271,   -0.054,
       -0.097,   -0.620,   -0.152,   -0.013,   -0.454,    0.039,    1.439,
       -0.199,    0.981,   -0.802,    0.214,   -0.153,    0.691,    0.492,
       -0.244,    0.088,    0.158,   -0.614,    0.129,   -0.186,    1.022,
       -0.193,    0.208,   -1.066,    0.753,    0.205,    0.641,    0.076,
       -0.007,    0.097,   -0.219,   -0.351,    0.138,    1.172,    0.080,
       -0.692,   -0.511,    0.191,   -0.113,   -0.123,   -0.285,    0.087,
       -1.733,   -0.797,    0.909,   -1.057,    0.298,   -0.036,   -0.248,
       -0.185,   -0.004,   -0.330,   -0.550,   -0.529,   -0.760,    0.025,
        0.539,    0.574,   -1.113,    0.018,   -0.428,   -0.862,    0.043,
        0.284,   -0.821,    0.374,   -0.901,   -0.271,    0.560,   -1.563,
        0.579,    0.426,   -1.700,   -0.178,    0.228,    0.034,   -0.414,
        0.248,    3.002,    0.188,   -0.381,   -0.561,    1.669,   -0.189,
        0.643,   -0.128,    0.044,    0.132,   -2.190,    0.475,   -0.888,
        0.685,   -0.110,    1.327,    2.056,   -0.397,    0.243,    0.187,
       -0.630,   -0.967
    },
    {   1.818,   -0.180,   -0.052,   -0.020,   -0.046,   -0.006,   -1.298,
       -1.370,    0.555,    1.468,    0.689,    0.246,   -0.654,   -0.134,
       -0.722,   -0.428,   -0.969,   -0.456,   -1.878,    0.284,   -1.007,
        0.507,   -0.097,    0.359,   -0.195,    0.046,    0.465,    1.693,
        0.108,   -0.849,   -0.159,   -0.013,   -0.235,    0.173,    0.218,
       -0.010,    1.160,   -0.201,    0.952,    0.516,    0.830,    0.066,
       -0.457,   -0.165,   -0.374,    1.633,    0.404,    0.666,   -0.370,
       -0.181,   -0.018,    0.295,    0.380,    0.036,    1.090,   -0.087,
       -0.596,   -0.832,    0.110,   -0.026,   -0.221,   -0.396,    0.095,
       -0.178,    0.466,   -0.952,    0.245,   -0.122,    0.380,   -0.330,
        0.349,   -0.287,   -1.555,   -0.076,    0.132,    0.214,   -0.212,
        0.123,   -0.008,   -0.289,    0.012,   -1.622,   -0.130,    0.426,
        0.258,    0.667,    0.084,   -0.341,   -0.065,    0.063,   -0.923,
       -0.040,    0.361,   -1.275,    0.198,   -0.056,    0.242,    0.123,
       -0.066,    2.217,   -0.324,   -0.405,   -0.344,    1.031,    0.058,
        0.232,   -0.408,   -0.105,    1.882,   -1.973,   -0.274,   -0.459,
        1.428,    0.258,    0.867,    1.347,   -0.229,    2.074,    1.011,
       -0.704,   -1.003
    },
    {   1.876,   -0.085,    0.009,   -0.050,   -0.048,    0.019,   -1.323,
       -1.407,    0.501,    1.114,   -0.524,    1.096,    0.896,   -1.775,
       -0.905,   -0.085,    0.800,   -0.607,   -1.168,   -0.296,   -0.291,
        1.154,    0.169,    0.519,   -0.302,   -0.249,    0.393,   -1.455,
       -0.526,    1.009,   -0.513,    0.432,   -0.567,    0.289,    0.480,
        0.137,    1.394,   -0.185,   -0.028,   -0.544,    0.415,   -0.926,
        0.267,   -0.225,    0.157,    1.881,   -0.165,   -0.469,   -0.289,
       -0.209,   -0.172,    0.458,    0.292,    0.127,    1.026,   -0.125,
       -0.649,   -0.686,    0.024,    0.015,   -0.072,   -0.291,    0.129,
       -0.785,    0.038,   -0.657,    0.019,    0.020,   -0.046,   -0.034,
        0.056,    0.005,   -2.950,    0.715,    0.157,    0.022,    0.725,
        0.141,    0.928,    0.102,    0.075,   -3.060,   -0.258,    0.230,
        0.288,    1.810,    0.071,   -0.692,   -0.173,   -0.030,   -0.689,
        0.061,    0.354,   -0.826,    0.072,    0.138,    0.018,   -0.083,
       -0.042,    1.975,   -0.113,   -0.416,   -0.259,    0.765,   -0.101,
        0.461,   -0.282,   -0.002,    0.006,   -2.061,   -0.122,   -0.379,
       -0.335,   -0.097,    0.920,    1.496,   -1.894,    0.208,    0.896,
       -1.157,   -0.905
    },
    {   1.939,   -0.090,    0.090,   -0.013,    0.032,    0.027,   -1.727,
       -1.640,    0.678,   -0.558,    0.032,   -0.878,   -0.142,   -0.114,
       -0.081,    0.124,    0.328,   -0.210,   -0.344,    0.422,   -0.389,
        1.147,   -0.347,   -0.004,    0.224,   -0.816,   -0.220,   -1.616,
        0.003,    0.942,   -0.723,    0.004,    0.045,    0.152,    0.145,
       -0.317,    1.371,   -0.367,   -0.241,    0.020,    0.010,    0.143,
       -0.216,    1.011,   -0.766,    1.137,   -0.250,    0.165,   -0.677,
       -0.130,   -0.406,    0.399,    0.189,   -0.386,    1.038,    0.030,
       -0.709,   -0.610,   -0.005,    0.048,   -0.051,   -0.209,    0.087,
        0.198,    0.113,    0.345,    0.104,    0.394,   -0.591,    0.271,
       -0.139,   -0.088,    0.066,   -0.911,   -0.999,   -0.285,    0.904,
       -0.259,   -1.580,   -0.068,    0.990,   -1.920,    0.002,    0.221,
        0.298,    1.018,    0.052,   -0.228,    0.337,   -0.032,   -1.607,
        0.554,    0.573,   -1.533,    0.202,    0.207,   -0.059,   -0.723,
        1.065,    2.196,   -0.207,   -0.313,   -0.384,    0.930,   -0.047,
        0.343,   -0.525,    0.058,    0.478,   -1.444,   -1.234,   -0.048,
       -0.805,   -0.274,    0.564,    1.652,   -0.041,   -0.095,    0.981,
       -0.507,   -1.102
    },
    {   1.798,   -0.114,   -0.153,   -0.098,   -0.056,    0.052,   -1.185,
       -1.255,    0.525,    0.583,    0.103,    0.243,   -0.399,   -0.256,
       -0.651,   -0.301,   -0.972,   -0.351,   -0.416,   -0.006,   -0.697,
       -0.303,    0.024,   -0.069,    0.115,    0.236,   -0.083,   -1.736,
       -0.112,    0.680,   -0.670,   -0.031,   -0.144,   -0.127,   -0.304,
        0.309,    0.873,    0.362,    0.650,   -0.411,    0.422,    0.037,
        0.108,   -0.496,    0.072,    2.105,    0.113,    0.710,   -1.365,
        0.154,    0.038,    0.385,    0.253,   -0.362,    0.852,   -0.018,
       -0.587,   -0.388,   -0.036,   -0.001,   -0.154,   -0.287,    0.143,
        0.357,    0.024,   -0.036,   -0.308,    0.105,    0.535,   -0.263,
        0.868,   -0.163,   -1.140,    0.064,    0.410,    0.357,   -0.263,
        0.152,    0.080,   -0.963,    0.484,   -2.655,    0.116,    0.291,
        0.422,    1.344,    0.131,   -0.243,    0.392,    0.067,   -0.465,
        0.545,   -0.383,   -0.434,   -0.458,    0.920,   -0.804,   -0.395,
        0.730,    2.826,   -0.269,   -0.381,   -0.446,    1.148,    0.033,
        0.444,   -0.436,    0.003,    0.935,   -2.246,   -0.425,   -1.164,
       -0.889,   -0.161,    0.919,    2.376,   -0.215,    0.272,    0.858,
       -0.347,   -1.151
    },
    {   1.896,    0.002,    0.017,   -0.025,   -0.061,    0.026,   -1.474,
       -1.531,    0.503,   -1.296,   -0.454,   -0.838,   -0.373,   -0.020,
        0.364,    0.678,   -1.187,    0.007,   -2.192,    0.385,    0.369,
       -0.608,   -0.504,    0.465,    0.394,   -1.198,   -0.311,   -1.568,
        0.051,   -1.411,    0.947,   -0.063,    0.503,   -0.604,   -0.660,
        0.479,   -0.923,    0.520,    0.501,   -1.353,    0.157,    0.081,
        0.765,   -0.004,    0.116,   -1.328,   -0.936,    0.020,    0.431,
        0.468,    0.900,    0.999,   -0.313,    0.339,    1.472,    0.170,
       -0.938,   -0.808,    0.081,    0.019,    0.069,   -0.378,    0.242,
       -1.593,   -0.627,   -0.221,    0.407,    0.371,    0.328,    0.173,
        0.897,    0.694,   -1.046,   -0.327,   -1.204,    0.046,    0.055,
       -0.114,    0.639,    0.509,   -0.346,   -2.391,    0.062,    0.019,
        0.208,    1.250,   -0.080,   -0.528,   -0.261,   -0.024,   -1.570,
       -0.523,    0.164,   -1.568,    0.325,   -0.167,   -0.456,   -0.449,
        0.131,    3.326,    0.055,   -0.383,   -0.722,    1.690,   -0.266,
        0.701,   -0.151,    0.241,    0.952,   -1.978,    0.628,   -0.175,
       -0.660,   -0.572,   -0.150,    1.265,    0.271,   -0.854,    0.482,
       -0.459,   -0.701
    },
    {   1.855,   -0.009,    0.004,   -0.071,   -0.120,    0.029,   -1.346,
       -1.454,    0.498,   -1.403,    0.041,   -0.380,   -0.094,    0.201,
       -0.646,   -0.480,    0.189,   -0.038,   -0.615,   -0.074,   -0.986,
        0.156,   -0.031,   -0.036,    0.214,    0.205,    0.096,   -1.244,
       -0.127,    0.690,    0.714,   -0.056,   -0.058,   -0.037,    0.163,
       -0.072,   -0.668,    0.020,    0.334,   -0.850,    0.021,    0.136,
        0.021,   -0.162,    0.144,    0.791,    0.032,   -1.213,    0.227,
       -0.290,   -0.320,    0.304,    0.232,   -0.183,   -1.271,   -0.522,
       -0.936,   -0.546,   -0.205,    0.594,    0.455,   -1.084,    0.319,
       -3.029,   -0.380,   -0.636,    0.038,   -0.365,   -0.300,    0.685,
       -0.070,    0.165,   -1.494,   -0.091,   -1.444,    0.334,    0.103,
        0.627,   -0.729,   -0.862,   -0.294,   -2.915,    0.370,    0.120,
        0.654,    0.009,    0.310,    0.005,   -0.314,    0.596,   -2.203,
       -0.268,   -0.290,    0.011,    0.929,   -0.317,   -0.844,   -0.055,
        0.744,    2.111,   -0.027,   -0.234,   -0.296,    1.106,    0.053,
        0.480,   -0.324,   -0.011,    0.158,   -1.893,   -0.566,   -1.135,
       -1.618,   -1.234,    0.116,    0.421,    0.398,   -0.328,   -0.778,
        0.795,   -0.754
    },
    {   1.961,   -0.128,    0.148,   -0.160,   -0.127,    0.001,   -1.499,
       -1.695,    0.506,   -2.266,   -0.057,    1.016,    0.061,    0.038,
        0.173,   -0.134,   -0.209,   -0.044,    1.157,   -0.072,   -0.201,
       -0.211,    0.197,   -0.132,    0.182,    0.156,    0.586,   -1.337,
        0.111,    0.856,    1.231,    0.181,   -0.040,    0.118,    0.422,
        0.153,   -1.172,    0.184,    0.176,   -1.398,    0.217,   -0.386,
        0.272,    0.200,   -0.330,   -2.819,    0.501,   -0.384,   -0.048,
        0.456,   -0.543,    0.266,   -0.866,    0.391,    1.646,   -0.008,
        0.790,    0.124,   -0.230,   -0.040,    0.180,    0.241,   -0.258,
       -1.800,   -0.048,    0.003,    0.007,   -0.237,   -0.028,    0.845,
        0.482,   -1.230,   -1.684,   -0.077,   -0.511,    0.701,    0.028,
       -0.295,    0.240,    0.351,   -0.393,   -1.332,    0.416,   -0.456,
       -0.067,   -0.663,    0.707,    0.053,    0.393,   -0.496,   -2.151,
       -0.015,   -0.018,   -0.074,    0.994,   -0.022,   -0.264,   -0.047,
        0.013,    2.716,   -0.399,   -0.144,   -0.280,    1.378,   -0.184,
        0.392,   -0.110,    0.138,   -1.207,   -1.595,   -2.280,    0.072,
       -0.603,   -0.642,    0.432,    1.489,    0.499,   -1.285,   -0.532,
        1.411,   -0.839
    },
    {   1.940,   -0.085,    0.086,   -0.109,   -0.019,   -0.006,   -1.354,
       -1.542,    0.565,   -1.883,    0.178,    0.579,   -0.039,   -0.087,
        0.128,   -0.233,   -0.258,   -0.335,    1.712,   -0.087,   -0.348,
       -0.196,   -0.904,   -0.004,    0.401,   -0.410,   -0.152,   -1.339,
       -0.107,    0.936,    0.801,   -0.029,    0.002,    0.176,    0.391,
       -0.043,   -1.277,    0.131,    0.379,   -1.773,    0.090,    0.144,
       -0.010,   -0.309,    0.329,   -3.934,    0.701,    0.155,   -0.081,
       -0.058,   -0.129,   -0.530,   -0.121,   -0.176,    5.903,    0.720,
       -0.345,    0.226,    0.487,   -0.490,   -0.857,   -0.343,   -0.226,
       -3.629,    0.130,    0.319,   -1.189,    0.961,   -0.649,    0.185,
        0.629,    0.482,   -0.993,    0.435,   -1.059,    0.684,   -0.045,
        0.094,   -0.488,   -0.184,    0.125,   -1.215,   -0.259,   -1.263,
        0.058,   -0.060,    0.083,    0.287,    0.190,    0.021,   -1.493,
       -0.514,   -1.321,   -0.218,    0.424,    0.629,    0.559,   -1.612,
        0.313,    2.491,   -0.146,   -0.217,   -0.369,    1.388,   -0.210,
        0.536,   -0.286,    0.067,    0.441,   -1.579,   -1.025,   -0.544,
       -1.097,   -0.657,   -0.040,   -0.608,   -0.183,   -0.444,   -0.740,
        0.334,   -0.782
    },
    {   1.992,   -0.080,    0.040,   -0.031,    0.039,   -0.083,   -1.611,
       -1.574,    0.682,   -2.336,    0.230,    1.312,   -0.995,   -0.017,
       -0.151,    0.461,    0.619,   -0.407,    1.824,   -0.104,   -0.053,
       -0.113,   -0.982,    0.126,    0.139,   -0.174,    0.056,   -0.679,
        0.000,    0.461,    0.540,    0.034,    0.004,    0.068,    0.098,
       -0.066,   -2.000,    0.267,    0.086,   -0.139,   -0.356,    0.446,
       -0.829,   -0.199,   -0.892,   -2.727,   -0.415,   -0.469,   -1.187,
       -0.194,    0.832,    0.510,   -0.530,   -0.010,    0.137,    0.766,
       -0.040,   -1.310,    0.646,   -0.029,    0.543,   -0.279,   -1.244,
       -1.073,    0.194,   -2.064,   -0.940,    0.967,    0.503,   -1.132,
       -0.253,   -0.410,   -1.760,    0.212,    0.460,   -1.914,    0.236,
       -0.107,   -0.575,   -0.882,    0.812,   -0.817,    0.085,   -1.154,
        0.002,   -0.055,   -0.297,    0.252,    0.509,   -0.039,   -2.060,
        0.251,    0.038,    1.248,    0.526,   -0.222,    0.877,   -1.089,
        0.037,    2.828,   -0.645,   -0.392,   -0.637,    1.288,    0.442,
        0.339,   -0.716,    0.060,    0.590,   -1.905,   -0.791,   -1.064,
       -1.981,   -0.077,   -0.334,   -0.111,   -0.329,   -0.359,   -0.970,
        0.075,   -0.669
    },
    {   1.651,   -0.091,    0.101,   -0.036,    0.097,   -0.080,   -1.426,
       -1.658,    0.638,   -0.791,    0.057,   -1.273,    0.021,   -0.200,
        0.108,    0.034,    0.439,   -0.375,    1.849,   -0.072,    0.199,
        0.206,   -0.946,   -0.136,    0.388,   -0.293,    0.114,   -1.496,
       -0.082,    1.318,    0.771,   -0.142,   -0.086,    0.012,    0.250,
       -0.116,    2.010,   -0.350,   -1.268,    0.365,    0.566,    0.451,
       -0.160,    0.670,    0.490,    1.327,   -0.475,    0.082,    0.867,
       -0.097,    0.619,    0.077,    0.105,    0.231,    3.049,    0.755,
       -0.188,   -0.588,   -0.918,    0.104,   -0.094,   -0.694,   -0.315,
        1.224,    0.110,   -0.197,    1.207,   -0.308,    0.196,    0.208,
       -0.096,    0.071,   -1.682,    0.640,   -0.268,   -1.354,   -0.308,
        0.522,    0.677,   -0.184,   -0.004,   -1.672,   -0.075,   -0.918,
        0.612,    0.214,   -0.007,   -0.053,   -0.252,    0.052,   -0.990,
       -0.064,   -0.282,   -0.622,    0.402,    0.336,    1.982,   -0.597,
       -0.661,    2.311,   -0.126,   -0.846,   -0.132,    1.310,    0.107,
        0.602,   -0.256,    0.073,    0.020,   -0.993,   -0.585,   -0.586,
       -1.108,    0.201,   -0.214,   -0.383,    0.702,   -0.458,   -0.731,
        0.251,   -0.625
    },
    {   2.014,   -0.097,   -0.070,   -0.003,   -0.090,    0.037,   -1.258,
       -1.284,    0.498,    2.656,   -0.349,   -0.258,   -0.819,    0.375,
       -0.642,    0.392,    0.214,   -0.281,    0.485,    0.314,    0.507,
        0.819,    0.079,   -0.381,   -0.392,    0.999,   -0.296,   -1.431,
        0.017,    0.925,    0.918,   -0.092,   -0.094,    0.052,    0.303,
       -0.141,    1.401,   -0.596,    1.362,   -0.465,    1.115,    0.841,
        0.926,    1.075,    0.664,    3.853,   -0.349,   -0.410,    0.102,
        0.295,   -0.254,    0.148,    0.788,   -0.488,    3.230,    0.143,
        0.069,   -0.077,   -2.001,   -0.038,    1.571,    0.505,   -0.561,
        3.270,    0.287,   -1.556,    0.869,    0.035,   -0.151,   -0.740,
       -0.182,    1.030,   -1.418,    0.416,    0.590,   -1.697,   -0.049,
        0.202,    0.104,   -0.417,    0.451,   -1.536,   -0.032,   -0.874,
       -0.008,    0.036,    0.026,   -0.282,   -0.322,    0.087,    0.669,
        0.309,    1.205,   -0.106,    0.015,    0.206,   -1.023,   -0.739,
        0.476,    3.425,   -0.440,   -0.549,   -0.595,    1.992,   -0.236,
        0.688,   -0.216,   -0.016,    0.962,   -2.813,    0.837,   -0.553,
       -0.844,   -0.054,   -0.647,   -0.532,    0.378,   -0.787,   -1.642,
        0.308,   -0.741
    },
    {   1.718,    0.019,   -0.047,   -0.077,   -0.054,   -0.010,   -1.428,
       -1.393,    0.520,    7.941,   -0.151,    0.973,    0.012,    0.488,
        0.227,   -0.461,    0.641,    0.127,   -0.583,   -1.020,    0.465,
       -0.044,    0.277,   -0.343,   -0.172,    0.693,   -0.304,   -0.904,
        0.065,    0.657,    0.465,   -0.074,    0.021,    0.145,    0.309,
       -0.031,    1.869,    0.457,    0.531,   -0.786,    0.145,    0.690,
        0.217,   -0.163,    0.316,    3.468,    0.183,    0.261,   -0.273,
       -0.325,   -0.197,   -0.992,   -0.378,   -0.028,    1.839,   -0.018,
       -0.321,   -0.021,   -0.668,    0.031,    0.227,   -0.584,   -0.038,
        0.293,   -0.547,    0.085,   -0.126,    0.049,   -0.498,    0.248,
        0.160,    0.165,   -0.895,    0.088,    0.370,   -1.065,    0.065,
       -0.027,   -0.022,   -0.007,    0.133,   -1.078,    0.278,   -0.936,
        0.368,    0.040,    0.177,   -0.452,   -0.326,    0.296,    0.539,
        0.125,    0.751,    0.149,    0.013,    0.085,   -0.402,   -0.368,
        0.225,    2.467,   -0.308,   -0.419,   -0.235,    1.180,    0.001,
        0.289,   -0.556,    0.005,    0.125,   -1.722,   -0.063,   -0.181,
       -2.119,    0.329,    0.345,   -0.908,    0.138,   -1.106,   -0.712,
        0.893,   -1.128
    },
    {   1.675,   -0.044,   -0.002,   -0.123,    0.043,   -0.036,   -1.004,
       -1.097,    0.407,    1.258,    0.055,   -0.340,   -0.439,   -0.271,
       -0.006,    0.562,    0.313,    0.237,   -4.211,   -0.908,   -0.195,
        0.113,   -0.695,   -0.220,    0.199,   -0.289,   -0.250,   -0.981,
       -0.032,    0.622,    0.517,   -0.027,   -0.033,    0.186,    0.326,
       -0.096,    4.935,   -0.360,   -0.474,    0.496,   -0.380,    0.020,
        0.031,   -0.028,   -0.283,   -1.800,    0.640,    0.026,   -0.073,
       -0.220,   -0.537,    0.448,    0.163,   -0.720,    1.587,    0.019,
       -0.125,   -0.255,   -0.487,   -0.063,    0.103,   -0.236,   -0.036,
        2.228,    0.230,    0.445,   -0.084,   -0.155,    0.154,    0.362,
        0.230,   -0.020,   -0.784,    0.176,    0.310,   -0.864,   -0.023,
        0.086,   -0.008,   -0.080,   -0.011,   -2.256,    0.353,   -0.052,
        0.764,   -0.152,    0.439,   -0.353,    0.089,    0.386,    0.831,
       -0.020,    0.734,   -0.104,    0.017,    0.004,   -0.161,   -0.249,
        0.122,    2.405,   -0.295,   -0.304,   -0.423,    1.107,   -0.144,
        0.320,   -0.559,   -0.124,   -1.151,   -2.569,    0.180,    0.249,
       -2.083,    1.417,    0.292,   -1.737,    1.297,   -1.131,   -0.949,
        1.625,   -1.100
    },
    {   1.889,    0.002,    0.061,   -0.017,    0.064,    0.038,   -1.080,
       -1.157,    0.375,   -0.106,   -0.084,   -0.069,   -0.143,    1.136,
        0.090,   -0.860,   -0.012,    0.166,   -3.355,   -0.174,   -0.280,
       -0.567,   -0.305,    0.314,   -0.452,    0.370,    0.264,   -0.937,
        0.025,    0.579,    0.486,   -0.147,    0.006,    0.048,    0.268,
       -0.073,    4.872,   -0.488,   -0.024,    0.164,    0.347,   -0.314,
       -0.830,    0.534,   -0.415,   -0.828,    0.026,    0.084,   -0.075,
        0.550,    0.059,    0.087,    0.419,   -0.012,    5.040,   -0.550,
       -0.468,    0.290,    0.099,   -0.238,   -0.361,    0.193,   -0.093,
        1.477,    0.715,    0.508,   -0.564,   -0.213,    0.315,   -0.058,
       -0.329,   -0.282,   -0.653,   -0.004,    0.339,   -0.605,    0.065,
        0.046,    0.148,    0.201,   -0.013,   -1.560,    0.268,    0.332,
        0.363,   -0.171,    0.162,   -0.374,   -0.219,    0.176,    0.625,
       -0.106,    0.795,   -0.118,   -0.017,   -0.003,   -0.027,   -0.157,
        0.065,    1.561,   -0.161,   -0.318,   -0.226,    0.532,   -0.118,
        0.391,   -0.186,   -0.067,    2.541,   -2.876,   -0.412,   -0.337,
       -2.109,   -1.138,    1.580,   -0.598,    0.247,   -1.886,   -1.335,
        1.615,   -2.121
    },
    {   1.385,   -0.057,    0.008,   -0.021,    0.005,   -0.043,   -0.713,
       -0.854,    0.274,    1.676,    0.376,    0.006,   -0.239,   -0.098,
       -0.058,    0.051,    0.134,   -0.126,   -2.785,    0.413,    0.012,
        0.211,    0.369,   -0.032,    0.246,   -0.063,    0.009,   -0.861,
       -0.009,    0.491,    0.478,   -0.215,   -0.025,    0.138,    0.249,
       -0.052,    1.244,    0.248,   -0.372,   -0.055,   -0.302,    0.152,
        0.160,    0.025,    0.080,   -1.776,   -0.107,   -0.072,    0.026,
        0.536,   -0.031,   -0.262,    0.056,    0.008,    1.310,   -0.103,
        0.135,   -0.155,    0.101,    0.093,    0.065,   -0.147,    0.232,
        0.051,   -0.333,    0.476,   -0.259,    0.046,   -0.102,    0.397,
       -0.002,    0.144,   -0.875,    0.045,    0.412,   -0.543,    0.014,
        0.048,    0.169,    0.051,   -0.047,   -2.355,    0.281,    0.207,
        0.301,    0.043,    0.236,   -0.288,    0.025,   -0.078,    0.585,
        0.012,    0.432,    0.059,   -0.051,    0.031,   -0.012,   -0.069,
       -0.051,    1.663,   -0.090,   -0.202,   -0.344,    0.599,    0.027,
        0.183,   -0.311,    0.047,   -1.711,   -3.000,    1.298,    0.244,
       -2.321,    0.883,    2.168,    0.583,    0.601,   -1.892,   -1.711,
        2.858,   -1.691
    },
    {   1.719,   -0.029,    0.096,   -0.116,   -0.086,    0.003,   -1.043,
       -1.140,    0.399,    1.559,   -0.074,    0.264,   -0.354,   -0.171,
       -0.086,    0.393,   -0.019,   -0.247,   -0.001,   -0.051,   -0.319,
       -0.693,    0.228,    0.229,    0.180,   -0.120,    0.393,   -0.882,
        0.019,    0.600,    0.452,   -0.016,    0.054,    0.158,    0.281,
       -0.059,    1.787,    0.389,    0.700,   -0.305,   -0.165,   -0.650,
        0.124,    0.073,   -0.134,   -1.496,   -0.059,    0.032,   -0.020,
        0.672,    0.011,   -0.362,    0.008,    0.053,    2.125,    0.704,
       -0.022,   -0.683,    0.251,   -0.111,    0.851,   -0.104,   -0.087,
        0.778,    0.399,   -0.458,   -0.201,    0.177,   -0.699,    0.493,
       -0.360,   -0.455,   -0.720,   -0.018,    0.358,   -0.600,    0.189,
        0.135,   -0.337,   -0.228,    0.119,   -1.603,   -0.116,   -0.177,
        0.112,    0.209,   -0.220,    0.004,    0.024,   -0.067,    0.454,
       -0.069,    0.581,    0.068,    0.075,    0.005,   -0.157,   -0.295,
        0.011,    2.500,   -0.146,   -0.248,   -0.521,    0.987,    0.033,
        0.714,   -0.467,   -0.251,   -2.415,   -3.122,    1.300,    0.143,
       -2.223,    0.370,    2.300,    0.577,   -0.425,   -1.775,   -3.917,
        1.792,   -1.144
    },
    {   1.631,    0.022,    0.065,   -0.044,   -0.011,    0.081,   -1.301,
       -1.465,    0.505,    1.284,   -0.226,    0.676,   -0.275,    0.027,
       -0.310,    0.554,    0.503,   -0.530,   -0.043,   -0.146,    0.581,
        0.069,   -0.411,    0.234,    0.016,    0.289,    0.698,   -1.327,
       -0.116,    0.835,    0.848,   -0.083,   -0.067,    0.124,    0.247,
       -0.088,    0.119,    0.094,   -0.207,    0.337,    0.060,   -0.213,
       -0.323,    0.658,   -0.120,   -1.598,   -0.020,    0.305,    0.009,
        0.942,    0.083,   -0.622,   -0.249,    0.379,    2.188,    0.303,
       -0.328,   -0.161,    0.408,   -0.387,    0.291,    0.175,    0.075,
       -0.712,    0.246,   -0.870,   -0.178,    0.493,   -0.336,   -0.013,
        0.527,    0.797,   -0.570,    0.049,    0.344,   -1.018,    0.203,
        0.104,   -0.036,   -0.378,    0.079,   -1.242,    0.117,    0.883,
       -0.531,    0.133,    0.081,    0.097,   -0.062,    0.147,    0.739,
        0.216,    0.699,    0.132,    0.145,    0.147,   -0.646,   -0.777,
        0.184,    2.254,   -0.145,   -0.248,   -0.365,    1.106,   -0.102,
        0.630,   -0.088,    0.006,   -0.239,   -2.089,    0.947,    0.350,
       -1.421,   -0.701,    0.769,    0.536,    0.075,   -0.615,   -0.980,
        1.010,   -0.972
    },
    {   2.033,   -0.052,    0.005,   -0.086,   -0.102,    0.007,   -1.309,
       -1.420,    0.495,    2.732,    0.067,   -0.263,   -0.365,   -0.404,
       -0.183,    0.338,   -0.113,    0.575,    2.644,    0.285,    0.853,
       -0.288,    0.346,    0.099,   -0.253,    0.303,   -0.067,   -0.935,
        0.000,    0.467,    0.550,   -0.106,   -0.010,    0.169,    0.301,
       -0.057,    1.604,    0.422,   -1.214,    0.625,    0.441,    0.182,
        0.755,    0.726,    0.230,   -3.178,   -0.279,    0.142,    0.007,
        1.498,   -0.061,   -0.637,   -0.044,    0.097,    0.460,   -0.079,
        0.487,   -0.013,   -0.005,    0.100,    0.011,   -0.193,    0.045,
       -2.281,    0.178,   -0.924,   -0.332,    0.039,    0.666,    0.075,
       -0.635,    0.095,   -3.580,   -0.745,   -0.456,    0.492,    0.698,
       -0.038,   -0.463,   -0.454,   -0.001,   -0.989,   -0.051,    0.633,
       -0.726,    0.055,   -0.029,   -0.118,   -0.067,    0.090,    1.833,
        0.040,   -1.114,   -0.305,    0.059,   -0.158,    0.836,    0.809,
        0.090,    2.102,   -0.172,   -0.334,   -0.333,    0.844,    0.058,
        0.387,   -0.426,    0.035,   -1.176,   -2.717,    0.098,    0.112,
       -2.040,   -0.149,    1.038,    2.054,   -0.696,   -1.805,   -1.531,
        0.541,   -1.312
    },
    {   1.806,   -0.068,    0.042,    0.047,   -0.037,   -0.014,   -1.096,
       -1.142,    0.408,    3.759,   -0.096,    0.344,   -0.752,   -0.151,
       -0.558,   -0.059,   -0.633,   -0.337,    3.154,   -0.528,    0.475,
        0.293,    0.285,   -0.452,    0.124,   -0.249,   -0.675,   -0.968,
       -0.026,    0.687,    0.442,    0.105,    0.018,    0.054,    0.128,
       -0.070,   -0.090,    0.565,    0.369,    0.460,   -0.502,   -0.495,
        0.234,   -0.252,   -0.180,   -2.059,   -0.076,    0.066,    0.228,
        0.659,    0.236,   -0.106,    0.202,    0.067,    0.460,   -0.042,
        0.488,   -0.070,    0.042,    0.038,   -0.097,   -0.193,    0.042,
       -4.166,   -0.881,    0.491,    0.598,    0.776,   -0.109,    0.509,
        0.362,   -0.318,   -0.736,    0.152,   -0.423,   -0.462,    0.216,
        0.096,    0.030,   -0.129,   -0.231,   -1.317,    0.061,    0.546,
       -1.098,   -0.013,    0.046,    0.164,    0.191,   -0.004,    2.234,
       -0.030,    0.192,   -0.454,   -0.137,   -0.377,    0.535,    0.129,
       -0.155,    2.389,   -0.102,   -0.242,   -0.566,    0.756,   -0.008,
        0.476,   -0.361,    0.084,    1.168,   -3.288,    1.000,   -0.503,
       -2.120,    0.079,    2.939,    1.955,   -0.494,   -0.311,   -0.982,
        1.819,   -1.113
    },
    {   1.819,    0.025,    0.098,   -0.060,   -0.011,   -0.002,   -1.155,
       -1.114,    0.439,    0.798,    1.438,    0.440,   -0.079,    0.215,
        0.116,    0.406,   -0.405,   -0.073,    1.140,    0.505,    0.758,
       -0.116,    0.166,    0.176,   -0.687,   -0.507,    0.141,   -1.009,
       -0.039,    0.660,    0.535,   -0.037,   -0.081,    0.018,    0.156,
       -0.061,   -1.839,    0.842,   -0.369,   -0.274,   -0.582,    0.300,
        0.060,   -0.010,    0.496,   -2.553,    0.030,    0.089,    0.287,
        1.559,    0.070,   -0.451,    0.029,    0.472,    0.640,   -0.139,
        1.104,   -0.233,   -0.006,   -0.107,    0.112,   -0.176,    0.034,
       -0.921,    0.079,    0.464,   -0.081,   -0.361,   -0.071,   -0.241,
       -0.779,    0.314,   -0.549,   -0.529,    0.617,    0.226,    0.467,
        0.068,    0.601,   -0.049,    0.257,   -0.915,    0.195,    0.366,
       -0.922,    0.031,    0.248,    0.517,    0.432,   -0.216,   -1.344,
       -0.199,    0.595,   -1.212,    0.136,   -0.105,   -0.415,   -0.459,
        0.262,    1.996,   -0.247,   -0.360,   -0.346,    0.653,    0.071,
        0.351,   -0.527,    0.085,    2.116,   -3.425,   -0.145,    0.600,
       -2.091,   -0.120,    0.688,    0.906,    0.392,    0.111,   -0.435,
       -0.775,   -1.072
    },
    {   1.652,   -0.047,    0.078,   -0.021,   -0.033,   -0.050,   -1.301,
       -1.290,    0.417,    2.840,    0.324,   -0.008,   -0.095,    0.319,
        0.298,    0.313,    0.365,    0.532,   -0.929,   -0.289,    0.680,
        0.458,   -0.296,   -0.471,    0.377,    0.869,   -0.221,   -1.421,
        0.007,    1.082,    0.625,   -0.062,    0.008,   -0.006,    0.168,
       -0.050,    0.276,   -0.500,    0.702,    0.387,    0.740,    0.326,
       -0.745,    0.451,    0.337,   -3.181,   -0.318,    0.206,    0.297,
        1.021,   -0.089,    0.257,    0.561,   -0.114,   -0.766,    0.335,
       -0.159,    0.493,   -0.123,   -0.937,    0.648,   -0.338,    0.264,
        2.571,    0.339,   -0.205,   -0.126,    1.416,    0.020,   -0.148,
        0.192,    0.071,   -0.923,    0.176,    0.027,   -1.316,    0.004,
        0.026,    0.366,   -0.064,    0.118,   -0.292,    0.525,   -0.057,
       -0.196,   -0.319,    0.007,   -0.600,   -0.078,   -0.302,   -0.894,
        0.014,   -0.668,    0.350,   -0.038,   -0.051,    0.030,    0.150,
       -0.014,    2.507,   -0.307,   -0.410,   -0.540,    0.765,    0.105,
        0.499,   -0.641,    0.039,    2.110,   -1.605,   -0.135,   -0.249,
       -1.317,   -0.052,    1.618,    0.143,   -0.386,   -0.845,   -0.124,
       -1.536,   -1.016
    },
    {   1.961,   -0.045,    0.182,    0.020,   -0.016,    0.040,   -1.551,
       -1.553,    0.547,   -0.661,   -0.104,   -0.618,   -0.080,   -0.292,
        0.106,   -0.331,   -1.084,    0.295,   -1.016,    0.126,    0.581,
       -1.395,    0.132,   -0.126,   -0.135,   -0.302,    0.271,   -1.175,
       -0.027,    0.881,    0.716,   -0.061,   -0.041,   -0.011,    0.247,
       -0.119,   -6.538,    0.052,    0.004,   -0.308,   -0.016,    0.691,
        0.012,    0.189,    0.049,   -2.156,    0.127,    0.175,    0.206,
        1.077,    0.116,   -0.261,    0.171,   -0.045,   -0.617,   -0.299,
        0.225,   -0.203,   -0.107,    0.075,   -0.375,    0.685,    0.198,
        4.624,    0.421,    0.311,    0.331,   -0.486,    0.406,    0.599,
        0.171,   -0.422,   -1.528,    0.338,   -0.923,    1.064,    0.286,
        0.301,   -1.212,   -0.886,   -0.092,   -2.734,   -0.407,    1.217,
       -0.643,    0.114,    0.479,    0.136,    0.847,    0.089,   -0.789,
       -0.033,   -0.819,   -0.027,   -0.123,   -0.030,    0.240,    0.258,
       -0.004,    2.373,   -0.307,   -0.301,   -0.311,    1.122,    0.100,
        0.171,   -0.645,    0.034,   -1.952,   -1.811,    0.435,   -0.755,
       -1.303,   -2.268,    1.046,    0.128,    0.959,   -0.432,   -0.184,
       -1.414,   -0.952
    },
    {   2.045,   -0.103,    0.077,   -0.025,   -0.070,   -0.008,   -1.604,
       -1.631,    0.604,   -0.567,   -0.438,   -0.481,   -0.259,   -0.557,
        0.053,    0.789,   -0.511,   -0.514,   -0.990,    0.354,    0.153,
       -1.170,    0.067,   -0.016,    0.135,   -0.123,    0.065,   -1.456,
        0.032,    1.095,    0.583,   -0.037,   -0.053,    0.180,    0.371,
       -0.166,   -4.454,   -0.132,    0.650,    0.349,    0.474,    0.437,
       -0.844,   -0.424,   -0.680,   -2.235,    0.173,   -0.083,    0.369,
        1.435,    0.444,    0.004,    0.436,   -0.281,    4.712,    0.285,
        0.120,   -0.211,    2.049,    0.225,    0.049,    0.828,    0.435,
        1.912,   -0.437,    0.181,    0.319,   -0.120,    0.250,   -0.633,
        0.645,   -0.053,   -1.177,   -0.087,   -0.881,    0.346,    0.044,
       -0.004,    0.134,    0.116,   -0.097,    1.855,   -1.149,    0.177,
       -0.529,    0.040,   -0.275,    0.104,   -0.003,   -0.200,   -4.421,
       -0.210,   -0.584,    0.851,    0.177,   -0.923,   -0.712,   -0.269,
        0.126,    2.419,   -0.562,   -0.756,   -0.245,    0.923,   -0.007,
        0.080,   -0.716,    0.139,   -0.013,   -1.764,    0.029,   -1.064,
       -1.345,   -0.370,    0.474,   -0.406,   -0.650,   -1.344,    0.375,
       -0.591,   -0.809
    },
    {   2.100,   -0.095,   -0.005,   -0.017,   -0.015,    0.010,   -1.535,
       -1.563,    0.475,   -2.900,    0.640,    0.005,    0.237,   -0.096,
        0.441,   -0.651,   -0.419,   -0.117,   -1.182,    0.260,    0.243,
       -1.554,    0.011,    0.070,    0.225,   -0.086,    0.111,   -1.478,
       -0.025,    1.085,    0.666,   -0.020,    0.052,   -0.029,    0.147,
       -0.075,   -3.943,    0.773,    0.110,   -0.731,   -0.460,   -0.409,
        0.330,    0.266,   -0.119,   -2.717,    0.010,    0.125,    0.270,
        1.801,   -0.145,   -0.243,   -0.139,    0.188,   -0.292,    0.036,
       -0.752,   -0.310,   -0.838,    0.604,    0.988,   -1.178,    0.025,
       -6.352,   -0.026,   -0.731,    1.169,    0.270,   -0.387,   -0.744,
       -0.390,   -0.159,   -0.699,   -0.037,   -0.724,    0.421,    0.005,
       -0.043,    0.085,    0.038,    0.004,    5.391,    0.916,    0.247,
       -0.467,   -0.069,    0.226,    0.594,   -0.072,   -0.931,   -0.024,
        0.320,   -0.772,    0.245,    0.152,   -0.091,   -0.321,    0.039,
       -0.464,    2.075,   -0.198,   -0.187,   -0.545,    0.664,    0.098,
        0.506,   -0.174,   -0.009,    0.541,   -1.829,   -0.470,   -0.912,
       -1.233,    0.708,    0.607,    0.270,   -0.726,   -1.186,    0.073,
       -0.035,   -0.876
    },
    {   1.954,    0.012,   -0.040,   -0.113,   -0.110,    0.054,   -1.370,
       -1.565,    0.408,   -5.555,    0.081,    0.891,    0.542,   -1.222,
       -0.807,    0.062,   -0.663,   -0.709,   -0.707,   -0.059,   -0.953,
       -0.149,   -0.096,   -0.361,    0.307,    0.796,    0.350,   -1.257,
        0.020,    0.829,    0.708,    0.019,   -0.055,    0.151,    0.452,
       -0.013,   -4.423,   -0.129,   -0.608,    0.463,   -0.147,    0.199,
        0.064,   -0.258,   -0.526,   -2.434,    0.093,    0.445,    0.189,
        1.431,    0.089,   -0.660,   -0.012,    0.458,   -1.556,    0.591,
       -0.748,    0.147,    0.021,    0.463,   -0.386,   -0.532,    0.236,
       -2.543,   -0.549,   -1.113,    1.162,    0.101,   -0.224,   -0.512,
       -0.222,   -0.131,   -4.082,    0.810,    0.415,   -1.530,   -0.563,
        0.447,   -0.650,   -0.355,   -0.491,    1.817,    0.071,   -0.962,
        0.610,   -0.006,   -0.154,    0.200,    0.245,    0.074,    1.530,
        0.167,   -0.458,    2.007,   -0.315,    0.119,    0.338,    0.076,
       -0.314,    2.337,   -0.247,   -0.344,   -0.369,    1.153,   -0.046,
        0.240,   -0.575,   -0.223,    1.032,   -2.068,    0.703,   -0.487,
       -1.452,    0.068,    0.663,   -0.634,   -0.581,   -0.122,    0.589,
        0.429,   -0.913
    },
    {   2.065,   -0.048,   -0.073,   -0.126,   -0.019,   -0.068,   -1.568,
       -1.748,    0.484,   -3.308,   -0.328,    0.440,    0.402,   -1.840,
       -0.284,   -0.697,   -0.587,   -0.208,    5.934,   -0.117,   -0.359,
        0.473,   -1.558,    0.597,    0.107,   -0.179,   -0.735,   -1.107,
       -0.023,    0.726,    0.739,   -0.089,   -0.034,    0.059,    0.259,
       -0.026,   -3.224,    0.202,    0.003,   -0.561,   -0.029,   -0.377,
        0.392,    0.350,   -0.329,   -3.573,   -0.342,    0.364,    0.968,
        1.589,   -0.084,   -0.619,    0.396,    0.201,   -1.685,    0.283,
       -1.419,    0.496,   -0.184,    0.160,   -0.283,   -0.286,    0.362,
       -1.194,   -0.320,   -0.631,    0.275,    0.088,   -0.420,    0.193,
        0.356,   -0.158,   -0.187,   -0.608,   -0.207,    0.498,    0.675,
        1.512,   -0.440,   -0.352,    0.220,    1.179,   -0.156,   -0.662,
        0.904,    0.108,    0.015,    0.156,   -0.073,    0.475,    1.134,
       -0.241,   -0.056,    1.967,    0.162,   -0.047,   -0.106,    0.127,
       -0.519,    3.506,   -0.544,   -0.698,   -0.445,    1.270,    0.076,
        0.490,   -0.894,    0.099,    0.797,   -1.350,    0.338,   -0.154,
       -1.407,    0.373,    0.427,   -0.650,   -0.603,   -0.184,    0.547,
        0.490,   -0.639
    },
    {   2.043,   -0.114,    0.124,   -0.105,   -0.084,   -0.015,   -1.290,
       -1.491,    0.423,   -3.134,   -0.503,    0.070,   -0.160,   -1.302,
       -0.177,   -0.235,   -0.393,   -0.121,    7.412,   -1.532,    1.160,
        1.051,    0.469,   -1.248,   -0.723,    1.375,    0.650,   -1.384,
       -0.017,    1.005,    0.783,   -0.150,   -0.037,    0.010,    0.206,
       -0.085,   -2.854,   -0.447,    0.046,   -0.040,    1.237,    0.078,
       -0.611,    0.036,   -0.050,   -3.223,    0.360,   -1.142,    0.531,
        0.264,    0.428,   -0.312,   -0.124,    0.602,   -1.792,   -0.739,
       -0.916,    0.600,   -0.000,    0.296,   -0.839,   -0.273,   -0.259,
       -0.831,    0.017,   -1.052,    0.224,    0.018,   -0.277,    0.176,
        0.363,   -0.253,    4.649,    0.681,    0.061,    0.137,    0.747,
        0.372,    0.005,   -0.477,   -0.480,    0.819,   -0.841,    0.207,
        0.742,    0.238,   -0.486,   -0.772,   -0.716,   -0.289,    1.444,
        0.325,   -0.739,    1.747,   -0.084,    0.062,    0.656,    0.522,
       -0.231,    2.513,   -0.455,   -0.544,   -0.309,    1.033,   -0.003,
        0.486,   -0.544,   -0.291,    0.817,   -1.860,    0.877,    0.064,
       -1.424,    0.722,   -0.881,   -0.335,   -0.868,   -0.031,    0.388,
        0.748,   -0.708
    },
    {   2.380,   -0.105,    0.046,   -0.105,   -0.096,   -0.070,   -2.038,
       -2.353,    0.938,   -4.182,   -0.105,    0.222,    0.275,   -1.936,
       -0.172,   -0.070,   -0.407,   -0.253,    9.718,   -1.102,    0.446,
       -0.861,    0.257,   -1.011,   -0.024,   -0.264,    0.286,   -0.890,
        0.020,    0.391,    0.550,   -0.068,   -0.085,    0.023,    0.169,
       -0.094,   -3.311,   -0.249,    0.281,   -0.034,    1.905,    0.341,
       -0.033,    0.002,   -0.156,   -3.521,   -0.653,   -1.533,    1.936,
       -0.038,    0.153,   -0.633,   -0.664,    1.059,   -6.737,   -1.009,
       -0.937,   -0.960,    0.696,   -0.988,   -0.692,    0.125,    0.047,
       -0.773,    0.144,   -0.919,   -0.526,   -0.074,    0.134,    0.111,
        0.100,   -0.197,   10.510,    1.763,    0.270,    1.455,    0.456,
        0.247,   -1.803,    0.443,    0.546,    3.142,    0.206,   -2.089,
        0.863,    0.006,   -0.574,    0.164,    0.499,   -0.069,    1.926,
        0.054,   -0.744,    1.915,   -0.622,    0.424,    0.149,    0.411,
       -0.527,    3.473,   -0.530,   -0.329,   -1.033,    1.148,    0.132,
        0.481,   -0.922,   -0.303,    0.051,   -0.931,    1.300,    0.504,
       -2.070,    0.509,   -0.385,   -0.292,   -1.137,   -0.644,    0.806,
        0.409,   -0.674
    },
    {   2.378,   -0.140,   -0.025,   -0.066,   -0.179,    0.016,   -1.870,
       -2.096,    0.655,   -2.968,   -0.165,    0.279,    0.261,   -1.726,
       -0.067,   -0.375,    0.090,    0.031,    3.780,   -0.277,    0.632,
       -0.493,   -0.279,    0.010,   -0.312,   -0.712,   -0.520,   -1.351,
       -0.016,    1.185,    1.001,   -0.287,   -0.001,    0.052,    0.354,
       -0.083,   -3.151,   -0.381,    0.296,    0.058,    1.449,   -0.095,
       -0.677,   -0.275,    0.569,   -2.772,   -0.732,   -0.897,    0.553,
       -0.051,   -0.567,   -0.304,   -0.093,   -0.419,   -0.397,   -0.743,
        0.712,    1.488,    0.083,   -0.407,   -0.281,    0.035,   -0.557,
       -1.097,    0.145,   -0.921,    0.356,   -0.095,    0.046,   -0.077,
        0.109,    0.078,    7.316,    0.019,    0.059,   -0.473,    0.386,
       -0.188,   -0.058,    1.277,    0.734,    3.114,    0.025,   -1.523,
       -0.209,   -0.045,   -0.068,    0.132,    0.166,    0.012,    1.425,
        0.017,   -0.287,    1.724,   -0.214,    0.056,    0.183,    0.232,
       -0.082,    4.359,   -1.389,    0.384,   -0.379,    0.827,   -0.025,
        0.716,   -0.972,   -0.743,   -2.404,   -1.380,    0.877,    0.677,
       -0.751,    0.766,   -0.502,    0.029,   -0.824,    1.299,    1.646,
        0.665,   -0.174
    },
    {   1.833,   -0.104,    0.080,   -0.054,   -0.040,   -0.040,   -1.495,
       -1.600,    0.521,   -2.194,    0.140,    0.186,    0.159,   -1.025,
        0.146,   -0.292,    0.445,   -0.002,    4.503,    0.068,    0.669,
       -0.765,   -0.044,    0.646,   -0.444,   -0.303,    0.264,   -1.020,
        0.053,    0.877,    0.516,    0.021,   -0.054,    0.243,    0.359,
       -0.257,   -2.585,    0.035,    0.149,   -0.005,    0.906,    0.070,
       -0.325,    0.451,    0.075,   -5.108,   -0.308,   -0.505,   -0.038,
       -0.696,   -0.282,    0.438,   -0.021,    0.354,    6.721,    0.676,
        0.195,   -0.621,   -0.188,    0.796,    0.485,   -0.435,    0.501,
       -1.732,   -0.373,   -1.247,    0.837,    0.242,    0.004,   -0.023,
        0.272,   -0.269,    0.194,   -0.183,   -0.202,    0.150,   -0.105,
       -0.219,    0.526,   -0.757,   -0.226,    3.288,   -0.028,   -0.019,
       -1.092,    0.105,   -0.455,    0.706,    0.320,   -0.374,    1.105,
       -0.046,   -0.305,    1.245,   -0.100,   -0.131,    0.191,    0.261,
       -0.125,    0.794,   -0.239,    0.814,    0.064,    0.283,    0.028,
       -0.187,   -0.529,   -0.180,    1.317,   -1.605,    1.090,    0.370,
       -1.247,    1.117,    0.485,   -0.822,   -0.617,    0.066,    1.053,
        0.776,    0.870
    },
    {   1.842,   -0.102,   -0.014,   -0.110,   -0.005,    0.005,   -1.186,
       -1.347,    0.459,   -1.965,    0.084,    0.282,    0.224,   -0.961,
        0.054,   -0.447,    0.071,    0.095,    2.734,   -0.077,    0.340,
        0.583,   -0.130,    0.414,    0.431,   -0.240,    0.694,   -0.973,
       -0.028,    0.809,    0.616,   -0.004,   -0.131,    0.010,    0.190,
