//-----------------------------------------------------------------------------
// Network: Higgs0M_4e
// Inputs:
//                                                  Offset       Scale
//    angle_costhetastar                         6.090e-04   5.628e-01
//    angle_costheta1                           -1.251e-02   5.703e-01
//    angle_costheta2                            3.600e-03   5.057e-01
//    angle_phi                                  1.418e-02   1.809e+00
//    angle_phistar1                             1.876e-02   1.775e+00
//    Z1mass                                     8.095e+01   1.133e+01
//    Z2mass                                     3.018e+01   1.006e+01
//    mass4l                                     1.241e+02   4.522e+00
//
// Created: Sun Jan 20 19:28:36 2013
//-----------------------------------------------------------------------------
#include <cmath>
#include <vector>
#include <iostream>
//-----------------------------------------------------------------------------
// Make following visible only to this programming unit
namespace nsHiggs0M_4e {
  // NOTE: Network indices start at 0
  static const int nnetworks=100;
  static const int ninputs  =8;
  static const int nhidden  =12;
  static const int nparams  =121;

  static const double mean[ninputs]={
  6.09000e-04,
 -1.25100e-02,
  3.60000e-03,
  1.41800e-02,
  1.87600e-02,
  8.09500e+01,
  3.01800e+01,
  1.24100e+02
  };

  static const double sigma[ninputs]={
  5.62800e-01,
  5.70300e-01,
  5.05700e-01,
  1.80900e+00,
  1.77500e+00,
  1.13300e+01,
  1.00600e+01,
  4.52200e+00
  };

  static const double weight[nnetworks][nparams]={
    {   2.481,    0.199,   -0.440,   -0.209,   -0.745,   -0.031,   -0.319,
        1.123,   -0.153,   -2.156,   -0.121,   -1.410,    0.074,    0.013,
       -0.008,   -0.095,   -0.201,    0.150,   -1.628,    0.165,   -0.383,
       -0.065,    2.818,    0.021,   -0.055,    0.138,   -0.163,   -2.038,
       -0.115,    0.461,    0.585,    1.193,   -0.106,   -1.050,   -0.150,
        0.576,    0.580,   -0.546,   -0.293,    0.159,    0.554,   -1.024,
       -0.616,   -0.600,    0.393,   -2.118,    0.234,   -1.168,    0.313,
        1.898,   -0.457,   -0.593,    0.255,    0.478,    2.567,    0.311,
       -0.510,   -0.253,    1.754,   -0.046,    0.326,   -0.138,   -0.445,
       -2.255,   -0.035,    1.413,    0.168,    0.044,    0.117,   -0.162,
       -0.299,    0.204,    2.101,    0.313,   -0.416,   -1.722,    0.048,
        0.238,    0.211,    0.004,   -0.791,   -2.931,   -0.139,    0.217,
       -0.065,    0.203,    0.071,    3.073,    2.826,   -1.174,   -1.240,
       -0.123,    0.627,   -1.366,   -0.129,   -0.334,   -0.420,    0.123,
        0.601,   -1.161,    0.862,    1.026,   -0.869,    1.998,    0.105,
        0.033,    0.777,    0.551,    0.196,   -0.845,   -1.139,   -0.751,
        0.590,    0.144,    0.517,   -0.795,   -1.080,    0.702,    1.087,
       -0.612,    0.365
    },
    {   2.605,    0.579,   -1.144,   -0.409,   -1.430,    0.505,    0.367,
        1.828,   -0.015,   -1.860,    0.255,   -0.951,    0.647,   -0.456,
        0.198,    0.491,    0.484,    0.305,   -1.408,   -0.080,    0.280,
       -0.103,    2.799,   -0.012,   -0.003,   -0.359,   -0.108,   -2.320,
        0.309,   -0.430,   -0.287,    1.858,   -0.282,   -1.173,    0.451,
        0.347,    3.226,    0.116,    1.829,    0.153,    0.186,    0.005,
        0.412,    0.844,   -0.022,   -2.216,   -0.148,    0.686,    0.424,
        1.474,    0.120,   -0.790,   -0.032,    0.347,    4.715,    0.223,
       -0.712,   -0.823,    3.625,    0.111,    0.573,    0.132,    0.013,
       -3.129,   -0.140,    1.736,    0.511,    0.310,    0.174,   -0.102,
       -0.202,    0.076,    1.306,   -0.005,   -1.299,   -0.976,    0.235,
        0.200,    0.241,   -0.063,   -0.204,   -2.843,   -0.030,    0.194,
        0.021,    0.062,   -0.035,    2.468,    2.237,   -0.905,   -1.805,
        0.278,    0.664,   -1.431,    0.209,   -0.004,    0.075,   -0.041,
       -0.020,   -1.030,    0.491,    0.591,   -0.411,    1.261,    0.310,
        0.613,    0.121,   -0.114,   -0.159,   -0.435,   -0.566,   -0.760,
        0.271,    0.839,    0.600,   -0.492,   -1.114,    0.521,    1.673,
       -0.785,    0.611
    },
    {   2.899,    0.408,   -0.732,   -0.556,   -1.357,    0.162,   -0.070,
        2.072,   -0.033,   -1.799,   -0.070,   -0.603,    1.135,   -0.284,
        0.349,    0.688,    0.519,    0.335,   -1.370,   -0.004,   -0.047,
       -0.032,    3.411,    0.110,   -0.147,   -0.212,    0.296,   -2.156,
        0.408,   -1.083,    0.032,    2.026,   -0.012,   -0.542,   -0.202,
        0.999,    2.137,   -0.033,    0.894,    0.069,    0.023,    0.003,
        0.288,    0.409,   -0.037,   -3.693,   -0.319,    0.498,    0.695,
        1.970,    0.080,   -1.756,   -0.035,    0.060,    3.459,   -0.083,
       -0.585,   -0.207,    2.505,    0.235,    0.595,    0.122,   -0.233,
       -1.943,    0.115,    1.503,    0.433,   -0.119,    0.119,   -0.484,
       -0.326,   -0.042,    3.296,    1.354,   -1.732,    0.632,    0.390,
        1.046,   -0.179,   -0.014,   -1.742,   -2.808,   -0.037,    0.199,
        0.081,    0.234,   -0.005,    2.508,    2.330,   -0.857,   -3.496,
        0.776,    1.226,   -3.400,   -0.392,    0.008,   -0.413,    0.132,
        0.277,   -1.579,    1.300,    1.268,   -0.948,    2.484,    0.932,
       -0.215,   -0.531,    0.239,   -0.781,   -0.350,   -0.538,   -0.656,
        0.309,    2.048,    0.460,   -0.555,   -0.899,    0.105,    1.448,
       -0.470,    0.331
    },
    {   3.625,    0.218,   -1.352,    0.188,   -1.828,   -0.090,    0.094,
        1.753,    0.233,   -1.440,    0.121,   -0.482,    0.984,   -0.383,
        0.263,    0.114,    0.250,    0.002,   -1.054,   -0.130,   -0.418,
       -0.089,    3.752,    0.251,   -0.171,   -0.152,    0.236,   -5.970,
        0.716,   -2.270,    1.399,    0.731,    0.077,   -1.477,   -0.911,
       -0.562,    2.738,    0.097,    1.842,    0.673,   -0.076,    0.001,
        0.105,    0.259,   -0.302,   -1.498,    0.142,   -0.550,    0.059,
        1.109,   -0.066,   -0.446,    0.170,    0.311,    3.002,    0.150,
       -0.343,   -0.411,    2.333,    0.033,    0.184,    0.141,    0.069,
       -2.441,   -0.046,    1.483,    0.394,    0.153,    0.162,   -0.136,
       -0.375,    0.032,    2.469,   -0.573,   -0.746,   -1.858,   -0.903,
       -1.511,    1.101,    0.563,   -0.631,   -2.045,   -0.045,    0.053,
       -0.161,    0.154,    0.006,    1.910,    1.861,   -0.806,   -1.811,
        0.226,    0.997,   -1.594,   -0.109,   -0.303,    0.115,    0.384,
       -0.132,    1.500,    0.658,   -0.083,    0.155,    2.196,    0.338,
       -0.118,    0.561,   -0.354,   -0.629,   -0.617,   -0.889,   -0.544,
       -0.432,    0.760,    0.610,   -0.706,   -1.276,   -0.239,    1.392,
       -0.629,    0.353
    },
    {   0.770,    0.333,   -0.504,   -1.288,    0.797,   -0.309,   -0.820,
        0.390,    0.212,   -0.963,    0.067,   -0.222,    0.717,   -0.120,
        0.375,    0.285,    0.375,   -0.106,   -1.794,   -0.300,    0.201,
       -0.054,    3.473,   -0.471,    0.143,   -0.704,   -0.177,   -3.804,
       -0.393,   -0.902,   -1.531,    1.182,    0.869,    0.904,    0.996,
        0.068,    2.857,    0.021,    1.510,    0.142,   -0.259,    0.184,
        0.408,    0.645,   -0.281,   -4.607,   -0.117,    0.622,    0.816,
        2.005,    0.296,   -2.489,    0.370,    0.216,    2.506,    0.131,
       -0.246,   -0.423,    2.206,   -0.251,    0.442,   -0.183,   -0.286,
       -2.622,   -0.181,    1.629,    0.467,   -0.028,    0.023,   -0.329,
       -0.034,    0.218,    3.046,   -0.256,    0.439,   -0.132,   -2.072,
       -0.311,    0.117,    0.575,   -0.176,   -2.754,   -0.101,    0.170,
        0.013,    0.193,    0.039,    2.355,    2.226,   -0.908,   -2.610,
        0.531,    1.129,   -1.880,   -0.260,   -0.093,   -0.705,   -0.299,
       -0.516,    3.106,    0.683,   -0.263,    0.551,    4.088,    0.347,
       -0.209,    0.393,   -1.184,   -0.407,   -0.136,   -1.014,   -0.403,
       -0.363,    1.187,    0.457,   -0.624,   -0.859,   -0.711,    1.735,
       -0.474,    0.457
    },
    {  -2.656,   -0.387,   -0.261,   -0.641,   -0.867,    0.617,   -0.717,
        1.128,    0.813,   -1.503,    0.357,   -0.353,    1.668,   -0.701,
        0.211,    0.804,    1.041,    0.251,   -1.361,   -0.594,    0.389,
       -0.148,    3.630,   -0.109,   -0.371,   -0.686,    0.365,   -3.861,
       -0.475,   -0.377,    0.302,    0.531,    0.791,   -0.131,    0.062,
       -0.862,    2.482,    0.033,    1.502,    0.007,   -0.205,   -0.065,
        0.341,    0.467,   -0.060,   -2.816,   -0.124,    0.430,    0.088,
        0.618,   -0.260,   -0.297,    1.068,   -0.247,    2.195,    0.049,
       -0.245,   -0.097,    1.883,   -0.049,    0.418,    0.113,   -0.343,
       -3.447,   -0.495,    1.886,    0.706,   -0.044,    0.329,   -0.274,
       -0.070,   -0.136,    2.039,   -0.093,    0.470,   -0.014,   -1.272,
       -0.064,    0.566,    0.622,   -0.237,   -2.495,   -0.064,    0.243,
        0.008,    0.080,    0.025,    2.227,    1.947,   -0.815,   -1.800,
        0.216,    0.684,   -1.698,   -0.198,   -0.097,   -0.230,    0.152,
        0.092,    1.466,    0.422,   -0.451,   -0.463,    3.223,    0.166,
        0.108,    0.027,   -0.950,    0.661,    0.092,   -0.368,   -0.480,
        0.178,    1.588,    0.601,   -0.583,   -0.669,   -0.997,    1.646,
       -0.631,    0.352
    },
    {  -4.659,    0.016,    1.046,   -0.089,   -0.022,    0.827,    1.194,
        0.472,   -0.661,   -2.018,   -0.014,   -0.712,    1.466,   -0.493,
        0.508,    1.411,    1.205,   -0.518,   -0.851,   -0.085,    0.154,
       -0.011,    3.562,   -0.448,    0.108,   -0.066,   -0.030,   -5.319,
        0.079,   -1.631,   -0.021,    0.817,   -1.051,    0.555,   -1.164,
        1.827,    1.849,    0.126,    1.112,    0.228,   -0.201,    0.074,
        0.174,    0.422,   -0.131,   -4.587,   -0.214,    0.793,    0.713,
        2.129,    0.052,   -1.888,    0.389,    0.230,    2.030,    0.555,
        0.463,   -0.748,    2.083,   -0.123,    0.821,    0.264,   -0.149,
       -3.081,   -0.292,    2.093,    0.405,    0.252,    0.009,   -0.621,
       -0.358,    0.469,    4.703,    0.131,    0.585,    0.025,   -2.923,
       -0.211,    0.447,    0.853,   -0.329,   -3.139,   -0.028,    0.104,
        0.042,    0.009,    0.053,    2.830,    2.701,   -1.229,   -2.307,
        0.166,    0.664,   -1.832,    0.155,    0.228,    0.182,    0.263,
       -0.473,    0.857,    0.000,   -0.163,   -0.213,    3.912,   -0.356,
        0.730,    0.302,   -0.493,    1.307,    1.025,   -0.508,   -0.430,
        0.015,    1.159,    0.324,   -0.391,   -0.626,   -0.739,    1.526,
       -0.477,    0.511
    },
    {  -6.588,   -0.933,   -1.174,   -0.388,   -0.689,   -0.448,    0.287,
       -1.012,    0.228,   -1.336,    0.074,   -0.509,    0.730,    0.020,
        0.287,    0.477,    0.454,    0.025,   -1.454,   -0.296,    0.097,
       -0.126,    4.120,   -0.492,   -0.556,   -0.538,    0.617,   -9.451,
        0.920,   -0.076,   -0.642,   -0.408,    0.634,   -0.088,    0.239,
        0.712,    2.945,    0.151,    2.310,    0.487,   -0.011,    0.119,
        0.677,    0.468,    0.093,   -5.013,    0.865,   -0.031,   -0.209,
        2.485,   -0.706,   -2.800,    0.635,    0.782,    4.165,    0.233,
        0.222,   -0.614,    4.035,   -0.288,    1.218,    0.257,   -0.305,
       -2.262,   -0.030,    1.529,    0.537,    0.098,    0.040,   -0.288,
        0.072,   -0.008,    6.614,   -0.116,    0.667,   -1.351,   -5.040,
       -0.531,   -0.428,    0.129,    0.169,   -2.474,    0.054,    0.136,
        0.111,    0.086,    0.030,    2.331,    2.222,   -0.796,   -2.123,
        0.382,    0.916,   -1.907,   -0.252,   -0.023,   -0.001,    0.141,
        0.039,    2.152,    0.544,   -0.578,    0.525,    3.278,    0.283,
        0.488,    0.648,   -1.047,    0.713,    0.047,   -1.086,   -0.316,
        0.815,    0.601,    0.394,   -0.446,   -0.778,   -0.403,    1.466,
       -0.421,    0.385
    },
    {  -6.689,    0.068,   -1.418,    0.254,   -0.232,   -0.227,    0.071,
        0.346,    1.228,   -2.313,   -0.099,    1.292,    0.536,    0.246,
        0.186,   -0.193,   -0.250,    0.214,   -1.336,   -0.422,    0.238,
       -0.015,    2.946,   -0.115,   -0.437,   -0.634,    0.204,   -4.202,
        0.477,   -0.519,    0.841,    0.606,   -1.162,   -0.115,   -0.720,
        0.078,    3.525,   -0.065,    2.049,    0.550,    0.448,   -0.025,
        0.586,    0.532,   -0.191,   -2.736,    0.139,    0.334,    0.639,
        1.581,   -0.107,   -1.375,   -0.466,    0.472,    4.118,    0.036,
        0.279,    0.118,    2.549,    0.108,    0.126,    0.124,   -0.101,
       -1.728,    0.259,    1.248,    0.701,   -0.147,   -0.457,   -0.121,
        0.242,   -0.562,    2.515,    0.208,   -0.460,    0.098,   -1.425,
       -0.004,   -0.418,    1.364,    0.159,   -1.900,    0.012,    0.189,
       -0.134,    0.194,   -0.030,    1.462,    1.377,   -0.504,   -1.499,
        0.067,    0.414,   -0.909,   -0.074,    0.011,    0.513,    0.312,
       -0.186,    2.222,    0.077,    1.281,   -0.935,    0.538,   -0.102,
       -0.766,   -0.352,   -0.341,    0.900,    0.670,   -0.890,   -0.499,
       -0.314,    0.858,    0.683,   -0.749,   -0.119,   -0.536,    2.217,
       -1.068,    0.673
    },
    {  -2.283,    0.021,    0.651,   -0.452,    1.324,    0.015,    0.273,
       -1.048,   -0.107,   -2.497,    0.560,    0.320,    0.795,    0.234,
        0.295,   -0.296,   -0.456,   -0.102,   -1.718,   -0.195,    0.297,
        0.063,    3.589,    0.058,   -0.062,    0.040,   -0.366,   -1.183,
        1.017,   -1.240,   -0.434,   -1.589,    0.306,   -1.320,    0.372,
        1.158,    2.305,    0.054,    1.301,    0.022,   -0.040,   -0.036,
        0.551,    0.602,   -0.150,   -2.089,   -0.236,    0.077,    0.328,
        1.026,   -0.060,   -2.621,   -0.146,    0.631,    5.167,    0.187,
       -0.077,   -0.011,    2.921,    0.278,   -0.170,    0.184,   -0.288,
       -2.309,   -0.340,    1.580,    0.184,   -0.051,    0.128,   -0.193,
       -0.106,    0.296,    3.138,   -0.069,    0.413,   -0.023,   -1.975,
       -0.097,    1.162,    0.458,   -0.493,   -2.335,   -0.009,    0.120,
        0.060,    0.163,   -0.030,    1.978,    1.824,   -0.801,   -2.082,
        0.427,    0.304,   -1.965,   -0.099,   -0.281,   -0.060,   -0.476,
       -0.138,    2.189,    0.157,    0.761,   -0.743,    0.622,   -0.094,
       -1.452,   -1.196,   -0.156,    0.530,    0.642,   -0.764,   -0.463,
        0.027,    0.976,    0.276,   -0.854,   -0.872,   -0.550,    2.048,
       -0.519,    0.615
    },
    {  -0.587,    0.461,    0.874,   -0.047,    1.807,    0.549,    0.494,
        0.123,   -0.297,   -1.984,   -0.059,    1.138,    0.653,   -0.194,
        0.104,   -0.001,    0.027,   -0.013,   -2.224,   -0.331,    0.519,
       -0.112,    4.006,   -0.152,    0.063,   -0.097,   -0.124,   -5.446,
        0.728,    0.191,   -1.168,    0.632,    0.200,    0.266,   -1.351,
       -0.236,    3.808,    0.197,    2.053,    0.476,   -0.316,    0.323,
        0.526,    0.859,   -0.207,   -4.403,   -0.565,    0.007,    0.125,
       -1.095,   -0.899,   -1.506,   -0.928,    1.348,    5.964,    0.094,
       -0.911,   -0.831,    4.587,   -0.012,    0.158,   -0.001,   -0.041,
       -3.346,   -0.316,   -0.936,   -0.063,    0.309,   -0.406,   -1.964,
        1.304,    1.281,    3.402,   -0.068,    0.164,   -0.365,   -2.717,
       -0.025,    0.725,    0.675,   -0.474,   -3.121,    0.042,    0.105,
        0.066,    0.163,    0.049,    2.760,    2.674,   -1.073,   -2.170,
        0.364,    0.734,   -2.078,   -0.147,    0.169,   -0.322,   -0.170,
       -0.052,    1.393,   -0.106,    0.972,   -0.595,    0.119,   -0.272,
       -0.625,   -0.570,   -0.043,    0.353,    0.344,   -1.072,   -0.504,
        0.490,    0.721,   -0.103,   -0.416,    0.199,   -0.465,    1.734,
       -0.543,    0.694
    },
    {  -0.566,    0.339,    1.142,   -0.009,    1.475,    0.230,    0.116,
        0.361,    0.135,   -2.177,   -0.070,    1.380,    0.468,    0.146,
        0.055,   -0.197,   -0.293,    0.003,   -1.798,   -0.105,    0.101,
        0.062,    3.518,    0.170,    0.134,   -0.144,    0.282,   -8.330,
        0.059,   -0.435,    1.143,    1.101,   -0.345,   -1.423,   -0.890,
       -1.572,    3.774,    0.331,    2.132,    0.583,    0.399,    0.015,
        0.650,    0.996,    0.241,   -1.374,    0.616,    2.057,    0.364,
       -0.469,   -1.091,   -0.732,    0.019,   -0.605,    3.389,    0.339,
       -0.429,   -0.355,    2.575,    0.391,    0.551,    0.064,    0.359,
       -4.163,   -0.378,    0.750,    0.446,    2.791,   -0.284,   -1.929,
       -0.463,    0.573,    4.264,    0.561,   -1.031,   -0.082,   -1.215,
        0.290,   -0.498,    2.620,    0.475,   -2.847,    0.047,    0.123,
       -0.119,    0.313,   -0.072,    2.982,    2.731,   -1.049,   -3.076,
        0.103,    1.163,   -2.379,    0.053,   -0.224,    0.217,    0.327,
       -0.055,    1.954,   -0.046,    0.863,   -0.761,    0.150,   -0.091,
       -1.111,   -1.225,   -0.178,   -0.543,    0.487,   -1.249,   -0.608,
       -0.165,    0.755,   -0.181,   -0.556,    0.569,   -0.517,    1.245,
       -0.565,    0.599
    },
    {  -0.597,    0.382,    0.472,    0.047,    1.683,    0.326,    0.713,
        0.112,   -0.503,   -2.747,   -0.102,    2.302,    0.544,   -0.110,
       -0.364,   -0.378,   -0.086,    0.323,   -1.744,    0.085,    0.156,
        0.029,    3.422,   -0.047,    0.275,    0.078,   -0.272,   -0.109,
        0.787,   -0.306,   -0.860,   -0.775,    2.425,    0.416,   -0.354,
       -1.052,    3.836,    0.021,    3.559,    0.080,   -0.342,    0.441,
       -0.104,    0.093,   -0.712,   -2.051,    0.202,    3.035,   -0.741,
       -0.246,   -0.726,   -0.077,    0.630,    0.925,    3.336,   -0.109,
       -0.727,   -0.347,    2.396,    0.142,    0.408,   -0.052,   -0.165,
       -4.922,    0.473,   -1.465,   -0.199,    0.714,   -0.648,   -1.138,
        2.942,    0.024,    2.813,    0.094,   -0.154,   -0.230,   -1.949,
        0.119,    0.581,    0.416,   -0.363,   -2.721,   -0.066,    0.127,
        0.052,    0.156,    0.071,    2.659,    2.504,   -1.001,   -3.076,
        0.366,    0.817,   -3.050,   -0.241,    0.174,   -0.807,   -0.329,
       -0.233,    2.104,   -0.231,    0.348,   -1.662,    0.118,   -0.689,
       -0.902,   -0.898,    0.482,    0.815,    0.566,   -0.502,   -0.636,
       -0.079,    0.434,   -0.194,   -0.542,    0.223,   -0.611,    1.223,
       -0.319,    0.442
    },
    {  -0.818,    0.481,    0.727,   -0.450,    1.279,    0.506,    0.058,
        0.498,   -0.035,   -2.874,   -0.037,    1.491,    0.892,    0.120,
        0.479,   -0.031,   -0.318,   -0.367,   -1.231,   -0.013,    0.282,
       -0.298,    3.440,    0.080,   -0.098,   -0.067,   -0.082,    0.388,
       -0.293,   -0.199,   -0.851,   -1.672,    0.535,   -0.585,    1.049,
        0.270,    4.802,   -0.021,    2.983,    0.156,   -0.056,   -0.030,
        0.741,    1.018,   -0.298,   -2.542,   -0.263,    2.523,   -0.261,
        0.276,   -0.339,   -0.794,   -0.056,    0.611,    5.058,    0.170,
       -0.781,   -0.627,    4.049,   -0.309,    0.874,    0.170,   -0.348,
       -4.280,   -0.465,    0.509,    1.000,    2.400,    0.240,   -2.145,
        0.099,    0.253,    5.075,    0.893,   -2.089,    0.048,   -2.432,
        0.048,    0.649,    3.286,   -0.021,   -2.716,   -0.008,    0.144,
        0.054,    0.017,   -0.014,    2.222,    2.048,   -0.854,   -3.989,
        0.686,    1.513,   -3.896,   -0.107,    0.396,   -0.361,   -0.041,
        0.031,    2.560,   -0.140,    0.898,   -1.320,    0.645,   -0.232,
       -2.278,   -2.178,    0.152,    1.167,    0.567,   -0.813,   -0.501,
       -0.132,    0.652,   -0.447,   -0.492,    0.486,   -0.434,    2.307,
       -0.434,    0.428
    },
    {   0.990,    0.522,   -0.249,    0.373,    2.286,   -0.004,    0.312,
       -0.056,   -0.657,   -4.244,   -0.198,    2.326,    0.219,    0.161,
        0.478,    0.055,   -0.407,    0.178,   -1.606,   -0.083,    0.100,
        0.106,    4.351,   -0.150,    0.121,   -0.168,   -0.029,    0.772,
       -0.946,   -0.937,    0.284,   -1.282,   -0.681,    0.117,   -0.206,
        0.094,    2.469,   -0.112,    1.560,    0.096,    0.148,   -0.136,
        0.683,    0.678,    0.116,   -1.944,   -0.122,    1.225,    0.690,
       -0.099,   -0.279,   -0.447,    0.021,   -0.135,    2.993,    0.286,
       -0.336,   -0.022,    2.394,    0.004,    0.354,    0.048,   -0.002,
       -3.855,   -0.155,    0.272,    0.724,    1.321,   -0.672,   -2.380,
        0.159,    0.142,    2.467,    0.757,   -0.890,    0.146,   -1.506,
        0.190,    0.377,    1.625,   -0.074,   -2.586,   -0.095,    0.185,
        0.029,    0.154,   -0.025,    2.618,    2.381,   -0.963,   -1.645,
        0.096,    0.578,   -1.533,   -0.072,   -0.088,    0.051,   -0.149,
       -0.131,    3.148,    0.392,    1.556,   -1.390,    0.346,   -0.392,
       -2.490,   -1.577,    0.023,   -0.606,    0.238,   -0.931,   -0.437,
       -0.246,    0.684,   -0.748,   -0.533,    0.370,   -0.427,    1.420,
       -0.589,    0.488
    },
    {   1.010,    0.033,   -0.001,   -0.203,    1.154,    0.070,   -0.170,
        0.088,   -0.456,   -3.822,   -0.321,    1.842,    0.512,    0.236,
        0.455,    0.028,   -0.033,    0.137,   -1.377,    0.098,   -0.338,
       -0.241,    3.788,    0.363,   -0.316,   -0.255,   -0.045,    1.564,
       -0.739,   -1.319,    0.531,   -2.046,   -0.556,   -0.681,   -0.412,
        0.311,    3.010,   -0.008,    1.535,    0.312,    0.314,    0.095,
        0.676,    0.989,    0.014,   -1.849,    0.070,    1.465,    0.556,
       -0.135,   -0.206,   -0.187,   -0.015,   -0.087,    2.439,    0.035,
       -0.481,   -0.263,    1.922,    0.144,    0.143,   -0.022,   -0.151,
       -2.149,   -0.217,    0.314,    0.391,    1.353,   -0.066,   -1.065,
        0.008,    0.070,    1.390,   -0.085,    0.166,   -0.804,   -0.336,
       -0.131,    0.235,    1.921,   -0.378,   -2.959,   -0.000,    0.137,
        0.093,    0.080,   -0.031,    2.528,    2.295,   -0.988,   -3.691,
        0.331,    1.365,   -2.904,    0.010,   -0.038,   -0.557,   -0.336,
        0.033,    2.492,    0.157,    0.889,   -1.688,    0.057,   -0.361,
       -0.425,   -0.311,    0.082,    0.881,    0.716,   -0.501,   -0.668,
       -0.493,    0.588,   -0.897,   -1.039,    0.780,   -0.358,    2.204,
       -0.464,    0.495
    },
    {  -1.054,   -2.111,    0.217,    0.051,    1.327,   -1.218,   -1.768,
       -0.571,    0.101,   -2.815,   -0.089,    1.482,    0.289,    0.133,
        0.218,   -0.165,   -0.178,    0.039,   -1.566,   -0.029,   -0.030,
       -0.034,    3.267,    0.094,   -0.399,   -0.216,    0.217,    1.427,
       -0.776,   -1.370,    0.409,   -2.160,   -0.235,   -0.787,   -0.445,
       -0.237,    3.624,    0.060,    1.753,    0.313,   -0.019,    0.159,
        0.463,    0.590,   -0.230,   -1.871,   -0.212,    2.345,    0.028,
        0.210,   -0.998,   -0.459,   -0.041,    0.714,    3.294,    0.143,
       -0.582,    0.031,    2.413,    0.200,    0.361,    0.006,   -0.058,
       -2.972,    0.374,   -0.100,   -0.073,    1.856,   -0.560,   -1.292,
        0.584,    0.275,    2.738,    0.087,   -0.568,   -0.087,   -1.876,
       -0.163,    0.242,    1.333,   -0.143,   -3.148,   -0.007,    0.106,
        0.011,    0.068,    0.118,    2.083,    1.835,   -0.743,   -3.051,
        0.441,    0.457,   -2.807,   -0.356,    0.225,   -0.011,   -0.094,
       -0.446,    1.620,    0.275,    0.786,   -1.110,    0.529,   -0.149,
       -0.894,   -0.401,   -0.173,    3.257,    0.160,   -1.057,   -0.636,
       -0.328,    1.393,   -0.406,   -0.496,    0.628,   -0.550,    5.269,
       -0.478,    0.470
    },
    {  -0.521,    0.116,    0.020,    0.314,    0.359,   -0.194,    0.072,
        0.196,   -0.678,   -1.632,   -0.052,    0.868,    0.257,   -0.373,
        0.039,   -0.034,   -0.090,   -0.034,   -0.971,   -0.038,   -0.118,
       -0.028,    2.988,    0.099,   -0.221,   -0.040,    0.109,    0.711,
       -0.629,   -0.330,    0.617,   -1.371,   -0.377,    0.552,    0.867,
       -0.519,    2.314,   -0.027,    1.295,    0.211,    0.438,   -0.154,
        0.426,    0.470,   -0.101,    0.620,    0.226,    0.853,   -0.015,
       -0.823,   -0.164,   -0.015,    0.951,    0.380,    3.233,    0.141,
       -0.668,   -0.072,    2.308,    0.033,    0.241,    0.252,   -0.021,
       -1.463,   -0.022,   -1.245,   -0.213,    0.722,    0.200,   -0.566,
        0.467,    0.236,    0.569,   -0.126,   -1.180,   -0.146,   -1.182,
       -0.128,    0.100,   -0.093,    0.045,   -3.061,   -0.022,    0.214,
        0.000,    0.003,    0.052,    2.217,    2.068,   -0.822,   -2.143,
        0.314,    0.936,   -1.706,    0.005,    0.079,   -0.142,    0.081,
       -0.147,    2.072,   -0.048,    0.630,   -1.077,   -0.099,   -0.287,
       -0.051,   -0.322,   -0.326,    0.848,    0.083,   -2.284,   -0.889,
       -0.281,    1.147,   -0.182,   -1.273,    0.487,   -0.828,    3.141,
       -0.634,    0.456
    },
    {   0.433,   -0.507,   -1.886,    0.736,   -0.234,    0.718,   -0.250,
       -1.264,   -0.725,   -1.952,    0.001,    1.148,    0.689,   -0.351,
        0.131,   -0.171,   -0.012,    0.008,   -1.214,    0.039,   -0.083,
       -0.222,    3.343,    0.265,   -0.264,    0.186,    0.088,    2.098,
        0.041,    0.103,    0.402,   -1.067,    0.417,    0.793,   -0.495,
       -0.517,    2.385,    0.031,    1.471,    0.232,   -0.007,    0.107,
        0.421,    0.412,   -0.184,    5.025,   -0.350,   -1.228,    0.284,
       -3.133,   -0.668,   -1.118,    1.415,   -0.170,    3.386,   -0.005,
       -0.936,   -0.295,    2.353,   -0.056,    0.145,   -0.165,   -0.129,
       -0.772,    0.361,   -0.483,    1.015,    0.483,   -0.206,   -0.448,
       -0.331,    0.190,    0.449,   -0.276,   -0.760,    0.455,   -1.996,
       -0.540,    0.042,   -0.377,   -0.165,   -2.437,   -0.044,    0.095,
       -0.025,    0.108,    0.019,    2.166,    1.947,   -0.893,   -2.380,
        0.154,    0.778,   -1.845,    0.094,    0.183,   -0.096,    0.013,
        0.070,    2.569,    0.182,    1.345,   -1.329,    0.113,   -0.471,
       -1.171,   -0.871,   -0.256,    0.050,    0.253,   -1.043,   -0.848,
       -0.580,    1.029,   -0.300,   -0.699,    0.295,   -0.661,    1.585,
       -0.600,    0.601
    },
    {  -1.794,    0.322,   -1.379,    0.117,    0.656,    0.405,   -1.424,
       -0.122,    0.719,   -2.530,   -0.119,    1.431,    0.583,    0.131,
        0.034,   -0.084,   -0.096,   -0.121,   -1.208,    0.282,    0.063,
       -0.054,    2.878,    0.108,    0.136,   -0.245,   -0.095,    2.533,
        0.179,   -0.918,   -0.647,   -1.509,    0.030,    1.530,    0.260,
       -0.110,    2.564,    0.080,    1.267,    0.283,   -0.032,   -0.017,
        0.425,    0.484,   -0.102,    3.130,    0.488,   -0.821,    0.308,
       -1.644,    0.467,   -0.437,    1.552,    0.619,    3.967,    0.318,
       -0.383,    0.016,    3.073,    0.265,    0.140,   -0.199,    0.469,
       -0.420,    0.605,    1.651,    0.503,   -0.093,   -0.293,   -1.046,
        0.813,   -0.740,    0.771,   -0.849,   -0.893,    0.288,   -1.847,
       -0.072,   -0.322,    0.237,    0.209,   -2.576,    0.050,    0.083,
       -0.077,    0.182,   -0.046,    2.096,    1.948,   -0.767,   -2.167,
       -0.025,    0.595,   -1.625,    0.111,   -0.205,    0.074,   -0.148,
       -0.066,    1.342,   -0.020,    0.723,   -0.515,    0.324,   -0.067,
       -0.564,   -0.549,   -0.090,    0.099,    0.329,   -1.127,   -0.509,
       -0.428,    1.319,   -0.450,   -0.497,   -0.171,   -0.317,    2.498,
       -0.849,    0.766
    },
    {   2.239,   -0.083,   -0.879,   -0.583,   -1.692,    1.446,    2.118,
        1.350,   -0.381,   -2.142,   -0.130,    1.710,    0.787,   -0.656,
        0.036,   -0.424,   -0.298,   -0.048,   -1.817,    0.200,   -0.084,
       -0.170,    3.445,   -0.001,    0.146,   -0.038,    0.054,    2.580,
        0.110,    0.199,    0.235,   -0.972,    0.143,    0.586,   -0.621,
        0.058,    1.867,    0.061,    1.350,    0.631,    0.260,   -0.505,
        0.294,    0.341,    0.018,    2.764,    0.226,   -0.010,   -0.232,
       -1.143,   -0.044,    0.422,    1.041,   -0.070,    3.517,    0.081,
       -1.363,   -0.689,    2.810,    0.050,    0.621,    0.175,   -0.237,
       -1.335,    0.462,    1.630,   -0.356,   -0.287,    0.630,    0.448,
        1.040,    0.079,    1.234,   -0.860,   -0.950,    0.486,   -1.587,
       -0.426,   -0.234,   -0.474,   -0.364,   -2.688,   -0.037,    0.053,
        0.090,    0.175,   -0.012,    2.774,    2.539,   -1.059,   -1.364,
        0.144,    0.406,   -1.371,    0.283,   -0.306,   -0.435,   -0.250,
        0.257,    1.398,    0.049,    0.808,   -0.926,    0.131,    0.092,
       -0.540,   -0.371,   -0.174,    0.807,   -0.053,   -0.883,   -0.514,
       -0.518,    0.483,   -0.820,   -0.661,   -0.356,   -0.474,    1.188,
       -0.575,    0.756
    },
    {  -9.523,   -0.048,    0.348,    0.063,    0.627,    0.989,    0.937,
       -0.603,   -1.150,   -2.166,   -0.221,    1.278,    0.776,   -0.291,
        0.222,   -0.580,   -0.341,   -0.137,   -1.319,    0.169,   -0.023,
       -0.116,    2.716,    0.006,    0.128,   -0.003,   -0.033,    2.977,
       -0.067,   -0.498,   -0.538,   -1.200,    0.016,    1.734,   -0.185,
       -0.500,    1.427,   -0.117,    0.951,    0.719,    0.079,   -0.323,
       -0.080,    0.267,    0.362,    3.023,    0.355,   -0.743,    0.551,
       -1.712,    0.108,    0.153,    0.897,   -0.119,    2.892,    0.188,
       -0.609,   -0.372,    2.131,   -0.009,    0.359,   -0.109,    0.063,
       -0.401,    0.258,    1.029,   -0.122,   -0.135,    0.033,    0.722,
        0.833,   -0.009,    0.691,   -0.546,   -0.598,    0.352,   -1.081,
       -0.324,   -0.200,    0.018,    0.184,   -2.069,   -0.022,   -0.017,
        0.035,    0.119,   -0.053,    1.931,    1.841,   -0.697,   -1.359,
        0.053,    0.464,   -1.039,    0.128,   -0.072,   -0.580,   -0.378,
        0.146,    1.106,    0.070,    0.598,   -0.562,    0.339,    0.032,
       -0.033,   -0.128,   -0.116,   -0.141,   -0.406,   -0.977,   -0.785,
       -0.645,    0.696,   -0.469,   -0.979,   -0.848,   -0.822,    1.617,
       -0.826,    1.243
    },
    {  -2.981,   -0.725,    0.670,    0.253,    1.023,   -0.588,   -0.059,
        0.664,    0.449,   -2.602,   -0.348,    1.329,    0.667,   -0.064,
        0.186,   -0.415,   -0.475,    0.463,   -1.303,    0.023,    0.015,
       -0.254,    2.604,    0.116,    0.087,   -0.191,    0.007,    2.206,
       -0.098,   -0.025,   -0.347,   -0.930,    0.129,    1.100,   -0.118,
       -0.180,    1.302,   -0.032,    0.625,   -0.704,    0.350,   -0.064,
        0.001,   -0.268,    0.081,    2.473,    0.729,   -0.557,   -0.179,
       -1.063,   -0.086,    0.167,    1.243,   -0.041,    2.222,    0.110,
       -0.369,   -0.238,    1.763,   -0.091,    0.256,   -0.224,   -0.145,
       -0.619,   -0.108,    0.611,   -0.085,   -0.089,    0.010,    0.879,
        0.606,   -0.128,    1.419,   -0.300,   -0.951,    0.648,   -1.784,
       -0.371,   -0.629,    0.043,    0.191,   -1.951,   -0.050,    0.063,
       -0.016,    0.134,   -0.006,    1.386,    1.294,   -0.562,   -2.084,
       -0.322,   -1.107,   -0.934,   -0.229,   -0.150,   -0.009,   -0.357,
        0.205,    1.527,   -0.315,   -1.180,    0.893,   -0.129,    0.088,
        0.726,   -0.068,    0.415,    1.295,    0.034,   -1.039,   -0.735,
       -0.852,    1.163,   -0.478,   -0.736,   -0.798,   -0.522,    3.030,
       -0.817,    0.636
    },
    {   2.048,   -1.115,   -0.642,    0.490,   -0.789,    0.041,    0.691,
       -0.032,   -0.377,   -1.775,    0.068,    1.264,   -0.035,   -0.133,
        0.081,   -0.201,   -0.296,    0.198,   -1.296,    0.039,   -0.116,
       -0.084,    2.914,   -0.025,   -0.133,   -0.190,   -0.007,    0.836,
        0.353,    0.338,   -0.093,   -1.069,    0.570,   -0.095,   -0.615,
        0.283,    1.582,   -0.022,   -0.110,   -1.492,    0.560,   -0.091,
       -0.701,   -0.818,    0.304,    3.148,    0.201,   -0.695,   -0.169,
       -1.323,    0.285,    0.069,    2.010,   -0.146,    3.142,    0.109,
       -0.450,   -0.298,    2.439,   -0.024,    0.141,    0.141,   -0.118,
       -2.435,    0.536,    0.681,   -2.249,   -0.098,   -0.086,   -0.126,
        0.224,   -0.057,    0.782,   -0.547,   -0.927,    0.287,   -1.123,
       -0.374,   -0.011,    0.002,   -0.052,   -2.777,   -0.015,    0.192,
        0.067,    0.146,    0.036,    2.404,    2.047,   -0.857,   -1.896,
       -0.238,   -1.388,   -0.009,   -0.088,    0.160,   -0.269,   -0.431,
        0.157,   -1.703,   -0.304,   -1.650,    0.147,    1.338,    0.667,
       -0.979,   -0.411,    0.252,    1.151,   -0.266,   -1.050,   -0.884,
       -0.413,    0.496,   -0.487,   -0.772,   -0.450,   -0.568,    1.830,
       -0.845,    0.459
    },
    {   1.663,    0.309,    0.985,   -0.002,   -1.361,   -0.038,    0.019,
       -0.070,    0.326,   -2.024,   -0.024,    1.463,    0.353,   -0.445,
        0.262,   -0.066,   -0.018,   -0.047,   -0.996,    0.005,   -0.173,
       -0.197,    2.433,    0.045,   -0.104,    0.064,    0.012,   -2.798,
        0.378,   -0.198,    0.354,   -0.031,    0.013,    0.010,    0.079,
       -0.131,    1.665,    0.109,    1.014,   -0.896,    0.033,   -0.239,
       -0.704,   -0.732,   -0.230,    1.285,   -0.027,   -0.155,   -0.363,
       -0.145,   -0.207,    0.056,    0.996,    0.083,    2.761,    0.233,
       -0.335,   -0.183,    2.144,    0.003,    0.129,   -0.106,   -0.012,
       -1.502,    0.068,    0.287,   -1.602,   -0.023,   -0.179,    0.175,
        0.455,    0.026,    0.345,   -0.223,   -0.381,    0.300,   -1.026,
       -0.269,    0.098,   -0.239,   -0.159,   -2.276,    0.016,    0.130,
       -0.001,    0.052,    0.024,    1.788,    1.553,   -0.618,   -2.690,
        0.181,   -1.378,   -0.079,    0.079,    0.026,   -0.627,   -0.657,
        0.017,   -1.079,    0.158,   -0.596,    0.255,    0.528,   -0.214,
       -0.388,    0.176,    0.021,   -0.565,   -0.359,   -1.051,   -0.844,
       -1.878,    0.789,   -0.332,   -0.805,   -0.604,   -0.862,    2.825,
       -1.102,    0.632
    },
    {   3.004,   -0.271,    1.240,    0.670,   -1.780,    0.079,    1.067,
        0.189,   -0.582,   -3.480,   -0.343,    2.312,    0.523,   -0.325,
        0.173,    0.210,   -0.216,    0.078,   -1.263,    0.031,    0.422,
       -0.091,    2.564,    0.097,    0.181,   -0.041,   -0.127,   -1.400,
        0.262,    1.003,    0.346,   -0.154,    0.016,   -0.409,   -0.116,
       -0.294,    1.472,   -0.034,   -0.448,   -1.210,    0.217,   -0.094,
       -0.235,   -0.356,   -0.266,    3.477,    0.497,   -1.252,   -0.314,
       -1.636,    0.233,    0.391,    2.308,   -0.110,    2.824,   -0.036,
       -0.771,   -0.452,    2.127,    0.075,    0.473,   -0.029,   -0.249,
       -1.968,    0.287,    0.886,   -1.948,   -0.003,   -0.209,   -0.766,
       -0.552,    0.322,    0.643,   -0.394,   -0.779,   -0.015,   -1.420,
       -0.204,   -0.200,    0.071,    0.035,   -2.461,   -0.039,    0.257,
        0.031,    0.194,    0.003,    2.312,    2.073,   -0.869,   -3.719,
        0.010,   -2.425,   -0.062,    0.146,    0.103,   -0.415,   -0.698,
        0.360,   -2.856,   -0.223,    0.573,    0.700,    1.106,    0.066,
       -1.522,    0.118,   -0.265,    0.603,   -0.511,   -0.573,   -0.953,
       -0.465,    0.686,   -0.448,   -0.774,   -0.583,   -0.904,    1.521,
       -0.907,    0.495
    },
    {   0.173,   -0.433,    0.295,   -0.133,    0.080,    0.976,   -0.003,
        0.538,   -0.616,   -1.755,   -0.111,    1.170,    0.500,   -0.225,
        0.221,   -0.117,   -0.121,   -0.127,   -0.988,    0.244,   -0.111,
       -0.093,    2.813,    0.244,    0.311,    0.388,   -0.144,   -2.895,
        0.216,    0.621,   -0.055,   -0.170,    0.449,   -0.252,    1.211,
        0.846,    1.428,    0.052,    0.630,   -0.814,    0.342,   -0.269,
       -0.661,   -0.498,   -0.228,    2.146,    0.324,   -0.113,   -0.323,
       -0.444,   -0.282,    0.405,    0.901,   -0.086,    2.474,    0.113,
       -0.638,   -0.234,    1.809,    0.074,    0.255,   -0.023,    0.039,
       -1.073,    0.207,    0.440,   -0.856,    0.112,    0.015,    0.105,
        0.211,    0.116,    0.504,   -0.340,   -0.390,    0.185,   -0.938,
       -0.223,   -0.150,   -0.262,    0.058,   -2.466,   -0.047,    0.167,
        0.011,   -0.013,   -0.018,    2.252,    2.025,   -0.830,   -2.864,
       -0.069,   -1.615,   -0.265,   -0.104,    0.238,   -0.529,   -0.634,
       -0.241,   -2.320,    0.083,   -0.362,   -0.284,    0.998,    0.135,
       -0.353,    0.363,    0.062,    0.583,    0.081,   -1.200,   -0.644,
        0.224,    0.706,   -0.801,   -0.629,   -0.990,   -0.922,    1.533,
       -0.751,    0.398
    },
    {  -9.714,   -0.332,   -0.159,    0.732,    0.119,    0.564,    0.324,
        0.513,   -0.729,   -2.255,   -0.110,    1.207,    0.454,   -0.017,
        0.145,    0.178,    0.147,   -0.073,   -1.307,   -0.091,   -0.049,
        0.121,    3.581,    0.040,   -0.471,    0.013,    0.163,   -9.308,
        0.067,    0.452,   -0.772,    0.428,   -0.374,   -0.677,    1.177,
        0.105,    1.411,    0.188,    0.384,   -0.648,    0.165,   -0.350,
       -0.893,   -0.969,   -0.227,    2.669,    0.325,   -0.433,   -0.171,
       -0.889,    0.328,    0.153,    1.347,    0.103,    2.697,    0.163,
       -0.307,   -0.357,    2.149,    0.080,   -0.007,   -0.249,   -0.256,
       -2.467,    0.270,    0.993,   -2.157,   -0.069,   -0.027,   -0.010,
        0.250,    0.139,    0.794,   -0.512,   -0.358,    0.357,   -0.988,
       -0.244,   -0.447,   -0.897,   -0.164,   -2.545,   -0.047,    0.195,
        0.044,    0.060,    0.064,    1.638,    1.523,   -0.555,   -1.912,
       -0.022,   -1.036,   -0.084,    0.165,   -0.097,   -0.192,   -0.270,
        0.126,   -0.942,   -0.106,   -0.622,    0.059,    0.740,    0.039,
       -0.285,    0.021,    0.226,    0.875,   -1.129,   -0.963,   -0.519,
        0.034,    0.770,   -0.612,   -0.458,   -0.594,   -0.483,    3.942,
       -1.630,    0.858
    },
    {  -3.003,   -0.531,    0.004,   -0.199,    0.483,    0.352,   -1.329,
       -0.875,    0.389,   -1.903,   -0.020,    1.248,    0.514,   -0.169,
        0.133,   -0.152,   -0.116,   -0.072,   -0.927,   -0.069,    0.012,
        0.044,    2.837,   -0.011,   -0.575,   -0.629,    0.251,  -10.024,
        0.030,   -0.423,   -1.688,    0.095,    0.794,    0.099,    0.335,
       -0.154,    2.212,    0.214,    0.865,   -1.189,    0.306,   -0.466,
       -0.353,   -0.218,   -0.335,    1.645,    0.297,   -0.100,   -0.526,
       -0.310,   -0.396,    0.391,    1.070,   -0.304,    3.284,    0.220,
       -0.576,   -0.409,    2.337,    0.095,    0.186,   -0.327,   -0.022,
       -2.334,    0.574,    1.089,   -2.186,   -0.168,    0.043,   -0.168,
        0.205,   -0.018,    0.755,   -0.480,   -0.834,   -0.023,   -1.369,
       -0.213,   -0.207,    0.114,    0.275,   -2.572,   -0.046,    0.068,
        0.054,    0.133,    0.080,    2.172,    1.909,   -0.873,   -2.854,
       -0.028,   -1.555,   -0.308,   -0.053,    0.099,   -0.472,   -0.708,
       -0.097,   -1.783,    0.175,   -0.347,   -0.054,    1.242,    0.015,
       -1.314,   -0.155,    0.330,    0.638,   -0.067,   -1.232,   -0.662,
        0.231,    0.784,   -0.514,   -0.559,   -0.431,   -0.622,    2.063,
       -0.915,    0.559
    },
    {   1.119,   -0.774,   -0.933,    0.158,   -1.673,   -0.158,   -0.636,
       -0.337,    0.097,   -1.837,    0.011,    1.121,    0.660,    0.175,
        0.024,   -0.116,   -0.076,   -0.021,   -1.030,   -0.032,    0.308,
        0.078,    2.263,    0.013,    0.086,   -0.024,    0.117,   -4.603,
        1.390,   -0.207,   -0.255,    0.328,    0.329,   -0.572,    0.181,
       -0.154,    1.946,    0.071,    0.900,   -0.750,    0.220,   -0.229,
       -0.941,   -0.952,   -0.062,    3.711,    0.494,    0.330,   -0.195,
       -1.422,   -0.005,    0.612,    1.048,   -0.192,    3.285,    0.017,
       -0.645,   -0.011,    2.540,    0.108,    0.286,   -0.159,   -0.160,
       -1.555,    0.221,    0.724,   -1.351,   -0.276,    0.050,    0.210,
        0.292,    0.177,    1.333,    0.052,   -0.553,   -0.360,   -1.220,
       -0.257,    0.397,    0.396,   -0.048,   -2.265,   -0.106,    0.043,
        0.047,    0.157,    0.000,    1.935,    1.765,   -0.679,   -2.687,
       -0.148,   -1.455,   -0.252,    0.022,   -0.085,   -0.444,   -0.578,
        0.056,   -1.997,    0.102,   -0.452,   -0.199,    0.960,   -0.294,
       -1.174,    0.393,    0.342,   -0.305,   -0.506,   -1.178,   -0.792,
       -0.556,    0.824,   -0.663,   -0.430,   -0.748,   -0.582,    1.982,
       -1.138,    0.365
    },
    {   0.298,   -0.385,   -0.492,    0.198,   -0.772,   -0.053,   -0.133,
       -0.305,   -0.159,   -1.328,    0.081,    1.310,    0.099,   -0.185,
       -0.293,   -0.050,    0.155,   -0.356,   -1.073,   -0.030,   -0.009,
        0.070,    2.614,    0.204,   -0.110,   -0.117,    0.193,    1.091,
        0.451,    0.380,   -0.669,    0.423,   -0.027,   -0.043,    0.673,
       -0.130,    0.321,   -0.187,   -1.041,   -0.286,    0.348,   -0.201,
       -0.869,   -1.307,   -0.399,    2.186,    0.435,   -0.497,    0.084,
       -0.752,   -0.148,   -0.117,    1.621,    0.234,    3.493,    0.350,
       -0.602,   -0.297,    2.508,    0.199,    0.259,   -0.063,    0.047,
       -1.746,    0.084,    0.395,   -1.518,    0.454,   -0.183,   -0.304,
       -0.330,   -0.127,    3.967,    0.063,   -1.472,   -0.926,   -0.037,
       -0.455,    0.241,    0.113,   -0.360,   -2.144,    0.040,    0.299,
       -0.116,    0.208,   -0.034,    1.814,    1.667,   -0.823,   -2.320,
       -0.002,   -1.029,    0.067,   -0.029,   -0.068,   -0.101,   -0.093,
        0.115,   -1.732,   -0.102,    0.072,   -0.120,    1.033,   -0.213,
       -0.966,   -0.022,    0.131,   -1.233,   -0.785,   -0.649,   -0.711,
        0.063,    0.325,   -0.472,   -0.630,   -0.816,    0.909,    1.662,
       -2.309,    0.803
    },
    {   1.063,   -0.189,   -0.286,    0.264,   -1.040,   -0.294,   -0.554,
        0.297,    0.087,   -2.361,   -0.202,    1.025,    0.738,    0.084,
        0.071,   -0.443,   -0.177,   -0.306,   -1.371,   -0.089,   -0.025,
       -0.219,    3.286,    0.021,   -0.370,   -0.372,    0.091,    1.250,
        0.089,    0.496,   -0.971,    0.170,   -0.200,   -0.314,   -0.227,
       -0.048,   -0.460,   -0.029,   -0.242,    0.181,   -0.641,   -0.294,
        0.129,    0.136,    0.790,    1.610,   -0.511,   -0.055,    0.080,
        1.663,    0.801,   -0.906,    0.699,    0.069,    3.829,    0.093,
       -0.285,   -0.061,    3.360,   -0.181,    0.046,    0.010,    0.192,
       -1.020,    0.080,    0.938,   -0.324,   -0.080,    0.091,    0.135,
        0.256,    0.066,    3.137,   -0.282,   -1.162,    0.263,    0.154,
       -0.061,    0.280,   -0.764,   -0.590,   -2.702,   -0.048,    0.219,
        0.078,    0.014,   -0.076,    2.367,    2.170,   -0.924,   -1.276,
        0.009,   -0.719,   -0.566,   -0.137,    0.121,   -0.219,   -0.391,
       -0.146,   -1.787,   -0.105,    0.184,    0.306,    1.137,   -0.005,
       -0.900,   -0.010,    0.063,    0.350,   -0.601,   -0.691,   -0.655,
        0.888,   -0.311,    0.032,   -0.557,   -1.501,   -0.810,    1.659,
       -1.165,    0.649
    },
    {   0.837,   -0.375,   -0.596,    0.213,   -1.146,   -0.482,   -0.435,
       -0.307,    0.230,   -3.280,   -0.292,    1.066,    1.187,    0.774,
        0.073,   -0.068,   -0.377,   -0.435,   -1.572,   -0.185,    0.040,
       -0.187,    3.180,    0.154,   -0.205,   -0.374,    0.233,    1.004,
        0.107,    0.507,   -0.706,    0.142,   -0.074,   -0.368,   -0.281,
        0.008,    4.060,    0.143,   -0.110,   -0.142,    0.289,    1.409,
        0.496,    0.218,   -0.287,   -3.521,    1.223,    0.391,   -0.605,
       -0.770,   -0.223,    0.343,   -1.547,    0.417,    2.513,    0.163,
       -0.395,   -0.157,    1.936,    0.162,   -0.028,   -0.176,   -0.017,
       -0.642,    0.173,    0.793,   -0.261,   -0.140,    0.035,    0.155,
        0.251,   -0.034,    3.805,   -0.432,   -0.485,    0.135,    0.210,
        0.528,   -0.163,   -1.454,   -0.335,   -2.506,    0.012,    0.084,
       -0.005,    0.082,   -0.004,    1.754,    1.538,   -0.711,   -1.546,
       -0.035,   -0.852,   -0.880,   -0.154,    0.089,   -0.007,   -0.370,
       -0.075,   -2.572,   -0.350,    0.601,    0.541,    1.641,   -0.062,
       -0.695,   -0.379,    0.191,    0.527,   -0.499,   -0.709,   -0.526,
        1.205,    1.948,    0.107,   -0.522,   -1.469,   -0.582,    3.895,
       -0.959,    0.442
    },
    {   0.860,   -0.156,   -0.372,    0.305,   -0.881,   -0.166,   -0.291,
        0.184,    0.163,   -2.241,   -0.084,    1.373,    0.548,   -0.038,
        0.089,   -0.235,   -0.077,   -0.288,   -1.491,   -0.187,    0.115,
        0.124,    2.673,    0.063,    0.341,   -0.215,   -0.086,    1.635,
        0.299,    0.571,   -0.725,    0.403,   -0.259,   -0.705,   -0.438,
       -0.018,    2.437,   -0.314,    1.018,    0.351,   -0.146,    0.260,
        0.536,    0.557,    0.151,   -3.532,   -1.745,    0.524,    0.248,
       -0.517,    0.399,    0.046,   -0.053,   -0.937,    2.974,    0.249,
       -0.498,   -0.280,    1.974,   -0.177,    0.242,    0.176,    0.503,
       -2.046,    0.100,    1.091,   -1.374,    0.101,    0.086,    0.046,
        0.187,    0.080,    3.500,   -0.399,   -0.479,    0.764,    0.137,
       -0.085,    0.232,   -0.933,   -0.099,   -2.526,   -0.190,    0.095,
        0.039,   -0.008,    0.042,    1.982,    1.870,   -0.801,   -1.909,
        0.081,   -0.765,   -0.814,    0.128,    0.145,   -0.118,   -0.517,
       -0.768,   -2.968,   -0.220,    0.302,    0.583,    1.473,   -0.252,
       -1.713,   -0.324,    0.050,    0.916,   -0.983,   -1.061,   -0.531,
        0.617,    0.619,   -0.010,   -0.619,   -0.950,   -0.760,    2.057,
       -0.423,    0.556
    },
    {   0.696,   -0.074,   -0.448,    0.232,   -0.904,   -0.159,   -0.125,
        0.070,   -0.027,   -2.838,   -0.425,    1.658,    1.140,   -0.706,
        0.119,   -0.377,   -0.257,   -0.231,   -1.136,   -0.204,    0.381,
       -0.113,    2.382,   -0.011,   -0.059,   -0.212,    0.099,    1.770,
        0.075,    0.877,   -0.957,    0.147,   -0.322,   -0.525,   -0.313,
       -0.077,    6.321,   -0.545,   -2.131,    0.642,    0.383,    0.537,
        0.642,   -0.992,    0.083,    6.990,   -0.088,   -0.111,   -0.026,
        0.393,    0.053,    0.572,   -0.632,   -1.479,    3.870,    0.361,
       -1.036,   -0.613,    2.894,    0.057,    0.457,    0.017,    0.038,
       -1.098,    0.091,    0.919,   -0.352,    0.192,    0.051,    0.120,
        0.180,    0.057,    9.839,   -0.572,    1.208,   -0.403,    0.234,
       -0.004,   -0.487,   -1.234,   -0.059,   -2.846,   -0.019,    0.076,
        0.068,    0.001,    0.066,    2.125,    1.971,   -0.797,   -1.895,
        0.000,   -0.818,   -0.928,    0.047,    0.031,   -0.156,   -0.375,
       -0.181,   -1.186,   -0.342,   -0.007,    0.041,    0.892,   -0.228,
       -0.632,    0.162,   -0.034,    2.645,   -1.663,   -0.590,   -1.062,
        0.808,   -0.751,   -0.697,   -0.572,   -1.371,    0.086,    2.949,
       -0.961,    0.551
    },
    {   0.673,   -0.117,   -0.459,    0.010,   -0.860,   -0.164,    0.070,
        0.215,   -0.014,   -1.116,    0.033,    0.528,    0.234,   -0.092,
        0.080,   -0.017,    0.060,    0.045,   -1.319,    0.004,    0.133,
        0.034,    2.634,    0.148,    0.129,   -0.123,    0.023,    1.147,
        0.212,    0.919,   -0.340,    0.048,    0.040,   -0.491,   -0.214,
       -0.167,    3.492,   -0.441,   -1.214,    0.131,    0.603,   -0.105,
       -0.129,   -1.053,    0.314,    5.092,   -0.147,   -0.580,    0.808,
        0.366,   -1.010,    0.378,    0.654,   -0.778,    3.324,    0.078,
       -0.900,   -0.637,    2.334,    0.106,    0.623,    0.061,   -0.359,
       -1.004,    0.110,    0.319,   -1.030,    0.174,   -0.111,   -0.165,
       -0.085,   -0.039,    9.842,   -0.974,   -0.534,   -0.208,    0.484,
        0.719,    0.641,   -0.742,   -0.263,   -2.603,   -0.002,    0.086,
        0.002,    0.057,    0.043,    1.813,    1.660,   -0.682,   -2.348,
       -0.010,   -0.980,    0.216,    0.014,    0.035,   -0.534,   -0.337,
        0.130,   -1.709,   -0.168,   -0.616,   -0.141,    0.989,   -0.397,
       -0.701,    0.196,    0.309,    1.240,   -1.566,   -3.351,   -0.998,
        0.702,   -0.598,   -0.883,   -0.838,   -0.985,   -0.203,    3.747,
       -2.217,    0.718
    },
    {   1.930,    0.172,   -0.625,    0.131,   -1.051,    0.124,    0.067,
        0.766,    0.006,   -3.327,   -0.857,    1.970,    0.440,    0.136,
        0.148,   -0.207,    0.139,    0.232,   -1.128,   -0.048,   -0.637,
        0.274,    2.923,    0.087,   -0.209,   -0.053,    0.256,    1.738,
        0.352,    0.592,   -1.080,    0.048,   -0.042,   -0.771,   -0.628,
       -0.058,    2.549,   -0.968,    0.052,    1.430,    0.062,   -0.638,
        0.471,    0.730,    0.034,    2.525,   -0.734,   -2.616,   -0.125,
       -0.006,    0.447,    0.705,    0.541,    0.212,    3.013,    0.239,
        0.166,    0.072,    1.820,    0.055,    0.101,    0.311,   -0.203,
       -1.105,   -0.196,   -0.584,   -1.235,    0.029,   -0.078,    0.600,
        0.287,    0.081,    4.003,    0.023,   -0.782,    0.047,   -0.463,
        0.477,    0.995,   -1.170,   -0.399,   -2.732,   -0.108,    0.161,
        0.061,    0.078,   -0.067,    2.508,    2.216,   -0.937,   -2.624,
        0.043,   -1.416,    0.035,   -0.194,    0.130,   -0.447,   -0.528,
        0.135,   -0.825,   -0.153,   -1.018,    0.288,    1.459,    0.183,
       -0.140,    0.192,    0.232,    0.280,   -0.528,   -0.598,   -0.565,
        0.834,    0.022,    0.418,   -0.745,   -0.634,   -0.466,    1.757,
       -1.342,    0.699
    },
    {   1.466,   -0.103,   -0.183,    0.075,   -1.277,   -0.225,   -0.296,
        0.882,   -0.024,   -3.080,    0.118,    1.749,    0.285,    0.383,
       -0.007,   -0.606,   -0.676,    0.624,   -1.744,   -0.214,    0.072,
        0.295,    3.866,    0.053,   -0.359,   -0.641,   -0.233,    2.388,
        0.097,    1.490,   -1.031,    0.165,   -0.118,   -1.059,   -0.747,
       -0.335,    2.231,    0.322,   -1.600,   -0.848,    0.361,   -0.203,
        0.252,   -0.057,    0.043,    3.030,    0.264,   -0.481,    0.456,
        2.182,    0.049,    0.602,    0.263,    0.140,    4.243,   -0.393,
       -0.366,   -1.173,    2.700,   -0.113,    1.154,    0.248,   -1.149,
       -1.427,    0.193,    0.327,   -1.182,    0.019,   -0.107,    0.223,
        0.164,    0.156,    3.518,   -0.070,   -1.020,   -0.563,   -1.279,
       -0.043,    1.598,    0.327,   -0.248,   -2.203,   -0.065,    0.129,
       -0.040,    0.104,   -0.061,    2.172,    2.137,   -0.765,   -3.195,
        0.089,   -1.636,   -0.358,    0.201,    0.101,   -0.548,   -0.866,
        0.109,   -1.902,    0.246,   -0.530,   -0.275,    1.218,   -0.044,
       -0.808,   -0.260,    0.445,   -0.715,   -0.533,   -0.458,   -0.440,
        0.605,    0.617,   -0.239,   -0.209,   -0.737,   -0.370,    1.151,
       -1.326,    0.590
    },
    {   0.323,   -0.453,   -0.814,    0.285,   -1.344,   -0.307,   -0.041,
       -0.505,    0.038,   -1.638,   -0.111,    1.029,    0.297,   -0.146,
        0.103,   -0.128,   -0.045,   -0.026,   -1.544,   -0.002,    0.222,
       -0.251,    3.999,    0.087,   -0.458,   -0.561,    0.339,    3.675,
        0.164,    1.545,   -3.016,    0.373,   -0.390,   -2.049,   -1.213,
        0.353,    1.237,    0.785,   -1.372,   -0.920,    0.850,   -0.005,
       -2.041,   -1.726,   -2.234,    5.285,   -0.883,   -2.614,    1.135,
       -0.798,    0.703,    1.361,   -1.312,    0.178,    6.045,    0.363,
       -0.973,   -0.489,    4.852,    0.277,    0.261,   -0.302,   -0.060,
       -2.477,    0.480,    1.059,   -1.956,    0.086,   -0.242,   -0.233,
       -0.045,    0.178,    2.579,    0.519,   -0.656,   -0.298,   -0.550,
        0.499,   -1.171,    1.566,   -0.168,   -2.981,   -0.009,    0.168,
        0.112,    0.133,    0.121,    2.581,    2.424,   -0.986,   -3.480,
       -0.184,   -2.317,   -0.576,   -0.247,    0.140,   -0.390,   -0.464,
       -0.210,   -2.388,   -0.275,   -0.025,    0.161,    1.860,    0.095,
       -1.756,   -0.740,    0.580,    0.548,   -0.632,   -1.212,   -0.598,
        0.334,    0.212,   -0.044,   -0.642,   -0.510,   -0.338,    1.768,
       -0.546,    0.440
    },
    {   0.900,   -0.621,   -1.077,    0.808,   -1.708,   -0.524,    0.392,
       -0.079,   -0.147,   -2.164,   -0.117,    1.388,    0.577,   -0.338,
        0.028,   -0.281,   -0.260,    0.027,   -1.179,    0.178,   -0.109,
       -0.258,    2.689,    0.212,   -0.670,   -0.563,    0.189,    3.258,
        0.545,    0.943,   -1.849,    0.511,   -0.378,   -1.247,   -0.912,
       -0.489,    1.898,   -0.485,   -2.319,    0.780,    0.221,   -0.707,
       -1.020,   -1.586,    0.048,    1.541,   -0.181,    3.120,   -0.238,
        1.021,   -0.415,   -0.181,   -0.005,    0.520,    4.481,    0.306,
       -0.509,   -0.371,    3.521,   -0.043,    0.310,   -0.337,   -0.038,
       -2.996,    0.367,    1.003,   -2.602,   -0.323,   -0.179,   -0.302,
        0.116,    0.440,    6.761,   -0.387,    0.490,   -1.476,   -4.537,
       -0.628,    0.999,    2.375,   -0.802,   -3.084,   -0.093,    0.225,
       -0.051,    0.118,    0.125,    3.156,    2.809,   -1.134,   -4.843,
        0.006,   -2.826,   -0.739,   -0.198,    0.197,   -0.606,   -0.962,
       -0.077,   -4.716,    0.529,   -0.373,   -0.622,    2.345,    0.013,
       -1.760,    1.338,    0.602,   -0.301,   -0.317,   -0.792,   -0.615,
        0.583,    0.325,    0.283,   -0.445,   -0.516,   -0.430,    1.137,
       -0.558,    0.365
    },
    {   6.235,   -0.502,    2.306,    1.438,   -3.616,   -0.831,    1.367,
       -0.236,   -0.786,   -3.967,   -0.357,    2.150,    0.483,   -0.092,
        0.158,    0.273,    0.056,   -0.106,   -1.972,   -0.259,    0.473,
       -0.204,    4.052,    0.243,   -0.560,   -0.805,    0.197,    3.451,
        0.317,    1.678,   -1.507,    0.750,   -0.194,   -1.366,   -1.257,
       -0.584,    1.412,    0.202,   -1.937,   -0.193,    0.329,    0.315,
        0.024,   -0.034,   -0.794,    3.156,   -0.012,    1.834,    0.371,
        0.132,   -0.081,    0.377,    0.480,   -0.065,    4.811,    0.331,
       -0.568,   -0.078,    3.404,    0.372,    0.429,    0.157,   -0.239,
       -6.461,    0.500,    2.172,   -4.904,    0.159,   -0.444,   -0.114,
       -0.429,    0.287,    6.445,    0.311,   -2.449,    1.521,   -4.388,
       -0.379,   -1.721,    2.034,    0.199,   -3.294,   -0.143,    0.243,
        0.027,    0.090,   -0.067,    3.149,    2.870,   -1.170,   -1.745,
       -0.603,   -1.653,   -1.791,    0.709,   -0.280,   -0.237,   -0.225,
       -0.255,   -3.716,   -0.390,    0.188,    0.709,    2.626,   -0.371,
       -1.716,   -0.532,    0.275,   -0.319,   -0.366,   -0.953,   -0.500,
        0.520,    0.332,    0.952,   -0.370,   -0.387,   -0.466,    1.396,
       -0.238,    0.466
    },
    {   1.381,   -0.091,    0.476,    0.182,   -0.364,   -0.656,   -0.049,
       -0.889,   -0.741,   -2.780,   -0.219,    1.656,    0.832,    0.229,
        0.198,   -0.378,   -0.114,    0.001,   -2.204,   -0.086,    0.075,
        0.139,    3.521,   -0.252,    0.125,    0.124,   -0.941,    1.836,
        0.031,    0.959,   -0.794,    0.101,   -0.247,   -0.360,   -0.216,
       -0.156,    0.497,    0.262,   -0.605,    0.763,    0.151,    0.496,
        0.048,   -0.381,   -1.504,    3.078,   -0.036,    1.478,    0.861,
        0.225,    0.130,    0.508,    0.874,   -0.064,    4.146,    0.354,
       -0.090,    0.267,    2.537,    0.138,   -0.081,   -0.008,   -0.249,
       -2.116,   -0.300,    0.862,   -1.495,    0.247,    0.112,    0.393,
        0.354,   -0.069,    3.117,    0.246,   -0.714,    0.075,   -2.479,
        0.002,    0.197,    0.871,   -0.208,   -2.931,   -0.103,    0.209,
       -0.023,    0.353,   -0.084,    2.691,    2.490,   -1.002,   -1.204,
       -0.097,    0.758,   -1.063,   -1.449,    1.082,   -0.224,    0.918,
       -0.010,   -3.612,    0.116,    0.840,    0.536,    1.184,    0.073,
       -1.719,    0.213,    0.134,   -0.004,   -0.130,   -1.068,   -0.351,
        0.909,    0.292,    0.858,   -0.692,   -0.531,   -0.489,    1.547,
       -0.033,    0.560
    },
    {  -2.156,    0.130,    0.670,   -1.916,    0.062,    0.049,    0.404,
        0.263,    0.147,   -1.403,    0.039,    0.901,    0.289,   -0.275,
        0.094,   -0.128,   -0.093,   -0.050,   -1.169,    0.076,    0.117,
       -0.214,    2.483,   -0.027,   -0.309,   -0.310,   -0.014,    1.660,
        0.059,    0.392,   -0.949,    0.304,   -0.293,   -1.034,   -0.833,
       -0.125,    1.505,    0.301,   -0.598,   -0.547,    0.116,    0.049,
       -0.080,   -0.431,   -0.596,    3.892,    0.087,    2.063,   -0.072,
        0.302,    0.125,    0.623,    0.668,   -0.348,    3.090,    0.067,
       -0.719,   -0.408,    2.239,    0.023,    0.204,    0.036,   -0.171,
        0.417,   -0.318,   -0.572,    0.171,   -0.971,   -0.169,    0.048,
        0.128,   -0.050,    1.622,    0.571,   -0.533,   -0.513,   -1.026,
        0.103,    0.747,    1.083,   -0.128,   -2.162,   -0.069,    0.073,
        0.028,    0.029,   -0.010,    1.597,    1.453,   -0.621,   -5.212,
        0.275,    1.158,   -0.431,   -0.845,    0.480,    0.064,    0.356,
        1.262,   -3.601,    0.484,   -0.402,   -0.286,    1.843,   -0.352,
       -1.281,    1.165,    0.744,    1.024,   -0.758,   -1.612,   -0.931,
        0.609,    0.290,    1.266,   -1.146,   -1.085,   -0.379,    2.957,
        0.432,    0.398
    },
    {  -3.242,    0.743,    1.176,   -2.820,    0.083,    0.263,   -0.342,
        0.140,    0.111,   -2.420,   -0.358,    1.384,    0.297,   -0.220,
        0.165,   -0.227,   -0.114,    0.203,   -1.096,   -0.090,   -0.385,
       -0.017,    2.554,   -0.021,   -0.239,   -0.217,    0.317,    2.445,
        0.027,    0.860,   -1.127,    0.229,   -0.452,   -0.954,   -0.611,
       -0.055,   -1.588,    1.452,    1.177,    0.423,   -0.060,    1.162,
        1.349,   -0.044,    0.856,    1.481,    0.216,    1.057,    0.313,
       -0.271,    0.059,    0.030,    0.028,   -0.230,    3.259,    0.152,
       -0.381,   -0.173,    2.420,   -0.194,    0.086,   -0.169,    0.039,
        1.078,   -0.743,   -0.969,    0.558,   -1.332,   -0.477,    0.289,
       -0.466,   -0.454,    3.093,    0.639,   -0.567,   -0.481,   -1.476,
        0.059,    0.668,    2.331,   -0.451,   -2.872,   -0.150,    0.001,
        0.018,    0.142,    0.028,    2.735,    2.274,   -1.033,   -6.500,
       -0.572,    0.257,    0.760,    0.127,   -0.348,   -0.029,    0.929,
        0.083,   -0.832,   -0.059,   -0.692,   -0.051,    0.786,   -0.028,
       -0.077,    0.174,    0.260,    1.024,   -0.470,   -1.010,   -0.740,
        0.636,   -0.067,    1.194,   -0.616,   -0.406,   -0.446,    1.560,
        0.829,    1.241
    },
    {  -3.114,    0.569,    1.199,   -2.511,   -0.119,    0.223,    0.347,
        0.360,   -0.068,   -2.238,   -0.071,    1.189,    0.566,   -0.142,
        0.186,    0.134,    0.049,    0.021,   -2.144,   -0.058,    0.236,
       -0.023,    4.141,    0.013,   -0.011,   -0.280,   -0.167,    2.402,
        0.199,    1.292,   -0.900,    0.239,   -0.431,   -0.966,   -0.605,
       -0.168,    4.062,   -0.594,    0.454,    0.650,   -1.765,    0.321,
        1.040,   -1.306,   -1.242,    2.756,   -0.307,    1.439,    0.283,
       -0.110,    0.053,    0.594,    0.575,   -0.040,    5.224,   -0.016,
       -0.908,   -0.812,    4.060,    0.295,    0.385,    0.228,    0.135,
        1.554,   -0.616,   -0.116,    1.304,   -2.077,   -1.141,   -0.865,
        1.117,    0.296,    2.388,   -0.087,    0.054,   -0.444,   -1.813,
        0.109,    0.815,    0.340,    0.010,   -2.589,   -0.005,    0.212,
        0.021,    0.097,    0.066,    2.307,    2.130,   -0.831,   -1.393,
        1.136,    1.386,    1.109,   -0.216,    0.132,    0.757,    0.511,
       -0.890,   -2.553,   -0.387,   -1.672,   -2.513,    0.744,    0.265,
        1.515,    0.852,   -0.437,   -0.221,   -0.506,   -1.003,   -0.550,
        0.629,   -0.351,    1.080,   -0.303,   -0.430,   -0.588,    1.866,
       -0.117,   -0.176
    },
    {  -3.244,    0.367,    0.708,   -2.130,   -0.341,   -0.095,    0.782,
        0.450,   -0.173,   -2.463,   -0.428,    1.692,    0.619,    0.148,
       -0.057,   -0.284,   -0.302,    0.233,   -1.463,   -0.025,    0.085,
        0.083,    2.787,   -0.193,   -0.285,   -0.199,   -0.211,    2.042,
        0.252,    0.978,   -0.509,    0.107,   -0.296,   -0.780,   -0.355,
       -0.259,    2.560,   -0.084,   -0.476,   -0.326,   -1.126,    0.177,
        1.434,   -0.134,   -0.175,    2.775,    0.171,    1.500,    0.239,
       -0.007,    0.092,    0.498,    0.721,   -0.255,    3.463,    0.103,
       -0.170,   -0.019,    1.812,    0.173,    0.335,    0.420,   -0.309,
        2.218,    0.062,   -0.578,    0.147,   -1.684,    0.099,    0.055,
        0.884,   -0.040,    2.603,   -0.060,    0.631,   -0.309,   -1.757,
       -0.447,   -0.216,    0.713,   -0.621,   -2.456,    0.025,    0.065,
        0.037,    0.032,    0.074,    1.874,    1.653,   -0.707,   -1.455,
        0.516,    1.645,   -1.300,    0.203,    0.218,   -0.838,   -0.908,
        0.524,   -2.848,    1.142,   -0.149,    1.671,   -0.233,    0.397,
       -0.176,    0.442,    0.026,    1.723,   -0.508,   -0.745,   -0.603,
        0.706,   -0.696,    0.983,   -0.819,   -0.701,   -0.292,    2.811,
       -0.116,   -0.293
    },
    {  -1.863,   -0.248,   -0.602,    0.948,   -0.121,   -0.159,    0.296,
        0.334,    0.246,   -2.092,    0.021,    1.161,    0.328,    0.123,
        0.049,   -0.105,   -0.105,    0.099,   -1.220,   -0.181,   -0.302,
       -0.078,    2.139,   -0.020,   -0.211,   -0.508,   -0.019,    1.538,
        0.159,   -0.776,    0.243,    0.756,    0.113,   -0.644,   -0.160,
       -0.694,    3.671,   -0.520,    0.453,   -0.576,   -0.905,    0.279,
        1.320,   -1.254,   -0.043,    2.724,    0.039,    1.574,   -0.003,
       -0.094,   -0.064,    0.298,    0.493,   -0.206,    3.018,    0.161,
       -0.289,    0.112,    1.798,    0.070,   -0.107,   -0.320,   -0.126,
        2.162,    0.066,   -0.041,   -0.092,   -1.195,   -0.020,    0.366,
        0.475,   -0.156,    0.539,   -0.541,    0.839,   -0.313,    0.404,
       -0.433,   -0.015,   -0.481,   -0.175,   -2.312,   -0.016,    0.110,
       -0.041,    0.227,    0.012,    1.988,    1.740,   -0.724,   -0.800,
       -0.082,    0.109,   -0.822,   -0.204,   -0.071,    0.289,    0.324,
       -0.080,   -0.124,   -0.363,    0.100,    1.428,   -1.316,   -0.148,
       -0.073,    0.098,   -0.141,    0.133,   -0.603,   -1.393,   -0.419,
        0.132,   -0.246,    1.045,   -0.800,   -0.930,    0.121,    1.861,
       -0.674,   -0.107
    },
    {  -1.314,    0.046,   -0.733,    0.550,   -0.068,    0.314,    1.121,
        0.757,    0.125,   -2.207,   -0.163,    1.371,    0.351,   -0.214,
        0.376,   -0.001,   -0.150,    0.202,   -1.394,   -0.072,    0.070,
        0.100,    3.981,    0.045,   -0.957,   -0.548,    0.081,   -0.930,
        0.588,    0.940,   -0.083,    1.307,    0.778,   -0.202,   -0.127,
        0.007,    2.322,   -0.190,    0.992,    0.363,   -1.641,    1.081,
        1.556,   -0.049,   -0.650,    2.962,    0.136,    1.789,    0.186,
       -0.018,    0.253,    0.448,    0.725,   -0.337,    3.670,   -0.169,
       -0.569,   -0.160,    2.754,    0.132,    0.059,   -0.005,   -0.288,
        2.686,    0.307,    0.294,   -0.069,   -1.348,   -0.157,    0.015,
        1.353,   -0.416,   -2.696,    0.754,    1.832,    1.510,   -0.329,
       -1.867,   -0.298,    0.553,   -0.153,   -2.510,   -0.079,    0.067,
        0.032,    0.123,    0.021,    2.114,    1.920,   -0.743,   -2.871,
        0.572,    0.894,   -2.953,    0.058,    0.083,   -0.421,   -0.375,
        0.174,   -0.713,    0.683,   -0.645,   -1.672,    0.940,    0.016,
        1.285,   -0.642,    0.148,    0.405,   -0.646,   -0.846,   -0.514,
        0.421,   -0.422,    1.004,   -0.378,   -0.438,   -0.260,    2.096,
       -0.560,    0.013
    },
    {  -2.772,    0.218,   -0.591,    2.191,    0.166,    0.697,    0.427,
        0.239,   -0.024,   -2.969,   -0.448,    1.841,    0.502,    0.182,
        0.226,    0.014,    0.112,    0.221,   -1.281,    0.049,    0.048,
       -0.056,    3.070,    0.253,    0.122,    0.015,    0.010,   -0.534,
        0.413,    0.734,   -0.014,    1.190,    0.236,    0.188,    0.124,
       -0.129,    3.531,    0.278,    0.085,   -0.300,   -0.508,   -0.050,
        2.144,   -0.597,   -0.507,    3.187,    0.111,    1.788,    0.072,
        0.496,    0.127,    0.361,    0.497,   -0.109,    4.555,    0.301,
       -0.317,   -0.148,    3.529,    0.293,    0.210,   -0.065,    0.225,
        3.106,    0.299,   -0.554,   -0.305,   -1.731,   -0.062,    0.704,
        1.071,   -0.317,   -2.619,    0.649,    2.675,    0.048,    0.261,
       -0.493,   -0.137,    0.139,   -0.497,   -2.529,   -0.065,    0.146,
        0.055,    0.239,    0.017,    2.155,    2.059,   -0.826,   -3.173,
        0.678,    1.052,   -2.962,   -0.112,    0.197,   -0.541,   -0.429,
       -0.159,   -0.940,    0.018,    0.046,    0.516,    0.698,    0.858,
        0.715,   -1.126,   -1.053,    0.541,   -0.386,   -0.751,   -0.643,
        0.723,   -0.279,    0.796,   -0.459,   -0.717,   -0.419,    1.668,
       -0.337,    0.062
    },
    {  -2.045,   -0.078,   -1.247,    0.940,   -0.350,    0.287,    0.391,
       -0.133,    0.099,   -0.492,    0.348,    1.262,   -0.138,   -0.451,
       -0.220,    0.035,    0.883,    0.330,   -1.370,    0.143,   -0.428,
       -0.079,    3.131,    0.140,   -0.294,    0.128,   -0.037,   -0.577,
        0.512,    0.718,   -0.126,    0.869,    0.472,   -0.314,   -0.032,
        0.280,    1.930,   -0.241,   -0.074,    0.101,   -0.994,    0.487,
        0.895,   -0.582,   -0.085,    2.538,    0.147,    1.318,    0.502,
        0.155,   -0.065,    0.323,    0.492,   -0.238,    4.464,    0.013,
       -0.690,   -0.277,    3.390,    0.111,    0.709,    0.277,   -0.211,
        2.585,    0.194,   -0.044,   -0.226,   -1.198,   -0.203,    0.172,
        0.676,   -0.223,   -2.754,    0.278,    0.768,   -2.470,    0.056,
       -0.298,   -0.936,   -0.601,    0.113,   -2.516,   -0.011,    0.136,
        0.047,    0.080,   -0.017,    2.102,    1.901,   -0.806,    0.812,
       -0.319,   -0.013,   -0.915,    0.308,    1.301,    1.049,   -1.606,
        0.101,   -1.782,   -0.089,    0.989,    0.337,   -0.124,    0.213,
       -0.114,   -0.154,    0.122,    0.959,   -0.586,   -0.336,   -0.574,
        0.463,   -0.555,    0.817,   -0.600,   -0.850,   -0.451,    2.149,
        0.110,   -1.298
    },
    {  -1.342,    0.033,   -0.425,    0.428,   -0.054,    0.195,    0.692,
        0.613,    0.090,   -0.615,    0.415,    1.006,   -0.375,   -0.397,
        0.014,   -0.144,    0.718,    0.174,   -1.726,   -0.065,   -0.069,
        0.152,    3.868,   -0.011,   -0.251,   -0.207,    0.203,   -1.020,
        0.672,    0.936,   -0.511,    1.326,    0.484,    0.372,    0.007,
        0.073,    3.162,    0.674,   -0.134,   -0.150,   -0.147,   -0.772,
        0.489,    0.961,   -0.338,    2.922,    0.021,    2.115,    0.519,
       -0.318,    0.428,    0.310,    0.235,   -0.253,    2.698,   -0.216,
       -0.727,   -0.097,    2.241,    0.067,    0.360,    0.044,   -0.115,
        2.376,    0.138,   -0.860,    0.144,   -1.237,    0.210,    0.029,
        1.288,    0.324,   -1.446,   -0.075,    0.429,   -1.061,    0.065,
       -0.096,   -0.123,   -0.265,   -0.105,   -2.357,   -0.069,    0.085,
       -0.035,   -0.010,    0.020,    2.130,    1.818,   -0.886,    0.812,
       -0.010,    0.224,   -0.057,   -0.565,    0.103,    0.181,   -0.241,
       -0.189,   -2.192,   -0.061,    1.419,    0.313,    0.103,    0.020,
       -0.168,   -0.186,    0.141,    0.933,   -1.001,   -0.261,   -0.647,
        0.379,   -0.425,    0.671,   -0.539,   -0.558,   -0.797,    1.859,
       -1.454,   -0.914
    },
    {   0.076,    0.854,    0.299,    1.619,    0.082,    0.273,    1.278,
        0.306,    0.838,   -1.699,   -0.007,    0.968,   -1.239,    0.213,
       -0.041,   -0.123,   -0.186,    0.147,   -1.446,   -0.040,   -0.126,
       -0.114,    3.559,    0.051,    0.044,    0.175,    0.022,   -0.642,
        0.673,    0.629,   -0.446,    1.771,    0.240,   -0.075,    0.644,
        0.326,    2.946,    0.124,    0.891,   -1.140,   -0.070,   -0.364,
       -0.363,   -0.231,   -0.597,    2.886,    0.221,    1.778,    0.538,
        0.338,   -0.001,    0.421,    0.677,   -0.030,    3.389,    0.432,
       -0.828,    0.023,    2.704,    0.276,    0.664,    0.409,    0.084,
        1.176,    0.219,   -0.378,    0.088,   -1.046,    0.077,   -0.057,
        0.417,   -0.138,    1.779,   -0.658,    1.397,    0.420,    0.242,
        0.113,    0.089,    3.010,   -0.417,   -2.743,    0.041,    0.236,
        0.036,    0.094,   -0.021,    2.436,    2.294,   -0.945,    3.725,
       -0.261,   -1.008,   -0.072,   -1.436,   -0.272,    1.463,   -0.095,
       -0.182,   -2.476,   -0.169,    1.532,    0.763,    0.104,    0.007,
       -0.239,   -0.019,   -0.001,   -0.165,   -0.164,   -0.924,   -0.576,
        0.410,    0.462,    0.766,   -0.409,   -0.747,   -0.036,    1.392,
       -0.428,   -1.002
    },
    {   1.703,    1.604,   -0.672,   -0.281,   -1.894,   -2.208,    0.667,
       -1.331,    0.006,   -1.613,    0.022,    0.434,   -1.240,    0.127,
       -0.059,    0.170,    0.017,   -0.051,   -1.338,   -0.113,   -0.358,
       -0.195,    3.298,    0.128,   -0.003,    0.061,   -0.152,   -0.729,
        0.184,    0.341,   -0.170,    1.367,    0.259,    0.599,    0.128,
       -0.277,    2.168,    0.046,    0.926,   -0.972,    0.361,   -0.271,
       -0.805,   -0.510,   -0.493,    3.879,    0.159,    2.103,    0.415,
       -0.079,    0.136,    0.668,    1.023,    0.272,    3.439,    0.143,
       -0.937,   -0.152,    2.739,    0.254,   -0.032,    0.009,    0.092,
        2.683,    0.228,   -0.706,    0.258,   -1.501,   -0.058,   -0.218,
        1.372,    0.120,    4.441,   -0.783,   -1.026,   -0.075,   -0.027,
        0.266,   -0.586,   -0.316,    1.822,   -2.271,   -0.062,    0.087,
        0.013,    0.125,   -0.049,    2.076,    1.869,   -0.837,    3.272,
       -0.170,    0.046,    0.224,   -2.003,    0.600,    2.285,   -0.182,
       -0.402,   -2.683,   -0.059,    2.140,    0.827,    0.057,   -0.114,
       -0.100,   -0.315,   -0.161,    0.087,   -0.071,   -0.871,   -0.613,
        0.560,    0.651,    0.636,   -0.399,   -0.459,   -0.082,    1.475,
       -0.469,   -0.837
    },
    {   1.089,    0.869,    0.570,   -0.921,   -0.212,    1.524,    0.529,
       -0.084,   -0.338,   -1.129,    0.055,    0.177,   -1.037,    0.027,
        0.060,   -0.263,   -0.187,    0.089,   -1.521,   -0.163,    0.206,
       -0.148,    3.254,   -0.137,   -0.101,   -0.368,    0.227,   -0.349,
        0.161,    0.535,   -0.192,    0.791,    0.312,   -0.004,   -0.117,
        0.055,    2.418,    0.128,    0.957,   -0.905,    0.474,   -0.285,
       -0.697,   -0.642,   -0.394,    3.277,    0.151,    1.915,   -0.557,
       -0.036,   -0.124,    0.843,    0.717,    0.612,    3.420,    0.154,
       -0.706,   -0.367,    2.742,   -0.100,    0.392,   -0.056,    0.055,
        3.284,    0.579,   -0.401,   -0.114,   -1.163,    0.288,   -0.698,
        1.277,    0.875,   -0.803,    0.855,    0.135,    0.076,   -0.369,
       -1.551,   -0.562,    1.018,   -1.188,   -2.630,   -0.032,    0.043,
        0.036,    0.071,   -0.070,    1.971,    1.832,   -0.769,    1.293,
       -0.001,   -0.048,   -0.008,   -0.795,    0.092,    0.810,    0.135,
       -0.116,   -1.401,   -0.023,    1.012,    0.366,   -0.136,    0.065,
       -0.118,   -0.003,   -0.075,    1.453,   -0.090,   -0.859,   -0.803,
        1.030,    0.703,    0.524,   -0.783,   -0.382,    0.001,    2.826,
       -0.806,   -1.568
    },
    {  -2.661,   -0.365,   -0.331,   -0.153,   -0.101,    0.403,   -0.170,
       -0.450,    0.206,   -1.435,    0.082,    0.266,   -1.403,   -0.150,
       -0.024,    0.050,    0.144,    0.205,   -1.003,    0.110,    0.054,
       -0.432,    2.886,   -0.033,   -0.040,   -0.019,    0.157,   -0.340,
        0.322,    0.341,   -0.430,    1.206,    0.112,    0.081,    0.124,
        0.095,    1.412,    0.080,    0.445,   -0.837,    0.401,   -0.219,
       -0.507,   -0.604,   -0.064,    2.227,   -0.110,    0.988,    0.060,
        0.061,   -0.085,    0.154,    0.386,    0.201,    2.800,    0.065,
       -0.520,   -0.298,    2.163,   -0.076,    0.149,   -0.025,    0.078,
        2.227,    0.136,   -0.480,   -0.256,   -0.599,   -0.087,    0.029,
        1.288,    0.628,   -3.714,   -1.087,    0.432,    0.052,   -0.293,
       -0.742,   -0.678,   -0.257,    0.335,   -1.964,    0.013,    0.060,
       -0.026,    0.085,   -0.041,    1.336,    1.265,   -0.531,    1.746,
       -0.156,   -0.094,   -0.269,   -0.721,    0.182,    1.247,    0.213,
       -0.090,   -1.501,    0.079,    1.080,    0.299,   -0.149,    0.067,
       -0.270,   -0.252,   -0.192,    1.258,    0.664,   -0.744,   -0.864,
        0.931,    0.618,    1.490,   -0.810,   -0.584,   -0.048,    2.613,
       -0.446,   -1.220
    },
    {  -7.328,    0.416,   -0.967,   -0.954,    0.587,    0.485,   -0.935,
        0.570,    0.359,   -2.818,   -0.087,    1.398,   -1.723,    0.292,
        0.023,    0.306,    0.111,   -0.322,   -1.165,    0.054,    0.071,
       -0.039,    3.299,    0.014,   -0.160,   -0.411,   -0.232,   -0.022,
        0.095,    0.129,    0.048,    0.911,    0.119,   -0.108,   -0.124,
       -0.104,    2.950,    0.109,    1.172,   -1.737,    0.217,   -0.473,
        0.051,    0.003,   -0.030,    3.227,    0.208,    1.710,    0.807,
       -0.197,    0.236,    0.365,    0.758,   -0.155,    3.720,    0.426,
       -0.665,   -0.514,    2.908,   -0.077,    0.571,   -0.347,    0.050,
        4.560,    0.840,   -1.084,    0.170,   -2.483,    0.503,   -0.383,
        2.145,   -0.395,   -3.136,   -0.753,   -0.545,    0.590,   -1.272,
       -0.346,   -0.349,   -1.166,    0.013,   -2.907,   -0.011,    0.161,
       -0.026,    0.105,    0.020,    2.624,    2.421,   -1.136,    2.326,
       -0.044,   -0.293,   -0.377,   -1.094,   -0.129,    0.950,   -0.304,
       -0.023,   -1.941,   -0.207,    1.160,    0.575,   -0.047,    0.057,
       -0.222,   -0.014,   -0.032,   -0.976,   -1.154,   -0.530,   -0.701,
        0.982,    0.629,    0.747,   -0.555,   -0.412,    0.236,    1.563,
       -0.545,   -1.097
    },
    {  -5.297,    0.061,    0.652,   -0.032,   -0.097,   -0.660,   -0.014,
       -0.131,   -0.587,   -2.256,    0.346,    0.944,   -2.083,   -0.012,
       -0.055,   -0.182,   -0.072,    0.242,   -1.517,    0.120,   -0.060,
       -0.050,    3.373,   -0.002,    0.057,    0.056,   -0.328,   -0.342,
        0.466,    0.721,   -0.324,    1.366,    0.123,    0.144,    0.249,
        0.007,    2.266,    0.193,   -0.127,   -1.789,    0.163,   -0.307,
       -0.737,   -0.327,   -0.185,    2.450,    0.117,    1.254,    0.159,
        0.019,   -0.001,    0.228,    0.364,   -0.316,    4.134,    0.238,
       -1.102,   -0.597,    3.151,    0.083,    0.666,    0.147,   -0.351,
        1.845,    0.271,   -0.226,   -0.291,   -0.293,   -0.041,   -0.051,
        1.059,   -0.056,   -2.631,    0.465,    0.050,   -0.459,    1.174,
       -1.115,   -0.648,    1.042,   -0.302,   -2.377,   -0.081,    0.235,
        0.017,    0.209,   -0.035,    2.007,    1.821,   -0.819,    1.743,
       -0.203,    0.522,   -0.184,   -1.711,   -0.207,    0.868,    0.004,
       -0.409,   -1.734,   -0.065,    1.293,    0.264,   -0.456,    0.026,
       -0.275,   -0.200,    0.094,    0.483,    0.087,   -0.542,   -0.766,
        0.582,    0.436,    1.221,   -0.730,   -0.728,    0.113,    1.639,
       -0.502,   -0.940
    },
    {  -2.324,   -0.230,   -1.226,   -0.510,    0.395,   -0.199,   -0.389,
        1.363,   -0.205,   -2.022,    0.091,    1.009,   -1.524,    0.214,
       -0.083,    0.026,    0.281,   -0.079,   -1.249,   -0.283,    0.073,
        0.058,    3.064,   -0.001,   -0.141,    0.108,   -0.180,   -1.551,
        0.178,    0.544,   -0.593,    1.531,    0.032,    0.758,    0.238,
       -0.344,    3.213,   -0.329,    0.894,   -1.747,   -0.313,   -0.439,
       -0.328,   -0.847,   -0.005,    1.466,    0.078,    1.037,    0.155,
       -0.049,    0.026,    0.142,    0.203,   -0.221,    4.293,    0.752,
        0.371,    0.080,    1.773,    0.115,    0.393,    0.587,   -0.400,
        2.273,    0.262,   -0.501,   -0.034,   -1.171,    0.514,    0.134,
        1.192,   -0.200,    4.139,    0.587,   -0.176,   -0.580,   -1.787,
       -0.213,    2.175,   -0.090,   -0.237,   -2.053,   -0.009,    0.204,
       -0.083,    0.091,   -0.049,    1.670,    1.648,   -0.602,    1.470,
       -0.321,    1.226,   -0.066,   -0.769,   -0.117,    0.553,    0.143,
       -0.577,   -2.170,   -0.161,    1.110,    0.461,    0.136,   -0.094,
       -0.096,   -0.229,    0.146,    0.633,    0.242,   -0.712,   -0.445,
        0.363,    0.413,    1.437,   -0.982,   -0.539,   -0.404,    1.515,
       -0.466,   -1.193
    },
    {   0.923,    0.476,    0.243,    1.307,    0.632,    0.016,    0.564,
       -0.846,   -0.015,   -1.220,    0.338,    0.693,   -1.105,   -0.140,
        0.129,    0.050,    0.232,   -0.017,   -1.067,    0.100,   -0.032,
       -0.187,    2.567,    0.000,   -0.015,   -0.137,   -0.014,    1.137,
       -0.670,   -0.818,    0.840,   -1.773,   -0.714,   -0.688,   -0.176,
        0.097,    1.308,   -0.059,    0.516,   -0.809,    0.222,   -0.209,
       -0.220,   -0.169,    0.072,    2.945,   -0.051,    1.410,    0.155,
       -0.308,    0.050,    0.427,    0.644,    0.032,    3.257,    0.127,
       -0.284,   -0.519,    2.689,   -0.298,    0.206,   -0.209,   -0.145,
        1.820,    0.134,    0.003,   -0.282,   -0.455,    0.035,    0.098,
        1.338,    0.094,    1.803,   -0.142,    0.336,   -0.154,   -1.166,
        0.008,    0.509,   -0.139,   -0.024,   -2.285,   -0.012,    0.120,
        0.055,    0.077,    0.050,    1.756,    1.603,   -0.690,   -1.479,
       -0.500,    0.129,   -0.732,   -2.266,    0.054,    0.056,   -0.660,
        0.908,   -1.973,   -0.055,    1.203,    0.606,   -0.212,    0.222,
       -0.173,   -0.071,   -0.120,    0.643,    0.146,   -0.497,   -0.887,
       -0.329,    1.189,    1.356,   -0.761,   -0.614,   -1.063,    2.452,
       -0.404,   -0.911
    },
    {  -3.691,   -0.570,    0.091,    0.319,    0.452,    0.063,    0.021,
       -0.388,   -0.379,   -1.182,    0.235,    0.476,   -0.987,    0.072,
       -0.100,   -0.277,   -0.043,    0.159,   -0.971,   -0.022,    0.110,
       -0.036,    2.419,   -0.139,    0.303,    0.210,   -0.017,    2.237,
        0.144,    0.122,   -0.017,   -1.121,   -0.151,    0.478,    0.586,
       -0.138,    0.927,   -0.010,    0.365,   -0.431,    0.182,   -0.112,
       -0.146,   -0.275,    0.031,    1.839,   -0.037,    0.646,    0.082,
       -0.107,    0.116,    0.267,    0.278,    0.056,    1.859,    0.208,
       -0.062,   -0.336,    1.290,   -0.066,    0.253,    0.059,   -0.029,
        0.467,    0.500,    0.233,    0.637,    0.423,   -0.054,    0.120,
       -0.194,    0.003,    1.291,   -0.167,    0.447,    0.321,   -0.387,
        0.118,    0.323,   -0.649,   -0.126,   -2.545,   -0.077,    0.121,
        0.043,    0.030,    0.024,    1.588,    1.469,   -0.600,    0.090,
        0.004,   -0.285,   -0.061,   -1.276,    0.056,    0.006,   -0.160,
        0.244,   -1.484,   -0.075,    0.766,    0.397,   -0.192,    0.035,
        0.009,    0.014,   -0.042,    3.142,    1.498,   -0.735,   -0.767,
       -0.825,    1.715,    2.387,   -1.144,    0.617,   -0.802,    5.212,
       -0.479,   -1.795
    },
    {  -0.939,   -0.263,    0.250,   -0.482,   -0.199,    1.056,   -0.451,
        0.073,    0.330,   -1.744,    0.130,    0.698,   -1.328,    0.009,
        0.048,    0.023,    0.022,   -0.179,   -1.102,    0.006,   -0.062,
       -0.136,    2.848,    0.010,   -0.572,   -0.576,    0.128,    1.633,
        0.686,   -1.171,   -0.194,   -0.320,   -0.117,   -0.609,    0.884,
        0.207,    0.863,    0.183,   -0.451,   -0.585,    0.204,   -0.237,
       -1.175,   -0.891,   -0.103,    2.936,   -0.109,    1.698,    0.496,
       -0.073,   -0.193,    0.384,    0.604,   -0.159,    2.343,    0.012,
       -0.484,   -0.068,    1.673,   -0.026,    0.195,    0.076,   -0.197,
       -2.365,    0.496,   -0.747,    0.698,    0.033,   -0.069,   -0.668,
       -0.139,    0.382,    0.960,   -0.068,    0.358,   -0.164,   -0.869,
        0.276,    0.370,   -0.147,   -0.321,   -2.733,   -0.052,    0.181,
        0.016,    0.042,   -0.001,    2.289,    2.115,   -0.920,    0.271,
       -0.165,   -0.277,    0.185,   -0.797,   -0.129,    0.114,    0.133,
        0.028,   -1.978,   -0.093,    0.979,    0.207,   -0.159,    0.124,
       -0.079,   -0.148,    0.037,   -0.782,    0.116,   -0.912,   -1.011,
       -0.406,    0.442,    0.808,   -1.106,   -0.597,   -0.525,    2.140,
       -1.472,   -2.364
    },
    {   1.570,   -0.131,    0.160,   -0.351,   -1.272,    0.422,   -0.174,
       -0.198,    0.164,   -0.891,    0.280,    1.066,   -0.443,    0.142,
       -0.037,    0.420,    0.431,   -0.230,   -0.888,    0.079,    0.070,
        0.040,    2.288,   -0.043,   -0.156,   -0.209,    0.172,    1.992,
        0.272,   -0.607,    0.038,   -0.851,   -0.086,   -0.181,    1.293,
       -0.031,    1.362,   -0.037,    0.539,   -0.965,    0.066,   -0.043,
       -0.422,   -0.422,    0.071,    1.441,    0.011,    0.947,    0.774,
        0.056,   -0.162,    0.031,    0.170,    0.242,    3.297,    0.002,
       -0.597,   -0.175,    2.572,    0.091,    0.087,   -0.049,   -0.059,
       -1.202,   -0.232,   -0.019,   -0.319,   -1.768,   -0.238,   -0.126,
       -0.466,    0.605,    2.884,   -0.242,   -0.305,   -0.007,   -1.429,
       -0.375,    1.099,   -0.513,   -0.009,   -2.467,   -0.034,    0.180,
        0.102,    0.068,   -0.029,    2.190,    1.917,   -0.812,    0.696,
       -0.608,   -0.659,    0.409,   -1.366,   -0.363,   -0.371,   -0.549,
       -0.055,   -1.778,   -0.246,    0.911,    0.463,   -0.409,    0.177,
       -0.248,   -0.178,    0.227,    0.752,   -0.500,   -1.050,   -1.005,
       -0.489,    0.975,    0.738,   -0.941,   -0.483,   -0.428,    1.912,
       -0.574,   -0.993
    },
    {   3.249,   -0.082,   -1.007,   -0.861,   -1.533,   -0.089,    1.476,
        0.059,   -0.273,   -1.445,    0.091,    1.492,   -0.206,   -0.081,
        0.133,    0.183,    0.388,   -0.181,   -1.210,   -0.151,    0.087,
       -0.056,    3.229,   -0.029,   -0.198,   -0.449,    0.061,    1.201,
       -0.133,   -0.444,    0.497,   -1.004,   -0.170,   -0.500,    0.472,
        0.187,    1.879,   -0.043,    0.658,   -1.099,    0.287,   -0.303,
       -0.264,   -0.372,   -0.014,    1.206,   -0.134,    0.734,    1.039,
       -0.024,   -0.092,   -0.236,    0.309,    0.423,    3.183,    0.037,
       -0.533,   -0.316,    2.626,   -0.148,    0.035,   -0.072,   -0.062,
       -1.823,   -0.324,    0.090,   -0.366,   -2.520,   -0.077,   -0.027,
       -0.479,    1.068,    1.581,   -0.185,   -0.870,   -0.579,   -1.264,
       -0.139,    0.222,    0.198,    0.639,   -2.984,   -0.039,    0.044,
       -0.027,    0.048,    0.049,    2.617,    2.503,   -1.098,    0.846,
       -0.509,   -0.809,    0.642,   -0.965,   -0.351,   -0.219,   -0.293,
        0.708,   -2.089,    0.124,    1.030,    0.811,    0.558,    0.116,
       -0.624,   -0.528,   -0.206,    0.748,   -0.843,   -1.015,   -0.743,
       -0.638,    0.897,    0.707,   -0.716,   -0.373,   -0.463,    1.710,
       -0.174,   -0.902
    },
    {   0.676,    0.138,    0.571,   -0.227,   -0.663,    0.286,    0.488,
       -0.151,    0.189,   -1.302,    0.086,    0.959,   -0.094,   -0.141,
        0.184,   -0.021,   -0.087,   -0.187,   -1.024,    0.048,   -0.093,
       -0.087,    2.325,    0.011,   -0.035,    0.019,    0.087,    0.277,
       -0.217,   -0.241,    0.082,   -0.586,   -0.157,    0.019,   -0.016,
       -0.053,    0.783,   -0.036,    0.155,   -0.732,    0.179,   -0.086,
       -0.339,   -0.237,   -0.058,    1.021,   -0.198,    0.612,    0.435,
       -0.201,   -0.000,   -0.125,    0.200,    0.225,    2.861,   -0.042,
       -0.686,   -0.337,    2.113,   -0.120,    0.048,   -0.019,   -0.067,
        0.380,   -0.121,    0.365,   -0.199,    1.666,    0.073,    0.043,
       -0.907,    0.029,   -1.269,   -0.171,   -0.292,   -0.955,    0.037,
       -0.165,    0.514,   -0.065,    0.139,   -2.372,   -0.014,    0.129,
        0.026,    0.031,   -0.009,    1.455,    1.366,   -0.564,    1.249,
       -0.095,    0.502,    0.289,   -0.221,    0.086,   -0.799,    0.543,
        0.454,   -0.853,    0.274,    1.174,   -0.491,    0.011,    0.076,
       -0.121,    0.442,    0.310,    2.884,   -0.315,   -1.374,   -1.004,
       -2.292,    1.247,    1.583,   -0.987,   -0.158,   -0.271,    4.530,
       -0.761,   -0.695
    },
    {   1.376,    0.287,    0.451,    0.054,    0.207,    0.027,    0.647,
        0.488,   -0.434,   -1.323,    0.034,    0.767,    0.213,   -0.200,
        0.078,   -0.045,   -0.205,   -0.025,   -1.144,   -0.015,   -0.073,
       -0.179,    2.642,    0.051,   -0.390,   -0.308,   -0.074,    0.382,
       -0.242,   -0.402,    0.109,   -0.773,   -0.170,    0.014,   -0.101,
        0.030,    1.279,    0.035,    0.615,   -0.847,    0.133,   -0.348,
       -0.468,   -0.291,   -0.014,    1.246,   -0.230,    0.362,    0.588,
        0.024,   -0.043,    0.301,    0.440,    0.224,    1.859,   -0.009,
       -0.581,   -0.141,    1.317,   -0.060,    0.060,    0.022,    0.019,
        1.293,    0.195,   -0.341,    0.030,   -0.268,   -0.112,    0.113,
        1.108,   -0.111,    2.002,    0.060,    1.146,    0.559,   -0.421,
        0.069,    0.858,   -0.241,   -0.075,   -2.311,   -0.046,    0.144,
        0.105,    0.077,    0.012,    1.648,    1.440,   -0.579,    0.892,
       -0.173,    0.493,    1.466,    0.041,   -0.164,   -0.257,   -0.208,
       -0.112,   -0.659,    0.147,    0.989,   -0.294,    0.109,    0.053,
        0.473,    0.680,    0.091,    1.669,    0.220,   -2.417,   -1.012,
       -1.768,    0.839,    0.779,   -1.432,   -0.753,   -0.411,    3.393,
        0.365,   -0.808
    },
    {   2.554,    0.033,    1.372,    0.123,    0.149,    0.058,    0.465,
        0.511,   -0.181,   -1.754,   -0.067,    1.066,    0.301,    0.198,
        0.113,   -0.256,   -0.331,    0.237,   -1.121,   -0.028,   -0.080,
       -0.066,    2.180,   -0.083,    0.006,   -0.045,   -0.028,    0.960,
       -0.194,   -0.697,    0.500,   -1.219,   -0.188,   -0.579,   -0.088,
        0.154,    1.366,   -0.007,   -0.137,   -0.571,    0.307,   -0.085,
       -0.317,   -0.183,    0.022,    1.208,    0.136,    0.814,    0.825,
       -0.087,   -0.305,   -0.451,   -0.268,   -0.163,    2.852,    0.109,
       -0.478,   -0.003,    2.069,    0.131,    0.173,   -0.119,   -0.197,
        1.677,    0.283,   -0.442,   -0.153,   -0.495,    0.072,   -0.112,
        0.828,   -0.006,    0.741,   -0.009,   -0.180,    0.174,   -0.628,
        0.008,    0.256,   -0.068,   -0.148,   -2.677,   -0.010,    0.247,
       -0.027,    0.035,    0.078,    2.170,    1.828,   -0.804,    1.044,
       -0.020,   -0.596,    0.762,   -0.113,    0.010,    0.095,   -0.066,
       -0.048,   -1.537,   -0.592,    1.528,    0.415,   -0.086,   -0.930,
        0.127,    0.903,    0.883,    0.238,    1.025,   -1.126,   -1.077,
       -0.426,    1.065,    0.240,   -0.743,   -0.662,   -1.991,    2.103,
        1.356,   -0.123
    },
    {   2.694,   -0.027,    1.632,    0.203,   -0.226,    0.010,    0.382,
        0.537,    0.030,   -2.019,   -0.086,    0.989,    0.516,   -0.306,
        0.302,   -0.001,   -0.012,    0.192,   -1.009,    0.051,    0.222,
       -0.027,    2.229,    0.127,   -0.007,   -0.062,    0.122,    0.467,
       -0.348,   -0.608,    0.110,   -1.230,   -0.221,   -0.099,   -0.173,
       -0.039,    1.583,   -0.072,    0.610,   -0.598,    0.415,   -0.172,
       -0.699,   -0.526,    0.082,   -0.252,   -1.168,   -0.252,    0.570,
        1.009,   -0.380,    0.411,   -0.532,    1.123,    3.294,    0.001,
       -0.690,   -0.404,    2.450,    0.051,    0.266,    0.089,   -0.154,
        2.536,    0.226,   -0.536,    0.228,   -1.112,    0.287,   -0.080,
        1.032,   -0.248,    2.080,    0.027,    0.500,   -0.359,   -1.434,
        0.116,    1.154,    0.275,   -0.122,   -2.008,    0.002,    0.068,
        0.014,    0.013,   -0.014,    1.904,    1.689,   -0.745,    1.693,
       -0.096,   -0.770,    1.479,   -0.061,    0.109,    0.101,    0.296,
        0.011,   -2.849,    0.603,    2.165,    1.037,   -0.318,   -0.898,
       -0.533,   -0.076,   -0.299,   -0.076,    0.720,   -1.179,   -1.071,
       -0.997,    0.692,    0.021,   -0.739,   -0.632,   -0.640,    1.511,
        0.677,   -0.364
    },
    {   3.271,   -0.151,    2.499,    0.240,    0.072,    0.152,    0.789,
        0.488,   -0.441,   -2.345,   -0.451,    1.653,    0.474,   -0.214,
        0.427,   -0.202,   -0.095,   -0.045,   -1.219,   -0.146,    0.183,
       -0.165,    2.661,   -0.075,   -0.247,   -0.161,    0.320,    0.584,
       -0.285,   -0.494,    0.346,   -1.200,   -0.187,    0.048,    0.052,
       -0.236,    2.557,    0.209,    1.719,   -1.052,    0.408,   -0.422,
       -1.247,   -0.648,   -0.042,   -2.266,   -0.016,   -0.037,    0.014,
        1.419,   -0.203,   -0.956,    0.428,    0.190,    2.918,    0.084,
       -0.696,   -0.260,    2.250,   -0.019,    0.525,    0.043,   -0.268,
        0.208,   -1.664,    1.192,   -1.177,   -0.362,   -0.245,    1.376,
        0.552,    0.897,    3.770,    0.408,   -0.935,    0.679,   -2.478,
        0.262,   -0.282,    0.910,   -0.230,   -2.725,   -0.025,    0.131,
        0.012,    0.058,   -0.039,    2.322,    2.100,   -0.887,    1.889,
       -0.041,   -0.468,    1.615,   -0.313,   -0.030,    0.181,    0.194,
       -0.159,   -1.351,    0.411,    1.553,    0.429,   -0.049,   -0.385,
        0.281,    0.623,    0.582,    1.263,    0.383,   -0.672,   -0.744,
       -0.738,    0.433,    0.558,   -0.508,    0.052,   -0.453,    2.171,
        0.763,   -0.451
    },
    {   2.258,   -0.053,   -1.365,    1.324,   -0.167,   -0.176,   -0.145,
       -0.462,   -0.169,   -1.858,    0.004,    1.390,    0.508,   -0.011,
        0.150,   -0.320,   -0.308,   -0.189,   -1.375,    0.011,    0.172,
        0.222,    2.427,    0.017,   -0.091,   -0.138,    0.104,    0.917,
       -0.188,   -0.411,   -0.270,   -1.254,   -0.179,    0.018,    0.135,
        0.001,    1.315,    0.039,    0.433,   -0.904,    0.102,   -0.192,
       -0.111,   -0.138,   -0.079,   -1.727,   -0.268,    0.336,    0.218,
        1.280,    0.050,   -0.773,    0.005,    0.089,    2.639,    0.054,
       -0.434,   -0.367,    1.867,    0.016,    0.199,    0.012,    0.012,
        1.060,   -0.107,    0.182,    0.206,    0.164,   -0.590,    1.129,
        0.203,    0.879,    1.150,   -0.095,    0.545,    0.283,    0.558,
       -0.345,   -0.700,    0.377,    0.614,   -2.438,   -0.013,    0.133,
        0.008,    0.035,    0.034,    1.815,    1.786,   -0.690,    2.394,
        0.039,    1.337,    0.845,    0.437,   -0.311,    0.251,    0.515,
        0.438,   -0.100,    0.491,    1.342,   -0.496,   -0.348,    0.137,
        0.133,    0.705,    0.687,    1.081,    0.425,   -0.921,   -1.220,
       -1.467,    1.029,    0.422,   -0.874,   -0.113,    0.101,    2.366,
        0.710,   -0.301
    },
    {   1.441,   -0.698,   -1.192,   -0.397,    0.082,    0.917,   -0.311,
       -0.724,   -0.645,   -2.154,   -0.184,    1.302,    0.624,   -0.356,
        0.325,   -0.193,    0.102,    0.059,   -0.882,    0.033,   -0.047,
       -0.040,    2.593,    0.223,   -0.342,   -0.289,    0.150,    0.428,
       -0.176,   -0.310,    0.142,   -0.673,   -0.148,    0.080,    0.003,
       -0.078,    1.478,    0.072,    0.925,   -0.381,    0.327,   -0.229,
       -0.904,   -0.645,   -0.184,   -2.132,    0.548,    0.428,   -0.307,
        0.960,   -0.613,   -0.295,    0.666,   -0.256,    3.163,    0.009,
       -0.609,    0.035,    2.256,    0.068,   -0.213,   -0.345,   -0.043,
       -2.343,    0.051,    0.607,    0.038,    0.213,    0.020,   -0.383,
        0.227,   -0.249,   -3.611,    0.345,   -1.901,   -0.221,    0.170,
        0.126,   -1.261,   -1.498,   -0.060,   -2.561,   -0.066,    0.118,
       -0.001,    0.030,   -0.000,    2.102,    1.944,   -0.840,    2.071,
       -0.209,   -0.504,    2.123,    0.117,    0.320,    0.304,   -0.060,
       -0.095,   -0.866,    0.149,    1.036,   -0.216,    0.079,    0.200,
        0.246,    0.245,   -0.273,    1.431,    0.238,   -0.738,   -0.815,
       -1.722,    0.777,    0.087,   -0.941,    0.477,   -0.451,    2.396,
        0.636,   -0.810
    },
    {   0.744,   -0.023,   -0.868,    0.133,    0.102,   -0.256,   -0.364,
       -0.346,    0.208,   -2.574,   -0.011,    1.089,    0.141,   -0.167,
        0.168,   -0.265,   -0.317,   -0.033,   -0.830,   -0.084,    0.150,
       -0.060,    2.484,    0.111,   -0.143,   -0.059,   -0.026,    0.393,
       -0.109,   -0.384,    0.125,   -0.781,   -0.133,   -0.087,   -0.094,
        0.016,    1.781,    0.147,    0.883,   -0.826,    0.175,   -0.141,
       -0.772,   -0.340,    0.016,   -2.386,   -0.078,    0.078,   -1.465,
        0.519,    0.034,    0.978,    0.595,   -0.182,    3.866,   -0.084,
       -0.619,   -0.074,    3.030,   -0.044,   -0.335,   -0.279,    0.016,
       -2.576,    0.219,    0.083,   -0.173,    0.604,   -0.116,   -1.295,
        0.869,   -0.240,   -1.427,   -0.071,   -0.831,   -0.815,   -0.153,
        0.063,   -0.143,   -0.350,   -0.179,   -2.216,   -0.035,   -0.028,
        0.005,    0.101,    0.015,    1.719,    1.511,   -0.636,   -0.472,
        1.199,   -0.719,   -0.418,   -0.597,    0.488,   -0.295,   -0.082,
       -0.554,   -0.032,    0.173,    0.729,    0.106,   -0.037,   -0.198,
        0.280,    0.543,    0.312,    0.348,    0.796,   -1.357,   -1.181,
       -1.926,    0.963,   -0.442,   -0.759,    0.270,   -0.846,    2.940,
       -0.205,   -0.814
    },
    {   0.866,   -0.521,   -1.456,    0.495,    0.437,   -0.114,   -0.919,
       -0.971,    0.145,   -2.070,   -0.341,    1.266,    0.757,   -0.238,
        0.253,    0.036,    0.029,   -0.098,   -1.441,   -0.046,   -0.172,
       -0.117,    3.231,    0.031,   -0.637,   -0.267,   -0.272,    0.265,
       -0.016,   -0.202,    0.224,   -0.635,   -0.305,    0.077,   -0.120,
        0.197,    1.343,    0.109,    0.810,   -0.417,    0.195,   -0.063,
       -0.426,   -0.376,   -0.065,   -2.604,   -0.090,   -1.640,   -1.281,
       -0.213,    0.651,   -0.080,   -0.183,   -0.910,    3.140,    0.182,
       -0.765,   -0.338,    2.410,    0.031,    0.228,   -0.018,   -0.072,
       -1.870,    0.183,   -0.172,    0.268,    1.262,   -0.336,   -1.230,
       -0.075,    0.453,   -2.565,    0.134,    0.830,   -0.570,    1.580,
       -0.005,   -0.012,   -1.074,   -0.012,   -2.099,   -0.028,   -0.014,
        0.094,    0.057,   -0.036,    1.739,    1.638,   -0.665,   -1.249,
        0.342,    0.839,    0.557,    0.491,   -0.978,   -0.644,    0.296,
       -0.261,   -1.665,   -0.043,    0.527,   -1.759,    0.228,   -0.024,
       -0.809,   -0.885,    0.307,    0.958,    0.426,   -0.811,   -0.704,
       -0.638,    1.075,   -0.309,   -0.674,    0.512,    0.558,    2.152,
       -0.137,   -0.549
    },
    {   0.677,   -0.417,   -1.453,    0.109,    0.358,   -0.071,   -0.082,
       -0.777,    0.308,   -2.668,   -0.075,    1.493,    0.499,   -0.140,
        0.277,   -0.169,   -0.015,    0.040,   -0.959,    0.078,    0.472,
        0.024,    2.337,    0.166,   -0.027,   -0.281,    0.097,    0.543,
       -0.201,   -0.453,    0.019,   -1.196,   -0.241,   -0.097,    0.052,
       -0.001,    1.470,    0.056,    0.835,   -0.916,    0.195,   -0.204,
       -0.558,   -0.470,    0.053,   -3.768,    0.137,   -2.163,    0.017,
       -0.411,    0.254,   -0.906,   -0.526,    0.198,    3.199,    0.041,
       -0.477,   -0.407,    2.628,   -0.037,    0.137,   -0.239,   -0.027,
       -1.189,    0.885,    0.526,   -0.540,    0.716,    1.345,   -0.208,
       -0.203,    0.558,   -3.222,   -0.204,    0.295,    0.528,    1.383,
       -0.492,   -1.939,    0.230,   -0.084,   -2.434,   -0.004,    0.129,
        0.007,    0.061,    0.097,    2.027,    1.876,   -0.858,   -3.085,
        0.192,   -0.317,   -0.503,   -1.711,    0.113,   -1.644,    1.101,
        0.165,   -1.497,    0.120,   -0.287,   -1.631,   -0.010,    0.312,
       -0.085,   -0.172,   -0.258,    0.383,    0.562,   -1.129,   -1.453,
       -1.847,    0.693,   -0.522,   -0.625,   -0.031,    0.392,    1.908,
        0.208,   -0.473
    },
    {   0.855,   -0.158,   -1.015,    0.287,    0.067,    0.049,   -0.038,
       -0.112,   -0.001,   -1.266,   -0.020,    0.778,    0.739,   -0.679,
        0.728,    0.388,   -0.017,    0.732,   -1.067,   -0.114,   -0.000,
       -0.056,    2.715,   -0.056,   -0.396,   -0.248,    0.225,    0.420,
       -0.279,   -0.369,    0.060,   -0.786,   -0.190,   -0.178,   -0.199,
       -0.016,    1.247,    0.005,    0.330,   -1.070,    0.242,    0.020,
       -0.527,   -0.530,    0.216,   -3.039,   -0.068,    0.340,    0.260,
        0.033,   -0.060,   -1.542,    0.078,    0.557,    3.747,   -0.136,
       -0.888,   -0.365,    2.614,    0.000,   -0.068,   -0.225,    0.011,
       -0.152,   -0.071,    1.391,   -1.163,   -0.078,   -0.566,   -0.339,
        1.005,   -1.313,   -3.403,   -0.359,    0.610,   -0.764,    1.757,
       -0.263,    0.621,   -2.059,   -0.169,   -2.605,    0.035,    0.118,
        0.095,    0.035,   -0.035,    2.043,    1.918,   -0.830,   -1.800,
        0.177,   -0.098,   -0.127,    0.964,   -0.304,   -0.517,    0.276,
        0.206,   -1.005,    0.153,   -0.715,   -0.502,    0.086,    0.004,
        0.025,   -0.071,    0.026,    1.267,    1.415,   -0.286,   -0.863,
       -0.929,    0.920,   -0.152,   -0.661,   -0.004,    0.326,    2.349,
        0.710,   -1.269
    },
    {   1.366,   -0.123,   -0.797,   -0.311,    0.022,   -0.223,   -0.424,
       -0.171,    0.211,   -1.206,    0.032,    1.471,   -0.309,    0.066,
       -0.132,    0.627,    0.821,    0.379,   -0.828,   -0.008,    0.237,
       -0.081,    2.195,   -0.034,   -0.243,   -0.129,    0.078,   -1.404,
       -0.836,   -0.336,   -0.306,   -0.255,    1.153,    0.361,   -0.858,
        0.173,    1.947,    0.032,    1.081,   -0.968,    0.337,   -0.466,
       -1.202,   -0.684,   -0.116,   -1.688,   -0.358,    0.401,    0.098,
        0.759,   -0.022,   -1.383,    0.037,    0.240,    2.942,   -0.095,
       -0.661,   -0.019,    2.205,   -0.069,    0.104,    0.018,   -0.284,
       -1.304,   -0.122,    0.914,    0.196,   -0.298,    0.142,   -0.382,
       -0.190,    0.168,   -1.275,   -0.405,    1.150,   -0.071,   -0.326,
        0.337,    0.752,   -0.831,   -0.412,   -2.155,   -0.046,    0.117,
        0.042,    0.036,    0.021,    1.753,    1.614,   -0.633,   -0.355,
        0.156,    0.309,   -0.105,    0.872,    0.064,   -0.102,   -0.010,
        0.073,   -1.394,    0.083,   -0.128,   -0.918,   -0.054,    0.124,
       -0.095,   -0.181,   -0.031,    0.997,    0.767,   -0.489,   -1.203,
        0.177,    0.641,    0.344,   -0.917,   -0.849,    0.257,    2.653,
        1.806,   -1.110
    },
    {   3.015,    0.300,   -1.769,   -0.467,    0.392,   -0.292,    0.249,
       -0.030,   -0.212,    0.028,    0.409,    1.314,    0.379,   -0.176,
        0.291,    0.666,    0.738,    0.870,   -1.065,   -0.029,    0.374,
       -0.179,    2.900,   -0.071,   -0.136,   -0.503,    0.216,    5.830,
       -0.202,    0.566,   -0.018,   -0.303,   -0.798,    0.330,    0.411,
