//-----------------------------------------------------------------------------
// Network: Higgs0M_2e2mu
// Inputs:
//                                                  Offset       Scale
//    angle_costhetastar                         4.622e-03   5.575e-01
//    angle_costheta1                            4.984e-03   5.819e-01
//    angle_costheta2                            1.554e-03   5.372e-01
//    angle_phi                                  2.676e-02   1.770e+00
//    angle_phistar1                             2.875e-02   1.810e+00
//    Z1mass                                     8.044e+01   1.314e+01
//    Z2mass                                     2.964e+01   1.010e+01
//    mass4l                                     1.238e+02   4.052e+00
//
// Created: Sun Jan 20 19:28:36 2013
//-----------------------------------------------------------------------------
#include <cmath>
#include <vector>
#include <iostream>
//-----------------------------------------------------------------------------
// Make following visible only to this programming unit
namespace nsHiggs0M_2e2mu {
  // NOTE: Network indices start at 0
  static const int nnetworks=100;
  static const int ninputs  =8;
  static const int nhidden  =12;
  static const int nparams  =121;

  static const double mean[ninputs]={
  4.62200e-03,
  4.98400e-03,
  1.55400e-03,
  2.67600e-02,
  2.87500e-02,
  8.04400e+01,
  2.96400e+01,
  1.23800e+02
  };

  static const double sigma[ninputs]={
  5.57500e-01,
  5.81900e-01,
  5.37200e-01,
  1.77000e+00,
  1.81000e+00,
  1.31400e+01,
  1.01000e+01,
  4.05200e+00
  };

  static const double weight[nnetworks][nparams]={
    {   1.052,   -0.093,   -0.407,    1.155,   -0.099,    0.135,   -0.038,
       -0.126,    0.056,    3.923,    0.026,   -1.153,    0.550,   -2.945,
       -0.105,   -0.228,   -0.251,   -0.084,   -1.730,    0.002,    0.071,
        0.061,   -0.082,   -0.079,    1.600,    1.222,   -0.494,    2.126,
       -0.018,   -0.400,    0.235,    1.402,   -0.087,    0.160,    0.112,
       -0.065,   -1.045,   -0.024,   -0.785,   -0.878,   -2.089,    0.004,
       -0.048,   -0.125,   -0.129,   -2.002,   -0.432,    1.080,   -1.032,
       -0.019,    0.294,    0.585,    0.105,    0.286,    3.126,    1.091,
       -0.235,    0.651,    0.030,    0.373,   -0.236,    0.249,   -1.355,
       -1.915,   -0.183,   -1.393,    0.657,    0.145,    0.032,    0.042,
       -0.064,    0.046,    0.727,    0.001,    0.198,   -0.106,   -2.427,
        0.006,   -0.085,    0.063,    0.123,   -1.441,   -0.020,    0.019,
        0.215,   -0.229,   -0.167,   -0.518,   -1.094,    0.159,   -1.636,
        0.123,    1.281,    0.910,   -0.073,   -0.089,    0.128,    0.017,
        0.051,   -0.986,   -0.065,   -0.239,    0.577,   -2.382,   -0.022,
       -0.370,   -0.196,    0.050,    1.551,    1.221,   -1.113,    2.390,
       -1.892,   -0.822,   -0.612,   -0.026,   -0.797,    1.426,    0.937,
       -1.657,   -1.231
    },
    {   1.681,   -0.031,   -0.164,    1.910,   -0.240,    0.131,   -0.475,
       -0.371,    0.385,    3.186,    0.014,   -0.877,    0.625,   -2.465,
       -0.181,   -0.007,    0.056,   -0.015,   -2.363,   -0.015,   -0.010,
        0.041,   -0.086,   -0.036,    2.518,    1.907,   -0.803,    2.102,
       -0.005,   -0.503,    0.321,    1.522,   -0.026,    0.103,    0.008,
       -0.102,   -1.196,    0.033,   -0.702,   -0.480,   -2.493,    0.077,
       -0.144,   -0.115,   -0.028,   -2.593,   -0.155,    1.651,   -1.143,
       -0.246,    0.051,   -0.203,   -0.132,    0.665,    0.583,    0.122,
        0.424,    0.215,    0.128,    0.974,    0.131,   -0.179,   -0.796,
       -2.826,   -0.127,   -1.637,    1.274,   -0.353,   -0.557,   -0.199,
       -0.235,    0.245,    0.852,    0.025,    0.235,   -0.016,   -2.157,
       -0.011,   -0.039,    0.033,    0.098,   -2.279,   -0.302,   -0.308,
        0.964,   -0.562,   -0.314,   -0.749,   -2.102,    0.172,   -1.983,
        0.241,    1.723,    0.968,   -0.194,    0.033,    0.243,    0.263,
       -0.010,   -1.078,   -0.343,   -0.326,    0.970,   -2.931,   -0.173,
       -0.096,   -0.073,    0.273,    1.065,    0.836,   -1.270,    1.936,
       -1.737,   -1.108,   -0.856,   -0.117,   -0.563,    1.593,    0.483,
       -1.196,   -0.760
    },
    {   2.217,    0.291,   -0.554,    0.642,    0.458,   -0.628,   -0.825,
        0.556,   -0.045,    3.121,   -0.161,   -0.530,    0.590,   -2.266,
       -0.031,   -0.043,    0.038,   -0.100,   -2.013,    0.057,   -0.058,
        0.032,   -0.125,   -0.012,    2.300,    1.902,   -0.649,    2.187,
       -0.207,   -0.521,    0.505,    1.635,   -0.158,    0.241,    0.529,
       -0.146,   -2.314,   -0.322,   -0.692,   -1.151,   -4.158,    0.396,
       -0.556,   -0.231,   -0.269,   -0.818,    0.045,    0.196,   -0.635,
        0.066,   -0.088,    0.040,    0.012,   -0.031,   -1.460,   -0.067,
        0.696,    0.668,    2.990,    0.159,   -0.229,   -0.309,    0.092,
       -1.528,   -0.070,   -1.292,    0.635,    0.145,   -0.048,    0.159,
        0.107,   -0.037,    1.089,    0.158,    0.699,   -0.034,   -2.725,
        0.045,   -0.421,   -0.318,    0.374,   -0.336,   -0.677,   -0.316,
        1.101,    0.586,   -0.172,   -0.071,   -1.189,   -0.703,   -1.455,
        0.158,    1.208,    0.844,    0.024,   -0.008,    0.032,   -0.066,
        0.122,   -1.037,    0.134,   -0.131,    0.791,   -2.591,    0.061,
        0.227,    0.232,   -0.065,   -0.778,    0.417,   -1.362,    1.516,
       -1.377,   -0.689,   -2.426,   -0.443,   -1.131,    0.894,    0.369,
       -1.459,   -0.899
    },
    {   3.931,    0.777,   -2.436,    1.521,    0.347,   -0.541,   -0.487,
        0.027,   -0.792,    3.053,   -0.052,   -0.819,    0.600,   -2.194,
       -0.033,   -0.405,   -0.253,    0.153,   -1.984,    0.001,    0.061,
        0.003,   -0.126,   -0.033,    1.887,    1.497,   -0.501,    2.616,
       -0.102,   -0.482,    0.543,    1.821,   -0.237,    0.041,    0.250,
        0.053,   -1.495,   -0.090,   -0.794,   -0.789,   -2.760,    0.227,
       -0.082,    0.153,   -0.197,   -0.978,    0.099,    0.261,   -1.141,
        0.121,   -0.038,    0.182,    0.127,   -0.185,   -0.167,    0.025,
        0.031,    0.172,    1.703,   -0.148,    0.127,    0.171,   -0.168,
       -2.306,   -0.418,   -2.082,    0.729,   -0.306,   -0.114,    0.396,
        0.312,    0.062,    0.547,   -0.050,    0.622,    0.583,   -2.012,
       -0.106,   -0.329,   -0.161,   -0.033,   -0.741,   -0.858,   -0.373,
       -0.465,   -0.347,   -0.222,   -0.530,   -0.783,   -0.676,   -1.549,
        0.160,    1.302,    0.880,   -0.012,    0.003,    0.377,    0.224,
       -0.034,   -0.699,   -0.110,    0.021,    0.635,   -2.700,    0.011,
       -0.381,   -0.283,    0.189,    0.835,    0.508,   -1.203,    2.290,
       -1.031,   -0.976,   -1.322,   -1.520,   -0.602,    0.596,    0.158,
       -1.256,   -1.243
    },
    {   1.485,    0.145,   -0.965,    0.578,   -0.001,    0.153,    0.025,
        0.029,   -0.207,    2.267,   -0.077,   -0.618,    0.459,   -1.802,
        0.067,    0.054,   -0.058,   -0.126,   -2.285,    0.029,    0.076,
       -0.045,   -0.091,    0.003,    2.227,    1.834,   -0.605,    2.748,
        0.038,   -0.362,    0.214,    1.878,   -0.055,    0.298,    0.300,
       -0.162,   -1.175,    0.000,   -0.665,   -0.540,   -2.037,    0.140,
       -0.006,    0.066,   -0.214,   -1.149,   -0.017,    0.038,   -1.333,
        0.234,    0.175,    0.622,    0.425,    0.034,   -0.567,    0.018,
       -0.082,   -0.087,    1.876,    0.062,    0.065,    0.035,   -0.093,
       -2.366,   -0.567,   -1.401,    1.067,   -0.001,   -0.276,    0.224,
        0.147,    0.086,   -0.894,    0.609,   -0.994,   -1.112,    0.735,
       -1.331,    0.025,    0.660,   -0.202,    2.035,   -0.638,    1.523,
        0.489,   -0.120,   -0.126,    1.579,   -1.339,    0.468,   -1.561,
        0.244,    1.244,    0.950,   -0.120,   -0.014,    0.132,    0.097,
        0.122,   -0.896,   -0.140,   -0.390,    1.093,   -3.175,   -0.158,
       -0.056,   -0.215,    0.147,    0.080,    1.260,   -1.357,    1.932,
       -1.305,   -1.103,   -0.829,   -1.864,   -0.606,   -0.127,    0.268,
       -1.384,   -0.844
    },
    {   0.975,    0.235,   -0.523,    0.387,    0.002,    0.120,   -0.129,
       -0.262,   -0.044,    3.900,    0.141,   -1.194,    0.507,   -2.862,
       -0.159,   -0.384,   -0.213,   -0.120,   -1.923,   -0.001,    0.092,
        0.037,   -0.067,   -0.059,    1.743,    1.528,   -0.510,    2.292,
       -0.037,   -0.728,    0.316,    1.697,    0.015,    0.190,    0.247,
       -0.156,   -1.419,   -0.004,   -0.727,   -0.852,   -2.553,    0.067,
       -0.178,   -0.191,   -0.250,   -1.082,    0.242,    0.103,   -1.165,
       -0.008,    0.119,    0.248,    0.138,    0.090,   -0.892,   -0.067,
       -0.319,   -0.013,    2.689,    0.095,    0.311,    0.093,   -0.200,
       -1.847,   -0.079,   -1.315,    0.816,    0.136,   -0.184,    0.047,
        0.403,   -0.017,    1.103,    0.241,   -0.105,   -0.344,    0.141,
       -0.601,   -1.199,   -0.240,    0.452,   -1.808,    0.524,   -0.530,
        1.127,   -1.486,    1.045,    0.551,   -0.475,   -0.218,   -1.578,
        0.218,    1.316,    0.751,   -0.170,    0.005,    0.234,    0.231,
        0.009,   -0.674,   -0.041,   -0.096,    0.587,   -2.036,   -0.047,
       -0.255,   -0.133,    0.023,    0.388,    1.249,   -0.935,    2.417,
       -1.348,   -0.756,   -0.860,   -1.188,   -0.847,    0.047,    0.105,
       -1.453,   -0.861
    },
    {   3.433,    0.266,   -1.647,    1.269,    0.152,   -0.723,   -0.954,
        0.244,   -0.693,    2.454,   -0.052,   -0.715,    0.192,   -1.798,
       -0.033,    0.076,    0.123,   -0.042,   -2.189,    0.046,    0.148,
       -0.033,   -0.147,    0.023,    2.032,    1.697,   -0.590,    1.597,
       -0.057,   -0.520,    0.322,    1.070,   -0.015,    0.287,    0.282,
       -0.054,   -1.459,   -0.100,   -0.897,   -0.745,   -3.338,    0.101,
       -0.232,   -0.145,   -0.144,   -3.042,   -0.537,    0.513,   -0.154,
        0.684,   -0.333,   -0.762,   -0.083,    0.738,   -0.820,   -0.031,
       -0.366,    0.059,    1.971,    0.047,    0.144,    0.065,   -0.152,
       -4.050,    0.753,   -2.387,    1.177,    0.387,   -0.614,   -0.185,
        0.746,    0.748,    1.115,   -0.054,   -0.524,    0.900,    0.032,
        0.078,    0.115,    0.093,    0.017,    2.308,   -0.988,   -0.882,
       -1.188,   -0.280,    0.592,   -1.072,   -1.824,    1.329,   -1.678,
        0.174,    1.446,    0.714,    0.154,   -0.068,    0.028,    0.189,
        0.028,   -1.068,   -0.135,   -0.135,    0.774,   -2.726,    0.072,
        0.281,    0.461,   -0.071,    1.041,    0.343,   -1.817,    2.080,
       -1.885,   -0.978,   -0.130,   -1.560,   -0.417,    1.679,   -0.228,
       -1.702,   -0.693
    },
    {   1.658,    0.342,   -1.033,    0.664,    0.149,   -0.129,    0.148,
        0.203,    0.049,    3.940,    0.088,   -0.960,    0.544,   -2.956,
       -0.222,    0.008,    0.065,   -0.189,   -2.116,    0.043,    0.034,
       -0.064,   -0.105,   -0.062,    2.014,    1.682,   -0.572,    1.830,
        0.047,   -0.550,    0.427,    1.223,   -0.159,    0.193,    0.253,
       -0.156,   -1.751,   -0.135,   -0.721,   -1.062,   -3.106,    0.135,
       -0.026,    0.127,   -0.335,   -2.410,   -1.141,   -0.363,    0.782,
        1.742,    0.434,   -0.282,   -0.800,    1.207,   -0.506,    0.129,
       -0.518,    0.159,    1.914,   -0.042,    0.060,   -0.045,   -0.214,
       -1.547,   -0.196,   -0.797,    0.821,    0.252,    0.009,   -0.054,
        0.146,   -0.042,    0.476,   -0.109,   -0.068,    0.780,    0.017,
       -0.089,   -0.300,   -0.243,   -0.106,    2.621,    0.438,    0.869,
        0.305,   -0.485,   -0.082,    0.526,   -0.100,    0.032,   -1.449,
        0.199,    1.007,    0.744,   -0.005,   -0.022,    0.101,    0.126,
        0.095,   -1.303,    0.008,   -0.032,    0.671,   -2.997,   -0.059,
       -0.012,   -0.115,    0.006,    0.109,    1.499,   -1.202,    2.401,
       -2.140,   -0.808,   -0.171,   -1.299,   -0.864,    1.614,    0.304,
       -1.695,   -1.092
    },
    {   2.393,    0.328,   -1.230,    1.188,   -0.030,   -0.253,   -0.391,
        0.199,    0.013,    3.282,   -0.107,   -0.931,    0.582,   -2.580,
       -0.137,   -0.195,   -0.004,   -0.094,   -2.131,   -0.006,    0.007,
       -0.017,   -0.112,    0.008,    2.056,    1.666,   -0.521,    2.503,
       -0.041,   -0.544,    0.440,    1.970,    0.023,    0.232,    0.280,
       -0.128,   -1.109,   -0.088,   -0.797,   -0.587,   -2.517,   -0.039,
        0.023,    0.176,   -0.175,   -3.157,   -0.404,    0.903,    0.502,
        0.559,    0.070,   -0.946,    0.218,   -0.037,   -0.925,   -0.063,
       -0.174,    0.018,    2.337,   -0.060,    0.178,    0.142,   -0.147,
       -1.829,   -0.205,   -1.258,    1.054,   -0.015,   -0.205,    0.136,
        0.309,   -0.289,    0.919,   -0.066,    0.136,    0.907,   -0.172,
        0.003,   -0.146,   -0.171,    0.007,   -1.726,    0.425,    0.209,
        1.221,    0.465,    1.021,    0.718,    0.641,    1.050,   -1.537,
        0.229,    1.262,    0.622,   -0.009,   -0.185,    0.108,    0.074,
        0.067,   -0.711,   -0.218,    0.043,    1.135,   -2.751,   -0.048,
        0.019,   -0.072,    0.044,   -0.451,    0.782,   -0.998,    2.213,
       -0.838,   -0.912,   -0.317,   -1.228,   -0.602,    1.331,   -0.358,
       -1.310,   -0.643
    },
    {   1.802,    0.066,   -1.300,    0.641,    0.058,   -0.053,   -0.026,
       -0.042,   -0.165,    3.447,   -0.060,   -0.868,    0.690,   -2.739,
       -0.102,    0.239,    0.084,   -0.113,   -2.081,    0.057,    0.068,
        0.025,   -0.136,   -0.042,    1.935,    1.555,   -0.551,    1.600,
       -0.064,   -0.407,    0.306,    1.070,   -0.098,    0.303,    0.384,
       -0.134,   -1.547,    0.085,   -0.659,   -0.906,   -2.960,    0.291,
       -0.089,   -0.120,   -0.124,   -3.396,   -0.568,    1.219,    0.227,
        0.008,   -0.381,   -1.278,    0.047,   -0.121,   -0.812,    0.059,
       -0.128,    0.027,    2.351,   -0.030,    0.105,    0.026,   -0.216,
       -2.856,    0.235,   -1.752,    1.022,    0.385,   -0.050,   -0.167,
        0.405,    0.474,    0.853,   -0.171,   -0.013,    1.450,   -0.145,
        0.041,   -0.201,   -0.178,    0.158,   -1.318,   -1.518,   -0.757,
        0.042,   -0.033,    1.206,    0.792,   -1.266,    0.087,   -2.062,
        0.275,    1.609,    1.169,   -0.045,   -0.021,    0.463,    0.227,
        0.114,   -1.200,   -0.292,   -0.106,    1.026,   -3.140,   -0.039,
       -0.025,   -0.130,    0.169,    0.698,    0.943,   -1.015,    2.359,
       -1.739,   -0.788,   -0.426,   -1.187,   -0.660,    0.974,   -0.031,
       -1.015,   -0.895
    },
    {   1.720,    0.199,   -1.057,    0.472,    0.131,    0.020,   -0.096,
       -0.151,   -0.331,    2.674,    0.068,   -0.819,    0.373,   -1.970,
       -0.050,   -0.111,   -0.096,   -0.193,   -2.011,    0.012,    0.079,
        0.015,   -0.064,   -0.025,    1.927,    1.557,   -0.572,    3.528,
       -0.195,   -0.862,    0.532,    2.608,   -0.083,    0.171,    0.234,
       -0.407,   -1.545,    0.197,   -0.822,   -0.837,   -2.826,    0.132,
       -0.134,   -0.036,   -0.152,   -3.356,   -0.129,    0.142,    0.614,
       -1.002,   -0.101,   -0.624,   -1.944,    0.190,   -0.437,   -0.010,
       -0.139,   -0.033,    1.816,    0.006,    0.051,    0.105,   -0.253,
       -1.310,   -0.181,   -0.870,    0.738,    0.006,   -0.024,   -0.038,
        0.034,    0.113,    1.005,   -0.069,    0.098,    1.367,   -0.147,
        0.035,   -0.396,   -0.325,    0.246,    0.474,    0.438,    0.852,
       -1.738,   -0.224,    0.283,    0.281,    1.747,    1.035,   -1.302,
        0.133,    1.112,    0.648,   -0.055,   -0.026,    0.260,    0.069,
       -0.001,   -1.040,   -0.170,   -0.322,    1.035,   -3.059,   -0.004,
       -0.265,   -0.204,    0.369,    0.717,    0.941,   -1.005,    2.520,
       -1.012,   -0.850,    0.377,   -1.541,   -0.962,    0.904,   -0.283,
       -1.559,   -0.889
    },
    {   2.446,   -0.269,   -0.912,    0.542,    0.062,    0.177,   -0.840,
       -0.219,   -0.224,    2.170,   -0.083,   -0.717,    0.481,   -1.649,
       -0.090,    0.076,   -0.011,   -0.016,   -2.130,   -0.012,    0.099,
        0.049,   -0.186,   -0.027,    1.822,    1.473,   -0.518,    2.089,
       -0.116,   -0.462,    0.374,    1.365,   -0.024,    0.117,    0.212,
       -0.121,   -1.546,   -0.024,   -0.724,   -0.697,   -2.754,    0.193,
       -0.074,    0.071,   -0.135,   -1.671,   -0.024,    0.190,    0.013,
       -0.368,    0.178,   -0.480,   -0.802,    0.047,   -0.759,   -0.052,
       -0.300,    0.024,    2.293,    0.055,   -0.004,   -0.033,   -0.191,
       -2.098,   -0.000,   -1.863,    0.549,   -0.017,   -0.103,    0.200,
        0.480,   -0.169,    1.200,    0.047,   -0.394,    0.995,   -0.090,
        0.059,    0.028,   -0.034,   -0.026,   -0.775,    0.506,    0.729,
       -1.109,   -0.047,    0.198,    0.193,    0.204,   -0.170,   -1.186,
        0.061,    1.039,    0.619,   -0.102,    0.075,    0.053,    0.053,
        0.100,   -1.099,    0.031,   -0.251,    0.731,   -2.977,   -0.086,
       -0.014,   -0.011,    0.208,    1.490,    0.595,   -1.339,    2.601,
       -1.727,   -0.807,    0.650,   -1.413,   -0.587,    1.489,   -0.273,
       -1.625,   -0.945
    },
    {   3.413,    1.143,   -1.906,    1.283,   -0.607,   -0.422,    0.184,
        0.130,   -0.563,    4.705,    0.162,   -1.167,    0.844,   -3.620,
       -0.084,   -0.234,   -0.171,   -0.120,   -2.008,    0.017,    0.058,
        0.035,   -0.110,   -0.041,    1.966,    1.632,   -0.540,    2.688,
       -0.058,   -0.416,    0.517,    2.047,    0.109,    0.245,    0.216,
       -0.173,   -1.307,   -0.073,   -0.750,   -0.800,   -2.812,    0.164,
        0.102,    0.276,   -0.157,   -2.540,   -0.067,   -0.339,    0.231,
       -0.101,   -0.787,   -0.586,   -1.887,    0.136,   -0.668,    0.000,
       -0.062,    0.115,    2.480,   -0.008,   -0.062,   -0.194,   -0.133,
       -2.883,   -0.220,   -2.168,    1.074,    0.010,   -0.414,   -0.227,
        0.336,    0.097,    1.119,   -0.058,   -0.025,    1.328,   -0.082,
        0.092,   -0.355,   -0.287,    0.034,   -2.739,    0.402,    2.153,
        0.132,   -0.334,   -0.274,    0.244,    0.567,    0.212,   -2.443,
        0.240,    1.947,    1.826,   -0.123,    0.086,    0.698,    0.484,
       -0.062,   -1.529,    0.154,   -0.082,    1.324,   -3.686,   -0.208,
       -0.212,   -0.141,   -0.007,    0.606,    0.378,   -0.759,    1.997,
       -0.886,   -0.825,    0.339,   -1.180,   -0.665,    0.911,   -0.556,
       -0.659,   -0.645
    },
    {   2.394,    0.167,   -1.413,    0.863,    0.036,   -0.235,   -0.307,
       -0.203,   -0.374,    3.490,   -0.186,   -0.927,    0.264,   -2.475,
       -0.026,   -0.103,   -0.008,   -0.140,   -1.890,    0.057,    0.062,
       -0.014,   -0.116,   -0.089,    1.577,    1.225,   -0.443,    2.036,
       -0.028,   -0.430,    0.260,    1.254,   -0.173,    0.145,    0.169,
       -0.202,   -1.461,   -0.173,   -0.827,   -0.865,   -2.610,    0.143,
        0.001,    0.065,   -0.113,   -2.120,    0.138,    0.051,    0.009,
       -0.235,   -0.404,   -0.768,   -1.385,    0.057,   -0.625,   -0.001,
       -0.239,   -0.072,    1.849,   -0.162,    0.022,    0.025,   -0.144,
       -3.004,    0.026,   -1.918,    1.065,    0.009,   -0.130,   -0.148,
       -0.041,    0.252,    0.858,   -0.249,   -0.391,    1.317,   -0.188,
        0.063,   -0.264,   -0.022,   -0.028,   -6.240,    2.171,    1.860,
       -0.707,   -0.520,   -1.329,   -0.283,   -1.414,   -0.349,   -1.503,
        0.182,    1.004,    0.910,   -0.017,    0.037,    0.101,    0.065,
        0.091,   -1.016,   -0.211,   -0.386,    1.025,   -3.521,    0.000,
       -0.600,   -0.304,    0.117,    1.701,    1.070,   -1.310,    2.661,
       -1.704,   -0.971,    0.782,   -1.570,   -0.494,    0.775,   -0.398,
       -1.502,   -0.905
    },
    {   1.153,    0.149,   -0.517,    0.775,   -0.062,    0.114,    0.010,
       -0.015,   -0.228,    2.677,   -0.003,   -0.792,    0.337,   -2.036,
       -0.024,   -0.120,   -0.204,   -0.127,   -2.332,    0.024,    0.128,
        0.091,   -0.076,   -0.139,    2.032,    1.620,   -0.593,    3.641,
        0.067,   -0.858,    0.288,    3.016,   -0.019,    0.333,    0.149,
       -0.224,   -1.608,   -0.014,   -0.740,   -1.028,   -3.439,    0.042,
       -0.229,   -0.298,   -0.202,   -1.652,    0.094,   -0.127,    0.122,
       -0.265,   -0.150,   -0.861,   -1.218,    0.194,   -0.400,    0.015,
       -0.125,   -0.062,    2.011,    0.032,    0.208,   -0.000,   -0.141,
       -2.399,   -0.388,   -0.274,    2.452,   -0.170,    0.024,   -0.394,
        0.193,    0.135,    2.066,   -0.021,    1.370,    0.337,   -0.171,
        0.217,    0.518,    0.295,   -0.141,    1.337,   -0.314,   -1.663,
        0.537,   -0.309,   -0.056,   -0.320,   -0.331,    0.150,   -2.237,
        0.316,    1.557,    1.028,    0.049,   -0.238,    0.196,    0.161,
        0.047,   -0.819,   -0.081,   -0.178,    0.795,   -2.429,   -0.063,
       -0.318,   -0.219,    0.027,    1.022,    1.177,   -0.946,    2.455,
       -0.678,   -0.851,    0.872,   -1.495,   -0.512,    0.883,    0.426,
       -0.741,   -0.923
    },
    {   1.475,   -0.178,   -0.425,    1.607,    0.114,    0.261,    0.173,
        0.279,   -0.010,    3.660,   -0.008,   -0.862,    0.486,   -2.707,
       -0.111,   -0.114,    0.130,   -0.195,   -2.256,   -0.072,    0.028,
        0.013,   -0.066,   -0.077,    1.687,    1.254,   -0.501,    2.498,
       -0.063,   -0.497,    0.544,    1.791,   -0.207,    0.211,    0.277,
       -0.100,   -1.649,   -0.174,   -0.855,   -0.999,   -3.064,    0.186,
       -0.046,   -0.063,   -0.398,   -1.528,   -0.199,   -0.156,    0.182,
       -0.263,   -0.129,   -0.610,   -1.637,    0.147,   -0.387,    0.052,
       -0.291,    0.121,    1.647,   -0.061,    0.046,    0.017,    0.005,
       -3.066,   -0.748,   -0.001,    0.370,    0.318,    0.033,   -0.242,
       -0.866,   -0.402,    1.776,    0.583,    2.346,    0.034,   -0.535,
       -0.018,   -0.033,    0.342,   -0.494,    1.301,    0.178,   -0.854,
        0.615,   -0.105,   -0.187,   -0.226,    0.034,   -0.080,   -1.625,
        0.125,    1.315,    0.982,   -0.050,   -0.043,    0.046,    0.017,
        0.071,   -0.974,    0.055,   -0.024,    0.511,   -2.285,    0.022,
       -0.117,    0.012,    0.085,    3.209,    0.705,   -1.365,    4.692,
       -1.557,   -0.910,    0.677,   -1.877,   -0.693,    0.414,    1.470,
       -1.077,   -1.410
    },
    {   0.992,    0.008,   -0.167,    1.064,   -0.327,    0.009,   -0.226,
       -0.272,    0.100,    2.898,   -0.015,   -0.700,    0.507,   -2.162,
       -0.145,   -0.168,   -0.254,   -0.056,   -2.318,    0.055,    0.062,
        0.075,   -0.094,   -0.047,    1.715,    1.310,   -0.490,    2.210,
        0.005,   -0.562,    0.254,    1.636,   -0.113,    0.242,    0.172,
        0.021,   -1.407,    0.033,   -0.582,   -0.705,   -2.658,   -0.014,
       -0.031,   -0.018,   -0.194,   -1.202,   -0.331,   -0.292,    0.572,
       -0.161,   -0.191,   -0.357,   -1.090,    0.016,   -0.495,    0.063,
       -0.255,   -0.028,    1.729,   -0.018,    0.058,   -0.041,   -0.054,
       -1.889,   -0.537,   -0.952,    0.931,    0.046,    0.081,    0.273,
       -0.613,   -0.432,    3.451,   -0.146,    2.108,   -0.917,   -0.410,
        0.370,    0.520,   -0.021,   -0.365,    2.557,    0.438,   -1.627,
        1.067,    0.265,   -0.285,    0.110,    0.267,   -0.330,   -1.426,
        0.126,    1.144,    0.754,    0.015,   -0.030,    0.088,    0.030,
        0.062,   -0.900,   -0.036,   -0.113,    0.809,   -2.416,   -0.063,
       -0.266,   -0.201,    0.107,    2.847,    1.214,   -1.342,    4.577,
       -1.531,   -1.128,    0.722,   -1.614,   -0.588,    0.571,    0.646,
       -1.735,   -1.061
    },
    {   0.927,   -0.102,   -0.147,    1.113,   -0.098,   -0.005,   -0.348,
       -0.135,    0.059,    2.734,   -0.063,   -0.787,    0.387,   -1.804,
       -0.127,   -0.415,   -0.097,    0.100,   -1.931,    0.034,    0.052,
       -0.030,   -0.106,   -0.058,    1.696,    1.366,   -0.483,    2.237,
       -0.022,   -0.524,    0.255,    1.576,   -0.102,    0.034,    0.129,
       -0.038,   -1.114,    0.009,   -0.577,   -0.515,   -2.099,    0.024,
       -0.139,    0.007,   -0.060,   -1.083,   -0.030,    0.129,    0.188,
       -0.076,   -0.289,   -0.647,   -1.623,    0.247,   -0.516,    0.033,
       -0.333,   -0.013,    1.844,   -0.034,    0.051,    0.015,   -0.085,
       -2.130,   -0.294,   -1.472,    0.705,    0.102,   -0.150,   -0.078,
        0.003,   -0.044,    2.461,   -0.472,    0.178,    0.553,   -0.628,
       -1.220,    0.281,    0.860,   -0.094,    2.123,    0.163,   -1.407,
        1.030,    0.069,   -0.085,   -0.014,    0.150,   -0.053,   -1.258,
        0.133,    1.070,    0.685,   -0.077,    0.003,    0.208,    0.053,
        0.060,   -0.708,   -0.161,   -0.053,    0.568,   -1.992,   -0.016,
       -0.150,   -0.051,    0.173,    1.369,    1.136,   -1.390,    2.634,
       -1.701,   -1.142,    0.307,   -1.769,   -0.601,   -0.074,    0.832,
       -1.722,   -1.083
    },
    {   1.147,    0.067,   -0.042,    1.200,   -0.298,   -0.097,   -0.253,
       -0.224,    0.036,    2.844,   -0.007,   -0.602,    0.514,   -2.114,
       -0.125,    0.108,    0.135,   -0.133,   -1.840,    0.014,    0.022,
       -0.019,   -0.088,   -0.050,    1.941,    1.589,   -0.574,    2.744,
       -0.075,   -0.609,    0.329,    1.942,   -0.210,    0.198,    0.160,
       -0.179,   -1.421,   -0.015,   -0.749,   -0.668,   -2.742,    0.216,
        0.110,    0.173,   -0.084,   -1.458,   -0.354,   -0.085,    0.689,
       -0.677,   -0.187,   -0.110,   -1.198,    0.016,   -0.564,    0.036,
       -0.253,    0.016,    1.800,    0.025,    0.009,   -0.016,   -0.091,
       -2.459,   -0.320,   -1.680,    1.023,    0.031,   -0.398,   -0.147,
        0.044,    0.187,   -2.215,   -1.503,    0.458,   -0.520,   -0.126,
       -0.095,    0.424,   -0.651,   -0.051,    1.790,   -0.050,   -1.622,
        0.533,    0.064,    0.161,    0.059,   -0.210,   -0.241,   -1.547,
        0.057,    1.402,    0.931,   -0.158,    0.015,    0.219,    0.035,
        0.058,   -0.739,    0.120,   -0.065,    0.996,   -2.325,   -0.132,
        0.130,   -0.077,    0.053,    0.687,    1.178,   -1.286,    1.972,
       -1.332,   -1.196,    0.516,   -1.759,   -0.621,   -0.119,    0.747,
       -1.122,   -0.981
    },
    {   1.872,    0.767,    0.265,    0.870,    0.248,   -1.319,   -1.301,
        0.714,    0.111,    3.102,   -0.079,   -0.285,    0.699,   -2.213,
        0.101,   -0.255,    0.048,    0.136,   -1.801,   -0.018,    0.057,
        0.061,   -0.054,    0.001,    1.641,    1.323,   -0.404,    1.996,
       -0.126,   -0.309,    0.636,    1.423,   -0.151,    0.093,    0.225,
        0.082,   -1.540,   -0.111,   -1.179,   -1.220,   -2.369,    0.395,
       -0.209,   -0.223,   -0.290,   -1.538,   -0.225,   -0.169,    0.446,
       -0.078,   -0.297,   -0.351,   -1.163,    0.112,   -0.947,   -0.034,
        0.044,    0.448,    2.400,   -0.033,    0.002,    0.010,    0.047,
       -1.175,   -0.014,   -1.076,    0.410,    0.125,   -0.194,   -0.024,
       -0.017,   -0.024,   -1.950,   -0.977,    0.896,    0.391,    0.833,
       -1.005,    0.876,   -0.185,    0.558,    0.889,   -0.087,   -0.237,
        0.927,   -0.035,    0.019,   -0.159,   -0.137,    0.081,   -1.437,
        0.199,    1.238,    0.879,   -0.172,    0.004,    0.198,    0.077,
        0.036,   -0.875,   -0.076,    0.002,    0.499,   -2.436,    0.011,
       -0.252,   -0.019,    0.023,    0.865,    0.224,   -1.211,    2.390,
       -1.508,   -0.478,    0.549,   -1.282,   -1.274,   -0.228,    2.156,
       -1.247,   -1.222
    },
    {   2.194,    0.208,   -0.026,    0.852,    0.317,   -0.120,   -0.379,
        0.026,    0.705,    3.536,    0.081,   -0.972,    0.476,   -2.739,
       -0.065,   -0.255,   -0.185,   -0.015,   -2.677,    0.028,    0.060,
        0.033,   -0.143,   -0.012,    2.187,    1.682,   -0.669,    2.487,
        0.004,   -0.535,    0.311,    1.756,   -0.012,    0.067,    0.172,
        0.014,   -1.445,    0.015,   -0.727,   -0.884,   -3.191,    0.281,
       -0.330,   -0.203,   -0.085,   -2.599,   -0.248,   -0.006,   -0.006,
       -0.167,    0.084,   -0.649,   -1.091,    0.151,   -0.515,   -0.041,
       -0.216,    0.049,    1.883,    0.026,    0.030,   -0.018,   -0.036,
       -1.498,   -0.181,   -1.530,    0.310,   -0.038,   -0.153,    0.235,
        0.105,    0.051,    0.616,    0.403,    0.560,   -1.500,    0.093,
        0.421,   -1.182,    0.494,    0.384,    1.199,    0.062,   -0.643,
        0.952,    0.027,    0.092,   -0.047,   -0.017,    0.027,   -1.685,
        0.143,    1.268,    1.119,   -0.069,    0.024,    0.305,    0.075,
        0.053,   -0.906,   -0.065,   -0.075,    0.809,   -2.359,   -0.147,
       -0.060,   -0.112,    0.096,    3.806,    0.205,   -1.024,    3.717,
       -1.420,   -0.873,    1.743,   -1.678,   -0.761,   -0.245,    1.689,
       -1.344,   -1.022
    },
    {   0.841,   -0.265,    0.224,    1.048,   -0.125,    0.318,   -0.276,
       -0.366,    0.105,    3.314,   -0.061,   -0.905,    0.226,   -2.521,
       -0.014,    0.069,   -0.010,   -0.104,   -2.055,    0.039,    0.028,
        0.065,   -0.044,   -0.107,    1.492,    1.208,   -0.409,    1.572,
        0.025,   -0.581,    0.285,    1.068,   -0.009,    0.115,    0.016,
       -0.052,   -1.111,    0.006,   -0.725,   -0.658,   -2.631,    0.120,
       -0.166,   -0.072,   -0.192,   -1.170,   -0.118,   -0.092,    0.320,
       -0.221,   -0.361,   -0.498,   -1.130,    0.082,   -0.646,    0.014,
       -0.334,    0.066,    1.693,   -0.015,    0.047,   -0.087,   -0.111,
       -2.206,   -0.743,   -1.199,    1.055,    0.135,   -0.238,   -0.159,
       -0.402,    0.032,    1.134,   -0.827,    0.542,   -1.847,   -0.440,
        1.835,    0.285,   -0.642,   -0.637,    1.281,    0.176,   -0.879,
        0.566,    0.041,   -0.027,   -0.030,    0.020,   -0.046,   -1.550,
        0.221,    1.069,    0.852,    0.003,   -0.002,    0.098,    0.158,
        0.097,   -0.894,   -0.115,    0.124,    0.680,   -2.386,   -0.118,
        0.059,   -0.085,    0.108,    2.784,    0.581,   -1.498,    4.190,
       -1.865,   -1.167,    0.788,   -1.727,   -0.522,    0.259,    2.041,
       -1.512,   -0.846
    },
    {   0.860,   -0.035,   -0.026,    1.106,   -0.121,    0.029,   -0.314,
       -0.219,    0.049,    2.602,   -0.026,   -0.644,    0.377,   -1.849,
       -0.080,   -0.143,   -0.080,   -0.043,   -2.174,   -0.014,   -0.000,
        0.010,   -0.127,   -0.070,    1.759,    1.430,   -0.493,    2.186,
       -0.118,   -0.392,    0.386,    1.558,   -0.173,    0.064,    0.183,
       -0.113,   -1.457,   -0.151,   -0.907,   -0.997,   -2.786,    0.112,
       -0.044,    0.066,   -0.207,   -1.984,   -0.144,   -0.122,    0.001,
       -0.072,   -0.194,   -0.606,   -1.138,   -0.010,   -0.483,    0.025,
       -0.135,    0.144,    1.864,   -0.116,   -0.158,   -0.149,   -0.062,
       -2.010,   -0.195,   -1.352,    0.685,    0.071,   -0.076,   -0.012,
        0.233,    0.004,    1.182,   -1.234,   -0.145,   -0.638,    0.544,
        0.082,    0.148,    0.601,    0.140,    1.767,    0.190,   -0.834,
        0.794,   -0.211,   -0.232,   -0.018,    0.123,   -0.263,   -1.403,
        0.046,    1.320,    0.732,   -0.026,   -0.028,    0.237,    0.188,
        0.015,   -1.173,    0.103,   -0.270,    0.685,   -2.949,    0.006,
        0.003,   -0.083,    0.173,    2.781,    1.105,   -1.519,    3.488,
       -1.316,   -0.932,    1.027,   -1.715,   -0.774,    0.092,    0.933,
       -1.396,   -1.068
    },
    {   0.928,   -0.066,   -0.109,    0.897,   -0.073,    0.030,   -0.280,
       -0.287,    0.116,    2.477,   -0.064,   -0.641,    0.333,   -1.730,
       -0.014,   -0.396,   -0.332,   -0.005,   -1.873,   -0.003,    0.071,
       -0.047,   -0.153,    0.011,    1.769,    1.395,   -0.500,    1.963,
       -0.037,   -0.411,    0.253,    1.333,    0.002,   -0.028,   -0.053,
       -0.055,   -1.687,   -0.014,   -1.087,   -0.908,   -3.528,    0.175,
       -0.326,    0.131,   -0.232,   -1.975,   -0.074,   -0.043,    0.356,
       -0.473,   -0.003,   -0.678,   -1.584,    0.131,   -0.834,   -0.115,
       -0.267,    0.094,    2.571,   -0.029,   -0.141,   -0.117,   -0.084,
       -2.104,   -0.254,   -1.377,    0.875,    0.120,    0.018,   -0.126,
       -0.056,    0.002,    0.965,    0.001,   -0.588,   -0.789,   -0.229,
       -0.120,   -0.975,   -0.078,   -0.650,    1.964,    0.426,   -1.232,
        0.952,    0.164,   -0.120,   -0.460,   -0.227,   -0.303,   -1.849,
        0.294,    1.497,    0.930,   -0.081,   -0.045,    0.134,    0.137,
        0.093,   -1.060,   -0.062,   -0.173,    0.618,   -2.378,   -0.060,
        0.050,   -0.151,   -0.024,    1.130,    1.462,   -1.226,    2.305,
       -1.600,   -0.717,    0.665,   -1.199,   -0.813,    0.186,    0.655,
       -1.356,   -1.018
    },
    {   0.944,   -0.172,   -0.036,    1.271,    0.014,    0.100,   -0.281,
       -0.202,    0.021,    3.085,    0.019,   -0.878,    0.413,   -2.246,
        0.079,   -0.145,    0.006,   -0.155,   -2.337,   -0.014,    0.088,
        0.060,   -0.106,   -0.029,    1.939,    1.527,   -0.529,    2.238,
       -0.113,   -0.628,    0.456,    1.628,   -0.045,    0.059,    0.252,
       -0.247,   -1.288,    0.016,   -0.634,   -0.666,   -2.540,    0.082,
       -0.079,   -0.154,   -0.075,   -1.790,    0.087,    0.056,    0.275,
       -0.398,   -0.178,   -0.846,   -1.458,    0.088,   -0.567,   -0.054,
       -0.194,    0.036,    1.608,    0.095,   -0.097,   -0.046,   -0.162,
       -2.045,   -0.389,   -1.546,    0.875,   -0.039,   -0.025,    0.147,
        0.079,    0.072,    1.653,   -0.764,    1.063,   -1.730,   -0.873,
        1.691,    0.109,   -0.899,   -0.463,    1.541,    0.144,   -1.282,
        0.518,   -0.058,    0.021,   -0.055,    0.006,   -0.282,   -1.815,
        0.184,    1.385,    1.183,   -0.183,   -0.048,    0.316,    0.081,
        0.148,   -1.136,   -0.074,   -0.254,    0.888,   -3.076,    0.120,
       -0.326,   -0.235,    0.093,    2.246,    0.975,   -1.401,    3.382,
       -1.380,   -0.914,    0.447,   -1.607,   -0.425,    0.255,    1.380,
       -1.136,   -0.890
    },
    {   1.176,   -0.069,   -0.045,    1.545,   -0.083,    0.087,   -0.242,
       -0.123,    0.135,    3.665,   -0.013,   -0.956,    0.486,   -2.864,
       -0.008,   -0.275,   -0.144,   -0.056,   -2.664,    0.007,    0.020,
        0.047,   -0.104,   -0.039,    2.252,    1.756,   -0.661,    2.435,
        0.006,   -0.664,    0.229,    1.682,   -0.015,    0.222,    0.172,
       -0.153,   -1.762,   -0.087,   -0.893,   -0.676,   -3.277,    0.202,
       -0.246,   -0.022,   -0.075,   -1.535,   -0.127,   -0.510,    0.157,
       -0.503,   -0.176,   -0.716,   -2.020,    0.424,   -0.540,    0.001,
       -0.354,   -0.048,    1.863,    0.035,    0.222,    0.019,   -0.198,
       -2.269,   -0.214,   -1.491,    0.703,    0.272,   -0.386,   -0.117,
       -0.082,    0.149,    3.774,    0.132,   -1.407,   -0.461,   -0.013,
        0.064,    0.103,   -0.166,    0.204,    2.196,    0.111,   -1.469,
        1.182,   -0.045,   -0.003,    0.119,    0.384,   -0.378,   -1.597,
        0.156,    1.455,    0.922,   -0.027,   -0.081,    0.227,    0.231,
        0.152,   -0.735,   -0.046,   -0.119,    0.641,   -1.993,   -0.031,
       -0.260,   -0.162,    0.179,    1.363,    0.746,   -1.098,    4.072,
       -1.493,   -0.989,    0.393,   -1.665,   -0.668,    1.605,    0.833,
       -1.288,   -1.103
    },
    {   0.928,   -0.047,   -0.022,    1.111,   -0.067,   -0.067,   -0.116,
       -0.040,    0.040,    3.218,   -0.008,   -0.715,    0.423,   -2.389,
       -0.149,   -0.119,    0.084,   -0.080,   -1.930,   -0.048,    0.075,
        0.033,   -0.127,   -0.059,    1.403,    1.122,   -0.376,    2.468,
       -0.038,   -0.293,    0.476,    1.829,   -0.090,    0.132,    0.248,
       -0.039,   -1.512,   -0.084,   -0.803,   -0.931,   -2.455,   -0.017,
        0.039,    0.207,   -0.249,   -1.855,   -0.245,   -0.128,    0.680,
       -0.451,   -0.421,   -0.482,   -1.771,    0.115,   -0.423,    0.037,
       -0.131,    0.077,    1.804,   -0.056,    0.034,    0.094,   -0.051,
       -1.927,   -0.390,   -1.397,    0.634,    0.174,   -0.237,    0.048,
       -0.018,   -0.034,   -1.129,   -0.105,   -0.444,    0.282,   -0.920,
        0.024,    0.500,   -0.888,   -0.751,    1.782,    0.388,   -1.261,
        0.869,    0.089,    0.207,   -0.296,   -0.201,   -0.153,   -1.592,
        0.201,    1.254,    1.116,   -0.025,    0.053,    0.241,    0.081,
        0.046,   -0.914,   -0.010,   -0.075,    0.470,   -2.133,    0.073,
       -0.074,   -0.098,    0.061,    2.612,    0.998,   -1.086,    4.105,
       -1.460,   -0.768,    0.501,   -1.551,   -0.798,   -0.165,    0.910,
       -1.276,   -1.329
    },
    {   0.793,   -0.023,    0.178,    0.731,   -0.213,   -0.051,   -0.321,
       -0.203,   -0.028,    2.638,    0.021,   -0.716,    0.390,   -1.804,
       -0.164,   -0.245,    0.008,   -0.155,   -1.885,   -0.016,    0.128,
        0.024,   -0.076,   -0.070,    1.860,    1.511,   -0.535,    2.419,
        0.023,   -0.635,    0.431,    1.544,   -0.243,   -0.030,    0.224,
       -0.160,   -1.386,    0.153,   -0.887,   -0.638,   -2.530,    0.109,
       -0.096,    0.033,   -0.178,   -2.328,   -0.127,   -0.088,    0.094,
       -0.689,   -0.190,   -0.626,   -1.640,    0.137,   -0.491,    0.029,
       -0.282,    0.036,    1.772,   -0.081,   -0.089,   -0.014,   -0.060,
       -2.032,   -0.322,   -1.056,    1.058,   -0.151,   -0.082,    0.002,
        0.018,    0.002,   -2.128,   -0.326,    1.183,   -0.619,   -0.552,
        1.088,    0.547,   -1.031,   -0.328,    1.488,    0.076,   -0.983,
        0.686,    0.190,    0.014,    0.014,    0.072,   -0.214,   -1.232,
        0.065,    1.099,    0.613,    0.177,   -0.004,    0.300,    0.161,
        0.045,   -0.850,   -0.116,   -0.111,    0.511,   -2.196,   -0.073,
       -0.108,    0.011,    0.068,    0.555,    1.342,   -1.615,    1.997,
       -1.556,   -0.864,    0.479,   -1.737,   -0.556,   -0.222,    1.407,
       -1.610,   -1.221
    },
    {   0.809,   -0.102,   -0.044,    1.173,   -0.268,    0.062,   -0.135,
       -0.107,    0.104,    3.096,   -0.007,   -0.585,    0.587,   -2.481,
       -0.072,   -0.002,    0.120,   -0.128,   -1.876,    0.012,    0.108,
        0.073,   -0.058,   -0.025,    1.669,    1.332,   -0.439,    2.232,
       -0.064,   -0.328,    0.612,    1.575,   -0.073,    0.281,    0.344,
       -0.148,   -1.185,   -0.056,   -0.996,   -0.605,   -2.452,    0.448,
       -0.196,    0.062,   -0.113,   -1.235,   -0.311,   -0.048,    1.330,
       -0.825,   -0.382,   -0.046,   -1.076,    0.131,   -0.903,    0.039,
       -0.107,    0.189,    2.038,    0.047,    0.054,    0.047,   -0.047,
       -1.471,   -0.188,   -1.091,    0.667,    0.088,   -0.074,    0.161,
        0.102,    0.062,   -2.231,   -0.309,    1.517,   -0.818,    0.008,
       -0.063,   -0.053,   -0.061,    0.507,    1.638,    0.419,   -0.855,
        0.813,   -0.245,   -1.556,   -1.015,    0.043,   -0.539,   -1.805,
        0.263,    1.325,    1.051,    0.023,   -0.058,    0.376,    0.197,
        0.015,   -0.736,   -0.054,   -0.012,    0.566,   -2.105,   -0.209,
       -0.028,   -0.026,   -0.041,    1.032,    1.166,   -1.194,    2.903,
       -1.244,   -0.670,    0.259,   -1.386,   -0.868,   -0.819,    0.135,
       -1.325,   -1.083
    },
    {   1.224,   -0.196,   -0.403,    2.052,   -0.183,    0.100,   -0.658,
       -0.088,    0.237,    3.197,   -0.068,   -0.845,    0.173,   -2.312,
        0.021,   -0.145,   -0.051,    0.077,   -1.912,    0.053,    0.110,
       -0.030,   -0.175,   -0.016,    1.958,    1.442,   -0.580,    2.392,
        0.059,   -0.744,    0.364,    1.601,   -0.072,    0.074,    0.067,
       -0.074,   -1.487,    0.148,   -0.837,   -0.808,   -2.949,    0.050,
        0.037,    0.181,   -0.239,   -2.025,    0.139,    0.093,    0.016,
       -0.592,   -0.340,   -0.437,   -2.087,    0.198,   -0.604,    0.055,
       -0.432,    0.055,    1.705,    0.016,    0.046,   -0.073,   -0.090,
       -2.191,    0.081,   -1.508,    0.799,    0.002,   -0.553,    0.140,
        0.390,    0.159,   -1.240,    0.028,    0.963,   -0.289,    0.037,
       -0.048,    0.082,    0.137,    0.006,    2.929,    0.148,   -0.458,
        1.037,    0.596,    0.283,   -1.144,    0.127,    0.071,   -2.074,
        0.153,    1.529,    1.304,   -0.149,   -0.004,    0.367,    0.018,
        0.177,   -1.197,   -0.303,   -0.293,    0.507,   -2.882,    0.105,
       -0.289,   -0.138,    0.143,    0.976,    0.519,   -1.453,    2.332,
       -1.555,   -0.790,    0.498,   -1.618,   -0.336,   -1.659,    0.654,
       -1.029,   -1.034
    },
    {   0.804,   -0.324,   -0.157,    1.107,   -0.007,    0.125,   -0.459,
       -0.314,    0.056,    3.594,   -0.040,   -1.107,    0.404,   -2.549,
       -0.082,   -0.505,   -0.106,   -0.121,   -2.194,   -0.024,    0.016,
        0.010,   -0.094,   -0.008,    1.716,    1.342,   -0.520,    2.709,
       -0.092,   -0.809,    0.473,    2.017,   -0.155,    0.067,    0.243,
       -0.261,   -1.302,    0.023,   -0.495,   -0.546,   -2.614,    0.259,
       -0.299,   -0.133,   -0.048,   -2.017,   -0.257,   -0.454,    0.574,
       -0.593,   -0.132,   -0.869,   -1.938,    0.450,   -0.719,    0.018,
       -0.362,   -0.069,    2.222,    0.050,   -0.087,   -0.023,   -0.155,
       -1.595,   -0.280,   -1.289,    0.558,   -0.096,   -0.010,    0.157,
        0.004,    0.090,   -1.831,   -0.340,    1.173,   -0.906,   -0.052,
        0.168,    0.234,   -0.007,    0.279,    0.464,    1.603,    0.483,
       -0.350,   -0.927,   -1.862,    0.046,   -0.418,   -0.066,   -1.332,
        0.113,    0.984,    0.825,    0.009,   -0.064,    0.186,    0.037,
        0.067,   -0.589,   -0.289,   -0.092,    0.830,   -2.400,   -0.108,
       -0.055,    0.010,    0.076,    2.572,    0.878,   -1.148,    4.215,
       -1.165,   -1.024,    0.420,   -1.491,   -0.894,   -1.053,   -0.036,
       -1.581,   -0.759
    },
    {   0.811,   -0.102,   -0.157,    0.995,   -0.086,    0.043,   -0.325,
       -0.277,    0.090,    3.869,   -0.006,   -1.169,    0.556,   -2.852,
       -0.161,   -0.729,   -0.548,    0.113,   -2.384,    0.019,   -0.004,
       -0.023,   -0.119,   -0.008,    2.166,    1.673,   -0.645,    2.176,
       -0.087,   -0.763,    0.329,    1.632,   -0.105,   -0.074,    0.014,
       -0.182,   -1.422,   -0.019,   -0.693,   -0.868,   -2.987,    0.196,
       -0.159,   -0.140,   -0.135,   -2.387,   -0.140,    0.134,    0.295,
       -0.232,    0.150,   -0.845,   -1.726,    0.341,   -0.794,   -0.051,
       -0.281,   -0.122,    2.407,    0.042,    0.218,    0.104,   -0.229,
       -2.258,   -0.021,   -1.544,    0.839,    0.024,   -0.225,   -0.105,
        0.237,    0.001,   -2.763,   -0.325,    1.619,   -1.321,   -0.318,
        0.084,   -0.087,   -0.217,    0.623,   -1.309,   -0.527,   -0.378,
        0.451,    0.048,    1.426,    0.393,    0.049,    0.551,   -1.310,
        0.128,    1.065,    0.611,   -0.127,   -0.031,    0.055,    0.030,
        0.048,   -0.626,    0.006,   -0.220,    0.671,   -2.530,   -0.211,
       -0.566,   -0.463,    0.249,    1.274,    1.362,   -1.158,    2.696,
       -1.433,   -0.778,    0.632,   -1.495,   -0.727,   -0.624,   -0.306,
       -1.851,   -1.001
    },
    {   0.679,   -0.242,   -0.293,    1.323,   -0.266,    0.196,   -0.432,
       -0.401,   -0.042,    3.644,    0.009,   -1.152,    0.314,   -2.721,
       -0.092,   -0.112,    0.086,   -0.086,   -2.186,   -0.026,    0.022,
        0.099,   -0.153,   -0.113,    2.128,    1.682,   -0.596,    2.293,
        0.048,   -0.864,    0.395,    1.501,   -0.164,    0.257,    0.180,
       -0.199,   -1.723,   -0.158,   -1.200,   -1.396,   -3.344,   -0.135,
       -0.140,   -0.219,   -0.371,   -2.026,   -0.197,   -0.155,    0.156,
       -0.464,   -0.624,   -0.515,   -1.471,    0.202,   -0.711,   -0.006,
       -0.378,   -0.003,    2.014,   -0.052,    0.085,   -0.091,   -0.206,
       -2.357,   -0.155,   -1.639,    0.684,    0.021,   -0.350,   -0.151,
        0.154,    0.055,   -1.561,   -0.188,    0.856,   -0.736,   -0.112,
        0.040,   -0.110,   -0.183,    0.111,   -1.070,   -0.967,   -0.487,
        0.641,   -0.063,    1.041,    0.571,   -0.183,    0.643,   -1.411,
        0.157,    1.015,    0.840,   -0.108,   -0.073,    0.091,    0.091,
        0.092,   -1.262,   -0.040,   -0.394,    0.461,   -3.070,    0.130,
       -0.431,   -0.051,   -0.004,    0.307,    0.611,   -1.107,    2.145,
       -1.428,   -0.645,    0.562,   -1.318,   -0.844,   -1.544,   -0.216,
       -1.827,   -0.955
    },
    {   1.947,    0.034,    0.123,    1.985,   -0.327,   -0.047,   -0.379,
       -0.301,    0.276,    3.459,   -0.021,   -1.120,    0.422,   -2.779,
       -0.123,    0.007,    0.001,   -0.120,   -1.926,   -0.037,    0.021,
        0.066,   -0.052,   -0.071,    1.589,    1.280,   -0.510,    2.636,
       -0.083,   -0.468,    0.362,    2.059,   -0.080,    0.491,    0.379,
       -0.265,   -1.277,    0.065,   -0.832,   -0.707,   -2.531,    0.122,
       -0.044,   -0.031,   -0.163,   -1.897,   -0.118,    0.164,    0.307,
       -0.481,   -0.121,   -0.690,   -1.684,    0.127,   -0.853,   -0.115,
       -0.183,    0.013,    2.542,   -0.035,    0.248,    0.176,   -0.169,
       -2.731,   -0.011,   -1.914,    1.295,    0.082,   -0.232,   -0.188,
       -0.075,   -0.022,   -2.823,   -0.073,    1.821,   -1.572,   -0.371,
       -0.239,   -0.176,   -0.459,    0.779,   -2.820,   -0.206,    0.090,
        0.995,    1.122,    0.363,   -0.261,   -0.468,   -1.696,   -1.589,
        0.146,    1.361,    0.678,    0.143,    0.052,    0.119,    0.073,
       -0.042,   -0.982,   -0.133,   -0.082,    0.798,   -2.781,   -0.016,
       -0.391,   -0.175,    0.163,    1.501,    0.600,   -0.886,    2.848,
       -0.980,   -0.814,    0.429,   -1.270,   -0.602,   -0.564,    0.059,
       -1.310,   -0.810
    },
    {   1.147,   -0.171,   -0.227,    1.304,   -0.006,    0.053,   -0.352,
       -0.364,    0.044,    3.128,   -0.065,   -0.903,    0.331,   -2.340,
       -0.197,   -0.259,   -0.171,    0.079,   -2.229,   -0.016,    0.086,
        0.053,   -0.077,    0.002,    2.029,    1.575,   -0.623,    2.627,
       -0.140,   -0.484,    0.445,    1.966,   -0.247,    0.273,    0.216,
       -0.163,   -1.219,   -0.206,   -0.863,   -0.968,   -2.660,    0.166,
        0.002,    0.072,   -0.316,   -1.804,   -0.511,   -0.537,    0.967,
       -0.799,   -0.410,   -0.205,   -1.424,   -0.203,   -0.625,   -0.047,
       -0.086,   -0.032,    2.351,   -0.162,    0.194,    0.156,   -0.232,
       -2.369,   -0.325,   -2.123,    1.492,   -0.046,    0.240,    0.252,
        0.086,   -0.173,   -3.089,   -0.640,    1.729,   -1.207,    0.071,
        0.963,    0.323,   -0.302,    0.315,   -4.155,    0.011,    0.372,
        0.346,    0.025,   -0.692,   -1.068,    0.264,   -0.088,   -1.571,
        0.169,    1.329,    0.749,    0.022,   -0.019,    0.109,    0.124,
        0.073,   -0.696,   -0.109,   -0.112,    0.718,   -2.524,   -0.106,
       -0.406,   -0.322,    0.333,    1.495,    0.976,   -0.905,    2.702,
       -1.092,   -0.854,    0.390,   -1.449,   -0.708,   -0.361,    0.076,
       -1.407,   -1.002
    },
    {   1.061,    0.009,    0.017,    1.335,   -0.109,    0.090,   -0.361,
       -0.336,   -0.143,    4.068,    0.061,   -1.320,    0.628,   -3.195,
       -0.017,   -0.213,   -0.164,   -0.180,   -2.022,    0.013,    0.036,
        0.042,   -0.054,   -0.048,    1.488,    1.245,   -0.410,    2.703,
        0.029,   -0.611,    0.583,    1.615,   -0.138,    0.174,    0.309,
       -0.323,   -1.509,   -0.097,   -1.053,   -0.979,   -2.913,    0.120,
       -0.131,    0.083,   -0.038,   -1.770,   -0.349,   -0.302,    0.780,
       -0.529,   -0.243,   -0.426,   -1.552,    0.072,   -0.719,    0.074,
       -0.227,   -0.162,    2.397,   -0.060,    0.211,    0.218,   -0.278,
       -1.853,   -0.404,   -1.501,    1.194,    0.070,   -0.118,   -0.108,
       -0.356,   -0.077,   -1.756,   -0.058,    1.129,   -0.547,   -0.114,
        0.092,    0.172,   -0.018,    0.147,   -2.901,    0.905,   -0.077,
        0.088,    0.559,   -1.250,   -0.452,    0.307,    0.588,   -1.368,
        0.080,    1.178,    0.810,   -0.052,   -0.005,    0.234,    0.077,
        0.071,   -0.719,   -0.148,   -0.288,    0.891,   -2.837,   -0.090,
       -0.420,   -0.317,    0.122,    2.359,    0.927,   -0.867,    3.917,
       -1.448,   -0.716,    0.507,   -1.318,   -0.766,   -1.086,   -0.245,
       -1.368,   -0.932
    },
    {   1.010,   -0.112,   -0.079,    1.601,   -0.192,    0.107,   -0.239,
       -0.158,   -0.036,    3.566,    0.001,   -0.831,    0.416,   -2.604,
       -0.094,   -0.039,   -0.083,   -0.046,   -2.308,   -0.006,    0.037,
        0.017,   -0.083,   -0.014,    1.934,    1.549,   -0.596,    2.939,
       -0.012,   -0.613,    0.451,    2.129,   -0.146,    0.310,    0.300,
       -0.212,   -1.343,   -0.077,   -0.744,   -0.932,   -2.466,    0.052,
       -0.019,   -0.032,    0.010,   -0.676,   -0.535,   -0.075,    0.648,
        0.159,    0.004,   -0.359,   -1.463,   -0.066,   -0.258,    0.135,
       -0.208,    0.079,    1.503,   -0.052,    0.021,    0.045,   -0.135,
       -2.190,   -0.465,   -1.634,    1.219,    0.222,    0.062,    0.110,
        0.125,   -0.193,   -3.621,   -0.190,    0.400,   -0.141,    1.103,
        0.604,    0.677,   -0.364,    0.965,   -1.173,   -0.116,    0.654,
       -0.220,    0.044,    0.060,   -0.033,    0.020,    0.043,   -1.959,
        0.218,    1.609,    1.037,   -0.190,   -0.002,    0.224,    0.003,
        0.139,   -0.878,   -0.141,   -0.068,    0.529,   -2.326,    0.072,
       -0.075,   -0.009,    0.036,    1.152,    0.794,   -1.185,    3.058,
       -1.280,   -1.022,    0.233,   -2.061,   -0.692,   -0.135,   -1.676,
       -1.122,   -1.321
    },
    {   1.051,   -0.057,    0.013,    1.497,   -0.308,    0.129,   -0.338,
       -0.415,    0.174,    4.590,    0.091,   -1.119,    0.320,   -3.507,
       -0.242,   -0.830,   -0.590,    0.125,   -2.038,    0.055,    0.104,
        0.027,   -0.216,   -0.038,    1.976,    1.523,   -0.562,    3.186,
        0.106,   -0.605,    0.300,    2.152,   -0.219,    0.134,    0.116,
       -0.347,   -1.420,   -0.130,   -1.166,   -1.002,   -2.952,   -0.065,
       -0.142,    0.022,   -0.210,   -1.627,   -0.034,    0.219,    0.225,
       -0.307,   -0.189,   -0.874,   -1.463,    0.081,   -0.585,   -0.012,
       -0.175,    0.140,    2.164,    0.003,   -0.016,   -0.107,   -0.163,
       -2.624,   -0.346,   -1.466,    1.561,    0.000,   -0.033,   -0.203,
        0.000,   -0.079,    1.588,   -0.553,   -0.593,    0.102,   -0.166,
       -0.715,   -0.072,   -0.564,    0.162,   -3.355,   -0.273,    1.681,
       -1.851,   -0.207,    0.380,    0.374,    0.001,    0.917,   -1.805,
        0.116,    1.445,    0.791,   -0.001,   -0.018,    0.208,    0.129,
        0.029,   -1.645,    0.054,   -0.204,    0.845,   -3.784,   -0.062,
       -0.571,   -0.317,    0.210,    1.192,    0.609,   -0.874,    2.205,
       -0.864,   -0.689,    0.692,   -1.053,   -0.527,   -0.140,   -0.680,
       -1.395,   -0.686
    },
    {   1.135,    0.160,    0.242,    1.700,   -0.326,    0.031,   -0.140,
       -0.233,    0.241,    3.973,    0.008,   -1.112,    0.670,   -2.989,
       -0.052,   -0.062,    0.034,   -0.051,   -2.019,    0.043,    0.159,
       -0.049,   -0.171,   -0.077,    2.061,    1.786,   -0.604,    2.404,
        0.014,   -0.486,    0.350,    1.846,   -0.147,    0.343,    0.435,
        0.023,   -1.506,   -0.038,   -0.789,   -0.929,   -2.475,    0.009,
       -0.055,    0.137,   -0.269,   -3.425,    0.357,    0.262,    0.223,
       -0.306,   -0.516,   -0.859,   -2.169,    0.305,   -1.153,   -0.065,
       -0.220,    0.087,    2.893,    0.029,    0.116,    0.060,   -0.083,
       -3.473,    0.077,   -1.942,    1.325,    0.247,   -0.195,   -0.310,
        0.053,    0.261,    1.888,   -0.032,   -1.475,    0.411,   -0.190,
        0.400,    0.145,   -0.009,   -0.113,   -2.116,    0.045,    1.080,
       -0.875,   -0.052,    0.265,    0.537,    0.077,    0.231,   -1.795,
        0.273,    1.461,    1.167,   -0.117,   -0.049,    0.211,    0.144,
        0.026,   -1.579,    0.126,   -0.318,    1.481,   -4.563,   -0.174,
       -0.815,   -0.365,    0.161,    0.280,    0.720,   -0.956,    1.662,
       -0.908,   -0.757,    0.667,   -1.071,   -0.692,    0.540,   -0.662,
       -1.075,   -0.725
    },
    {   1.300,    0.115,    0.003,    1.695,   -0.201,   -0.025,   -0.219,
       -0.283,    0.127,    4.393,   -0.003,   -1.019,    0.519,   -3.393,
       -0.134,   -0.403,   -0.195,    0.140,   -2.321,    0.036,    0.092,
        0.116,   -0.223,   -0.093,    2.298,    1.814,   -0.601,    2.137,
       -0.094,   -0.558,    0.449,    1.561,   -0.230,   -0.006,   -0.146,
       -0.052,   -1.687,   -0.034,   -0.520,   -1.068,   -3.255,    0.186,
       -0.151,    0.014,   -0.193,   -1.742,   -0.056,   -0.148,    0.072,
       -0.473,   -0.015,   -0.470,   -0.847,    0.115,   -0.514,    0.056,
       -0.072,    0.019,    1.959,   -0.036,   -0.111,   -0.102,   -0.069,
       -2.440,   -0.237,   -1.819,    0.942,    0.102,   -0.024,   -0.222,
       -0.214,    0.028,    2.738,    0.017,   -1.804,    1.156,    0.179,
       -0.252,    0.029,    0.344,   -0.674,    2.455,   -0.534,   -0.407,
        0.549,    0.467,   -0.882,    0.615,    1.325,    0.441,   -1.564,
        0.230,    1.398,    0.894,    0.072,   -0.026,    0.131,    0.175,
        0.128,   -1.095,    0.041,   -0.057,    1.003,   -3.489,   -0.018,
       -0.288,   -0.316,    0.201,    1.403,    0.865,   -0.951,    1.608,
       -1.009,   -0.905,    1.406,   -1.253,   -0.732,    0.466,   -0.054,
       -1.239,   -0.827
    },
    {   1.570,   -0.236,   -0.281,    1.643,   -0.047,    0.079,   -0.179,
       -0.104,    0.069,    2.942,   -0.110,   -0.880,    0.497,   -2.209,
       -0.106,   -0.307,   -0.230,    0.051,   -2.235,    0.029,    0.091,
        0.036,   -0.165,   -0.056,    2.209,    1.736,   -0.644,    2.070,
       -0.044,   -0.513,    0.503,    1.608,   -0.205,    0.229,    0.219,
       -0.198,   -1.777,    0.013,   -0.690,   -1.096,   -3.554,    0.138,
       -0.394,   -0.305,   -0.120,   -2.260,   -0.016,   -0.200,    0.240,
       -0.315,   -0.332,   -1.022,   -1.791,    0.322,   -0.805,    0.014,
       -0.255,    0.041,    2.440,   -0.047,    0.023,   -0.047,   -0.129,
       -3.256,   -0.509,   -2.215,    0.834,   -0.032,   -0.438,   -0.213,
        0.121,    0.450,    2.183,    0.453,   -1.167,    1.039,    0.185,
       -0.426,   -0.316,   -0.079,   -0.576,    1.126,    1.348,   -0.374,
        0.032,    1.219,    0.866,   -0.528,   -0.870,   -1.053,   -1.874,
        0.119,    1.634,    0.836,    0.083,   -0.084,    0.191,    0.233,
        0.169,   -0.922,   -0.026,   -0.253,    0.677,   -2.496,   -0.062,
       -0.126,    0.009,    0.003,    1.079,    0.899,   -1.137,    2.044,
       -1.293,   -0.817,    0.605,   -1.335,   -0.541,    0.735,   -0.152,
       -1.258,   -0.916
    },
    {   1.784,    0.195,   -1.387,    0.877,    0.034,   -0.154,   -0.145,
        0.026,   -0.141,    3.109,    0.037,   -0.633,    0.453,   -2.365,
       -0.011,   -0.046,   -0.043,    0.025,   -2.329,   -0.049,    0.048,
        0.006,   -0.204,   -0.062,    2.191,    1.768,   -0.653,    1.726,
       -0.015,   -0.315,    0.422,    1.271,   -0.132,    0.268,    0.339,
       -0.067,   -1.255,   -0.024,   -0.752,   -0.779,   -2.315,    0.048,
       -0.062,    0.064,   -0.137,    1.064,    0.924,    1.326,    1.425,
       -1.467,   -0.655,   -0.412,   -0.860,   -1.296,   -0.845,    0.085,
       -0.280,    0.243,    1.956,   -0.007,    0.114,    0.110,   -0.085,
       -2.671,   -0.007,   -0.730,    1.965,   -0.055,   -0.533,    0.015,
        0.640,    0.013,    1.578,    0.118,    0.201,    1.914,   -0.224,
        0.039,   -0.325,   -0.350,    0.240,   -1.994,    0.221,    1.648,
       -1.295,    0.548,   -0.349,   -1.326,   -1.654,    1.757,   -1.618,
        0.156,    1.619,    0.648,    0.004,    0.079,    0.115,    0.013,
       -0.014,   -1.107,    0.054,   -0.016,    0.659,   -2.757,    0.086,
       -0.076,   -0.093,   -0.015,    1.479,    0.668,   -1.353,    2.360,
       -1.616,   -1.028,    0.170,   -1.383,   -0.383,    0.762,   -0.094,
       -1.027,   -0.887
    },
    {   1.391,    0.047,   -1.242,    0.528,   -0.051,    0.249,   -0.019,
       -0.079,   -0.224,    3.937,   -0.103,   -0.791,    0.819,   -2.884,
        0.019,   -0.136,   -0.009,   -0.121,   -2.024,    0.028,    0.117,
        0.018,   -0.040,   -0.033,    2.060,    1.652,   -0.537,    2.373,
       -0.130,   -0.518,    0.706,    1.820,   -0.071,    0.232,    0.369,
       -0.138,   -1.820,   -0.111,   -0.708,   -1.266,   -3.396,    0.058,
       -0.038,    0.060,   -0.041,    0.723,    0.173,   -1.318,   -1.159,
       -0.899,   -1.121,    0.155,    0.222,   -0.336,   -0.614,   -0.084,
       -0.127,    0.293,    2.283,    0.051,    0.110,    0.093,   -0.268,
       -2.866,   -0.245,   -1.977,    1.020,    0.348,   -0.401,   -0.079,
        0.235,    0.349,    0.970,   -0.079,   -0.037,    1.149,   -0.110,
       -0.029,   -0.243,   -0.164,    0.030,   -0.603,    0.026,    2.318,
       -1.826,   -0.406,   -0.082,   -0.236,   -0.195,    1.124,   -2.472,
        0.359,    2.065,    1.463,   -0.059,    0.005,    0.600,    0.426,
       -0.035,   -1.497,    0.082,   -0.171,    0.985,   -3.555,    0.006,
       -0.088,   -0.048,    0.156,    0.555,    0.800,   -1.099,    2.158,
       -1.245,   -0.812,    0.168,   -1.235,   -0.763,    1.432,    0.074,
       -0.852,   -0.918
    },
    {   3.235,    0.396,   -1.931,    1.562,    0.256,   -0.198,   -0.175,
        0.020,   -0.595,    3.017,   -0.078,   -0.746,    0.357,   -2.221,
       -0.040,   -0.145,   -0.055,   -0.109,   -2.103,    0.091,    0.135,
        0.043,   -0.186,    0.010,    2.392,    1.958,   -0.620,    2.023,
       -0.099,   -0.371,    0.402,    1.278,   -0.042,    0.049,    0.089,
       -0.067,   -1.230,    0.061,   -0.634,   -0.609,   -2.415,    0.105,
        0.020,    0.165,   -0.211,   -4.770,   -0.318,   -0.579,    0.088,
       -0.139,   -0.262,   -0.753,   -1.651,   -0.001,   -0.523,    0.017,
       -0.177,    0.037,    1.607,    0.033,   -0.116,   -0.148,   -0.073,
       -2.034,   -0.236,   -1.263,    0.837,    0.074,   -0.157,    0.164,
        0.119,   -0.001,    0.825,   -0.097,   -0.182,    0.965,   -0.099,
        0.004,   -0.260,   -0.173,    0.046,    1.885,    0.299,    0.359,
       -1.767,    0.786,    0.547,   -0.216,    1.138,   -0.232,   -1.435,
        0.127,    1.070,    0.803,    0.094,   -0.038,    0.245,    0.180,
        0.048,   -0.608,   -0.050,   -0.100,    0.715,   -2.102,   -0.203,
        0.032,    0.055,    0.082,    1.745,    0.813,   -1.316,    1.435,
       -1.748,   -1.111,    1.723,   -1.761,   -0.746,    1.230,   -0.366,
       -1.633,   -1.055
    },
    {   1.244,    0.351,   -1.124,    0.487,   -0.033,    0.018,   -0.174,
        0.005,    0.058,    3.288,    0.051,   -0.623,    0.471,   -2.454,
        0.044,   -0.167,   -0.043,    0.052,   -1.994,   -0.010,    0.081,
        0.023,   -0.119,   -0.028,    1.577,    1.322,   -0.497,    2.776,
       -0.046,   -0.696,    0.791,    1.964,   -0.254,    0.065,    0.283,
       -0.109,   -1.391,   -0.058,   -0.884,   -0.938,   -2.629,    0.165,
        0.016,   -0.022,   -0.175,   -1.516,    0.034,   -0.073,    0.976,
        0.039,   -0.726,   -0.017,    0.336,    0.104,   -0.585,    0.036,
       -0.237,    0.233,    1.544,   -0.058,    0.019,    0.059,   -0.067,
       -2.286,   -0.903,   -1.768,    1.242,    0.034,    0.262,    0.350,
       -0.053,   -0.387,    1.020,   -0.167,   -0.078,    1.131,   -0.251,
       -0.034,   -0.316,   -0.215,    0.011,    2.252,    0.675,    0.322,
       -1.450,    1.003,    0.492,    0.355,    1.349,    0.220,   -1.712,
        0.189,    1.358,    0.880,   -0.134,    0.029,    0.372,    0.180,
       -0.042,   -1.036,   -0.101,   -0.203,    0.455,   -2.270,   -0.018,
       -0.249,   -0.177,    0.068,    1.915,    1.002,   -1.468,    3.478,
       -1.296,   -0.741,   -0.402,   -1.641,   -0.599,    1.382,   -0.589,
       -1.210,   -1.301
    },
    {   1.256,    0.119,   -0.875,    0.727,   -0.087,    0.263,   -0.069,
        0.087,   -0.085,    3.153,   -0.050,   -0.965,    0.510,   -2.209,
       -0.052,   -0.175,   -0.065,   -0.092,   -2.211,   -0.030,    0.111,
        0.070,   -0.055,   -0.065,    1.948,    1.584,   -0.498,    1.944,
       -0.045,   -0.286,    0.319,    1.551,    0.015,    0.239,    0.245,
       -0.128,   -1.246,    0.039,   -0.520,   -0.664,   -2.251,    0.003,
       -0.226,   -0.046,   -0.027,   -4.151,   -0.033,   -1.528,   -0.681,
       -0.552,   -0.872,   -0.663,   -0.013,   -0.297,   -0.791,   -0.053,
       -0.215,    0.184,    2.431,    0.098,    0.051,   -0.047,   -0.150,
       -1.919,   -0.165,   -0.998,    0.846,   -0.005,   -0.241,   -0.126,
       -0.017,    0.225,    1.272,   -0.015,    0.166,    1.466,   -0.233,
       -0.057,   -0.188,    0.073,   -0.087,    1.581,    0.069,   -0.017,
        0.078,   -0.186,    0.229,    0.434,    0.728,   -0.069,   -1.989,
        0.277,    1.692,    1.046,   -0.025,    0.030,    0.267,    0.348,
        0.149,   -1.317,    0.033,   -0.170,    0.860,   -2.995,   -0.060,
       -0.017,    0.099,   -0.004,    1.621,    1.353,   -1.222,    2.773,
       -1.756,   -1.060,   -0.870,   -1.381,   -0.607,    0.556,   -1.162,
       -1.153,   -0.863
    },
    {   2.299,    0.313,   -1.284,    1.341,    0.168,   -0.098,    0.236,
        0.477,   -0.556,    3.833,    0.044,   -1.091,    0.286,   -3.087,
       -0.090,   -0.066,   -0.031,    0.025,   -2.103,    0.000,    0.048,
       -0.000,   -0.172,   -0.081,    1.863,    1.434,   -0.552,    1.704,
       -0.027,   -0.451,    0.201,    1.132,   -0.082,    0.183,    0.126,
       -0.146,   -1.420,   -0.083,   -0.672,   -0.870,   -2.437,    0.102,
       -0.058,   -0.120,   -0.126,   -3.370,    0.112,   -0.599,   -0.272,
       -0.719,   -0.842,    0.180,    0.213,    0.104,   -0.745,    0.016,
       -0.195,    0.061,    2.336,   -0.163,    0.092,   -0.029,   -0.135,
       -1.956,   -0.385,   -1.118,    1.105,    0.159,    0.083,   -0.010,
        0.041,   -0.022,    1.020,   -0.019,    0.017,    0.894,   -0.373,
       -0.009,   -0.371,   -0.307,    0.087,    2.165,    0.088,    0.228,
       -0.240,    0.578,    0.170,    0.629,    1.853,   -0.163,   -1.469,
        0.109,    1.187,    0.594,   -0.102,   -0.009,    0.072,    0.026,
       -0.002,   -0.908,    0.117,   -0.172,    0.587,   -2.608,   -0.142,
       -0.278,   -0.160,    0.190,    0.833,    0.647,   -0.960,    2.842,
       -1.655,   -1.034,   -0.663,   -1.171,   -0.724,    1.009,   -0.583,
       -1.725,   -0.835
    },
    {   3.147,    0.600,   -1.591,    1.819,    0.073,   -0.259,   -0.609,
       -0.418,   -0.471,    3.627,   -0.023,   -1.055,    0.385,   -2.637,
        0.087,   -0.544,   -0.548,    0.031,   -2.585,    0.011,   -0.001,
        0.097,   -0.237,   -0.035,    2.696,    2.168,   -0.719,    2.932,
        0.020,   -0.161,    0.498,    2.211,    0.061,    0.020,    0.089,
        0.179,   -1.413,    0.086,   -0.853,   -0.811,   -2.307,   -0.095,
       -0.010,    0.034,   -0.414,   -3.182,    0.155,   -0.801,   -0.484,
       -0.576,   -0.472,   -0.215,   -0.146,   -0.275,   -0.737,   -0.007,
       -0.092,    0.030,    2.236,    0.088,   -0.080,   -0.126,   -0.069,
       -1.835,   -0.302,   -1.204,    0.797,   -0.290,   -0.013,    0.096,
        0.088,   -0.013,    0.643,   -0.172,   -0.190,    1.400,   -0.043,
        0.027,   -0.428,   -0.344,   -0.018,    2.492,   -0.297,    0.231,
       -0.297,    0.175,    0.141,    0.628,    1.467,    0.022,   -1.613,
        0.226,    1.328,    0.887,   -0.026,   -0.178,    0.085,    0.100,
       -0.010,   -0.837,    0.045,   -0.060,    0.778,   -2.376,    0.130,
       -0.240,   -0.166,    0.077,   -0.111,    0.601,   -0.969,    1.620,
       -1.121,   -0.881,   -1.186,   -1.351,   -0.899,    0.734,   -0.976,
       -1.267,   -0.791
    },
    {   1.656,    0.074,   -1.152,    0.777,    0.183,    0.025,   -0.071,
       -0.004,   -0.212,    3.345,   -0.045,   -0.806,    0.395,   -2.539,
       -0.061,   -0.228,   -0.029,   -0.059,   -2.275,   -0.044,    0.000,
        0.071,   -0.191,   -0.093,    2.324,    1.796,   -0.663,    3.029,
       -0.090,   -0.799,    0.552,    2.034,   -0.132,   -0.022,    0.171,
       -0.487,   -1.383,   -0.106,   -0.839,   -0.756,   -2.938,    0.107,
       -0.064,   -0.027,   -0.098,   -3.067,    0.279,   -1.029,   -0.217,
       -0.889,   -0.661,   -0.478,   -0.447,    0.773,   -0.488,    0.000,
       -0.326,    0.078,    1.688,   -0.022,   -0.157,   -0.112,   -0.108,
       -2.640,   -0.262,   -1.523,    1.379,    0.208,   -0.149,    0.174,
       -0.176,   -0.055,    1.002,    0.042,    0.117,    1.629,   -0.462,
       -0.026,   -0.640,   -0.378,    0.081,    2.189,   -0.019,    0.355,
       -0.522,    0.328,    0.304,    0.742,    1.561,   -0.053,   -1.806,
        0.192,    1.234,    1.010,   -0.025,   -0.106,    0.223,    0.063,
        0.147,   -0.695,    0.110,    0.034,    0.662,   -2.164,   -0.076,
       -0.054,    0.018,    0.155,    0.655,    1.221,   -1.194,    1.877,
       -1.376,   -1.066,   -0.331,   -1.803,   -0.556,    0.724,   -0.755,
       -1.349,   -1.003
    },
    {   1.952,    0.330,   -1.136,    0.965,   -0.124,   -0.110,    0.028,
        0.012,   -0.427,    3.125,   -0.015,   -0.777,    0.233,   -2.289,
       -0.062,   -0.023,    0.024,   -0.125,   -2.229,    0.052,    0.018,
        0.114,   -0.192,   -0.080,    1.972,    1.485,   -0.555,    2.135,
        0.040,   -0.462,    0.314,    1.469,   -0.077,    0.259,    0.231,
       -0.199,   -1.750,   -0.098,   -0.868,   -0.874,   -3.036,    0.117,
       -0.015,   -0.037,   -0.210,   -1.209,    0.651,   -1.237,   -0.330,
        1.118,    0.078,    1.155,   -0.118,   -0.520,   -0.804,    0.096,
       -0.351,    0.054,    1.866,    0.012,    0.017,   -0.011,   -0.156,
       -2.693,   -0.513,   -2.064,    1.078,   -0.019,   -0.423,   -0.162,
       -0.191,    0.333,    0.845,   -0.116,   -0.244,    1.221,   -0.020,
        0.190,   -0.033,   -0.009,    0.118,    2.427,    0.095,    0.601,
       -0.529,    0.667,    0.499,    1.311,    2.297,   -0.177,   -1.787,
        0.205,    1.383,    1.092,    0.022,   -0.062,    0.185,    0.044,
        0.124,   -0.938,   -0.000,   -0.011,    0.669,   -2.192,   -0.013,
       -0.161,    0.003,    0.123,    1.974,    1.051,   -1.561,    2.965,
       -1.759,   -1.051,   -0.015,   -1.578,   -0.656,    0.847,   -0.513,
       -1.497,   -0.982
    },
    {   2.532,    0.209,   -1.394,    1.326,    0.017,   -0.075,   -0.165,
       -0.141,   -0.151,    3.412,   -0.070,   -0.725,    0.359,   -2.607,
       -0.120,   -0.222,   -0.225,   -0.118,   -2.150,   -0.031,    0.104,
        0.051,   -0.123,   -0.031,    2.007,    1.615,   -0.597,    1.956,
       -0.083,   -0.542,    0.437,    1.437,   -0.193,    0.088,    0.085,
       -0.170,   -1.372,   -0.137,   -0.590,   -0.962,   -2.560,    0.095,
       -0.295,   -0.207,   -0.126,   -0.726,   -0.389,    0.032,    1.145,
        0.574,    1.424,    0.198,   -0.005,   -0.065,   -0.458,   -0.066,
       -0.323,    0.082,    1.617,   -0.111,    0.004,   -0.161,   -0.165,
       -2.219,   -0.308,   -1.177,    1.174,   -0.002,   -0.383,   -0.118,
        0.088,    0.101,    1.209,   -0.228,   -0.080,    1.345,   -0.383,
       -0.057,   -0.423,   -0.585,   -0.050,    1.521,    0.320,    0.086,
       -1.024,    0.372,    0.322,    0.309,    0.823,   -0.014,   -1.521,
        0.051,    1.175,    0.768,    0.007,   -0.106,    0.146,    0.062,
        0.074,   -0.935,   -0.010,    0.038,    0.529,   -2.054,    0.037,
        0.141,    0.068,    0.102,    0.730,    1.001,   -1.345,    2.483,
       -1.484,   -1.043,   -0.191,   -1.607,   -0.891,    0.942,   -0.874,
       -1.810,   -1.229
    },
    {   1.253,    0.072,   -0.773,    0.619,   -0.180,    0.073,   -0.087,
       -0.019,   -0.150,    2.822,   -0.040,   -0.655,    0.446,   -2.108,
       -0.054,   -0.301,   -0.178,   -0.159,   -2.107,    0.007,    0.095,
        0.117,   -0.154,   -0.028,    2.324,    1.788,   -0.635,    2.484,
       -0.053,   -0.642,    0.266,    1.719,   -0.222,    0.073,    0.059,
       -0.226,   -1.345,    0.011,   -0.549,   -0.540,   -2.602,    0.120,
       -0.104,    0.046,   -0.142,   -1.275,   -0.317,    0.091,    0.969,
        0.263,    0.804,    0.076,   -0.588,    0.673,   -0.441,    0.022,
       -0.305,   -0.100,    1.528,   -0.044,    0.112,    0.010,   -0.142,
       -1.910,   -0.333,   -1.561,    0.736,   -0.099,   -0.414,    0.065,
        0.230,    0.172,    1.102,   -0.091,    0.111,    1.286,   -0.192,
       -0.236,   -0.272,   -0.224,   -0.149,    1.577,    0.179,    0.064,
       -0.360,    0.204,    0.095,    0.430,    1.373,   -0.401,   -1.216,
        0.133,    0.958,    0.640,   -0.124,    0.006,    0.203,    0.139,
        0.070,   -0.664,   -0.138,   -0.046,    0.826,   -2.452,   -0.185,
       -0.519,   -0.260,    0.116,    0.194,    1.427,   -1.541,    1.718,
       -1.243,   -1.129,   -0.395,   -1.990,   -0.601,    0.873,   -0.619,
       -1.668,   -0.974
    },
    {   1.149,    0.066,   -0.671,    0.663,    0.002,    0.050,    0.140,
        0.066,   -0.122,    2.966,    0.165,   -0.823,    0.461,   -2.016,
       -0.124,    0.066,    0.060,   -0.124,   -2.203,   -0.013,    0.055,
        0.112,   -0.059,    0.001,    1.786,    1.461,   -0.512,    2.719,
        0.081,   -0.801,    0.353,    1.940,   -0.142,    0.134,   -0.008,
       -0.135,   -1.310,   -0.049,   -0.470,   -0.718,   -2.403,    0.051,
       -0.119,   -0.026,   -0.146,   -1.355,   -0.468,   -0.005,    1.081,
        0.189,    1.076,    0.395,    0.190,    0.383,   -0.356,    0.009,
       -0.397,    0.108,    1.669,   -0.027,    0.119,    0.021,   -0.163,
       -2.766,   -0.100,   -1.787,    0.537,    0.287,   -0.682,   -0.445,
       -0.094,    0.112,    1.732,    0.092,    0.015,    1.877,   -0.822,
       -0.358,   -0.531,   -0.458,    0.223,    1.573,   -0.004,   -0.046,
       -0.310,    0.512,    0.071,    0.607,    0.945,   -0.205,   -1.314,
        0.037,    1.075,    0.656,   -0.052,   -0.096,    0.135,    0.127,
        0.070,   -1.152,    0.068,   -0.143,    0.596,   -2.227,   -0.030,
       -0.148,   -0.012,    0.142,    2.173,    1.797,   -1.429,    3.541,
       -1.566,   -1.120,   -0.451,   -1.635,   -0.633,    0.479,   -0.831,
       -1.501,   -1.148
    },
    {   2.745,    0.420,   -1.601,    1.048,    0.291,   -0.473,   -0.283,
        0.084,   -0.360,    3.034,    0.132,   -0.581,    0.432,   -2.296,
       -0.046,   -0.167,   -0.135,   -0.253,   -2.183,    0.041,    0.057,
        0.094,   -0.099,    0.046,    1.900,    1.498,   -0.553,    2.528,
        0.026,   -0.371,    0.351,    1.680,   -0.174,    0.043,    0.110,
       -0.162,   -1.423,    0.030,   -0.771,   -0.679,   -2.451,   -0.017,
       -0.002,    0.080,   -0.329,   -1.443,   -0.180,   -0.601,    0.824,
       -0.031,    0.953,    0.271,   -0.341,    0.594,   -0.782,    0.034,
       -0.231,    0.045,    2.183,    0.015,    0.028,   -0.073,   -0.157,
       -2.176,   -0.383,   -1.767,    0.964,   -0.025,   -0.252,   -0.275,
        0.061,    0.341,    0.961,    0.010,   -0.080,    1.097,   -0.229,
        0.038,   -0.110,   -0.072,    0.037,    1.517,    0.203,    0.276,
       -0.623,    0.431,    0.061,    0.741,    1.734,   -0.093,   -1.626,
        0.187,    1.321,    0.884,    0.070,   -0.057,    0.250,    0.209,
        0.175,   -0.826,   -0.089,   -0.010,    1.041,   -2.507,   -0.042,
        0.058,    0.083,    0.004,    1.646,    0.791,   -1.180,    3.103,
       -1.455,   -1.077,   -0.295,   -1.475,   -0.584,    1.150,   -0.442,
       -1.383,   -0.845
    },
    {   2.093,    0.318,   -1.110,    0.865,    0.124,   -0.019,   -0.268,
       -0.063,   -0.100,    3.526,   -0.019,   -0.704,    0.300,   -2.429,
       -0.119,   -0.375,   -0.195,    0.033,   -2.047,    0.002,    0.042,
        0.049,   -0.152,   -0.028,    1.728,    1.359,   -0.455,    2.461,
       -0.112,   -0.500,    0.408,    1.631,    0.003,    0.113,    0.184,
       -0.065,   -1.181,    0.003,   -0.683,   -0.608,   -2.541,   -0.007,
       -0.231,   -0.178,   -0.152,   -1.475,   -0.515,   -0.259,    0.955,
        0.202,    1.371,    0.465,   -0.407,    0.632,   -0.724,   -0.000,
       -0.231,    0.140,    2.109,   -0.005,    0.004,   -0.069,   -0.063,
       -1.644,   -0.216,   -1.255,    0.400,    0.064,   -0.301,   -0.075,
        0.150,   -0.110,    0.542,   -0.184,   -0.277,    1.008,   -0.050,
       -0.007,   -0.263,   -0.196,    0.017,    1.547,    0.116,    0.003,
       -0.260,    0.411,   -0.050,    0.639,    1.138,   -0.234,   -1.879,
        0.228,    1.394,    1.114,    0.083,   -0.124,    0.079,    0.121,
        0.115,   -0.841,   -0.093,    0.056,    0.933,   -2.401,   -0.104,
       -0.361,   -0.270,    0.197,    1.965,    0.982,   -1.306,    2.919,
       -1.366,   -0.973,   -0.366,   -1.397,   -0.772,    1.072,   -0.857,
       -1.297,   -0.885
    },
    {   1.396,    0.215,   -0.897,    0.685,   -0.053,    0.058,   -0.057,
        0.009,   -0.221,    2.880,    0.056,   -0.685,    0.375,   -2.026,
       -0.151,   -0.186,   -0.037,   -0.098,   -2.195,   -0.009,    0.121,
        0.035,   -0.105,   -0.002,    1.901,    1.434,   -0.558,    1.988,
        0.030,   -0.342,    0.279,    1.264,   -0.184,   -0.087,   -0.036,
       -0.032,   -1.033,    0.019,   -0.554,   -0.585,   -1.989,    0.128,
        0.006,   -0.009,   -0.136,   -1.229,   -0.364,    0.066,    0.881,
        0.008,    1.006,    0.344,    0.124,    0.565,   -0.481,    0.037,
       -0.233,    0.065,    1.672,   -0.088,   -0.112,   -0.112,   -0.109,
       -2.256,   -0.183,   -1.514,    0.429,    0.134,   -0.359,   -0.174,
        0.117,    0.217,    1.094,   -0.088,   -0.099,    1.420,   -0.211,
       -0.342,   -0.322,   -0.106,    0.125,    1.973,    0.076,   -0.077,
       -0.125,    0.283,    0.142,    0.660,    1.356,   -0.219,   -1.212,
        0.186,    1.083,    0.775,    0.092,   -0.054,    0.180,    0.103,
        0.086,   -0.833,   -0.136,   -0.017,    0.572,   -2.210,   -0.095,
       -0.102,   -0.036,    0.050,    2.417,    1.269,   -1.695,    2.908,
       -1.926,   -1.184,   -0.381,   -1.952,   -0.599,    0.982,   -0.821,
       -1.431,   -1.250
    },
    {   1.626,    0.337,   -1.280,    0.894,   -0.152,    0.158,   -0.251,
       -0.184,   -0.335,    2.974,    0.056,   -0.684,    0.463,   -2.076,
       -0.029,   -0.184,   -0.154,   -0.047,   -1.781,    0.018,    0.056,
        0.042,   -0.121,   -0.034,    1.632,    1.340,   -0.437,    2.695,
       -0.004,   -0.561,    0.466,    1.870,   -0.068,    0.155,    0.147,
       -0.112,   -1.069,   -0.055,   -0.548,   -0.683,   -1.974,    0.011,
       -0.029,    0.081,   -0.083,   -1.648,   -0.310,   -0.100,    0.881,
       -0.176,    1.251,    0.446,    0.061,    0.632,   -0.285,    0.029,
       -0.245,    0.181,    1.644,    0.014,    0.115,    0.037,   -0.137,
       -1.508,   -0.260,   -1.091,    0.579,    0.051,   -0.277,    0.011,
       -0.056,   -0.026,    0.767,   -0.156,   -0.125,    1.030,   -0.034,
       -0.008,   -0.216,   -0.250,    0.076,    2.016,    0.492,    0.013,
       -1.112,    0.600,    0.104,    0.196,    1.804,   -0.356,   -1.230,
        0.081,    0.908,    0.612,   -0.161,   -0.072,    0.168,    0.112,
        0.026,   -0.950,   -0.088,   -0.097,    0.543,   -2.406,   -0.023,
       -0.322,   -0.258,    0.172,    0.791,    0.808,   -1.393,    2.518,
       -1.577,   -1.039,   -0.355,   -2.002,   -0.840,    1.361,   -0.465,
       -1.952,   -1.356
    },
    {   1.472,    0.075,   -0.920,    0.716,    0.104,   -0.059,   -0.110,
        0.017,   -0.206,    3.257,    0.020,   -0.878,    0.211,   -2.380,
       -0.178,   -0.597,   -0.425,   -0.125,   -2.408,   -0.051,   -0.012,
        0.064,   -0.132,   -0.053,    2.277,    1.765,   -0.653,    1.787,
        0.053,   -0.504,    0.244,    1.183,   -0.185,   -0.033,    0.036,
       -0.204,   -1.150,    0.014,   -0.688,   -0.617,   -2.086,    0.045,
       -0.145,   -0.058,   -0.081,   -1.265,   -0.511,    0.110,    0.674,
       -0.103,    0.679,    0.224,   -0.085,    0.625,   -0.700,    0.061,
       -0.239,   -0.060,    1.928,   -0.067,    0.040,   -0.056,   -0.216,
       -2.521,   -0.134,   -1.417,    0.970,    0.061,   -0.365,   -0.297,
       -0.095,    0.189,    1.106,   -0.095,    0.348,    1.718,   -0.339,
       -0.211,   -0.789,   -0.801,   -0.190,    1.192,   -0.006,    0.117,
       -0.361,    0.129,    0.139,    0.405,    0.856,   -0.087,   -1.488,
        0.104,    1.136,    0.883,   -0.012,    0.001,    0.169,    0.050,
        0.090,   -0.757,   -0.063,   -0.204,    0.770,   -2.725,   -0.144,
       -0.475,   -0.358,    0.133,    1.198,    1.606,   -1.418,    2.173,
       -1.961,   -1.176,   -0.412,   -1.703,   -0.644,    0.408,   -0.866,
       -1.501,   -0.902
    },
    {   1.297,   -0.040,   -1.131,    0.271,    0.125,    0.142,   -0.069,
       -0.201,   -0.149,    2.478,    0.019,   -0.761,    0.388,   -1.927,
       -0.134,   -0.109,   -0.049,   -0.146,   -1.722,   -0.004,    0.075,
       -0.014,   -0.065,   -0.060,    1.581,    1.284,   -0.449,    2.693,
       -0.008,   -0.471,    0.411,    2.016,   -0.065,    0.167,    0.128,
       -0.145,   -1.474,   -0.067,   -0.828,   -0.935,   -2.570,    0.159,
        0.027,   -0.085,   -0.212,   -1.234,   -0.068,   -0.179,    0.952,
        0.471,    0.849,    0.555,    0.242,    0.422,   -0.760,   -0.006,
       -0.089,   -0.072,    2.334,   -0.019,    0.061,   -0.010,   -0.137,
       -2.497,   -0.074,   -1.519,    1.211,   -0.198,   -0.745,   -0.155,
        0.079,    0.447,    0.939,    0.064,    0.119,    1.211,   -0.112,
       -0.038,   -0.426,   -0.303,    0.042,    2.152,    0.051,    0.336,
       -0.600,    0.913,    0.295,    0.082,    1.886,    0.111,   -1.858,
        0.222,    1.666,    1.175,   -0.120,   -0.004,    0.384,    0.131,
       -0.117,   -0.920,   -0.049,   -0.188,    0.901,   -2.653,   -0.041,
       -0.133,    0.181,   -0.006,    1.012,    1.183,   -1.236,    2.408,
       -1.415,   -0.857,   -0.269,   -1.514,   -0.607,    1.086,   -0.249,
       -0.821,   -1.000
    },
    {   1.188,    0.020,   -0.716,    0.653,    0.031,    0.039,   -0.074,
       -0.018,   -0.139,    2.758,   -0.036,   -0.655,    0.157,   -1.980,
       -0.093,   -0.120,   -0.174,   -0.058,   -2.121,   -0.011,   -0.019,
        0.002,   -0.029,   -0.100,    1.958,    1.557,   -0.571,    2.055,
        0.017,   -0.616,    0.197,    1.246,   -0.047,    0.130,    0.180,
       -0.146,   -1.331,   -0.081,   -0.714,   -0.824,   -2.599,    0.026,
        0.003,    0.110,   -0.174,   -1.027,   -0.377,   -0.186,    0.732,
        0.024,    0.831,    0.255,   -0.137,    0.625,   -0.506,    0.036,
       -0.346,   -0.085,    1.395,   -0.018,    0.020,    0.066,   -0.143,
       -1.253,   -0.013,   -0.753,    0.494,    0.157,   -0.338,    0.045,
        0.223,    0.152,    1.217,    0.126,    0.222,    1.513,   -0.065,
       -0.085,   -0.585,   -0.657,    0.562,    2.221,    0.072,    0.212,
       -0.094,   -0.405,   -0.109,    0.288,    1.085,    0.011,   -1.343,
        0.091,    1.186,    0.672,   -0.056,   -0.013,    0.120,    0.043,
        0.104,   -0.710,   -0.040,   -0.142,    0.571,   -2.100,   -0.028,
       -0.097,   -0.122,   -0.002,    1.849,    1.716,   -1.601,    2.651,
       -2.076,   -1.019,   -0.269,   -2.243,   -0.688,    0.486,   -0.787,
       -1.827,   -1.135
    },
    {   1.312,    0.194,   -0.895,    0.452,    0.048,   -0.045,   -0.137,
       -0.098,   -0.157,    3.536,    0.083,   -0.906,    0.543,   -2.724,
       -0.204,   -0.145,   -0.176,   -0.078,   -2.085,   -0.046,    0.033,
        0.058,   -0.148,   -0.016,    2.237,    1.785,   -0.620,    2.183,
       -0.105,   -0.352,    0.297,    1.570,   -0.172,    0.191,    0.161,
       -0.095,   -1.705,    0.019,   -0.764,   -1.015,   -3.265,   -0.054,
       -0.165,   -0.090,   -0.302,   -3.537,   -0.967,   -2.600,    1.783,
       -0.171,    0.732,    0.641,   -0.042,   -0.439,   -0.599,   -0.032,
       -0.038,    0.022,    2.125,   -0.002,   -0.043,   -0.008,   -0.078,
       -2.175,   -0.383,   -1.516,    0.560,    0.028,   -0.393,   -0.062,
        0.255,    0.129,    1.036,   -0.110,    0.078,    1.319,   -0.265,
       -0.122,   -0.190,   -0.239,    0.040,    3.730,    0.974,    0.438,
       -1.041,    1.308,    0.701,    0.831,    3.008,   -0.124,   -1.749,
        0.235,    1.471,    1.133,   -0.038,   -0.001,    0.292,    0.198,
        0.120,   -1.161,   -0.058,   -0.095,    1.024,   -2.957,   -0.169,
       -0.014,   -0.042,    0.101,    0.275,    0.925,   -1.045,    1.827,
       -1.296,   -1.006,   -0.449,   -1.422,   -0.557,    0.983,   -0.351,
       -1.181,   -0.881
    },
    {   2.118,    0.178,   -1.115,    1.027,    0.050,   -0.383,   -1.387,
       -0.502,    0.020,    3.896,   -0.228,   -1.027,    0.457,   -2.989,
       -0.096,   -0.184,   -0.150,   -0.178,   -1.803,   -0.036,    0.017,
       -0.013,   -0.117,   -0.070,    1.870,    1.507,   -0.465,    2.013,
       -0.005,   -0.595,    0.503,    1.420,   -0.040,    0.212,    0.191,
       -0.045,   -1.450,   -0.184,   -0.837,   -0.877,   -2.784,    0.111,
       -0.241,   -0.148,   -0.119,   -0.522,    0.447,    0.640,    1.002,
        0.605,    1.258,    0.334,    0.197,    0.245,   -0.810,    0.137,
       -0.402,    0.086,    2.713,   -0.040,    0.186,    0.025,   -0.100,
       -1.067,   -0.092,   -1.159,    0.166,    0.277,   -0.142,    0.204,
        0.249,   -0.114,    1.110,   -0.039,   -0.418,    0.812,    0.049,
        0.093,   -0.001,   -0.042,   -0.014,    1.282,    0.046,    0.390,
       -0.284,    0.548,   -0.927,    0.326,    2.312,   -0.354,   -1.595,
        0.130,    1.320,    0.915,   -0.070,   -0.033,    0.197,    0.172,
        0.067,   -1.100,   -0.137,   -0.169,    0.901,   -3.122,    0.082,
       -0.084,    0.015,   -0.023,    0.073,    0.415,   -1.031,    1.975,
       -1.493,   -0.870,   -0.290,   -1.162,   -0.804,    2.053,   -0.230,
       -1.196,   -0.901
    },
    {   1.118,    0.102,   -0.785,    0.443,    0.066,    0.055,    0.040,
       -0.015,   -0.114,    2.198,    0.043,   -0.560,    0.283,   -1.626,
       -0.047,   -0.060,   -0.007,   -0.133,   -2.121,    0.027,    0.096,
       -0.019,   -0.045,   -0.024,    1.605,    1.304,   -0.483,    2.547,
       -0.036,   -0.791,    0.384,    1.860,    0.001,    0.160,    0.268,
       -0.207,   -1.534,    0.114,   -0.901,   -0.978,   -3.025,    0.091,
        0.023,    0.109,   -0.205,    0.834,    0.689,    0.189,   -0.422,
        0.326,   -0.642,   -0.242,   -0.713,    1.043,   -0.456,    0.029,
       -0.207,    0.032,    1.291,    0.025,    0.072,    0.032,   -0.092,
       -1.413,   -0.001,   -0.316,    0.935,   -0.229,   -0.102,   -0.252,
        0.116,    0.233,    0.633,   -0.073,    0.201,    0.707,   -0.140,
       -0.043,   -0.295,   -0.192,   -0.128,    1.256,    0.086,   -0.044,
        0.723,    0.266,    0.935,   -0.638,   -0.737,    0.966,   -1.274,
        0.124,    1.025,    0.592,   -0.012,    0.035,    0.323,    0.069,
        0.100,   -0.826,   -0.010,   -0.158,    0.504,   -2.256,   -0.081,
       -0.100,   -0.046,    0.008,    1.989,    2.007,   -1.939,    4.323,
       -1.478,   -0.940,    0.187,   -2.520,   -0.790,    1.112,    0.167,
       -1.599,   -1.160
    },
    {   1.247,    0.058,   -0.834,    0.494,   -0.138,    0.050,   -0.021,
       -0.019,   -0.039,    2.978,   -0.096,   -0.817,    0.406,   -2.260,
        0.049,   -0.098,   -0.092,   -0.073,   -1.891,    0.032,    0.118,
        0.018,   -0.122,   -0.038,    1.812,    1.527,   -0.551,    2.543,
        0.079,   -0.571,    0.380,    2.011,    0.016,    0.296,    0.319,
       -0.124,   -1.094,   -0.061,   -0.653,   -0.788,   -2.310,    0.089,
       -0.065,    0.067,   -0.105,   -4.402,    0.318,    0.295,    0.323,
       -0.216,   -0.611,    0.400,   -0.347,    0.412,   -0.676,    0.016,
       -0.108,    0.118,    1.908,   -0.021,    0.082,   -0.027,   -0.139,
       -2.036,   -0.165,   -0.581,    1.746,   -0.259,   -0.369,   -0.248,
        0.177,   -0.099,    0.501,    0.062,    0.563,    0.459,   -0.281,
       -0.168,   -0.451,   -0.326,   -0.132,    0.843,   -0.133,    0.056,
        0.664,   -0.072,    0.161,    0.152,   -0.135,    0.156,   -1.440,
        0.226,    1.126,    0.705,   -0.011,    0.051,    0.306,    0.236,
        0.120,   -0.865,   -0.093,   -0.181,    0.787,   -2.650,   -0.007,
       -0.182,   -0.053,    0.083,    0.575,    1.617,   -1.480,    2.099,
       -1.008,   -1.004,    0.929,   -1.645,   -0.628,    0.795,    0.848,
       -1.463,   -0.934
    },
    {   1.728,    0.006,   -1.085,    0.614,    0.050,    0.055,    0.135,
        0.078,   -0.117,    2.914,   -0.101,   -0.914,    0.530,   -2.244,
       -0.054,   -0.051,   -0.018,   -0.181,   -2.236,    0.042,    0.064,
       -0.045,    0.011,   -0.004,    2.257,    1.895,   -0.636,    2.482,
       -0.019,   -0.591,    0.549,    1.646,   -0.010,    0.092,    0.254,
       -0.244,   -1.444,   -0.209,   -0.967,   -0.795,   -3.113,    0.171,
       -0.106,    0.077,   -0.060,   -4.350,   -0.442,    0.125,   -0.489,
       -0.049,    0.393,   -1.018,   -1.401,    0.109,   -0.712,    0.031,
       -0.180,    0.081,    2.231,    0.107,    0.047,   -0.003,   -0.130,
       -2.828,   -0.008,   -1.857,    0.861,    0.058,    0.118,   -0.143,
        0.300,    0.095,    0.894,   -0.088,   -0.061,    1.145,   -0.096,
       -0.078,   -0.451,   -0.252,   -0.108,    2.098,    0.235,    0.878,
        0.573,   -0.259,    0.922,    0.576,   -0.030,   -0.131,   -2.026,
        0.219,    1.598,    1.321,    0.025,   -0.076,    0.349,    0.262,
        0.067,   -0.777,   -0.200,    0.024,    1.080,   -3.023,   -0.161,
       -0.063,   -0.080,    0.106,    1.438,    1.262,   -1.039,    1.809,
       -1.287,   -0.880,    1.332,   -1.449,   -0.520,    0.894,    0.198,
       -1.047,   -0.706
    },
    {   1.773,   -0.109,   -1.062,    0.527,    0.012,    0.152,   -0.008,
       -0.005,   -0.023,    2.760,   -0.098,   -0.747,    0.574,   -2.152,
       -0.064,    0.098,    0.139,   -0.204,   -2.084,    0.002,    0.075,
        0.021,   -0.094,   -0.012,    1.990,    1.699,   -0.572,    1.528,
       -0.029,   -0.234,    0.119,    1.142,    0.097,    0.286,    0.305,
       -0.119,   -1.431,   -0.106,   -0.610,   -0.712,   -2.670,    0.108,
       -0.133,    0.002,   -0.160,   -1.685,    0.924,   -1.081,    0.847,
       -0.890,    0.851,   -0.527,    0.122,   -0.039,   -0.953,    0.041,
       -0.246,   -0.118,    2.675,    0.060,    0.137,    0.230,   -0.200,
       -2.713,   -0.216,   -1.751,    1.085,    0.297,   -0.205,    0.030,
        0.029,    0.111,    0.892,   -0.027,   -0.204,    1.019,   -0.201,
       -0.112,   -0.191,   -0.042,   -0.187,    3.220,    0.087,    1.141,
        0.623,    0.411,    1.139,    0.321,   -0.060,    0.341,   -1.674,
        0.084,    1.136,    0.893,   -0.125,   -0.086,    0.144,    0.185,
        0.125,   -0.727,   -0.153,   -0.030,    0.733,   -1.962,   -0.100,
       -0.123,   -0.038,    0.047,   -0.270,    0.826,   -0.897,    1.932,
       -1.721,   -0.886,   -0.174,   -1.145,   -0.538,    1.006,    0.614,
       -1.276,   -0.910
    },
    {   1.869,    0.049,   -1.480,    0.917,   -0.182,   -0.020,   -0.189,
       -0.019,   -0.289,    2.536,   -0.152,   -0.599,    0.459,   -1.990,
        0.115,   -0.069,   -0.095,   -0.122,   -2.594,    0.013,    0.062,
        0.008,   -0.095,   -0.030,    2.109,    1.704,   -0.596,    2.123,
       -0.031,   -0.361,    0.476,    1.626,   -0.052,    0.195,    0.276,
       -0.090,   -1.218,   -0.078,   -0.449,   -0.792,   -2.463,   -0.004,
       -0.199,   -0.166,   -0.360,   -1.503,    0.964,   -0.843,    0.392,
        0.939,   -0.890,    0.068,    0.457,    0.812,   -0.559,   -0.041,
       -0.072,    0.034,    1.993,    0.070,    0.014,   -0.022,   -0.051,
       -1.882,   -0.276,   -1.384,    1.187,   -0.295,    0.171,    0.130,
        0.023,   -0.096,   -2.164,   -0.257,   -0.184,    0.322,   -0.851,
       -0.191,   -0.714,   -1.852,    0.120,    1.041,   -0.033,    0.025,
        1.308,   -0.112,    0.037,   -0.186,   -0.220,    0.071,   -1.665,
        0.123,    1.314,    0.804,    0.097,   -0.042,    0.127,    0.049,
        0.041,   -0.911,   -0.105,   -0.170,    0.611,   -2.448,    0.017,
       -0.156,   -0.048,    0.076,    2.973,    0.658,   -1.246,    4.251,
       -1.080,   -0.818,   -0.266,   -1.626,   -0.494,    0.406,    1.077,
       -1.204,   -1.182
    },
    {   2.761,    0.208,   -1.834,    1.166,    0.315,   -0.409,   -0.196,
        0.288,   -0.350,    4.736,   -0.023,   -0.826,    0.497,   -3.549,
       -0.302,   -0.293,    0.017,   -0.009,   -2.262,    0.045,    0.120,
       -0.009,   -0.198,    0.031,    2.452,    1.805,   -0.722,    3.587,
       -0.024,   -0.570,    0.669,    2.515,   -0.396,    0.193,    0.269,
       -0.198,   -1.837,   -0.062,   -1.302,   -1.290,   -3.337,   -0.022,
       -0.130,    0.026,   -0.231,   -5.118,    0.489,   -1.111,   -0.411,
       -1.102,   -1.000,   -0.387,   -0.100,    0.360,   -0.382,    0.058,
       -0.163,    0.194,    1.850,   -0.088,   -0.088,   -0.078,   -0.007,
       -1.845,   -0.183,   -1.221,    0.972,    0.082,    0.168,    0.100,
       -0.073,   -0.088,   -1.803,   -0.114,   -0.317,    0.796,   -0.354,
       -0.168,   -0.693,   -2.359,    0.441,    0.909,    0.065,    0.003,
        1.085,   -0.088,   -0.063,   -0.349,   -0.147,    0.138,   -1.522,
        0.114,    1.222,    0.790,   -0.112,   -0.091,    0.151,    0.005,
        0.051,   -1.301,    0.061,   -0.056,    0.529,   -3.140,    0.041,
       -0.176,    0.109,    0.297,   -0.790,    0.518,   -0.746,    1.716,
       -0.977,   -0.705,   -0.795,   -1.371,   -0.860,    0.322,    1.049,
       -1.381,   -0.887
    },
    {   1.753,    0.057,   -1.260,    0.780,   -0.058,    0.113,    0.090,
        0.091,   -0.283,    2.616,   -0.053,   -0.619,    0.404,   -1.971,
       -0.011,   -0.058,    0.021,   -0.069,   -2.066,   -0.008,    0.046,
        0.096,   -0.081,   -0.058,    1.721,    1.293,   -0.532,    2.652,
       -0.092,   -0.850,    0.350,    1.844,   -0.182,    0.269,    0.390,
       -0.266,   -1.713,   -0.094,   -0.904,   -0.864,   -3.607,   -0.079,
       -0.397,   -0.252,   -0.175,   -3.707,    0.380,    0.398,   -1.487,
        0.420,    0.134,    1.054,   -0.501,    0.223,   -0.771,    0.053,
       -0.414,   -0.010,    2.312,   -0.072,   -0.033,   -0.041,   -0.213,
       -2.254,    0.017,   -1.532,    0.784,    0.115,   -0.250,    0.046,
        0.119,   -0.003,   -2.901,   -0.069,   -0.167,    0.422,   -0.155,
       -0.368,   -0.360,   -1.913,    0.226,    0.829,    0.021,   -0.040,
        1.004,   -0.222,   -0.153,   -0.219,   -0.075,   -0.028,   -1.462,
        0.142,    1.166,    0.932,   -0.026,    0.056,    0.302,    0.222,
        0.056,   -1.289,   -0.223,   -0.164,    0.721,   -3.089,    0.145,
        0.127,    0.224,    0.050,    2.135,    0.808,   -1.333,    3.544,
       -1.200,   -0.769,   -0.245,   -1.299,   -0.770,    0.604,    1.012,
       -1.535,   -0.793
    },
    {   2.583,    0.505,   -1.238,    1.329,    0.069,   -0.379,   -0.839,
       -0.237,    0.230,    3.776,   -0.010,   -1.001,    0.400,   -2.840,
       -0.185,   -0.487,   -0.217,   -0.173,   -2.075,    0.011,    0.027,
        0.031,   -0.108,   -0.038,    1.646,    1.284,   -0.496,    3.093,
       -0.040,   -0.630,    0.724,    2.379,   -0.052,    0.203,    0.267,
       -0.039,   -1.073,    0.059,   -0.885,   -0.487,   -2.265,    0.017,
       -0.100,   -0.003,   -0.262,   -4.943,    1.102,    1.788,   -0.974,
        0.515,   -0.754,    0.054,   -0.493,    0.663,   -0.663,   -0.028,
       -0.201,    0.262,    2.067,   -0.010,    0.242,    0.109,   -0.081,
       -2.206,   -0.466,   -1.881,    0.601,   -0.074,   -0.268,    0.074,
        0.104,    0.080,   -1.726,   -0.261,   -0.196,    0.020,   -0.086,
       -0.267,   -0.976,   -1.967,    0.268,    1.071,   -0.179,   -0.222,
        1.382,    0.150,    0.082,   -0.004,    0.034,    0.041,   -1.834,
        0.231,    1.480,    0.931,   -0.004,   -0.064,    0.020,    0.042,
        0.276,   -0.896,   -0.168,    0.061,    0.503,   -2.649,   -0.013,
       -0.421,   -0.183,    0.094,    1.845,    0.696,   -1.056,    3.300,
       -1.057,   -0.793,   -0.410,   -1.453,   -0.466,    0.464,    0.836,
       -1.189,   -0.767
    },
    {   1.854,   -0.165,   -1.352,   -0.900,    0.013,   -0.048,   -0.281,
       -0.067,   -0.042,    2.856,    0.091,   -0.856,    0.384,   -2.276,
       -0.086,   -0.127,   -0.058,   -0.118,   -2.197,    0.058,    0.136,
        0.101,   -0.166,    0.018,    2.143,    1.624,   -0.553,    1.757,
        0.080,   -0.427,    0.274,    1.185,   -0.059,    0.224,    0.208,
       -0.223,   -1.258,   -0.049,   -0.685,   -0.652,   -2.733,    0.221,
       -0.232,    0.025,   -0.030,   -2.071,   -0.336,    1.099,   -0.983,
       -0.196,    0.137,    0.053,    0.000,    0.338,   -0.891,    0.005,
       -0.098,   -0.102,    2.234,   -0.060,    0.120,    0.082,   -0.171,
       -2.153,   -0.405,   -0.961,    1.161,   -0.069,    0.039,   -0.057,
       -0.326,   -0.153,   -1.327,   -0.245,   -0.028,    1.347,   -0.411,
        0.015,   -0.051,   -1.063,   -0.275,    1.697,   -0.205,    0.003,
        2.393,   -0.654,    0.237,   -0.540,   -0.525,    0.505,    1.097,
        0.255,   -1.022,   -0.337,    0.768,   -0.006,   -0.835,    1.066,
       -0.984,   -0.582,    0.052,   -0.335,    1.075,   -2.491,   -0.117,
       -0.040,   -0.209,    0.188,    0.635,    1.652,   -1.162,    2.270,
       -1.586,   -1.025,   -1.145,   -1.404,   -0.908,    0.669,    0.425,
        0.046,   -0.748
    },
    {   1.841,   -0.109,   -1.433,   -1.059,    0.083,   -0.014,   -0.115,
        0.013,   -0.093,    3.706,    0.088,   -0.986,    0.388,   -2.797,
        0.167,   -0.068,    0.152,   -0.191,   -2.049,    0.044,    0.041,
        0.098,   -0.095,    0.031,    1.833,    1.477,   -0.471,    2.571,
       -0.051,   -0.432,    0.586,    1.948,    0.006,    0.238,    0.248,
       -0.083,   -1.084,   -0.038,   -0.497,   -0.609,   -2.066,    0.019,
        0.072,    0.126,   -0.131,   -1.879,   -0.304,    0.998,   -0.930,
        0.164,   -0.159,   -0.051,   -0.319,    0.310,   -0.382,    0.061,
       -0.206,    0.052,    1.907,    0.027,    0.103,    0.131,   -0.037,
       -2.026,   -0.357,   -1.484,    0.917,    0.045,   -0.075,   -0.018,
       -0.130,    0.019,   -1.517,   -0.183,    0.002,    0.488,   -0.408,
       -0.049,   -0.282,   -0.811,    0.185,    0.917,   -0.081,   -0.295,
        1.120,   -0.144,   -0.044,   -0.311,   -0.238,   -0.015,    2.851,
       -0.304,    0.097,   -0.328,    0.262,   -0.058,   -0.401,    0.281,
       -0.186,   -1.057,   -0.156,   -0.153,    0.822,   -3.195,   -0.011,
       -0.482,   -0.347,    0.160,    1.037,    1.537,   -1.175,    2.673,
       -1.116,   -1.109,   -0.719,   -1.724,   -0.747,    0.967,    0.968,
        0.506,   -1.091
    },
    {   1.976,   -0.270,   -1.660,   -1.071,   -0.033,    0.104,   -0.356,
       -0.223,   -0.044,    3.864,    0.100,   -1.028,    0.555,   -2.868,
       -0.209,   -0.706,   -0.377,    0.085,   -2.142,   -0.031,    0.066,
        0.013,   -0.206,   -0.030,    2.045,    1.599,   -0.601,    1.958,
       -0.045,   -0.459,    0.437,    1.391,   -0.240,    0.109,    0.263,
       -0.105,   -1.605,    0.115,   -0.812,   -0.934,   -3.264,    0.080,
       -0.427,   -0.358,   -0.364,   -2.476,   -0.575,    1.456,   -1.137,
       -0.020,    0.432,    0.412,   -0.021,    0.254,   -0.861,   -0.098,
       -0.246,    0.018,    2.592,   -0.037,   -0.057,   -0.170,   -0.024,
       -1.859,   -0.320,   -1.371,    0.786,   -0.043,   -0.054,    0.074,
        0.035,   -0.031,   -2.352,   -0.128,   -0.368,    0.653,   -0.423,
       -0.475,   -0.797,   -1.765,    0.036,    1.197,   -0.311,   -0.012,
        1.669,   -0.053,    0.099,   -0.440,   -0.464,    0.059,    7.489,
       -0.871,   -0.470,    0.242,   -1.537,   -0.886,   -0.966,   -0.791,
        0.309,   -1.021,   -0.245,   -0.029,    1.007,   -3.296,    0.008,
       -0.275,   -0.093,    0.071,    1.491,    1.274,   -0.977,    2.068,
       -1.044,   -0.803,   -0.842,   -1.187,   -0.854,    0.451,    0.836,
       -0.840,   -0.700
    },
    {   1.732,   -0.279,   -1.348,   -1.139,   -0.046,    0.033,   -0.262,
       -0.148,   -0.137,    3.094,   -0.019,   -0.865,    0.409,   -2.271,
       -0.092,   -0.318,   -0.316,   -0.079,   -2.315,    0.011,    0.046,
        0.080,   -0.152,   -0.070,    2.146,    1.680,   -0.647,    2.029,
       -0.061,   -0.539,    0.334,    1.448,   -0.089,    0.002,   -0.015,
       -0.169,   -2.094,   -0.029,   -0.859,   -1.067,   -3.901,    0.170,
       -0.374,   -0.141,   -0.399,   -2.682,   -0.593,    1.952,   -1.064,
        0.064,    0.289,    0.195,    0.267,    0.420,   -0.635,   -0.031,
       -0.209,   -0.041,    1.941,   -0.025,   -0.054,   -0.055,   -0.100,
       -2.713,   -0.171,   -1.586,    0.858,   -0.098,   -0.063,   -0.132,
       -0.037,    0.024,   -2.094,    0.036,   -0.471,    0.310,   -0.556,
       -0.120,   -0.882,   -1.587,    0.096,    0.892,   -0.296,   -0.028,
        1.371,   -0.181,    0.064,   -0.345,   -0.277,    0.062,    4.842,
       -0.283,   -0.759,    1.379,   -0.081,    1.269,   -0.028,    0.390,
       -0.176,   -1.056,   -0.037,   -0.373,    0.938,   -3.168,   -0.197,
       -0.166,   -0.185,    0.172,    1.188,    1.242,   -1.265,    2.405,
       -1.167,   -0.808,   -0.725,   -1.340,   -0.918,    0.647,    0.822,
        0.207,   -0.817
    },
    {   1.332,   -0.111,   -1.249,   -0.527,    0.131,    0.016,   -0.146,
       -0.125,    0.004,    3.612,   -0.028,   -0.866,    0.509,   -2.710,
        0.024,   -0.326,   -0.219,    0.048,   -2.189,   -0.038,    0.126,
        0.018,   -0.119,   -0.030,    2.007,    1.579,   -0.574,    2.575,
       -0.014,   -0.550,    0.401,    1.827,   -0.143,    0.208,    0.052,
       -0.049,   -1.977,   -0.047,   -0.912,   -1.079,   -3.351,    0.293,
       -0.210,   -0.087,   -0.271,   -1.871,   -0.007,    1.212,   -0.899,
       -0.031,   -0.123,    0.318,    0.212,    0.418,   -0.417,    0.013,
       -0.267,   -0.004,    1.650,   -0.009,    0.126,   -0.017,   -0.138,
       -1.755,   -0.112,   -1.056,    1.216,   -0.143,   -0.147,   -0.298,
       -0.213,    0.267,   -1.691,   -0.285,   -0.252,    0.768,   -0.307,
       -0.380,   -0.472,   -1.502,    0.416,    1.384,    0.170,    0.389,
        1.660,   -0.117,   -0.023,   -0.351,   -0.426,    0.237,   -1.104,
       -0.362,    0.783,    0.305,    0.748,   -0.498,   -0.098,   -0.133,
       -0.227,   -1.014,   -0.006,   -0.177,    0.513,   -2.520,   -0.014,
       -0.166,   -0.048,    0.030,    1.257,    1.499,   -1.174,    2.455,
       -1.364,   -0.689,   -0.798,   -1.721,   -0.684,    0.409,    0.799,
       -0.092,   -1.195
    },
    {   1.480,   -0.160,   -1.042,   -0.767,   -0.018,    0.111,   -0.270,
       -0.158,   -0.096,    3.023,    0.015,   -0.931,    0.228,   -2.301,
        0.086,   -0.174,   -0.002,   -0.116,   -2.263,    0.068,    0.066,
        0.035,   -0.108,   -0.048,    2.051,    1.589,   -0.604,    2.304,
       -0.099,   -0.403,    0.373,    1.660,   -0.078,    0.197,    0.244,
